7231 30
produit 0.2268273 0.4084805 -0.35848093 1.2112336 0.25500202 -0.35680157 0.24816309 0.78674287 -1.4181708 -0.5148926 1.2795875 -0.3169058 0.31518367 -0.085633345 -0.43986756 -1.1888539 -0.7274857 0.18862191 1.7880303 2.5963612 -0.32048172 0.8492532 1.2882797 0.30618 -0.67975837 1.7265098 -0.40771902 -1.9373096 0.3348233 -2.2084768
interdire 0.25477397 0.37755015 -0.34577185 1.2398566 0.26527023 -0.31552485 0.24824905 0.7774589 -1.4377393 -0.50446343 1.3710473 -0.34102592 0.31355873 -0.10340256 -0.5090211 -1.2801666 -0.77125627 0.23712745 1.8727726 2.6089857 -0.36166358 0.82366973 1.1967456 0.3547906 -0.73965937 1.680732 -0.38778877 -1.9719583 0.3278056 -2.232198
arreter 0.25727955 0.4112473 -0.3540146 1.2234174 0.26465118 -0.32944313 0.27127147 0.7872194 -1.4215087 -0.5112808 1.3415211 -0.31697 0.30930442 -0.07617458 -0.51020044 -1.2787459 -0.7580896 0.2219301 1.8290604 2.609138 -0.33780858 0.84423536 1.1996855 0.3410757 -0.7106178 1.6968355 -0.42472678 -1.9796675 0.35844132 -2.2208931
plastique 0.28326273 0.4407699 -0.45138183 0.9576338 0.3523904 -0.28487527 0.2677792 0.57515633 -1.4338737 -0.3736575 1.0070817 -0.11931275 0.71013594 -0.099415965 -0.526908 -0.5164317 -0.6659841 0.18929529 1.5242802 2.058368 -0.18077046 0.55309784 1.0999749 0.34417683 -0.55854094 1.3025749 -0.58763313 -1.8518898 0.40487403 -2.0880992
faire 0.29405922 0.42069224 -0.3774443 1.3939666 0.2375944 -0.38350147 0.30432752 0.91978323 -1.5124967 -0.5410255 1.5340666 -0.38639748 0.25339818 -0.1037275 -0.59038115 -1.5168892 -0.79758406 0.30373046 2.04984 2.9338021 -0.38090473 0.93377453 1.3260089 0.35083005 -0.7948902 1.8803524 -0.3857897 -2.1710858 0.35264695 -2.4257329
dechet 0.23236914 0.413 -0.34978533 1.243599 0.1911752 -0.37416357 0.28460348 0.815321 -1.3830764 -0.48124215 1.3841071 -0.29692173 0.22888975 -0.097708836 -0.5503096 -1.3068241 -0.6818941 0.2873681 1.8778526 2.6191728 -0.31525755 0.8351265 1.1900383 0.33585107 -0.7607042 1.6621913 -0.38222727 -1.9683312 0.35345882 -2.184857
eau 0.29856464 0.5125583 -0.48189977 1.3880181 0.3223315 -0.38305795 0.2950788 0.9313447 -1.6798434 -0.56405115 1.4840057 -0.40082338 0.44459096 -0.10386798 -0.66770935 -1.4131345 -0.9464799 0.2863025 2.1510072 2.9961739 -0.35024947 0.9433942 1.3743587 0.40269706 -0.7973394 1.9005527 -0.56816655 -2.3667994 0.3888772 -2.60408
mettre 0.29407415 0.40717432 -0.37553063 1.1322296 0.25158888 -0.2950841 0.32375097 0.75265867 -1.3990499 -0.43809676 1.2708962 -0.2506202 0.38435152 -0.1047951 -0.5719924 -1.1436678 -0.6501623 0.2894773 1.7503278 2.5149872 -0.28856024 0.76048446 1.177764 0.3347024 -0.70362055 1.5764227 -0.45250455 -1.9239734 0.33366728 -2.1738427
emballage 0.1975232 0.3173934 -0.3479076 0.78089356 0.22729883 -0.26660126 0.1637567 0.52753437 -1.0826735 -0.34149486 0.85019815 -0.18429853 0.37524226 -0.09385813 -0.3460115 -0.59641343 -0.5233731 0.10231001 1.2773132 1.6862746 -0.1543291 0.50196755 0.89550126 0.26184613 -0.46053287 1.1420279 -0.4124479 -1.438687 0.26220903 -1.6606358
ville 0.25631377 0.35550535 -0.24789809 1.1536095 0.12955646 -0.32390648 0.29620066 0.81262994 -1.279184 -0.5010137 1.2931452 -0.39083257 0.19223666 -0.11106793 -0.53732204 -1.400417 -0.66892034 0.30092785 1.7706848 2.4784493 -0.3542029 0.7756715 1.0832891 0.3184685 -0.6685657 1.5822192 -0.2889121 -1.8263065 0.26093015 -1.9840245
entreprise 0.268896 0.3837799 -0.3214266 1.1852751 0.19789329 -0.351442 0.2959182 0.8200405 -1.316081 -0.46352354 1.3204741 -0.34674516 0.23584537 -0.10891033 -0.52810115 -1.2943951 -0.7123812 0.23771788 1.8232127 2.5614214 -0.31310585 0.8215953 1.1796825 0.30367368 -0.71649027 1.6733099 -0.3217783 -1.9015297 0.29390776 -2.1264224
developper 0.26834142 0.34820825 -0.2664942 1.0791609 0.16830195 -0.33028156 0.21952625 0.75874484 -1.2211655 -0.44607252 1.1938955 -0.35394758 0.20153482 -0.08283862 -0.46089765 -1.2459201 -0.62301236 0.24114762 1.6600723 2.3209393 -0.31816953 0.7601025 1.0560507 0.28120703 -0.6086962 1.5164598 -0.30230087 -1.7352029 0.27111322 -1.920695
consommation 0.22694562 0.3275983 -0.27309716 1.0647233 0.2596078 -0.34188265 0.1927239 0.7263304 -1.204876 -0.4719726 1.2069076 -0.35921058 0.20910503 -0.08901054 -0.40716416 -1.1858915 -0.6546104 0.18905452 1.6400638 2.3198323 -0.28178447 0.7558402 1.1218032 0.27616182 -0.6275007 1.5449829 -0.3251719 -1.7509791 0.28832656 -1.9478256
energie 0.23041 0.35645473 -0.28572118 1.2203146 0.24676742 -0.36026716 0.24936841 0.8198971 -1.4041803 -0.550254 1.3388555 -0.38802424 0.20179194 -0.10482612 -0.53277874 -1.4516261 -0.7910266 0.29261398 1.871948 2.6613946 -0.34757435 0.9159803 1.2517667 0.38058913 -0.69141054 1.7565522 -0.31376183 -1.9960585 0.3149612 -2.218765
grand 0.22084945 0.3355586 -0.3157151 1.0699133 0.19501275 -0.27908966 0.27378654 0.70085275 -1.2175848 -0.42452925 1.1765478 -0.29376262 0.2219983 -0.10671353 -0.45883116 -1.1748116 -0.6259644 0.23731673 1.6406394 2.298104 -0.32067353 0.71528536 1.0799754 0.2798048 -0.60177886 1.5036789 -0.2943683 -1.7405595 0.29756567 -1.9206437
limiter 0.21192218 0.3093292 -0.27177495 1.0419338 0.19509777 -0.32123038 0.23842368 0.69627374 -1.2201022 -0.46582574 1.1625059 -0.31245866 0.22293282 -0.10646218 -0.42391056 -1.1605977 -0.6190331 0.2057993 1.5851674 2.2709715 -0.27261057 0.73733866 1.0200858 0.25743026 -0.6085258 1.4580115 -0.32536805 -1.6804811 0.26142645 -1.8822861
favoriser 0.24560827 0.3287077 -0.29722738 1.0243524 0.21956687 -0.299384 0.24367523 0.7113772 -1.209356 -0.4356023 1.1365992 -0.3368857 0.21912678 -0.07905933 -0.44995618 -1.1546104 -0.63106924 0.22769009 1.5639144 2.2254107 -0.2912844 0.71107626 1.0545951 0.2629245 -0.5607087 1.4597726 -0.31818667 -1.6749978 0.27222702 -1.8748523
creer 0.26791486 0.41946566 -0.34210178 1.3026495 0.20313503 -0.34539378 0.3077241 0.8535548 -1.4347525 -0.52281857 1.4316288 -0.39401445 0.2672388 -0.09550782 -0.58424807 -1.4311267 -0.742035 0.29166976 1.9532764 2.7896826 -0.3756733 0.89334387 1.2677615 0.36702654 -0.7680736 1.7974598 -0.37733948 -2.0414476 0.31528997 -2.3042562
reduire 0.19017544 0.28141144 -0.24265817 0.9614738 0.19618993 -0.2769733 0.19500917 0.62297267 -1.0950367 -0.38822016 1.0328449 -0.30179182 0.20428927 -0.10060823 -0.38649514 -1.0511401 -0.5498369 0.19523548 1.4278682 2.0469577 -0.27161786 0.6624347 0.938641 0.23408104 -0.5478888 1.2994239 -0.29649195 -1.5315567 0.25741053 -1.6940026
local 0.17146477 0.33975258 -0.26739076 1.0061715 0.24539328 -0.31305423 0.18301784 0.6524444 -1.1526854 -0.4485063 1.0942117 -0.24786697 0.23252341 -4.301582e-05 -0.3531154 -1.0863037 -0.6396215 0.18641481 1.5149584 2.149818 -0.29582444 0.6993402 1.0703315 0.26355156 -0.5301056 1.466889 -0.29844102 -1.5865717 0.28111425 -1.7967483
environnement 0.30192286 0.42208144 -0.37823123 1.3840991 0.27859753 -0.3955124 0.31271836 0.9000291 -1.5111562 -0.51895374 1.5195371 -0.40370226 0.25407755 -0.086960986 -0.5646702 -1.520192 -0.76771 0.27068323 2.0384746 2.9342163 -0.39531183 0.95374477 1.3496287 0.35977167 -0.83771485 1.8957679 -0.34156346 -2.1105294 0.34430832 -2.359325
voiture 0.28172663 0.31816614 -0.2817299 1.092269 0.1856844 -0.3333952 0.21980414 0.7571787 -1.2491639 -0.5099681 1.1709355 -0.36098626 0.1877546 -0.11040718 -0.5087284 -1.2864511 -0.67120326 0.28232303 1.6832881 2.3453636 -0.28942618 0.76189977 1.0548611 0.29555526 -0.614619 1.5148828 -0.30998835 -1.7496262 0.24439794 -1.9720815
utiliser 0.22885685 0.33807543 -0.28901127 1.0326236 0.23662746 -0.28444505 0.22172834 0.7011712 -1.1660454 -0.42267826 1.1179311 -0.3150064 0.26275384 -0.07125891 -0.45397684 -1.090257 -0.65017724 0.20051493 1.5522786 2.1963265 -0.2676187 0.6899952 1.0362223 0.30320096 -0.5689389 1.4292085 -0.32325822 -1.6707423 0.24528402 -1.850338
non 0.26007697 0.42001498 -0.37409315 1.2461672 0.26560497 -0.35260978 0.2642636 0.8226436 -1.4687626 -0.501882 1.362818 -0.33410978 0.31082046 -0.09994214 -0.54369724 -1.3113908 -0.7675525 0.25868928 1.8993679 2.66269 -0.33210182 0.8476328 1.2725741 0.3550394 -0.7187761 1.761119 -0.3983679 -2.0324495 0.3317286 -2.2892272
transport 0.26321667 0.32764754 -0.20802134 1.0542322 0.17038341 -0.33104897 0.20004432 0.7501504 -1.160838 -0.48287913 1.1142237 -0.34765604 0.17813401 -0.10954073 -0.43798482 -1.2802137 -0.63845754 0.23036481 1.6239734 2.2626586 -0.31626382 0.78508407 1.0278198 0.29426253 -0.6021556 1.4749267 -0.24281415 -1.649313 0.23617457 -1.8414215
taxer 0.20853259 0.31536132 -0.27222863 1.0054536 0.18492264 -0.25766644 0.19125423 0.65988076 -1.1252707 -0.3948322 1.0475492 -0.30394986 0.2425705 -0.084914856 -0.40444744 -1.0720414 -0.5984269 0.19899741 1.4655372 2.0890684 -0.25602812 0.6882035 0.9940136 0.24575415 -0.58153003 1.3551177 -0.3035215 -1.587919 0.23924045 -1.7415084
place 0.28620762 0.41899136 -0.2981568 1.0036622 0.241977 -0.29729947 0.2883196 0.69862705 -1.259238 -0.419405 1.0879358 -0.16969335 0.3780113 -0.07309994 -0.54654455 -0.94869596 -0.58545357 0.24612857 1.5705835 2.1737883 -0.22360414 0.62657547 1.0568095 0.32457626 -0.5711981 1.3120918 -0.421849 -1.6888239 0.3466818 -1.9274118
bouteille 0.303919 0.48050743 -0.4913462 0.60733503 0.45405042 -0.15449707 0.2586407 0.42224818 -1.3835982 -0.30451745 0.72438544 0.04818779 0.9821056 -0.035690106 -0.52144206 0.034169804 -0.59502184 0.23493375 1.3533336 1.583249 -0.049614858 0.26945812 0.9977977 0.35740903 -0.43333223 1.0147439 -0.7849923 -1.6781778 0.44790706 -1.9586637
obliger 0.21936488 0.33905098 -0.30236438 1.0288265 0.18200013 -0.31298074 0.22449535 0.66078633 -1.1895702 -0.4175903 1.1382539 -0.27360743 0.25924048 -0.08857059 -0.47493804 -1.0718423 -0.599967 0.21129218 1.5595334 2.1813653 -0.29795733 0.69516534 1.0330015 0.29914227 -0.61100656 1.414748 -0.3048985 -1.6592164 0.26483348 -1.841809
supprimer 0.25446936 0.34472996 -0.34961215 1.0074748 0.26997614 -0.2680577 0.22367999 0.6444987 -1.2756673 -0.40260485 1.1095698 -0.23547842 0.38861704 -0.103938185 -0.4765332 -0.9411442 -0.6172369 0.19472753 1.5631164 2.1888974 -0.25329557 0.66480345 1.0407829 0.3012579 -0.60646576 1.3921136 -0.41971648 -1.7314122 0.3137288 -1.9570076
consommer 0.17489873 0.29930663 -0.2529953 0.91071033 0.23495613 -0.3008289 0.18512696 0.6051149 -1.0468934 -0.40144798 1.0267022 -0.2599415 0.15815116 -0.034642313 -0.34840602 -1.0518914 -0.5767019 0.1432752 1.370091 2.019583 -0.25876057 0.6404749 0.97701925 0.2080342 -0.49930665 1.3017395 -0.29868513 -1.4823875 0.27177337 -1.6652182
public 0.21145205 0.32192525 -0.25089476 1.1101934 0.15793198 -0.29936838 0.29595843 0.7980605 -1.2561032 -0.49216717 1.3066776 -0.38982853 0.24217564 -0.10880172 -0.51936686 -1.3418161 -0.66988605 0.25108492 1.7314392 2.4652596 -0.3210602 0.77484304 1.122575 0.30297542 -0.69124 1.5968869 -0.3041982 -1.8373138 0.31126806 -1.9911658
vehicule 0.2735603 0.31090626 -0.29338628 1.1202173 0.18541016 -0.30927405 0.24406077 0.7764865 -1.2695762 -0.51733655 1.2014809 -0.34663954 0.19334282 -0.08539926 -0.5113062 -1.3506684 -0.67516565 0.24519369 1.7503164 2.4342556 -0.31713817 0.82360506 1.0676515 0.30310813 -0.644962 1.5982529 -0.29298347 -1.770869 0.29102534 -2.0160754
bio 0.17496075 0.2838236 -0.31671774 0.95287573 0.20678082 -0.2614898 0.18861768 0.60182744 -1.098929 -0.41191858 1.0599297 -0.240714 0.26635423 -0.024668768 -0.38705593 -1.035149 -0.59306973 0.15642698 1.4284189 2.0754373 -0.26125312 0.67843586 1.0440843 0.2578229 -0.5377318 1.4134766 -0.32340863 -1.5623496 0.25532123 -1.761008
arbre 0.34566846 0.35789284 -0.31868663 1.2446018 0.13199958 -0.35345557 0.38019124 0.82376593 -1.4740638 -0.5010223 1.4982728 -0.36185095 0.26242802 -0.03697339 -0.59003985 -1.4836435 -0.8041531 0.35942662 2.001005 2.7966154 -0.44083685 0.83009 1.1792275 0.41498038 -0.7192931 1.7051736 -0.30661732 -2.0144217 0.27546915 -2.2399886
acheter 0.20137487 0.32217163 -0.33116627 0.9466051 0.26148456 -0.3002207 0.18469566 0.62430453 -1.1668531 -0.38919565 1.0499732 -0.23553006 0.3358717 -0.059924494 -0.4245074 -0.95007604 -0.5803042 0.1465957 1.4389259 2.0603626 -0.2374179 0.63982314 1.0355904 0.25736699 -0.5054289 1.3529797 -0.39170775 -1.594131 0.2799778 -1.7942753
proposer 0.23252192 0.36106598 -0.3376177 1.1432108 0.23892668 -0.3401944 0.24662161 0.77477205 -1.309274 -0.4904488 1.2674985 -0.31884483 0.2842171 -0.10882664 -0.51921254 -1.2289598 -0.68333125 0.22018595 1.7265404 2.4686863 -0.30666256 0.77469647 1.1598095 0.316117 -0.66637313 1.614018 -0.36832237 -1.8539077 0.3141646 -2.0559163
verre 0.30068913 0.5591381 -0.52727085 0.7860686 0.3514673 -0.1849862 0.28345928 0.48980424 -1.5188864 -0.33980548 0.89541656 0.059963707 0.93846184 -0.023826992 -0.6317994 -0.23882285 -0.631325 0.22884096 1.5024077 1.8650393 -0.14235456 0.4412465 1.1027516 0.32648507 -0.5425924 1.1437923 -0.7777366 -1.8213773 0.4968395 -2.134758
imposer 0.21461758 0.32965103 -0.28757864 1.0832886 0.20912723 -0.3106649 0.2609588 0.71332 -1.228071 -0.4428503 1.1860132 -0.29408258 0.24170895 -0.07714178 -0.46813783 -1.187678 -0.63444096 0.24109262 1.6310086 2.3258696 -0.299828 0.7436432 1.0739349 0.28686887 -0.65096265 1.4724727 -0.3028892 -1.7260274 0.28448144 -1.9252096
carbone 0.23492168 0.34310165 -0.2929226 1.2380852 0.1919088 -0.3473806 0.25058943 0.80101615 -1.3249812 -0.47487214 1.3135041 -0.33274058 0.24524666 -0.05673967 -0.48275405 -1.3415415 -0.700483 0.2459416 1.8069159 2.594477 -0.3195907 0.8638214 1.2194932 0.30083793 -0.7259839 1.7213705 -0.3366172 -1.9220067 0.32630792 -2.128976
être 0.25138134 0.38565964 -0.34972325 1.2309674 0.21483998 -0.37634414 0.26341942 0.84850174 -1.3887357 -0.5032993 1.3752035 -0.37020114 0.23848748 -0.09864228 -0.5551631 -1.394141 -0.75385493 0.26727346 1.8951166 2.6665912 -0.36337787 0.8757606 1.2095194 0.3525693 -0.74186265 1.7363281 -0.35981154 -1.983066 0.30674675 -2.2246416
production 0.17305975 0.2970913 -0.25778103 0.9628617 0.20954297 -0.30102167 0.18393059 0.63963383 -1.102404 -0.41847235 1.0601871 -0.3175608 0.20254731 -0.06358558 -0.39138186 -1.0850071 -0.59209126 0.1617131 1.4397639 2.0729964 -0.25991744 0.69943696 0.9712955 0.23280871 -0.53154635 1.3499913 -0.30145127 -1.5399287 0.26502362 -1.7264229
transport_commun 0.23025888 0.28058422 -0.18047154 0.84336764 0.15764233 -0.240415 0.19689861 0.6267609 -0.98874414 -0.39835948 0.93402857 -0.29736197 0.18615009 -0.06486552 -0.37951317 -1.0645868 -0.53312606 0.22180016 1.3328611 1.8939799 -0.27079952 0.63627905 0.8317491 0.22862512 -0.46792957 1.2391126 -0.20585091 -1.349816 0.18185616 -1.5569798
inciter 0.22063807 0.2969793 -0.2616384 0.9908744 0.1745894 -0.30676323 0.21946903 0.6637171 -1.1175921 -0.4136385 1.0740684 -0.26320595 0.21274473 -0.06927457 -0.41273296 -1.0755872 -0.56979257 0.2018999 1.4900312 2.095364 -0.2645534 0.6855152 0.99405444 0.23677616 -0.56927085 1.369983 -0.28281936 -1.557555 0.27078193 -1.7334398
industriel 0.22389317 0.2960938 -0.2943217 0.92323136 0.21107861 -0.28050688 0.2223392 0.61917156 -1.0684333 -0.39214176 1.0198534 -0.26327386 0.24779305 -0.078557685 -0.40963918 -0.9663964 -0.58340895 0.17960773 1.4170408 2.0105107 -0.23545948 0.6425025 0.9772148 0.2775139 -0.54734915 1.3198997 -0.31109616 -1.5530537 0.25942165 -1.7142498
prendre 0.2447999 0.34147853 -0.27895635 1.0585397 0.2170363 -0.29509193 0.20422147 0.72152615 -1.1715007 -0.43864486 1.156795 -0.32098976 0.20510438 -0.061238695 -0.45733902 -1.1947817 -0.64294255 0.25053257 1.6059726 2.2234483 -0.26154953 0.69730806 1.0132103 0.25436002 -0.60556966 1.453482 -0.3028863 -1.671643 0.27137944 -1.8570921
animal 0.28279135 0.3664035 -0.3278357 1.216497 0.25995952 -0.36841813 0.24508119 0.77377456 -1.3460706 -0.52112615 1.3487889 -0.37250543 0.22483468 -0.102349445 -0.52918863 -1.3495026 -0.73887897 0.25539717 1.839974 2.6269317 -0.35617414 0.832197 1.1806233 0.33836263 -0.7426564 1.6868047 -0.36913574 -1.9524776 0.29800647 -2.1421988
utilisation 0.21407482 0.33520594 -0.29050896 0.9617839 0.21056701 -0.28684056 0.19379199 0.65729564 -1.1349573 -0.41914818 1.039543 -0.30720365 0.2811582 -0.0764162 -0.41501775 -1.0084597 -0.58835655 0.17934555 1.4955006 2.0492287 -0.2400316 0.6541991 0.9725158 0.2639033 -0.5618907 1.3368559 -0.3227206 -1.5778254 0.25191954 -1.7690694
taxe 0.18249449 0.27575445 -0.27497867 0.998643 0.16328686 -0.30342543 0.18656537 0.659441 -1.0910509 -0.385252 1.0910919 -0.27204376 0.1885788 -0.06476375 -0.3877112 -1.0811665 -0.5617199 0.20967668 1.4838195 2.1200576 -0.2316707 0.6939261 0.9863277 0.27565563 -0.60980016 1.3937979 -0.25606558 -1.5393267 0.26810646 -1.7131444
produire 0.20945185 0.3121488 -0.27850282 0.93694943 0.19047454 -0.27336127 0.17841491 0.61745554 -1.0954337 -0.40178877 1.0375981 -0.27097246 0.23341434 -0.05579534 -0.4192602 -1.0207947 -0.6009397 0.1745306 1.4343176 2.053628 -0.2697192 0.67012477 0.97995675 0.2723067 -0.54370207 1.3172828 -0.32976687 -1.5537193 0.25944304 -1.7009265
impact 0.16833235 0.2723457 -0.24614362 0.9230995 0.153212 -0.2751574 0.22222126 0.6024026 -1.0455968 -0.34576252 1.0276197 -0.3204067 0.14689793 -0.049749456 -0.3791847 -1.0692673 -0.5365962 0.21541382 1.4162298 2.0710027 -0.24020216 0.6540767 0.8962074 0.22429518 -0.5699958 1.3244972 -0.2372582 -1.4727852 0.20996676 -1.6404268
agriculture 0.22920552 0.33362085 -0.2843732 1.1019976 0.24125251 -0.27580017 0.23235087 0.6895907 -1.2118329 -0.43421152 1.156782 -0.31122068 0.22714509 -0.03526935 -0.44987485 -1.2273147 -0.6734592 0.24484777 1.6167401 2.310076 -0.33639315 0.717597 1.0564218 0.27962184 -0.6164058 1.5120335 -0.30752993 -1.7000823 0.29879418 -1.887339
pollution 0.2694633 0.36851832 -0.29368603 1.2097996 0.2006494 -0.35278764 0.24640992 0.80086136 -1.3467399 -0.48794737 1.337445 -0.38219002 0.21850288 -0.08258166 -0.52930623 -1.3516742 -0.7398293 0.24184567 1.7983778 2.5673556 -0.34166723 0.83163536 1.1609707 0.3306066 -0.7276246 1.6707125 -0.3531024 -1.8838319 0.2958914 -2.1239924
pouvoir 0.25918517 0.34079337 -0.31804135 1.128607 0.20495105 -0.33631268 0.25487012 0.7440957 -1.2763016 -0.4726913 1.2321435 -0.31198338 0.25758672 -0.065053664 -0.47344035 -1.2533029 -0.6662465 0.23302433 1.7191062 2.4304247 -0.3047486 0.7762786 1.108841 0.31278822 -0.65573126 1.5772575 -0.30963397 -1.7953305 0.30886462 -2.011972
polluant 0.20432287 0.2677966 -0.217912 0.85669875 0.14374517 -0.22882968 0.1618645 0.5555307 -0.94171095 -0.3637912 0.9283447 -0.26397365 0.20556852 -0.056993544 -0.33352864 -0.9452603 -0.52362716 0.17492597 1.2885295 1.8042079 -0.24036255 0.57784235 0.850323 0.2387377 -0.50949866 1.1966869 -0.236783 -1.3367734 0.21844694 -1.4986039
petit 0.24950969 0.3188821 -0.2866649 1.0746746 0.19016087 -0.31757176 0.22269917 0.7039149 -1.2025634 -0.46512455 1.1783361 -0.30151358 0.2503645 -0.083167635 -0.47112843 -1.1950581 -0.63881606 0.2303762 1.6405487 2.2789783 -0.2937687 0.71979624 1.0628566 0.2955044 -0.60751975 1.4946264 -0.32176992 -1.715296 0.26481208 -1.8829759
environnemental 0.23769227 0.38415024 -0.31571034 1.2506098 0.24110793 -0.36733323 0.24580038 0.8189841 -1.3940614 -0.50296766 1.3764161 -0.3864553 0.234584 -0.06538251 -0.51235425 -1.4003843 -0.69616383 0.25105038 1.8357847 2.683214 -0.34853762 0.8671346 1.2273067 0.33468974 -0.7251847 1.7112868 -0.31956545 -1.9461931 0.31237525 -2.1887176
enfant 0.25121075 0.33179656 -0.26784584 1.0503443 0.2116446 -0.316804 0.21279944 0.67039263 -1.1413783 -0.36209044 1.1623818 -0.29838738 0.16421902 -0.052615892 -0.44043353 -1.1334441 -0.61049074 0.19983497 1.5668359 2.2285557 -0.28868234 0.6914054 0.99468964 0.24039222 -0.64209014 1.4223807 -0.2985923 -1.6198235 0.27947006 -1.8229467
velo 0.29122862 0.317867 -0.25340694 1.020168 0.18393001 -0.32014656 0.23716678 0.7217023 -1.1596982 -0.46263367 1.1256553 -0.3533975 0.19103482 -0.069350086 -0.502303 -1.2245347 -0.62617314 0.2757972 1.5919814 2.2632444 -0.29246402 0.72962713 0.97260743 0.2603551 -0.6002214 1.456066 -0.30503324 -1.6288853 0.21424344 -1.8493204
eviter 0.25093845 0.38064933 -0.3304804 1.1218874 0.21678653 -0.32999566 0.26152351 0.75246716 -1.2671939 -0.45769948 1.1981785 -0.31618592 0.28097484 -0.07843009 -0.48153773 -1.1646612 -0.67298007 0.23986292 1.6531265 2.3735864 -0.27551726 0.73885494 1.0824699 0.30370075 -0.63832396 1.5304303 -0.35839936 -1.7589655 0.29565454 -2.0041206
ecologiqu 0.23352192 0.33437258 -0.30705562 1.1146692 0.21206762 -0.3043633 0.2402984 0.7156194 -1.2625464 -0.43089622 1.2560585 -0.30875376 0.2609137 -0.07856585 -0.49332994 -1.2475713 -0.66933596 0.25196645 1.6707815 2.4358244 -0.29427403 0.76347375 1.1336294 0.28168026 -0.6745368 1.5529647 -0.32526395 -1.7690305 0.29281867 -1.983647
jeter 0.16722986 0.26890847 -0.27619243 0.9026005 0.18738708 -0.25647178 0.1904971 0.56501 -0.95011103 -0.34759414 0.9803577 -0.19249575 0.1622841 -0.05457734 -0.39398986 -0.9081389 -0.5302536 0.2004368 1.3373741 1.8706954 -0.21957628 0.5942385 0.82746726 0.24937063 -0.5402078 1.199981 -0.27763262 -1.4109919 0.25597402 -1.5175
tri 0.18799177 0.28964567 -0.28419727 1.0009722 0.13724016 -0.28514498 0.2269262 0.62018156 -1.0894784 -0.35701236 1.0958983 -0.21618557 0.21772917 -0.106258504 -0.45364794 -1.0530498 -0.52704525 0.20952313 1.4770501 2.080001 -0.279145 0.6539942 0.9408697 0.26892108 -0.6232089 1.3356593 -0.3210994 -1.5293903 0.29385766 -1.7305572
usage 0.21904534 0.3856631 -0.35562497 0.98176825 0.22968975 -0.2912563 0.20819001 0.67175114 -1.2327538 -0.40495443 1.1035752 -0.30481735 0.37050962 -0.06352089 -0.40412748 -0.98066133 -0.6151267 0.184196 1.5773088 2.1285095 -0.2626975 0.6679292 1.0232443 0.3201781 -0.562332 1.4279921 -0.41325653 -1.7150035 0.29147482 -1.9247214
diminuer 0.21263377 0.27015784 -0.2411597 0.886472 0.17232712 -0.25315654 0.18540756 0.5817454 -1.002931 -0.3908464 0.9824509 -0.295798 0.16777049 -0.07749429 -0.3549314 -0.99909407 -0.5266293 0.2072235 1.34408 1.920663 -0.23089884 0.6032901 0.8491889 0.24658112 -0.5043369 1.2461618 -0.250317 -1.4074833 0.23371245 -1.5743531
consigne 0.23165844 0.34712815 -0.31644577 0.5606978 0.35300025 -0.1180088 0.26223397 0.35789132 -1.1097896 -0.20688638 0.60231626 0.042569455 0.7333612 -0.07069818 -0.47916204 -0.10463643 -0.43015438 0.21342842 1.0941905 1.3639594 -0.06852812 0.2517237 0.84646374 0.27211982 -0.36202344 0.7999797 -0.59396446 -1.325801 0.34887636 -1.5250607
zone 0.27291977 0.3510655 -0.3229229 1.1544313 0.19604664 -0.31541857 0.2784113 0.7926692 -1.3066458 -0.48854417 1.2717286 -0.3730958 0.21938056 -0.085537806 -0.52293366 -1.3474884 -0.71628696 0.26492673 1.7383648 2.5011582 -0.33936262 0.7779236 1.1298031 0.30269682 -0.6677418 1.6227456 -0.34563267 -1.8433177 0.30858776 -2.0439723
nature 0.24728836 0.32399344 -0.30290487 1.0734129 0.21931578 -0.31228018 0.22429478 0.696623 -1.184144 -0.40727374 1.1581278 -0.30971617 0.2296934 -0.08479193 -0.4662448 -1.1396484 -0.64435005 0.2387172 1.6035972 2.2636673 -0.30770242 0.70777535 1.0041491 0.27739343 -0.655073 1.4411322 -0.333186 -1.6893898 0.26996467 -1.8593743
recyclage 0.19986033 0.2886064 -0.2376464 0.8964806 0.16467871 -0.2632939 0.21039945 0.57820237 -0.99435824 -0.3653394 0.9450988 -0.21876994 0.22324254 -0.087677985 -0.4036233 -0.939866 -0.51960456 0.17677426 1.3369122 1.888195 -0.23267823 0.6024302 0.86052287 0.2496674 -0.5241672 1.2145792 -0.2868056 -1.4284399 0.25667053 -1.567449
alimentaire 0.18805327 0.30187625 -0.25327754 0.90313256 0.18748945 -0.27455193 0.18878137 0.56416464 -1.0272044 -0.35705343 0.9765106 -0.24945244 0.23789634 -0.070892714 -0.36554372 -0.8916323 -0.5158912 0.17142467 1.3245201 1.8912628 -0.21787192 0.6237275 0.89332986 0.22620149 -0.52517414 1.2131151 -0.29967096 -1.4356738 0.22195296 -1.5923296
citoyen 0.20633893 0.3288146 -0.2934126 1.0685056 0.19818965 -0.30048794 0.24794884 0.7164537 -1.17921 -0.41719782 1.1736518 -0.3103027 0.17890236 -0.053644318 -0.4321836 -1.1795465 -0.5960093 0.23287089 1.5661875 2.2767093 -0.27305427 0.73938316 1.0216216 0.26821688 -0.6233416 1.4768987 -0.2915754 -1.6526363 0.2846994 -1.8412256
ecole 0.22436939 0.2934601 -0.25174335 0.9873691 0.19003063 -0.28615353 0.24173449 0.6303438 -1.0694301 -0.37349838 1.1189761 -0.2707937 0.17072225 -0.07633899 -0.4247166 -1.1125507 -0.5576195 0.2342078 1.4904859 2.1344476 -0.25290853 0.66539794 0.9571902 0.22943226 -0.6046275 1.3655353 -0.25357953 -1.5648818 0.25333953 -1.7403636
france 0.21470596 0.30617732 -0.28124726 1.0245632 0.17266306 -0.27820554 0.20425574 0.68063974 -1.1441388 -0.41075963 1.1383231 -0.3118847 0.20644113 -0.052006528 -0.43911615 -1.1484998 -0.60878736 0.23599716 1.5437585 2.1947305 -0.2953969 0.6925011 0.98458624 0.26065376 -0.5941809 1.4315273 -0.2907303 -1.6394273 0.2808342 -1.797794
agriculteur 0.19789784 0.27540365 -0.27466705 0.9398739 0.19707006 -0.25899217 0.19877267 0.59702283 -1.0396223 -0.37821236 1.0393691 -0.27695683 0.18243527 -0.027821 -0.38321945 -1.0541459 -0.5573379 0.1984373 1.3886389 1.9907352 -0.2824645 0.63183624 0.9068541 0.2264607 -0.5259436 1.3362668 -0.28451946 -1.4796029 0.22756541 -1.6295636
remplacer 0.24476716 0.36413813 -0.34378213 0.96873343 0.25543824 -0.26319596 0.2349483 0.62259084 -1.2424189 -0.39494556 1.0606343 -0.24748115 0.39772806 -0.070299596 -0.4592842 -0.91909856 -0.6129842 0.21652995 1.5280943 2.1073644 -0.22830611 0.63473237 1.0245386 0.2827059 -0.58861923 1.3481244 -0.40145496 -1.6692958 0.2996889 -1.9149685
encourager 0.20217255 0.24736993 -0.21373907 0.8387058 0.18059497 -0.23999818 0.16624479 0.58056986 -0.94830203 -0.3502915 0.9401968 -0.26442108 0.1986436 -0.052259944 -0.38028312 -0.9499255 -0.49981484 0.19405076 1.2873542 1.825451 -0.22440282 0.5881999 0.83951396 0.22445972 -0.4743658 1.2011005 -0.2307009 -1.3452287 0.23621927 -1.5036113
terre 0.20823883 0.32958078 -0.31029695 1.0290035 0.20701066 -0.2782106 0.22821881 0.668652 -1.1269941 -0.39033726 1.1356505 -0.27304924 0.173348 -0.07085479 -0.45401436 -1.1508349 -0.6200283 0.21656334 1.564554 2.223753 -0.28952482 0.7030375 0.98163307 0.28403267 -0.601352 1.4262342 -0.31510422 -1.6199454 0.28581902 -1.8068299
exemple 0.23319975 0.341343 -0.292248 1.0582253 0.19843283 -0.30268383 0.22909287 0.6890123 -1.190123 -0.43598488 1.1489333 -0.29928988 0.22121364 -0.091297515 -0.45352134 -1.1628724 -0.64552635 0.24059482 1.6061053 2.2641041 -0.29011443 0.73701847 1.0318282 0.26656586 -0.63282174 1.4442648 -0.31485698 -1.6945966 0.282917 -1.8818982
prix 0.21607889 0.2727986 -0.24419741 0.95251673 0.16730967 -0.2957235 0.21745789 0.6311512 -1.0654292 -0.3762811 1.0240154 -0.26464012 0.22428235 -0.06372399 -0.4138291 -1.0445776 -0.5660375 0.19123259 1.4237148 2.0202725 -0.26020557 0.64928395 0.9479564 0.2561335 -0.56108093 1.3383638 -0.2649604 -1.5136352 0.2212284 -1.6720594
viande 0.13220726 0.26631472 -0.21643053 0.8144239 0.19411145 -0.24186893 0.17099278 0.508012 -0.9189873 -0.38189995 0.8758984 -0.23746638 0.15628144 -0.058496438 -0.31180072 -0.87028444 -0.5107735 0.16690773 1.1927087 1.718201 -0.22027522 0.5680576 0.7963375 0.17386334 -0.45301414 1.1390967 -0.2536899 -1.3157879 0.24349684 -1.4315042
privilegier 0.18508634 0.2793809 -0.23332627 0.8050268 0.1757764 -0.2359067 0.17019467 0.5381388 -0.9655953 -0.37219262 0.9017948 -0.2541259 0.18642849 -0.045820657 -0.34152752 -0.87142885 -0.49438515 0.17316821 1.2387464 1.743791 -0.224391 0.5323208 0.8426949 0.21448319 -0.4307423 1.1387621 -0.26787162 -1.3162372 0.21174961 -1.461703
lieu 0.25331432 0.33691683 -0.27994573 1.0309321 0.1799258 -0.31541038 0.24938928 0.70158553 -1.1774877 -0.43277875 1.1522766 -0.30449834 0.21574461 -0.06401804 -0.47805893 -1.1764207 -0.6499651 0.23731388 1.5765855 2.2486417 -0.30598074 0.7344247 1.0108955 0.2652963 -0.633641 1.4439249 -0.29384753 -1.6650795 0.25299275 -1.8693181
permettre 0.24085328 0.3149544 -0.29045093 1.0586075 0.1773268 -0.30754742 0.24084882 0.7062304 -1.1611872 -0.42230004 1.1662476 -0.330105 0.21676613 -0.079758584 -0.44769868 -1.1796858 -0.6142223 0.23028822 1.5897878 2.2533839 -0.2766902 0.7359201 1.0484532 0.27132127 -0.63351315 1.4799371 -0.28453755 -1.6736401 0.28340417 -1.8507161
nouveau 0.2015021 0.28197542 -0.2615902 0.89500546 0.16386853 -0.26263377 0.21193947 0.6419709 -1.0037863 -0.3652981 1.029924 -0.30958334 0.18297659 -0.08371428 -0.39139566 -1.0756304 -0.5834527 0.18902133 1.3705335 1.971406 -0.27221054 0.6235261 0.87676823 0.26563138 -0.546252 1.2557676 -0.27875042 -1.4550564 0.2161075 -1.6431596
vente 0.19771945 0.29162195 -0.2635644 0.8388584 0.17417623 -0.24592423 0.17202231 0.54069996 -1.012348 -0.3637406 0.9048309 -0.2270865 0.24865222 -0.06906247 -0.362803 -0.8949665 -0.52896726 0.16529617 1.3142736 1.8132595 -0.21953423 0.583778 0.86231804 0.25849396 -0.4915827 1.2025188 -0.29644278 -1.3906709 0.25021994 -1.5606676
avion 0.18975472 0.25195456 -0.16435833 0.76465034 0.15797669 -0.24335435 0.14249092 0.5447874 -0.86402863 -0.35515147 0.8214699 -0.25833285 0.15679383 -0.06764767 -0.3085142 -0.8694812 -0.4699384 0.18001886 1.1555539 1.6397386 -0.19557062 0.5469382 0.7606385 0.2023429 -0.42296857 1.0603068 -0.19874689 -1.2481585 0.17622173 -1.3818568
legume 0.094445944 0.2846039 -0.28374934 0.78953844 0.19448344 -0.32782528 0.16060941 0.57008404 -1.0191917 -0.41777098 0.93818057 -0.19413838 0.24929617 0.020810649 -0.3550107 -0.8793004 -0.54475963 0.10495256 1.2130021 1.7300847 -0.18909296 0.5764028 0.8744865 0.23609301 -0.38797045 1.2233613 -0.35260713 -1.4011748 0.32961002 -1.5938154
donner 0.20344475 0.30570084 -0.25052595 0.94599295 0.1905374 -0.27805632 0.19051285 0.6321436 -1.0616622 -0.3713963 1.0600449 -0.25806978 0.19069277 -0.0525388 -0.40017882 -1.0472804 -0.5782701 0.19292232 1.4177029 2.060364 -0.2645164 0.64604723 0.92895913 0.26081553 -0.5772215 1.3342159 -0.27813056 -1.5193392 0.23937453 -1.6905954
electrique 0.20238805 0.24143144 -0.15416403 0.7450073 0.12867385 -0.20069414 0.13316827 0.50766844 -0.82121503 -0.3605559 0.7980226 -0.22981732 0.12264461 -0.068014756 -0.33850577 -0.8964324 -0.44463956 0.19042096 1.1832042 1.6144599 -0.20135698 0.5211787 0.716 0.21311025 -0.4335754 1.0437106 -0.17884684 -1.18516 0.17069189 -1.3308997
bien 0.20832771 0.2801972 -0.24446447 0.9552356 0.17226583 -0.2714007 0.21272816 0.6163318 -1.0592381 -0.4141593 1.0491539 -0.28143132 0.19887587 -0.059967473 -0.41115236 -1.0791266 -0.5663513 0.19334033 1.453715 2.076849 -0.28548977 0.6518361 0.93376386 0.269541 -0.568263 1.3507165 -0.27142483 -1.515931 0.2602717 -1.7144216
solution 0.19105144 0.28597286 -0.24810871 0.9297458 0.19947842 -0.25552642 0.18997124 0.639788 -1.0576992 -0.37125993 1.0348972 -0.28571284 0.22170782 -0.085060365 -0.41481256 -1.0429457 -0.54459274 0.21405573 1.4053919 2.0090768 -0.26247704 0.646377 0.9431393 0.23555313 -0.5468401 1.3106745 -0.281036 -1.520785 0.2549782 -1.7029517
systeme 0.20241491 0.34905073 -0.2817473 0.932646 0.1885255 -0.2568026 0.23487484 0.62940294 -1.1362772 -0.38089246 1.0198191 -0.24600166 0.30230924 -0.054400843 -0.45899546 -0.97032243 -0.5853373 0.23483706 1.4596572 2.0294325 -0.23166725 0.6328983 0.95200104 0.28041145 -0.5729207 1.321848 -0.36019287 -1.5827955 0.2797082 -1.770386
panneau 0.14131692 0.24611357 -0.20502052 0.76574576 0.13751179 -0.23059428 0.20023224 0.55361515 -0.8668978 -0.36381355 0.8391234 -0.27955824 0.11673115 -0.08524939 -0.38959944 -0.93612397 -0.5249532 0.15715286 1.1413044 1.667277 -0.22225904 0.52846193 0.79342633 0.23214658 -0.4872699 1.0652617 -0.2570079 -1.3178765 0.2331942 -1.3669428
solaire 0.07414677 0.19902715 -0.16589738 0.7278982 0.16183865 -0.2179778 0.1476428 0.5374846 -0.78890294 -0.2898497 0.82604605 -0.21552528 0.14846632 -0.0641039 -0.3188565 -0.9401765 -0.47277743 0.10512594 1.1050987 1.6022657 -0.24507287 0.52769643 0.7497679 0.2435909 -0.4279009 1.0411869 -0.25190833 -1.2662306 0.18012649 -1.3542442
travail 0.23402418 0.3115679 -0.22934029 0.95494485 0.17390537 -0.26446775 0.22456068 0.64563274 -1.0433913 -0.41338986 1.0421708 -0.305408 0.19654733 -0.065448046 -0.4072422 -1.0706087 -0.55929714 0.2341118 1.4726068 2.0583227 -0.2777335 0.62907654 0.9194119 0.2341545 -0.56613714 1.3028399 -0.29191798 -1.5259162 0.2238937 -1.6678264
responsable 0.18273199 0.2784218 -0.21000783 0.84496766 0.16536392 -0.23728912 0.19134362 0.5433469 -0.9096458 -0.33667135 0.908908 -0.22433169 0.15518686 -0.06658115 -0.32372603 -0.9299011 -0.48727667 0.17569387 1.2542413 1.8192229 -0.23377194 0.5709932 0.82457775 0.21590099 -0.49804142 1.1687808 -0.25728562 -1.3347752 0.21149412 -1.4885521
changer 0.1768021 0.25623655 -0.21628036 0.8465715 0.15387985 -0.23141295 0.1531033 0.5537995 -0.90923125 -0.3630157 0.9243165 -0.23540507 0.15573081 -0.060050942 -0.3630501 -0.9242617 -0.48798877 0.17717877 1.2535459 1.8158294 -0.22537205 0.5939918 0.80635947 0.19401972 -0.47471574 1.1427842 -0.25626102 -1.3038851 0.20795047 -1.4696623
an 0.2539211 0.3148767 -0.29200485 1.0520781 0.18521418 -0.29127595 0.22714034 0.6994313 -1.1962917 -0.44628638 1.1835995 -0.29265305 0.22019508 -0.07075982 -0.47922727 -1.1714321 -0.6549673 0.24886516 1.6110162 2.2879739 -0.28117323 0.73567593 1.0284988 0.29453447 -0.6413184 1.4645869 -0.32041255 -1.691184 0.27294666 -1.8739945
vert 0.1703437 0.2410395 -0.20883423 0.8193142 0.11969067 -0.2336674 0.17820273 0.5691734 -0.9040231 -0.34844932 0.88475007 -0.2404391 0.16492878 -0.074023195 -0.38339105 -0.945859 -0.48586383 0.17691618 1.2398708 1.7606338 -0.2474225 0.5797009 0.8087469 0.21685767 -0.4716667 1.1207523 -0.22485083 -1.2847733 0.2081772 -1.455765
vrac 0.12550397 0.21868362 -0.20543802 0.613163 0.13830145 -0.19292395 0.15933743 0.39526123 -0.7611043 -0.29100117 0.65527254 -0.14005977 0.18037066 -0.052783545 -0.25050133 -0.60128343 -0.4051603 0.10512222 0.9485168 1.3617893 -0.15087612 0.446052 0.68699646 0.15618525 -0.33473733 0.8899334 -0.2117075 -1.0483092 0.1778942 -1.1813843
pays 0.2291869 0.31644258 -0.25633413 1.0131224 0.17966063 -0.30944276 0.22555971 0.68003154 -1.1401956 -0.4347849 1.1216524 -0.30486614 0.22384486 -0.08563603 -0.43818757 -1.1525217 -0.6173925 0.20792635 1.5605866 2.1983123 -0.3010427 0.708152 0.996011 0.28560504 -0.592715 1.4229771 -0.3157486 -1.6343712 0.269644 -1.8157641
vie 0.20885809 0.2857219 -0.27004084 0.9944511 0.19655731 -0.26454628 0.20392245 0.63641953 -1.0746844 -0.39626807 1.0830876 -0.29389626 0.18220721 -0.05235105 -0.4361735 -1.1125364 -0.5716624 0.2257893 1.4830424 2.1203198 -0.25958988 0.6764 0.94618446 0.27805045 -0.5732127 1.363103 -0.27229092 -1.5466808 0.26170632 -1.7079645
politique 0.21415044 0.33433568 -0.25802416 1.0265771 0.17015584 -0.30733564 0.2399348 0.6930789 -1.1426396 -0.42512062 1.123684 -0.32365373 0.21046019 -0.060351823 -0.4473937 -1.1486529 -0.5996627 0.2092755 1.5329168 2.182636 -0.2747651 0.6782081 1.0001773 0.2738872 -0.6088255 1.4220903 -0.29030836 -1.6099483 0.25400656 -1.8126644
recyclable 0.09917129 0.19031675 -0.20326826 0.50381625 0.11281349 -0.16246691 0.1049956 0.3038734 -0.6081796 -0.18693486 0.52008116 -0.083707996 0.23557217 -0.06952823 -0.22161749 -0.41203374 -0.28821722 0.086743735 0.73060066 1.0345265 -0.113028415 0.29932523 0.5020638 0.16139467 -0.281036 0.6703762 -0.23419628 -0.8223122 0.14207664 -0.9548309
planete 0.21661638 0.2809866 -0.23650666 0.9508362 0.17064326 -0.26923832 0.19964314 0.6189092 -1.0303235 -0.36604056 1.0349791 -0.26877797 0.19463517 -0.053200494 -0.40647084 -1.0435753 -0.56601864 0.20437273 1.4143554 2.007771 -0.25507987 0.6347829 0.90947217 0.25435895 -0.5528409 1.281056 -0.27758458 -1.4994631 0.23427165 -1.6409132
fruit 0.10971085 0.30887863 -0.20613238 0.7348135 0.21720478 -0.27605453 0.15709557 0.49346456 -0.98616695 -0.42889163 0.8937355 -0.1528222 0.16456099 -0.0097543625 -0.31681445 -0.75760704 -0.43425944 0.11140169 1.1238259 1.6644516 -0.2416314 0.4897955 0.8732286 0.17439367 -0.36587572 1.1170852 -0.3494352 -1.3796195 0.21450365 -1.4164492
magasin 0.16638142 0.27431706 -0.2239459 0.8036584 0.17984766 -0.21883312 0.1953411 0.5467382 -0.9786399 -0.3509255 0.91299856 -0.24529304 0.23107347 -0.07263207 -0.39256513 -0.8660693 -0.5192363 0.16531941 1.2658514 1.7553896 -0.19685413 0.53318 0.84394354 0.24864168 -0.48902407 1.1361573 -0.26424214 -1.3467182 0.21052359 -1.5355872
construction 0.15443999 0.24596827 -0.24722241 0.8573734 0.1596965 -0.22244976 0.18810458 0.58373576 -0.950635 -0.36076418 0.91329205 -0.256739 0.18218215 -0.0816457 -0.39280185 -0.9901818 -0.5250759 0.16095082 1.2738551 1.8481255 -0.2737393 0.61945957 0.82382536 0.267351 -0.5112079 1.1751523 -0.26370162 -1.3946384 0.23853612 -1.5322864
biodiversite 0.23947755 0.32834384 -0.2754173 1.0752126 0.21226752 -0.29236284 0.2539668 0.7047442 -1.2149273 -0.43984136 1.1872787 -0.33902898 0.22081687 -0.05731251 -0.48430404 -1.2153517 -0.6570881 0.26157066 1.6169951 2.3351896 -0.32486802 0.7511411 1.0553211 0.29067254 -0.63462603 1.5018518 -0.30477288 -1.7234498 0.29527676 -1.897616
planter 0.23582679 0.23047447 -0.19541197 0.67045367 0.09364586 -0.16442932 0.2062741 0.44125143 -0.6937078 -0.24674265 0.79911125 -0.18695883 0.102921784 -0.008276535 -0.37339005 -0.8315531 -0.41306633 0.2036948 0.9831178 1.4335598 -0.25774416 0.44834447 0.5797894 0.21657689 -0.4158147 0.851951 -0.22136135 -1.0657305 0.18662333 -1.090847
train 0.19192323 0.23000707 -0.16265804 0.7741581 0.14165302 -0.23970091 0.17543693 0.56897235 -0.8696239 -0.35596254 0.8673521 -0.27172184 0.1585995 -0.06309773 -0.34685776 -0.9163249 -0.4572947 0.20897005 1.2058161 1.6927602 -0.21683322 0.5267963 0.7337836 0.20344496 -0.4443122 1.075823 -0.22453244 -1.2588294 0.18751778 -1.4007967
co_deux 0.22687744 0.31983748 -0.26142576 1.0687485 0.18374974 -0.28595996 0.22708678 0.69974273 -1.1812252 -0.44706663 1.1638416 -0.30491793 0.18646517 -0.057073765 -0.4516779 -1.2158258 -0.6206826 0.25379115 1.6082466 2.2888746 -0.28780553 0.7319439 1.0088181 0.28468996 -0.61452335 1.4697737 -0.31212717 -1.6627631 0.2697276 -1.8626617
revenir 0.20956513 0.31270558 -0.29425788 0.7588345 0.22859228 -0.19165064 0.18284778 0.47711614 -1.0278661 -0.34335655 0.84204084 -0.1559053 0.36448136 -0.030800391 -0.39727274 -0.6920685 -0.50386775 0.19841847 1.2413722 1.7045584 -0.1796375 0.5044624 0.8517612 0.2529069 -0.4475881 1.0751251 -0.3640859 -1.367245 0.2589872 -1.5608951
papier 0.22253643 0.3285148 -0.30179095 0.93579733 0.19875498 -0.2614945 0.205147 0.6156355 -1.1088963 -0.37553015 1.0117058 -0.2307585 0.2829183 -0.080135085 -0.42302707 -0.89742744 -0.5678182 0.20522116 1.4083616 1.9800985 -0.24174549 0.59827787 0.92987424 0.26899266 -0.5651493 1.2740203 -0.34492302 -1.5167255 0.28428918 -1.7141172
recycler 0.19011098 0.2571689 -0.23872219 0.7713984 0.17081155 -0.23677121 0.16343807 0.51405257 -0.89030296 -0.3239425 0.8414636 -0.17815533 0.24460445 -0.060570873 -0.333911 -0.7622466 -0.4743631 0.13999099 1.1618347 1.6552087 -0.17897518 0.50964487 0.76402867 0.20049901 -0.47634256 1.0378461 -0.26772082 -1.2745132 0.21132262 -1.4039547
poubelle 0.14553556 0.24366426 -0.24317732 0.79556465 0.13037547 -0.24245033 0.20175791 0.51486164 -0.8660325 -0.3061097 0.8502293 -0.18602654 0.19168946 -0.07879761 -0.35616124 -0.83813345 -0.4394193 0.18080854 1.1770365 1.6585053 -0.21899395 0.50674176 0.7701284 0.22388352 -0.48364782 1.0341532 -0.25463057 -1.2514852 0.2211144 -1.4024951
pesticide 0.1920977 0.2734365 -0.23539549 0.8239035 0.177847 -0.22581072 0.1579061 0.53889865 -0.94671685 -0.35504422 0.905338 -0.24464628 0.2025643 -0.048350252 -0.33562112 -0.87126774 -0.5166154 0.18972345 1.2455842 1.7623283 -0.25167543 0.5708729 0.8134909 0.25003085 -0.47557247 1.156695 -0.24699593 -1.3095863 0.2435517 -1.4823358
nuit 0.16342992 0.22183822 -0.18446283 0.833603 0.103399105 -0.20738126 0.2115044 0.5565122 -0.9153667 -0.3436927 0.95417273 -0.27079466 0.19120482 -0.102474265 -0.3956305 -0.94880056 -0.5247892 0.17140298 1.273639 1.7551243 -0.23941351 0.5587957 0.8074128 0.20967348 -0.49387363 1.1620681 -0.22223842 -1.3027568 0.209906 -1.4914564
remettre 0.23315927 0.3334822 -0.27789485 0.64653283 0.20555344 -0.1659339 0.21833913 0.45241797 -0.9920204 -0.29062992 0.74312806 -0.080717966 0.41671297 -0.03803322 -0.42277256 -0.49851167 -0.43579832 0.19626494 1.1296818 1.5464576 -0.16140717 0.39056823 0.7832078 0.2338965 -0.42433435 0.94657004 -0.38321796 -1.2929945 0.27624404 -1.4708062
sensibiliser 0.17167374 0.25216347 -0.22295196 0.8177502 0.15017694 -0.25379553 0.1893998 0.5184921 -0.8946311 -0.2899739 0.8837382 -0.24025972 0.13888003 -0.04111844 -0.31994447 -0.8865796 -0.44936797 0.19366407 1.2195662 1.7483826 -0.23641491 0.5396722 0.7757139 0.19421224 -0.5056674 1.0989404 -0.2183731 -1.2507951 0.22796367 -1.4333286
surface 0.12369542 0.20566748 -0.21563645 0.6920275 0.15010369 -0.18784861 0.1832671 0.49994773 -0.7989807 -0.30200323 0.7919754 -0.20455393 0.1711872 -0.071835205 -0.30639422 -0.76172286 -0.43293613 0.13617668 1.0885541 1.497208 -0.18741772 0.47102746 0.7284021 0.22888443 -0.3914217 0.96799135 -0.22414404 -1.1570252 0.16920695 -1.2595404
aider 0.16559269 0.23640788 -0.23335698 0.8120379 0.16727836 -0.24317761 0.18782306 0.51393604 -0.8876849 -0.33357805 0.8908413 -0.22207135 0.1857608 -0.04048571 -0.3570726 -0.92084605 -0.48840836 0.16816714 1.2152019 1.7304076 -0.23672703 0.5481016 0.80856603 0.22164728 -0.47940952 1.124814 -0.23892497 -1.277153 0.21278256 -1.4199344
espace 0.20139079 0.27261913 -0.22161692 0.9192345 0.12812528 -0.260465 0.19855638 0.62129414 -1.0214522 -0.37652707 1.0048352 -0.2713977 0.2003459 -0.08087612 -0.41303432 -1.0519909 -0.5675251 0.20740621 1.3595594 1.9542099 -0.2844893 0.62878895 0.8766478 0.27351585 -0.53058094 1.2609364 -0.2543341 -1.4665504 0.22538242 -1.6203455
deplacement 0.17010202 0.22722973 -0.17054534 0.7131088 0.14385724 -0.2145842 0.1371978 0.50203156 -0.8198031 -0.3422767 0.7695392 -0.23451944 0.13128087 -0.080985226 -0.331663 -0.8644031 -0.44165155 0.17851652 1.1335281 1.5800339 -0.18610732 0.5151147 0.694888 0.16292875 -0.43428573 1.0233605 -0.19669503 -1.1447989 0.17315818 -1.276495
obligatoire 0.16446316 0.24650249 -0.22799897 0.7842026 0.13750105 -0.22099909 0.18319148 0.50674427 -0.894567 -0.31436253 0.852184 -0.22494353 0.18696685 -0.066113204 -0.34819695 -0.84111226 -0.47104347 0.1794278 1.1582512 1.678471 -0.22709739 0.54680365 0.749662 0.19892338 -0.4512552 1.0587693 -0.24374129 -1.2523139 0.2071257 -1.4014848
service 0.17492452 0.24480176 -0.19834378 0.7953807 0.13405803 -0.22671789 0.16988252 0.54080683 -0.9054619 -0.33728606 0.8987007 -0.22959468 0.17581889 -0.06561542 -0.37623727 -0.8970242 -0.47452754 0.17505608 1.2362148 1.7383157 -0.21375352 0.57287496 0.79214954 0.22109543 -0.50326467 1.1478617 -0.22089075 -1.2905798 0.20008811 -1.4469666
moyen 0.1927544 0.23626776 -0.20515873 0.7559938 0.14315684 -0.23121868 0.15570845 0.5125164 -0.86008435 -0.32659572 0.8302247 -0.2492305 0.16115928 -0.056350827 -0.32660124 -0.8941528 -0.44827855 0.1704636 1.1569195 1.6506331 -0.22395 0.5336143 0.7357749 0.1922268 -0.46898887 1.0746235 -0.1939898 -1.2151946 0.18433477 -1.3794429
batiment 0.13669838 0.23598722 -0.22534618 0.8218777 0.16145091 -0.22495276 0.20047751 0.5595963 -0.9208995 -0.33985725 0.9343727 -0.2757893 0.17919467 -0.07710282 -0.374794 -0.9941817 -0.537315 0.18296234 1.286849 1.8121581 -0.23242748 0.586929 0.83945394 0.26049823 -0.5231159 1.1846337 -0.22550878 -1.3809423 0.23197092 -1.4880887
propre 0.1549973 0.2330826 -0.1944447 0.7682417 0.16342509 -0.22902536 0.17983887 0.50749207 -0.850585 -0.33090317 0.828589 -0.23322104 0.1610646 -0.04161906 -0.3401953 -0.8554694 -0.47326744 0.15751483 1.1626834 1.6220299 -0.19823816 0.51763237 0.73860645 0.19304794 -0.43889472 1.0633368 -0.2209502 -1.2157207 0.1833383 -1.3712102
installer 0.14341836 0.23595746 -0.18953805 0.72310764 0.14326982 -0.20256212 0.1893505 0.49644178 -0.83516085 -0.29123673 0.81323594 -0.19668606 0.14758265 -0.040573712 -0.33665243 -0.8519685 -0.43827263 0.14762087 1.1214156 1.6038306 -0.20520145 0.5170142 0.7275331 0.1982647 -0.45287076 1.0168345 -0.23450984 -1.2034998 0.21135053 -1.3201969
vendre 0.14540264 0.23933679 -0.22584112 0.74608094 0.17407672 -0.2297088 0.16519965 0.4851466 -0.8993785 -0.31403387 0.84909266 -0.18689515 0.21353862 -0.033529453 -0.3263897 -0.8022062 -0.47753167 0.13846184 1.1769384 1.6518304 -0.20425572 0.5363422 0.7716111 0.2202072 -0.42175275 1.0780338 -0.26453128 -1.2459308 0.19866657 -1.3940263
monde 0.1956363 0.29038236 -0.2653353 0.956436 0.16944906 -0.25959828 0.2009658 0.6161643 -1.0683582 -0.37903967 1.0423332 -0.28764284 0.19440791 -0.05897891 -0.40341684 -1.0677178 -0.58499014 0.22500977 1.4244598 2.0553353 -0.26550063 0.6566705 0.93815327 0.26080328 -0.569361 1.3271608 -0.28048375 -1.5085515 0.25859466 -1.6830486
contre 0.21319586 0.33517757 -0.27344593 0.92730534 0.1506791 -0.2602956 0.19712423 0.65339845 -1.0947281 -0.3957159 1.0812624 -0.29945037 0.17324445 -0.028718937 -0.38635963 -1.0522283 -0.56541413 0.19000237 1.4496665 2.086892 -0.26153696 0.67367166 0.9195553 0.2553406 -0.56316227 1.3232728 -0.26092952 -1.5105008 0.27937034 -1.7332884
nucleaire 0.14535098 0.22432496 -0.20231284 0.73900276 0.13037549 -0.22848608 0.13656624 0.5221925 -0.8342691 -0.32592684 0.83840966 -0.21894263 0.13272285 -0.053635433 -0.32019252 -0.83364576 -0.45041636 0.13936397 1.1124299 1.6124038 -0.19764984 0.51242673 0.71168196 0.21639863 -0.42095912 1.0254347 -0.20100783 -1.2074499 0.18130597 -1.3431706
heure 0.18220998 0.25527722 -0.22095425 0.850725 0.11930735 -0.22434051 0.21134052 0.5584701 -0.9449184 -0.37316674 0.9736054 -0.26697108 0.16614766 -0.063267164 -0.3903716 -0.98902583 -0.5240023 0.18779749 1.3112535 1.823738 -0.2176927 0.5692575 0.80162776 0.23024623 -0.5335541 1.1888734 -0.25458655 -1.3392534 0.23378962 -1.5212151
transition 0.20853667 0.29050457 -0.2332843 0.9037457 0.16138268 -0.22853892 0.19202581 0.5912335 -1.0030997 -0.3519822 0.94718283 -0.2689219 0.2034718 -0.06500179 -0.37604547 -0.99754375 -0.5298988 0.2158465 1.3101996 1.8981354 -0.22674225 0.59305865 0.86290264 0.25608626 -0.5285859 1.2399913 -0.23073515 -1.393446 0.20229092 -1.5699041
particulier 0.12971993 0.18718185 -0.1690198 0.665507 0.11902869 -0.1775374 0.1452321 0.4595309 -0.7415433 -0.25370333 0.73735607 -0.17370428 0.14944483 -0.045901753 -0.30464056 -0.7633442 -0.3811143 0.13646303 1.0156432 1.4267977 -0.1729948 0.44756886 0.66080284 0.16451766 -0.40644994 0.9161043 -0.17510006 -1.0568222 0.18760933 -1.1713569
achat 0.1638223 0.2548325 -0.22131199 0.7992702 0.15520099 -0.25218958 0.15393953 0.5489294 -0.91071695 -0.35732925 0.89447975 -0.21883915 0.18727876 -0.03823707 -0.3534883 -0.8779002 -0.49366808 0.15682408 1.2437028 1.7605963 -0.22560999 0.5785216 0.8122205 0.21637455 -0.44858402 1.1341844 -0.22966251 -1.2920697 0.21114461 -1.4742463
action 0.20406985 0.2740833 -0.2586783 0.8961923 0.14858694 -0.25311816 0.19985887 0.6043422 -0.99732286 -0.34646308 0.9872901 -0.27172983 0.15494142 -0.04703394 -0.37745646 -1.0134339 -0.50261676 0.18323487 1.3489759 1.9361074 -0.2556138 0.6099749 0.86017585 0.22053964 -0.5496762 1.2327706 -0.24534304 -1.3983148 0.22782238 -1.5884298
mieux 0.15000574 0.2517098 -0.20376383 0.7626833 0.15137564 -0.23134458 0.16493346 0.50197625 -0.8291212 -0.3137951 0.8156064 -0.21077366 0.1440309 -0.031378403 -0.30917406 -0.8438893 -0.44868436 0.16783851 1.1295779 1.6328999 -0.19913523 0.506202 0.7239049 0.1846015 -0.44889545 1.0523891 -0.23100471 -1.1779485 0.20006624 -1.3377286
etat 0.17736234 0.25094336 -0.21087609 0.84867465 0.1558778 -0.22514062 0.19850887 0.57934266 -0.95307994 -0.34300995 0.9222181 -0.25219142 0.17837015 -0.059061743 -0.38232324 -0.97196007 -0.52666515 0.17176262 1.2782856 1.8354251 -0.23986048 0.6044822 0.8445179 0.24859467 -0.49987543 1.197933 -0.24222016 -1.3664756 0.23657936 -1.5228883
sac 0.159535 0.22774279 -0.24748184 0.6373455 0.16617735 -0.19360077 0.16673344 0.4066786 -0.82708967 -0.28792697 0.73967224 -0.17607047 0.25025466 -0.068666495 -0.32120854 -0.58858585 -0.41082272 0.1025108 1.0374789 1.4056497 -0.15182577 0.4272854 0.70095134 0.18080792 -0.37446713 0.94539243 -0.29648867 -1.1546043 0.2143327 -1.2796117
naturel 0.19694625 0.27537888 -0.2562666 0.92027473 0.17281456 -0.23993327 0.20464092 0.6061217 -1.0192047 -0.36301273 1.0038067 -0.25432846 0.1987594 -0.04608248 -0.39872327 -0.98792636 -0.56282973 0.21169524 1.3784821 1.9305489 -0.25045657 0.6203059 0.89335275 0.25572702 -0.53620374 1.2669365 -0.26917276 -1.4406046 0.2226841 -1.5932579
augmenter 0.15434429 0.2192344 -0.17232385 0.68947124 0.12648268 -0.207442 0.15523013 0.4644466 -0.8124848 -0.30058354 0.7697792 -0.19816686 0.14733693 -0.04226048 -0.29103574 -0.78269035 -0.40804002 0.15257223 1.0864766 1.5144503 -0.20637211 0.5027762 0.6865959 0.19527908 -0.41857958 0.98587567 -0.20257749 -1.1176894 0.18468331 -1.2743326
jeune 0.20262983 0.254234 -0.20684594 0.87091273 0.1707128 -0.24974984 0.17993307 0.5554526 -0.92718965 -0.30992112 0.9531511 -0.24744734 0.1353417 -0.06849739 -0.37934932 -0.92232746 -0.503428 0.16763768 1.2973107 1.844314 -0.23394878 0.587697 0.8173092 0.22689514 -0.50859964 1.188572 -0.23533733 -1.3591181 0.21066824 -1.4847739
elevage 0.14806263 0.2280119 -0.18601295 0.75068027 0.15519497 -0.22483075 0.11986873 0.44792986 -0.79921025 -0.30786958 0.79083395 -0.23243152 0.15583466 -0.042915992 -0.28640565 -0.7929341 -0.45368496 0.15280536 1.0743238 1.5297059 -0.22354828 0.47030333 0.7006098 0.18563883 -0.40034184 0.9853233 -0.2121015 -1.1692369 0.19043529 -1.301147
instaurer 0.16450612 0.22475876 -0.1658325 0.67868435 0.10530411 -0.19575559 0.1695705 0.44955188 -0.7879254 -0.28236493 0.7762499 -0.21567181 0.1527828 -0.05867353 -0.3189806 -0.76126945 -0.41250095 0.13839558 1.0723268 1.5001941 -0.19147323 0.49215293 0.67546815 0.1929552 -0.4266321 0.97561127 -0.20124918 -1.1094791 0.18371464 -1.2472706
saison 0.05396753 0.1636037 -0.15906371 0.49001324 0.13346538 -0.18040103 0.10098543 0.34538704 -0.6400237 -0.26357326 0.58488977 -0.14221041 0.11942157 -0.014485247 -0.2068556 -0.5708785 -0.29942694 0.08513739 0.76061785 1.1196958 -0.14629813 0.37674922 0.5671717 0.097463936 -0.22896717 0.7791712 -0.19593613 -0.8778669 0.17178342 -0.92157185
programme 0.15389515 0.24992292 -0.23552674 0.752138 0.15036063 -0.21056934 0.18260875 0.5143778 -0.8946297 -0.28601322 0.88078225 -0.24051113 0.1599981 -0.01928767 -0.3062689 -0.87014294 -0.45549157 0.13804616 1.1410054 1.689918 -0.22377148 0.5549748 0.74939036 0.22296388 -0.4668928 1.0863078 -0.21031383 -1.2042063 0.21658462 -1.3920661
durable 0.15183972 0.23729278 -0.19039987 0.7147615 0.15334915 -0.19707821 0.17658344 0.4717028 -0.810187 -0.31087485 0.81792736 -0.21822327 0.1783954 -0.061274625 -0.3062232 -0.7837576 -0.42064396 0.13771227 1.1057507 1.5956513 -0.18796599 0.50575733 0.72071296 0.20763573 -0.43989182 1.0197456 -0.1992858 -1.1713928 0.2065963 -1.3212589
cesser 0.17140587 0.25283417 -0.22481114 0.78519773 0.16584443 -0.21230032 0.16644534 0.5155885 -0.86286616 -0.3314648 0.8600308 -0.20808929 0.15445586 -0.03625053 -0.32346353 -0.8448631 -0.46499556 0.18023491 1.1720972 1.6619986 -0.22827592 0.5149564 0.7515217 0.19884302 -0.4660906 1.0826535 -0.24737835 -1.2248561 0.19954726 -1.3683027
electricite 0.1881622 0.26040295 -0.22995414 0.87802523 0.16932893 -0.25086665 0.17348403 0.58302754 -0.9639693 -0.3709732 0.9566158 -0.24803069 0.1613437 -0.070354044 -0.39355323 -0.97540534 -0.54223037 0.19894566 1.3153851 1.8734078 -0.24057923 0.62200594 0.85245436 0.25387797 -0.5043553 1.196576 -0.25489604 -1.3785636 0.23481132 -1.5570011
aide 0.14945316 0.22469191 -0.21645549 0.7947354 0.14729077 -0.21178396 0.18571027 0.5051491 -0.86259687 -0.33639348 0.85172904 -0.22828342 0.14522353 -0.05652459 -0.3285752 -0.8921528 -0.45762026 0.17451106 1.1767989 1.676991 -0.21057405 0.5349645 0.78848 0.20853063 -0.46708804 1.086544 -0.20898394 -1.2448093 0.18392281 -1.3988464
publicite 0.15093158 0.21840179 -0.18286137 0.62542325 0.1062031 -0.2022645 0.114234075 0.41957182 -0.72832495 -0.2732625 0.7074914 -0.19718413 0.13488412 -0.035993747 -0.2714828 -0.6922934 -0.3742522 0.14339381 0.95487714 1.3516728 -0.1688192 0.42971835 0.6107653 0.15844277 -0.37150604 0.89020914 -0.20183524 -1.0094006 0.15722059 -1.1434461
personne 0.18715234 0.25566268 -0.2097087 0.7530726 0.11500012 -0.20638932 0.16158274 0.51252747 -0.81604725 -0.31139496 0.81067353 -0.19371417 0.13130413 -0.06953785 -0.31743336 -0.8141263 -0.4541704 0.15117383 1.1550877 1.6099743 -0.20820667 0.52084833 0.7251613 0.19398834 -0.45991328 1.0418209 -0.23260988 -1.2004495 0.20580257 -1.3316941
court 0.17584725 0.23041572 -0.16053465 0.69811183 0.1567113 -0.1665058 0.12720713 0.43042257 -0.7844318 -0.28671545 0.7222389 -0.22606136 0.14453818 -0.016074149 -0.26614657 -0.7633236 -0.40801433 0.14796054 1.0338118 1.4720792 -0.21820542 0.48190162 0.66146326 0.15361424 -0.38546982 0.9302302 -0.21956767 -1.0482888 0.15718697 -1.1911966
route 0.16657637 0.24999975 -0.19612513 0.79583174 0.13008684 -0.22902484 0.19229357 0.53149986 -0.9037479 -0.31414118 0.84872335 -0.21077089 0.1856235 -0.049067996 -0.3703159 -0.8760731 -0.4887937 0.16682038 1.1952288 1.6892983 -0.23320715 0.5337087 0.7578059 0.20777857 -0.46663195 1.0517504 -0.2447724 -1.234009 0.20359679 -1.3755677
commune 0.15458031 0.23609954 -0.19988842 0.8040736 0.1184025 -0.21414857 0.17960976 0.5432768 -0.9030623 -0.32922095 0.90693235 -0.21813264 0.16986081 -0.06199398 -0.3563043 -0.8849512 -0.45968518 0.19496816 1.2222089 1.7361535 -0.22605835 0.54138297 0.7929579 0.22671244 -0.4668192 1.1149427 -0.24078792 -1.260797 0.20535211 -1.4099487
trop 0.18402664 0.27340713 -0.2334432 0.85427976 0.17970803 -0.24433652 0.20370626 0.58826274 -0.9621388 -0.35659498 0.9430613 -0.27317226 0.19973652 -0.06888787 -0.37076536 -0.9652349 -0.5140773 0.19388112 1.3138871 1.8697003 -0.2468613 0.5801353 0.8502054 0.22113433 -0.5107629 1.1883914 -0.26476088 -1.3868469 0.24667838 -1.5544462
population 0.1579854 0.23960781 -0.21580645 0.79288226 0.14192216 -0.22718735 0.16384196 0.5182269 -0.87485296 -0.32018715 0.88744885 -0.2509146 0.1648624 -0.04693314 -0.33370692 -0.88912475 -0.46240547 0.16996814 1.1937373 1.7389396 -0.20754275 0.55171245 0.7797085 0.21178633 -0.49023217 1.0982033 -0.24806377 -1.2626762 0.19041081 -1.4238744
urbain 0.19600618 0.26236004 -0.21703851 0.89488435 0.1273078 -0.25930902 0.19685662 0.5973285 -0.98719496 -0.34906626 0.9857533 -0.25891444 0.18084522 -0.057115614 -0.40904608 -1.0021486 -0.5217806 0.21366076 1.3444113 1.9014758 -0.24033037 0.60991395 0.84165686 0.22073436 -0.5030724 1.2200267 -0.26559556 -1.4103361 0.23525603 -1.573026
bon 0.18864653 0.26786438 -0.23378834 0.8473105 0.16546431 -0.23183951 0.18296771 0.533305 -0.9468383 -0.3437755 0.9145202 -0.21962811 0.18232107 -0.0682153 -0.34871423 -0.8943976 -0.50516105 0.18630043 1.2645904 1.7943183 -0.23831826 0.5587731 0.8279584 0.23144391 -0.49346206 1.1424807 -0.25400853 -1.3101377 0.22531994 -1.4770912
mode 0.14309227 0.23066643 -0.18194042 0.705564 0.122361876 -0.20590328 0.12646788 0.4594614 -0.80735147 -0.30005106 0.7751676 -0.21658006 0.12046463 -0.035707027 -0.27841377 -0.8096653 -0.439359 0.17180324 1.0523566 1.5362015 -0.18815158 0.49963784 0.6643145 0.16917466 -0.41430998 0.98440886 -0.21689385 -1.1291986 0.16374704 -1.2364656
promouvoir 0.13491982 0.1721767 -0.17703842 0.62076885 0.114942595 -0.15925267 0.114054844 0.41027886 -0.7013004 -0.24286126 0.6501052 -0.18891959 0.13348861 -0.0609748 -0.26469207 -0.6977232 -0.38278985 0.12103909 0.92530507 1.301478 -0.1882939 0.41560355 0.58724934 0.14706618 -0.35231224 0.8441249 -0.19466397 -0.9893687 0.16015568 -1.105417
ecologie 0.18337284 0.28926167 -0.25601226 0.9053051 0.155217 -0.25773475 0.1889738 0.58661824 -0.98656535 -0.36331373 0.9824242 -0.25667033 0.18859039 -0.04631788 -0.38972157 -0.9708501 -0.5218909 0.19642226 1.3472549 1.9140229 -0.2607296 0.60827374 0.8731776 0.25056395 -0.5387648 1.2458718 -0.25483626 -1.4109191 0.23466684 -1.5640725
eclairage 0.14795606 0.20873421 -0.12564775 0.6449225 0.07949779 -0.19080843 0.14352067 0.46191978 -0.75019515 -0.28125066 0.7622541 -0.20945245 0.16292885 -0.08502443 -0.33807793 -0.81046414 -0.43581134 0.13164443 1.0128452 1.4231235 -0.20429815 0.44807652 0.618025 0.20965905 -0.4301327 0.9364612 -0.15154234 -1.0674027 0.19055842 -1.1868737
circuit 0.15242349 0.19118847 -0.19420877 0.6002543 0.121333346 -0.1930566 0.14821552 0.42017668 -0.6720037 -0.27716047 0.6108909 -0.15674959 0.1467868 -0.013568123 -0.22174947 -0.6231731 -0.34219295 0.102733135 0.91974396 1.306972 -0.15380244 0.39788345 0.61427826 0.17864834 -0.2946172 0.8713922 -0.2081825 -0.92699224 0.1549382 -1.0940074
agricole 0.15667303 0.253398 -0.19620647 0.7977309 0.12805958 -0.21365047 0.18622999 0.5235598 -0.89465415 -0.3310701 0.8543382 -0.21327578 0.13524118 -0.03430654 -0.32929912 -0.87538064 -0.47275183 0.1619938 1.2052729 1.7076862 -0.24402203 0.54446244 0.75709975 0.22913224 -0.46855476 1.1104944 -0.21314488 -1.2365222 0.19247851 -1.3826876
consommateur 0.17087123 0.22646737 -0.20792381 0.7356832 0.15919402 -0.20655453 0.17569856 0.4860545 -0.83907336 -0.29406193 0.81797683 -0.2059126 0.18945652 -0.03986055 -0.29916346 -0.79698354 -0.45920935 0.1499823 1.0995469 1.5912254 -0.20960666 0.512975 0.7498169 0.2140493 -0.42654756 1.0396082 -0.23786198 -1.1910933 0.20456408 -1.3401431
jardin 0.15033054 0.23101076 -0.19438788 0.70394564 0.10861208 -0.17944598 0.1668526 0.44803962 -0.7753359 -0.2618169 0.789525 -0.20640814 0.15519908 -0.04145295 -0.32621863 -0.8061372 -0.4330115 0.14933409 1.0418952 1.4743118 -0.22207531 0.46426305 0.6630472 0.19211811 -0.40634316 0.9424943 -0.21637268 -1.1085768 0.16771244 -1.2010462
construire 0.14746433 0.22674537 -0.20102245 0.6754773 0.10813739 -0.19572912 0.15504122 0.46580368 -0.78232 -0.3017885 0.74504894 -0.22482918 0.15425047 -0.044724736 -0.3230957 -0.7678836 -0.42457777 0.15117599 1.0358486 1.4687625 -0.178663 0.48292112 0.66684 0.19389401 -0.40260997 0.9680452 -0.21610759 -1.1125298 0.16949366 -1.2120914
proximite 0.13114178 0.2124136 -0.16669108 0.63313895 0.14014085 -0.18308556 0.14367047 0.41947263 -0.73858327 -0.28524536 0.6817568 -0.19457923 0.13273911 -0.04127705 -0.26939914 -0.72056806 -0.3846218 0.12962644 0.97162956 1.3666937 -0.17039016 0.42377368 0.65282506 0.15865824 -0.36038893 0.88632953 -0.21135163 -1.0004616 0.17158847 -1.1286029
maximum 0.10278865 0.13929023 -0.13913597 0.46594298 0.11601226 -0.14147015 0.08702683 0.32308164 -0.52847415 -0.21928167 0.49603307 -0.11280149 0.13061546 -0.019404797 -0.17991893 -0.49379614 -0.3030976 0.09571084 0.6965345 0.9848147 -0.14285739 0.30262455 0.48764193 0.1419496 -0.28569463 0.6426707 -0.16236301 -0.7707897 0.10848998 -0.8496356
objet 0.172301 0.25286317 -0.23301905 0.7333905 0.15364616 -0.22854044 0.16212371 0.4707468 -0.8687371 -0.31452647 0.8124186 -0.20041367 0.20379551 -0.037079386 -0.32879484 -0.77545786 -0.4341527 0.1610374 1.1143095 1.590741 -0.20956445 0.51023126 0.7399426 0.20866671 -0.4417332 1.0103619 -0.24523392 -1.185684 0.20837338 -1.3547244
individuel 0.14799224 0.1938692 -0.15714623 0.5791515 0.11490684 -0.18230066 0.13794453 0.37871894 -0.64470077 -0.24258904 0.6480343 -0.1640004 0.14015548 -0.032079652 -0.24327806 -0.66422904 -0.33502394 0.12165312 0.8590981 1.2421912 -0.15082441 0.38929847 0.5818059 0.15459509 -0.3423061 0.8030822 -0.17690939 -0.9230833 0.13024999 -1.036807
parking 0.16914386 0.24485306 -0.19279127 0.72472596 0.13023852 -0.21342412 0.18448333 0.5198199 -0.8447503 -0.33050606 0.8288307 -0.20654258 0.15201452 -0.0669839 -0.35823977 -0.86355937 -0.45645112 0.18592235 1.155235 1.6140546 -0.20683949 0.4949794 0.7252481 0.21812974 -0.42426687 1.02134 -0.23030703 -1.2156293 0.19037345 -1.3330526
centre 0.139062 0.1770657 -0.17894131 0.62973803 0.0981649 -0.17731506 0.1584138 0.4516518 -0.7275624 -0.29093742 0.70797855 -0.19210893 0.1277928 -0.053338315 -0.31472677 -0.76265043 -0.3898281 0.15605241 0.9687906 1.3767798 -0.17409687 0.454312 0.6091093 0.18276983 -0.37555292 0.90351653 -0.18444924 -1.0302454 0.17102382 -1.1470934
chasse 0.14952204 0.21984105 -0.20369466 0.7004567 0.15054426 -0.22178559 0.1331054 0.46308586 -0.80839944 -0.28323424 0.7684914 -0.22769064 0.15404262 -0.07018777 -0.29140097 -0.78870964 -0.4560132 0.15482225 1.0909312 1.5074908 -0.20958985 0.50527227 0.6885108 0.2107806 -0.43061137 0.9978043 -0.24380569 -1.1718651 0.1929747 -1.2902621
gratuit 0.12435923 0.18984297 -0.13042176 0.5333394 0.072211295 -0.17727941 0.13969076 0.4085203 -0.6319648 -0.21763909 0.6159105 -0.16911462 0.11667503 -0.044386473 -0.2590564 -0.62277216 -0.32691288 0.1352001 0.85406935 1.1922315 -0.15501134 0.38717586 0.5277449 0.13081443 -0.33449838 0.79468507 -0.15633692 -0.91217816 0.13605072 -1.0027121
jour 0.2017483 0.27750945 -0.25495028 0.8860319 0.17034268 -0.23337641 0.20757513 0.5833995 -0.98261577 -0.36811507 0.95940787 -0.23574655 0.19733118 -0.076821566 -0.39375758 -0.93893397 -0.5277309 0.21306561 1.3125134 1.8621746 -0.24957138 0.58669895 0.86073864 0.22826028 -0.53485084 1.1896318 -0.28289524 -1.4116049 0.23976152 -1.561668
besoin 0.17043129 0.2351309 -0.20638728 0.7620647 0.1461101 -0.21388695 0.16439106 0.48683724 -0.85885423 -0.32106328 0.8419749 -0.22562867 0.18168657 -0.04701324 -0.31348288 -0.8156716 -0.47941542 0.15364236 1.134416 1.605861 -0.21141286 0.49785486 0.7568078 0.19438066 -0.43746302 1.0459287 -0.2500596 -1.1993642 0.2145952 -1.3717314
unique 0.14175351 0.1627586 -0.18539211 0.55376893 0.16917647 -0.15932901 0.12153087 0.33210886 -0.6660434 -0.23341091 0.58498406 -0.12506884 0.2294791 -0.06957789 -0.26059934 -0.44105458 -0.3714764 0.087065965 0.81610125 1.1140226 -0.16354446 0.362371 0.51880974 0.19561833 -0.3014018 0.706251 -0.22268954 -0.8862484 0.13968298 -1.0506203
polluer 0.15454133 0.22736175 -0.18368998 0.696136 0.13783911 -0.2098261 0.15435255 0.47820196 -0.7699956 -0.30220976 0.75195 -0.22457631 0.13992752 -0.068521805 -0.28610817 -0.7889297 -0.41550124 0.16863956 1.0614256 1.4994383 -0.205723 0.48780566 0.68545884 0.18801926 -0.42290306 0.9792182 -0.21021068 -1.1080709 0.18366262 -1.2541971
apprendre 0.13222489 0.15335573 -0.14228003 0.53627205 0.117500976 -0.1582162 0.12240547 0.33886614 -0.58595514 -0.20505917 0.59418386 -0.15057078 0.0986563 -0.05136839 -0.2100585 -0.5785466 -0.2971856 0.10114743 0.7953424 1.1653818 -0.15331334 0.3479319 0.52758557 0.11517902 -0.33029526 0.7442004 -0.17127602 -0.8336151 0.15786871 -0.95116234
eduquer 0.109524354 0.13688248 -0.12148483 0.51471853 0.095027514 -0.16462383 0.11557649 0.33078435 -0.5289927 -0.17412664 0.54865044 -0.1463737 0.06031337 -0.029757828 -0.21339162 -0.5465771 -0.2657329 0.112805 0.755268 1.0913333 -0.12218829 0.33537626 0.4829148 0.11215699 -0.32253727 0.67379606 -0.119457066 -0.778324 0.14398916 -0.88134664
respecter 0.13672945 0.1773427 -0.15236574 0.60742056 0.11508842 -0.16045432 0.13947056 0.398553 -0.68664896 -0.24739112 0.69593805 -0.1780692 0.10512182 -0.05523402 -0.24440636 -0.6967133 -0.36178875 0.13585532 0.9147391 1.3435633 -0.16582392 0.42620182 0.5984074 0.15936264 -0.3786338 0.876451 -0.1639166 -0.9894258 0.14360139 -1.0831568
inutile 0.1458187 0.24082701 -0.21710342 0.7389099 0.14487424 -0.21804361 0.14807867 0.46986744 -0.83788943 -0.30658686 0.798976 -0.21560493 0.17785545 -0.061967883 -0.30603257 -0.767347 -0.44494528 0.1392855 1.0934678 1.5560495 -0.17337434 0.4968074 0.73357385 0.19906987 -0.44188103 1.0153178 -0.24734005 -1.1929864 0.20194344 -1.3144708
pollueur 0.15595837 0.21391807 -0.18875055 0.6433179 0.09533913 -0.17434183 0.15531485 0.43173796 -0.7016588 -0.26774457 0.7019424 -0.18848938 0.12961216 -0.034111667 -0.25834244 -0.6928764 -0.37350708 0.13046305 0.9702938 1.3521543 -0.18906625 0.44243106 0.6116177 0.19062613 -0.37554643 0.8876883 -0.18699633 -1.028816 0.14707439 -1.1083591
commerce 0.09778849 0.15226607 -0.14297435 0.49237242 0.08665946 -0.15234667 0.13190839 0.30928314 -0.56491446 -0.19984582 0.5455021 -0.14329277 0.12201579 -0.041494973 -0.2158236 -0.51692486 -0.27591267 0.08113041 0.7354509 1.0300995 -0.13178042 0.33427942 0.490094 0.109530166 -0.25537843 0.68956375 -0.16601488 -0.78529704 0.11717036 -0.87020487
maison 0.124357976 0.19899003 -0.18297723 0.670784 0.116451845 -0.18971571 0.13955858 0.4283522 -0.7387122 -0.271329 0.7510393 -0.20723322 0.12609498 -0.04089991 -0.28724602 -0.7658556 -0.41377857 0.14880161 1.0032029 1.4322354 -0.19096595 0.47558767 0.633823 0.17461333 -0.38303012 0.92211777 -0.1902672 -1.0529938 0.15494123 -1.1665281
partout 0.1410993 0.18175593 -0.17679136 0.61352926 0.08968876 -0.1755555 0.13878323 0.42375728 -0.7200395 -0.23924424 0.70279837 -0.16226083 0.120606326 -0.054187864 -0.30082524 -0.69283617 -0.36449945 0.14308561 0.9678186 1.3575642 -0.18615995 0.41243514 0.5742197 0.17220886 -0.3825267 0.85243696 -0.1805921 -0.98593426 0.15055467 -1.0800366
eco 0.16119061 0.23259242 -0.23156947 0.78164136 0.16168831 -0.21431631 0.19320238 0.5093315 -0.87583566 -0.31566218 0.8656697 -0.24776761 0.17565322 -0.0631465 -0.3512169 -0.8685252 -0.46924487 0.15357794 1.2062968 1.7426491 -0.22979654 0.5573436 0.8099358 0.19873428 -0.45409945 1.1183853 -0.227583 -1.247062 0.2166049 -1.4360499
stopper 0.15518858 0.21693173 -0.18703765 0.65784806 0.13784404 -0.17015764 0.1502502 0.42000198 -0.7323262 -0.262333 0.70397955 -0.18735044 0.14426835 -0.054610044 -0.2724687 -0.72881556 -0.3832733 0.14550072 0.993341 1.3926729 -0.17054486 0.43466163 0.64423776 0.18068215 -0.36275077 0.9109264 -0.20046411 -1.062657 0.16763073 -1.1653705
foret 0.19944651 0.2817051 -0.25104076 0.900141 0.14907242 -0.2663917 0.19477622 0.6060184 -0.9992639 -0.36754778 1.0176224 -0.280503 0.1982259 -0.046559054 -0.40377963 -1.0063618 -0.554825 0.20511886 1.3667156 1.9547272 -0.27315408 0.6252554 0.8725797 0.23482932 -0.5188755 1.226637 -0.25383952 -1.452043 0.24026735 -1.5870597
davantage 0.115047716 0.16797197 -0.15054278 0.5421465 0.1083539 -0.14132726 0.11497272 0.34604344 -0.58472466 -0.23245232 0.5863982 -0.16540204 0.11634114 -0.0246123 -0.23152012 -0.60495895 -0.2993034 0.12027213 0.7845725 1.1338899 -0.1481051 0.35034496 0.4976805 0.12248411 -0.3033607 0.72444856 -0.16789506 -0.84184176 0.13602148 -0.9149418
cout 0.14464833 0.19052236 -0.18514189 0.68541735 0.11009608 -0.20358026 0.14463055 0.45294303 -0.75611246 -0.25667056 0.7175675 -0.21595167 0.12938978 -0.053481612 -0.26879576 -0.738772 -0.39393038 0.14809886 1.0250072 1.4501532 -0.18478009 0.4809574 0.64095706 0.18388246 -0.37750056 0.93965524 -0.19179991 -1.0735497 0.18280432 -1.1753019
agir 0.13595018 0.20756118 -0.17870094 0.6901071 0.14681436 -0.18815634 0.1377876 0.45859325 -0.77186865 -0.25436112 0.7693124 -0.21028799 0.13638587 -0.056399878 -0.27898613 -0.7593924 -0.42302662 0.1593788 1.0378894 1.4738077 -0.18509011 0.4786553 0.6685118 0.18550073 -0.41817042 0.93850327 -0.20269175 -1.1050842 0.17048344 -1.1980027
renouvelable 0.08192322 0.1553532 -0.130254 0.5221662 0.13457777 -0.14583936 0.12282496 0.3813246 -0.58739007 -0.23812068 0.5735183 -0.19182575 0.11328325 -0.039888304 -0.23226735 -0.61949277 -0.31632495 0.09436629 0.78935766 1.1579541 -0.13573726 0.37303606 0.5312343 0.16329947 -0.31322446 0.7514654 -0.13224629 -0.8539207 0.14370003 -0.94775635
matiere 0.119485036 0.19489291 -0.16655104 0.6212865 0.13988599 -0.16601247 0.12272977 0.42899314 -0.73998344 -0.24197999 0.7045066 -0.18875827 0.13931687 -0.031853564 -0.26265126 -0.68865764 -0.37768984 0.13341989 0.97431135 1.3678102 -0.17864841 0.42340803 0.6422693 0.18591134 -0.37615943 0.88118905 -0.20249976 -1.0335487 0.18304971 -1.1492935
niveau 0.14255363 0.21107644 -0.19030228 0.69704175 0.115003325 -0.21157369 0.13659398 0.46542192 -0.7953897 -0.2823039 0.78712445 -0.21552396 0.132947 -0.04801103 -0.3163026 -0.79385126 -0.4384929 0.17005157 1.0548522 1.5111355 -0.18936443 0.47477287 0.67956764 0.20660189 -0.42963862 0.97344637 -0.18921578 -1.1283964 0.16839315 -1.275127
fonction 0.13946603 0.18978277 -0.16078994 0.6273431 0.111464955 -0.17714307 0.120624825 0.41580114 -0.7155018 -0.2786277 0.699577 -0.19338657 0.1304982 -0.06402668 -0.2848071 -0.73419553 -0.36355397 0.13089189 0.9771479 1.3637229 -0.1745516 0.4556278 0.61447716 0.16857788 -0.38361964 0.8947574 -0.15829161 -1.0209098 0.15546632 -1.1250962
gaspillage 0.10946812 0.15008451 -0.14371364 0.5018801 0.103387564 -0.17294052 0.11482132 0.34558505 -0.5949644 -0.22648051 0.55447704 -0.15890846 0.12690134 -0.053622376 -0.19677033 -0.5250095 -0.30764893 0.11114186 0.76245034 1.0782437 -0.13741097 0.36588275 0.49020776 0.14956595 -0.30850038 0.72356045 -0.14554088 -0.8288093 0.13900273 -0.9127611
projet 0.17357495 0.25193676 -0.23841903 0.8490755 0.1618664 -0.23081057 0.18676 0.5644476 -0.9381773 -0.34446007 0.91887635 -0.26517472 0.16798088 -0.069527045 -0.3567748 -0.94833827 -0.50799286 0.18341602 1.2471689 1.788556 -0.23740084 0.5860599 0.8355728 0.23011872 -0.48948053 1.1742251 -0.25137398 -1.3186482 0.23096643 -1.4728119
ecologique 0.17546062 0.22588685 -0.18741821 0.76836264 0.1323207 -0.21459308 0.15795016 0.48661897 -0.8413971 -0.31525385 0.8240024 -0.23804043 0.15353999 -0.07180125 -0.31447235 -0.83843344 -0.4421258 0.1667913 1.1311381 1.634917 -0.2176677 0.53053904 0.72128606 0.21447754 -0.42970014 1.0468147 -0.21893117 -1.2088743 0.17924663 -1.3288118
climatique 0.17318675 0.24781272 -0.22188222 0.84543306 0.15109155 -0.21993779 0.18957286 0.55972224 -0.9311366 -0.3173659 0.90532476 -0.25477687 0.15260716 -0.050203346 -0.3499609 -0.9301656 -0.50250316 0.18676457 1.2385846 1.7821289 -0.21351275 0.57831746 0.7925018 0.22568208 -0.50463045 1.137369 -0.25021163 -1.3250905 0.20379442 -1.4747064
national 0.15545471 0.23923871 -0.22361843 0.7896726 0.16030869 -0.2035626 0.1784455 0.5126361 -0.8850497 -0.31751052 0.8624763 -0.24342531 0.17651495 -0.06862189 -0.35235322 -0.8810848 -0.46644303 0.17101204 1.1737286 1.6968694 -0.2162371 0.532821 0.77106786 0.19446833 -0.47329283 1.0928143 -0.22970077 -1.2408204 0.22040175 -1.3920077
sol 0.17051867 0.21101625 -0.20003489 0.73300946 0.1348651 -0.20265287 0.16868806 0.4650622 -0.7975264 -0.29496157 0.80620074 -0.20529474 0.14711924 -0.04556354 -0.31844452 -0.8214022 -0.43710813 0.14235693 1.0787184 1.5722339 -0.2048344 0.4928062 0.6886433 0.20986025 -0.4153626 0.99799144 -0.21471007 -1.1625988 0.19353552 -1.276708
toilette 0.09879943 0.1634809 -0.16655406 0.56365985 0.13845079 -0.17376664 0.13357003 0.37918317 -0.60248905 -0.2247626 0.5954557 -0.16279595 0.12068928 -0.025999267 -0.23928645 -0.59184706 -0.37194705 0.11268047 0.8168281 1.160291 -0.16292123 0.39371896 0.54056144 0.18131934 -0.31855565 0.7555663 -0.20643535 -0.8939205 0.12086168 -1.0139726
energetiqu 0.1467951 0.21595734 -0.17287858 0.707494 0.12578106 -0.20197085 0.14862849 0.46203882 -0.7968155 -0.27718568 0.79896075 -0.20737295 0.13163377 -0.058368813 -0.32752228 -0.7954661 -0.42578375 0.16200906 1.0840493 1.5387108 -0.20425522 0.4897451 0.7099418 0.20297378 -0.43827474 0.9977742 -0.18322146 -1.1383057 0.18735789 -1.2810335
eteindre 0.121581376 0.14627233 -0.10307385 0.50942373 0.057499785 -0.14564352 0.12613425 0.3416935 -0.6044935 -0.20570897 0.6252695 -0.18415843 0.13970263 -0.04314243 -0.26187304 -0.61513644 -0.3174615 0.086568736 0.811625 1.1320335 -0.14831908 0.36109367 0.49639452 0.12910332 -0.3346954 0.7268119 -0.137478 -0.827508 0.12005214 -0.9603093
loi 0.16287272 0.22020024 -0.2090415 0.7154025 0.13448708 -0.18512578 0.15070179 0.46730947 -0.81349593 -0.27218235 0.7714147 -0.20836507 0.1528741 -0.048969623 -0.31118017 -0.7720077 -0.40883714 0.1541576 1.0787157 1.5168235 -0.1778548 0.49174708 0.71361023 0.19198906 -0.41933307 0.9764066 -0.21445163 -1.1150168 0.17674789 -1.2620543
contenant 0.124695025 0.19536465 -0.17306122 0.48958102 0.13016784 -0.15017524 0.13213651 0.29906595 -0.6808657 -0.2033469 0.5156627 -0.089222364 0.25561944 -0.05291949 -0.26316586 -0.3834216 -0.30828303 0.11649204 0.7701842 1.0619295 -0.11419441 0.2892424 0.538518 0.1701994 -0.2960452 0.6674097 -0.2351382 -0.86363274 0.17671707 -1.0200806
moteur 0.15152599 0.18138032 -0.13535613 0.6260482 0.09198513 -0.16099092 0.1308887 0.408542 -0.6675321 -0.26964903 0.6775809 -0.19699422 0.13010913 -0.060943317 -0.25961545 -0.711784 -0.36933804 0.13937137 0.9324071 1.3128182 -0.17299263 0.42186064 0.5950377 0.14852658 -0.36617577 0.83938867 -0.18530305 -0.95569026 0.16423588 -1.080202
investir 0.11535438 0.17876565 -0.1623242 0.573658 0.090283394 -0.1655436 0.116494045 0.36626637 -0.6405063 -0.24484926 0.60337967 -0.16739112 0.12169038 -0.030856287 -0.24992016 -0.6564296 -0.3417476 0.11388471 0.8594355 1.1951215 -0.15870588 0.40363437 0.56071794 0.16283567 -0.31302103 0.78429556 -0.1459225 -0.8930891 0.13593435 -1.0232533
sante 0.13055491 0.1928891 -0.15083832 0.615355 0.116151996 -0.16931735 0.14502694 0.38656533 -0.68054515 -0.24567251 0.66121674 -0.19996116 0.13907178 -0.050457574 -0.2675786 -0.6750236 -0.37450224 0.1388956 0.9267727 1.3429999 -0.15718977 0.43255258 0.60693026 0.1790798 -0.3667991 0.84701943 -0.17875531 -0.9771528 0.14562799 -1.0811833
passer 0.1545117 0.21038306 -0.19109942 0.7491529 0.13837284 -0.20361038 0.16084719 0.49908638 -0.84459764 -0.30643883 0.81516165 -0.20093457 0.16990474 -0.0572504 -0.32086957 -0.8243304 -0.4407762 0.17098038 1.1053256 1.5796157 -0.20652547 0.49364385 0.7275492 0.19841284 -0.4513911 1.0490515 -0.2167542 -1.1940901 0.21161047 -1.3322712
falloir 0.14296563 0.19794074 -0.18567981 0.65137804 0.14875092 -0.17307599 0.14243272 0.43385154 -0.72716177 -0.27307788 0.69585466 -0.16848874 0.16958818 -0.028281653 -0.2982503 -0.6950226 -0.40778413 0.15777823 0.9695394 1.39378 -0.17562008 0.4215853 0.6533399 0.17190887 -0.3719258 0.8708103 -0.21163863 -1.0238225 0.17605434 -1.1557924
proteger 0.1661597 0.22583993 -0.19328922 0.72818446 0.14735456 -0.20170523 0.17497842 0.4674925 -0.79683137 -0.2946901 0.7837411 -0.22171426 0.15661432 -0.0543714 -0.29710582 -0.7948444 -0.43159854 0.16882016 1.093049 1.5212314 -0.1970989 0.47675598 0.68621594 0.21377003 -0.43311828 1.0037427 -0.22172718 -1.1469398 0.17537923 -1.2505738
payer 0.08940513 0.14482145 -0.13051428 0.49457934 0.08937134 -0.1313654 0.1097977 0.32304317 -0.5375915 -0.17986771 0.55335873 -0.12111824 0.082706 -0.02533952 -0.20709161 -0.5301805 -0.2963417 0.09238817 0.7253265 1.048023 -0.13307612 0.33465782 0.48816818 0.127519 -0.3106152 0.67199725 -0.13944711 -0.77139837 0.12948103 -0.8641196
nombre 0.16315693 0.1884341 -0.18433075 0.6541397 0.13314945 -0.19628519 0.15974867 0.46021605 -0.74459904 -0.2845536 0.7203664 -0.19482996 0.14724137 -0.052287895 -0.28921497 -0.75242966 -0.39642864 0.12974016 1.0034945 1.4364583 -0.1856564 0.45696515 0.65441054 0.15951839 -0.39751685 0.9216482 -0.21273392 -1.049912 0.15648323 -1.1986786
fin 0.19073974 0.24097277 -0.23169303 0.7998272 0.15048562 -0.22259691 0.17504188 0.51607335 -0.90160024 -0.32835478 0.84473825 -0.22271594 0.16843992 -0.063315734 -0.332838 -0.8373461 -0.48778445 0.16500956 1.1713421 1.6967839 -0.20514946 0.5278825 0.7849398 0.21926312 -0.45993322 1.0638297 -0.24461754 -1.2663271 0.20151788 -1.4125793
economie 0.13956803 0.18625253 -0.14784554 0.6331804 0.1052286 -0.186822 0.11954109 0.418002 -0.69554603 -0.24249052 0.68649 -0.20439722 0.11640029 -0.053614177 -0.2785533 -0.6807588 -0.35937572 0.13258202 0.92936146 1.3450934 -0.18756811 0.43876326 0.6148605 0.17577267 -0.35769546 0.8760412 -0.16590007 -0.98940516 0.16616654 -1.1199538
social 0.13825966 0.23288749 -0.18518573 0.71273404 0.11913085 -0.19313693 0.15669401 0.48854154 -0.8145261 -0.29174757 0.7829124 -0.23162548 0.15317167 -0.049771324 -0.32086053 -0.7897905 -0.40330297 0.1595127 1.0849606 1.5535527 -0.18627264 0.48911774 0.69981515 0.18578534 -0.4311887 0.99699616 -0.20802285 -1.1175802 0.17687425 -1.2729585
integrer 0.11587988 0.16665219 -0.16278328 0.58751553 0.10716086 -0.15598628 0.11855336 0.3784356 -0.6552039 -0.21394911 0.6242352 -0.1596132 0.11010549 -0.040574383 -0.23361579 -0.6384194 -0.32434154 0.11421138 0.85202 1.2459149 -0.15780777 0.41068235 0.5773367 0.14018802 -0.3324456 0.78240573 -0.15491205 -0.92320573 0.14016925 -1.0011969
alimentation 0.13831821 0.20897524 -0.17224231 0.6614588 0.13687974 -0.19192715 0.13838321 0.4200845 -0.7641298 -0.26961973 0.7348765 -0.1857952 0.15199491 -0.037144106 -0.2946228 -0.7343226 -0.3905336 0.14652774 1.0145789 1.4365937 -0.19768208 0.44806373 0.6696232 0.16891964 -0.4007818 0.9163552 -0.20057602 -1.0475065 0.16534822 -1.1994838
haie 0.18132062 0.25265965 -0.18615158 0.7441873 0.11216322 -0.19336854 0.20131375 0.5035792 -0.86281925 -0.30872938 0.8309162 -0.22215524 0.16645978 -0.051370397 -0.36074954 -0.87261754 -0.46547866 0.18258433 1.1470563 1.6294565 -0.21316396 0.4977902 0.7397348 0.21127377 -0.44797668 1.0412507 -0.22510545 -1.1990682 0.20361197 -1.3401123
manger 0.092095196 0.1416706 -0.1149496 0.48684576 0.11627047 -0.1351637 0.092157036 0.30450472 -0.5429941 -0.21537371 0.52620554 -0.14728965 0.11479668 -0.04256461 -0.18021898 -0.53481144 -0.3074994 0.09880907 0.7151981 1.0329475 -0.12023496 0.32289755 0.5053027 0.11444606 -0.26070112 0.6999311 -0.17743644 -0.7940473 0.13341779 -0.8621929
fortement 0.0999052 0.15255322 -0.13902248 0.46354157 0.09229522 -0.13850698 0.111110784 0.30562243 -0.5466922 -0.1900981 0.52937883 -0.1357951 0.13489547 -0.048041243 -0.18194565 -0.49360934 -0.27860853 0.10448533 0.739569 0.9989914 -0.1168044 0.34144872 0.46665552 0.11915272 -0.27121106 0.6549523 -0.14612266 -0.75694937 0.14036332 -0.87270516
industrie 0.10707786 0.18387645 -0.16496433 0.5832474 0.10775852 -0.17922157 0.13909002 0.39806023 -0.63790286 -0.2209282 0.6407195 -0.17121853 0.1389686 -0.057796374 -0.251762 -0.6152056 -0.32544446 0.12561765 0.87040186 1.2394632 -0.14831102 0.38995177 0.56727564 0.15735522 -0.3373078 0.7912001 -0.15305217 -0.92934453 0.13837725 -1.0374202
emission 0.14256167 0.16506566 -0.16229953 0.6261302 0.09768492 -0.19053066 0.13879445 0.41899157 -0.7043212 -0.2570019 0.67900354 -0.17935202 0.10642761 -0.026585974 -0.25586128 -0.6899671 -0.38509494 0.13236591 0.92957693 1.3300353 -0.15409277 0.44013783 0.62086034 0.17917973 -0.3563602 0.85202897 -0.1768044 -0.9881778 0.17247654 -1.1112067
chauffage 0.13108777 0.19615673 -0.1769193 0.6367018 0.11720068 -0.19452271 0.12254715 0.41472656 -0.6947512 -0.28242427 0.70488954 -0.18219902 0.14032301 -0.049169857 -0.26591417 -0.69337994 -0.37472644 0.12808987 0.9573484 1.3596443 -0.15830413 0.45219123 0.6034237 0.19007231 -0.3710938 0.8660062 -0.17964327 -1.0241172 0.1749397 -1.1439477
campagne 0.12572424 0.18891217 -0.15424757 0.5433415 0.09081305 -0.1510361 0.11452283 0.38846982 -0.637177 -0.22494279 0.622342 -0.15140843 0.123269826 -0.054112714 -0.25243 -0.6418921 -0.32706076 0.1365723 0.8457235 1.184276 -0.14798042 0.3755523 0.5179525 0.14889431 -0.3223951 0.7819238 -0.18102047 -0.89927566 0.1298489 -0.9843737
rue 0.10849379 0.16819064 -0.14368339 0.5664201 0.09746126 -0.17156689 0.1476324 0.3864452 -0.63618416 -0.20590734 0.62426484 -0.13490644 0.10199118 -0.043126907 -0.25162715 -0.60342187 -0.33840474 0.110315025 0.8678639 1.2082231 -0.16018215 0.3896657 0.537946 0.14679153 -0.32782334 0.7453009 -0.18301964 -0.8743637 0.13663705 -0.9969694
collectif 0.111152664 0.18985388 -0.14380679 0.5774853 0.09456652 -0.17169435 0.1443396 0.4093999 -0.6756062 -0.2355341 0.6277911 -0.19713049 0.11192197 -0.055085022 -0.26561657 -0.67580014 -0.3344874 0.115232065 0.87286764 1.2579036 -0.17686006 0.40574935 0.5826422 0.16665293 -0.32779282 0.81603867 -0.14751141 -0.93279326 0.1596327 -1.0405277
importation 0.109491915 0.15362272 -0.13586493 0.5104363 0.11404667 -0.16649453 0.101449 0.31772998 -0.56672573 -0.21610174 0.53340685 -0.14193602 0.11389189 -0.02247782 -0.19533485 -0.5621927 -0.28964883 0.09033916 0.7689922 1.0803702 -0.13342987 0.36568812 0.51078224 0.14751896 -0.30505648 0.72074753 -0.14225084 -0.79830974 0.13176385 -0.8975743
immeuble 0.12524575 0.19446531 -0.16848062 0.63576466 0.09184772 -0.18069889 0.15296933 0.45021966 -0.7324889 -0.263531 0.6994815 -0.21216688 0.14650223 -0.056048907 -0.28924167 -0.7281914 -0.38237682 0.14364335 0.9997312 1.4052913 -0.19515324 0.45741457 0.61874557 0.17558295 -0.3951253 0.8904297 -0.18897419 -1.049747 0.15080827 -1.1432881
tva 0.085528165 0.16075163 -0.12748826 0.5182415 0.084117614 -0.16363995 0.08930473 0.30848786 -0.5718783 -0.2040446 0.53809565 -0.14325935 0.12567288 -0.018388733 -0.22031811 -0.54910123 -0.29237297 0.10542999 0.75550294 1.0963628 -0.13955577 0.35004035 0.5099981 0.11626615 -0.30416358 0.7144597 -0.13494295 -0.79403883 0.11780748 -0.8983343
marche 0.14289056 0.1767093 -0.16674724 0.570976 0.09729302 -0.16224344 0.11153387 0.3918346 -0.6553865 -0.25231734 0.60370743 -0.1713024 0.14553773 -0.053423792 -0.25985086 -0.6066064 -0.33083767 0.1319718 0.8722227 1.2286041 -0.15929067 0.39096907 0.55404466 0.16064246 -0.33040977 0.80013394 -0.18402791 -0.8967264 0.1468344 -1.0348169
poids 0.10147973 0.17373401 -0.1256616 0.5412524 0.069328666 -0.17260717 0.13030222 0.3345531 -0.584007 -0.23409024 0.5595465 -0.16287065 0.09392189 -0.063526414 -0.23849463 -0.5971635 -0.28587025 0.102717295 0.78601 1.1081978 -0.14967243 0.3537953 0.49063772 0.1273804 -0.3296106 0.72724485 -0.15943244 -0.83728445 0.14838594 -0.91801906
camion 0.11868145 0.17696081 -0.11755633 0.5413338 0.08017195 -0.16513874 0.10448875 0.383024 -0.60630435 -0.24189155 0.5819144 -0.17102177 0.12177441 -0.0682466 -0.23313023 -0.6301584 -0.3175688 0.11158964 0.81594235 1.1568232 -0.13452752 0.3703067 0.5203741 0.15848774 -0.32506084 0.77217686 -0.14148179 -0.85450035 0.13688126 -0.96891224
scolaire 0.1450523 0.18797967 -0.14680083 0.5849562 0.11286476 -0.14740261 0.1443329 0.37881467 -0.6640679 -0.22723325 0.6522334 -0.1720087 0.11151503 -0.03363044 -0.24924305 -0.63157225 -0.33340588 0.12824866 0.86946744 1.2900475 -0.17569138 0.40734944 0.5602457 0.12678733 -0.34084907 0.8104139 -0.16381873 -0.93647635 0.13874224 -1.0331348
trier 0.10552115 0.18900238 -0.17652103 0.54364586 0.11959772 -0.16870421 0.1175572 0.34222847 -0.59394693 -0.21633455 0.6025775 -0.14407846 0.11710366 -0.026724063 -0.2394453 -0.5452632 -0.3015205 0.12694983 0.837493 1.1610898 -0.12206683 0.36391944 0.5217738 0.1536899 -0.3350931 0.7220853 -0.19035989 -0.857295 0.15934668 -0.9500807
megot 0.11189228 0.19711305 -0.1795407 0.5940032 0.11366854 -0.15982178 0.14269084 0.38846934 -0.65931386 -0.22377905 0.67075074 -0.1556261 0.117639095 -0.04397303 -0.26269785 -0.6298558 -0.36889037 0.14829677 0.94050664 1.2908602 -0.1427465 0.41275975 0.583003 0.17030638 -0.37125942 0.8431605 -0.19716673 -0.9537547 0.15451166 -1.0926211
financer 0.108984284 0.17409727 -0.165271 0.58561766 0.10809872 -0.16357797 0.13796741 0.38596517 -0.65219456 -0.25441518 0.6308756 -0.17469963 0.13399453 -0.036477566 -0.23789701 -0.6793306 -0.35951278 0.13734782 0.90379614 1.272808 -0.16172671 0.41774032 0.5874373 0.1476343 -0.35015464 0.8244409 -0.16589624 -0.93547255 0.15170348 -1.0365534
francai 0.109342225 0.1611552 -0.15770029 0.55093724 0.11219079 -0.17152281 0.10876451 0.36854494 -0.61812365 -0.2312102 0.59864485 -0.14290702 0.14361513 -0.023593133 -0.22453313 -0.6136266 -0.34067413 0.09834739 0.845412 1.1934769 -0.14448284 0.3988369 0.5540384 0.14328796 -0.30798447 0.78699696 -0.15255122 -0.88348 0.16481605 -1.0129012
sauvage 0.11966568 0.1937401 -0.17149869 0.6156458 0.11071188 -0.1774818 0.1387175 0.41278696 -0.6913412 -0.2664638 0.6807914 -0.16973813 0.12927438 -0.035709504 -0.2908433 -0.6959338 -0.3688291 0.14708756 0.9188497 1.3263248 -0.19023906 0.42553744 0.61530155 0.14949355 -0.36927253 0.8660365 -0.19629061 -0.97372705 0.1650318 -1.1066453
kilomètre 0.14798234 0.15802689 -0.123575985 0.5527189 0.11170441 -0.1753593 0.10462422 0.36888543 -0.6482428 -0.23247689 0.62187994 -0.16144215 0.119508505 -0.02506918 -0.2663398 -0.6373983 -0.35249254 0.12236266 0.88661224 1.2441089 -0.16367498 0.39151996 0.5390862 0.14111848 -0.34570035 0.7822492 -0.161412 -0.8952552 0.14116882 -1.0014205
long 0.14282598 0.17764223 -0.17240924 0.62676835 0.1022783 -0.19126631 0.14947172 0.4180105 -0.7109756 -0.24335472 0.70480514 -0.18125243 0.120772704 -0.040159486 -0.28139907 -0.7119394 -0.36262488 0.13851559 0.9440901 1.343851 -0.19975226 0.4449123 0.6111867 0.17545475 -0.3628781 0.86240184 -0.16915391 -0.99668074 0.15030952 -1.0974483
teletravail 0.093997836 0.14127997 -0.09439297 0.44108197 0.082984366 -0.13311663 0.10703321 0.30946892 -0.47894484 -0.18225636 0.47367832 -0.13776039 0.10491289 -0.02565259 -0.19784062 -0.5061176 -0.25640595 0.1149574 0.6456416 0.9505025 -0.13094486 0.28932732 0.433147 0.09074798 -0.25842857 0.6035236 -0.1282872 -0.6970544 0.12009756 -0.7849884
toit 0.107057564 0.16281018 -0.14258264 0.5393435 0.08036927 -0.16749477 0.12765291 0.36177668 -0.59375876 -0.21775375 0.609219 -0.1873705 0.0968654 -0.031373944 -0.24215592 -0.6593225 -0.32833353 0.09471603 0.82944727 1.1865269 -0.18388148 0.3911229 0.5537122 0.1830854 -0.33404133 0.7503528 -0.1843945 -0.9167243 0.16034287 -0.9695803
trajet 0.11735072 0.13550858 -0.09546907 0.47258815 0.07767381 -0.13588955 0.10614438 0.3313982 -0.5368041 -0.21444522 0.5257084 -0.14788476 0.090053365 -0.045430686 -0.21234618 -0.5570955 -0.27901137 0.124841906 0.7343285 1.018604 -0.1141381 0.30698603 0.44424465 0.13078804 -0.2776543 0.640208 -0.12564656 -0.7566165 0.088434815 -0.83811647
carburant 0.1314683 0.16882731 -0.1533769 0.5672493 0.10585435 -0.15017988 0.11099859 0.36729717 -0.6487247 -0.24503349 0.5937267 -0.1749184 0.10158113 -0.029540364 -0.22616106 -0.61734927 -0.33820295 0.12818159 0.8546758 1.1820683 -0.14988045 0.40165642 0.53989184 0.14651524 -0.32956403 0.78464097 -0.14457037 -0.8775748 0.16133372 -1.0196812
producteur 0.110933594 0.17072664 -0.1331689 0.5272029 0.095208175 -0.1347604 0.12628828 0.35061195 -0.5901754 -0.20847829 0.57900345 -0.14086452 0.10614366 -0.03701646 -0.21055433 -0.56908125 -0.29468602 0.10571776 0.75519145 1.120968 -0.12708998 0.3405812 0.5255527 0.13440754 -0.3000055 0.7435819 -0.16162188 -0.8049516 0.14454298 -0.9205903
reseau 0.14423287 0.21712714 -0.17712305 0.65500253 0.1259144 -0.20144138 0.14978917 0.46480313 -0.75863045 -0.27443966 0.72118294 -0.21277437 0.15344726 -0.049222354 -0.29882893 -0.7453388 -0.41230914 0.13983947 1.0060792 1.4279404 -0.17158197 0.47537237 0.63572484 0.1852104 -0.39537716 0.9345475 -0.19959156 -1.0688843 0.15076493 -1.1963509
gros 0.14365184 0.17734317 -0.1495525 0.56193346 0.10168454 -0.14486545 0.11079904 0.3789971 -0.6437811 -0.23073919 0.63278705 -0.18032268 0.114163116 -0.033317294 -0.23015486 -0.64788413 -0.35072735 0.13791433 0.8791893 1.2380733 -0.15983249 0.40233243 0.5469415 0.14447118 -0.34537828 0.80194503 -0.14930002 -0.90132034 0.14251138 -1.0257516
trouver 0.11912199 0.16778083 -0.12636206 0.50689906 0.102082334 -0.14459659 0.10447126 0.35243362 -0.5678018 -0.22552767 0.57598376 -0.12809162 0.11721348 -0.033134542 -0.23583315 -0.54918075 -0.30442417 0.096883684 0.77789676 1.0865855 -0.15023379 0.36709362 0.48638344 0.1309297 -0.2804357 0.68578553 -0.16064906 -0.80442595 0.124791674 -0.8967713
bus 0.15917978 0.19638535 -0.12526356 0.55616623 0.0853974 -0.18307422 0.12959991 0.39720002 -0.6535401 -0.25911334 0.6079258 -0.19211839 0.100357294 -0.047148574 -0.26621637 -0.6530384 -0.34623593 0.14960973 0.89099115 1.2203864 -0.17302866 0.4024426 0.5276876 0.15658627 -0.3263606 0.78641474 -0.17608005 -0.92033476 0.14345965 -1.0172411
empreinte 0.13110295 0.14719833 -0.14744718 0.5542879 0.11529614 -0.20153195 0.13463354 0.3742344 -0.6564852 -0.2188586 0.6485662 -0.1749498 0.12063755 -0.012248358 -0.22341695 -0.6519772 -0.36522698 0.12821947 0.8611652 1.2614601 -0.16505009 0.39102247 0.5764582 0.16487022 -0.34741467 0.8278768 -0.17305574 -0.9193958 0.15961695 -0.99540526
culture 0.12213342 0.20326579 -0.18628427 0.62628347 0.1283792 -0.16862744 0.13593905 0.3932932 -0.6917915 -0.24278754 0.65532124 -0.17865396 0.13411587 -0.017826952 -0.2611368 -0.6685371 -0.36230853 0.14234734 0.9162652 1.308317 -0.15725462 0.39852077 0.60603285 0.16500308 -0.35639095 0.8421112 -0.20384176 -0.9883753 0.15927203 -1.0969064
logement 0.10860893 0.17882508 -0.13812108 0.56423336 0.11250078 -0.15393957 0.1411424 0.38725716 -0.61329734 -0.21836618 0.609248 -0.17335667 0.12209407 -0.04250578 -0.24672185 -0.6258089 -0.32474315 0.14218311 0.86796385 1.2121313 -0.15714812 0.37862957 0.5521716 0.1512333 -0.34510478 0.781666 -0.1792892 -0.9018471 0.15296637 -1.0133969
lumiere 0.10294226 0.15035228 -0.12622048 0.52679545 0.07220815 -0.15602085 0.14758176 0.37196687 -0.59597355 -0.24497886 0.6251258 -0.17256595 0.13568377 -0.043319054 -0.24925625 -0.62000394 -0.34768394 0.0885797 0.8082189 1.1594545 -0.14028375 0.34396383 0.53581536 0.16304325 -0.31306142 0.73597467 -0.14712803 -0.83599126 0.11902595 -0.9721292
amende 0.112904325 0.1534945 -0.13438568 0.48551145 0.08260244 -0.12887487 0.12123059 0.31298247 -0.5688494 -0.17870621 0.5304245 -0.111117706 0.11546638 -0.03454744 -0.21085164 -0.53968763 -0.30532026 0.10604681 0.76768637 1.0806577 -0.12754269 0.34220976 0.49499977 0.13781588 -0.31170014 0.6634785 -0.14419536 -0.78190535 0.14127955 -0.8763651
venir 0.09985653 0.14461155 -0.15853426 0.49523163 0.11739985 -0.13838646 0.114713475 0.3265203 -0.5701836 -0.2122587 0.55710405 -0.12410348 0.12699002 -0.042000245 -0.2157979 -0.54751366 -0.30233222 0.09151129 0.7695855 1.088762 -0.14460102 0.3519845 0.4888884 0.13934283 -0.29258102 0.6954781 -0.16858342 -0.80900025 0.15010951 -0.91434973
voie 0.15379222 0.18373929 -0.1670324 0.6506567 0.10627012 -0.18446298 0.13515484 0.4098593 -0.70344234 -0.24921691 0.6974868 -0.20502111 0.13746455 -0.06072309 -0.2819519 -0.7291628 -0.39518124 0.126042 0.9684014 1.3771223 -0.19145685 0.43659416 0.6272732 0.16292861 -0.37841344 0.8849325 -0.1918719 -0.9975662 0.14719225 -1.126279
cours 0.13760243 0.15635142 -0.13344848 0.5234013 0.085132554 -0.15479842 0.11160191 0.3544104 -0.58931565 -0.19956067 0.5683139 -0.15823062 0.0989016 -0.04128123 -0.21110621 -0.58595496 -0.32786435 0.12147432 0.78076315 1.1166047 -0.12673755 0.3459884 0.51301414 0.15702258 -0.29849333 0.7294413 -0.15833554 -0.8376681 0.13040498 -0.93587434
humain 0.14670713 0.17573394 -0.18153591 0.6111974 0.11942064 -0.18967469 0.12824237 0.39439133 -0.7157401 -0.2411066 0.6979398 -0.20285518 0.12619655 -0.02314545 -0.26845503 -0.70767224 -0.37233517 0.13545312 0.9363963 1.3526125 -0.17813033 0.43185726 0.6138322 0.16838072 -0.3589988 0.84822243 -0.17914806 -0.97505736 0.15452904 -1.090207
ex 0.18004613 0.25573477 -0.22045468 0.8081291 0.15267004 -0.21942605 0.17561394 0.5498291 -0.92292607 -0.3355071 0.89092606 -0.24586013 0.20588568 -0.049983032 -0.35960597 -0.87767947 -0.48691285 0.18469676 1.2314076 1.7392058 -0.2275555 0.55732995 0.7966391 0.23745124 -0.48652261 1.1211299 -0.25089982 -1.297639 0.23224051 -1.4547844
education 0.1483526 0.20267186 -0.17835286 0.61467505 0.12935752 -0.16156907 0.12759183 0.422425 -0.68048346 -0.25475612 0.6676226 -0.19517167 0.111624025 -0.052710786 -0.26385146 -0.6987626 -0.3714323 0.12869585 0.93851835 1.3521442 -0.15109266 0.40791383 0.61628973 0.17124493 -0.36691445 0.8411094 -0.15940318 -0.98835856 0.15573834 -1.0865643
vrai 0.13596673 0.203452 -0.1686599 0.59724003 0.10861442 -0.15886734 0.123213574 0.4050592 -0.6838045 -0.22242486 0.6581159 -0.18210301 0.13679361 -0.05632805 -0.27485415 -0.65685797 -0.33998233 0.13310793 0.8951225 1.2860626 -0.14623314 0.40165287 0.5915567 0.17572811 -0.34125724 0.82492405 -0.18049528 -0.9545057 0.17203628 -1.0711011
fossile 0.0913784 0.15062651 -0.11552127 0.48044437 0.12195304 -0.13693018 0.08217063 0.33229855 -0.5490665 -0.20243713 0.51970196 -0.17655265 0.100398466 -0.033078965 -0.20643799 -0.55096394 -0.31485903 0.09226924 0.717848 1.0199406 -0.12213181 0.36038473 0.48097113 0.12002897 -0.25822768 0.67993057 -0.12915793 -0.7801716 0.12088483 -0.8556197
supermarche 0.09719961 0.17050165 -0.14629346 0.5080152 0.124391615 -0.15338065 0.10782691 0.3443299 -0.61548686 -0.23168916 0.57529294 -0.12540285 0.13412052 -0.025554236 -0.23926616 -0.5244617 -0.32967803 0.083159894 0.7832021 1.0904869 -0.15446073 0.35245508 0.5276855 0.1310761 -0.276752 0.7075968 -0.18037204 -0.847386 0.15166055 -0.95659685
type 0.14454535 0.21499029 -0.20336497 0.70822126 0.1425941 -0.19430423 0.16623792 0.4434751 -0.8025455 -0.2920706 0.75099933 -0.1822679 0.16273734 -0.068051346 -0.31118223 -0.77033013 -0.4170552 0.16134101 1.0624719 1.5082666 -0.18552297 0.48164284 0.67197865 0.19341049 -0.39630896 0.9759006 -0.2149258 -1.1261588 0.19693622 -1.2481376
commercial 0.08691433 0.14975259 -0.11046368 0.5052382 0.09649 -0.12850866 0.13090841 0.353946 -0.5490111 -0.214526 0.54527867 -0.14798415 0.10302222 -0.039624028 -0.23644786 -0.58360046 -0.31174836 0.089707516 0.74485445 1.0618582 -0.15885144 0.34781343 0.49740902 0.14309274 -0.3047634 0.6830079 -0.14158198 -0.78743505 0.13259067 -0.8878829
hydrogene 0.10189907 0.1380094 -0.08875913 0.444718 0.07597557 -0.12191933 0.08786682 0.2848983 -0.4852107 -0.1825258 0.47171712 -0.14682578 0.08843379 -0.028424596 -0.19610623 -0.51975334 -0.25087523 0.09365408 0.6576822 0.9441663 -0.12403445 0.3144854 0.43096015 0.12336642 -0.2547608 0.61725444 -0.11599449 -0.6892177 0.10919599 -0.7807608
beaucoup 0.102048665 0.14788443 -0.13869649 0.50751823 0.10228173 -0.1301631 0.118783616 0.32498395 -0.56123424 -0.22346023 0.5627316 -0.14812471 0.11143823 -0.018529736 -0.22374628 -0.57549655 -0.31864792 0.11339879 0.7808779 1.0769349 -0.1618899 0.33395365 0.49169102 0.15012534 -0.30592233 0.69440526 -0.1620788 -0.80752313 0.11583048 -0.91290647
mondial 0.13592908 0.19898584 -0.15470128 0.6507534 0.10240233 -0.19626026 0.15042284 0.42363465 -0.7185459 -0.26959604 0.7098231 -0.187973 0.123097666 -0.033892963 -0.28359848 -0.7312662 -0.39786765 0.122116946 0.9820376 1.3913784 -0.17009227 0.4409116 0.6089538 0.1645425 -0.3776578 0.89695364 -0.18829083 -1.034546 0.16579123 -1.1556263
parc 0.113224946 0.19092026 -0.15724468 0.5756438 0.11067432 -0.15345462 0.1365023 0.3782991 -0.66376716 -0.2436036 0.6453713 -0.160204 0.105995774 -0.042720467 -0.25753918 -0.6669697 -0.34956586 0.12929255 0.86179227 1.2493804 -0.17947957 0.4034633 0.5682064 0.17477693 -0.3316001 0.81920725 -0.1477453 -0.94116145 0.13105947 -1.0452434
boite 0.14984033 0.21137267 -0.1980769 0.7184988 0.1452883 -0.19903722 0.14829685 0.47132212 -0.8017107 -0.27419838 0.78437066 -0.1917942 0.1527098 -0.045107093 -0.29172474 -0.7406607 -0.43772137 0.15656099 1.0671511 1.5160879 -0.18281975 0.47119078 0.67567945 0.1930706 -0.40501505 0.9511633 -0.2249646 -1.1260637 0.19459523 -1.274725
collecte 0.118528455 0.18953007 -0.19017315 0.579161 0.12533772 -0.16571851 0.12760484 0.38497236 -0.6906148 -0.23089842 0.6329192 -0.1624247 0.15695347 -0.03874096 -0.25671557 -0.593815 -0.32205638 0.1191786 0.8859432 1.235882 -0.13810647 0.3901926 0.56709325 0.16573036 -0.34070015 0.8147023 -0.19858524 -0.93780375 0.17295937 -1.0739567
suremballage 0.04836703 0.07109055 -0.0899956 0.23022851 0.07171203 -0.07487957 0.062362436 0.14054865 -0.30533376 -0.10551021 0.23478322 -0.06789276 0.08782902 -0.020507934 -0.10242579 -0.22294185 -0.16342819 0.038232762 0.35669333 0.4800732 -0.06406005 0.15413877 0.2588712 0.05499093 -0.13084069 0.34220907 -0.07702212 -0.39667043 0.08722113 -0.46088487
alternative 0.122606054 0.17651975 -0.15891445 0.48945478 0.098788515 -0.1564824 0.109741345 0.31146854 -0.5827417 -0.21240473 0.5383286 -0.14209887 0.12459355 -0.04288288 -0.22340679 -0.52606523 -0.2973149 0.11256987 0.76675594 1.0695709 -0.124468066 0.34678915 0.5011397 0.12305892 -0.29414904 0.7065531 -0.14322181 -0.7999284 0.14012736 -0.9187442
baisser 0.09208554 0.14089632 -0.10977322 0.447735 0.09548779 -0.13682018 0.11619442 0.31907108 -0.51799124 -0.17058676 0.49049926 -0.14955866 0.10193584 -0.043641936 -0.20868441 -0.5148792 -0.28146225 0.08462722 0.7113083 0.993782 -0.13633946 0.33311406 0.46171835 0.1211619 -0.2546834 0.63270056 -0.12252291 -0.72883517 0.0965051 -0.8304272
cyclable 0.12318925 0.17454974 -0.11036056 0.50480217 0.07591584 -0.16198495 0.13428521 0.34772298 -0.5864151 -0.2255306 0.5440418 -0.17015585 0.1171556 -0.017070156 -0.21946105 -0.58502865 -0.28711325 0.14447336 0.7964671 1.1146139 -0.13416465 0.3563287 0.48501432 0.11994895 -0.3108874 0.70339525 -0.16493775 -0.7993351 0.097944394 -0.91200167
societe 0.13779175 0.18242337 -0.1614143 0.5655974 0.12506773 -0.16114202 0.13131347 0.38791507 -0.6532704 -0.24647774 0.63819253 -0.16918509 0.10862349 -0.041726716 -0.24248423 -0.6382904 -0.35263196 0.13128419 0.86445177 1.232204 -0.15620448 0.40725932 0.54952246 0.1392265 -0.34035924 0.7819719 -0.17410217 -0.892911 0.15108615 -1.0158982
rien 0.13052593 0.18346988 -0.17985487 0.61218554 0.12777163 -0.16830587 0.12530291 0.41619778 -0.69826144 -0.2411503 0.67260146 -0.17095311 0.14378762 -0.04462042 -0.27456746 -0.6810635 -0.3646555 0.12482313 0.93935424 1.3190584 -0.15704732 0.41871747 0.59694767 0.16484664 -0.37169418 0.83672816 -0.17107043 -0.9806404 0.15530041 -1.0925595
carton 0.12246022 0.19420242 -0.18506072 0.54498506 0.13982743 -0.16699763 0.13432465 0.34250864 -0.66332036 -0.20943621 0.58745635 -0.12768756 0.21409594 -0.06223369 -0.25234663 -0.49013013 -0.33969703 0.11629335 0.8511786 1.1780668 -0.12353717 0.35710007 0.57890856 0.17103703 -0.33651742 0.76079684 -0.2186662 -0.92242754 0.16998337 -1.0323836
mer 0.10754645 0.17751488 -0.17035155 0.56495875 0.095469184 -0.15108408 0.10585051 0.37732843 -0.62530565 -0.2356445 0.61863977 -0.14374791 0.131828 -0.025426684 -0.25734353 -0.6219607 -0.34862858 0.13731544 0.8593472 1.1883568 -0.1416337 0.39155322 0.55312896 0.14449725 -0.34590152 0.77997446 -0.18886892 -0.9000245 0.15034048 -1.0090184
qualite 0.101784796 0.16758406 -0.1583459 0.52136457 0.120529935 -0.15724559 0.09347721 0.32597828 -0.59328544 -0.2172717 0.5543681 -0.13949652 0.1094809 -0.031663302 -0.19840243 -0.5410837 -0.30736446 0.10950413 0.78428966 1.1157225 -0.14074662 0.3437149 0.50426203 0.12866667 -0.3042981 0.7312164 -0.16242562 -0.8143034 0.13816544 -0.9200503
compost 0.08806669 0.12110733 -0.09881541 0.3931083 0.04491382 -0.11943615 0.09183247 0.24771084 -0.41802177 -0.1465383 0.42097062 -0.10436856 0.08201947 -0.04148558 -0.17184046 -0.42701617 -0.2219995 0.099158764 0.5557383 0.7972642 -0.085031845 0.2670166 0.37922236 0.09792714 -0.22563285 0.52075934 -0.102693416 -0.60573596 0.091087334 -0.68203217
obsolescence 0.12145902 0.15040983 -0.09490729 0.4083244 0.06468465 -0.11410781 0.10464812 0.29263854 -0.4567098 -0.190555 0.44715267 -0.14507467 0.06751828 -0.039689124 -0.15636596 -0.42809057 -0.24986582 0.05728589 0.6196492 0.9231527 -0.13306807 0.29359853 0.40800035 0.08381525 -0.24500018 0.56696767 -0.09301982 -0.66935503 0.12295251 -0.76290256
recherche 0.12344966 0.17735618 -0.13940455 0.5889515 0.11926319 -0.16629334 0.12928525 0.40013707 -0.66604686 -0.2243513 0.6358835 -0.1788527 0.13550264 -0.032002524 -0.25175577 -0.6477491 -0.36464378 0.14237292 0.8880428 1.2514259 -0.16157514 0.41120645 0.5706083 0.15998013 -0.3481227 0.81736076 -0.16390958 -0.9284997 0.14643368 -1.0441682
appareil 0.14425644 0.2119094 -0.16417418 0.663237 0.12642626 -0.20357504 0.13348171 0.4462316 -0.7612641 -0.27960026 0.71113443 -0.19222844 0.15761268 -0.05470188 -0.28216887 -0.7317802 -0.39598626 0.12587787 1.0029013 1.4250718 -0.17409018 0.46376994 0.650956 0.17400669 -0.38988286 0.89628935 -0.19730026 -1.0616223 0.17560185 -1.1871433
piste 0.12042357 0.13442722 -0.1530779 0.5100051 0.071044706 -0.16733705 0.10609869 0.36666214 -0.5982049 -0.2073799 0.57650167 -0.17887895 0.12802139 -0.016338868 -0.2570674 -0.58623546 -0.3238526 0.11910321 0.77702004 1.1189176 -0.16294718 0.35100284 0.48147827 0.1602733 -0.29148576 0.7189407 -0.16181403 -0.79463214 0.124964476 -0.9069753
subventionner 0.1016966 0.108018294 -0.09877221 0.40748915 0.08836597 -0.1250231 0.068382345 0.28646597 -0.44741872 -0.18225405 0.4605424 -0.13783695 0.08055152 -0.01603449 -0.16287868 -0.46536103 -0.23288985 0.085053645 0.616154 0.88140917 -0.13456845 0.30304933 0.38774595 0.1014841 -0.25131732 0.5747672 -0.11111789 -0.6643395 0.119466335 -0.72222793
