7231 10
delictuell -0.021527954639422572 -0.030532726805948665 0.01168237831313717 -0.016802727928231103 0.003523988417323229 -0.017764954712088138 -0.007376420914791786 -0.010710991707147989 -0.042388160821327264 0.02640592385926541 
argile -0.0474090473282986 -0.04745445397472547 0.0036338538439325894 -0.013913663637517537 -0.04840987768964372 -0.01862474204809181 -0.017864395947260928 0.01400639080393331 -0.02296342578102326 -0.04365316614592906 
journalisme -0.034122611925155415 -0.0007697339337458008 -0.011447910302456997 0.001256107816951926 -0.034659264564726774 0.00018835304243211364 -0.03227622737486954 -0.04217721717341832 0.04048290514092202 0.0034312094233076833 
domicil 0.043318835568416536 -0.002205300843571246 0.009394852995617537 -0.031055496581773916 -0.037766834999801456 -0.007382343510584941 0.006483255189834088 0.04961693505667665 -0.03537331753588581 -0.0130246791434287 
maremotrice -0.008110711590519475 0.043140018764377445 -0.01972282482289587 0.016972670338928856 0.046200940004844225 -0.033644894741979 -0.04814528395298174 -0.011496061304956048 0.007176533250072197 0.04038681490972779 
envahir -0.012955467775737181 -0.02778293708940321 0.04931879936392829 -0.021250966660061408 0.012719696359992112 0.04690612801025224 -0.04389111834530856 -0.007644207645391707 0.0016594428087095667 0.012428574793949076 
fantasme -0.0112098920834764 0.023841951627221428 -0.03518173332448649 0.027092099551245443 -0.009329885289559131 0.0031507638224254845 -0.0205643377076522 -0.035880638347810065 0.012921196725103147 0.0199248595060175 
stopper 0.00034993102337473167 -0.009665126331462923 -0.01906347653230801 -0.022079496870488935 -0.023789132320938686 0.02070744504970976 -0.007438573450412258 -0.005459898136786545 -0.01174666886086882 0.04903380056719709 
participation 0.04290679352096516 -0.010447358239686677 -0.02871196838184717 0.03957619467414294 0.020828921513532946 0.03719892130111145 -0.008847236775157512 0.03931451119476403 0.017399137326931692 0.04583062088497146 
juridique 0.03687870851612384 0.017770080763965978 0.022533647543678353 0.020349545375558824 0.03305609555216824 0.030010184319091297 -0.013263957551466246 -0.031176324014974208 0.03766139518079533 -0.043998002692413 
remunerer 0.0175053546477893 -0.008158942330786565 -0.021015988136668315 -0.01936516920984411 -0.031088791425283806 0.027443677795753373 -0.02141912805034557 0.03372851780153822 -0.001696804315330999 0.017056881664997265 
endormir -0.041228471639278744 -0.01511856565775062 0.030299227583032794 -0.013026354687778926 -0.019206235747513047 -0.043362239293269815 -0.010410254293348352 0.015278400349521742 -0.04559907970926969 0.01000023222469332 
manche 0.03980409622676035 0.007677748070363848 -0.028143090226792632 0.004716291671204495 -0.01718119113107967 -0.016451827580308782 -0.017051892781551 0.03484038281781508 0.030901727526236565 -0.028732937465909214 
kenya 0.00792437308519433 -0.0024152669959995364 -0.03851209668794425 0.009227099421248748 -0.020178110871363075 0.00015347018256579766 0.02205541981999977 0.01318225362691642 -0.044561195263698075 0.025315107703722438 
teneur 0.01665125327424035 -0.04353463304783685 0.029186777516867553 0.039643861612865545 -0.03867567380702381 0.023279183940619803 0.04302238027666997 -0.012833618588996109 0.022136938872906638 0.005119050007055041 
perma -0.039298910663755016 -0.020797071356990243 -0.0022190067655436688 0.03350576873946672 -0.018069032483760426 -0.02325238161194817 -0.047855009766751604 -0.017019378782041746 0.003004855421501358 0.005403681902170562 
grossir -0.022131469273223514 -0.0007194114578199021 -0.011234254377931551 -0.030946039777151345 -0.019900130584570245 0.03576508129110749 0.03598858049577195 0.043693832171286535 -0.020296613280807736 0.010411068231815623 
negociation -0.02389352048467379 -0.025466185667281885 0.0201912412837274 -0.03787303689000361 -0.02682320572355371 -0.03875097312012127 -0.04348853926061283 0.020745614260481327 0.01874603605366344 -0.025514677058336363 
retarder -0.007625525999051789 0.0019921847478465158 0.007399501907186555 0.0066325433513575345 -0.01810875715712127 0.0030178568535116123 0.022174360387308523 -0.04326390369430409 0.015732440638508184 0.03588096158502349 
munition 0.006212490265130911 0.013752243094723516 0.018053168322983627 0.01097090420645202 0.020493634460653665 -0.010838256486788708 0.01322640925511955 -0.039941220782101036 -0.030728678688290757 0.02883581733776725 
mediatiqu 0.042503211890938274 0.03178074574630376 0.016956054215287203 0.0023006155921687596 -0.026728472088256443 -0.0005377704516208649 0.021823513213287425 -0.04642600820791541 0.02908229539771705 -0.015930301801031478 
troisieme 0.025234089291579564 -0.038353640132922626 -0.0469484990392941 0.016225056026967298 -0.03198987383088008 -0.0025328426308187297 0.004039407900291865 -0.0290057440643302 0.011986537253015055 -0.0164781281365258 
derniere -0.03782386599947973 0.01723388042682186 0.0250148361352171 0.04502573423129387 -0.0013388618499040152 0.029453921821478338 -0.024001764778740452 0.027100062967144345 0.025571752504006052 0.0010562200841527768 
maternelle -0.00830888274418773 0.026437201618304543 -0.01570394769627138 -0.029814813018510095 0.040788976923553474 0.008336275808127602 0.03943169778826763 -0.012950268354761605 0.048332273404728336 -0.015111241167936095 
purin 0.03953317502500165 -0.020879144405235705 0.03813729626266892 0.013707547965657822 -0.03751379365526287 0.030422190611914843 0.041907720866846986 -0.019102813892028447 0.029364090707549858 0.014412196247787954 
oreo 0.0013973373121804122 -0.022004146688680375 -0.04169294323207396 -0.0350553559237212 -0.028484932600783292 -0.04544122543447822 0.00772205042087654 -0.017719696747665634 0.04497247789889484 0.042669379344970615 
compteur 0.018174304351815718 -0.003631263233923033 -0.010172679270428243 -0.02265839988174805 0.035748005734325225 0.046534845645783536 -0.003525302768361352 -0.0016148473633991955 0.027906169825699753 -0.015930657645391408 
derive -0.03853423314270332 -0.015507400569737368 -0.006925225457691369 0.038199669625669626 0.03791666645552766 -0.04443466620372583 -0.025041521675964247 -0.008248492756388733 0.019749976321543097 -0.012837800837974242 
ouvrable 0.011177077735109736 0.009015003535564104 0.04754586797691139 0.020707396957070346 0.03558353885932461 0.008948991798759078 -0.0017794175661637677 4.7009340021564646e-05 0.0117024427288521 -0.04926284987838856 
hav -0.029667792750663106 -0.0053061438229392065 -0.02038385257098666 -0.018283443017549642 0.011494635821993482 -0.003118410011403244 -0.048557550976011866 0.03424280754927269 -0.02849799751332617 -0.01717181086211494 
investissement -0.02081876022120692 -0.031713865191324436 -0.0032631910892856556 0.047087157886652034 0.020788357746845103 0.01640360404628481 -0.02835433127761141 0.03738476121676306 0.021148759122201707 0.00789620669994345 
abusivement 0.03231431966286923 -0.044464746105516914 -0.002175472036128927 -0.0336745389321316 -0.0285223141224554 -0.00835115786653766 -0.039775303457782595 -0.026963820185775613 -0.042229187545384274 0.04262651521445208 
desespoir -0.031472585026961326 0.012299174706102745 0.02370346727136766 -0.026876093359309076 -0.03330357658889035 -0.04993843419729326 0.025287667227171476 0.040679784787929454 0.04778655075252886 -0.043581694806805 
anarchie -0.01718200044520398 -0.005275497503968613 -0.0294782330191881 -0.01185289160287698 0.04506977030976117 0.004366296937033903 -0.004109506543767945 0.005897553902981865 0.016936826563742947 -0.0492931341370614 
carbonee -0.03623505669199512 -0.007537931926847252 -0.04671505392655418 0.01597537108015915 -0.027498901182461063 -0.042154853627932344 0.03170474629470775 0.04446418657631078 -0.034067606053660625 0.01980163527927301 
ldds 0.01361581783280498 -0.005968831659435014 0.007401284566093575 0.0008248961851940182 0.04924716307754111 0.04965478620100841 0.029181031843171435 0.0184049178247667 0.039913423024449515 0.030325036505909776 
support 0.03558398096991206 0.0384816736065779 -0.031014600377871394 0.02508781077158182 -0.027259616883645074 -0.022969482309344275 0.0024498835197337165 0.011216399955644165 0.0018479705601676425 -0.01460534206279175 
point 0.011874822958558304 0.029783047252633057 0.031455805600609475 -0.01563148331934085 -0.041175180022176315 -0.02530754242277481 0.03866236629459936 -0.03978263215556165 0.004959331931592738 0.036442927760199244 
envoi -0.04441781746657164 -0.050014879886874364 -0.0470656826455807 0.033700821549845536 0.0218316025266105 0.03198778194646691 0.008970879812784984 -0.0075161568716175155 0.006836221968414398 0.01589695868624351 
munir -0.02812575174023594 0.028689895818285367 -0.028888044190407663 0.039474719036209686 -0.03673090188236243 -0.033409871869820765 0.002099169185498845 0.041464909949050006 -0.03154264304863551 0.03802745836305129 
regler -0.032980404694422094 0.009284760862106506 0.04607806614984709 -0.006116489630183708 -0.04189231237752095 0.03648341061025078 0.007207784975370069 -0.036539740575882544 0.04679393128684546 0.007501615279599835 
parrainer -0.0241350993160999 0.015392211013167728 -0.027014093087004358 0.010986905781094312 0.03334230745541983 -0.02953947548872381 -0.040177648793496175 -0.002954743235022295 0.04660827888719629 -0.03624410884580105 
incorrectement 0.02710304227577712 -0.01285147166932852 -0.013012503096155929 -0.02032929068176554 -0.035032163825148774 -0.045892141943573654 -0.02428336727807379 -0.026951734071325555 -0.025958072789141175 0.04849416076164059 
arbuste -0.01599194795695633 0.021911904579312167 -0.000963047247760515 0.04202027379764 0.042913689065621825 -0.02602095634090241 -0.04081510197140671 -0.0008240382473796831 0.04725456634140032 0.0064172592198295745 
interessant -0.0137454521447937 0.028773601413241867 -0.02395342984226392 -0.003697821272143596 -0.007565078074388966 -0.046911020548302276 0.03954709507779883 0.017166363033217134 0.021119718751025002 -0.04601226530504765 
central 0.02653061737038288 0.03295071194514768 -0.038462924957693004 0.009105560307497592 -0.02454010109066986 -0.04070254872192457 -0.01980187414511808 0.02678867310205789 -0.010375711486740668 0.006681222563307343 
physique 0.046900317086964474 -0.0035568496569360107 -0.033209667022928636 0.020184821830086335 0.0019071255202442055 0.001850183255845634 -0.005731796777848072 -0.03490015785458924 0.02616522322433617 -0.022558300902895116 
nuage 0.04845710098743356 -0.01554520897048112 -0.04187968799361143 -0.024030229846010377 -0.047165899659269796 -0.04548683236132028 0.023221733847537417 -0.0301717895997991 -0.03573488655740326 -0.006758532971856002 
cellophane 0.003959006208209497 -0.02720905795226514 -0.03461516401296015 -0.008306752526893429 -0.02175945927961457 0.04676698043929154 0.04237002621672321 0.03642988413689926 -0.016118477262020113 0.023789458279073576 
phyto -0.020344216218204047 -0.029669169598117832 -0.04880951908041516 -0.03778046890724975 0.02962912692595065 0.0016737326536165414 0.007213921370039713 -0.0026104626275707645 0.041636549789775414 -0.03453290129266572 
nutriscor 0.014775478823571784 -0.01308083147311571 0.03168945769797943 0.022747468926478925 0.009802801169618553 0.007899191264029342 -0.003235984830501293 0.00512397497931181 0.018170074372335237 0.047800484668114505 
elementaire -0.005115006811860983 -0.032130358128161965 -0.021537872759067003 0.009211373414193032 -0.030288061884562248 -0.04394828483837804 0.03806665604169732 0.04138525540998356 -0.02016261202622724 0.034124893466710444 
nuc -0.028483190847347503 0.00304953338947341 -0.04348400423957734 -0.039291571199790216 0.048843346600349245 -0.009068307853306043 -0.04108681236635548 0.022346971052516235 0.038554407977036485 0.021676530476147024 
bisphenol 0.04917088543737184 0.0487550252786138 -0.031534933249934775 0.031136696013069034 -0.00478732499089133 -0.04386097845725099 -0.010295752131173376 -0.004143819262391615 -0.029837026543501743 0.04195464597434352 
monnaie -0.02142637516565418 -0.0436324644499644 0.009970950710245638 0.046581003592097846 0.0009968416744640632 0.0013124174620741174 0.04067027593158866 8.139219533027247e-05 -0.03745961035942037 -0.03960790492118218 
pervers 0.03126108991192052 -0.04783980121303805 -0.04821993139522568 -0.0033738954993965636 0.0043607543762134325 0.04213079203794956 0.04016306610871649 -0.03881850398273829 0.024985929272028574 0.010636253689999441 
biogaz 0.012621587795301958 -0.04566216627003289 -0.047893844362885386 0.03133671003199692 0.037212217586147144 -0.03378522444254756 -0.046477775152082956 -0.04049104075617367 -0.04040621262137041 -0.049532429528336405 
dependante 0.010322944408874055 0.023169602233505022 0.003428242406558005 0.030864793502448 0.043850530051509205 0.044575247772001204 -0.012740565813172046 0.046949338623344584 0.04769332248843975 0.04349278338132803 
orano -0.016960031698260943 -0.03726314470002257 0.030803224695807624 0.0471070928165496 -0.026878390839998094 0.03707021942755365 0.021440609229145823 -0.049703443048706025 0.04037512064578808 0.04093443746438936 
constit 0.03839251963251781 0.031769791064982095 0.035880201761368115 0.03302183038183562 0.04590594579469783 0.007086369057110381 -0.022616881362158798 0.02919696088871568 -0.023045736868810902 0.0022621438390239266 
epanouissement 0.005781818285866102 0.009673201324362005 0.0332324440458594 -0.009858289525939834 -0.02541606239514675 -0.037939763553894265 -0.0026694257811293465 0.04197864439844414 0.0053667617694957625 0.03530964005143268 
changer 0.010896286800678437 0.03963106261749842 -0.02011849106341603 0.03417895717498116 0.008291593319593381 0.03359775551632138 0.02573621769579835 0.021428593886745693 -0.01603714005147496 0.019882307561174074 
canadien -0.03861038816349226 -0.02979421797167221 -0.04254957786378644 -0.008833851457639768 -0.019740699125151088 0.010457384783930063 -0.0317465052574734 0.04535876869588396 0.02325169809438761 -0.04879760078445463 
quelque -0.040699796343654435 -0.037601959135973216 0.013524479676014323 -0.01856325802786446 -0.04900302444997174 0.019454318527361757 -0.0017792489347691312 -0.03260099690988122 -0.021736574288610207 -0.039174513460192975 
apparaitre 0.028365303250149788 0.009648214055468342 0.04100012550680511 0.04630635331152607 0.004920383445104182 -0.017634766467173744 -0.01247324122303643 0.018756833270880284 0.032680403074681515 0.049979565859944716 
vulgarisation -0.004666938800981843 0.0005615864620196765 -0.04995388376520532 0.01882572668964917 -0.04245914411292232 0.02102590906482983 0.03890772890540909 -0.037505357038780385 -0.03936542571258862 0.026650937198830767 
loup 0.021017147867198244 -0.021998993071827688 -0.03542881071687145 -0.03965214789425105 -0.009310693792531122 -0.03063616750837538 0.04485358846013529 -0.03291644942342292 0.04832670303222937 0.017071467450629988 
plaque 0.03508940759947208 -0.016222883050451366 -0.03208166703318708 -0.03167734599412204 0.03861788934435013 0.0021020553327654613 0.016210628142560014 -0.027036704702888242 0.035097279588017304 -0.023433412857194507 
mene 0.019027146455598554 0.0163612948632803 0.0032297088055577364 0.020482593823459433 0.03188916725925987 0.02836538574939078 0.04464220017637351 -0.04828081992863497 0.041599870479703475 -0.0010307688998343837 
acquisition 0.004454732862066041 0.02045054718417395 0.012042063146602996 -0.009534280371198444 -0.025924959970838272 0.03993440346973238 0.017895597698577452 -0.026507602294321853 0.02000519572660625 0.02507569117215447 
edifice 0.045850209730461215 -0.04899738862216073 -0.002660900401593346 -0.04968426730454901 0.031483273101613085 -0.04561092341877416 0.01846236085081705 0.016654232504518886 -0.02716384896118009 0.030002770386440367 
paneuropeenn -0.01019273311955054 0.03239633865386437 -0.018116324715225725 0.039414701226338125 0.014799665783509674 0.03365604425344347 -0.004913229787424382 -0.04574251829051123 -0.028424702508868128 -0.026146124156678503 
reusage 0.049598478061526056 -0.017597977898435445 -0.04736304098170421 0.04757425769286168 0.04025878906261198 0.007407805833685575 -0.0050648734983374764 0.010437172768355417 0.010975999024876639 -0.0250156615887401 
gasoil -0.02738883006056232 0.0149973649764296 -0.04544794950849466 -0.026687330718651096 0.040235682027222865 0.04722327389530815 0.005866230517949986 -0.044243335982637993 -0.015042538065878491 -0.041058758868824714 
observer 0.03398520567299252 0.03461088099856115 0.03134680286794495 0.030084745627537705 -0.015201685328344358 0.021906992486688228 -0.03986273035049997 0.04065865882055879 0.027899859170257387 -3.394174693296259e-05 
reparabilite -0.038592412415609706 0.01870499521378475 -0.01832585090500545 -0.04477542747724406 -0.03864279084552105 0.01263466929857352 -0.04169348689462468 -0.038807332332094754 -0.043035454517133254 0.01623037515048532 
utilement -0.039323559265997586 0.026617371528637218 0.04219879281595275 0.045948312809014714 0.04131757137302335 0.03356720889537049 -0.028949714097668985 -0.013516687064957794 -0.008129822118572353 -0.012702442635369144 
barriere 0.03501185110672392 0.045054101393095604 -0.030877282875958405 0.039312222309018124 -0.007244783831704828 -0.03611994346320244 0.02647479002524844 0.03966205607163706 -0.035518216845173346 0.03848393201206847 
mesure 0.04262301797172589 0.021142632424702223 -0.03083082224091068 0.039997087277370454 0.028897339486314153 0.03531735064416086 0.024364530354226185 -0.042756649663578616 0.01075113043023813 0.03540493796872052 
elever -0.021546611487950257 -0.02137728061771218 0.048853987312773864 -0.010175492134759583 0.03589780540206899 0.031334483427060744 0.03070541921705831 -0.00834958983741714 0.016134650763171846 0.017227368225379965 
mi 0.006086295777504865 0.044987980313530546 0.01853346049613231 -0.004836308946991695 -0.028523828837000335 0.0233586054833447 0.003101334133326735 0.011300391787821934 0.035790956681408186 0.00225493944870866 
karos 0.014234965929624728 0.0023963363230418084 0.006892510863794976 -0.013203620875430243 0.029011583861451903 0.011381385671434355 0.0023108280209918016 0.011733756948327002 -0.009393210567944718 0.031413191528988076 
cherche 0.048995343369068876 -0.03255219811851704 0.013938374411932606 -0.003477429074773441 0.03461470859932011 0.03214821542250069 0.012033785602847367 -0.002749550662660566 0.04284843452306434 -0.004011999193083308 
civell 0.04139459923919685 0.012417025587070443 -0.006427188065614702 -0.026819058753189996 -0.04330159365782168 0.046461142748731275 0.014060250169009985 -0.04704218885785087 -0.02749034938999633 -0.04575221777540521 
nidification 0.025991249361937512 -0.0015776561318338975 0.03233197973901147 0.010961972660607212 -0.04799067514934862 -0.03497698150303988 -0.018158368238111552 0.015966404442190604 -0.024024600001839386 -0.03190393521580055 
piege -0.025588135529094735 -0.04535464753307829 0.047619811374623164 0.005563328028722346 0.014218859570180988 -0.0026451626993435574 0.041237019123362764 -0.02276007139098196 -0.04390238323011879 0.006524093358073319 
supercherie 0.026704708005638948 -0.02229978228762484 -0.03887182032884566 -0.020552302198748207 0.03397635837513676 -0.01654452765775619 -0.0027132001608237487 -0.021737770425647337 0.00937268594934245 -0.03596722953203213 
incivilite -0.034207494693852675 -0.006062554007657035 -0.04921174642553546 0.020179919214509467 0.037106675756736124 -0.015322154632016475 0.0417869557869849 -0.0026274974237068855 0.01480891845303475 -0.01958085138954139 
mentir -0.022059572647155388 0.0219889584544441 -0.04751048660441803 -0.04175231179814578 -0.025168902484278045 0.04455853774999714 -0.02652360549610252 -0.00033044337647557015 -0.00539560577169731 0.044870064784601406 
complexe 0.027319080084306432 0.0037242387025480566 0.008245631110777427 0.029698239113858712 0.01255188000650472 -0.024025130342966317 0.007178631348589255 0.012320659471518768 -0.031800126862514835 0.017423085989409233 
vieux 0.018825254381308554 -0.038268734804136145 -0.018951334306367962 0.0029331672055602207 -0.003564970370520994 0.004364340601140057 0.00977630465257269 0.003564018130029791 -0.03693148936704893 0.019389901953761227 
succint -0.04984228949239612 -0.018455824857446537 0.019610636981382965 -0.03401127629858546 0.0014630317073198338 -0.02559993671761631 -0.04818969069559667 0.006182354379903909 0.023518417444715656 -0.028578023685100994 
tard 0.02018167218656804 0.04218574641098988 0.04269970021256085 0.01799222340758356 0.020961939225009867 0.01932892659024969 -0.03601417670114518 -0.005706236526354053 -0.029488868599055224 -0.02671398868957221 
potager -0.04147428771619094 -0.002915109070313116 -0.004411460565749 -0.036225676630165814 0.03346836450086903 -0.026398008052107524 0.007712232606561059 0.03699473022046964 0.017516801452672048 -0.012892719789214326 
motorises 0.034020021770025215 0.006223670266905291 0.00849122225309997 0.009268184082574397 0.030132470058012846 0.01619321126395924 0.0381660536834865 0.017059877265082863 0.023216568975353524 0.014449686073363678 
foncier 0.03502811678820457 -0.04757178306698324 -0.02835238701277188 -0.018035124463180452 0.030452760818002734 0.040209826439559955 -0.026582751358440456 0.026164838530062736 0.011154465453052624 -0.045402735679271125 
classe 0.041260137715940344 -0.029372564781282844 0.01564257230019543 -0.036402269117207176 -0.020862767219651815 -0.018483345967978713 0.0002157901190282935 0.031931805969638974 0.03873431856497861 -0.045157817358110905 
moindre -0.006771357155745972 0.049514347027103105 0.014481004252948765 0.040519260344718595 0.013018905174861482 0.04761064120790154 -0.008260686569522542 -0.013153619458295043 0.02107374636344497 -0.029065547154363255 
eolien -0.012311465207835387 0.038065873719747456 -0.021237769500398834 0.041474625601049926 -0.014071651150923792 0.049005724870031374 -0.03188439508621238 0.027418627385795532 -0.013052602937465614 -0.046338121076756666 
nante 0.029128825756830557 -0.025273316786716443 0.0007124632469982592 0.03770729858554096 0.037137867671399524 0.04002417680308361 -0.04273551652256544 0.04341907823436608 -0.0441142742273613 0.036414730734980236 
situe 0.001346556720238773 -0.02537352588783003 -0.03513855842779227 0.004641702974037001 -0.017676009302908594 0.0068588190938024055 -0.011875471022362832 0.016258763767510093 0.04071998495930187 -0.0395302375765077 
bag 0.03355568617856454 -0.02087062447457672 0.015170720061661003 0.002756403489240568 -0.022038822832676715 0.0025148437983862847 -0.008551500058241873 -0.03566256173623799 -0.022769757531420888 -0.035950390901276934 
reducteur 0.01910324701323201 0.04743280654068781 0.04536898245607991 -0.025103668157449858 -0.007433287309425937 -0.02326605333653868 -0.006491701638165765 -0.025424982866660322 0.04848474188759048 0.03202568727186751 
asymetrie -0.021904708811994595 0.04355682809874047 0.041896154451763395 0.023399284950653274 -0.03148296608001098 -0.020688735135471488 0.001496553319825127 -0.017596965894567048 -0.010289300480909258 -0.03515074909674263 
comunale 0.024848868028064776 -0.025031793522297962 0.009910191908761506 -0.01957801237888829 -0.03023040773951538 -0.04476178393560486 0.024035523792829715 0.02616989537082207 -0.029005410619890492 -0.00801192452804639 
agriculteur 0.012908395251154406 -0.022295310065203723 -0.044396577853329816 -0.04199589864649469 -0.03196481822650318 0.023938364409069567 -0.015986673883951696 -0.04931460393707829 -0.023382684401085492 -0.03273340410981633 
ravitaillement 0.01190144930580468 -0.02492706395289728 -0.01728634790490273 -0.001057602501699053 0.046036344334937876 -0.04338489503159922 0.010072008069119617 -0.04471986654975236 -0.025068238838159344 -0.010130588805711018 
exil 0.02148744060266798 0.037232376053821625 -0.029434181176670605 0.0008126073932477133 0.03849606317830089 0.011906794724138628 0.003786499175377132 0.048764116385073164 0.022320820250404542 0.043312798951948034 
ingenieur -0.02042409311338107 -0.0033743746798633855 0.003625063621892275 -0.0360198081244969 -0.0330529633433056 0.03275735979118849 0.02690416338885939 -0.029841118740037188 0.04101905340421127 -0.009673283869093517 
blaireau -0.002612814881937818 0.024382453978130266 0.019611192659208503 -0.020804442515983256 0.03156086497640486 0.0003173815756268759 0.029293689462372083 0.018415895060510723 0.03010131911767154 5.5211304932489236e-05 
alentours -0.003825190306648622 -0.010262844742157119 -0.028145300526531494 0.04514790531799959 0.038505280157791054 0.016424767766536754 0.03438713427015139 -0.030034514160951053 0.03473000632789369 0.04444237249204599 
decarbonees -0.03316554404458821 0.0024283861952139065 0.02679446392345879 -0.014614197158778128 -0.02787028638359776 0.013039856646013823 -0.027781593902571657 -0.0018968166124888402 0.0028787125374272102 -0.012496251378107056 
enterre 0.006676809317588829 -0.035575467534137546 0.013296828260225858 -0.011619006849976759 0.006456426614982701 0.019388659665269852 0.010908985227842406 0.005068731870783848 -0.01573550692819998 -0.01620707547677559 
dure 0.031635654725465805 -0.03555942804041811 0.034810067330470235 0.035211664652084536 -0.015812153028860784 0.021657635483784243 -0.018930396010072684 0.04442284084298944 0.029805488853622397 0.03225051232460751 
rever -0.041462759997421904 0.04170082219019587 0.012154881837757515 -0.004643945105711006 0.04468041092216626 -0.048139776905458634 0.026682816478822553 0.011765672404912936 0.04598017635073849 -0.017078936341029437 
hybride -0.048523711163935564 0.013426459238311423 0.031076779755352276 -0.02985898635798136 0.014096126819573784 0.037632471309878325 0.037594365169640286 -0.00958590106370982 -0.03144725743885107 0.022514275874528523 
inutilement -0.04115530515434843 -0.002968331196966388 0.02519823556564221 0.019428500658674946 0.017846504278642584 0.008423444252797254 0.04724889925620591 -0.016133941918952642 0.009354642487104407 -0.04521756799197157 
horizon 0.012742141500217519 -0.03141975320939626 -0.03149866752244039 -0.023497239307433245 0.031051678777052227 0.012169677536864355 0.04829319821053666 0.029108973100373994 -0.04787051969557578 0.009216547392933611 
remettre 0.04783217546379695 0.03564049930579326 0.01273688333481585 -0.03070750300062935 0.02710284537415189 -0.03500776939861386 0.04018541206515479 -0.004019815625495778 0.034557006433656744 0.02083380366969206 
co 0.03979574847199454 -0.019531725477668977 0.0003538468120098049 -0.028881566136523956 0.0005265604834323012 -0.024934257327935198 0.02813157632324092 -0.01311247723684837 -0.018131739329550325 0.00585423877155575 
apl 0.047963036955497564 0.015813409899965995 -0.013576959745946941 0.04368789960252446 -0.02542209335242698 -0.019331923526671953 0.03225611669094255 0.049196215051133564 0.02039533196592431 0.0032665869050233346 
oxygene -0.035140111576523 -0.009535947935309996 0.004184781109401908 0.035269760582457274 -0.029669610980718793 -0.03648608037993259 -0.008573410124484501 0.0005483118553169371 -0.024870962237043423 0.03175301699178844 
personnalisation -0.006486052877145201 -0.03204858676059116 -0.047815720432205 -0.049413277274268384 -0.020288472168112203 0.006396031843920911 0.020268941247774987 0.024352858714751242 0.041826575781851345 -0.013487369239220328 
bac -0.026410979337180392 0.022125910349506523 -0.02554434122347972 -0.019588547893647106 0.02537996054977057 -0.01269585411933163 0.011705269175470117 -0.038912365164693555 -0.04827607680473386 -0.00013699366497925964 
maire -0.04255712897149194 0.010378601053506017 -0.01790751906395924 0.012231561524402633 -0.0073772435546682795 -0.004062790942937449 -0.004264294628406333 0.0024934510311656463 0.043750036930935744 0.047982310960096 
indemnite -0.006797691470980487 -0.010838726236066293 0.01596450119624754 0.030242109394909813 -0.04934938379587355 0.00232267646115179 0.0325249561389407 0.030122566431182937 -0.04347274534413474 0.037502757213288086 
financiere -0.03257081175791513 -0.0399801778308815 0.03094906704467162 -0.011469499099375656 0.043802259421476746 -0.027859852425853697 -0.015164499718059159 0.006569988851712052 -0.02931642910833596 -0.0386451347614234 
decision 0.025811403812382023 0.03768551368439792 -0.03694003641442547 -0.013935299041797355 0.026532564394303154 -0.02623065125411721 0.032688593529832395 0.015001243602300995 0.04392019432261141 -0.03161522424688566 
nausees -0.007833769166185297 -0.04229649172938919 0.03760351984766658 -0.02262030499386845 0.023865712012531022 -0.02846086449134241 0.023249929187436288 -0.04299131519482506 -0.02602941879079137 0.038103200913890786 
thermo -0.028464505527424758 -0.04346579638945084 0.002416846512101257 0.005456676835502445 -0.013312058206022973 0.0010932518739498944 0.04060911592249035 -0.028750416036430134 -0.0328245460347601 0.022921918404011414 
imposer -0.027697857751395064 -0.03046076626521147 0.04936978330871094 -0.049065882812200826 0.03348022112849644 0.03832578425353113 -0.028411862463672072 -0.043863807425128444 0.007607998163659864 -0.011116927356988703 
reutilisabler 0.04534733774357899 -0.003688817823735658 -0.024089323873844357 -0.013267495539723794 0.03591937784960811 0.04550650639674963 -0.04736477149204527 -0.01589738615405466 0.005635203628074414 0.02895276487753727 
tampon -0.020017801828264632 -0.03344954863747936 -0.026535187348003798 0.03551193726556092 0.006955751628410836 0.004188439740154272 0.028104924119401187 -0.040339034679797374 0.04987773579216856 -0.038826125566516656 
biomimetisme -0.04387958963438771 0.04943402620153346 0.005999247048785301 -0.007099621431183389 0.00040272999760071574 0.03106329673773947 -0.00876407353187542 0.0035555157055323695 0.02454712999237013 0.029451553114630512 
elec -0.008556399241563059 0.041212413998434796 -0.01195706043748038 -0.014837335982834954 -0.02720302768145379 0.014483766919473735 0.04983686141651063 -0.014308864944676878 0.02898304790671204 -0.0024193575535063614 
aloe 0.03705286586183496 0.023539163109468745 -0.011276536806333837 -0.009250409956122026 0.00942148710263118 -0.025161625079544947 -0.003334827220754636 0.04947846661922928 -0.022986250373920047 0.04458681814823937 
edicte 0.043488480452417155 0.01706313307436458 0.03512018971993165 0.003893539906435548 -0.04831158092963352 0.04535163799999536 0.007900373494655163 -0.0007131993324891952 0.029358729189160257 -0.009894317070948948 
agrandir 0.008405139671914088 0.013353877282203134 -0.026551602990571802 0.0016488564688801213 0.03943635804852841 -0.028364226889703838 0.04704456567836069 0.011822022958826785 0.04254051270747112 -0.005720362169776017 
frigorigene 0.0035154490871910343 0.03442394797069917 -0.034489377499080986 -0.04185252446845899 0.03431106031105291 -0.020664351406408515 0.046023405709866315 0.026626461080028727 0.017134596714466876 -0.04484848165247545 
desengorgerer 0.026714794429684316 0.04832540506086114 0.03405774743656383 0.04849542602341594 0.041140809854159896 -0.009942727540950897 0.02659578675609142 0.044875395219575454 -0.02303982617298179 -0.0184899373364779 
humaniser 0.03328672893571732 0.015568473420914332 0.03266645062068984 0.02967033866803602 0.025674688173868195 -0.03132639322526609 0.009011412593256645 -0.0082845728420687 -0.028167117137305544 -0.027052086063974176 
acheter -0.04684838222992101 0.01215550780202606 -0.023701357964043338 0.03918841843572462 -0.02088004811154469 -0.04766767396771698 -0.04063483595148902 -0.05050824363903359 -0.019388059722284322 -0.04766725274370249 
empire 0.03468602012153113 0.007590945248692347 -0.04472807339692119 0.04320709648856211 0.03538838093040806 0.009010347847464737 0.008948412584061264 -0.011649660485409849 0.041559234649694535 0.016632623567438207 
être 0.03786620615641117 0.04203720837256339 0.04559075238762937 0.0036410188598956506 0.010750407449807847 -0.012059781417720006 -0.015522142760446136 -0.048576251843588894 0.0004582986943720179 0.011185734661349282 
delictueux 0.032409842568939605 0.03582459511907435 0.04679995448080583 -0.011514191225448422 -0.002455262058516907 -0.02895618108801072 0.04753312435334477 -0.032174991687799574 -0.04083413877250615 -0.029707096278534923 
hydropur 0.023210254710365648 0.0008896287985285757 0.006594801495241383 -0.02681449650916863 0.04916364385730001 -0.04809341718432176 0.030983273259141065 0.04390728949312366 0.0019904265782229357 -0.011815149987101375 
incoherent 0.04575376312778787 -0.013445007615768337 0.035675513641253036 -0.006055804714542335 -0.027994345036479098 -0.030594816486421383 0.04974813843038244 0.04151288343710297 -0.008493513310273865 0.030647516286889435 
fonctionner -0.014005259410829161 0.000689987128420159 0.007571950063470486 -0.04202078612179672 0.022012282714422505 0.015647570638664947 -0.007432977596349863 0.03124977870622699 -0.03152452515605461 0.012811417046137403 
benevole -0.03189227588472325 -0.03828277873528012 -0.038202666669493984 0.03925767844849336 0.01671626328977371 0.048524977827081706 0.03872761471431469 0.016630851893685943 -0.008012665351463118 0.003742101276204819 
volont -0.0005906294523221056 -0.04397761355642754 -0.037303449377343485 -0.009236327102940823 -0.015150002781709356 0.002351789607436965 0.010040346575454813 -0.02195191442159621 -0.01575880339672977 -0.015360615401464871 
reconstruire 0.009361070873140323 -0.02756215549481978 -0.03584761852486139 -0.011651351396212851 0.04601788844887934 -0.04540651969466308 -0.01863746906883277 -0.01223811580371241 -0.0018935447346541674 -0.0128584638332378 
manger -0.006850001844260822 0.03382147986928339 0.032620348270044765 0.012665363306652952 0.03423615041540271 -0.03790872648556666 0.032784570010230246 0.017257926351792376 -0.009804470528714804 0.02944686607659098 
liberant 0.01799430081622113 0.027342190594725632 -0.037801530557170976 -0.007057339818434298 -0.0006987967075069089 -0.021020621348883307 0.03242494126901724 0.001595193328469947 0.04127336028881161 0.019463153032352017 
balader 0.006163265685718907 -0.020100573901508392 -0.02748366223010182 0.029586102658059592 -0.011177867837712359 -0.021361444081723267 -0.0006561802661910256 -0.0046692097898772805 -0.012738609037925324 0.013552303302901242 
tramway -0.008999413617031505 -0.012947769390749278 -0.008891632027833008 -0.04812060186868796 -0.04381878780778231 0.026049481331642116 -0.01598889447990585 0.02042298427704969 0.012382382657502721 0.02398835761379196 
md 0.002002984484455567 0.009466409584902276 0.003573227335534109 -0.04881477521183884 0.01711722703864218 0.0023448222647898757 -0.02623592513512316 -0.04279538578752961 0.04882886061338528 -0.010381753801498096 
renforcee 0.030275979126224796 -0.01900496512956092 0.03554963695683059 -0.04248199095225506 -0.015267456995122827 0.015986528435576946 0.017936816292611422 -0.017245298303178593 0.009383515574511093 -0.036225647052149125 
appli 0.02900332767708095 0.004080572906132297 -0.03543944557230755 -0.04480608226361063 -0.04170710944701829 -0.04082582912737309 0.0006739133835415784 0.04140082278223483 -0.03331406478928312 0.03924690004629451 
classer 0.042188764914698335 0.00482714313845844 -0.023318609630711258 -0.028716996162816224 0.0016299310149509281 0.03642118405807991 0.03855353593037665 -0.04427499611283726 0.028458844554976725 0.041819740913535915 
masif -0.005685149504815781 0.0383547381988764 0.012787649234341322 0.04065747998829486 -0.001511429053318633 -0.006130958682246824 -0.013898078444835031 -0.029333253980438356 -0.02941441790192209 -0.012261527818596822 
contenter -0.008502261289577673 -0.02856251475450575 0.03610620762999556 0.027417347609442238 0.00902810464083971 0.0059042816979970845 0.007973820100316326 0.04282655926151535 0.04449237585991689 -0.02441701611821011 
parametrage 0.01664171714102555 -0.029705783673292997 0.03137722345624479 0.0063571615392797485 -0.030531198071708943 -0.01575933903945821 0.04483337116038868 0.00641463403507147 0.0444906533831835 0.01842254823887302 
augmenter -0.02762184482582552 0.046951852781577194 -0.03595311291709922 0.048357023984407756 -0.03683690524861564 0.023669701206178027 -0.002823677632614182 -0.026817088666782295 -0.018010505212557485 0.018811693752280693 
peripherier 0.005860511132911043 0.04678550150457238 -0.009772398884977482 -0.044745728932872576 -0.009856727240853317 -0.03107302501498373 0.008712579105346355 0.006635659604012129 -0.04253607878423759 -0.025208714305311086 
luxe 0.010161490539917101 0.026522514802163284 0.033863215883399085 0.013133294800209923 0.04014907215036503 0.03888218643703879 -0.00655756813735454 0.04956511694265439 -0.030187424965655647 -0.03240107372306817 
compensation -0.028648853303285735 -0.03653730643248161 -0.016298775526260603 0.002842497790591588 -0.005515574430794431 0.045809214186104744 -0.04668779031043773 -0.03153212514322218 -0.00034131489507357196 0.03927142667472615 
comprime -0.0035561693469395 -0.04240837128135348 -0.0315982580020279 0.012016610151838593 -0.02779914346238557 0.04968200311807107 -0.017702887233885908 -0.03823043307143962 -0.020411808324562 0.04948627520086372 
peine -0.03890135475307282 0.0304520939561819 -0.03928785580171804 0.025421596099898428 0.04266569486349357 0.00041908731741879053 -0.028537269507601166 -0.008674188127758517 0.017284229833444756 0.03632144361960744 
economison -0.030828323899158572 0.049478543214497635 0.012853992432309698 -0.01978636278535517 0.022912651432510905 0.02093451510160455 0.044871862986359846 -0.023109459670119237 -0.006873471692966444 -0.013655997555565447 
reconnexion -0.022277911500468046 0.00676062244122295 -0.04006010911851275 0.032932037101523995 -0.023589349492010244 0.014070296069579123 -0.025525467585553956 -0.013850163262291968 -0.03386818056445949 -0.0007065421046319997 
incendie -0.028912127338417134 -0.005276443745765925 0.01939280022994861 0.034860933227931115 -0.025646588221914585 0.04595588333776965 -0.013117360503195199 0.035005595430603005 -0.015208368054986862 -0.01857957658330613 
rc -0.041313001345019015 -0.024528126134057856 -0.024603148225313124 -0.017132939246391705 0.04520825156224798 0.019421292286044445 0.0018377184796053174 -0.03773364848012696 0.0008546273458744055 -0.0330764830393493 
renovation -0.046559913333757384 0.018639807466922988 0.0200181104655279 0.017162433238187173 0.007350723648821301 -0.000374706556768846 -0.0007995929737974848 0.021758110676227568 0.0431996971029329 -0.04183119347775695 
autoriser 0.012413522354547651 0.020288718826040806 -0.0014246533931018249 0.02532468780794086 -0.021614343038323148 0.012886368383410122 -0.04082084958908761 0.026362539287196708 -0.04217893621507875 0.0224921164601495 
radical 0.026814167386309228 0.011891171438875152 0.04627992067245595 0.031580397582615986 0.029885575953193324 -0.00034723822536965283 -0.041399194434110775 0.028735434492119474 -0.0201455508255124 -0.028557768512491352 
lier 0.018796171423451156 -0.0263991409926004 0.0340295681363771 0.04298410238224968 -0.03041252084647736 0.017321502203355366 -0.038744266371767276 -0.035961887571938495 0.003585370845793806 -0.041575917212960424 
cantine 0.022583578007067267 0.02563089820871523 0.012419951077802492 -0.035109243652214 0.00580932128634993 0.007698507576013697 -0.01994891884462244 0.04195225483046358 -0.011014824076533055 0.049494226453336156 
inoccupe 0.006348390858729737 0.049293740633309595 -0.007798257228940501 0.02285231925645083 -0.040471395082228794 -0.043452008145556914 0.012271888364704258 -0.02124246733036597 -0.0071067481675676225 0.013371867993151772 
armateur 0.03775695864597935 0.010563809789737918 0.033308489559835716 0.04667142384790308 0.03214412516069531 -0.0449802208995518 -0.01746225925250254 0.034219644903442495 -0.03259200197950837 -0.039098106873174936 
matignon 0.002954282169086319 0.022392490153224722 -0.01398820639393903 0.0429859113737823 -0.03261812007876485 0.016059426467937163 0.009632072796912134 0.00328694703136082 0.011399057203876836 0.006749814652438258 
cinema 0.043007521515546716 0.010957442249327478 -0.024679001521867083 0.03145975313706094 -0.013701426930227233 -0.011777563854113611 0.0263087662460449 -0.0314666864959944 -0.0038004848609665813 -0.03648994522807364 
leader -0.01593284887955469 0.03841641089866672 0.021918134084689275 0.013916412251259095 -0.030612440299099184 -0.021134791573843417 0.035276786322299664 -0.023237742269908504 0.009395065711783387 -0.026721205048864407 
rh -0.00412070394910633 0.006227314507030928 -0.016313170207562813 0.004669771770936629 0.0076652593224963575 0.037377687317696175 0.0483928753433923 -0.039586150312407795 -0.04297498902604159 0.04433428462457265 
valeur -0.008432138230612346 0.01962952682851362 0.04453726477796369 0.011520137785542502 -0.034640997846124046 0.014536454256180316 -0.01915050935865682 0.04465432884101738 -0.03766243464426428 -0.0045483791436731575 
frequentation 0.019619974966395705 -0.03158084652751838 -0.007121368217291206 -0.034645965977318574 0.04131922246261296 -0.022341161754986186 0.04621867640997847 -0.00026147979453585563 0.032357580986444937 0.004145706873558491 
rnr -0.013189335439198415 -0.030280070806045056 0.007474911871319091 0.04994674124089231 0.005643960627081362 0.03328559461716062 -0.02272805446707333 0.020400590648130303 0.024060250365134882 0.026901799329818236 
polluer -0.034308645498220984 -0.044480642749802214 0.03142501482332218 0.037293264893435187 -0.04825750235576628 0.026549692244960295 0.007268759752450437 0.001607098473715735 0.03277192303931857 -0.00585869466536628 
depasser -0.0013416804335646322 -0.00487128112476378 0.035418704888281666 0.002326456595918837 -0.016815738914390935 0.048321294668313135 -0.012475796979967292 0.005644097203375089 -0.04800614119338163 0.015512230912597735 
manquer 0.04174069985155414 -0.02245206799453207 -0.005056149976889776 -0.03912280258059482 -0.0037927519152757905 -0.001408701786804666 -0.03808926131550732 -0.005706435305505085 -0.00953365574903365 0.026770444095813667 
alpe -0.01876878521600869 0.021829799746958856 -0.0028894376956336704 -0.001314857419842421 -0.030988101048456323 0.0012719005891128111 -0.0004254805247928846 -0.047912812135920385 -0.04555548350267598 -0.044924097944529534 
portable -0.020129709866829996 -0.02468879247367171 0.021503331302856317 0.04983419124831172 0.012614594484547185 0.014050912210662788 -0.025065446285728075 0.03195326028784513 0.045569056684923295 -0.0473668505496179 
ferie -0.0032878796137379754 -0.02930557075487632 -0.028057171339118177 0.041959166427011946 -0.017877440329852785 -0.0012970312709704697 -0.010727613467283762 0.01787469362652803 0.019652576694036656 -0.0496480773327446 
surtaxe 0.015588814000662475 -0.012599077483701506 -0.0012937087526122596 -0.022829494281331658 0.0490378226085786 -0.008994825586375607 0.014572783373427179 -0.03748512575434371 -0.012098029477134363 -0.04618516523237447 
lutte -0.015756066174507283 0.03736013388631151 -0.042506375437623006 0.0342692924949685 -0.04292276160990684 -0.004208911358959203 -0.019377867194687225 -0.012947068425420101 0.021434679541506057 0.043470650065118556 
hydroelectricite 0.0011316883436748757 -0.045536826112390974 -0.04708060760368939 0.02727485349653547 -0.03292120738153145 -0.0498840784068469 0.038584419413479815 -0.005172523316396534 -0.017706899273019203 -0.01923462640390177 
fromagerie 0.01167377685897691 0.02462946424490427 -0.014229917749168626 0.004155775508483959 0.04236863410012109 -0.03513270633768185 -0.005342100947053947 -0.032768833890811574 -0.04379331895052985 -0.032694972335274 
demarrer -0.03138791712402745 -0.025632816821288148 0.029277799878140436 -0.04087614887264247 0.03612039108661548 0.022792157743346995 0.0014955673137813663 -0.03219066622477468 -0.041835902322566294 0.0071669293191004325 
depanner 0.015568696468022893 -0.021230512352235362 -0.02862724106644688 -0.03003409027338747 -0.040363143126835144 -0.02689461421949309 -0.0334091189628486 0.03136408780363645 0.04713203613166126 -0.037585626330617274 
soude -0.016142701099259294 0.0009516555257838478 -0.0061593737873674535 -0.008057750604591867 0.03409544111082244 -0.013959605225806337 -0.04619579138432179 0.00803459248725838 -0.00570469368315115 0.0069634788876101195 
pastille 0.030507111206284396 0.04662606610734297 0.00570711145073806 0.01338870869577058 0.02907966390956902 0.004384763652319739 -0.00019625977897652354 -0.0008116854359232628 0.04149563622136436 -0.029163634165456316 
francaise 0.043168695793083973 -0.018349484419216206 -0.007913547566285222 -0.046332795850522114 -0.04072085650927317 0.01952222839688895 -0.020066836378149294 -0.025098267572208302 -0.0019299823039738246 0.03363368579479813 
destination 0.02557704201015788 0.03214248575874765 -0.008834224406237238 0.044814016863647374 -0.01560817514355715 0.0046071301864890795 -0.025034146187910174 0.007322581084963727 -0.018256448961482014 -0.031808560889384524 
quantite 0.015204363161990373 -0.041975458043230544 0.004923157244165128 0.039684777992115144 0.01755515406749791 0.01633771594812068 0.04459866530266191 -0.01857549821832841 -0.024299142934229367 -0.028414683267136583 
junk -0.021856635348103844 0.02687246861715922 -0.008817382056741216 0.014174218302055388 0.03601909254893343 -0.045248607780019844 -0.01093024905332786 -0.04860154268780926 0.02123249615428794 -0.027250632693366708 
circuit -0.02252974606595962 0.03523166187650927 -0.0175935947376724 0.04908315932958277 0.009429278994122 0.0505946815285744 0.04724631827530006 -0.03314278100187033 -0.012363954085457006 0.005312652154418989 
multiplier -0.027425088994341672 -0.02082631493106844 0.03479943858502277 0.02156003167295827 -0.04397073946607297 -0.0035219766360439107 -0.03514723680880292 -0.026884638519822878 -0.045730680075304016 0.006749012192624903 
rond 0.008829577859274488 0.03627652217546746 -0.043550934836756594 -0.009176028425230943 0.032896138047561786 0.0098915940495432 0.0027144462556213953 -0.046100448130862566 -0.0038849598860069617 0.043523074458418166 
loto -0.04460744077310344 -0.01182078323383845 0.003784774342266024 -0.039691310940756244 0.016288841308647852 0.017828134227428395 -0.0037439827681457712 -0.04102552030049933 0.049697107771736054 -0.03794580980549022 
decembre -0.011778119508562663 -0.018638119492793915 -0.012712874800111892 -0.006143233811418729 0.005477941936581503 -0.010593758855702183 0.04648016097052195 0.019964485996656484 -0.03791708157779888 -0.025239446338191425 
recompense -0.02026146470617859 0.019384721786392056 -0.004994985394284696 -0.006568785341788736 0.03758477156392804 -0.040116874387687795 -0.04533549425477787 -0.008633009286575413 0.01665519549260647 -0.04491515226066492 
vider 0.03314339330656875 0.027088987752359708 -0.02404520173290311 0.030757920900149602 -0.04195909615322465 -0.032130955764796375 -0.008852616536306066 -0.0364185782821794 -0.04291832052765184 -0.03206386442135191 
basculer 0.04356632927175982 -0.017201774285454056 -0.04820570631873912 -0.002054971678226412 -0.04650817990938685 -0.03203401024576085 -0.045800655492759114 -0.0035244177772627166 0.034288634701065114 0.026418680192994756 
aliment -0.0413577672322023 -0.032604143228510886 0.005075138088018096 -0.03429366122625287 -0.015078452392142581 0.007311420377130869 -0.03168971274635045 0.03472073289235916 -0.012980737015196541 -0.012458034219629028 
is -0.007051146522772844 0.04887784352477307 -0.0028299579743685725 -0.0320769911400332 0.018662334442579254 0.028882414033363002 0.0334375139902729 0.014466330311772836 -0.003763245227662128 0.013618796497545107 
simplifier -0.010750303795099099 0.03497084164357114 -0.00794995864339756 -0.0012922352116800173 -0.013517069845803883 -0.027718632160306168 0.047975133212776376 0.028596757913590273 0.033608254968952506 0.003068286083219222 
telephonie -0.029106527238503432 0.01293405507692434 0.014000439029176165 -0.0050249210171790315 -0.02426484316465936 -0.019494867418509212 -0.03513486727193747 -0.015235515428031561 0.023686305954180416 -0.03824718752483254 
resultat -0.03703272951469916 -0.041663394303952245 0.029566379195673852 -0.014781487722970174 0.02985177606139016 -0.037844012564949264 0.017474437071947846 0.030199959739981703 -0.007305671237911239 0.046372098645216867 
elargir 0.0015920246702507866 0.02770962794652227 0.033814051240747274 0.0006908367333489688 0.009072083166839795 -0.03830184074343227 0.027663102400933556 0.015474408769913914 0.03882395974642674 0.003052465407644007 
departement 0.03183941538818883 -0.01541253139288575 0.03785402888501697 0.043350297565246915 0.027827546874453064 0.008704019747762439 0.0031244855358899576 0.026620984264776812 0.02163166514568253 0.01291309441910909 
inconfort -0.02073955883583887 -0.04665937878367848 -0.03547936008152556 0.04423780936669287 -0.004770917781066159 -0.011681376066736946 0.00930625042328714 -0.0029133263427453433 -0.002469159854002054 0.01148537695679967 
admin 0.0073263182781317816 -0.03040565548404621 -0.04490321858268252 -0.02005003472462504 -0.039111263202063574 -0.007354556700592383 -0.02906626578200841 0.011089848545487587 0.048634292888553185 -0.02298226846206535 
majeur -0.03294928042532162 0.029864455154201393 0.016152871169410166 0.020245689790086643 -0.04667108378842964 0.04080921040732143 0.04330526193368738 -0.034069719789147385 0.014239851192067799 0.04602225256184717 
encourager 0.02812648954556701 -0.0160500426234871 0.025013976111576068 -0.029691580364762635 -0.037796966679095316 -0.0038426722952890147 -0.0078913968280992 -0.03028525039216814 -0.020524900903794253 -0.033233795099486804 
hebergeer 0.01708918270260669 0.01657326732651313 0.04328624339820402 -0.03153556525800845 -0.047818447619768986 -0.005457961750117294 -0.022427630141077612 -0.008871759343801931 0.02025112403369354 -0.029797212015537644 
souci -0.017924501850495503 0.046133226529580476 -0.04588499011557321 0.00943550728813208 0.02508506339297365 -0.02725385700422701 0.008856177002066328 0.04081555566357897 -0.015197591383290307 0.02867012053021473 
drone -0.025281265906265074 0.010999818041694524 0.009853386408133316 0.048469983556189256 0.002714284920851786 -0.0498696849618958 0.024546328562115527 -0.031549217192180824 0.026364256148426222 -0.008772458331108015 
autriche 0.010278661670992072 -0.037973813203894265 -0.01886435573336878 0.0137865638088942 0.04885666765150898 -0.047109771783815764 0.017922022445107492 0.025416936737810775 -0.01104741090403666 -0.030683364838749182 
auditer -0.03429147006229302 0.04527529692049676 -0.04107275501675151 0.03479927671872098 -0.028617399106923087 0.028641557668592797 0.018316858632430558 0.007353852971218408 -0.017509245671867416 0.02480993096858537 
unitaire -0.04658079956171508 -0.01289258082123952 0.04714925161829562 0.011487289439921304 -0.036265684805959604 -0.01925495190607471 0.022537712374767063 0.03629624475110142 -0.03257417059778107 0.04145769693822689 
mesurer 0.011711837737818797 0.03730292572345596 0.034142209848096926 -0.02992197045080888 0.035386728370073416 -0.03146680378734919 0.04963222250561082 0.046969699811081546 0.04207764971552779 0.0454354936252835 
fermement 0.023679932594468312 0.036635269208654404 -0.0016424174580726486 -0.020310097841899077 0.022759593523194795 -0.036491156485019834 0.04541387462792015 0.001887468068632316 0.015443774235597394 -0.008141689217933543 
shunter 0.006655828721977133 0.02058356397175618 0.024115638806667675 0.0047156074857932495 0.019837288738059875 -0.0173532819349639 0.01867333740590257 -0.030710717977884733 -0.028033801429966594 0.022822750992839005 
diminution 0.045230357781485264 0.029422287153841736 -0.020067178292374834 0.04152643324739401 -0.03016358633647797 -0.02113244113053064 -0.00020819627322937468 0.02562906768048959 -0.01499344191963051 -0.04287513073673551 
sol 0.014484678823838344 0.03449470618920991 -0.027041304242815055 -0.028141299609719245 -0.04500514077382582 0.026688941853987642 -0.03525013808279596 -0.038752325896155834 0.04543323158008799 -0.028379593772818245 
developper -0.012280257499314799 0.00398536302334393 0.027018819637068432 -0.025399377230518327 -0.03264355325718781 -0.043631664562181253 -0.0238842474617917 -0.02946805925233132 0.04723689636571786 -0.008108073557779366 
systematique 0.04508932540396011 -0.012787347253207097 0.019896091885783042 0.02064494483056992 0.02874889822777129 0.029852320390699526 -0.005563631945715883 -0.022777749639863207 -0.026012323278211347 -0.020851878438296004 
aider -0.002059830253716929 0.0106977483775671 -0.019414361799319494 -0.03851915493079294 0.03351406543491509 0.024570088933973184 0.026773161101886902 -0.046442872232583955 -0.009062331242108444 -0.03893028393816662 
faible -0.03603883453930388 -0.0477856485165839 0.02201679596835467 -0.00020769908903133644 0.04186772344397512 0.02151265301539963 -0.01942685418601455 0.027435352286296642 0.03213962976725464 0.0013094965707021455 
branche -0.0010068690497780808 0.009664214819952638 -0.006162901225015573 0.04463765154819732 0.009837705832757667 0.02296521932203009 0.03539719055790905 -0.0027254658656345712 0.04297764632002038 0.008707223245549713 
strategie 0.03111819425076905 0.025645320005318464 0.025994323404111563 -0.006020480105826923 -0.0178392759995589 0.017512449053140658 0.018350929426922943 0.04801003609967795 0.008004654325642901 -0.011266714685299169 
dispersion 0.02299697677460278 -0.011721856325021646 0.015886203875370344 0.02261822908341061 -0.006659839153382993 -0.021600244268629998 0.046068637595047986 0.006093319958955902 -0.028069256183905877 -0.04581470775747613 
investissant 0.025091402624977534 -0.02489568030072565 -0.00418923273089352 -0.01915086802061083 -0.04540508099531248 -0.04744784845677321 0.0461342870343832 0.02905061271684794 0.021793171970922127 -0.025254378378827602 
amener -0.029767293614673063 -0.036695895766883806 -0.027471076652136252 0.03601515163841574 -0.04397550075126304 -0.007920401595774696 -0.04875858695313313 0.03464017872410363 0.001994458351098109 -0.02855280139557497 
gravat 0.00953661040871133 0.027595912900083213 0.04932757787020301 0.04890170948866872 0.0002397720369231701 0.03456982690115086 0.011968053826472454 -0.002062288396882086 -0.01639351319973845 -0.04480919227657842 
initial -0.047673201022981025 0.02035220952129515 0.004197924745543635 -0.016055234289078478 0.045970851704620355 0.009135168025247184 -0.007152125657715751 -0.01251429217730636 -0.043266422839500565 -0.04061623669661752 
ailleurs 0.040472386240976495 0.0006581441623346652 0.03201260002406742 0.0326548854415133 0.03660001512272431 0.013917689462777858 -0.02462278123385715 -0.011823033672297421 -0.028469461837365664 -0.01566702669456512 
ingredient 0.03894585714044358 -0.028000015758882262 -0.029349523270187042 -0.0065796390749642344 -0.038780704804070636 0.009436552106008793 -0.028409375867533577 0.010502156658844321 0.025252966240707546 -0.03762334944215695 
changeant 0.016176407294356338 -0.04645047080470099 -0.02164624425112581 0.038934833296630576 0.041960028339515246 0.005134033642962237 -0.047873836514180874 -0.0056962753431920735 0.04161725746344822 0.04761356348450894 
alternative 0.04631988921790118 0.04259336491347863 0.04340537266971738 0.04203344060599466 0.00996458643577942 0.04458932771464842 -0.0014597213004847519 -0.011485254499415154 0.00574931038012629 0.047160409249552844 
lithium 0.04533592480846028 0.03658543328732997 -0.027853926985125167 0.03600186515460473 -0.0014790720190805083 0.03824095998584754 -0.004387721611793262 0.014938766560078845 -0.04233413459370649 0.015058837044142985 
particule 0.013187480141362546 0.03524129139921697 -0.02546001708340571 0.035997951274354414 -0.025977233913948447 -0.0033250529235589223 0.013114859421711826 0.01979542108036096 -0.010994733670970602 0.041141047764920446 
reaprenner 0.0059317769616535915 -0.012850633821283028 -0.009989648635002938 0.01892446746684977 0.04138828152659613 0.02682059176907018 0.04977576493993499 -0.029873171654379492 0.0033714960794681325 -0.0081106253457006 
controleer -0.03214777723291652 -0.015612401059038867 0.017835705089548952 0.028039434346573446 0.01781277932948386 0.03461442967398756 0.02149393569139519 9.303154643879788e-05 -0.003310481163854649 -0.004411653325874419 
coup 0.043190358849857564 0.0034582544094107995 -0.007378386703358148 0.024343544441014473 -0.0068571371582806856 0.04826526970674113 -0.012411691383567371 0.038689023388477704 0.007435131194386383 -0.002420159187466453 
craft -0.01001268648807918 -0.02997922929927912 0.03525575559629161 0.04138967371006511 -0.005054869493077158 0.021463599473013562 -0.048179663117747774 0.04245963188790748 0.028606270685716337 -0.032147180492005066 
tenir 0.021014555406151846 0.048519759112837034 -0.045657227408434926 -0.000837156400890952 0.015581668414727105 0.020524398858554962 0.005630801251555999 0.04688476680336709 0.007399551199162756 0.04081263501414987 
portique -0.03520253219832495 -0.007520847948590343 -0.024968871457157874 -0.017058750557462633 0.01692536474938067 -0.027683937043210517 0.012017624694688846 0.015604062255403303 -0.020042580820496564 -0.011446682775389596 
nefast 0.04985250904490551 0.016437506000946928 0.02555751335230115 -0.015502300851248844 0.021603427668933237 0.024987042665304788 0.04930213293233751 -0.044338221970142144 0.004457035228284504 0.017941980115752 
pass -0.013562934116010176 -0.049242985389209605 -0.014951689786114651 -0.0008058386780433445 -0.013654440073448588 -0.04486784342005033 -0.025328725304886675 0.04168446056696922 -0.01141572423293032 -0.003521766055617933 
retransformer -0.02994970489821329 -0.01701784973686715 0.012161984030008278 0.006359071020517076 -0.01865170197447765 0.04026754355467376 -0.010101118974414881 -0.0370050467204245 0.002889461180042505 -0.003068192613113815 
biodegradabl -0.02911197291514591 0.019759896921101347 0.024539602177246163 0.007635253344022908 0.047125434646537116 -0.0447095183186063 -0.02997544970015646 0.04335281805328137 -0.0010984123573246577 -0.015202589443795938 
coherent 0.0193805526260753 0.039113804509433685 -0.04168718267377358 0.04628289609914887 0.001438659443452019 0.03200293279202425 -0.04705082200075628 0.0039278677710725355 0.028294301593434767 0.0329628908857826 
embauche -0.03644880412326672 -0.008953186787050746 0.013878597063756692 -0.03745898442096639 0.009885203494631336 -0.04208508221928296 -0.010953264238239254 -0.04814122241803449 0.048395439856605875 -0.028740458454024686 
passe 0.03132134066492427 -0.037310118870640716 -0.0012101303864327055 -0.01907979488088907 0.010788576428637174 -0.0315266596500417 -0.04284246518790807 -0.020733965943957263 -0.005561414599353598 -0.02913324107860536 
bateau 0.02412230873633938 -0.010935501400748612 -0.042030499966460605 -0.0005103399586297552 -0.04474719330522641 -0.02763741864041734 -0.03598819390457196 0.009433221800224854 -0.04809720546998905 0.03333361478183051 
allumee 0.01897001335431367 0.005602015655166802 -0.03178870999109321 0.0448447854061815 -0.04702057594032196 0.0200510844629612 -0.04748829474343602 -0.028189007190579114 -0.01820183341795931 0.008112888894193532 
xl 0.03313947915039245 -0.024455484673778737 -0.004242993845149833 0.035975492068964755 0.024736332434104114 0.031644516623309964 0.020093072997654147 0.008715189181133733 -0.008772862289844639 -0.03805706105112921 
lombri 0.013344272702811391 -0.04667842739599114 0.04098376707934581 0.0177730853343769 -0.022480871831783402 -0.030258849106937543 0.042820803799442926 0.03272386493822772 0.044226232040227 0.014956791707708075 
retraite -0.002269345627842963 0.003108741817506064 -0.0017417621230680755 -0.02416553334318025 0.02322770630129194 0.029230627013880274 -0.0027684897876550435 0.031766870351575244 0.0036767573198880047 -0.0406797659027615 
resident -0.03692615566158418 0.0442003858155767 -0.02580003082564539 0.005213773051864059 -0.006566660575250422 -0.031758447243727866 -0.040752794949075855 0.03990165890436855 0.018946899604708505 0.006501046939571177 
allergene 0.030449139880795836 -0.030826786435931723 -0.04900295960290067 -0.04661562122635093 0.04509750492995365 0.02656433176655918 -0.04152018650906613 0.033608969006417015 -0.027982829873044974 0.047685689502636915 
diviser 0.022708458680015364 0.02288402148909008 0.016381427152588533 0.019788262830702057 0.011609318973072347 -0.019091400045372412 0.03715306288779653 -0.0476585986231989 0.015308064877758923 -0.023881094988053977 
schema -0.031642479019623845 -0.017013635983913325 -0.026379920326127484 -0.030349993003775548 0.02141312052730655 0.0442872960898219 -0.03890240176181845 0.036609906776914974 -0.003868567253579346 0.0133618891868046 
visioconference 0.025803041015210918 -0.049562105870168544 0.027334588980745148 -0.011195968831674882 0.006082358731014977 -0.0004328990015814968 0.0412842115405047 -0.003951221048305952 -0.004884684216659333 0.049193760066209985 
bord 0.00023032318244400893 -0.005047468577529533 -0.014071205762397716 0.03844441369828055 -0.03366333697169639 0.022522038061680207 0.01899658529965902 -0.024364293257208236 -0.02053491504025788 -0.04216787728740251 
fournir -0.04606141080528557 -0.029230226642972625 0.010132532799399093 0.010072049933243817 0.04006947208458207 -0.02848718704312229 0.02986577898187004 -0.008737175810072323 -0.031141515854223336 -0.021732191901151755 
poil 0.04749500821332 -0.03274431639498584 0.0464569576271204 -0.044134055490620015 0.04669976633562564 0.028490507146223202 0.0019236892337462367 -0.013089687773710456 -0.021290652904360382 -0.024200160291610404 
intelligent 0.04769699540865975 -0.01257187024731417 -0.004541581541465125 -0.044004003538516176 0.031304240038177764 0.04335941173980777 0.04092083965076902 0.027091637426538723 -0.038430959230093126 0.048429414865274543 
habitude -0.040454051479921885 0.011241597305291276 -0.04269003100869318 0.02145990459042698 -0.028084209781421045 -0.03138881572118272 0.02544137838382886 0.037730985770921203 -0.0012746888483913075 0.012785947701945029 
carbonees 0.009724808686301272 -0.0038335867836645533 -0.042463311455758754 -0.029330657431342437 -0.016729704929186056 -0.029342360609411002 0.03556342001239294 0.023618952740025036 0.018150739821871487 0.006932300039467682 
tracable -0.02510580954646389 0.04925893205381902 -0.04490565673786887 0.024603777535592803 -0.045570069984553756 0.02312110948473686 0.015708602120935163 0.028652050276342975 0.0004856001769896908 -0.028470268466486176 
yuka 0.029315325094015673 -0.03183919973865164 0.0010228419592807556 -0.03240629363442457 0.045304580815498874 -0.010941833307035725 0.020211235109906925 0.0016972787525964747 -0.03248365370153215 -0.023057351637590023 
gratte -0.030521401713385545 -0.023287919435724246 0.0035469258257506174 0.01616075806547675 0.03319832394332738 -0.029477813874682464 -0.04360282402691082 0.017242318473832823 0.01322344689231064 -0.024636097928199072 
reorienter 0.01623634434117855 0.04328246273712379 0.03298140147279292 -0.018073376985006405 -0.0466127356476336 -0.001350203601310071 -0.03387189226517079 0.027842364588665038 -0.0023660857081256384 -0.0009157023430254382 
placebo 0.037806105746116786 0.003984049059173392 0.03779240385336801 -0.039408995317808296 0.027342876614811662 -0.04189364280708892 -0.027565223661250384 -0.046844815757061134 -0.0309462107134451 0.03665529099180654 
reintroduir 0.009668373953975391 -0.03358005243658243 -0.02035467678544425 0.03457243723262725 0.01571568045013131 -0.0010269612026736583 -0.016490902682641445 0.016086494893394747 0.03254556397532204 -0.033431379403304776 
pme -0.0017499198229468612 -0.04343400712443394 0.030155358531816973 -0.005638617666632554 -0.04088140963694876 0.016530675984700195 -0.015709765688998383 -0.03093091843634491 -0.03508480498589356 -0.036829312919053524 
dejection -0.04124681571013297 -0.034470409039066535 -0.04365999192122202 0.04132721153494779 0.010887380471511297 -0.024811637084595523 -0.044849828815462074 -0.02933654706390641 0.006610199612134428 -0.047176463051608976 
hydrocarbone 0.027731252993267758 -0.04782152382398051 -0.046576753322232704 -0.0035781955028965098 0.02169223231870056 -0.022165030172250934 0.01526057019803386 -0.010072551222964918 -0.04030566166359118 -0.04226234763106678 
amour 0.029193663683997718 -0.032008197935411195 0.041217764752419644 -0.021947161507222538 0.038550367732957065 0.018607649308977233 -0.020052549113961895 -0.008842702898758145 -0.04752765900762194 -0.031072814513659935 
vintag 0.04120145066421444 0.03720926869897572 -0.0016433930833124942 -0.017205943986176715 -0.021547537715858007 0.0008790696834924104 0.04749515290364634 0.03772601333752129 -0.02101443704394611 0.04056891702948469 
novateur 0.04056681796530435 -0.016509974467362458 0.024893038730770357 0.012589786343648292 0.023236684647443502 -0.01274888383496289 -0.036808052747058555 0.02786050221420691 -0.004613834426852656 0.03828577395439674 
bus -0.02401515910903931 -0.04403261828901629 0.02711760456232598 -0.022833698628279775 -0.007217349701355635 0.03176112601434146 0.01702958240392823 -0.045265930825553795 -0.04819074173075574 -0.025676540656428635 
cheque 0.038000911412845666 -0.006723669799618893 -0.023851311989580435 0.024455509489625906 -0.04492914650737112 -0.049644726897221825 0.010007405360140524 -0.01042273230343823 -0.03293283197881146 -0.035079040042948914 
consequent -0.030288796385666242 -0.031170998405554425 -0.04256350533351195 0.015597074838897898 -0.023563950598745664 -0.02439719453767586 0.025507044394957597 0.0036183711759200025 0.027089911971233883 0.039042682055028706 
transitionecolo 0.0031214845480925283 -0.0007770978278373931 -0.026500809564377944 -0.026954344071707787 0.030499267748025038 0.013078028063843495 -0.005045577323635068 -0.011029710990332734 -0.0011577814923492155 0.041210587961484295 
afficher -0.024082147878195913 -0.021808777682287228 -0.01361042223701966 0.004925012619565303 -0.04666850426360361 0.035040563637352605 0.001083550901422737 -0.04401145077705416 0.029446595934847282 -0.03608610113291474 
douteux -0.03728662849023388 -8.730046120279679e-05 0.03655817959895249 0.012295625966507222 -0.047158416801830486 -0.027206232918245633 0.019091492495102617 0.04543397432456247 -0.004361041637493635 -0.03171421206924078 
industrialiser -0.013471676256891926 -0.012938149053878436 0.010916905018168034 0.011609935984746566 -0.043795355395906885 0.042345776242734084 -0.010278081202453134 0.045046114172498514 0.04141096371904527 -0.01844413827391934 
adaptant 0.018769672504838287 0.03238628672167948 -0.03287341130093482 -0.0318681074961659 0.004958853361989955 0.027061847656254873 0.01847325696230765 -0.028354189570428488 -0.03407715071536144 -0.024407861704924625 
guerissanter 0.010899547965681884 0.036213891980993715 0.013941259246347351 -0.026861664331436785 -0.026830474573574754 0.028938721228533863 -0.014426927581845831 -0.03256132699176474 0.007258231099161435 -0.03130076104731673 
solidarite -0.04930650439120044 0.04686402844639274 0.02278935715579772 0.049251554468374134 -0.03501001358527877 0.013946152189172325 -0.02350857452596782 -0.018004554665362386 -0.005904739252512294 0.04206295098211438 
horreur -0.04235982476518959 0.016227066368889174 0.0368902994079386 -0.01975684556485059 0.04941001177753467 0.030303060917724323 -0.026767628283314457 0.025653077094590464 -0.04702463074278718 -0.04710359071954643 
auditif -0.0140536772282747 -0.0012374666933459534 -0.013760204522255615 -0.01335629666953418 -0.005653594256030828 0.018224587113710614 0.030845456112674103 0.005784572762919007 0.03326735280486882 -0.021462135228212352 
annee 0.032931813538771365 0.0053431710250759785 -0.0032260662654075385 0.04120588892900043 -0.009284609078782929 0.05009053493653667 0.04201643770626141 -0.03506180050235207 0.02149005932614796 -0.0424494769752448 
serviette -0.049175764334381755 -0.006627683781457605 0.01997976009548481 0.001659075246853782 0.004972206743851989 -0.034401918154908284 -0.030963018061814635 0.019011883109216324 0.004502155624790874 -0.03929629920264375 
programmation 0.013013395235521214 0.04717065850378617 0.03565022538060206 0.034671675900317916 0.026083814647977877 -0.019650713808125806 -0.027924086029468716 -0.013221601674845805 -0.045926514906050236 0.0321690640216399 
coiffeur 0.020164400924113347 0.03557055040592078 0.015519954036825333 -0.0015381774419708644 0.019332260822885954 0.04276139393380049 -0.04346652229882964 0.03382324805572865 -0.04831512990119038 -0.028613986883850657 
reseal -0.009548524032533857 0.049356240775431395 0.03812985109088141 -0.0034116625878809486 0.007821590517632572 -0.03169627657700542 -0.0046519814439145955 -0.04802005545849044 0.014817788113138749 -0.007502645005386967 
flyer -0.02598705931314002 -0.03422027760634378 -0.012363737909449187 0.019250192705524517 0.044531769415115476 -0.013369232894699075 -0.04963532693648412 -0.011273034652629696 -0.022763908191684796 -0.0021268089927182253 
exce 0.012149984761580265 -0.030156734164196057 0.04191756456441758 0.03492947679591342 0.031511872531832553 0.009254970383313577 0.02058145506249721 0.019066122284502978 -0.009142090982891513 0.020717286426995683 
faire 0.025943206229572198 -0.045956874044010186 -0.03849182116568195 -0.021892801398870187 0.01777132850446795 0.029005164624728293 0.0051081139858600326 0.04361447944989064 -0.030550080295885934 -0.04562953937928216 
volontariat -0.01605403434230213 0.030295036478715887 -0.0336752396322765 -0.034638395654774244 -0.044249954852996466 0.024636527820570426 0.018822458306626252 -0.033403977192893 0.026013280887881365 -0.04068259978759553 
antibio 0.04707190682133318 -0.027718021941208485 0.01995592141368772 -0.0017446435866475265 -0.03313849057008615 0.002045842982900502 -0.04949400755535903 0.03640527445624024 0.010955789237608928 0.004259046140784385 
accumule -0.04539043508473644 -0.005031129937294957 -0.04144444419729181 -0.007740492636399252 -0.04483003040463961 -0.049388799479374385 0.030432455112788883 0.020020633276738142 -0.0047222759591949645 -0.030647401247083355 
osmoseur -0.027485998614678223 -0.03126755585691206 -0.026103614539918746 -0.014090216459042782 0.01080204116838397 -0.04485674685448029 -0.03277156577840973 -0.013784078879762152 0.04907210243090151 -0.03625024359541877 
poele -0.00044356579669528227 -0.0374259164199591 0.030029515765255973 0.03693194110516736 0.04262472861384071 0.020689033496371117 -0.04529841424956687 0.034478347971132244 -0.035628986387721634 0.02519890107323832 
commerce -0.0455699196319289 -0.03402096562769547 0.013139628028006289 -0.029015775267377874 0.03701372345550593 0.046525182529260016 -0.04913480330844205 0.05035719997186238 0.0015251321383655042 0.008855102623463285 
autresporte 0.024246457327125485 0.03581456732436503 -0.04022048278566287 -0.0026002365490371535 0.014582176900386405 -0.042090004846573964 -0.03182985734333905 -0.01223105289739357 0.048195837798565316 -0.03590222566231389 
regionalisation 0.037760528064399126 -0.02880474419629295 0.025138028148759897 0.027413851164465156 0.04576966825999754 0.030724325028492278 0.025118813721434284 -0.012263429538066202 -0.047489393229818634 0.046569415950720415 
cintre -0.015370422035767743 0.009506302057115034 0.013059050594860724 -0.01618054593540549 -0.019607534802816035 0.015733812178407382 -0.005814556896987823 -0.032455990686312525 0.019649828526613903 0.028055113082962276 
guise -0.019699549798379054 0.0072045161584828234 0.0222142288674994 0.0207496689847396 -0.016951311969389937 0.008559280613370983 -0.04365142037400665 -0.03821889397630407 -0.03452112544515901 0.025248233748271176 
frugal -0.04000318142130202 0.04347662937677331 -0.0489971211450759 0.001906460966393779 0.04521157821097124 0.020249657246609792 0.033597891013471826 0.047062607769840954 0.035516451235702406 -0.01647316581664087 
localisation 0.00825375851151317 -0.029275273781619954 0.0010931932237919274 0.0341425817968068 0.04218720065680318 -0.0094108627306749 -0.03337902676767111 0.005045822268678264 -4.6186304790842956e-05 -0.03576368109668971 
necessiteux 0.024918873558448896 -0.005304770693690654 -0.049511401724281 0.028119655216198174 -0.006577021066792845 0.04349952360884221 -0.0029146769798054075 -0.00978969814277078 -0.01567227615470053 0.04196755723527895 
sujet 0.02335012698892546 0.031179170164671643 0.029674725822381457 -0.00834046594899587 -0.01374422377079251 -0.0018907686580180336 -0.029250689168824135 0.04395500015213588 -0.020808317605556514 -0.03156622570510322 
intensite -0.036510403853792214 0.014863784161075755 -0.019011451304511904 -0.024916411509266632 -0.04660101332475562 0.008563949536065641 0.046772537979149875 0.010426416830708182 0.028857480248379416 -0.012707983316983675 
lyceen -0.0195060594340584 0.033896734957871384 0.0035357822637922753 -0.03877715036618385 0.005857705168695045 0.004378118347571211 0.02201065999446092 -0.0073619672608847605 -0.01842796977616414 -0.03291757156960662 
mobile 0.008082859514417456 -0.02721867391971183 -0.04564390778033235 0.023015595279876976 0.034881755750643235 -0.037718071418225155 0.0016525676213029958 -0.00800757074493488 -0.012715874682493683 -0.04511829324832292 
fruitier -0.006081892805782798 0.025208624822756872 -0.02212812262474914 -0.010401560039186334 0.002250561681559507 -0.01601456221301908 0.024915091097455204 0.022706875457528336 0.00021158084029808855 0.028062318809650953 
marchandise -0.015840823644691852 0.04240500008170339 0.026690042187161343 0.04232121263053895 0.02125872226048588 -0.03225772307911446 -0.008097240889770985 -0.02950056504014414 0.030786058264455216 0.02372786281940812 
agile 0.02834866255820176 -0.0011660192446698756 0.043848944742381754 -0.041156444598913225 0.048433585697864406 0.00805134082468524 0.029031975573257013 0.0077661182087782 -0.04784326825739571 -0.005453888000487217 
rue -0.022280638697712612 0.021438146489628745 -0.0188604471584184 0.027097386844379557 -0.04727799700592191 -0.01569808896108083 -0.042855946724682674 0.04356795221368156 -0.005130964405501328 -0.019204953731368074 
apporter 0.016952390191175896 0.017817170282585507 -0.03772041965818113 -0.004336934202513706 -0.010089775747680671 -0.045315429347808994 0.005168796647635405 0.03285969683611206 0.026583852743367768 -0.009744855468010948 
processus 0.02352471509761244 -0.019181785877426284 -0.045650162819554196 0.037985646785373486 0.014531721064449702 0.0015583562063582225 0.017786013654204905 -0.010578436028719326 -0.022739111961049826 0.007076843643131968 
garer 0.03630403438355718 -0.032380176947177604 0.01344700767773463 0.034031953186719845 -0.04586664743684369 -0.018810157413644037 0.04030232515418704 0.03435940133785164 -0.03957190197913117 -0.006199956335502364 
confondre -0.004315456976681454 -0.007078083156570517 -0.048029539941910525 -0.027399930502155907 -0.03214181325608319 -0.03556642948309217 -0.027271209479645373 0.04571658191214427 -0.044656149244966 0.006012072574877721 
abaissement -0.0026673108824969427 0.022712324170409803 -0.005616487858225777 0.01774957828388331 0.021959551239820692 -0.013096507900370832 -0.01543367613979257 -0.00047793493667295915 -0.01549476838279009 -0.011574465342709813 
lachete -0.04837485953611139 0.015317183270095661 -0.03021078536390482 -0.04028618842165838 0.04844340833158957 -0.00043804918540297783 -0.007421562767203958 0.03846358907119797 -0.005566592348417092 -0.01298098155349647 
resto 0.012879463219586142 -0.04629608160087148 0.022824289290121584 -0.023227331934455402 0.03991611025140954 -0.018709036052457353 -0.006242298625267512 0.005682801916304255 -0.0009765151391984665 0.0013895417091754104 
roman 0.035495938738301556 -0.040130595755179424 -0.035938925540485896 -0.01997496045342769 0.016238048312419078 -0.03696131622678568 0.03231570228182083 0.03136604146640665 0.03378051181311859 0.04499230705940041 
etage 0.03744050583578415 -0.0008391123215413626 -0.013840289805564693 -0.027361013729162897 -0.011283306172330901 0.04261548480896363 -0.01709685622885261 0.0024295334918641317 -0.014831794102370247 0.007417842074397835 
touriste 0.007551564909856061 0.04255769782743289 -0.024313077996727647 -0.024719409006541505 -0.006814756242998308 0.02674059630185566 -0.032039525775912056 0.012538094096316694 -0.01547902726694354 -0.016851476374061786 
acceptable 0.022889420267084362 -0.02145177034793496 -0.045658820120259486 0.028990898229894133 -0.038960617926026966 0.04935622323733898 -0.0029738980193790426 0.01646599411812352 0.011399530173693669 0.041983493959320384 
analogue -0.00982322872780093 0.021259962142886543 -0.04977648048514816 0.03055857255708904 0.018773596631882175 -0.025443511017076887 -0.04218853221883796 0.015670761782889776 0.013110104214128306 0.02186919710891692 
decisionnel -0.011163057658349561 -0.04621755460678485 -0.03540519587242166 0.04661708463186961 0.0025217837770221065 0.0031734426564167333 -0.04524199907071111 -0.016525684664808894 -0.012801591883363347 -0.022959455375903583 
seau -0.019748210296378833 0.04813388459116606 0.018535789136784584 0.016614020213946555 0.004934870958874111 -0.029546432783036963 -0.017663176452161315 -0.045231446094772414 -0.03541196319935063 0.02053264350146177 
dispo 0.006067018596090719 0.036756672457730975 -0.03293725516633092 -0.036358265864323606 -0.03174666015404012 -0.006189709309447945 -0.047039537014124284 0.024523302263094213 -0.012245197608516927 -0.01373105793679759 
intempestif 0.022842316407167933 -0.0371452654504503 -0.023192073069016647 0.00046432333344330286 -0.03257182678635124 0.0350929666060822 -0.010434787818269778 -0.0473338539306743 -0.042390856529972175 -0.03771417858316559 
bloc 0.046687613057952694 -0.0229935869534545 -0.03672253254468381 -0.04741397796692385 -0.04170618212123487 -0.03531093873719102 -0.02383419481396136 0.04114215279914095 0.03569959235251384 0.020867472799901664 
animal -0.007438502521200318 0.0066101318483341425 0.008175762237091959 0.018460761330919184 0.010028038933456463 -0.01887775834609752 -0.048246402220343355 0.03557221906416794 -0.018631667755954876 -0.011871471701125727 
nudg 0.0326238605427144 -0.04174890778505344 0.002680427477000904 0.04288858082656634 -0.0456655589165899 -0.0036357363267416416 -0.04483379959338799 0.04469273043050129 0.047890596799596966 -0.04469168160927119 
priveer -0.034636793578473865 0.025625214408635626 0.037851892886694646 -0.0043556881970424665 0.018572155458156384 -0.04488964041420495 -0.0350597059268548 0.004349109399115835 0.048903744253389794 0.0012013243915430672 
plein 0.042504279913503876 -0.0029086608909316214 0.010107510885772846 -0.03279051282791665 0.02103760509758095 0.0445180193083296 -0.03755562343611787 -0.049839902182523405 -0.03398775871411918 0.023579028302258564 
tipp -0.009841901156350304 -0.049810606630375544 0.04066154312079738 -1.4382658596201054e-05 -0.04092297318193404 -0.03510800862661844 -0.032847519979957183 -0.03591264722162653 0.030695868232441147 0.045961154584132136 
communer -0.027144741686396728 0.046859288609486696 -0.04628748514648061 0.030598364504664823 0.040662931677716486 -0.009764800466390054 -0.033419098695952304 0.0011863846331997047 -0.0051736598763794574 -0.03156505447323852 
terre 0.0007225738281010193 0.01924057618470923 0.014143273453349661 -0.046528043369672444 0.01731120020646393 -0.031057702054061158 -0.030854522885873675 -0.04360306734599632 -0.00446227867048074 -0.022699743980684577 
conception 0.03582144396641899 -0.04447614043238286 -0.03436948780898422 0.0030128886359493054 -0.04559543161723623 -0.0478531066013998 0.019734002800156067 0.011613821907599646 -0.038125724756855495 -0.023931386061963943 
perturbe 0.020152917354836958 0.006656164767430692 0.0017546736563047493 -0.016779971197702734 -0.0372185326998285 -0.0008739563225410959 0.03375794251921416 0.04812172278456852 -0.010201880401875963 0.000663096378944827 
cassent 0.009734167241978856 -0.00996735276994442 0.028937848553915343 0.022204121664618926 -0.032050395139966395 0.036260972807209337 0.006901502411617981 -0.014607108730184521 0.011417071355358853 0.044917729263055615 
exceder 0.006205348270175376 -0.0005461850912501402 -0.037799751178824 0.02261305205368887 0.035310371303654886 0.048286767067718596 0.006684014934797425 0.03057146378847013 0.04487891380472871 0.028112918553404486 
leguer 0.011521768857342275 0.03399385107654753 0.037156730178139086 0.027525897211407573 0.013094981183633765 0.0245428017536094 0.007721090189193502 -0.0027130964805482443 0.010449785693518334 -0.03757133179449231 
seniors 0.04669501632327817 0.012565765611691265 0.004724035190564496 0.020159357243075576 -0.04301828845828094 -0.03742611002065317 -0.013741554954859904 -0.04921365536498855 0.007959158145311028 0.012641719720137555 
esthetiqu 0.03061905969918474 0.039487377296955055 0.026028022901419832 0.037608527837781104 -0.021672375347026325 -0.018025123504087567 -0.01164131982514534 -0.0011422060428121549 -0.04634975709839881 -0.008543546748517492 
primordial 0.009357360777201009 -0.0026610289697540732 -0.019971918581537535 0.015384904662100005 -0.02253435209208588 -0.025477296882552524 -0.03949801674885378 -0.009232246369265703 -0.041377451920938974 0.001130325266795578 
sncf -0.015615303301749947 -0.010851223439635415 0.034810699061719595 -0.025750806940311337 -0.031202938497348186 -0.04643538955984756 -0.017229336720084733 0.04264730475032347 0.02369642294379699 0.008229543618043407 
natura -0.03348601021843419 0.033117242511667526 0.04882195573737239 -0.041223136103733564 -0.014641690445208355 -0.014591603426861683 0.023036259811464285 -0.002821791491994 0.023729846682035836 -0.031813266780334824 
productive 0.0005975478942268655 -0.03885910408443438 -0.02765207882347571 -0.0034427601998375753 0.04043743846007231 0.02102238221685103 -0.022410738678178572 0.028386956954591147 0.03964147895463193 0.031600523449788295 
differencier 0.040454216281971364 0.049227162745098196 -0.020980478523611124 0.022982199650192464 -0.030189113009095093 0.011757609442799539 0.035600821402156584 -0.016375151221797953 -0.02171265755539286 -0.024145810837437352 
reconstituer -0.0010313803183462807 0.04559150792226093 -0.01994295362667539 0.0003878639861795926 0.04179354261583795 -0.027311020481909438 -0.018194013710848802 -0.040147029159143845 0.017534378431512992 -0.03386799550407402 
centrale -0.029862656046909245 0.02049475689021318 -0.043110146561585995 -0.029952751678463074 0.015165797795915129 0.038016717393218664 -0.045044306359108686 0.042305880419842366 -0.018463410837885184 -0.01728546031070855 
enteriner 0.005288918406796234 -0.03843047116888838 0.025210202248825038 0.04184849186729328 0.003144783812841193 0.006440167685983135 0.03255302705952464 -0.025339729308124392 0.015428934849354769 -0.032787532449321775 
finance 0.005172327669406804 0.03893792140032359 0.02078000068165169 0.049123648255880004 0.005869216550950947 0.011668457502159855 0.01738055189296547 -0.04205504056203915 0.03458367103945705 0.032743825438830074 
inter 0.038892102720467225 0.04501454228757017 -0.026775430781839627 -0.034279039821182467 -0.0007066614250493254 -0.014118078285534056 -0.02969902277527377 -0.026642615780219796 -0.04593926087889896 0.04703656092502658 
explique -0.007460684179507804 -0.04696634492479252 -0.03641726682763043 -0.03831384859434196 -0.034136685673721946 0.004894160201714518 0.0032997839282915085 0.03066116325819122 -0.03665459690289546 -0.048650406307396296 
occuper 0.03962247735893387 0.01861966631091825 0.041999413376876446 -0.010914987924805813 0.020654968986187502 0.03619845663207761 0.04064921630856249 -0.04285225597314723 -0.04162811204992013 -0.02187270023475232 
convention -0.02961308248299625 -0.04016753256215363 -0.025471018035462603 0.04794268881694696 -0.015397189811745522 -0.04285327926562759 -0.03267403987077899 -0.019175870460348104 0.0010203836365170107 -0.005762669408923352 
separe 0.003852231472599914 -0.0410546186217603 -0.04844865617419543 -0.015692787155216006 -0.02915539908432368 0.04755037651144482 0.003364516912617014 0.04338199923060264 0.029344882787685263 -0.027896727256646686 
implique -0.0011794747310364154 -0.04676952403186695 0.0018240310265685514 -0.03599953943047918 -0.018801175199608774 0.04236924374259781 -0.030371108600521734 0.048227615499824364 0.039712538663726434 0.0024623988963632213 
publier -0.04353824119143265 -0.04721677905841015 0.014879060484678826 -0.006355192746509217 -0.03127995617937943 -0.015672818378432055 -0.04519997715554852 -0.04260900561430138 -0.01534706884240088 -0.022983493028982088 
contourne -0.03804243993717445 0.030182005360105967 -0.031820241337046896 0.031614246473790804 -0.006478019431333428 0.01165603404321302 -0.03248091322207779 0.033118876516296435 -0.03713632079303157 -0.027419535778808755 
surproduir 0.032217690711986664 -0.004252592265410212 -0.008789414656010292 -0.0428034245657805 -0.04060446564767467 -0.008867040498445784 -0.0048770456301124275 0.04862146983944772 0.024681952293027793 -0.018163626299147313 
contradictoire -0.0074023566528412755 -0.042487050246750084 0.008024245979444579 0.03435679918715672 -0.022117647610218928 0.00463364171216758 0.010341923039230304 0.00718285892440889 -0.037528849103094064 0.012334500479757206 
senior 0.0042900781397645915 0.024912898790450697 -0.023473791917882337 0.006926904237239555 0.015478002620072711 -0.01942183219193709 -0.013412508860722087 -0.013461461925052095 -0.04491065730328866 -0.04538861778670284 
chercheur 0.04147723785892355 0.025276619366123677 0.010033264711484484 -0.006512495719889962 -0.00491036652433802 -0.04256686671558206 -0.014637474179603543 -0.013573187596759883 -0.01087143856215765 -0.04678314859742911 
eloigne 0.026954836685188964 0.016970542151129187 0.027911037243209553 0.045135119594600995 -0.047653551051200005 0.015397432676166346 -0.014038704893109 -0.04582244645989241 -0.014419558929457153 0.04697802775866637 
aeronef 0.036207260669994856 -0.048948605897564786 0.004304533122458547 -0.007308002757141115 -0.03411401747740703 0.04014553926352048 0.040144897974902234 -0.009024789706620046 -0.04593788139831968 0.03607123264614191 
mobilier 0.02399882167454761 -0.04348721684443624 -0.0058391285359433685 -0.0028292716411604433 0.02344209207506074 0.014336139489999629 -0.021332002453284003 0.02236654452301261 0.006656766869849902 -0.0406925853893534 
venter -0.03836852107666793 0.03581776745523781 0.03728515874404587 -0.011840200393606002 0.019977397305148595 -0.04605012906342507 0.0033045703932834173 0.04635135287753501 0.042610396070479256 0.00409527412404568 
hyper 0.04678843894475269 0.0033017905829145124 -0.012411338599436364 -0.02490118415938528 0.04639587440027025 0.03774045706218448 0.04250279097680079 -0.008533460354842683 0.04802535680263572 0.021844583115328872 
ferme 0.010469560006106457 -0.03639677525798291 0.04860353882621703 0.009404062010459499 -0.044283742559351635 -0.043429175817854056 0.04870683719880024 -0.02834934106275857 -0.008321394210757439 -0.04740582974918056 
alternance -0.02279851419986972 0.04832042467903806 -0.025221753091316138 -0.02238221966288945 -0.01521515752608864 0.01333981963761867 -0.0015109680912265703 -0.027841404989679682 0.0030496417033633464 -0.040805648749738924 
filtrees 0.017379179295895636 -0.021651912301016298 0.03153793835844597 0.021559612852200045 -0.04071692836725358 0.022914190481519086 0.03005773254876082 0.004050799027704153 0.015350274973656968 0.02064011639900226 
licorne -0.03380471080187735 0.011402300806516637 0.02868523615348339 0.0267241365916572 -0.014907377252378678 -0.045470303394003105 -0.028667473889810027 -0.045106165090053746 0.04086382158239134 -0.041526198180684044 
omnivore -0.022051798138582934 -0.04226210462958285 0.003746719866321545 0.03613885164116481 -0.0492006725644311 0.020658124760673028 0.030348969902573696 0.017857628009353293 0.02389100702802284 -0.021055581646098154 
insertion -0.04817654959041949 0.04399343875539456 -0.006403109287550132 0.008759483078337507 0.02744542689073543 0.023571257716986482 0.008422316473394633 -0.029870676347885504 0.01400101954285203 0.01635995285886474 
potentiellement -0.022828217001265347 -0.018392772903113728 0.041438871040240466 0.002950049352877554 0.019640880133921214 0.04851014616727797 -0.025656669658988426 0.03489339900680028 -0.02163142424138192 -0.017082317483564032 
kilometrique -0.0004183901930265446 0.01950682408476068 -0.011954248523206468 -0.03272073365699131 -0.012966781184011997 -0.02301615267598642 -0.028015911598064155 0.04621215182852381 0.032081368915006896 -0.01671801133272747 
familial 0.02588854804857023 -0.017205294830686845 -0.020809006728303818 0.010491590135609982 0.01593815610414243 0.010196364391095156 -0.042684706611990024 0.027575016005750068 0.04356566144695568 -0.013361984840812479 
histoire 0.028423732114336426 0.01878736587722946 -0.011080757984603026 -0.04778164982867038 0.002184928750015903 0.016895729491017367 0.025084513108829823 0.03334781637169413 0.028168789130182566 0.0035987602576894825 
ceder 0.01914093891658088 -0.02123670400244847 0.0446250284864781 -0.021794435087490075 -0.012376325682832395 -0.036791424754001587 -0.01608453647880958 0.041454522885797165 0.044704403493884395 -0.040620422873839164 
pietonn 0.027837711925478115 -0.01514603625680326 0.022986830636705192 -0.02613717525065052 -0.023061712259915143 0.029975690325162164 -0.014050134243707465 -0.011168637332956421 0.00833958251656349 0.0063495949301234315 
tropical 0.03261488472175852 0.03892970810886828 -0.0410716400937489 -0.018943748114987335 -0.041370131864462166 -0.02319439684934995 -0.007362259621613595 0.021164321796774115 0.010507760529880972 0.0042810352128210775 
refection -0.008718325510534752 0.010167336126232019 -0.03971315464878857 -0.04446143044580818 -0.01728762734584707 -0.010970228198688328 0.04753580050459297 0.04411768963344416 -0.018928343630070787 -0.04738651438405907 
depollutier -0.0036728861764862898 -0.01152621781294477 0.023364715718932103 -0.01732681583231284 0.016920544300396988 0.006261235973181028 0.034711854820793774 0.01838356601644511 -0.042548073163419096 0.03328169323072369 
peindre -0.02118751312539343 0.025400470594091604 0.03302195931412776 0.00799461238460081 -0.01771378558438291 0.03872080935490462 0.016913674700560693 0.03783260790718331 0.010865190210190483 -0.01603497599892462 
notation 0.023276469107980067 -0.022973505278516656 0.041321360096153815 -0.04853243223301222 0.037773177400909394 -0.006875801130689686 0.009261881235113638 -0.037923879355116576 0.014050448814881569 -0.03289027924412644 
respirer 0.027540390615033248 -0.041785280519100756 -0.02193471869421173 0.030978297657746092 -0.0234744337150919 -0.009831264864880195 0.002468812815785498 -0.01583774735871236 -0.010647869980516955 0.03732814784136973 
piscine -0.011705311165955965 -0.005409569738615304 0.03443217200449867 -0.0042465590275363565 0.014971109668659976 0.012938091907646547 0.0007574332784382869 -0.010495842025308226 -0.04276260755953686 0.035636084502091804 
assurer -0.03183099809159127 0.04744658870309422 0.019385425783972687 0.01968776126375507 -0.025903479260767616 -0.02285294903309053 -0.03784660653218412 -0.0231760230799415 -0.006723832089830691 -0.008852769834523438 
amidon -0.020305479626850184 -0.028934925284074802 -0.03464764842434925 -0.015381214138588528 0.017745679234250453 0.03888384498557502 0.027750760346257904 0.04630475788908207 0.03162008951906174 -0.04946971289222329 
vraiment -0.020801161601102503 0.011131786395780944 0.011076263759874026 0.03805574838585748 -0.009092835410845391 0.0013841454590755341 0.003202876260464336 0.0434006110310493 0.02991106466322963 0.024113944416153128 
sequestration 0.044151209227664516 -0.02156359544834681 0.03828097312720638 -0.026378641156187484 0.015163359124536634 -0.013382336038974589 0.012604568114278248 -0.017671528017019014 -0.04359426711806041 -0.036412551698573194 
hysterie -0.011244029262738906 0.009255910656675791 -0.03342986822906076 0.02423945612906342 -0.022027362073143514 -0.04533565209439385 -0.0075376225742545535 -0.03732209117236136 0.01968372531639909 -0.038102810417436093 
epandage 0.019398820745317593 0.002783133163161891 -0.030755834635559795 -0.010675131897255104 0.004189150511395741 -0.044579484401805224 0.0010622165523339788 -0.04500480780287004 -0.026391386274436622 0.016063541946261486 
preconisation -0.043984208300722846 -0.04093957400236494 0.009740802610321772 -0.04305833602967925 0.01254833832639415 0.014334617892970788 0.0215300346900667 -0.020743025546605644 -0.03757733018811035 0.03497533673540614 
depensee 0.017467130461353002 0.018453589853862813 -0.017164147635976484 -0.024305766921164294 0.04990998060681054 0.035153116334225985 -0.04009194104974205 -0.032978354861188976 -0.011950298735037215 -0.015018745190633575 
village -0.04132500798658937 -0.03649459879915882 -0.0059429935842587175 -0.0417399843013781 -0.010664575236812895 0.03746444125471193 -0.02080823961747834 0.031064843090920564 0.020979930932625367 -0.0003070788447327282 
biocide 0.023455573355695026 -0.00692579864422606 -0.011896660058327898 -0.01951402822218403 -0.04659728164257438 0.006146218513870194 -0.002148817031106349 -0.034781460847572 0.03268096184871851 0.0037341804352158947 
surconsommation 0.02168381737529459 0.039133315323033116 0.035155819333052056 -0.012538119709746824 -0.00615822962669672 -0.026130764609729386 -0.026590869087166197 -0.04799749833797146 0.035761626018774695 -0.038456116328993796 
uniformise -0.03600865879276221 -0.03499577509119205 -0.02115423993529265 0.013941508418290243 -0.04039646270122243 0.044520089360801235 0.04608972506764521 0.01980479450693215 0.04233509414042077 0.0395638665838829 
trajet 8.299873866232419e-06 0.033490462219214694 0.03135768663383835 -0.044853995228542456 0.04512802605199062 -0.04592292637550323 0.029885888845202793 -0.02392806360693136 0.028363392366136483 0.04336779414843159 
ion 0.04556280880962493 0.0179560719232353 -0.010069772458432574 0.012154478569042886 -0.008930496649912786 -0.04951494169565115 0.03127901212189972 -0.04568633657108214 -0.01504332510155704 -0.04075325809210339 
alimentaire -0.04728388876189066 0.012399786080104933 0.0012325969340917984 0.013063628535231533 0.0006911565860980844 0.020516195892115643 0.025235521683361625 -0.03160641052720162 0.0023825256166423742 0.02951751699792985 
pantone 0.028826371739585018 0.014628762753761506 0.027274809615382443 0.031482011931516375 -0.01733975966530859 -0.015413830742513563 -0.004923152839671393 0.035675555202948614 0.02949266563066386 0.04544456326596296 
equipeer -0.04239107067909796 -0.010131516191250911 0.002624469070963976 -0.03172343986327016 -0.012982638963296489 0.02145407745473949 0.015352735235604664 -0.007789315317394886 -0.013887960767574908 -0.03772371252420031 
offusquer -0.020523104975051967 0.019544449476339768 -0.011050735312226083 0.004977662394408655 -0.004899460137212343 -0.00629123761342579 -0.0014015794477408934 0.030158849693292765 -0.008092324052055337 -0.04937525419493207 
arriver 0.014548013196144195 0.03905486206678059 -0.025198163759977583 0.045568926736643416 0.003354398071746982 -0.013472887423309576 0.04931908125963576 -0.011590110597320645 -0.02920855556557124 0.03181205290125855 
uniquement -0.04245423561715809 0.019074688642146086 -0.03078854429862514 0.049994905035392896 0.030473430193206308 0.029200907307241217 -0.008155881917449141 -0.0413251889287822 -0.02454647554367809 -0.029559907835926377 
unep -0.035007219862024444 0.022632100995693433 0.013256763439904472 0.032161359526774014 -0.03340893256211741 -0.015194946684203651 -0.02929420873954797 -0.027639284456398527 0.007136154511049274 -0.047612815800766525 
renouveller -0.00598795140238555 -0.021002818348178867 -0.038461506312823905 -0.03324367673424404 0.02245265768020518 0.0471323103930534 0.04896324581893989 0.018486420593225545 0.024548382782366106 -0.02117539515613072 
border 0.010343082645276813 -0.011509654182648597 -0.03364475097404608 -0.008455005550678497 -0.022192564961768572 0.007560962253145914 -0.0063379281464381355 0.043692082196660875 -0.0290575490823122 0.006183497097796073 
banlieue 0.045620671188242444 0.011464523386339564 0.020538917091550715 -0.02289170078584775 0.02264978499018394 0.02766424465755248 0.01388871911682887 0.028600092900313463 0.041215232552473266 -0.03150374562133965 
eurovision 0.018881304516538553 -0.02775230497449746 0.02430782265418925 -0.013544097544237136 0.045899966784786285 -0.01276772804008422 -0.04441379306876857 0.008120072554245836 0.032576340153307744 0.0019360715324087834 
chair 0.009747624950569068 0.0208747436856654 0.020026463751336352 0.048624595743957714 -0.028146545618529188 0.028371591755131608 -0.007327570132908815 -0.010406137555139187 0.03657727139613585 0.0070170910367655746 
gouttiere -0.0053246942929816255 -0.047333333877377336 0.030604483817629778 -0.0005106020719540965 0.028611860068842383 -0.03672594105549995 0.00361497625114123 0.02770071152624879 0.01179425067395073 0.03546404163307225 
surpeuple 0.03440807852473812 -0.040233488445367525 -0.04533541892217573 -0.048112374756545964 0.0018262803034952014 -0.04407280334574341 0.03420745232875863 0.0208954134820594 0.045238925800820964 -0.01117602318023811 
hydro -0.015033584040643566 -0.02758428918371897 0.002207397951138663 0.03821022870551093 0.038993697057512614 0.008272665273631567 -0.03921375412062373 -0.04406745739121193 0.041661154455323826 -0.03843323062848346 
berge -0.022558855201152528 0.008060078735250387 -0.0342413219359324 -0.0473434499880532 0.03603369370663391 0.04293043796728084 0.023472800718294908 0.048097267532804765 -0.028267639923880677 -0.04412345784966 
naviguer 0.04179968577138361 -0.008114644137502227 -0.00815016310897033 -0.04411474168329543 -0.02048303226084181 0.03939117541024346 0.006336236891060836 -0.004591857434784012 0.018168869162677136 -0.03556330989651991 
discussion 0.027475637311104913 -0.010399636675777157 0.042826600102450915 -0.010682640202639414 0.043118287559128526 -0.014244952491811643 0.04872302386140033 -0.044327409105771716 0.04854867229777198 -0.018990037952314836 
voix -0.0004692268360923284 -0.012558363162860794 0.00031051896995063475 -0.008374800469959209 -0.01840816051130269 0.039927620324939836 -0.0210312596336338 -0.012118048405758393 -0.046803563123449445 -0.0036242305690796623 
activer -0.030490153205183262 0.01748027258020248 -0.032186771504045704 -0.011336845149540158 0.011922016559645731 0.010166563782172627 -0.0020767596981936674 0.00035152596110160243 -0.013441972548260685 0.02054289575176218 
green 0.03794695773693425 0.018551595550113174 -0.019590255141293138 -0.032430736816808164 0.036566768828223996 0.005639368688082628 0.03919441357135739 -0.0023584108399002063 -0.036977524399100396 -0.038170712876763165 
environnement 0.012361727798600125 0.045135853685373394 0.02001956578053012 -0.02000055859787037 -0.03288248768199614 -0.025268315754120172 -0.019605813553632855 -0.04477528751052032 0.037263634503142594 0.020753997704541748 
alcalin -0.03261260980711231 -0.020061600699752033 0.043548476175995235 0.03574268679401123 0.04352605799319089 -0.0030731831536176027 -0.04647171327271041 -0.020360842087129287 -0.027958402699599604 0.029862578420386636 
imprime 0.03469986959969068 0.02798034036258479 -0.04789270117359546 -0.008871182338006973 -0.024232142986476194 0.04708801349539852 0.005424346889124695 0.03600781942596214 -0.03509284980843609 -0.01825940762105886 
pleins 0.046476398923488205 -0.042954678483386424 -0.030365603186694894 0.016947948261690673 -0.003329088938616927 -0.023036485344997127 -0.015320062691109446 -0.02274137035628334 0.004901264242733095 0.00012391434971243022 
accer -0.00919955918898214 0.028022921323660736 0.025551254939281814 0.03984998593056146 0.037529447709199 -0.01028817591779517 -0.04251738705864842 0.02913757786693828 -0.015906837530606083 -0.04551390332210177 
trouble -0.001697185540066626 -0.028748698200363642 -0.002046956934402303 0.0019700879685003755 0.049651180858555445 0.033340213594654236 -0.0028190699435732616 0.02506137321268395 0.018084770614698573 0.00896456000731101 
fondamentalement -0.0017596846018887123 -0.043693709004037636 -0.008975026573290652 -0.026895279036396862 0.0021981656740705513 0.042320214464810074 0.02259544686379932 0.025974236664012874 0.0229271170997675 -0.04805694521715445 
terrible -0.03768034491821529 0.010185325342100307 -0.018733452330693838 0.020880886896900784 0.03252023356758685 0.03858719679587774 0.010752451385759948 0.036152754668267124 0.036112504926789565 -0.004465126441613042 
