7231 10
delictuell 0.011997774255150473 0.028288594642787556 -0.027841908315457922 -0.047892047448289364 -0.03384961276901853 0.0297520532392296 -0.02897519841723888 0.04965175056609651 -0.02459657565762762 0.04468035343000881 
argile -0.028659995089207788 -0.0027301353115550464 -0.04818313620206679 0.02625577135420858 -0.022269229059545155 -0.048100929681853914 0.04100815856608509 0.020134618426062238 -0.013300041270598875 -0.046876939595604156 
journalisme -0.0128653952942968 -0.008808550771336876 0.013486051383015016 0.03992517648234865 -0.03211864079355493 0.04777444529221651 0.024461049844224512 0.0132102010510472 -0.003387793220296499 0.034047445463985436 
domicil 0.008842302586071545 -0.03773015274330238 0.047255266272386874 0.02201207127782746 -0.023300954468019813 -0.022189565628931315 0.02993888812983073 -0.03914644652218667 0.012334314610694489 -0.04385461373672393 
maremotrice -0.036097969345302953 0.028216874926811724 0.017043759524884905 0.029816288375363705 -0.027776320916182432 0.017341754552586772 0.017636799893704175 0.04285942006023106 0.009874541994052492 0.049737467491726854 
envahir -0.014271463118088199 -0.008351029348993717 -0.03876440048854017 0.03763046562206546 0.008958488583988176 -0.0314546975540509 -0.03272073279596509 0.04089773846627124 0.02046149993005967 0.03062379906170223 
fantasme 0.01170488315507125 0.03702779731108966 0.005301144857742616 0.04078306825973739 -0.035186077879763085 0.01958076984699239 -0.01251850127677255 0.048004555497523194 0.0031464296229820163 0.03096206174893886 
stopper -0.029166698997994046 -0.04879390218226154 -0.034606703401795974 0.02564066950439492 -0.04912055044024394 0.040643239635561566 -0.010778015433613505 -0.049054023806726875 0.02468223021474918 0.04111967677458379 
participation -0.0036229640512269357 0.02095318843708606 0.012792608200840216 -0.0035047272574385523 0.041364652560786634 -0.0050749950421910064 0.033014966935942164 -0.035098913506343164 0.005487897925226623 -0.022427118784784747 
juridique 0.023172821885654765 0.007358258809323257 -0.0026768915006667913 -0.04760031647242229 0.0027367063062298477 0.03941860597200677 -0.03678464796830703 -0.001234953136203891 -0.0034719500911322677 0.025723334628987553 
remunerer -0.0272886879055235 0.02876298762405825 -0.007994898441582755 0.01569512590308037 0.0386653451758822 0.04124799325824664 0.009049283030993751 0.03531057609872001 0.011760256355861204 0.03068762669346822 
endormir -0.0321244248791204 -0.04360084415690156 0.020393888907282588 0.03924173074514017 -0.023524427956100845 -0.03971323051485786 -0.04763751668632999 -0.03748597624826253 -0.02130197179166019 -0.020428753049567802 
manche -0.015462562817689138 -0.010257672689371996 -0.010397319768280986 -0.0031419058542366462 0.02682832912595444 0.009107379770600998 -0.004188142906983631 0.023470383206986106 -0.011569177557107613 0.033466424741901785 
kenya 0.005786451926715777 0.0195060684824717 0.039831928824944206 0.03256077717535686 0.038035007782318414 -0.03720490457686174 -0.02009322726381445 0.03240420242466702 0.01832065384733713 -0.04541061062504429 
teneur -0.00710590004680618 -0.029084503823636355 -0.03212553444631065 -0.03168106179356402 0.006239204342379842 0.04165004075419785 0.041930194042636364 0.02417226974973913 -0.02366094533755895 -0.004960771381730212 
perma 0.0012032922243306954 -0.006619939794983664 -0.014283387881099114 -0.04169378898392292 0.037730635275108705 0.04781432267384289 -0.03750861525291894 0.04404665983169153 -0.007347175913473785 0.044428468289440776 
grossir -0.00878817415920962 0.02491089635537451 0.008754795552094359 0.03936345512903335 0.02408385829951504 0.033735028140961576 -0.020517207289558494 0.048176832995684295 -0.01592468425894663 0.04981354680979696 
negociation -0.005429362675617672 0.019001571256794938 -0.04664161009824767 -0.00506429715219691 0.035095769893129576 -0.02615045186344205 0.01826014778029114 0.03423522306962453 0.048328135644259834 -0.049934439586217814 
retarder -0.042694728029502735 0.02040368187725781 0.032619100768717525 -0.026232706511705325 0.04677973760176624 0.024768046739979996 -0.0322217027121126 -0.0016617664366234243 -0.012697400159409775 0.016609186552522654 
munition -0.0271564745895802 -0.02217473461666311 -0.03440373895908779 -0.001957515413402126 -0.016865779986937158 0.03812671306677975 -0.02100904224737197 0.01789806548968168 -0.01204906943554272 0.013457330101561004 
mediatiqu -0.0037656977514767425 -0.01670886321889244 0.037943702344400046 -0.03615344895403262 0.0213637635836174 0.04799757177707319 -0.04931636048997519 0.019909281302035786 0.04647464715030214 0.007650994449283992 
troisieme 0.03403017357252259 -0.04930878199538433 -0.011200562361729623 -0.020445760047974167 0.03923079022913548 0.007098141277191889 0.04274201383289443 -0.02825777413847676 0.03885995254183301 -0.005366447961022137 
derniere 0.026693847261093275 -0.004825384850614232 0.012222448908706595 -0.019178053272783557 -0.04861953626454555 0.020783590091610425 -0.03554328018267951 0.0478086544997415 -0.017577651606725486 0.029708570585544013 
maternelle -0.007546170432435413 0.027006791237047703 0.024279754633271866 -0.023670600596209342 0.008207333795226382 -0.04262237697369837 -0.029153875311977256 0.008398082863169416 -0.00966416165490041 -0.021541402129237247 
purin -0.04429404643381622 0.011133028557117763 -0.03883723235374539 0.004513032264560175 -0.028358692400892664 0.034812716841488234 -0.04232812839806341 0.04841388670057485 -0.048808981249865734 -0.04813389787532006 
oreo 0.03113146977654328 -0.04499593171967718 0.04088230737196459 0.0035290475282138 -0.03402825562402826 0.026841477252359264 -0.029252295316164675 -0.03539647065635704 0.021753118150839395 -0.008533954199394046 
compteur -0.03291225053095358 -0.005978883711994938 0.029460543596253462 0.023138912467555835 -0.04770683685898721 0.026784983321869116 0.012673469538341966 0.004769659241265896 -0.03752542328364318 0.04489009562783856 
derive 0.04735586200503961 0.031408493892563415 0.037804117622793315 -0.008023272800899116 0.021374233400161327 -0.028685839602155507 -0.015634639574309325 -0.0461643435000883 -0.015468642649554257 0.024064263173306885 
ouvrable 0.01731572832751723 -0.0015533222002272191 -0.03675562245228674 0.027592538367347184 0.022039009349077203 0.005690940277180534 -0.02270024115631083 -0.025535851828132596 -0.03534495519653693 -0.04101121683509735 
hav 0.01179463083349958 0.015430451765844391 -0.025574307102174867 -0.002884283464959853 -0.024567181516536567 -0.024016575086760368 -0.03947683774212609 -0.001843405111379521 0.02002553974922978 0.025982917372015826 
investissement -0.017224831695957288 0.007249848731510234 0.0032120540753968643 -0.030422339794013577 -0.009753563653600732 0.04227929170322332 -0.03614660290685958 -0.01255655207980954 -0.03813654717086284 0.002958863715508649 
abusivement -0.003623311488759473 -0.03763625460955986 -0.020162825930798198 0.01674049773714388 -0.04600270733298039 -0.04472353868806461 0.04416818042869773 0.03233431832426849 -0.04470027851281111 -0.021410270963471277 
desespoir 0.04867017039796578 0.03502829394659867 0.015106992309381374 0.007563706906983553 -0.024503007928466842 0.00905835920849049 -0.00911948017137418 -0.036486901319903765 0.019519314364825013 -0.03891460401697091 
anarchie 0.03432980387963634 0.00645379517288804 0.015435943169187978 0.015279319140816736 -0.03102172877937053 -0.04870626501639177 -0.02248205252542398 0.014416641894296294 0.002681963922696923 -0.030553975324799136 
carbonee -0.007432682364950391 0.03236420672792884 -0.04582616491753142 -0.0384077660777658 0.035215707561863985 -0.01950093752204984 -0.013567113881704647 -0.024276294647408228 0.04806778315728309 -0.0426324127008504 
ldds 0.0484432679929678 -0.031207756580613075 -0.039231831062869274 -0.02510767257205176 0.027079436776117877 0.036494508842013634 0.019696811291485188 -0.01838222896994015 0.048730495334358415 -0.016415481931189524 
support 0.03337666248323794 -0.041850990086005777 0.01227262814208352 -0.021635361762279592 0.04096936858625401 0.04265235191144598 0.013476030869294229 0.029551303729072876 0.034372712265341915 0.0035564082508540967 
point -0.03872378497294105 -0.045767812074163576 0.049622606884925015 0.023598645662120436 0.039685839751852456 -0.008593845909424684 0.014796980278166196 -0.01613832014295768 -0.019510691246577543 0.035568467343039076 
envoi -0.0019006175194569857 -0.04505751941711396 0.0021250482292782843 0.029358982658634316 0.03275936267136543 0.0362455598755361 0.008921444442667306 -0.03165023914977761 -0.028437464143337247 0.026976573400772832 
munir -0.011916676997960573 -0.0498544710326252 -0.01882462792414667 0.005529466596591366 0.0025992324712009475 -0.011333562150391946 -0.025150637161129273 -0.01834646876724736 0.012599975605096547 0.04864072717736015 
regler 0.01755941685128633 0.005068428223697013 -0.010162678192373693 -0.009641257160468748 0.03748497903052142 0.029385059451776642 -0.010292021554632814 0.04841260629069379 0.013114413429833603 0.0439027750741268 
parrainer -0.023219786670354934 0.03827340415704672 -0.03137431918544612 0.004817102971490944 -0.03301626298632733 -0.024020624926096863 -0.02060774057521788 -0.04118174896635738 0.026628441485387393 -0.016960303621966866 
incorrectement 0.044844412539349586 0.014653996626097576 0.034410518401410455 -0.04068727561275052 -0.016977131473152676 -0.014611401540093584 -0.033339037985594726 0.0061828205342325995 -0.023555068759690226 0.02353952869131868 
arbuste 0.03216817127754666 -0.007394163115624399 0.046941932121416334 -0.0026626233623031426 0.0007620721688746256 -0.022295744009042034 0.02784416875055176 -0.04961922728420839 0.04218947031570487 0.0228203837273432 
interessant -0.002624112909529795 -0.0019864535958762208 -0.024474205709236255 0.042777816107497695 -0.04070275951382696 -0.02139336930022827 1.5535099483954402e-05 0.0038072984733837963 -0.03218225366162744 0.006176087068609566 
central -0.004730557713418207 0.0422547801523351 -0.007025437783618335 -0.03275323631924723 0.005272586368927667 -0.021025711371855868 -0.022495678324742318 -0.02199191789632119 -0.03842694574872368 0.017333644962471695 
physique 0.004036995605149619 0.00891656940002187 0.024261548864736245 0.027043746659455054 0.034681372571369176 -0.039631661448471724 0.0004711686926000623 0.005314928033994498 -0.0279803957600705 0.033975391636765565 
nuage 0.011611809461276199 -0.043492669315899714 -0.00251496337981221 -0.011043699351072887 0.04885830507568754 0.01701997415737545 0.04223589019168095 -0.02297110398768346 -0.020095097444960495 0.036040903949897965 
cellophane 0.010617967216091087 0.003913582318604908 0.027196791630177262 0.029355817308732813 -0.04666368398180965 -0.03449201160285537 -0.016866336470741934 0.0320874443178698 0.028549657470074163 -0.04288979782700071 
phyto 0.011068031659982996 0.004959459892398315 0.00814049353700683 0.005770935216362483 -0.03213766632349558 -0.03386288238728324 -0.03467760758799026 0.037167053453463626 0.041676087916388785 0.036167227869218554 
nutriscor 0.04098694994891555 -0.01286353534830081 0.013557857005122246 -0.041302283010931015 0.017687153143670323 -0.04405082846871622 -0.03864122724032268 -0.005728759082684728 0.026226401748184826 0.037112944967252794 
elementaire 0.044749175744334416 0.04072669794839096 0.04343459162653927 -0.040403359605755265 -0.01924612231303378 0.031053195516151093 0.028331218908301748 0.015451293554211801 0.04314448258728387 -0.03843506663075903 
nuc 0.006492104651104599 0.049286147365659574 -0.005003416955359441 0.018537932769842898 -0.027240321339583613 0.037202905918865325 0.046665391343258866 -0.020342553644292872 0.01306962696802189 -0.024324809973181778 
bisphenol 0.03984919036787735 -0.04628641378129746 -0.008516980683064399 7.460377128540783e-05 0.01811124440649248 0.04187214236366837 -0.04774124499021736 -0.03947732379890353 0.0036724128685947975 0.03538982702535789 
monnaie -0.02971295641276738 -0.0027099044743103466 0.018568690411937778 0.041478011676417674 -0.02316231017748956 -0.011313377160325997 -0.018271743450034558 -0.026205185094264474 -0.041101194597944674 -0.00123181645377592 
pervers -0.017398489287304066 -0.015469822299353723 -0.011725917299578168 0.022629273683144133 0.011850375105158522 0.042660690413600794 0.0157797486666614 0.03352862231214689 0.037205300928134614 -0.03649837179102497 
biogaz -0.03274988676083188 0.03703180599032223 0.008350232129642962 0.036000631987992825 0.025797635019221107 0.03920036476453859 -0.011906799750818037 -0.044393860656804736 0.017910746319977747 0.03447580968162982 
dependante 0.02102127541589328 0.046186595812162834 0.018846878834196414 -0.012883693829611317 0.007194447872082893 0.01590959530388802 -0.04161062520560013 -0.03352806373291387 0.03677159233732261 -0.026053163272230905 
orano 0.016353874350505716 0.03279657698570554 0.03749812066652388 0.019122387168817527 0.0457466896640048 0.013824316826690783 -0.012573281995859727 0.01798202844983989 0.04659336826102333 0.0018162430040909797 
constit -0.0005385468764750024 -0.03566809598740011 -0.00322506062352751 0.03426376675034199 -0.008928079255372175 -0.024658100213508498 0.04042886981291445 0.04839043856922232 0.03619481227128466 0.028047598429186627 
epanouissement -0.04561581907248364 -0.026262016189397625 0.007873655663344288 -0.048372453765333216 0.04453879721838134 -0.027210090261184254 0.026032166203474264 -0.04831418448587455 0.023194139793940707 0.03546045342223505 
changer 0.009541801018686166 -0.04886238293654938 -0.021238599574492027 0.02168590150266645 0.04347858054625306 -0.02021137164796883 0.046500971482449666 -0.015005582602978438 -0.04824447569986457 -0.030520072251836373 
canadien -0.029026811728637886 -0.024591202154788085 -0.021293704462693352 -0.04365653906977721 -0.03876760185309717 0.012491420884183167 0.018224161673193972 -0.004548177191257641 -0.005937858570771141 -0.023034364841074618 
quelque -0.014470121636941996 -0.030375639141159472 0.019840453715213653 -0.045336199508574086 0.0038553144960567637 -0.008508229737613338 0.01864409496500337 -0.030829104149409797 -0.007859360520374541 -0.00955707967626894 
apparaitre -0.009532968564505884 0.03452071954452578 0.03926618701917255 -0.04640681821581001 0.03221197496720019 -0.03172048560892616 -0.040351471363452296 -0.023559487971715195 0.0462915978229481 0.002005317159444025 
vulgarisation 0.040537377731264625 -0.025913087989502 0.047963864620629064 -0.032298525658489056 0.02156005747816225 -0.038553915344480924 0.016383683821895662 -0.04044066450643301 0.03890006237443922 0.041652210846879194 
loup 0.01148632722355114 0.028042104719639686 0.034335741127342896 0.0055447290952929705 0.019954778844978417 0.04171638957490082 0.041519835985457575 0.005218064664293562 0.00036559216283450096 0.011436869347940835 
plaque -0.0375742104979505 0.028263577585854162 -0.011701907758738892 -0.016096471215776977 0.02411353981655792 -0.045656018996600066 -0.009698129509369949 0.012014258812885065 0.002094816893283513 -0.02750420374271464 
mene -0.01629655166981987 -0.023043281832487807 0.0008001641698571466 -0.038825707626515896 0.016220061883797945 0.013728396006359419 -0.04961418273340045 -0.04599496966177106 0.04945240682065737 0.00841800201005233 
acquisition 0.03214036272629218 0.013012097132171734 -0.044979220612685514 -0.034919923370375555 0.014961393122970953 -0.020353699356221926 -0.009952511418881482 -0.009688714542518252 0.002076232171142227 -0.019030303148287936 
edifice -0.04037277446310494 -0.012817555965285752 -0.028191927857347726 -0.017635972288460214 -0.02854145709552328 0.040193748584810084 0.046029802007594864 -0.021347864197617267 0.033036190521448676 0.024136325493778817 
paneuropeenn 0.030967482149570152 -0.040954050248767845 -0.018770254315960893 -0.030755597942377404 -0.015597227511272868 -0.041298553554324324 0.017482426064991896 -0.027783366622499344 -0.025806129905143672 0.04263002767684226 
reusage -0.028347849987421177 -0.017508527615908705 -0.0028401532823758156 0.01786578187852675 -0.04152243795144808 0.047827765433009435 -0.035313391379611266 0.004643118351588152 0.042496791905949266 -0.03141979121116089 
gasoil -0.02339662203662215 0.043585849328425276 0.04453365407375674 -0.04087860301723362 0.035457906894297876 0.025434065414213895 -0.016397794953224465 -0.011535189434556647 0.017064126950295466 -0.04589250461810003 
observer 0.032525484330277694 0.04015118611671204 0.021369171871492315 -0.007261020560236174 0.006656564740654273 -0.04473905799930869 -0.017603406068303656 0.001117331173709136 -0.0298589398461399 0.0067226457002074365 
reparabilite 0.020092377459994742 0.03261385524826441 -0.03559304736191885 -0.038303816637464884 0.0002410939226024197 -0.043997921668061345 -0.023008260842919803 0.032966224450036295 -0.03628383171216093 -0.03572928575066358 
utilement -0.010064833731479709 -0.04783780780290827 -0.005165227911713872 -0.02275260666595917 -0.020537484149150183 -0.009809453511395361 0.02409820315379926 0.009689414347230552 0.016773147626793737 0.030179686848557805 
barriere 0.03473460302785062 -0.014158657127675394 -0.03155469184063969 -0.04766553890259783 -0.037509732911700844 0.02578498610581922 -0.04775823040789678 -0.012820450241187973 0.03076992250860335 0.02788696219019647 
mesure 0.03760843184173309 0.01114040308769557 0.04633232937189552 -0.027406684766075357 0.03271208658231609 -0.04844198550057074 -0.03412920580303497 -0.018288217331481792 -0.0005283877160489702 -0.01118978882444632 
elever -0.02274741886515486 -0.002284021184395038 0.048401344225612375 0.00038521746411932764 0.022972226692937362 -0.04077690804198723 -0.0468036447474008 -0.03576529883760109 0.020798964801391373 -0.03684876558825773 
mi 0.020018829482884637 -0.02894923431683546 -0.014403427595275013 0.0445134372115075 0.009059785854162478 0.02712824680849158 0.03248354954287886 -0.03814789180118711 0.023475978446993465 0.006266854049304512 
karos -0.0041244536960108324 -0.005611477085780662 -0.037400976251547716 -0.010916581826306743 0.02406833717997532 0.01467911112186718 -0.019462830298024363 0.03048293530434676 0.024579344299141437 -0.012440546825159085 
cherche -0.04945935825891824 0.03180647990106186 -0.04252958971574869 -0.009981830219945797 -0.017213819714213187 0.03903705469872523 -0.02540387049454952 0.003281552718390742 0.0064491520684918525 0.02839959132763577 
civell -0.04626758328571609 0.033446991989550076 -0.0015070013530412304 0.00800357157304031 -0.0057668246018392445 0.025036132003827566 0.03439475863242282 -0.04465034986307618 -0.009638935762975382 -0.014113163856027794 
nidification 0.006910552582778551 -0.04304820620144027 0.02513731998726474 -0.04502972495153108 -0.01828462679222537 0.012796502576825323 -0.0010899371594416509 -0.015263832852022492 -0.039568082477070034 0.04865898362644922 
piege 0.023108611647055046 0.022623517478753803 0.03851194167042544 0.03819991271435559 0.03079407841176472 -0.031104006865211 -0.03244342780529532 -0.04276418247153271 -0.045644534758378215 0.037982891716389786 
supercherie -0.03963917267772698 -0.024310933504835448 0.012204609161040958 -0.03450102390506319 0.044414329487957725 0.015083823372932506 0.009748060049958492 -0.020007873211824966 0.011096865596485829 -0.04314647223500667 
incivilite -0.020104895319324512 0.008654374920438844 -0.009446140644675527 0.04737993627088234 0.04522931013374778 -0.01117068329080177 0.04876816668742663 0.04077146917231084 0.007313027545671412 0.023089456162414028 
mentir 0.013645825646211869 -0.004633616046869614 0.027487405298842357 0.021386575648450975 -0.03599445342794691 -0.025089544394923894 -0.009048165128600974 -0.0396462378889691 0.01751052890026898 0.012149471964367923 
complexe -0.02799277763005359 0.029185186585702648 0.005734987763726561 0.01377707519198708 0.03262778724660616 0.024278009377179804 -0.018749511446886427 0.034233295515936 0.015557556051289204 0.025479118717321562 
vieux 0.022129883014884007 0.0043855739702323695 -0.018611515685610272 0.04664952870900749 -0.045096255606654 -0.017002681059508078 0.023934225291995192 0.0010508339927247897 0.04152361589033314 0.010857708471820094 
succint 0.009270997895597485 -0.04292798381326945 0.04214685608708554 -0.04568579862210793 0.03261662536289107 0.0177879097363426 0.03617433503398242 -0.027977123910222158 0.0013590534603065893 -0.040324145908113264 
tard -0.010814878805805849 -0.0009752473059551679 -0.03021551428100929 -0.012262164734517312 -0.020891218482970857 0.0011616788497924068 -0.023073904976184872 0.030203556300957397 -0.015528662673935307 0.007252862500199804 
potager 0.026134000613176445 -0.009540140847815386 0.016768035981576914 -0.03716322147755381 0.00369175485984959 -0.01118583576628159 -0.00595191974286171 0.04470848235354594 -0.003296505904126574 -0.0012593319058954533 
motorises 0.030720805539582362 -0.04615682663017435 0.010804753331822466 -0.02252772385823966 -0.020165377665223475 0.04720576662983902 -0.0055653913910653835 -0.0002604532280378574 0.04255029727089873 0.04210880289473677 
foncier -0.009601253758328094 0.03000178023797332 0.04015491243683281 -0.018901384745299007 0.019554686186195845 -0.005142684636557625 -0.01398864951702933 -0.0203524878135115 -0.033655766072675564 0.023694899612372224 
classe 0.03557513375631171 -0.03717097914130904 0.048601720638352705 -0.01145463627298196 -0.02941118779396882 -0.0014307717960721665 0.009388663881906683 -0.013865432870021191 -0.03821673668756014 0.02860886002247834 
moindre 0.019421258397293407 -0.02510796033321045 -0.04801633912103865 -0.02744091482887353 -0.0047661434116301445 -0.018617212969470276 -0.025853451471119122 0.03668932432423608 0.03211048006800876 0.030796185618618285 
eolien 0.0036839798445227273 0.035228917967582735 0.019225580635715743 -0.03701772420295557 0.025325914514951486 -0.026525705142496147 0.04230769086739919 0.04561346907303656 0.044262633071936654 -0.01957342301033753 
nante -0.006387717210219744 0.011282097094139198 0.010400695170328189 0.04985142303406444 -0.01273857437122041 0.037327535077262324 0.016831626138860994 0.04070597585420501 0.013598311450781846 -0.002931893256171158 
situe -0.015391110384929777 -0.04852971807820425 -0.015837205813490744 -0.04411643002545329 0.038097711678512926 -0.04091100250820323 0.03639921074258168 -0.01327506669495915 0.010473074920757124 -0.03151695023312831 
bag 0.0382694758048859 0.024922354221297075 0.044307995613877695 0.022111123126880124 0.005842863422658418 -0.049634891170830225 0.0008147325401430759 -0.006865953789737755 0.02635990804386367 0.03918333074277518 
reducteur 0.006820950710512068 -0.023930414955817655 0.04363907434482377 -0.02431896527931869 -0.040514499257679026 0.003238343591700655 0.0009744042967428469 0.02604624182515361 0.025001631412993917 -0.0019927958922423025 
asymetrie -0.029338595656460534 0.015947014138647818 0.04266476695605517 -0.039921356666578416 -0.002949863223891065 -0.02745180782807228 -0.04396810210064696 0.005019692634585192 0.03703009108693604 -0.03674582435417957 
comunale 0.017429311608061725 0.016873823941709783 0.013745790793965186 0.0040880697761863805 -0.011491281718149761 -0.026373911543408395 0.010990851081611746 -0.004604287072664077 0.029757153839936164 -0.015352223041902095 
agriculteur -0.038566576309385536 0.017880672097153483 -0.007997429861070039 -0.011845467778245428 -0.0006928229394794107 0.03456193522877346 -0.044660954149581794 -0.039097296325784354 -0.021625806529069945 0.01039993202482085 
ravitaillement -0.00462411603675851 0.03736440621835222 0.007938913140309155 0.03137475785671284 0.03734845723049703 0.0035896108900103168 -0.01382913720814066 -0.01295747757596673 -0.013866922888241422 -0.01932338458614655 
exil -0.03004729219606725 -0.04613338060563542 -0.04711167672203746 0.027235563891913752 -0.03796312235556738 0.0016812498156994452 -0.0362641597838094 0.02198322826677455 -0.02803985290177783 -0.008550897171344782 
ingenieur -0.004257964773570685 -0.0007205122304393945 -0.043139549654018935 -0.02324068120083792 -0.01973862245469502 0.01820316830644031 0.0006559252909140046 -0.044441796185331214 0.005824770084317331 0.01706839400082918 
blaireau 0.005926474566844261 0.040311240539439845 -0.018008021068367623 -0.030595527699453555 0.0044197540534901755 0.025991094374302092 0.0298573566799222 -0.04148419909120851 0.030747753067007347 -0.012277713422320015 
alentours -0.02201994405680727 0.012182152490896823 0.01925285406257693 0.005667690631171286 -0.04459778068703079 0.03490637355830755 -0.049248128283362495 0.019346693774489818 0.04765983818573706 0.010829739455396512 
decarbonees 0.04820244437371315 0.021306637181262893 0.02957699184433187 0.04862658103523717 -0.023535873324850593 -0.005630439966631931 -0.007859167571283366 0.032800793059392784 -0.0035882127363608685 -0.009325000080491173 
enterre -0.02084412140908038 -0.026235581116407426 -0.04656117517224727 -0.03282854006869686 0.032488829585641296 0.03257934302219592 0.04455107050733226 0.043610598291938994 0.03665220249668195 -0.040118947758259436 
dure 0.029070396730770876 -0.03862163422075211 0.01074719089661781 -0.04226806381069734 0.006502907481098578 -0.044623871056476166 0.018107593249595513 0.0058156300651125165 -0.0015431724467730664 -0.004476378412211326 
rever 0.044089485110668174 0.049747343234965664 0.008591159935385154 -0.048103198637327475 0.04421292564273091 0.04411837818924253 0.007324522682176495 -0.013683515448505228 -0.038849180342649316 0.026306948257684284 
hybride 0.0027992754068725447 0.023858153938281727 0.015802370923787563 0.0002974364314206906 -0.04806630906333895 -0.0346758975759635 0.02209069305631167 -0.02474773019802248 -0.010223181391414982 -0.04921148618497051 
inutilement -0.0181256375170221 0.0018101559680571287 0.015122113938001244 -0.006949989308505752 -0.007828136320457386 0.017675189250839937 0.03557046749984684 -0.01261174857026839 -0.006354309471013516 -0.018396715854113406 
horizon -0.003262290166730096 -0.024605776525825046 0.010915097286812805 -0.039799360801085586 0.03687078863640789 -0.04015867142699075 0.01104868412640475 0.03943110419387115 -0.03943720379868937 0.010665495402730157 
remettre -0.010981244828894593 -0.04067774188334081 0.003977683267933286 -0.02961035074197228 -0.04632644066789279 0.0058040747180005195 -0.024523739089985053 -0.008057700774536951 0.03653303217894253 -0.02108816568868788 
co 0.004477792904611221 0.03084513426027836 -0.0054987868625153416 -0.03213569769193695 0.049408785386967205 -0.03837852510360628 0.025155843107469194 -0.023024178197285774 0.018207332909377046 0.0481154705643084 
apl 0.04821654086131147 0.04558732938651904 -0.036087154970923734 0.030945234266652095 -0.01271912974266427 -0.023772518706428544 -0.011234580841285641 -0.02698916729228864 -0.006539647956624496 0.04479785686799903 
oxygene 0.02885610024887056 0.04885111946994029 0.02958237757916177 0.009458014440786495 -0.009961172789848767 -0.030202301007288265 0.03907209802145898 0.042569769710252676 -0.04163197740590843 -0.04179167739996831 
personnalisation 0.009443682544408737 0.03331653878436731 -0.039644628642549425 -0.04758819816626299 -0.0024998817732521006 -4.6966194221148554e-05 -0.046612007990275574 -0.037053770886824045 0.010759777722153438 0.02209314210724888 
bac -0.016031820399291245 0.04816927474836132 -0.030628381902289017 0.040615425500297585 -0.048315955546051025 -0.0260387883991788 0.001370439836289344 0.031430955942611895 -0.027864240790858703 0.03387732139521722 
maire 0.04986738225354827 -0.007945322056899231 -0.048841871258849825 0.01704348128503128 -0.01714421708529631 -0.046483239377321725 0.03847847772542551 -0.01145679852851989 -0.030915459867139512 0.001310826573700968 
indemnite 0.0006260512432699918 0.012893934533767897 0.00851573959450296 -0.0044093704964020975 -0.04162666589172503 0.023741628299808 0.017513863962177433 0.00644905805650064 0.03090365925371783 0.03330907444674506 
financiere -0.029292575625052386 -0.03335963981998688 0.04603695748855175 0.03212629877838172 -0.04072098021323413 0.020135446906788597 -0.012709236004457593 -0.040278055316397256 -0.008791656671952926 0.003956102843433827 
decision 0.04355219076733556 -0.04995799440955352 -0.019143240592058366 -0.017190005599650785 -0.03870243870984943 0.03568889748525469 0.013104144004814586 0.012370714370945772 -0.047779550580055064 0.022115615931836412 
nausees -0.048650617911544465 0.037684498788439776 -0.00828253868000519 -0.03180709246167053 0.038694330840838606 0.04196016677917899 -0.004186980407156627 0.0005553569167824132 0.03726369653448585 -0.005350913488725022 
thermo 0.009681673797904095 -0.0006777797750315544 -0.03165331224451056 -0.04209800383861497 -0.029546921662098467 0.039771837726790486 -0.021537360062223884 0.039190438351247255 0.03602171408230966 -0.00906526818713286 
imposer 0.029802039012432807 -0.005131810905904391 0.039648919637846516 -0.001510454006787823 -0.008466767792698908 -0.03553143730870099 -0.009262982082328734 0.04761612625928931 -0.004692942289603164 -0.049043147209728834 
reutilisabler -0.0487317231582061 0.04914420039204482 -0.03071207995374358 -0.02449339279306051 0.04113218534949468 -0.02728431029417073 0.0019887221125592875 -0.01361192248910811 0.023332961353452992 0.04890370539104396 
tampon 0.013730423240486246 0.017887446219710255 0.04060478398419515 0.04183419213294134 -0.00042886566317450615 -0.027941566574429956 -0.018463556794136728 -0.016274065883148076 -0.037250551579892516 -0.010658495732833156 
biomimetisme 0.002746002822913634 -0.03764403907995737 0.032869172912019566 -0.020796577754422105 0.0029716595438163728 0.025458791165804084 -0.03981559990551619 -0.03497912374613112 0.014464861397792824 -0.018397036506688745 
elec 0.047331666577200684 0.04730527494562626 -0.04656590746256942 -0.021336565860150383 0.002414092397275236 -0.007316550958875757 0.013310426725563398 0.02228061060420594 0.003633558898919535 -0.04077728255700588 
aloe 0.04161101718988113 -0.002582884659485058 0.006994603219700324 -0.03649267197835761 -0.037995582630158974 0.006056859345400936 0.02025120841458323 -0.04761296174353427 -0.012942386903967281 0.03692358190338156 
edicte -0.027325702296827216 -0.03519835960635304 -0.00044643881577068945 0.004771652737951929 0.00454571957291054 -0.04876278940116575 -0.016270011658078204 0.0029646486489424287 0.006052981669740283 0.045724115686804616 
agrandir 0.023284704781407154 0.005370662092419912 -0.009003508003153875 0.029468378930128637 0.03419821280237932 -0.04875801862970704 0.018992763091367246 -0.015946921583987313 0.04248244037103647 0.04923045823115699 
frigorigene -0.04623571199592409 -0.0426518306595332 -0.018316037452085942 0.04321278893169655 0.04580024979305124 0.012748470426444638 -0.04072853202257702 0.036759626968060254 0.030110213650152793 0.020815017457016617 
desengorgerer -0.04765422561025379 -0.0260643033526532 -0.04859890260049535 0.010929918490933567 0.02206335440239488 0.03027507506730834 -0.0004917738951985973 -0.03614979989962056 -0.010351570136473982 -0.04834048720458795 
humaniser 0.00048616661875175345 -0.009731142793114931 -0.03380162949231634 0.04265034897397928 -0.019819144014027706 -0.03063984360117778 0.028524903427170345 0.0021951599882955356 0.0240486797800086 -0.011756425817505682 
acheter -0.019884469205335386 0.02981614513922616 0.0011178203880301248 -0.028145495077192665 0.02282283314280048 0.01442806018374202 0.02805054289701056 0.020279013847294868 0.0056842388528004495 -0.012785561948580883 
empire 0.013580387242574455 -0.009610915351593174 0.013210685640290949 -0.036067775814369644 -0.046905519830806736 0.01605267485929653 -0.0073923495732567054 -0.04860764584442541 0.03877060770762902 0.047106373954318985 
être 0.043873146485526336 0.009899598115081823 0.004490260363212593 -0.017512057500059394 -0.01445245197911354 -0.03135917060591868 -0.02555496754190311 0.0021198194788344285 0.04256638173117137 0.0034786052587575415 
delictueux 0.03103978828907876 -0.02973309772271166 0.01589189869953046 0.0029500822601541766 0.02575195988528374 0.005328042959951482 0.027262924501167157 0.04914187377022283 0.04459293088877629 0.031621460743763256 
hydropur 0.036380936450031424 -0.03331649585120059 -0.042835906604094115 0.023889511788590643 0.0011521422344314412 0.039658041275680275 0.022554084653946642 -0.040226232692909425 -0.021729191026087065 0.02875903587973336 
incoherent 0.00546997466719588 -0.02843603798486392 0.010491986297890376 0.006153383828908104 -0.027807218506719585 0.03904493418963071 0.02438310761411127 0.043234006596601655 0.005482962969950037 -0.03391404913780309 
fonctionner 0.03689147492422381 0.02194092109078338 0.04382873964166358 -0.04504292238273319 0.015619643143392778 -0.02379472616362405 0.020599527770932297 -0.0392380103765039 0.028434080023120856 -0.019242440337957873 
benevole 0.0485514939163365 0.021137987195217374 0.04085692861601743 0.030872630019038557 0.019115441533833474 0.032828650710879606 0.03383918470986598 -0.005566779323887135 0.0031610758237552066 -0.02036701708240111 
volont 0.004184813888134124 0.0006556601275143657 0.02369920514887744 -0.016993136984405768 0.015047459777737065 0.016334624508830026 -0.014351921118735513 0.02598214496914245 0.008176990541512287 -0.009418542974166503 
reconstruire -0.02212822011354319 0.0407045122860986 0.03770570896684922 0.0004013808389682476 -0.048148815972168385 0.049396683177326386 -0.004148943071437025 0.008091673306587988 0.026908733170077463 0.01756674550354203 
manger 0.0017475446993141155 -0.0057956992012409905 -0.029934317207755985 0.007071828321294675 -0.0037064038965214795 0.014376490651689965 -0.048258781513443816 -0.0384222567812095 -0.017418522187513278 -0.04442714520140087 
liberant -0.008095963647034108 -0.01912993848100048 -0.04277263481658395 0.006419069829256374 0.025983362610008106 0.031998925993153376 0.021764392141175228 0.012754444909230967 -0.027410795613689077 -0.031784667872321454 
balader 0.03870911960190602 -0.029749607204951983 0.0394473611059254 -0.02754503963225066 0.021506159108073505 -0.02728700583112052 -0.016106103457622152 -0.030641288477778077 0.006251370670163808 -0.0005646917133781003 
tramway -0.03995039185266955 -0.03790992357978215 -0.026500021823064206 0.026416176895108574 0.04666954578468088 -0.040411510390288286 -0.04053802904784481 0.04468219009290647 -0.023741622889631317 -0.024745614797087284 
md 0.006311506288151745 -0.01671996146888242 0.03420074927103264 0.047831291193273076 0.03811389675162418 -0.029453938844846192 0.01567095269157631 -0.010388820956017926 -0.03204723119053361 0.033840576083225625 
renforcee 0.008947623285917887 0.00782985213574813 0.018969283178797123 0.0035941061393708817 0.0385869899426915 0.0318043629876686 0.028644426380297124 0.02905967649287057 -0.0257640570992144 0.03698112385904733 
appli 0.0175682304048263 0.021622636297375694 0.006241288024866608 0.035479819860979235 -0.011293237746463744 -0.042240784711176704 -0.03285301151722763 0.029510392651705488 -0.019896320951428893 0.04269793436848992 
classer -0.036939345147708906 0.008699901481844909 0.009807212943728029 -0.018026013367518415 -0.012138340538044452 0.00852217501220973 -0.013882347589231897 -0.0095163430398444 -0.011513023265882721 0.04765339921603739 
masif 0.017074205087811153 0.0002598072925585866 0.02073752211716557 -0.009322350401961511 0.03268203885743982 0.04070233615527306 -0.03713712038619027 0.032555040293548845 -0.0006734432500910784 0.008712102915236927 
contenter -0.014064326246417515 0.016195667805527673 0.03895304135036994 -0.011267952566351198 0.03525938442234936 0.013714579059291127 0.046010999077541255 0.022866276026550458 -0.012640360945170289 -0.03510342986536373 
parametrage -0.04810778512195116 -0.0370510193176063 -0.01888962748819265 0.02764368468846263 -0.020372518531667112 -0.02607140700397709 -0.036928953009711614 -0.0013747643955726579 -0.004912165746973892 0.027584196181583306 
augmenter -0.020442436175126047 0.029110152332419516 -0.005116890430607001 0.025813776860387546 0.029577211242423178 0.03343877438006302 0.012957384400311224 0.04733638943275323 0.014997598011163042 0.04018376496885249 
peripherier 0.028452352640993696 0.025042048327548905 -0.019271842026326393 0.011359896755479895 0.04509562046467014 0.02997453667990516 0.016957164261680504 0.02832117241460781 -0.04585601285640475 -0.017364897745194476 
luxe 0.03416036214330357 -0.0388923874409843 -0.025718685581979123 0.026751157117588527 0.02787512285524224 -0.016190232551453906 0.03008301950835765 -0.004542307561598089 0.006572309179173197 0.044007985693137575 
compensation 0.03670663550609996 0.04518139219835066 0.008625989721458106 -0.023931243626605498 -0.031013103204367454 -0.005884150506289494 0.014749766288007058 0.028889553032559138 -0.011187567721668066 0.027251600211875737 
comprime -0.03380785378725651 0.037785169726605526 -0.03921142196563689 -0.038143536569281336 0.01827954159407037 0.038783432981280806 -0.035993012703676365 0.02919712969443065 0.015888819875351158 -0.01743597481807865 
peine 0.021456127997477252 -0.012392647938889194 0.00398740542852278 -0.04252864546410814 -0.03621883720695573 -0.0028508494492072932 -0.0053435978289945755 0.00259515693211128 -0.0015881881344512194 -0.030430450828788758 
economison -0.018103269546293824 0.04672603825902976 0.04408246806038784 0.04510410859705077 0.027732895761035752 -0.015985505993766722 -0.034674241639927904 0.02935931348126288 0.0037067005100102184 -0.049564921106035435 
reconnexion 0.03894423191623419 0.021695365294133784 -0.0008072639036407982 -0.010264295693491502 -0.04812617802450744 -0.012300728595570876 0.0062600708027942915 0.0164928467041473 -0.009746745521631267 0.01203522070014625 
incendie -0.02993589704718235 0.029745035206043026 -0.0069447448194421895 -0.007362270087518242 0.04603967898315465 0.04474986644136878 0.023708187804569403 0.013020696527287547 -0.00347194512348428 4.993917811160161e-05 
rc 0.023045443654098226 0.04089462027178874 0.0016323436948894139 -0.0007776116656365692 0.044231753197492944 -0.01682039573697689 -0.005276613343940081 -0.02067325302638121 -0.0488246901765518 -0.009589112346495331 
renovation 0.0007476456719393113 -0.04324862332340566 0.010707634831144628 -0.04697102794706539 0.0074685130475221455 -0.03946918590436725 0.017967054233493606 -0.029143665490165865 -0.014117201200372709 -0.0469646640835089 
autoriser 0.040187309164625866 -0.022973574420236828 0.03497089615010315 0.03143836002426057 0.041225189276458005 0.04407986204582022 0.045402397025993385 -0.014577609826738903 -0.02946928642953444 -0.013726774060435456 
radical -0.005673582854153147 -0.0029357141982789205 -0.0239145118241086 0.003224138489759923 -0.02762852672171673 -0.025647706596612304 -0.03380294204050555 -0.042680123925290955 0.03703960677066835 0.00764840363510385 
lier -0.01654334742071711 -0.017290740088301743 0.018308109052105007 -0.010195307455882477 0.0057187300981779 -0.03440434397025831 -0.02599298925213509 -0.0204572117503528 -0.005522914280502996 -0.03937099296765436 
cantine -0.04184326936166121 0.02791111562879897 -0.030803913946458355 0.002520897064537839 0.05070257756004451 -0.03815527782394359 0.01572730752376523 0.008487404423251113 0.03674663206679563 -0.04824373179262595 
inoccupe 0.046030193178280276 -0.009550715354861657 -0.017949677637577696 -0.043055224780152494 0.0018352158082061737 0.045058695659756766 0.04425674631024175 -0.031885268766671485 0.012705591640398733 0.010993616271478322 
armateur -0.0442757905807002 0.01058241959386922 -0.04688746597225951 -0.03920156011168208 -0.04021642462999818 -0.03542533887828642 0.014117658865503707 0.015787128382500987 -0.02067713924179909 0.00012985221836016617 
matignon 0.049857634220059836 -0.005450401481281727 0.03591208605042647 0.011263607372720648 -0.0343970061377756 0.008819176365831084 -0.00043948789689708065 0.025011952102526817 -0.01594478348171095 -0.019639635321550285 
cinema -0.03406810530773377 -0.02690961622006787 0.03648477391249314 -0.021975926772544178 0.004627845292215181 -0.030231767824507566 -0.039560208411431166 -0.0444365879305173 -0.027830016694354573 0.047669535310655015 
leader -0.0397492775530655 0.04047873986249653 0.003869622237382394 0.024887543099496104 0.03187754695005727 0.030861524757255107 -0.03349587268539573 0.03544205525609976 0.00859419286719077 0.03447666383712522 
rh 0.008914022616996437 -0.014854103007035378 -0.033507274658097407 0.013062341031819592 -0.030216625875604478 0.042210796016767436 0.043650399414797834 -0.029107664295053595 0.018277546378863762 0.009790361504559652 
valeur 0.0254878586790039 -0.013854166392267189 0.03284210260496772 -0.0046829936652374215 0.02669741775524613 0.016804420252040143 0.01347621200774202 0.04575757027901815 0.04810866537022225 -0.02657014565303013 
frequentation -0.04407422549782956 0.037753660971218225 0.014540717426438452 0.004217396899573687 -0.03166540349416499 0.042727308883757156 -0.03354397125661186 -0.010862132835993184 0.005829792338739755 -0.02999792265721435 
rnr 0.03637892035705612 0.03498664441125805 0.030870212946818618 0.003382321665166771 0.00935980201667091 -0.04138006526720298 0.023324502788669335 -0.016114455365821366 0.021666147616010687 0.02979644261279502 
polluer -0.0055982000316637205 0.00637580528571963 0.041914379220756456 -0.009352982108950584 0.04319186978090146 0.019483860164962785 -0.044538079933182755 0.0012494135900432447 -0.0336602442597893 0.03346029540323721 
depasser -0.00659116009284665 0.04189245585869262 -0.023346591217125016 0.04506645601850206 0.030617618802277775 -0.0007752192322753396 0.016588514431797055 -0.04216762404585403 -0.01062837804190743 -0.04790554972349537 
manquer -0.02799021963263639 0.015425126193963332 0.022301178040760476 -0.049868847513966356 0.014874658804476831 -0.0067495504349233655 -0.005431033944145799 0.03844035694807863 -0.045755434066077336 -0.013775456350454083 
alpe -0.013814511667543392 -0.016283030038907728 0.04221856548926191 0.018122628377883015 0.011606414926848017 0.034775979524203936 0.008331225202601005 0.026355007310254003 -0.030870584346707884 0.0235078908136606 
portable 0.02172732171140152 -0.0013423667742784898 -0.04795639287040849 -0.01084031570370811 0.029558038717388015 -0.04905148555760402 0.0033616515541453704 0.009448192554486956 0.026880584217278097 -0.02613534349771735 
ferie -0.0077416725896780145 0.01844950236970071 0.04722190039709238 -0.014570158484308869 0.0015012762256608584 -0.03346971027330297 -0.03766040645235665 -0.0458110943725961 -0.03352002767136182 0.046373538244781035 
surtaxe 0.032998045169768765 0.019330859429833244 0.0005332136116351074 0.034313955083136755 0.015838277992186022 0.011910421284846002 0.0068621875231130326 -0.046148878560788226 0.009779560510885908 0.0006659351312098404 
lutte -0.04103359754086744 -0.004951176445617938 -0.00713742576004074 0.04796055147563078 -0.013285341250842997 -0.03724475668240262 -0.04510052922212885 -0.027731749338344554 0.01866987922940117 -0.034741723814246804 
hydroelectricite 0.03899421418587314 -0.028690635768234937 -0.024062250578324115 0.022261674855020466 0.0056940114392014275 0.018829599042720788 -0.03686931933090119 -0.008598819793039282 -0.0393196595426507 -0.009995336353277725 
fromagerie 0.03836842598254194 -0.04313106519357279 -0.041068478827803026 0.0072609144021949495 -0.036990507703037245 -0.042888347657739107 0.0034042903965679177 0.019181489514960806 0.011815403652337604 -0.010035946185761244 
demarrer 0.008051257826389317 -0.03505146984888582 -0.009849741792291753 0.03359941999663785 0.016503234200710058 -0.0128870198793494 0.044475501349954955 0.03630479439753588 -0.0089578449410097 0.04077949521159276 
depanner -0.003000424781476781 -0.03608731666614097 0.043208642286909946 0.013218551241834213 -0.04612581438974908 -0.005750361763402268 0.0074590545362724974 -0.047027906879529215 -0.006362997435791173 0.029550370881983534 
soude 0.024687488710134414 -0.030017420145486053 -0.011334432315977722 -0.005372066066904205 0.015566353724636212 0.0155596914918451 0.04226075119402177 0.038516272918287374 0.005270690373508607 0.041909434409579734 
pastille 0.004091473490034809 0.031774454318358805 0.017380458101705444 0.04937231841854946 -0.03360211773994017 -0.005987864524892007 0.000637728275704179 0.01210323466975173 -0.02417552333380878 -0.002116203532373471 
francaise -0.04992112298059661 -0.0007300917693612422 -0.04532434018692411 0.026500435028368064 -0.041713402969568644 -0.008517206397791985 -0.007785183091386298 -0.003258780299849909 -0.040260737592098104 -0.022522798018457094 
destination -0.0004108659331198589 -0.022340976871037883 -0.04417967018602584 0.018929861903733934 0.02550758381690361 0.010670795273222055 -0.04304777554363097 0.020934544676057782 -0.03406272453351986 -0.015109083517814476 
quantite -0.02344835502778898 0.04000956683092668 -0.014790234859724633 -0.022990460861309854 -0.04007190475209217 0.016398913764977496 -0.027393518484967436 -0.01088979578682878 -0.0367125331049419 0.006830522769709534 
junk 0.027937791610805986 -0.01551924150359259 -0.04365387379289292 0.0037807783956700473 0.01436974682880317 -0.03721761906839251 -0.020713629532551316 -0.04495604109588026 -0.023367015485392686 0.03801787302926439 
circuit -0.04059882770230519 0.012487738772005262 0.02636405796910048 -0.0165792335331421 -0.04880700660813004 -0.03303198959041382 -0.030994738995222225 0.008165252023167676 0.035768045526353105 0.04306166192902373 
multiplier 0.0018208423809874896 0.025521693723076833 -0.029463144260938528 -0.01417266676622616 0.002751906580234779 0.020668244217554036 0.042319110707334615 -0.010297494803329277 0.043312743458155466 0.011252984056685445 
rond 0.028564803315157827 0.04610043184820983 0.001440112033932543 0.03685028975675795 0.01000765441868147 0.025096822962672002 0.036776237684013044 0.016154081728356598 -0.03191636559359202 -0.017076113406707828 
loto -0.016711744757302395 0.003507523004820396 0.04569377579236179 0.007661724617821198 0.007709588631139693 -0.012890701364433571 0.005795213198567907 -0.044702457154976505 0.024454288932378384 -0.023473903825269486 
decembre -0.0464980950510789 0.00120374506897803 0.008914612991835588 0.006005014630982887 0.029451176440331635 0.0054872063579570534 0.04364703731778279 -0.04813682718426117 0.016424540231516377 -0.03581072678113323 
recompense 0.03534777580952889 -0.008139899121367837 -0.03290406110372063 0.03195291783801544 -0.033225452241331645 0.033823360883489105 -0.049801318842558014 0.010826254936979968 -0.006901505055571074 0.04133657800266375 
vider 0.02227563894491805 -0.022200627424707495 0.029340990277380626 0.04446871037658731 -0.00821700526854538 -0.03246606300478955 0.03743759618389571 0.0016952424420246825 -0.009516883862600467 0.03139536414756719 
basculer 0.03678390134093729 -0.034543376081681273 0.01093211145748911 0.045192810233117574 0.039276153394127114 0.017497089525921473 0.04088641393688156 0.04276561249956779 0.04370991216735668 0.04060957188945894 
aliment 0.021576625523797445 0.00281400366078686 0.028507736406557294 0.020292669650825428 -0.011020277746474771 0.02063815746022592 0.0073257636542274065 -0.01270406035679432 -0.013638459749248918 0.005957933117000008 
is 0.0023788808766828486 -0.03132558906450008 0.002856982483139492 -0.019408870220599738 -0.039830565777665354 -0.04331440054594367 0.03626763844730604 -0.022448985701402687 -0.04936553669255062 -0.016522971824311714 
simplifier -0.017181849579661 -0.02456855166930223 -0.021950287272542827 -0.04761935892371934 -0.0009038463072635856 -0.02605742320233036 -0.024255435191316576 0.04798299493196969 0.012141094615897756 0.04484620986693162 
telephonie -0.03841807419390281 0.026883109168222997 0.004159455079300016 0.03344588258253829 -0.016908083047709986 -0.021745730516561014 -0.003217503481079718 0.03547470773352135 -0.04750753275392101 0.04108395323563154 
resultat -0.002376351053310075 -0.008737347683637698 -0.043926272692322695 -0.006503593220117608 -0.0003237713894220256 -0.019384141744577754 0.02531367118245423 0.04714502183785734 -0.03726291631593452 0.013434810992803704 
elargir -0.004051487271563156 -0.006225254868893283 0.02214027407354621 0.016231569048370278 -0.023001468934227894 0.015020454926422889 0.008930374613706316 -0.04440524966722117 -0.045417346978333904 3.712115845858406e-05 
departement 0.04098342879767376 -0.010944602323458338 -0.022173781783546134 0.019027293378761325 0.012529778445624149 0.0371616003914253 0.04481898192678882 0.0036879720353657267 -0.02094311000010583 0.023171155903300315 
inconfort -0.04094068064449128 0.047415938574499814 -0.022237914701401768 -0.013575414635021503 0.047726333504270115 0.023971217497709117 0.04800965848984298 -0.004254292300550051 -0.025463185600324276 -0.04794854075235466 
admin 0.039125016173299935 -0.0463961131880493 -0.04681924447478591 0.020979728796118848 0.00196794622896583 0.009111463859631786 -0.03579954702737306 -0.005668787744210907 0.04377646618822232 -0.023544397461658016 
majeur 0.0037681210978059965 0.024848373903619214 0.020275062820096085 -0.0057783611359549444 0.022335046671695166 0.003150400499649567 -0.05010131724715482 -0.01833743275145727 -0.04409097197401413 0.04529936653478903 
encourager -0.02333890604194227 -0.016886038299252337 0.004455474621095742 -0.031257293818403496 -0.0332063676414777 -0.02471278595437119 0.012311490405905507 -0.042875987360866195 0.009439816457716237 0.013668812379362186 
hebergeer 0.024994396565030087 -0.028361933712147232 0.003571635144281001 -0.03947568094506963 -0.009628002891182317 -0.010359326416002205 0.023582800602961425 0.02624387052818164 -0.00733702492704015 -0.008081088778157183 
souci -0.006067014438023489 -0.01731992189960266 0.015304669426245782 -0.041494055265647006 -0.045758035002452846 0.03270669518259305 -0.04683208206819891 0.004341219867877588 0.00040071386078537524 -0.0037825822926671544 
drone 0.006737154754895362 -0.04466589700111615 -0.03643447267573699 -0.009942990519849168 0.0322108175223701 0.010375423753552642 0.007792586887470352 0.004510036556449115 0.03672123917509529 -0.022212307301979314 
autriche -0.017700386098926612 0.025695947258126305 0.040254027789210854 -0.005128177364100541 0.036385399308605994 0.04906592622100014 0.02067890825614164 -0.022030053168864087 -0.045119951367661795 -0.0255935134790605 
auditer 0.02660733825751011 0.01548002516784752 0.04497940841418437 0.048062614301956665 0.04781456617525989 -0.012257884687589662 -0.035186364890004235 0.0410080034424026 0.03784121081448811 -0.020396646611950665 
unitaire -0.029752335545572425 -0.021422953332449614 0.03914427547522655 0.0009666692389207836 0.045861131147920044 0.03111759154398347 0.03796428196606692 0.02157297089746949 0.01848689937565793 0.012323399936327743 
mesurer -0.04236122418539299 -0.02042666780483964 -0.022788560851101886 0.022125486852050513 0.03663522450797456 -0.0497962908856338 -0.018559659610129984 -0.04460635324924692 0.04721051097509985 -0.020778727815620367 
fermement -0.017791786473315366 0.03637130154836453 0.017767828148655063 0.01974151017901185 -0.01347711715874658 -0.0077965348526364215 -0.008049992542896529 0.02475377224296886 0.03140107746754896 -0.01687646197600597 
shunter 0.04813969582346811 0.03934538688337399 -0.03775651297926871 0.00040957846824113056 -0.02977811281626892 0.024670128421676374 -0.03920749246255674 0.043214602800134214 -0.03734437854935699 -0.02790735517634329 
diminution 0.03047647930488818 -0.02154781746317961 -0.04260958363191634 0.047293360191920014 -0.04613746656541876 -0.0290616899170452 -0.004838987689819626 -0.0036651108951761577 -0.014416261701261554 -0.022685335084290065 
sol 0.002277440689681494 0.009517149677289158 0.007622790816565446 -0.023265219495663993 -0.029902141275558496 0.02172718055631453 0.005132265008468751 0.009023735055519176 -0.03758234342488925 -0.03697076256572747 
developper 0.021085156975864973 0.007488379643275047 -0.003006900685460328 -0.003089903689052867 -0.01805297287870631 0.033615899721164834 -0.05277114510193607 0.039547016302136154 -0.02605856718886661 0.017968466180666536 
systematique -0.03746972154290561 -0.03149153699601649 0.004566714125820995 0.04113162338219117 -0.029559255321698143 -0.04041750703367003 -0.017162652076691088 0.009354854683530273 -0.022251147104185194 -0.016648353147911906 
aider 0.033107718223039775 0.0314207237562032 -0.0020151248290845056 0.028261186724897382 -0.037276510295868696 0.014517766092312756 0.011476943785751531 -0.028347110453006 0.015424471799571786 0.045969185738731475 
faible -0.04176531809967546 -0.027818788648217244 -0.04937340024034357 0.011496568707693621 -0.045638824368970175 -0.04289591938586589 0.008711002337531968 0.04980284314902188 0.023696967225559272 0.0043190499560842015 
branche -0.0273190165321288 0.0334498241625353 -0.03945712330818161 0.0317547345622672 0.025074942853457363 -0.03615095771944131 -0.027938021706341774 0.03157497393705376 0.0031100315963338903 0.01848409112911547 
strategie 0.047013006399745566 -0.04917490321163139 0.0450126277366575 0.027302714373968803 -0.017301476042312223 -0.020109673928836884 0.0028209248932282126 0.020594132426686628 0.0033340613755354154 -0.0010342475296078839 
dispersion -0.047036837243627644 0.0006682963535381919 0.028156266064289927 0.0035681372305559314 0.045048089927619654 0.02659649588097915 -0.03626324160817614 0.04124206196289623 -0.005069264250605034 0.0439087213157464 
investissant 0.014586462948355668 0.044494608648669554 -0.0023182609740984273 0.04662487589974063 -0.0026367765617682244 -0.019735288854644813 0.04353468726366013 0.019498584347608983 0.020826034032747433 0.03929969330538859 
amener -0.01279486169411972 0.031232465661713362 -0.010779096445786673 -0.03499487537161722 -0.048848984942188915 -0.041771443150599094 0.029403903438272525 -0.0003233971205569658 -0.03731320194963163 0.016927045351252983 
gravat -0.00745768378657121 0.019264578756522377 0.04917790554591288 -0.0352048315644878 -0.01873849354685251 0.012179458256111992 -0.04140578277226055 0.0217101973268175 0.023643891368712124 0.009600313149042226 
initial -4.706967315633823e-05 -0.03278662675631001 -0.04953961102296232 0.022884631286198037 -0.037640857812335074 0.014344298526123676 -0.015372031880180338 -0.0384660865931533 -0.03551281305864001 0.04897354105140013 
ailleurs -0.014685600280112525 -0.0054876732993617665 -0.043194591702572165 -0.0052297633995782265 0.007693478351932782 0.0029797969309489436 0.0038683890204801643 0.026531108666027585 -0.04913051495448045 0.008784886963047564 
ingredient 0.04436465675229466 -0.016115733623140862 0.041928058327103467 0.041846602843452985 -0.010417562134871846 0.021578434884118865 -0.020892823330336516 -0.03466200710984972 -0.03912524790506835 0.021498494541455044 
changeant 0.008017378948715195 0.011805767552720833 -0.011961236870345551 -0.00015722434126709745 -0.007648292583521878 0.021908189332632687 0.049250070428896765 -0.04154437770302548 -0.04372669995001499 0.002262127161999428 
alternative -0.04310554088096236 -0.016362198816620724 0.0014067922514914948 0.01616964992963499 0.0372074431468576 -0.029224258602052546 0.01243514982172005 -0.037209581062294085 -0.047720435251518305 -0.04132198652896367 
lithium 0.019218142062868437 -0.044256059479136384 0.029082376732984336 -0.022288333104339024 -0.022361815602417647 -0.04058147730094724 -0.01816635547853901 -0.0002524609763585439 -0.03179011023397612 0.03853978100189749 
particule 0.02866410535767601 -0.01888042271283072 0.015588081518099137 0.031230151384258043 -0.041700072245250346 -0.010838656939524717 0.040884254537171434 -0.025817218045062065 0.020847933501574416 -0.016977441712854733 
reaprenner 0.026470094673647165 0.01733991838999093 -0.037341586310988974 -0.020237741900427597 0.034373598749310987 -0.010287759788524692 -0.016444448958423372 0.022611613471928655 0.014637483121541206 0.04468061432080158 
controleer 0.011911984854471093 0.02826317807377646 0.026349366683373357 0.0305392840912811 -0.04888958608332759 0.0007156406591981306 -0.01219412344681347 -0.031087978799662595 0.02390863108997502 0.004729429246679658 
coup 0.046945957203480895 0.00456989075546858 -0.024290912817984046 0.019883371835427634 -0.044084902966091 -0.014539787976979196 0.028964354141541034 -0.022034117580808366 -0.007400814885613614 0.04960326907184106 
craft -0.046717637272701514 0.0032999230062472494 0.015826113459391822 -0.048044999249746416 0.011786396992986019 -0.0477010129208565 0.023772785771392888 0.034090107663512746 -0.012106422013395908 0.009402769688950586 
tenir 0.021084404637495675 -0.0483928602592424 0.03146260294698859 -0.0023135267132633136 -0.01337581974840606 -0.04684380891367059 -0.006284665750817985 -0.017368529748202608 -0.03248972867616126 0.010531948013155532 
portique 0.03986608338844785 0.015775703211541713 0.01906601032810649 0.046222456896551696 0.023751907267621237 0.028642420416472594 0.03448170542098959 0.01655321467411023 0.010231877595054716 0.017454461111926934 
nefast -0.014147264016361318 0.02442220788681645 -0.03985764780340543 -0.0023714948373719366 0.039312679799885286 0.018761913047320406 0.038657490589354096 -0.04756068989106476 0.02643248013411024 -0.022297029286717004 
pass -0.002431525455436599 0.010001336197135731 0.036972904868543356 0.017890745339140295 -0.020152586190455825 0.00673484585124176 -0.040572192770596725 0.049267460073082484 -0.014976126090499805 0.0158394910725141 
retransformer 0.03303556673991922 0.04620760008930612 -0.03479641326176925 0.0038910300997395276 0.012679164314107098 -0.0010742390934255798 0.020465226682960077 0.0059563530321200785 -0.04748103322879652 0.0014918316845373403 
biodegradabl 0.0035048001319997277 -0.03859214763148333 0.043662558338948124 -0.028480407407143922 0.01315941263590925 0.028453720771175226 0.006373136321749635 -0.024089382065245232 -0.04709876667786389 0.02154403626211761 
coherent -0.03774904767517221 -0.027282720184925346 0.04984243724687484 0.03278946252939781 -0.014258333284154058 0.0457219793200666 0.03548098110055702 0.01566257130678948 -0.013241066761386531 0.0016459372511805578 
embauche 0.02865907384771058 0.006120448235771716 -0.018425137364729022 0.0453270244532485 0.018617091780726555 -0.04757989574378014 -0.030190493883110032 0.01577185529518701 0.0034217176172152432 0.023234919220164747 
passe 0.02685534472443088 0.0013341112771614548 -0.043687750266721816 0.010751472193187374 -0.026285086781194896 -0.03280506108599684 0.02480611012621264 -0.012501683465577005 -0.009972624891055656 0.021006966960213688 
bateau 0.019618484900154175 -0.013718817627196414 0.019719017549295875 -0.026929417431008514 -0.048593761821862126 -0.04352049662187709 0.035589932924746485 -0.011969251183730089 0.03515925985129981 -0.0063248791492181615 
allumee -0.014006137793277532 -0.018932834869258973 -0.0010900810204507651 0.042425862183957705 0.021998513994323576 -0.044146373070945766 0.04220198026312087 0.014953241792243192 0.016146043204808017 0.04324902645876897 
xl 0.02913638838963296 0.017091642848152896 -0.0012353872262169355 0.03174593821948951 0.0069485095176209 0.014808055433923476 -0.04993777139482887 -0.04804793199884847 0.028235612437994117 0.03024432409601515 
lombri 0.030512468461837083 0.028133803947867023 -0.03956494566994894 0.04535939439784131 -0.02773458982537215 0.0012273874250044625 -0.026821538050220566 0.016571582350436424 0.012769702096284762 0.003936960717691138 
retraite 0.028998327545252608 -0.03254215040866481 0.01547249581213098 0.03340467998772797 -2.8005225950580065e-05 -0.010987576842805661 0.02129727434037542 0.012339231854211073 -0.013002881987831822 0.0026810157569964695 
resident -0.02975399117793048 0.049949378461370084 0.00730274029389681 0.04319461555341759 0.049063926167114844 -0.021782320840536735 0.0413736610800323 -0.03363616956203642 -0.025030095497739675 -0.0196736450408384 
allergene 0.0212887976646017 0.013987047541902232 -0.023182308776865248 -0.046986397919958116 -0.021741828540743066 0.04712820720656657 0.00022774772661354783 0.024703276061770633 0.015365466103894724 -0.012444986158866992 
diviser 0.04956540972732428 0.01412726951105039 -0.002890821021785912 -0.0015426308411993581 0.010527873909221946 -0.02864271358046203 -0.011854935493444182 -0.02109352832336734 -0.025751417437333887 0.013858010558176394 
schema 0.037805919460691416 0.010699646509347094 0.03866813606724633 0.0030147739162005084 0.02949724209667241 -0.04421623282587908 -0.021449426884097268 0.04394411793289303 -0.03306162494978021 0.006562375237770686 
visioconference -0.005198637693091728 -0.023577533979261708 0.02211335713170818 -0.017241930488550498 -0.023646296243881537 -0.022699484758835226 0.003217996689552058 -0.04109797141169717 -0.02422454956716505 -0.03603191618730756 
bord 0.04408731273805024 -0.028519969825678632 0.037297637195921066 0.043102181090079406 -0.02784356334261429 -0.03382325801724359 0.02052956580877547 0.047083934177772006 0.010672568592109152 0.014930808166943744 
fournir -0.02551828081845465 -0.007467126251103307 -0.0014072291364375293 -0.0210293770042582 -0.013372509951341758 -0.011814493865835645 0.016980347792044288 -0.03154497252539623 -0.029626692664615907 0.0007271408333741322 
poil 0.027632138256234805 0.03091772671087726 0.031206782503588854 0.013332511918343672 -0.03734837839975863 -0.024765513480310773 0.048603470708307735 -0.03709019966671633 -0.0449820985532576 -0.023355724051735104 
intelligent 0.03283420329429459 0.04135486202354967 -0.0447444021928743 -0.03338036021123092 -0.0036448787045354897 -0.03389082891607969 0.03721990570575845 0.010210565248548725 0.007049626329480149 -0.026067488439488067 
habitude 0.04499718065383556 0.031001469953709736 0.005952279414242007 -0.016930730043539826 0.014260372752104747 0.02750648082040808 -0.015049651164335865 -0.008678282490262099 0.01664884220554691 0.03640966704725373 
carbonees 0.016167448843859938 0.04806042283417234 0.017619593136954267 0.0002261390542765003 0.042208642574074806 0.03213023205531326 0.02339289187682041 -0.009316218307445683 -0.008479633884997641 0.03262812581559368 
tracable -0.0010351090245483653 -0.019856491724911017 0.026342370230797045 0.011619416787982435 0.04978624225805244 0.021751789583259094 0.0009427394184177789 -0.01112244155433616 0.006663340368574685 -0.005057909716922027 
yuka 0.04428923683685272 0.014229652896952246 -0.024468718695713976 -0.012599922143911273 0.0011977866509719057 0.04058297837328087 0.04179557603594171 -0.013000336654940403 -0.008639884975353285 -0.015357694172402233 
gratte -0.020746954081498372 0.04496094446786033 0.04002345235002309 -0.03979291992432825 -0.006752228694250972 -0.035997169908240124 -0.03193582793986664 0.0038720494019976967 0.034287817204380636 -0.033040436636093656 
reorienter -0.03535665109782967 0.04165916232317589 0.02642652532394286 0.010576800802103688 0.015194004478655137 -0.003820583773445272 -0.02664270309084551 0.03965733299253986 0.02651628654795081 -0.04188950616412392 
placebo -0.0338746984002664 0.021999371397635914 -0.01997639207552488 -0.0045203289980524815 0.023374779390883813 0.04173145065067659 -0.011547984561569382 0.03963466887792603 -0.026137297492366696 0.017196158590554407 
reintroduir 0.019846357578291132 0.040472304541579004 0.003233630842150536 0.02736798475871122 0.04720431802819784 -0.036936740580379525 0.04198163989505627 -0.026630846186717672 0.04607591693197202 0.010723304135370216 
pme 0.027581501135542627 0.02922792988609803 -0.03875536278133944 -0.003696085295524584 -0.0054214272725232795 0.048862994672903344 -0.02044446732966806 0.033869327501447076 -0.004035588824329481 -0.028763189373108122 
dejection -0.04692123819483487 -0.048089547128046674 -0.010132132759280122 -0.003562242070532217 0.03706744723068333 -0.02944312372155492 -0.008740959398074098 0.003799849378712562 0.033042305730592636 -0.028340115380499707 
hydrocarbone -0.025109850877306064 -0.008543015342916118 -0.010230185536436414 -0.007687133169198788 -0.02108270437279584 -0.005405888728440764 -0.048303304270613676 -0.031366153383408736 0.040134207275858785 0.013584946686263453 
amour -0.005294346627879947 0.002066676998629266 0.031985300637782973 -0.02486691991259088 -0.04625242788604755 0.005885136339932989 0.00469707596689028 -0.01593541821226817 0.002932763328592727 -0.028659012022129327 
vintag -0.021742536585525305 -0.01669854948354974 0.01669419428968644 -0.008269856927644141 -0.04967993999481859 -0.0005163261508648598 -0.036202569807029274 0.008978773246001532 -0.014986775297767922 -0.019600082566343397 
novateur -0.03482752097143643 -0.004492689691224751 -0.030202311440360487 -0.04394274036650562 -0.0375242258114117 -0.03491956591926128 0.03982764738265947 0.01996021881410922 0.017266008587635988 0.005537977029170179 
bus -0.031192894338532746 0.02576778040210741 -0.010375393287236013 0.02712241051437679 0.009842054732132389 -0.02797962463167645 0.040283194994011375 -0.03701998087218922 -0.027222912752745465 0.038161788349178036 
cheque 0.010170684241136131 0.03767971640893575 -0.006801687504696937 -0.019597466951130307 0.030963055057392025 -0.028857588705419268 -0.002130310487805136 0.010045388056364917 -0.00450449679362584 -0.030597628771160932 
consequent -0.026788723873193206 0.03731941241627937 0.019044864754089008 -0.01399616279486063 0.022846905273018962 0.04700955953377094 0.024894821717170706 0.04250365185429797 -0.03693855364027075 0.008948167773664336 
transitionecolo -0.03315460892578809 -0.010511985492018937 -0.010640979361408237 -0.04558930697303365 0.013085955122588686 -0.023234642257069855 0.005990155285315585 0.0006034961273869706 -0.033453492512546784 0.0023209819514014942 
afficher 0.022423470683151703 0.024004050182828345 0.008214937357759846 0.04519126088300334 0.02377077563563517 0.042237210162380884 -0.03687406463737026 0.037581281530146934 0.013211666009357486 0.04945879372292091 
douteux 0.013555084330629324 -0.0428925952223204 -0.01305428736406679 0.029042106466018052 0.011528003877258853 0.01954193423559797 0.033902761730571225 0.02333811671040777 -0.040187559906202215 -0.022895728767735657 
industrialiser -0.011497530470357755 -0.009886084700988462 0.011050442165861638 0.016310377025469235 -0.021593179848635107 0.039999402896467924 -0.006278643244456341 0.010098850363181183 -0.018060761835860924 0.016188524537010914 
adaptant -0.024581861651785098 0.02915888589292153 -0.02229563377063236 -0.046446627535745175 0.03197383328010117 -0.004359308660926726 -0.03804401879239707 0.03807353224454267 0.0324544086626959 0.030351355469520405 
guerissanter -0.014101001516568288 0.027528176469004528 0.040224795088894094 0.04925946084335536 0.047732893586442754 0.01716725296300009 -0.00468376228835814 0.0013233826556797936 0.0059055035999207375 0.04106920398267693 
solidarite -0.018255462421320937 -0.022530987069390183 0.02572495264556029 0.008820688779126182 -0.043532177679940554 0.010950823931118082 -0.019477573163680584 -0.03391598163315564 -0.019220846104453893 -0.0012182999278307525 
horreur 0.015998715534744884 0.03172328944777892 0.011441775436872923 -0.02967397065143308 0.04681881472081708 0.03092257446799088 0.02098190703441546 0.04992128438892324 -0.017922959854210396 -0.012949962357964567 
auditif 0.013367598218580648 0.03553230799027352 0.042676956350194285 0.0013869653291356929 0.038170102259440335 0.04898208479043365 0.030558518176294267 -0.046862208413496385 -0.038470408855914066 -0.029606531861160766 
annee -0.019519226997179333 -0.03970997066995767 -0.008975623581506675 -0.014795894820896298 0.012502221220443501 -0.03756890875967078 0.04892719875894122 0.0031219467059636326 -0.0008319795220265056 -0.049231876681350525 
serviette -0.004442492237399835 -0.004974135346425821 -0.03613237305516287 -0.02636742697207779 0.0019754608641967845 -0.024069364192950058 0.01729104750250496 -0.04727760062677212 0.03793042275351795 0.030915046908666272 
programmation 0.0357031378513651 -0.02924549919597365 -0.027473274317447772 0.013103776510409913 0.04206026359294075 -0.03557677701343176 -0.02059904367045369 0.04040164083031722 -0.035060748881854904 -0.014999910805715371 
coiffeur -0.009666066721916161 0.00046201667613049544 -0.03702154347662328 -0.023341815917421387 -0.01523661514892276 -0.006580042088566549 0.04359176395085982 -0.026576189218592235 -0.026074381167644017 -0.0003337977526236154 
reseal -0.040998012186004434 0.035613929148519366 0.02601969528231262 -0.04946458393848803 0.011077902369642451 -0.03440653756208927 -0.010856897981147449 0.007339671503126358 0.034799020398718176 0.024414705676071183 
flyer 0.01146422949911502 -0.026965486917470704 0.02260158822292842 -0.03943452815406102 0.038575146869765965 -0.04761803651802907 0.029480332836637514 0.017836914056698048 -0.0006867870951221863 -0.04303650698114162 
exce 0.0003209789997371116 -0.01064174028677957 0.0367011121005171 -0.020019034469180096 -0.015403055006789401 -0.033116905350360167 -0.049563316361962165 0.04727069232149771 -0.030031270340821373 -0.01825110392752728 
faire 0.012550045537621889 0.007919909087795982 -0.022245001276320543 0.028001807526547986 0.012818193956867075 0.014975521844381974 -0.04298235990289689 -0.0410433502694863 0.037784136378914576 -0.03825201434041568 
volontariat -0.017844311760010705 -0.01773993798478303 0.021778003512162934 0.004343664808499176 -0.0038365521217616676 -0.03477351467620856 -0.008787926293685557 -0.017117547664868057 -0.028417912541907456 0.04840323119243266 
antibio -0.01507885129506169 -0.003823748370350701 0.00984597878080306 -0.03077164475007167 -0.019703659020824927 0.0002661718360542949 0.016925813358495613 0.014002659839919633 -0.04365458330408493 0.040972491023556226 
accumule 0.024845477053222837 -0.009672704154794563 -0.03746860852218026 -0.046232071747392134 0.04615586246198919 0.03752108693705943 0.02754627107274227 0.039417339903339385 -0.017896770657160502 0.036889183738956624 
osmoseur -0.010419036484744586 0.013036531212505824 0.011253361048958656 -0.004066465838425641 0.0062966128486148356 -0.04169631638778891 0.03606805201235969 -0.006534996665453584 -0.03458333391252114 0.02182989128468273 
poele -0.04462374693760386 0.010007128360429407 -0.022121943809485112 -0.03926309576111389 0.030757380714627715 0.03769696133829768 0.01364644665923789 0.046220015707680806 -0.04118967197502374 -0.008493567785122362 
commerce -0.048277370633712874 0.006155384717783376 -0.04091204029725307 0.015841400759180578 -0.027846016591473816 -0.049798385663740355 -0.002886428366057715 -0.009163498594777724 0.024112458481792696 0.0033234163074334034 
autresporte 0.0004028138452745306 -0.0062270078307734315 0.03357933220945336 0.04855465758291854 0.03836780170496032 -0.0038905160919211687 0.008286717588213432 -0.02426976244917185 -0.006741196722388408 0.010964008406514741 
regionalisation 0.03132065009942727 -0.04054032845173722 -0.0039006543110920483 0.007915950406375527 0.034692607993556945 0.03213935575161272 -0.04670100288062331 -0.021030132634057085 -0.0253817946470151 -0.03918510078822712 
cintre 0.036127730370939304 -0.01706450960291143 -0.008003250013420418 -0.004354333823469393 0.027076047043201764 0.035158320237757085 -0.029991308192628803 -0.03467461468931054 -0.02092849056632361 -0.024637397058347592 
guise 0.019824132625904302 0.03547072417497835 0.008470696321012487 -0.01342332244894034 0.03207304014613482 0.04231199789670862 -0.039278392969286716 0.04480860495360211 0.04809310258009651 0.04008432549705826 
frugal -0.019302512382540847 -0.041561809514675245 -0.02550436457601557 -0.04496442636956166 0.004002345418017123 0.04977093141182606 0.0495512900682551 -0.03784692347753922 0.04357764638087476 -0.04129034009549674 
localisation -0.004659131079795353 -0.028080725538692904 -0.015222172315900326 -0.04958994221377975 0.01787781151370857 -0.049707868494281986 -0.03579601584896485 -0.015245830557174142 -0.04403933985664023 -0.007171339751620073 
necessiteux 0.028901261657712448 0.03428636105576172 -0.003356731306202423 0.03999767273814862 0.015387082544341662 0.015288936381171899 0.00018124179537718697 0.04563437421560513 -0.02996533250545203 -0.02443373465179412 
sujet 0.011356300535858482 0.0227861868636941 -0.030843520052729057 -0.0320555684196473 -0.0007583163938033543 0.04828461557105683 -0.0301629504614595 -0.03283302623445147 -0.007482925456936869 -0.0027824519867848344 
intensite -0.0441027410585902 -0.01701126245549109 -0.04236513438422641 -0.045627953125755856 -0.03260122340944281 0.027513673100474718 -0.034868121598505754 -0.04507951902218957 -0.01659891447924557 -0.03652047209141332 
lyceen 0.010416799828983466 0.04109372438528691 -0.022630514526229675 -0.02993525126064412 0.03903777026678009 -0.006373004146238192 -0.013263992843779276 0.049348493976562165 0.02154289284168781 0.03739118238251961 
mobile -0.03320305652179498 0.0015781734629511253 0.024146841054531153 -0.023575538362382152 -0.003836563409479248 -0.000282971452310194 0.006759161508770321 -0.024961106436216126 -0.021192989692314944 -0.006914608732142034 
fruitier 0.03965259699801505 0.006421760034695896 -0.04396074614283428 -0.031609399387494366 0.014230113157209914 0.006762540853834769 -0.005545175979088183 -0.04681958758252672 -0.0028190677195761788 -0.048486715798277555 
marchandise 0.011014711054651542 -0.003427566307845504 0.03772027569785325 0.04810552019688223 0.046370096548328944 -0.008082130469313898 -0.0007278033444303088 -0.01614907876697202 -0.017276064159774566 -0.013811783569493835 
agile -0.04443380022281071 -0.03468947196615876 0.005006589512014057 0.03773950705233386 0.03505533769682618 0.03954072393069997 0.030569466122838396 0.030732895076931787 0.04806507004710241 0.013557801499100988 
rue -0.0342335387184432 0.04671934407208809 -0.010055610970786673 0.04788942345156595 0.03251177661135815 0.04435728391308898 0.01069625708809116 -0.02705406342878705 -0.025486243795000887 -0.021693781187490147 
apporter -0.03291982227426907 -0.045890063115313955 0.04777472080786922 0.036362622541887005 0.026312381660981352 0.01871246317618531 -0.02306808828583776 -0.0070990232743266225 0.004481180433673377 0.01803518986575073 
processus 0.02354649053680442 -0.049003010896779664 0.010018837205385924 -0.019130646565514074 0.027013887705942714 0.01299353209470644 0.014894187934502312 -0.042999296329525316 0.024329607392729033 0.015631750592282067 
garer -0.030779228552187853 0.008392389899953064 -0.021464415924148328 0.026081915311280932 0.027168783279099794 -0.026099902827394505 0.0007056344376486138 -0.0017379802315811562 -0.04656843135064451 0.006171843536395051 
confondre 0.048395725705413964 0.042091813455319205 0.037179665260199286 -0.006546759545053007 -0.01620452966820798 0.027116990109167762 0.03195180201088323 0.047984539771350726 0.03383389110910394 0.02227097479928148 
abaissement 0.005136180470774756 -0.04401411129823941 0.045163441226744046 -0.016149404199979567 -0.04160274526513947 0.016767921498958383 0.027876851824426185 -0.03270095010129362 -0.041522959817648815 0.014062767037906205 
lachete -0.039872917777958615 0.02342250880010866 0.04676310771430104 0.017956670636128356 0.03608870122200703 -0.007144068505161825 -0.008694860783104112 -0.04765065884577645 0.002003583994269729 -0.01569899552294232 
resto 0.008410780770481133 0.027167440073575 -0.009375274516319528 0.02758270184761344 0.04018244826046469 0.033657414383826044 -0.011456359403743947 -0.033763813927848635 -0.013136572583756655 0.02210462684866163 
roman 0.004133437579082971 0.0307387225686521 0.03255306600418377 -0.0021046470437869075 0.04177277216007648 -0.021764530046883848 0.0035294315965471003 -0.047888120252255646 -0.017903643067558414 0.013018833772737331 
etage -0.04417770935632448 0.03098486091384805 -0.018939737366777527 -0.01446471732102473 -0.0045548187565959955 0.00983091895617456 -0.04352642991515352 0.04942301436325319 -0.03605586501377504 0.011939670502360424 
touriste 0.037987130334595755 0.04881671043581228 -0.04272295209001661 0.02835175560704033 0.003935305954936937 -0.03818935708419908 0.034807652235957644 -0.04021680840407621 -0.006438868918611617 -0.032835039136241626 
acceptable 0.011976621043247131 0.011585498541370157 -0.038769267597923845 0.014177684369705965 -0.013660960121040696 -0.014155718107182337 -0.022960719960427537 0.016500671930133153 0.03189627493376084 0.03409207900181495 
analogue 0.045009846134371326 0.015087392835976392 -0.030084044413008555 -0.006859920407836306 0.005116428972552156 0.037667447612728444 0.03915162381498645 0.044368171722408575 0.01702221884402255 0.0017444777467178448 
decisionnel -0.0464617560054483 0.0171070067059026 -0.023234769004311692 -0.022903640343324934 0.01091310965024388 -0.020962928759280387 0.04248015695078526 -0.001464382918533684 0.03603357131836611 -0.025901876430866715 
seau 0.048896530754133374 0.017730486040700592 0.026898828488497766 0.006751527595801941 -0.0337920586923793 0.02553837858935047 0.003966760658365076 0.0032962067757919974 -0.03920255669156784 -0.012238992717851588 
dispo -0.04404963387624215 -0.045694886293995735 -0.0347161897047921 0.00927726385217683 -0.0015258556537791894 0.023813650999991724 -0.046271400569755906 -0.01275692961327506 -0.008367712804926106 0.008049543899718075 
intempestif -0.035404894653022184 0.017665432486229336 0.01131176880513913 0.024441004843246614 0.019900240625092873 0.030801062804903637 -0.017400940187581305 0.02942320950274357 0.03816369103846425 0.041065637247702964 
bloc -0.03648825902771777 0.03354886572184532 0.004382720070191429 -0.02211175588857426 -0.026872753822874563 -0.0023990670838877886 0.005433648783082431 -0.03229067415598573 0.033255941249985786 0.020004005304083194 
animal 0.025871316716194064 -0.03907025814845149 0.014855502508683956 -0.03430879231833421 -0.028861663710725315 -0.039247732131243974 -0.03773490865650209 0.002065969749507654 0.03074366888654548 0.008762279898090933 
nudg 0.017494489143096568 0.0465775109643809 -0.044331392463474804 0.013285973147834524 0.045365872805168496 -0.010661843545806252 0.020891244085995023 -0.006879601991176562 0.025210757947646 -4.282341513292459e-05 
priveer 0.025789644340132006 0.04758992346897884 0.049264696203420895 -0.015048280536381357 0.002423753371434184 -0.04414445437716646 -0.04192409586743668 -0.005816127890123619 -0.008383679415447327 -0.02197409689419502 
plein -0.018749720244577783 0.034473301683005005 0.0005599935749978244 -0.01089035850032364 0.0055659486117056655 -0.037574569295800574 0.031853966254340324 -0.025274628596956186 0.007869064513824414 0.0024443227176885497 
tipp -0.031122217377539518 0.020430681797715795 0.04800671585946323 -0.0010545351255213744 -0.044620357758053224 0.01316881807183283 -0.037186272985170916 0.03215613824924613 0.017247487834558192 -0.009432002418243554 
communer 0.02217473655812612 0.0046015573707774106 0.02122144951749494 -0.01750489851503408 -0.02612800943619686 -0.028526100474008758 -0.014529889659240352 -0.003000051016803043 0.041285798139766294 -0.03310316957872172 
terre 0.024511269529096342 0.04718476062028592 0.020622731985623408 0.012499086540351395 0.041628973892808355 0.01614175287519583 0.02704730540546701 -0.0011580001665531649 -0.009677178331768158 0.042057014487064504 
conception 0.019753383564647016 -0.0499801301163798 -0.047532123062774684 -0.0005554024782201752 -0.04928635647116528 0.03705653771998198 -0.04137569316549777 0.020813264425047735 -0.0002094026010756781 0.0024238607475902045 
perturbe -0.0050149104837147445 -0.0008592587811598933 0.011518615598298056 -0.01506958729338035 -0.010070027186668976 -0.04193370971393316 0.013323756785425389 -0.04228551877342354 0.021422579649580647 0.023613436374346708 
cassent 0.049833991549970764 0.02370423074303793 -0.044969919907292946 -0.04447436378646892 -0.03334730378005709 0.049908724119087436 0.016951869382895668 0.001701767238241631 0.028306212313645936 -0.02608033008828032 
exceder 0.03056878061989222 0.0016436259827142437 -0.04645427554371513 0.044325953733424885 -0.02566248163101564 0.0032562193641002264 0.044263387760923555 0.033004623722592864 -0.009767032807878044 0.031793372150859846 
leguer -0.022897000852706954 0.01840489674583876 -0.04449856956353339 -0.0015839357776835288 -0.03727541950981526 -0.0026638273183324217 -0.03553076856161721 0.013917416836045263 -0.0351792928990163 0.04637376375259416 
seniors -0.028975588645638737 -0.02561937107356474 0.00574424177368833 0.042329758595526096 0.026466175581324212 -0.04356360272069879 -0.008767368056158202 -0.04178656427078896 -0.047580715426930306 -0.026493119962657675 
esthetiqu -0.040458788443668466 0.024999626212246183 0.012189709957996361 -0.03929892429754008 0.009173869584944984 -0.020612245694526337 0.026361510549113995 -0.03547202857245033 0.049068022446152014 0.04848922230730183 
primordial 0.0193247226395125 0.0411457369480437 0.006418814881826805 0.01077765078142643 0.049458415712887595 0.01663631727628896 -0.048504433345700336 0.03328487709386445 0.047172529233751266 0.04864099341596956 
sncf 0.030983043597406393 -0.003029348454080713 -0.04710664188316289 0.013993799447339741 -0.005717756989543789 -0.04265508219678417 -0.04304397765668082 -0.028832699419557697 -0.043561318362549485 -0.01035402750116919 
natura 0.022085353491173056 0.018421786110461344 -0.011933812222444832 -0.007383299186598142 0.019896149810491977 -0.013923088615590894 0.016075498172118428 -0.030877962801669892 0.024492717621815808 -0.017862522299678225 
productive 0.0010054585567071683 0.01463971703050866 -0.049758893470270765 0.016577130434197153 -0.04742584851557829 0.02456255124602422 -0.011982217783287986 -0.001676001089327625 0.042960212460417056 -0.008590157931038088 
differencier 0.04880544035946464 0.0023070253979465922 -0.016184761342735374 -0.04529866761383288 0.009265162539811524 -0.026688546497678073 -0.01625949264828486 -0.01617261472431055 -0.04202871009085827 -0.008037130119688003 
reconstituer 0.015102387007138979 0.023586073275084336 0.046434204705270266 0.0030068047295861017 -0.004665268084954024 -0.044070588182699724 0.019045409366188717 -0.02250746162011999 0.03256903739823064 -0.0495196510353579 
centrale 0.04582466020625933 -0.015636152275442464 0.00393460816382944 0.016923098818765695 0.03136583366772567 0.01836516984309393 0.03462082131474386 0.0002125195205037771 0.043677811160409113 0.03828115950227033 
enteriner 0.021253527534718687 0.03655755239588121 0.03241325701640994 -0.045807394733313904 0.008806357423622136 -0.023438695568775144 -0.015621177013879838 0.01435537435041561 0.01927548936488262 0.04801131105157158 
finance 0.0242664169226058 -0.041124049482784586 0.04227271807619977 0.04948031347631921 -0.009356982801792346 0.046707462997119906 -0.01596876353911983 -0.04571844649740447 -0.030177060310292575 0.04988135506053949 
inter 0.02729557910141914 0.039683482633976655 0.038716695824521134 0.01845273664791235 0.03231249525210417 0.043241967669294085 0.04474592171650599 -0.0013646557393892323 -0.03987310963619045 0.025230163834862054 
explique -0.04221379149650407 0.0489441580740385 0.03238927857140663 -0.028594795203347022 0.031218148536610812 0.04167424674363445 -0.013952130308252831 0.01191456827560369 -0.035958773704928816 -0.026629628551359863 
occuper 0.027041289166209428 -0.03954577152057351 -0.005515397426819704 0.038760866417371385 -0.045225329998128005 -0.021141875615938034 -0.044235809688585356 -0.04011129218016263 0.021345815827213902 -0.03871594697007154 
convention 0.027271944060811404 -0.03943430719369318 0.009821716256881347 0.034445031575811295 -0.027467279499105105 -0.03446618520471644 0.030277907272333635 -0.03448857373854973 -0.0020042741512682656 -0.0022754346441561848 
separe -0.03251186587967171 -0.024194945573551983 -0.04423093247695476 0.004591551024934875 -0.01274489634428724 0.025104794476220948 0.014206206306333763 0.018732230089344572 -0.003291461298453758 0.002381259191237048 
implique 0.04333678404438202 0.016002734851329508 -0.03861441236641099 -0.048729157236912415 0.028720340991977514 -0.02301539945826096 0.018528793382509 0.014471405802250877 0.04848965404847462 0.046773888959176425 
publier 0.03597862799065973 0.03706960815081142 0.004763570295358904 -0.04752264408306462 -0.0009393716256914353 -0.024620098774554726 0.04748199610856448 -0.001922576430745055 0.02485018363227964 0.024516440376290558 
contourne -0.037338833021197 0.03980566889324967 0.0036898262825691207 -0.005863821062690192 -0.012112179102304521 -0.005429134987124355 0.04148923329372275 -0.03675446957051076 -0.027496038786480093 -0.021848209809961994 
surproduir 0.005934557666535344 -0.04094467444810641 -0.01929889665083381 0.01581987739463497 0.03900835895924148 -0.008894333433810256 -0.028661164914561756 0.027051974581480055 -0.032093435672553836 -0.03647795853629381 
contradictoire -0.045151655496254016 0.008167002458422818 0.029628443008308292 -0.03706772800548657 -0.010527617969315905 -0.026879906065881733 -0.04512635985876822 0.011703921750257617 0.04694855771080552 -0.01665253063898868 
senior -0.03535653972081745 0.012713053967796668 -0.01654257444956484 -0.005988586930763313 0.031023555791503704 -0.018435957789045228 -0.04851609685886381 -0.010190648007802873 0.011215078523471703 -0.04418987600343917 
chercheur -0.007188354244512241 0.01897619172399449 -0.029988107908477824 -0.0028787871504748243 -0.021032692794230336 0.04103457540063899 0.005471196907115235 0.01171368765096968 0.01622085007805163 0.03339241882434571 
eloigne 0.023781840761211592 -0.02549152503290854 0.02974883391580863 -0.033267849611939716 -0.01580643427179355 0.036137683248186475 -0.03823451279640417 -0.023743749086101162 0.009154297303121468 0.035125533009859926 
aeronef 0.005024130923394819 0.044482690124262037 -0.012779569663172214 0.02602198246832229 -0.02950204730665847 -0.03673458147407566 0.025599738815565067 0.014579889017709262 0.021976544730804137 -0.02419451954336821 
mobilier 0.006618443252434335 0.02322358492029353 0.015401427870988924 -0.039224659240191126 0.03386671893700091 0.013844556350568422 -0.04620792589703459 -0.0016366239167136777 -0.02494677000832121 0.023023871439965062 
venter 0.007937278670679027 0.03623809292985483 -0.04936425723416936 0.02368258310438869 0.03716398999346851 -0.048151785108997085 0.02430912908862276 -0.03414337920422368 -0.016874567731705998 -0.014780181860260151 
hyper -0.011577687285824157 0.02702029673684802 -0.03824681392171778 -0.00682387977164855 0.04857017695133211 0.025209919282030105 -0.016508196327673207 -0.042174165427510985 -0.015103043040621213 -0.003800981125352266 
ferme -0.009367308585211722 -0.0020964125367701875 -0.042185574277421714 0.03123888279529679 -0.034360655971776954 0.04056671282132151 0.03227364234226039 0.014029674577625618 0.028909344209648455 -0.04959060424933376 
alternance -0.02215308437992425 0.01743259815904221 -0.041759938865507044 -0.021439778078903047 -0.00860654841244051 0.0009763363904250386 0.026764503396426557 -0.045698548551636964 -0.03013311823346638 0.02131242906295149 
filtrees 0.03783239077669842 0.02167332486462842 -0.018328454496349098 -0.03961875614842914 0.025911859436528944 -0.019129111907698396 -0.03500852759885958 0.04982858234331469 0.035709648427957486 0.048961328925500223 
licorne 0.002294901155221983 0.023354613459914565 0.03376707401279355 0.015363363684862241 -0.015430774205808451 -0.0293853122750427 0.012347759450450713 0.0014584749353982222 0.04810838859918515 -0.013185548358501534 
omnivore -0.025930463730177294 0.002659860871424672 -0.003029319252829321 -0.0013873438182005892 0.03520962964355949 0.03329142504746795 -0.042696637747228344 0.04644524376228152 0.036064844061205845 -0.008684767974045644 
insertion -0.04905363879550596 0.04564822927247308 0.03192960343233241 0.00882956683178786 -0.04119262836710489 -0.01789799703511497 -0.010149331488928088 -0.0005219765367319822 0.03408577761260406 0.003191596390451989 
potentiellement -0.044034634669779193 -0.007386363092681029 0.02933690265817872 -0.022909139239078422 -0.030198979417556827 -0.005513733840510181 0.047774676733492207 -0.04764765382857119 -0.04135046839179057 0.027149601702303853 
kilometrique -0.011130116533010334 -0.0038965088198817596 0.002037507852349528 0.01286623917958665 -0.002871824270807677 0.006533875005043391 -0.003825230557548773 0.011760738679039897 0.04105856768805412 0.030509644007714477 
familial 0.0148906279196877 0.028727799500164356 0.04667776388337357 0.03497976079447316 -0.017743301659525472 -0.04114929127040301 0.04319462922870595 -0.017359544403704883 -0.00427713034048789 0.03049829348718582 
histoire 0.026073450904907768 -0.03231751079821651 -0.016010111351192017 -0.026154454645378557 0.026761298607928963 -0.012727286719437647 -0.042030943792657045 0.003320842311251451 0.042108326626097606 0.01964561279428582 
ceder 0.03148491707493089 -0.0023740464441838766 -0.02172202871046747 -0.027342999999420158 0.04803510085405171 0.033970003178281964 0.014572205803320512 -0.028344379053061572 -0.0025766604741329154 0.017647458687484973 
pietonn 0.04276756171452799 -0.04495343362109723 -0.03137136466804653 -0.02753671424043977 0.010417932257486356 -0.03550712316034744 0.03103029172745669 -0.044439885364569706 0.005099653970355583 -0.009137532885573797 
tropical 0.04800996301658326 -0.03554531956608451 0.04281420462954443 0.018153408080815715 -0.04261369695810843 -0.03995235145633504 -0.009068867586230236 0.012206035976433794 0.015529995297715872 -0.01984677843192823 
refection -0.04379750444149204 -0.019291065246690248 -0.012368856921809916 0.03658371431806809 -0.007832790465934287 -0.032074473097310555 -0.04218570006510727 0.010868977565024258 0.029163446396618876 -0.0254367069907961 
depollutier -0.001960379347939109 -0.022230328567592213 0.044690507362324286 -0.009282530857451104 0.013913941461396805 0.015688367824288254 -0.029442648247653837 0.0252338684454985 0.03350923699101774 0.0047549232491768505 
peindre -0.009036634014957854 0.022527314543276635 0.013893819695604642 -0.005832086410453287 -0.011467504729458232 -0.038032222269502126 -0.02147794683934545 -0.007294152184810584 -0.00747532262727729 -0.028286441404200828 
notation 0.01958257472535831 -0.01760379541602714 0.0439595129819238 0.031191112621887302 0.01495660609476554 -0.0410021568345368 0.005089908986079978 0.03402502347662389 -0.021824047142427912 -0.046838091685397015 
respirer -0.0012326126535161632 0.033642936418895514 -0.030522067853323627 0.015314474714532343 -0.028543695118383994 -0.02505017698067203 0.040411780192705325 0.024277766033770177 -0.03090153415461535 -0.03504089155288918 
piscine 0.009651651406985822 -0.04315682152176892 0.04668700608467013 -0.03823977765691892 -0.0229550914883813 0.04547529549766003 -0.04994229340874146 0.0023065981174212533 -0.0089180519581006 -0.012159607849918234 
assurer 0.015349957287291492 0.04811947569693748 0.005652565849678464 -0.03183776663897197 0.0209708550667746 0.021081979469549487 -0.02178800776569641 0.016775889329673298 -0.028857030228876156 -0.016884999121082125 
amidon -0.006869490647001754 -0.03629840440833641 0.038659255741319516 0.008245917363590385 0.03791982262809613 -0.0484143956152336 0.02257807568933898 0.03184967320072216 0.021283844831558867 -0.008911649251263318 
vraiment 0.03645793432675199 -0.009391629415454279 -0.03295536821189597 -0.040298186972989584 0.01128517675466874 -0.04832013675639382 0.043849269088786544 -0.01738160060141646 -0.017953720621769562 -0.005518512383393964 
sequestration -0.010136821400037828 0.0027914310268476812 0.027947349547758113 0.04120676365578895 -0.020011932965389338 -0.01394017458284706 0.008936607572020383 0.017812687307602177 0.03872257894320546 0.010210894236575408 
hysterie -0.03794223681108502 -0.00853086582449092 0.042765932363648194 0.033722104313569215 -0.02705418660049464 -0.03699115963794725 -0.026941797083645944 0.030808513996549724 0.048017258169919724 0.021546600717098584 
epandage -0.04959938980340586 0.049546644806839256 0.04909745304823071 -0.047504581223560716 0.007751666151522238 -0.03711361198626069 0.0370297188800336 -0.037472948457575886 -0.04211452880434716 0.03578470680125259 
preconisation 0.04370967588099911 0.038744720076965014 -0.04514542981242688 -0.04625269680797493 0.046094422231679505 0.025346165882430435 0.03741554618590567 -0.004693869101362493 -0.017298947730894538 -0.026630557260369007 
depensee -0.020953597571019274 0.017700343352470487 0.04337285040643242 0.03367689065607417 0.03669033404219861 -0.027472620481541102 0.03846363803113736 0.020729579739313362 -0.03874065449628547 -0.04759185734725206 
village -0.009228000005996785 0.04543307772827285 -0.048162677407784855 -0.03452457730083678 -0.027230905660712297 -0.041077660271883296 -0.017556844263865293 -0.02001702288899845 0.036234394739025906 0.04791497853286827 
biocide 0.0063501148726020605 0.03103712826136478 -0.005614662119158897 -0.023493709775160628 -0.001654350722121703 0.020217738133017887 0.0357839821444961 -0.005652663300410001 -0.009278439176265987 -0.02622089415031728 
surconsommation 0.02824217025400328 -0.016675005173076116 0.012728940478989996 -0.0031715948227197892 0.035982127346338655 -0.04472137628176588 -0.0316179549686979 -0.035961680665214754 0.044004950790083056 -0.026996569755209036 
uniformise 0.02417835054194298 -0.040310210244586066 0.034003001505025644 -0.044030468240016225 -0.02564965654731398 -0.025259624419332913 0.005790677816672756 0.047280109479617034 0.00965149480073615 -0.01701382175041452 
trajet 0.022539718958120687 0.01159972556162453 -0.04843561784622988 -0.008748456949093692 -0.018912605088528874 0.01845255450892269 -0.015606565387358327 -0.045464370589750606 0.028870580841355405 -0.03626537078684498 
ion -0.011996257301179175 0.03550185601425388 0.011448862364538704 -0.03690027022962905 -0.031829659853336446 -0.00298595821920336 0.039517280362559484 0.017209231328351147 -0.017725943206185042 -0.029122403102487517 
alimentaire -0.009952046173849047 -0.01473237661467339 0.03671395919231061 0.02150532087147567 0.006227817511741327 -0.03123707833720477 -0.04379771791690308 0.03602271077254722 0.027421251070847277 -0.04511708862098794 
pantone -0.04748083745023864 -0.008024630563305133 -0.04901021610610519 -0.03777284189492318 -0.008324887726442303 0.034183043269206084 -0.005664326231318685 -0.01024068235285216 0.04148758453413397 -0.04413467016891265 
equipeer 0.010894829560590565 -0.03137383269995666 -0.0007857697682682672 0.01999360108191603 -0.018457235947097618 0.04784610514828021 -0.015218035787284237 0.03197702987472079 -0.022495739755014735 0.03415793688571497 
offusquer 0.030159139868634093 -0.04952769615975723 0.04543589099505888 -0.004939921902385109 0.03678922933156808 0.015467244377457981 -0.034492885987869634 -0.04372657612589154 -0.04644554534041453 0.03127133062603129 
arriver 0.011952779547689835 0.0002601468299944013 -0.04534933496906868 0.02585665529896939 -0.00018764736297589637 0.03570318483782888 0.012857481705083591 0.049478563822566546 0.0167483410615041 -0.02532814557661546 
uniquement 0.019822186673354815 0.03349296924960539 -0.010111603234368554 0.03395111844578101 -0.0185648033401125 -0.002890579841157309 0.026385006950977327 -0.021839219446095924 0.03483987869620845 -0.04433603313054508 
unep 0.04802747633391021 0.008258381259330547 0.003083067585030996 -0.03316607736564453 -0.04337353888462195 -0.03176273118290293 -0.016702501699873966 -0.0013965676909833756 -0.006324855059449921 0.028685392598095726 
renouveller 0.00266012086440975 0.04851163301193692 -0.043513641821804824 0.009297839874389159 0.013806870525582817 0.006719209717729719 -0.0056086820409888246 0.0017809957392081772 0.017616286407834057 0.027112019880259516 
border -0.02002829824953724 -0.026178874425368193 0.030896268646129054 0.010993608643564206 -0.021050077635835853 0.011626725845816529 0.03362902504887246 -0.029283733999424817 -0.026944208064948714 0.008339893788774927 
banlieue -0.03788852389873791 0.03229340400460438 0.04622763163268694 0.011516563525059498 -0.038274438778247634 0.02087097676613775 0.017585059855803307 -0.036867610586390875 -0.029900336459788776 0.04474846655689117 
eurovision -0.015489788082892404 -0.0016350715382647844 0.018090926165801498 0.003171339911688201 0.049601346472362785 0.03929638296842185 0.0449284905008083 -0.019884359753726842 -0.005693151255094224 0.013461695318729396 
chair 0.007888177149120299 -0.023022959284215945 0.008888926313439986 -0.022429354503226966 -0.008152418826883098 0.03005417689377001 0.009881416221429812 -0.04767018291967113 -0.025105303645728376 0.03286751243408999 
gouttiere 0.036934737015237445 -0.0063655112885762435 0.0016864429719685695 -0.0261133733318361 0.04163314728778527 0.026711808707160098 -0.046311552553192775 0.03175930499317955 0.043270526672049295 0.0229775391502231 
surpeuple -0.02714322699347088 -0.041193620502439264 0.0027386321034918904 0.03992185195869989 -0.005226597998363477 -0.005133450519407571 -0.02897729121764567 0.036891420408480126 -0.011120131096344585 0.013136045137472777 
hydro 0.008246427870338205 -0.03248573273768992 0.009559364679472134 0.03476426443889873 0.02663585181738995 -0.01721591572495186 -0.026400892417847897 0.01408670371420421 0.005862784110736038 -0.004112343105143244 
berge 0.013325118610467665 0.002517413674395716 0.03361008200267428 0.0006172002742503842 0.013993129333396755 0.029769136518729034 -0.0161290408425702 0.010713742915206772 -0.0015505869686760056 -0.008830974037394294 
naviguer -0.04213233869437845 0.004091509427965771 0.005388586198612183 0.036866347567563636 0.038975959772924715 0.020808046433510113 0.030620533126197308 -0.008690657452057934 -0.034850596149861496 0.04964354980897173 
discussion 0.039593454258957377 0.025484902677214778 -0.00398896233746091 -0.0306000609227519 -0.0243344855698621 -0.000173635068601956 0.00843355787443542 0.04488476975084297 -0.006585095183112653 0.0049385090782396385 
voix 0.049584009579433576 0.03376619510958442 -0.011939712119748543 -0.029467128283346293 0.011317286812267376 0.019489469953510277 -0.047833889605487234 0.04402085384158143 0.037112104489161725 0.04391478909433494 
activer 0.022838327141482012 -0.026927323460379907 -0.036320273125356344 -0.0077245682186182435 0.0011501054838863928 0.002145693030645533 0.015998081449629768 -0.015242509793497672 -0.008395782950394833 0.022409067487305517 
green -0.0033430920012940827 0.03650425459928677 -0.021537727655956768 -0.023247976070229433 -0.008674180082320536 -0.0374072000945039 0.027537282176873863 0.0005558499875620834 -0.016032306934463 0.03828342899424937 
environnement -0.00695844992996657 -0.029258341473038615 -0.025306928176950988 -0.034914344183949356 -0.04810467201723541 0.0484601116982022 -0.011434872113405353 -0.03867980150743251 0.024122238595930504 0.002172053740806787 
alcalin -0.015161505449305212 -0.019280074572485817 0.00903022220125999 0.019187831501466565 -0.021176567037982014 0.015739300425865355 -0.004291410322535859 -0.04304821640268105 0.023170660468792705 -0.023906611446271424 
imprime -0.01299241628428163 -0.04714023915333425 0.03028913737503513 -0.019831049841487293 -0.039402086506743116 0.014975841906670827 -0.0382648829400116 -0.018895752715307607 0.01831713862784601 0.022460801372794978 
pleins 0.01636856432441206 -0.01436315582918314 0.03541049423541511 -0.04506068282457197 0.04889740511983604 0.021293855066617465 -0.04920841692830616 -0.04477445643698716 -0.03987223585037653 -0.043068566900882274 
accer -0.015130421370813864 0.011200959859327673 -0.009257587842287161 -0.030694255244191303 0.017991947916093712 0.001966743145993088 0.016572847804808704 0.029208137226829557 0.04809703678161569 0.0035539258332270454 
trouble -0.010641913964352557 -0.005232868839920555 0.01573485375548173 -0.009429881446813376 0.03836315692680159 -0.04442727254813144 -0.014957069298091158 0.016891573696844023 -0.018248225658483212 -0.020569521344388372 
fondamentalement -0.025664640963708886 0.009678038169240127 -0.007135368257412389 -0.02554606592303157 0.04925469165464049 -0.009049642820219547 -0.00643856243855341 -0.013699363823629995 0.04175724753143338 0.03935331619550267 
terrible 0.04029879019624038 -0.029067393179437795 -0.02536291411779788 -0.023808147099163207 -0.0046814421167689114 -0.03728775766011447 0.04889906963176874 -0.03942698438903486 0.02582527322728718 0.04940716194012251 
