7231 10
delictuell 0.021853459465763066 -0.023842843942663762 -0.03321562532897076 -0.01646614691019437 0.014226497791064163 -0.013509616919922161 0.020682337947474944 -0.008841284437426948 -0.038336139109393506 0.04964739046873674 
argile -0.035674132532602695 -0.011272029667660319 0.01110724940697463 -0.033254299030657214 -0.0006512443886023232 0.04732422138572872 -0.006080780800589154 -0.025846746026096448 0.04245308858930015 0.03389662145507312 
journalisme -0.04932043879053996 -0.015905197596836982 0.022291798617370257 0.04130256473431061 -0.01060039539654091 -0.04896327974674958 0.03608358773181154 0.016684084962127078 0.00034728863762444864 -0.005057366360521464 
domicil -0.03632726368259387 -0.04277418184906914 -0.02239503135239087 -0.01222510536762983 0.00012762583518537398 -0.04356340744643019 0.03725961749706714 -0.022551339400128288 -0.018700458351311802 -0.022692281990003556 
maremotrice -0.040627587972204796 -0.02252188594781661 -0.034972222669913594 -0.028760788783667352 -0.03326086058682791 0.009879613613933448 0.04991804226434697 0.012321845337906397 0.010573007186779964 0.010001648334570712 
envahir 0.016050340854541833 -0.02217744124720987 -0.04912485222699103 -0.01283616265536917 -0.02155310771763371 0.02091641357956496 0.04204922152897376 -0.02851726373067403 0.030797624696166488 -0.024321751432558936 
fantasme 0.04370240395760465 0.005732656285957757 0.045820896619705065 0.015699530490320728 0.03941476893730415 0.024597684734314482 -0.007959890585176412 -0.01656598615197122 -0.011486256375555004 -0.0033186507570001217 
stopper -0.007004155824270665 -0.03326873522296758 0.021328250441787405 -0.022139609482280796 -0.037395142537971354 0.04228139263243665 0.03317644602765783 -0.030046377475407855 0.026383128633211163 -0.025133592666018462 
participation 0.012797354461873451 0.04251756071378003 -0.020494265742606356 0.028166868837410194 -0.009210713360672874 -0.029041751346843867 0.013338787410766335 0.049976028822092004 0.026211340535703113 -0.035424743194529255 
juridique 0.004298056670213358 0.024822694585321638 0.00981259702700728 -0.01671276874022605 0.049301799378066 -0.009235588536297433 0.046739434810493086 -0.04762115396011209 -0.0482961930401123 -0.038460559468575496 
remunerer -0.013636462881773278 -0.047694612318245865 -0.018036023034232393 -0.04706623252980309 -0.009620528144083646 -0.018210197969654847 -0.010693788306713614 -0.00493792922801553 1.038630018346971e-05 -0.020750946569234013 
endormir 0.03366671482916619 -0.022993810166471656 0.03323097853200177 0.039267523262151216 -0.019334255036265877 -0.001166433200586087 0.017805829282801756 -0.03882164503189122 0.02366737129124323 -0.014961698096933502 
manche 0.033966803881304956 -0.007476852336431312 0.014140719301294902 -0.012973239860455817 -0.03344912343580678 -0.021997413898246332 -0.038143353074924086 -0.047698748349821664 -0.02398344582972112 -0.0468514594595909 
kenya 0.004206019893766642 -0.021123279801525518 0.033897279650057566 -0.03632223105391854 -0.020320877537205934 0.03410464745184964 0.04025022057618746 0.02475802248145807 0.004494368688822973 -0.03307433043027905 
teneur 0.04118468004821745 0.006701827191025674 -0.006840878132476276 -0.03915119111909909 -0.011033401548036337 0.04217344733821281 0.014987171633636462 -0.03962278911881685 -0.0251835793704797 -0.023780588409112423 
perma -0.014824612601439639 -0.022688342882064123 0.003298393577530404 -0.025018977773938897 -0.004275436427027495 0.03889296936402572 0.018048152538307258 -0.008919483568519945 0.040756990996372665 -0.023674876203224837 
grossir -0.03299688745602631 -0.019836953444640298 0.030877389508474087 0.007634467050211564 -0.003752013929522137 0.0001692526494656726 -0.045194017118970156 0.02523564298172349 0.029720744094993267 -0.005418129396086045 
negociation -0.023741939301168098 -0.02861097951445685 -0.009177256670561625 -0.04583257940669881 -0.023132262436138154 0.0015841119821607026 0.006388004726291243 -0.025197343331036674 -0.03308885986905803 0.02412909460579143 
retarder 0.0034176492836053432 0.033394730264630516 -0.025529412457380666 -0.016092866810203013 -0.0025095593827216944 0.025662947024193736 0.002803658636004694 0.027483307955705177 0.03153937990940994 -0.03955511886177383 
munition -0.046577675549106856 -0.01043201329302559 0.04982817213017626 0.025885949692115696 -0.00021760531417280342 -0.022857582775928722 -0.042327422573836176 0.02613821366770327 -0.025034059823348744 -0.012129733358940508 
mediatiqu -0.037569172536583983 -0.006569584663623775 0.015973885696814103 -0.04739199545008832 -0.0075136105309885105 0.02775277619489001 -0.005575560494215105 0.00786851700812913 -0.018110674243445868 0.04838952453700897 
troisieme -0.026998630438157048 0.04135669848127276 -0.03764421082809664 0.002236762518981243 0.045200587797930694 0.001650819148789226 -0.04048842097352927 0.03238132835755617 0.0027161987839226572 0.013469106648996112 
derniere -0.04559122312387344 0.008689124150549777 0.02735595025601049 0.017645292178568764 0.009878206008278278 -0.049927433570541115 -0.015850965701269704 0.004281092050106396 -0.0322456754631018 0.016532810752440893 
maternelle -0.010866468896011193 0.03206012314324786 -0.04208827105523776 -0.00033488431164423454 0.038542499039365886 0.015048590440589068 -0.011662789301084331 0.03420596916176174 -0.009780077005149886 0.026673437873637518 
purin -0.019655729191497853 -0.028226123194070904 0.004114235224177349 0.0003240643336114254 -0.018170875015249385 0.02732891207673027 0.04523298453038343 0.04663733310453733 0.02716008200038683 -0.004302243610592071 
oreo -0.01372157106894055 0.03825065949789742 -0.03235362151269486 -0.04481945008790314 0.004670783081319253 0.04670110643682255 -0.04152433676378505 -0.023943432004179633 0.04845457465206501 -0.0207939400810596 
compteur -0.0177342494433585 -0.003192045294721676 0.03706831245543696 -0.006141183923368639 0.02883167547460434 -0.003777418994779368 0.0414815838905368 -0.04313974101077041 0.04257997367395714 0.012268323633032558 
derive 0.032456498583581135 -0.006035212715380371 0.004849992306758614 0.036828204388019856 -0.026387243002559135 0.026360596491306686 0.016516329891535623 -0.017065047330081087 0.007841810039796388 -0.019470207671522462 
ouvrable -0.04537256943864179 0.022790235526438014 0.03082503020083817 0.010837449864818206 0.019333445014722592 0.031419159984865316 0.0159566684641237 0.02402904573146074 0.03740198799420819 -0.011305231903366532 
hav 0.025913064100346148 0.002891713492315914 0.01795407538767615 -0.049886023703363064 -0.03554356580917416 -0.032247571010596554 0.017883578751006855 0.04611697556030419 0.017131614204614825 0.008594356848416987 
investissement -0.03427194495589638 -0.0017404517791130428 0.048505863450393885 -0.015018142064761127 0.0034021599727090575 0.04688197017935901 0.046730157841371134 0.020979185956675174 -0.0029205888193954577 0.034370860456747095 
abusivement -0.004688843876453602 0.00952923174649517 0.023538060583781217 -0.00425355769880813 0.035490426509754334 -0.030349913075899564 0.023371428346658035 0.011332244740601304 0.03402748678938478 -0.04062815985890689 
desespoir -0.04804247301404331 -0.0491844757823613 -0.03463388159229188 0.008760324938866297 0.0071853567150156105 -0.03843305763721274 -0.04230885778031446 -0.039162132966619786 -0.04092039597572954 0.003812007446371766 
anarchie -0.009100008617860844 0.035731400851273 -0.027567762141015934 0.02032175952034725 -0.03308227553221934 -0.03123253664580562 0.015377129414429253 0.004976631339500916 -0.010085541869006355 -0.022292705189857515 
carbonee 0.039594052408836886 0.012699975771770493 -0.0363713135383555 -0.003939301265342374 -0.035397207340991985 0.03659351964574233 -0.03790610369746782 -0.036603190848091445 -0.04727833854898896 -0.00110765631416946 
ldds -0.0391136262870138 0.011622127328961472 -0.04241509219450597 0.01782201466918073 0.03170911997543279 0.043470460596465366 0.025329430319204337 -0.022031146330349062 -0.044712108170951025 -0.01609355992943347 
support -0.043433261459756525 0.03413683073365825 -0.03339540598021081 -0.033450961540504906 0.0195515208906312 0.01644389066202596 -0.03264636770280708 0.011899061495750816 0.023971752194908096 -0.0320180067177183 
point -0.03886760460778316 -0.04299858106396339 -0.00887052314993929 -0.03660649336602756 0.0005948925279578145 -0.02223307390351525 0.04357837996627481 -0.025137516359544355 0.04159231363932884 -0.0047844963775003435 
envoi 0.018820978905273157 -0.0207065138661551 -0.030192735409660592 -0.03830664712662665 0.021654861331735477 -0.016854756019164512 0.02533189547843067 -0.013397252700976404 6.224849606047456e-05 -0.01795685632145206 
munir -0.02218441071058643 -0.023300153531980856 0.000468914415472331 0.040545667770485065 0.0457151131001059 -0.04474205289823492 0.024921648272341286 0.043540589233580576 -0.03252460262744523 -0.0032289268108553083 
regler 0.004726175805489199 0.011878490492445302 -0.03958797032361663 -0.017187288026557192 -0.01437470726631404 -0.017598228701546845 0.021600189195975852 0.00985467102031057 -0.049101857794839436 0.015066996097657468 
parrainer -0.03307120465477447 0.015794185810484168 0.03574162775915372 -0.030342837142756887 -0.03133275522580596 0.020721068913129553 -0.04614061739294169 -0.04750272629778629 -0.0042785449305479785 -0.004692030520373698 
incorrectement -0.04373997111707362 0.030974639431391136 -0.0028757525852174297 0.014556463561038032 0.0173043807715764 0.009498103255920032 -0.0068434090926675325 0.010922950958976677 0.0075016055326245544 -0.01401974562023322 
arbuste 0.03203824721984319 -0.029176751864936016 0.014760481821534692 -0.019804754121243696 0.03973176486123324 0.046323709822037165 -0.008299861596272527 0.021321852119542923 -0.034129116302460266 0.024609421793355415 
interessant -0.04388941693478501 -0.01455946746336421 -0.029192639564763038 -0.028432761257391106 -0.023040584515054353 -0.04003578690181934 -0.005809341540394521 -0.029884402934225427 0.000781528477536087 0.03612334925257766 
central -0.0030214031593312663 0.012764009602148532 0.027154036855039723 0.0047088794788336715 0.045170794039609316 0.011364418573645629 -0.021964613512053328 -0.01187644507101997 -0.008954075529147917 -0.01843361617416451 
physique -0.010938097965875413 0.04206983693020547 0.0058846049561553735 0.03968490414971785 -0.01551528119318398 0.02733504676042044 -0.02704608734404494 -0.009596215972150669 0.024013345841287916 -0.045143629360740144 
nuage 0.013138467653476987 0.027541348456612633 0.027910690812581247 -0.023562425985370596 -0.006128821635341333 -0.0344929668786038 -0.036431413592702244 0.02517755332731104 0.002482948764695013 0.04702718919716957 
cellophane 0.04979689666263011 0.017058244121782966 -0.035335287480677664 -0.03866124465575715 -0.040991320475374536 0.022907749039504724 0.006028723792774529 0.03285618477758883 0.044043870210677113 0.007498049518457313 
phyto -0.009075802848910044 0.002492798298858952 -0.009294133329555405 0.025182816524525583 -0.029033563762515223 0.006912472680193155 0.04119379834303123 0.022910948791254306 0.010798172713808741 0.029503705678582234 
nutriscor 0.04622359078327424 0.027736683947983155 -0.00842692205188075 0.0003961366686478234 -0.041182724188123764 -0.030127293782844587 0.04263518678407245 0.04207016843593037 -0.012778580796100777 -0.013789785747707754 
elementaire -0.009906856705606135 -0.04697586016160236 0.032804085919942806 0.008673055995436949 0.004563348207396277 -0.039813795728292314 -0.016161104484810354 0.013821175325487208 -0.03242555750354559 0.032366780507257914 
nuc -0.038648331125470885 0.03399644363740341 0.023175674332622076 -0.027256252308821553 -0.007024507665560348 0.021802218412876283 0.008512503978824335 -0.048295775492115285 0.0006507851209290344 0.0021228089849839407 
bisphenol 0.01732795675230314 -0.021373848514826054 0.012144607717439032 -0.003929915986161993 0.02275869122107295 -0.02021145835141346 0.02106595718373805 -0.019268938746052632 -0.04066360387683867 -0.039079705490304005 
monnaie -0.0012294026961553125 0.031185413010333653 0.02063095751487055 -0.02691577233344834 0.0128781437467159 -0.019107984550008714 0.03207085172153153 -0.036335479948671916 -0.011794561468219214 0.01292596712772498 
pervers -0.03461056021510198 0.01597801691956828 -0.004656884891380686 -0.01330660784070663 0.01919388097344657 0.019349055783523552 -0.01343373748235208 0.02803140765031956 0.035475453909106565 0.017221021536307266 
biogaz 0.0361510795474694 -0.03518945731550991 0.027597782359603848 0.041688608525467276 0.03015341245252557 0.03463538441328331 -0.00794022214515882 0.01607076216979797 -0.041520387840911784 0.049242524727326605 
dependante 0.024620345054858127 0.03064681258359311 0.022884604773964572 0.0187545124546768 -0.04671818858620516 -0.006395297113189357 0.04612476423763256 -0.03318102405854259 0.018289198981517645 0.03193611134127448 
orano -0.014103482697749787 0.03972033208929741 -0.02747324285990104 -0.02690270608923602 -0.04820317131396373 -0.04477263146054748 -0.01500919203364739 -0.033717709814389034 -0.010664465906797612 0.021857858875388925 
constit -0.019337320440646805 0.043104341860746506 -0.013274603529903882 0.027293380897863276 0.008390941616754393 0.04420938030074638 -0.027849660086469413 0.00802164553341409 -0.005767397551811106 0.03448916079662396 
epanouissement -0.03800200922967591 -0.03618971785101309 -0.0344189366882971 0.04555853256285945 0.04192156630281289 0.04080839168192085 -0.04542576891999077 -0.02143925255891886 0.03200325483798728 -0.03320229539388636 
changer -0.031143805004752292 -0.041913018124592145 0.0026056405337636468 -0.01686411439215094 0.025937199856068023 -0.03972274302819852 -0.03379347697037105 -0.015500996642441452 0.002103590851224862 -0.022134623403670322 
canadien 0.006233477902103968 0.013521556260655378 0.046583270451836904 -0.021850828561376663 -0.02953400780597591 -0.036294399914814694 0.028127290761199988 0.010202442565310867 -0.010325748655296594 0.002523782833053039 
quelque 0.028690008057838258 0.026207288990951556 -0.02805168938064827 0.037386444279333374 -0.0073974174251961716 -0.04055295475413928 0.024147279392703752 0.017915544554500708 0.004109570123931421 -0.0252531126629378 
apparaitre 0.03436021062359452 -0.038117485078690894 -0.027085731654619714 0.029443470544738278 0.04269630699749659 -0.007668387403467485 -0.03672454640463902 0.017680543020883996 -0.036496710614353 -0.023198525124962375 
vulgarisation 0.011588070940398586 0.03569523605731097 -0.0204239729733551 -0.014387254330635783 -0.047624211221603034 0.03910309503491419 0.0272738655475109 0.031953894445205154 -0.04466694914055762 0.04778327771823744 
loup -0.019370431693874084 0.01713957200224228 -0.035250613696496846 -0.03580447711349018 -0.006414857860182711 0.008614832305922873 -0.007524296732378722 0.040848295231127985 -0.04424608634887653 -0.0034941387998161256 
plaque -0.009968922385733034 0.02936894017328448 0.015930351202767895 0.008200458635867502 0.014771097389805086 0.010921883576459707 -0.010904447811979495 0.0005922949845450779 0.025616251333054143 0.009071113450271447 
mene -0.03232030024695716 -0.01632510634262104 0.0034313786915277185 -0.044293277344958366 0.012178650153036567 -0.019661039879622606 0.016256822480484084 0.03313056198687048 0.048910608005449975 0.006020448609360221 
acquisition 0.019953538773773743 -0.0324078051307422 -0.014188770460205119 -0.012924271002824181 0.0026971383707479345 0.023763217440210833 -0.011175790381075633 0.03905169395414161 -0.0009944319483802244 -0.0015077921691122557 
edifice -0.05004239800530843 -0.027058429096989762 0.029778676209336778 0.011070464457584327 0.003970281967902024 0.03412124792508527 -0.007311983898194653 -0.011742489090500706 -0.0013179341527966462 -0.005848754420251013 
paneuropeenn -0.011145267740825663 0.02999617961985412 0.01772014712820346 -0.00574234486080344 0.026970462742136037 -0.04708886372054849 0.013477450215275147 0.022394671278775473 0.02900312940409931 0.03882433422386992 
reusage -0.037374866535595457 -0.03456795554032424 -0.021413471030500435 0.04860796408959817 -0.035090634249659844 -0.027488186726163256 0.01788289710129209 -0.0005594348985723328 0.029364186670218617 0.010372753697543629 
gasoil -0.032315517586056226 -0.002473429046474672 0.03617180506164712 0.04431464331776572 0.003264131257929881 -0.01657189816104271 -0.031572786197668914 -0.022996226465542734 0.016929694811945593 -0.011182979032677119 
observer -0.039861052781007766 0.03117731227862749 -0.020692195908437253 -0.03638923748260891 -0.04917609623802298 -0.04083056999618415 0.03859809340149161 0.028172327175860937 -0.0026099135023081553 0.042047730138139894 
reparabilite 0.0021405994587658317 0.03698143110345474 -0.015824914279812856 -0.002061065046422264 0.03452615658267936 0.041171553305835246 0.04203638454096191 -0.030584944629717815 0.011038648248292003 0.023801874357893552 
utilement -0.0013330872516673737 0.008358986087547102 0.04516993064052006 -0.034009510024754004 -0.027226595542392477 -0.0019348006779686 -0.030743501378288605 -0.03601728801476907 -0.02784607441070746 0.006421040797481632 
barriere 0.006286472655947774 -0.015931568066863674 -0.018238493585865226 0.03520249818148521 0.048907521142875665 0.0358913578677935 0.035092757215248654 0.04845616820698285 -0.011726519518295501 0.018038847599598017 
mesure 0.015880782670557883 -0.01981767752529994 -0.040921979155072105 0.0025474455784678766 0.027461397306213716 0.020096672945398304 0.029099072952257134 0.025675614895582052 0.032560948597539136 0.018243925253541654 
elever 0.025695680870127108 -0.032946076818706344 0.004970279126772002 0.007796182007734515 0.017712655395617196 0.0009587867413389069 0.028598983342057557 -0.001578583969652745 -0.009942893842138922 -0.04004267713141274 
mi -0.022732827990609307 0.02921534769338265 -0.006692693799199069 0.015374259775604016 0.01937195265115142 0.04394747840865164 0.04588890271326628 -0.0483482494062377 -0.03415471977840341 -0.04030654901178376 
karos -0.023390036933699197 0.028064967012214333 0.024129979864380105 -0.003993696032114162 -0.04657141579221429 -0.020981304788678455 0.003586908736891425 0.042627829141295724 -0.0042346917127467 0.04883271689497329 
cherche 0.02447602838581541 0.019835450461105932 -0.0328873587951173 0.02484645735828682 -0.043643543669263034 -0.04520704087596422 0.027395974206989398 -0.006166132108417854 -0.029431709646693824 -0.04957037722295192 
civell 0.041097334621841355 -0.012855559788009546 0.0006159075302423133 -0.0025438224828372735 0.04517538704116254 -0.015257453007566993 0.04053579364290602 -0.00042273163146249354 -0.019302635703858772 -0.026173356689487576 
nidification -0.046363813615323754 0.037899693764351386 -0.03132161360462065 -0.0205206039181246 -0.023265023239918418 -0.026993666841784714 -0.006315936069573034 0.04240366585289625 -0.0343182517470954 -0.01580500280871531 
piege -0.03219566793803679 0.047412231279598586 -0.007171209881858645 -0.023557530370625957 -0.01270997940623781 0.014723397287614685 -0.048654871068863306 0.026533805898603328 -0.04908543840415467 -0.03959076689707729 
supercherie 0.014020273306247255 -0.04240513293193897 -0.03699006669973385 -0.011936801864283024 -0.03334743704707033 0.013684223053966915 0.023476834019296188 0.005403195527976375 -0.0140502990678365 0.04856621694288701 
incivilite -0.03219757625921515 0.04118952737026592 -0.013967326094951755 0.040109782531124454 0.04094594013196195 -0.009170901990719368 0.0036219172845047367 -0.048673783541858695 -0.029646201198782567 -0.0026443077075592614 
mentir -0.00803880439143589 0.032453075151346995 0.04859863652825379 0.011970357667530835 0.019163288295323638 -0.005277505008848975 0.03759932407266314 -0.03526672330088544 -0.03748999434744635 0.041371489657570246 
complexe -0.019328912189362113 0.02175865056118472 0.0018605300187548206 0.008458385491706358 0.043858990686616806 -0.035250354912694536 0.009830703643835247 -0.0469507428146536 -0.018594839023327488 -0.0062243109075568815 
vieux -0.0029160176184838626 0.020064678620993193 -0.011483916612995837 0.024058145452784615 -0.0071972243303685636 0.029492125476486324 0.026933865441131896 -0.04866599568651349 0.04683563399166145 -0.028930905759097344 
succint 0.034574863930530185 0.0015489728206584473 -0.04587210587474722 -0.019173899816879555 0.049357422371690246 -0.004430456396735112 -0.007331732821053435 -0.015547337466542327 -0.0019575937240905355 -0.008369703478919731 
tard -0.04852242701894442 -0.02290428889535433 -0.0006981225691912174 -0.01220369334619004 -0.014358700557666457 0.036755556586899545 -0.023365903104294542 0.037885256987247914 -0.04402032748870424 0.034666714170907456 
potager 0.028841049976163893 -0.002499955313589337 0.032036325393099696 0.0021304858487822265 -0.031029457350719474 -0.03745447477992062 -0.04453790955260788 0.03273781769714151 -0.03633899857648438 0.0433912053981439 
motorises -0.04658476507212208 0.03452594586310327 -0.02669178005986817 -0.028488833281125305 -0.032769074816118765 -0.00363110728860983 0.02154483302362573 0.014190669528646675 -0.019804578839772425 0.0013633694231818686 
foncier -0.001987062479582959 0.019109273359674255 -0.04282405155409407 -0.021127398095953643 0.030722806386236114 0.03172723553001851 0.028129752972237205 0.04836097300529253 0.048652851804099805 -0.04737853802990057 
classe 0.000757123799553441 -0.016779953290284234 0.015641995353728795 0.00944230277341073 0.04130920992321067 0.01414192708622223 0.007665473110420936 -0.0244536114983898 -0.009759491559582603 -0.03569768345586936 
moindre -0.02777779544296452 -0.04249727934719708 -0.042131039108562064 0.04850390699115378 0.025968816104105827 0.020137415297663892 0.041231424556846995 0.046815603798835856 0.038482813435357206 0.0036188346514295557 
eolien 0.017628213137299786 0.029597332438887035 -0.046992008647744256 -0.008406697163772625 -0.02708905308753451 -0.022808654379570917 0.0381955606794564 -0.04748768737887326 -0.049950607277258884 -0.0447828892316195 
nante -0.04201816363270036 0.009735338823007242 0.047643838280756745 0.011771642819350382 0.04335361871057185 -0.01341658767285035 -0.034587256919950383 0.01151412526077436 -0.041581403977075264 -0.023821442114261567 
situe -0.00029411913264521574 -0.017589185893284995 0.010634346581661425 -0.023004823832078154 -0.04442343671633114 -0.03943010894583517 -0.024801856558876244 0.013455925124866222 -0.014860680817640064 0.032232215879880226 
bag -0.03667600700174872 -0.016739215275626374 0.0074153008482687795 0.020914045257277095 -0.04273012338556572 0.04829085924907828 -0.008463637124753806 0.010972276618141055 0.047681502609018024 0.048340966197898856 
reducteur 0.03998436735711156 -0.006025905169867024 0.028668363433438336 0.0420982989888864 -0.04870586467520093 -0.018385709961796875 -0.03841230844158267 -0.02836049548221955 0.0010037013897256383 0.015780152205724172 
asymetrie -0.017236888318757474 -0.041408415766565974 0.03706666708556423 0.006722177533762154 -0.015344832601774444 0.04893482565055116 0.02427948725062786 -0.04814488367491454 -0.033956497954757824 0.02020348768922044 
comunale 0.04066624635372558 -0.04659274767345751 -0.02768459922363464 0.005172648191001618 -0.043247084560404596 0.01969977204742706 0.03589237552536703 0.02582248650472502 -0.011442797917993474 -0.03784139191615903 
agriculteur 0.00685150027217962 0.006226558840030425 -0.02633315087295156 -0.006026706036884448 0.025588544213114055 0.01927530874870472 -0.007925380801760248 -0.007746865499628182 -0.01743489793106609 -0.018898105836041335 
ravitaillement 0.0029057907889305816 0.02471036108918465 0.041427927129994185 0.030617045826246907 0.009739637346422936 -0.00823661907672712 -0.012467299553869497 0.046883994133282425 -0.048500224166270575 0.01662797820616689 
exil -0.00844215865445185 -0.03983459573623034 0.031367716725558784 -0.01883328340123734 -0.008345032194470522 -0.0212744742792301 0.026055452013039646 0.002974489835688218 -0.035769754823897354 0.034647857906281936 
ingenieur 0.00044826683839816866 -0.0023958214972584833 0.015963641606938733 0.016418384720590897 0.029833711486549404 0.04175778869749101 0.040245417146661 -0.017361167203862812 -0.04678118420148378 0.033862754855338434 
blaireau 0.0037869577139450217 -0.03932269776218829 -0.019057945179038915 -0.007095450471414957 0.021824055428108197 -0.04459736924977749 0.0017483209438051376 -0.034017748049397716 -0.04289708827332947 0.007105047125272138 
alentours -0.04675682872092639 0.02306063096666196 -0.017538280019193858 0.007067416942159405 0.01676152560690882 0.009380285134274923 0.004872954942129033 0.03319529134045449 0.0324347751078186 -0.03558046455726872 
decarbonees 0.04128278403913237 0.025155356945910697 -0.03823619166090073 0.03184514127646911 -0.01587991405233876 -0.0030766026911982 -0.01470759314529767 0.03928859210917915 0.0014686160657533726 -0.027079508385092075 
enterre -0.006097292285955191 0.03308469983279624 -0.012336930169613035 -0.025691795474476253 -0.04793800930852555 -0.04782018955035406 -0.004252897703486941 0.029438830015536464 0.0440542501203331 0.005877232255696827 
dure 0.03761245337781159 0.04406742938968064 -0.014388965216025614 0.03314379950960189 -0.019082828931305015 0.031003370250532864 0.023018380796510925 0.005973246591328066 0.008340629483917334 -0.03962702370936914 
rever 0.000651538084225471 0.03819638880219005 -0.008642635759132836 0.006541217768345918 0.004627941228730315 0.01347829919192583 -0.038247575655995666 -0.007216913482669848 -0.03887046992126778 0.04289122604306155 
hybride 0.009844699056806029 -0.012294125393742363 -0.015886269195104254 0.03866876411964463 0.04217635227336557 -0.0489436787489666 0.03186705511008158 -0.022042859099610217 0.026786095846556328 0.04469783298504727 
inutilement 0.028993681012030866 0.04718351557102291 0.04021709481378505 0.00288669191036939 0.022276619823192192 0.0336964320012958 -0.03273528407237731 0.026942810404428915 0.0001783137213024386 0.021931867156719905 
horizon 0.038377192026594856 0.03249940566028874 -0.025116465175025145 -0.0016853331031733273 0.03478488418349516 -0.034189554889682006 0.031065612516852692 0.0066173143392240326 -0.042619228800192796 -0.04070586058799934 
remettre 0.003186347057216139 -0.034404768813863375 0.040824002919556776 -0.025405298950996053 0.032171526656194424 -0.02246228998930277 0.009341935874682916 -0.0017543999528493017 -0.018265123727026912 -0.047950672171841326 
co 0.041897091604567005 -0.004678976564772354 -0.033960326138124566 -0.0037919911712018216 0.043244623234259184 0.04642961118158845 -0.018433189473185587 0.010052548907921554 0.012313121559777552 -0.04632113149767676 
apl 0.016230965780186807 -0.0008798687381411736 -0.029838205746962745 0.017462296210370504 -0.037409371896508115 -0.04907763211910868 0.02577430362254838 -0.04499009647168111 -0.026847529052551666 0.029266680374881296 
oxygene -0.04598358781242073 0.018165720528595684 0.003054877470185276 -0.020946118911969226 -0.0010517971092530998 -0.018232895047159775 -0.00944993387369168 -0.0009405707663759915 0.049501873873680664 -0.017366151342309885 
personnalisation -0.016076789588617434 0.013810022652161934 0.013761358863271383 0.008957337106162455 0.03732612155232947 0.010235858761400854 -0.012692579291480573 -0.04692189526874802 0.021512183005348715 -0.02579456169400751 
bac 0.040065628917378145 0.02534540277942705 -0.046974183971604244 -0.0037772965606719024 -0.0421203915174341 0.029470702566846255 -0.01392052612974361 -0.0030865282099068487 -0.002634689395902462 0.03143728202089346 
maire 0.028469920970543173 -0.03418235410756961 -0.017979728390189468 -0.04450503344146421 -0.02200471317910267 0.018737997926679212 -0.031102960611276462 -0.026599500968847896 -0.014555530172378763 0.003847564052742629 
indemnite 0.01443027236129546 -0.015409093052328618 -0.01472866623359936 0.04200201686544637 -0.014159834938807044 0.04943447794469376 0.0067504930763856415 0.02703038208952828 0.0475222641816799 -0.03650111818687219 
financiere 0.04119739256184531 0.02340239531498689 -0.01842178957639571 0.023069009013722507 -0.015665620019192257 -0.010866293337375276 -0.0023455253452369248 0.025061779765932275 0.009891197310570645 -0.04956949581343325 
decision -0.03582633965306479 -0.003842989353047798 -0.008800295794023756 0.011450151802631287 0.03600749222440574 -0.04501643927042043 0.029699968658857424 -0.03619160173805379 -0.046694865940059935 0.019090063529002485 
nausees -0.016596032390855282 -0.04006271179787345 0.03856130634924811 0.030421401218133737 -0.007714001119740435 -0.03649466920889713 -0.016640579222891513 0.0237986132873355 -0.003617805606176159 -0.006171302253372773 
thermo -0.0360710617077444 -0.010848925036937202 -0.017455687132270286 0.03992702239827591 0.004019894708980848 -1.7763579982703122e-05 0.018202078867613467 -0.03123483256106008 -0.04268620707934245 0.048433575467111745 
imposer -0.030902442402519867 -0.009976898960597001 -0.048854523130795864 0.01207633698443076 -0.03506260176871318 -0.011256194919882117 0.004844707030234496 -0.03203182864526356 -0.040780845052899105 -0.03863452549799296 
reutilisabler -0.02186101341160731 -0.0037007215235260716 -0.024472343556745053 0.04877340294358175 -0.04371105781676446 -0.036201897942307056 0.03389438780635697 -0.00346389534273252 -0.04728142696203765 0.03631212906295698 
tampon 0.009526249881517741 -0.04233090762945724 0.017093385635799065 0.0359273915023312 0.022644333586974312 -0.04250701527433505 0.02750418489512094 -0.0013007878444905641 0.015787087243038147 0.028816368592555982 
biomimetisme -0.011651187375123849 0.017591384124253484 0.0483346407385543 -0.010232647600307046 -0.019379605435924638 0.040591703995813286 -0.03180522472165725 0.018773029087924532 0.012840279920201893 -0.014863773238414492 
elec -0.02713310927174048 -0.033490472311596894 0.004684689187258288 -0.005618128294645344 0.03935644672350226 0.048427222851301216 0.0465139044388682 -0.023738310653779335 0.01755412303060985 0.018285560624201117 
aloe -0.022658465828913232 -0.03733152744408968 0.013372526109456035 0.041909945420330906 0.042612346701502116 -0.021828262449020787 -0.04564377969299763 -0.034313364766446815 0.023529848224722212 0.02758215950405239 
edicte 0.010558053002871165 0.016542126960215238 0.011934711513564992 0.04236599273167682 -0.00553800226389997 -0.0394437901338135 0.007708492918901455 0.04877680723854645 -0.018030220979824044 0.013438084434903085 
agrandir 0.01260247170905412 -0.02002297194278068 -0.03247773191405476 -0.03741519588439836 0.01877564975968316 -0.003360728191903913 0.026852563168138666 -0.023450499435780217 0.026009363658241462 0.04661473194950486 
frigorigene 0.013492789771214443 0.02656183443936616 -0.005717242136282575 0.042647853175187475 -0.020321297376645946 -0.021863185455418214 0.006036930053165802 0.039548379206295094 -0.004117599921076142 -0.042768880854640805 
desengorgerer 0.0359542131417861 -0.03625849351552592 0.04884248561744668 0.02687065000361393 -0.017192942379537408 0.04401531951509718 -0.029329782022589315 0.005564902182986498 -0.015104106928455294 0.004363543171628054 
humaniser 0.0015587289725305276 -0.03267422231772292 0.029233515419562 0.047579880009750906 -0.018375804007466575 0.04770160657176536 0.0028554096891214823 0.004035588799834722 0.007789998463577609 -0.0264807818281248 
acheter -0.004722157650116766 -0.012877170282094914 -0.017588431085204196 0.02006174490052098 -0.027655925970092404 -0.003902910146083823 -0.023741685267992925 0.020283449499512343 0.015277252550316816 -0.019702776982677098 
empire -0.04425675043888043 0.04396571494930211 0.00805240848466662 0.0050004714201901754 0.008481695164223764 -0.01693202869321603 0.009858556200371434 0.016700269920488602 0.00167499982229504 0.024779722248733475 
être -0.00941088739315438 0.005292899409306582 -0.017725162279656117 -0.04421674155871904 -0.02311531362668266 0.006950341212591606 0.002004434124823599 -0.04729760986597242 -0.037798834347974195 0.03894326506584894 
delictueux 0.007938099938347527 0.04995917998543152 -0.0452371926246555 -0.012087484625768615 -0.027441639063745648 -0.03519596125653321 -0.03461175804095618 -0.02761977653912333 0.007522228717923976 0.024048021847138296 
hydropur 0.03673710935361121 -0.04900412301166802 -0.022084793408321337 0.04197416073408682 -0.038321526913674527 0.004120220283393892 0.0034557126714857304 -0.008146792089701033 -0.026413248528994418 -0.03192148139149687 
incoherent -0.012952123913792357 -0.009197895376751718 -0.013297592192201231 0.01348477458691751 0.031241659772237973 0.017231824512427933 0.04451212472077847 -0.03781466083413925 0.046162978440163156 -0.0021773216675217907 
fonctionner 0.02812104787845556 -0.005694172742326696 -0.015369448124751415 -0.02901849784541718 0.003168093591175498 0.025968288952769966 -0.008871704543627157 0.021290549214766957 0.018202386848779353 -0.04733250543876565 
benevole 0.03777675269253376 -0.03631458540477498 0.015209945625185003 -0.027603489434098728 0.03869836184599211 0.005504911516307808 -0.016877536018039124 -0.03759013610942571 0.025061416862212794 -0.013092119231225798 
volont -0.04983236379137595 -0.03150430178251024 -0.04700334259859934 0.03634612218668234 -0.02336622158644191 0.02119039438461256 0.036585562950169764 0.015804111648583318 0.018298078715854156 -0.032245261734886156 
reconstruire -0.04745891862850255 0.028952055860803648 0.027406879242915443 0.023786493552856308 0.01151926465554873 -0.028749344291297208 0.018528566255420435 -0.03566658812564064 -0.029984281311535837 0.04223422238384212 
manger 0.017470380986695594 0.020933498199601268 0.008808479172661384 0.021978991442057737 -0.008307303998619859 -0.03331532562106808 0.04439193923139498 -0.03972937610609244 0.03785194254538231 0.006345598039698365 
liberant -0.03536226661468922 -0.003604028341553539 0.042402893216841674 -0.03740044840435022 -0.027054239374016846 -0.01024004441564605 -0.0004533515618677122 0.034474556389977706 -0.02496950953542911 0.026738905239953873 
balader -0.0331484197223324 0.04391441654935531 -0.03122498440881877 -0.03727842724755223 0.029302202139049823 -0.010875377042558547 -0.021232220135828445 -0.03517848843136216 0.03557264246924044 0.006824184846344199 
tramway 0.012724360738527986 0.005520198878971395 -0.0241768922867727 -0.018663679872452658 -0.04614162576989617 -0.003907687266242885 0.006513015687739311 -0.04016710781731177 0.04704431411606591 0.005304330567384433 
md -0.04029281420410786 0.041228967334742496 -0.013949511691285938 -0.04779731804928037 0.039876513334109576 -0.04071530005599559 -0.01910788318500759 0.01110674679701153 -0.01697784472853042 -0.024737615954623135 
renforcee 0.023340931935497855 -0.03947353334867834 0.03514342391585995 -0.03566426181422768 0.03927452066631546 0.027672690749076863 -0.03394074143680095 0.02878074213030475 0.006434404386897543 0.022529503429172468 
appli -0.030887505300789816 0.01652328389044663 -0.011736830265088944 -0.03863480100891887 0.04158811078681425 0.04571454408368837 -0.0470266612041417 0.00529478758365751 0.03643006927877065 0.04529700519616827 
classer -0.03471410015063848 0.03513319870773203 -0.007190429811304243 -0.04230789246951022 0.002827028574229053 -0.005339681015231147 -0.0009319449094536659 -0.049674880889442115 -0.03039966282168159 0.00862398719025384 
masif 0.026750981265411183 0.04620089810974087 -0.0014466982098139095 0.04023952388645528 -0.0379155450051786 0.04110930087272746 -0.036994677946406214 -0.017647293095259232 0.013955758676468978 -0.004488701659642778 
contenter 0.02349946831970843 -0.027873895728898687 -0.015689599295002972 -0.032548864775606846 0.01225865861143371 -0.032324086234669605 -0.012235188277070045 0.012819948638703803 0.036114912229449105 0.04926319515720121 
parametrage 0.04803882063554894 -0.01202180178650266 -0.046253228508764864 0.0011595907452972409 -0.040040675427045244 -0.048663268379724504 -0.035773852435203174 0.011025497266333057 -0.03242088778038772 -0.04277508429030803 
augmenter -0.026187539304560258 0.014358871536342558 -0.038914543943928626 -0.04373793507792919 -0.03635910800417233 -0.04703534548785313 -0.03214455525336714 0.0056311715353081345 -0.019552220291128533 0.006569731026888888 
peripherier 0.04818357774820251 -0.016259779418544274 0.045161283290826734 0.010705615181771226 -0.03958922544192779 -0.018321493092889093 0.04343447640074198 0.006854324450622104 0.014882261196214542 0.026928931805089602 
luxe 0.041092956447556665 0.046301960520324315 -0.023014491429964288 0.026252585598952657 -0.003869409107645527 -0.0021533131778534347 0.03926978888627282 -0.01716226472672694 0.04500340951020078 -0.03546544194723037 
compensation 0.04026174214444776 0.008120617931261273 -0.04030967774348637 0.03176676821272289 -0.013060423207481665 0.0082583914226921 0.014138648222968696 0.042353590964697034 -0.045049984094934964 0.016118024581069337 
comprime -0.023791144338155545 0.011721009968690065 -0.032044873110336006 -0.00813808515879276 -0.01080746284261206 0.024070536498642964 -0.04471595614658859 0.04893062351908943 -0.044963381446624436 -0.013901727828321839 
peine -0.025487820025625843 0.013759901014947304 0.04186513937182472 0.006489868960223938 0.003341234782092518 0.005190174089977507 -0.03883159792082077 -0.04154218834053338 -0.040711776322040504 0.028764601340154947 
economison 0.023674308216626697 0.03517719669298536 0.028679744124724644 -0.040084708594112235 0.036150591952619375 0.0010775686625704123 -0.028424373479196532 -0.04818540681161389 0.04503142517826324 -0.030102013832339826 
reconnexion -0.017799033506849943 -0.00044863901505057014 -0.0009167650714524492 -0.040360112871782906 0.00831594949597772 -0.04687885236212522 0.02454423926715604 -0.00818753892013786 0.001247853827698613 0.020859620807627217 
incendie -0.03229597860266119 -0.0018397347459570396 0.007718503170195929 -0.01054761280734714 -0.012433199051143108 0.03421614517219702 -0.00016507503282653686 -0.041094915558849476 -0.036093129599902796 -0.03655957606915014 
rc -0.012474707929438045 0.009679685821482036 0.029189174977650754 0.02022196176757343 -0.032102895659138736 -0.010402095449184395 0.036621750660805315 -0.046466212787684806 -0.006376192952084114 -0.003782070210789936 
renovation 0.011410198495885421 0.03693170765318911 0.0029936670785759368 0.028894181804358984 0.008903842868876658 0.011630449381960596 -0.0030359762826803575 -0.0010423776948265393 0.027717154268608327 -0.024882894460041587 
autoriser 0.02947445714901008 0.04006346528426534 0.02161797466878416 -0.011187043861906871 0.00659473648564123 0.03807509216447789 -0.0363837800570352 0.0008679232269705308 0.04567756122978529 -0.035563761486868274 
radical 0.015303845377044647 0.011816956219912666 -0.004665091438418603 -0.0005661634189245285 -0.02847110227678976 0.0028389921189538713 -0.0007804870026092793 0.021024047658760044 -0.035947447852394544 -0.037294125884363594 
lier -0.03904921985169276 0.03598813728305889 0.039711504804949053 -0.03857439472866844 -0.028889537644894703 0.002642240520368249 -0.04742917366638662 0.01557024657663294 -0.0033201667202599006 -0.01754747217460366 
cantine -0.0066814569256433325 0.028610107848891755 -0.0018214904542075366 0.04543489736192015 0.0019734121397513666 0.045149224828925555 0.03241830637100889 -0.03655643186908201 0.011534798581730444 0.0007229023614838448 
inoccupe -0.015509362746684574 -0.04777349134010028 0.006394909330911706 0.0015591811838500669 0.04654447212202345 0.008462074617235428 0.02309204485680764 0.0200092978189777 0.02693858911382508 0.04332083669458119 
armateur 0.021020564340105356 0.039151668136477046 0.04530142551449084 -0.012083993585700802 0.009764493067199122 -0.03171859840425613 0.009993074205729311 -0.03140639121207764 0.020506221072579465 -0.009896810876498274 
matignon 0.0030508129375387298 0.045018925828163976 0.04025936907876585 0.03437730299864636 -0.03954441979265416 -0.010098025005818079 -0.0037373212620539268 -0.019317748855760028 0.004656762408032882 -0.023173478108535955 
cinema -0.00895832466531113 -0.04913682253543513 0.044926900319690724 -0.009530669845956876 -0.0031435045474137516 -0.007401301900127112 0.04901137398034468 -0.01897025399494005 0.005179052708203971 -0.01729198454880628 
leader 0.030856957186225484 -0.023265109040585805 0.04176583888813319 0.034379045757005296 0.004032718792362457 0.03247242050972312 -0.01706797894368658 0.0354086455682151 -0.022705731450707273 -0.034095851849812515 
rh 0.028577252902302376 -0.020382385105682403 0.015435994389304545 0.021656144379701574 0.03897279406742933 -0.02210138003304284 -0.0155432997877462 0.011713446723243946 0.02226483456251642 -0.02506371945448455 
valeur -0.026391597048063185 -0.027583578942569856 -0.029523067468116768 -0.042451964006534906 0.005077562436640368 -0.02737121529708136 0.006769152587617031 -0.025801242978585492 0.041639710381906114 -0.018340614093513917 
frequentation -0.006684467126889331 -0.029959256309158702 0.03227618377432478 0.023914494836973953 -0.03046678568071875 -0.03748637423563374 0.039882174896040505 0.014884414275941553 0.04237740136036629 0.03249262335376938 
rnr -0.01874817963056588 -0.04786170029042931 -0.01992248335149153 0.0036594329325482767 0.015037861846543934 0.029714759680947334 0.04590001679581428 -0.033543979384136474 0.039144815625311795 -0.04960531023562277 
polluer 0.017591033561160478 -0.018732943265519567 0.022015482275604608 -0.0444359484892889 -0.02247138583418489 0.04067987756308229 0.04609909462573228 -0.006870809337124632 -0.048286694571048255 -0.01642536599395333 
depasser 0.047464674375521584 0.0447111714690556 0.009763364082710484 0.01991330679445319 0.037287782445364764 -0.0448950703749412 0.017125311283657692 -0.027616759579086915 0.01712661681342019 0.0030293333983691306 
manquer -0.04312963403342901 0.02700311644590864 -0.03378130226822408 0.01087272824695897 0.03576221592984665 -0.010975663203049192 -0.008700970739171919 -0.027622186941081917 0.010128710644840853 0.04537272601445212 
alpe -0.03244933906566334 -0.035801896647100324 -0.04364083787314725 -0.02681786156371893 0.022240622837743678 -0.010046588977103883 0.024982516914623717 -0.03255442611364085 0.007933281055180041 -0.018136131260171964 
portable -0.01072755676769698 -0.008143417372122836 -0.046488367182242106 -0.04516420770879202 -0.021124380999146954 -0.02964501099506838 0.010036513466131448 0.04818693130323809 -0.022619825459700527 -0.02941263173913416 
ferie -0.008415980073920627 -0.0035032947918515007 0.02589754317994463 0.026929930041492637 0.011045533561076168 -0.02762628859839436 -0.012909898273898908 0.04259760711280201 -0.03567789540813814 0.02434475270166728 
surtaxe -0.03452933939116984 -0.01069789447671978 -0.029269607076959678 0.0350725623272451 -0.04002084508520217 -0.007757085157490836 0.02121952003671991 0.0021267037039030077 0.003144915958161905 -0.03574232037423458 
lutte 0.007957867984405467 0.03317549356868854 -0.013617505213086186 0.04384027981359436 -0.02355154895392902 -0.02498124730545013 0.01694636586516901 0.020595196361791614 -0.038558282051296605 -0.012325908838483458 
hydroelectricite -0.03964893019078509 0.04323632955290376 0.013480575112778491 -0.032106517620347136 0.04411836482317362 0.014724308203496931 0.024399782047091954 0.008989755698094699 0.02545745840758686 -0.025850568002194547 
fromagerie -0.01353782641532344 0.00657640667927345 -0.031934855558927985 -0.02368686314057442 -0.0336691404798672 0.01588460670301083 0.04225173179773751 0.012136011256880883 0.03944114722693227 -0.017632364174446802 
demarrer 0.002616323049807362 -0.027437706636057664 0.01576201313401673 0.0014199112487678313 0.011219352393906404 0.03112513007528558 -0.025714871761964464 0.022526314851258982 -0.049484690810754406 0.02314616681211563 
depanner -0.017113385598932076 0.020620060067902374 0.006420481663468444 0.01594719755983735 0.03074398365923555 -0.0213427187546204 -0.0188891390417696 -0.04629273409785826 -0.01967532743776357 0.026198834146040923 
soude -0.014093012403675064 0.0005749467895394692 -0.011148329566254538 -0.0253186661436311 0.0430741432067358 0.02801826492366053 0.002725508714432761 0.023570927902736363 0.006892780794795178 -0.029496676509140056 
pastille -0.041726890742252394 -0.04086182929736759 0.011072097166861354 0.033604217915430834 0.005588451561948918 0.03349919281880876 -0.010443654117760688 0.005968715728456888 0.01240410548221051 -0.016419625891108694 
francaise -0.017230617649584223 -0.0349755435612084 0.038123199095036545 -0.03242028643441725 -0.04853392374650682 -0.049671247129897476 0.022252651710849607 -0.04542723599625882 0.039202692726442806 0.005628833688719156 
destination -0.040959186557748106 -0.0023575039099796038 0.016015429791465776 -0.013287029787506763 -9.687634357297809e-05 -0.013391065093279173 -0.04003083792494015 0.04764224333561709 0.0013650538320385613 0.0003594117265641809 
quantite -0.00998271682599054 0.0326540252921982 0.040246402428253815 -0.008538196266713302 0.04647536798728796 0.02480401766185718 -0.03570606530974053 -0.005665417184923262 0.02485946572620508 -0.035472846919596825 
junk -0.03138707679964819 -0.028601314810109312 -0.0011096485605015007 -0.04897978051530118 -0.0416086187848811 0.03581855121166929 -0.014930483076644574 0.026684188906259333 0.0322866143887319 0.009121416972858324 
circuit 0.01048436498414665 0.01652143776482095 0.0360418188883906 -0.048350366937387604 -0.018077476823449613 0.04315869550353421 -0.02231940923747252 0.015893849622421727 0.02851259499957345 0.03198349501462511 
multiplier 0.030179796746872004 0.04553459980906149 -0.011920917075410676 0.011318526874937356 -0.008514363056441102 0.0049559520170294885 -0.010504973577774555 -0.03114807885957862 0.006844954815595271 0.01257190179700697 
rond 0.024416983149944286 -0.036595124369146755 -0.043743796566732246 0.04470639386404342 0.032154898481323003 -0.02685532350202892 0.04770502791033683 -0.015192323659582408 -0.04119198514085084 -0.04505434884436357 
loto -0.037041517292924715 -0.005185279820720532 -0.03523856118141623 -0.04171725068529046 0.03744525047912847 -0.04525613462811021 -0.03384495653253506 -0.0415819322265756 -0.026529587060657937 -0.0324371130084056 
decembre 0.0016072611006631664 -0.04836803443309311 0.025639008443563174 -0.037746935645583055 -0.02494880872616373 0.04433363607005631 0.034711580315726 -0.011398109716173534 0.028212826681131762 0.014944257087000586 
recompense 0.038646487169809646 -0.03337113169999127 -0.03097345555386662 0.014390506540780555 -0.03976985579691305 -0.04599032286616981 0.0019863234112559663 -0.0050617225694424605 0.032147326920380866 -0.004447443926863778 
vider 0.019348274799983987 0.01153054763397043 -0.030544157934524092 -0.011197982840447339 0.0017254542108582612 0.04790808077634048 -0.029229850781587647 -0.016141581796950064 0.014295323690470452 0.008612658470109913 
basculer 0.042880731685469166 -0.023382795499750166 -0.030062705501261375 0.03251987369153216 -0.017443110341246595 -0.013512878281237558 0.032162060467013955 -0.026589820049958364 -0.01536881776157698 -0.042904234950011694 
aliment -0.009498379082793012 0.011893500008311558 0.0043716085746198395 0.01434361772205777 0.022089266782359052 0.0016094526258740756 -0.0026728365792140244 0.022790497814821342 0.004935876009344466 -0.013891183345975883 
is -0.03779882366060547 -0.04126175640163131 -0.013353934052334336 0.021494145981141136 0.030474231920836575 -0.029971085062692443 0.03590491504188452 0.04639512654037888 0.04082208980670638 0.020286966969350177 
simplifier -0.027318735130319665 -0.008223682077954764 -0.0013811736963321227 -0.033384169599841265 0.029969180837507988 0.017991933529100054 0.010453734936479489 0.038717272658133677 -0.006905926394763232 0.006735097536890172 
telephonie 0.015131523921473574 0.011129618130821315 0.01553843742749208 -0.008393227773994334 0.04496427285320552 0.020810851582898277 0.04944956487440497 -0.0364407933131073 0.023470861755590038 -0.02424666038856083 
resultat 0.03959641488755296 0.01622607567435314 0.03826248853250042 0.016324563941859882 0.04916242655317724 -0.019137327194843602 -0.038645132599333824 0.02316699873650369 -0.011596030859709366 0.006067221153608993 
elargir 0.04653762471291773 -0.007664201101757497 -0.02697332710133429 -0.011668199782833472 0.0057465337249177125 0.003973301662287261 0.026220031608953333 -0.018014484123160392 -0.0076708880445713525 0.013028974050455097 
departement -0.039510638071864265 -0.0301527659229185 -0.040655980237855265 0.04689298282315021 0.041769162343460134 0.020460835466392185 0.02426042716230478 0.0422930003603483 0.043058002674060306 0.03434226554147418 
inconfort -0.0464726103593319 0.043579810993914704 -0.002636443731721784 -0.020059327387538635 -0.03537677522747646 0.016354409967124277 0.04080781965289827 0.030147224380570273 0.04305448729430558 -0.012737863888565284 
admin 0.005104645134243136 0.003666534652052149 -0.02775030366831903 -0.005850894751436526 0.04480623878190021 -0.012840391788115527 -0.03474273842762815 -0.0456190888779783 -0.020645387961566102 -0.03024205550126766 
majeur 0.025010098863796917 -0.024287389829769083 -0.04129126619713381 -0.049328328293971976 0.04101981112557094 -0.020215653613637648 0.018435749520221284 -0.017217291028288433 -0.022093572378645104 0.005887688529859644 
encourager -0.024983764371309145 -0.035236118665856665 -0.024483009382798647 0.02615530942261783 -0.0037104059782773666 0.04627667396400754 0.014698440777077514 -0.010339429825431361 -0.02808861123856236 0.02122438218295668 
hebergeer -0.027268644157460022 0.038087441327691526 -0.032308564687702136 0.003814481311617635 -0.032823828328284774 0.003956233208102506 -0.04649940490988354 0.018656476750897752 -0.02903979886314277 0.02780182175598585 
souci -0.02841983233084646 0.021129572695180978 0.014835106232340571 0.012826766465725599 -0.02408562600322604 -0.00038991122064452365 0.03711372804490807 0.03516928994436538 -0.023895322583473145 0.044940974951008024 
drone -0.011636464556576952 -0.02753227122085365 -0.009278507961504692 -0.013901679218737454 0.010281426957300853 -0.027344942566645495 0.009795935330416993 -0.028286008026596234 -0.004731257384811875 0.004740449234332444 
autriche -0.04831634373944969 0.03170616837829013 -0.0172457463149929 0.04658041748430018 -0.021993470881189643 0.042400764140503776 0.0030817564750682436 -0.03568136686781932 0.0077226891997864994 0.02281776382502993 
auditer -0.03645702850320464 -0.024279604608430646 0.03220334938294945 -0.0365194049573808 -0.014490101510928284 0.027964200488536886 0.04873511006839747 -0.033866705007236694 0.017039844008543092 -0.0010824608743189718 
unitaire -0.04674388482214587 -0.00489644039825442 -0.02971794913457539 0.026525195104949138 -0.03795283185315641 0.047936727454271556 -0.017571780587613193 -0.037430201350274785 -0.020697618905248145 0.029651610445491427 
mesurer -0.031106615056271963 0.046091524974981576 0.01714162587508834 0.027770948758448138 0.04056374569487087 -0.0315818841246936 -0.035010309310606356 0.022234737534398044 0.009859250498518685 -0.012145410587021847 
fermement 0.039314438485877685 0.04714807619796755 0.007789127973691726 -0.02672694646968879 -0.002770759569557211 -0.0010057894053796788 0.013888700613032401 0.005746927091536442 0.006198552600183021 0.0465972445899853 
shunter -0.048816997433640257 0.03598764848629263 -0.005742105052212589 0.03649122370409474 0.04673843432943405 0.04970551090783257 -0.010721198365004393 -0.04614639601865144 -0.028734362274707707 -0.04318942380017125 
diminution 0.013467574623051128 0.0189708068743045 -0.004423259134382766 0.046167780867014084 -0.0023347943098281027 0.02529036786733211 -0.023978728320362314 0.027216779750055667 0.02084296171374361 -0.02358749948645645 
sol -0.04063668498416895 -0.026174885044782308 -5.805087983526009e-05 -0.033776715420763846 -0.03786121211650026 0.02618179563346103 0.037783790495353034 0.00668417613614115 -0.04240507582054856 0.0134822442220575 
developper -0.009855638576250656 -0.00838745033746575 -0.007301037645242179 0.02706706228347346 0.0345250525049348 0.03737761955699354 0.02623080336531181 -0.0008605794842091598 0.04253443568765787 -0.009307942805976467 
systematique -0.022591420014077313 -0.022211574777132922 -0.023109027986299897 0.010002668734411071 0.010589060324251949 -0.028654512292262662 -0.009365107849072667 0.027918929423864383 0.014818437210349868 0.012847385749229447 
aider -0.024759102052863653 0.023153710838682437 0.024968995273440337 -0.004799585636620347 0.03828397800764747 -0.02250899539721066 0.04252614336510014 0.03384493028730459 0.014986639444486334 0.015161936459155066 
faible 0.03960857847161456 -0.027152767112405985 0.0316400573792757 -0.032850260929406454 0.019539190555144186 0.007589780155384872 0.025661468429679094 -0.029265044838230166 -0.002251608987380108 -0.019385655437368414 
branche 0.019858892413903165 -0.028668864660033815 -0.04527178891328791 -0.02791859756312998 -0.04579241420816039 0.024835342931087395 -0.025512027486659157 -0.04963573086105058 0.016376971514154296 -0.009426026189536679 
strategie -0.00705090841407759 -0.04930140757854066 -0.049417686401961924 -0.0025406857162435744 0.030559926420538532 -0.010986464082200702 -0.018028921496386404 -0.04828822824119371 0.04351950092775107 0.011203100304169943 
dispersion 0.0024323597681907747 0.03915488670353702 -0.018874632658814013 0.002030850215243289 -0.01818794769238717 0.010633992988455559 -0.02221920211991625 0.04072979862455586 -0.02308545395612571 -0.018523455255130314 
investissant -0.014987375860911423 0.013395845832162969 -0.015640162096390724 0.035876038208400615 0.0197628328354473 0.014233354857992537 0.003538612038404974 0.0037026604626140018 -0.04050575734323865 0.030687850408409816 
amener 0.015250584199096584 0.0327187748134154 -0.03632706077580333 -0.006442054267637204 0.011594736467776557 0.03854152598718761 0.006441497138932891 -0.002086792759086011 -0.030780582957627145 0.012843600691852305 
gravat -0.006913130439504918 -0.015091375084021821 -0.016210682847508522 -0.04963250916477433 -0.03861002501030314 -0.0026181347042479115 -0.044237059385121145 0.009015146167597785 -0.008679090268169869 -0.01621733547878818 
initial -0.0028852860561784325 -0.04529276254295895 -0.03980641568757052 -0.005578844653674656 0.022990149980983178 0.04492686620305757 -0.037232385676436254 0.0481210619634483 0.02274186893527145 -0.005862793273390994 
ailleurs -0.00918253380763823 -0.003994955661377286 0.013270285335643152 0.008277596290045363 -0.022710894901926452 -0.03619822710445309 -0.049249562263601554 0.009407021743508789 -0.02994487964351705 -0.037062307818253586 
ingredient -0.040793830078425006 0.04927489514041513 0.031751705861691876 -0.004724192580953007 0.04454301348452575 0.03336039800835274 0.019367306421153106 0.011710880951602803 0.013708188568379394 0.036985565104605544 
changeant -0.011258144135678131 0.018792038883966706 0.0032055748289285774 0.0002469947927414619 0.021550719055740127 -0.015432191062532028 -0.03454597912071941 0.037020251937926685 -0.010930680635629492 -0.035456921229369276 
alternative -0.011102727586063859 -0.019738641407431538 0.017532680622047183 0.01797752137153511 -0.011699146697575843 -0.01655519340538351 0.007374386578521316 -0.02431070954751887 0.04924898344393764 -0.008197279790188987 
lithium 0.016433794434408 0.04246982559838195 -0.031042113621419325 -0.007266460106693831 -0.02452605046340249 -0.027601697308355908 0.049316747451789995 0.033632179421747135 -0.01877699400186734 -0.015804541612100053 
particule -0.04920679987240923 -0.02425419670131673 -0.03962257736460983 0.004853523315239828 0.009893502556407799 -0.04902010598350271 0.009263365609312468 0.027831026923426972 -0.025474486915925423 0.005918791550376742 
reaprenner -0.025066106909150374 0.007213454384962698 0.01668253044161417 0.01057706693081066 0.005219051704477941 -0.02541822926684356 -0.04437395519022556 -0.013009086669474243 -0.01463808537647156 -0.04070225287093279 
controleer 0.04565961107117398 -0.004128738193107647 0.017256681706234792 -0.024049927674441696 -0.043327061509690186 0.034249702168184064 -0.003008223936378118 -0.027349376940346823 0.0193230905791714 0.048106892241481236 
coup 0.04433399148645367 0.01909180471580488 0.04360597673514177 0.03784135088495446 0.045966884315129956 0.004593678492863295 0.04522074848428564 0.003414738409674515 -0.024137405832203914 0.020577165998647663 
craft -0.02309793314630041 0.045631192094082555 -0.0430296316704592 0.00016612685993068615 0.04331142434545236 0.01548506953687421 0.0067557150622853755 -0.0023557292952561294 -0.021722805321830678 -0.02138852620552065 
tenir 0.0002945949508550312 0.011118999326291784 -0.03113746088227638 -0.011573772712808907 0.013491119528780458 -0.02739988691211787 -0.0018414912461793911 -0.042025072669490474 0.043186556172484535 0.0038117774023922594 
portique 0.01129256082596196 -0.04170758889020707 0.028031648935562554 0.03477925450700983 0.04310073508336594 0.02142840697326173 0.010945833777177687 -0.013310905058348197 -0.04971465353880945 0.03521120820928099 
nefast -0.013227531154655234 -0.020558834157625754 -0.046589392738790286 -0.006372469917029189 -0.005695141495109533 -0.025193047556523507 0.030024890400836123 -0.003943240916638552 0.013095573251533323 -0.029157669564309277 
pass 0.019968953519357444 0.0055927664871187706 0.010601128050979649 -0.015445124981267308 0.03674294703643715 -0.03451425649767167 -0.043896845025141955 0.036592738464807734 0.011198705245061866 -0.03748097410516996 
retransformer 0.006251675319531493 -0.00870397838606334 -0.04321874550456236 -0.0024325592841050662 0.013961686500916611 0.012836948077207665 -0.01333858860523421 0.03213849145484327 0.04978382725636478 0.032555784957353215 
biodegradabl 0.004285843457329953 -0.04666969681856949 0.03842615287590227 -0.01578468844297251 0.027529354819541673 -0.002345755723989195 -0.0021261620250712598 -0.021137782721508104 -0.00717153474320472 0.018973916074585363 
coherent -0.03364881009004156 -0.044278595536675715 -0.03325723644441063 -0.014111625184171101 -0.04679305606818622 0.025113923621026202 -0.035779212200848114 -0.03949527356977914 0.011239160094282299 0.00066062081387945 
embauche 0.012962140133988737 0.044452730124165486 0.043663891232954034 0.035217559925925 0.046491101559310855 -0.026575926778942594 -0.00585959615737528 -0.027760785615107014 0.020894264670169433 -0.01974603215844034 
passe 0.0008343643758337781 0.03464202749858771 -0.011212990978934259 -0.02183372195078294 -0.0455106888005252 0.012114154004460972 0.03853403734232088 0.033394880257771306 -0.039576441496615294 0.03210078415040725 
bateau -0.005479716520386821 0.01632662917339543 0.0010742488312531428 -0.030781391124927393 -0.003697840085332014 -0.041493778923148324 -0.03474273581651791 0.020595227333561436 0.0020902583728573437 -0.006982142154892188 
allumee -0.04231780214042723 0.02496305095667357 -0.042505158433202773 -0.009006185409631289 0.04942729920224628 -0.038488207504666014 -0.013495359188084007 -0.004571507039784467 0.01771066544877809 0.0377177234546084 
xl 0.04012813471644662 0.001440735301686424 0.008853995557447775 0.006367629896310794 0.033116975397848095 -0.048035562600738727 0.017505119128344623 0.041374547222486804 0.03653984980356447 -0.02141577679583189 
lombri -0.04724545779447834 -0.04399746061482745 0.035976384044957406 0.009411015923514775 0.042413636082546065 0.021682406305596466 -0.010749319560252506 -0.04372599819887231 -0.04249412203673561 0.02780422852092283 
retraite 0.04389399131586721 0.04572260930953782 0.026615633156209205 0.0036936064944424513 -0.013222265468006105 0.04031074424360521 0.018185237455287353 0.016844570100826305 0.038022634602671496 0.026101124294580096 
resident 0.02020291656066856 0.027623948596280746 0.02960063256852588 -0.04958136927342123 -0.017519668458405507 -0.021757146146093677 -0.018766102270789974 0.009639434738601557 -0.027231575119334807 0.04588123890048145 
allergene 0.013792415161278241 -0.043110430874940056 0.020053872833331276 -0.03589116124575405 0.020260361442859993 0.026528948017582873 -0.021739883359872418 0.005489724975303873 -0.00035237031940584245 -0.029844458924993558 
diviser 0.004575172091456332 0.04631531138006758 0.01954562142946964 -0.029627185946909003 0.007412140704606322 0.001576076299409106 -0.04865778456264513 0.04260913040057658 -0.02341728644582556 0.03983705606547756 
schema 0.03908363685693076 -0.002295582466492802 0.04300359115096882 -0.049269808888274876 -0.0189867140385935 0.041568855094843954 -0.016874072645388007 0.03599055697981883 -0.036329979829443186 0.025369812751632484 
visioconference -0.023275668157503097 0.04946511741773273 0.0011794370730808742 -0.01681803766653854 -0.014003046222017746 -0.020464520646658508 0.03108024645986823 0.02946797804426991 -0.012680831883898415 0.006354020568336592 
bord -0.003965919447949964 -0.04918279596388457 -0.02753542673470233 -0.0003265922233175274 -0.05041971402539139 0.004921173436789209 0.0292476933755333 -5.7285554000072174e-05 -0.03879860558226748 -0.03446679822448278 
fournir 0.0307343444202437 0.008194317118293859 0.01940399740678033 0.048135225707105024 0.031172495119928523 0.033796565046385854 -0.012878701060804973 0.009538826323504933 -0.034188969140976404 0.0021550303068266223 
poil -0.022129986136001496 0.047874184336042444 -0.0030811725845490035 -0.01764989361553291 -0.037016639520133746 -0.01916332859194289 -0.0326045183430473 0.008910091339057775 0.028951835151776076 0.019076416548082377 
intelligent 0.02625100130109835 -0.013033753623537654 -0.02659696206379815 -0.01825198058280917 0.014326770459445037 -0.02548397922281316 -0.023647499867391602 -0.0010727706010948137 0.011934479096699197 0.024212813717982194 
habitude 0.0017171297163713576 -0.009360181677997764 0.022146066741190705 -0.001185509680984232 0.0497924270002076 -0.03978300341418533 0.01798767193788058 0.032959561763601354 -0.010090422804418674 0.0019043782234289153 
carbonees -0.0025776900459510803 -0.017122008837321078 -0.009898803943138818 -0.04233899242019635 0.03879238771934988 0.03483361533372947 0.012836312753586153 -0.026949310622107515 0.0014392603358102417 0.004674436205063567 
tracable -0.020352304403704207 -0.03783857859149936 0.022327777249453885 0.023885620564886814 -0.012749963882630519 0.04690597259077043 -0.010950673709545465 -0.001427593295769486 0.03431041937860262 0.005566779946757237 
yuka -0.03238372663030391 0.035700691467531145 -0.0444395516581262 0.016308809329180905 0.01589196962270792 -0.029797565306447078 0.0013652574313298496 -0.04245153511612329 0.007924068539658487 0.0253365350822505 
gratte 0.04602023983208187 -0.02701307655940339 0.0036264624723755185 0.009731601934630766 0.005878980653894143 0.04258308960431616 0.049516137540060345 -0.03531432590432789 -0.019383125419601174 0.014893857146516346 
reorienter -0.028410568924399138 -0.004482181124530216 0.037986829913965896 0.04223026693991559 0.030429502455445238 -0.006177108827337002 -0.004464683420739985 -0.005425882862994208 0.021871962151064638 -0.038880208957201984 
placebo 0.04736731751814706 -0.022391117578192524 0.0020637086490346763 0.043240872888497546 0.008930044671012743 -0.03180317686329616 0.031038286255217592 -0.032791802571656294 0.028703628543600913 -0.043884670986910596 
reintroduir -0.011068138316040333 0.006214123969585088 -0.013180873654852342 0.002751201954781869 -0.046486585565174786 0.029958646606726046 -0.04166362966656263 0.02985613436973167 -0.039739698917299116 -0.03157895717591303 
pme -0.028891696874740743 0.003056591409941103 -0.027806470057729304 0.00020199033003158944 -0.005655610087537301 -0.0313618513688646 0.03184885369965343 -0.03996554792210274 0.03811509144268425 -0.04509641770849867 
dejection -0.03362300274785179 0.04833265831604999 0.005441240732437598 -0.045849401484008796 -0.00019031737651056512 -0.023362272422955032 -0.023625059784566187 0.020585337917164423 0.013153148746658327 -0.036156972971950106 
hydrocarbone 0.01328698335604017 0.012398142946994647 0.029695155698061276 0.020201981645721092 0.012101831844732649 0.020138728923004556 -0.010592248208351768 -0.04283349950588423 -0.039531999621452416 -0.011790904580152552 
amour 0.018817248810983334 0.0008705587059151664 0.017175512904886593 0.004963958049394381 0.002519477775657271 -0.03251429804190476 0.04300443321688501 0.026501764793009974 0.017929075636832277 0.049792302172169865 
vintag 0.045970022481650184 0.013098124364604639 -0.006570880818763511 -0.013548532410154149 0.02109281737924997 0.03468977778039121 0.007615704735930431 0.008506036131303012 0.0477365947008245 0.011787867786333691 
novateur 0.045515006349916384 0.012915895509257588 0.03213999560590653 -0.04891551001368915 -0.01158196178134423 0.0009789403476613509 -0.008818208318601575 0.04911751955269391 0.037627916092454625 -0.04275306119033779 
bus -0.048065584709282475 0.028914517825803964 -0.016039779768925524 0.011046351178423695 0.03003448473307196 -0.0314860519993175 -0.013152302160900615 -0.003953312386489161 0.016394381590397657 -0.017070550064939356 
cheque 0.010852284960739603 -0.029203398711481653 -0.011666264906282447 -0.04004714695834704 -0.024585275137117803 -0.02461543853711043 -0.03405648765688148 -0.005989258175495843 0.04420572392566633 0.007051711877576252 
consequent 0.009982621662369786 -0.03591902350029241 -0.017392363244937113 0.001554380299634028 0.027832843755538385 -0.02522609259883869 0.0010562004718532572 -0.012613736367275722 0.014189337520699768 0.032972188765855746 
transitionecolo -0.018335255001774804 -0.04143131787496638 -0.025220273354428103 0.016552376892392293 -0.03859746026850255 -0.00211433731640735 0.015124341956457994 0.026226961812270307 0.001648353127934729 0.004444569829474148 
afficher 0.01643643762990465 -0.036074850634146845 0.013430687269205377 0.0025135067059471085 -0.03069080478735369 0.018690619363342074 0.010270294497687371 0.026055250626205874 0.023864872308987317 0.0024592837042662625 
douteux -0.04311614448531684 -0.03588761974454548 -0.023965356666559315 -0.047787815567293015 -0.0006608559538421705 -0.048945741994448136 -0.0013781390187238719 -0.02320596148891688 -0.038560111611494766 0.028621194348936296 
industrialiser 0.0018506100527915545 -0.007026809676187833 0.02575589760932762 -0.04776073355471228 0.022408146181624893 -0.010475593599317786 -0.01687918353813746 0.0440859449642538 0.04231532494327029 0.04163340125096905 
adaptant 0.036848504686007366 -0.010191982171241143 0.041941362358356486 -0.014437737592722936 0.04141059410943406 -0.04703945717663411 -0.03801499986498062 0.02180329649124067 -0.046721349527789974 -0.025393241070849566 
guerissanter -0.015304141266827555 0.02684089406887014 -0.04151078635760244 0.03300446208104024 -0.025987188772042768 0.009378091375936598 -0.026185278237730463 -0.01970700557341134 0.04903007642754718 -0.0037418996973306614 
solidarite 0.04670821712308137 -0.030305736724497007 0.020278884353814895 -0.008157127727191751 0.03673414011647089 -0.03085582225612936 -0.04461351470124536 0.036407325496547904 0.041309794150745156 -0.0498021882401506 
horreur -0.025450126797146075 -0.04594885267271268 -0.047095680018991656 -0.04953048373589786 0.04266096878303251 0.023353505098444336 -0.006746577279727115 -0.029119969830242707 0.030613482706336907 0.02601344683516791 
auditif -0.030136662503676494 -0.008344565557772295 0.04944320757516028 -0.026140561922133973 -0.02773029037108004 0.029556830521724316 -0.00580880072275858 0.0010835195034710095 0.04568415813768019 0.01767414349473523 
annee 0.03778074510783138 -0.011765580580778591 0.033117014401253586 0.008027816696307657 -0.01695990040561823 -0.0033096093511701574 0.025715113326406802 -0.041506191295403325 0.007438132395331928 -0.046614146783873926 
serviette -0.020018299534895093 0.014778791973528013 -0.009304056477180099 0.03153820238737748 -0.0017986333243916338 0.010511745585516862 -0.030519842746851593 0.01720795368055688 -0.022094947175302884 0.011556699368888021 
programmation 0.022668058206702594 -0.04424455799892724 0.04233758308205158 -0.0362193228176556 -0.006329033843859836 -0.03135035121579205 0.026839526303119008 -0.044692435439684104 0.0026820923665724825 0.019461245736533687 
coiffeur 0.04457360965217674 0.04214452458286809 0.03701901841745585 -0.034114431162757156 -0.017580021951894877 0.030490757815653524 -0.019080999026559287 -0.014484791834990508 -0.024741573993770114 -0.006856841147366888 
reseal -0.0006840086319274021 -0.004438624589000037 -0.008153119663893474 0.017228120889367884 -0.009594640391654108 0.005857683323506067 0.009311323243514783 -0.0024770795728064976 0.04679880355464903 -0.011604956979571033 
flyer -0.0028015046927087482 -0.005704462123910212 0.012759888720799162 0.02010360893477669 -0.04782312499318328 0.041839519641495494 0.034594062061775434 -0.00422172542379477 -0.010408544173515149 0.003855305751724029 
exce 0.03463995307545138 0.012291836742795088 -7.087609682840738e-05 0.000776888582601253 0.043564709064418346 0.032885874703675 -0.0390214348941412 0.01637433537782793 -0.0041121785621510195 -0.03526641267207711 
faire -0.04368083725677712 0.027300965246560928 0.023026532549909207 0.012619001473998004 -0.0026414933074414716 -0.022780794623615958 0.038661333987172516 -0.021821247644045392 -0.028926027945066587 0.014100629465159586 
volontariat 0.0060377128966709204 -0.0025445229872891276 -0.04913576593224578 0.03997482483628001 0.0072947812540698044 0.006776043354593514 -0.0034740590022758313 -0.009646301370960557 -0.043642329848248486 0.03464762042437051 
antibio -0.010099563324127835 0.01861957975432792 0.03668474928749845 0.026087864800070637 0.04809787943278369 -0.04330206982075773 0.0035783856312992138 0.04459477885821399 -0.0049950425820417515 -0.0006176856616809779 
accumule -0.049270205641419824 -0.004826055629423959 -0.023539132523057005 0.0446693895747508 -0.006520438954922435 0.04360757284842071 0.03678103606130901 -0.016138628146284143 0.026497572323112072 -0.004027696862672954 
osmoseur 0.03043514409466366 -0.01881782976756275 0.01201772275070845 0.01192396860165275 -0.047962637523535884 -0.00724335733164723 0.027369014970065303 0.005758279252052678 0.02139649180486334 -0.0004189080305835531 
poele 0.0018422195902042505 0.002033373701179214 0.027537595706066405 0.01571068533699903 -0.013162943220506875 0.012625102859552536 -0.038610245514330566 -0.01833258838981374 -0.006182070353318176 -0.003102925371036046 
commerce -0.015737795340970452 -0.017790449184066626 -0.02632463515913987 -0.029893159652869858 0.031627783771598514 -0.004667220815591724 0.04786815489910897 0.033053154598064356 -0.016014051819322146 0.017357683073153482 
autresporte -0.035054689536327295 0.006445576470703602 -0.042268928377292854 -0.002320633531002408 -0.019144198966607552 0.03218782921637904 -0.01786056149470011 -0.02988445784983387 -0.04806021791087141 -0.04834331088076779 
regionalisation 0.019204907515033235 0.032086114622271754 -0.034404874659662334 0.043909819307036066 -0.04230575041353325 -0.030634523491753027 0.001311516223259937 0.00891184020586023 0.013962067189976645 -0.012194384564389434 
cintre -0.014785401390556396 -0.042156518370067786 -0.02391646042750652 -0.03791592905319083 0.04955223092662611 0.013819861995885497 0.006391528171303484 0.023753681975264385 -0.04877056287188498 0.01589734796851025 
guise 0.028767241370643213 -0.0498554666829501 -0.029722657987076666 -0.04987680792440696 -0.03070961064121492 0.043649310603272616 0.019763875223057975 -0.008379039123004388 -0.007917520994822867 0.032007435865445535 
frugal 0.037446911997043 -0.03181317497971182 -0.03778638101746755 -0.04304634269271432 0.011378559400850587 0.013967850740374469 0.041400326989899205 0.021028602987949375 -0.017676938940461035 0.04449819045778124 
localisation -0.013852849084454806 0.03559435476886766 0.038660033959833105 -0.03446554299973699 -0.022017430582586737 0.0005760397486236204 -0.009916722026245208 -0.024313257947770246 0.010444896555807869 0.030641554191704713 
necessiteux -0.0019274506808283243 0.0112022875022021 -0.028449477653707995 0.007631812385209931 0.0330861294438969 -0.0057765063283083855 -0.03170680316653126 0.040249857019087246 -0.04278736137033883 -0.011622018432324426 
sujet -0.042503665183826055 -0.0026159503031344352 -0.002222595560434448 0.01322663007439396 0.028109067778545663 -0.03542195995375319 -0.003160652839555526 -0.00878516569024602 0.018034391718451722 -0.008800082966982302 
intensite 0.004835154948085782 -0.02075577657638837 -0.011694307551159827 0.026555598052155613 0.039193259107478395 -0.023488010295898226 -0.01591612090198006 0.03321853598278824 0.029802369208338134 -0.0421555987915047 
lyceen -0.04104299798347196 -0.008952793849739881 0.02900156146073369 0.04477696382834876 -0.02150803518167165 0.018516115638840723 0.03487098683980506 0.04713586631382753 -0.000493506897335346 0.04284108409710969 
mobile -0.007657127066705638 -0.04985163710468222 0.031483111578683616 -0.00850657288032887 -0.025148576130920534 0.04599423739819808 0.0009875662743730187 -0.030614893653260283 0.021318641396855995 0.0033266683586977634 
fruitier -0.02381563749016661 -0.03435542018339262 0.021538652034613796 -0.005088192883577416 0.001911213066611884 0.02731804449682848 0.0017044928755571447 0.038356740980557476 0.0391814898601808 0.006073745698675245 
marchandise -0.03941576905417565 -0.016422006029312337 0.008154090565024833 0.017670402107859647 -0.04175503000005827 0.00585228464626584 0.015997272697109422 0.016892282956879525 0.025274104663433 -0.029945230939878012 
agile 0.038836749595326375 0.03903819970338464 0.026851863254715523 0.008654397383165756 -0.011097074338387991 -0.045382752332310365 0.027190396321485896 0.010885282191314878 -0.03206989345879181 -0.03081079513127045 
rue 0.035287875798217114 -0.013224622370350544 0.0406894430104949 0.028369470435162917 0.023306218661501763 0.04818037546216857 -0.03673220815379954 -0.021891259709655237 -0.006844451665396228 0.012615031433463247 
apporter -0.017255131653889238 0.02132738146109601 -0.03469430936470499 -0.0058335296576163065 -0.002026460302090259 0.02569692025296229 -0.021826335012260237 -0.028833227523124155 0.04704626356872161 -0.036182468505250504 
processus -0.042972309214599914 -0.04682550208619709 -0.04802376988761069 -0.028302125936936325 -0.036149218347894405 -0.01689532555598519 0.03686357240744041 0.008111885101323634 0.01364261724995648 -0.007132766817967596 
garer -0.006329383017063231 0.048278150013647825 0.04917788100084564 0.046456997423156655 -0.037585608968399666 -0.039110969487292604 -0.02231518974901163 -0.016532798092111833 0.004169012798118948 0.033115890761285564 
confondre -0.03720514506767182 -0.046192867291252236 0.002174772397976515 -0.0055802416375710295 -0.014431751927988783 -0.024744192515916273 0.013055779114563015 0.02331571304530776 -0.03182303541324065 -0.028956980015871887 
abaissement -0.003897697587919321 0.002353834119989871 -0.047443368806306986 0.012473907749909816 0.008030733211531634 -0.028579036653944963 0.03418642194598088 0.008300488809144047 0.026185978143429094 -0.04943402108196831 
lachete 0.0494317448175157 0.02772825141724122 0.03169553977080231 -0.030105121950427326 0.018213611622389336 -0.027535411823886014 0.01520155803509689 0.03081101667692098 -0.032991435571229466 -0.015488439073204487 
resto -0.011847941264815478 0.03755939854790299 0.04342177528036763 -0.025601203623213876 -0.0016354951026973565 0.023062140383626417 -0.030517396046529296 -0.011538980374809882 0.009604867901361898 -0.03290496667658507 
roman 0.02345109969470084 0.013910885399584894 0.031241763163273147 0.038701131354072264 -0.03776601184409534 0.044987834088893515 -0.0024944597663124845 0.001388137854136028 0.02551899498931883 -0.04637308508162752 
etage -0.025164226890153008 -0.022445103418834086 -0.0037835283502015214 0.04715197466425933 0.002058597774050363 -0.047976815549752 0.009207531551043136 -0.03660138136657437 0.030300155739603856 -0.012739400236678397 
touriste -0.02915707497727116 -0.03298126475038505 0.009073525972077523 0.012165700310680108 0.011353153648998878 0.015943457661120382 -0.042031870945343386 0.03310380583563564 0.04897126195388987 -0.023962370587871058 
acceptable 0.029559602794757552 0.016590518861595384 0.043448676880208155 -0.03622887626185213 0.045022935981234385 0.006578219614363813 -0.00017807225497150556 -0.008713564118592438 0.008759506153208297 0.003737301372632847 
analogue -0.049549702466361034 0.0026808546922516205 -0.006559848012952249 0.0005360161536939939 0.016356159656507982 -0.020374144484042435 0.007543818284616698 -0.019655629155476317 0.0353684070651207 -0.009406811741667504 
decisionnel -0.03414807544292746 0.02340546787761247 -0.03051424125134864 -0.015062484294870044 -0.025775211761602107 0.026155990365249796 0.023426893603380988 -0.0016753786941587328 -0.04308266205331804 0.04929422769679821 
seau -0.016634626924140545 0.02283842013621999 0.03550556985042606 -0.01118196198199609 -0.03531598190959881 -0.030697525666481422 -0.02123040140120836 0.016413840564228028 0.027021731409050488 0.03357312420271564 
dispo 0.024241452279687752 0.031073347368369513 0.00945218147676417 0.03679717192500882 0.011629486834826818 -0.015043371095004355 -0.044580064400375284 -0.02360254984248562 -0.02170050660226965 -0.00022422021343796597 
intempestif 0.002519971924946393 -0.025299469927218366 0.0055090112280429225 -0.03796771428999659 -0.007345891078621777 0.01840461899382384 0.029947379114149977 -0.037803972277241346 0.029318969302791795 -0.026299881526122604 
bloc -0.02663389385762207 -0.024141652044237665 0.017850208419010465 -0.03543215258334664 -0.007866360556791848 -0.02564009256775717 0.008228480367177412 0.002265963297578431 0.015420065812957422 -0.020353942687098146 
animal 0.024295250399085148 -0.04116113949948164 0.024037777416994918 -0.01330728923426511 0.04425836933808975 -0.016298535241452607 -0.013550436997305118 0.0016990583210939986 0.02464605881430479 -0.028881857616932644 
nudg -0.047422458679646284 -0.03865237033202364 0.008974296429382843 -0.018906744067955405 0.014042720598252869 0.046821607887960866 -0.0465599325356193 -0.037748800161005534 0.030443386135822637 0.016335811320046047 
priveer -0.0153408310391275 0.0008014609908169347 0.042890089562285315 -0.043130385561955566 0.027942846211541594 -0.04134555191523207 0.015213559083842353 -0.04831116822576607 -0.004242059417959014 0.004047825965164736 
plein -0.033637060471483314 0.02622766970369985 0.03957280722959526 0.03768394673696396 -0.04709849451046606 -0.04501315011034447 -0.010562693386759808 0.009083889998328123 -0.02266519949444579 0.024183531355970324 
tipp 0.01615642621197907 -0.02287612149680566 0.04435113427366532 -0.003362089383034341 -0.012667127189219602 0.013778434286958092 0.010220297595062147 0.026453103671687867 0.03357645237001272 0.02846898861907296 
communer 0.0035511778686697524 0.04025841000493638 0.0206075528276684 -0.007596468161171886 -0.03421823353811767 -0.03242585797893901 -0.023820643525165233 -0.021462854347723867 0.01965292271326933 -0.022971086470667174 
terre -0.03471880042146429 -0.004578057553066247 -0.044660786408309866 0.03757188196311342 -0.04796186373241182 -0.007138575091356092 0.009245314383443615 -0.047640504455854736 0.015816811692651325 0.024336555746998566 
conception 0.03072659680361865 0.016159661163169296 0.0006156750710166888 0.020124785767253538 -0.03492337723847558 0.010813583674799884 0.017921896681566216 -0.03500355816251798 -0.040873111538537385 0.03475339715597269 
perturbe 0.020468632537990937 0.027441198283245326 0.02098926981950037 -0.02964903121598526 -0.030439348153337605 0.04236778195220214 0.0030673188597046884 0.04129921803159378 -0.04807915002679701 -0.008554479375659741 
cassent 0.008160127589162446 0.04846909545550872 -0.04240490067820508 0.006064487644285506 0.018538280635554166 -0.022506242688165295 -0.042761315481751674 -0.04024747745111858 0.01761798125120989 0.028992938272817292 
exceder -0.02080560358782539 -0.017556081129077132 -0.04850713016645254 -0.019377545916230175 -0.0489530671311231 -0.029518483879430152 0.023136045300281037 -0.005710538773634763 0.03579159978947281 0.02145197568298845 
leguer 0.011338955110532187 0.02822834376885023 0.019128675768657157 0.03842795646687331 0.045882875874471464 -0.014309136568847206 0.046245516087253184 0.038255314252608114 -0.04892975985164684 0.02420000520919857 
seniors 0.04457644667756597 -0.009912715733950273 -0.000861918595888037 0.040861418289886306 0.02128119427806169 -0.026881613214413947 0.02937608047084023 -0.021408213985067162 0.03882015131603431 -0.022369916640582594 
esthetiqu -0.03309597567730932 0.02567616742103402 -0.016282379971875597 -0.00974888757812986 0.04192413492851986 -0.04689848937413023 0.007568090928443561 0.03277762542140143 -0.049932826183314134 0.03928307879108806 
primordial 0.03673674820302868 0.00046252395926883397 0.026898312192043302 0.04684662535615602 0.017053443187431325 -0.028776464390598906 0.048205561120820736 0.028484383934142727 -0.036362370303065314 0.017075151465915487 
sncf -0.041537381175336736 0.02533026615702189 0.036278694932055856 0.020466368567512508 -0.0332036274997413 0.02920192305480898 -0.0321082784525398 -0.03780739915471389 0.026901782486413995 -0.027877454920341594 
natura -0.009600443263736413 0.02699899157262341 0.049046242248779855 -6.287295725159952e-05 0.010321859854891337 0.01919299437710467 0.04956217786022801 -0.021275112594098766 -0.0007632737306388564 0.0264297443747203 
productive 0.0031677182481693717 -0.007197280336489497 0.025401608913937737 0.020552215994035346 -0.017776283848673725 0.027817616177887212 -0.006024332727583187 0.026819195153827097 -0.043799321413120505 0.02922630257128778 
differencier 0.011656398980660471 0.028483392175802633 -0.04081202028231153 0.008349793693312022 0.03591789220428754 -0.0015992484640597702 -0.03434072978779894 0.0016696650004149884 0.033726278185499024 0.003319533444412343 
reconstituer 0.022435920277171926 0.03433243453232449 -0.041310331692948364 0.009421471114325319 -0.01721588023823286 -0.021639097712120834 -0.04833678115235916 -0.03200546401975055 -0.018965271497084882 -0.012266317524850974 
centrale 0.012209071003940697 0.04370872071044637 0.044064533361977944 -0.0011899165799359537 -0.006837651393075978 0.0003934826622266268 -0.04627521780885252 0.03219088150957618 -0.01816347927349617 -0.0002856660054299873 
enteriner -0.042457681712580596 0.029760028402145384 -0.015555748101725466 -0.027709463028022848 0.03264032525295591 -0.010085776055718537 0.037893522735559085 -0.005072251551976766 -0.029328729982863903 0.016481579157924846 
finance -0.026424413764417894 -0.021734184884187106 0.008361294498585884 0.02258463707705362 0.029280526555447384 -0.03008227483615096 -0.029066778660770152 0.03181651641627156 0.02002249189459106 -0.048586379493628984 
inter -0.03430025613228199 0.03683189775543342 0.003827126068310938 0.01747586809550628 0.0395459871165805 -0.017687889554011935 0.024254787714664088 0.047828249827516746 -0.02472326045867376 -0.02478337335258966 
explique -0.04782743595001844 -0.02836870118266628 0.03548051014768992 0.03811184365342246 -0.037896039165279796 -0.026453003075025218 -0.029496017916281494 0.016850138158017898 0.039398307642778345 -0.039562228970757694 
occuper -0.03390504258106826 0.03662990629021455 0.04487811653106636 -0.04842114811540454 0.015465339626172954 0.00939120596159978 -0.029840974643657404 0.004692849195735535 0.01865160935318127 0.02867186185283445 
convention 0.04770102554504163 -0.025216115751369304 -0.04093735681628415 -0.021426130628294505 -0.0019247350435165535 0.0027760544175808627 0.031910076479170664 0.047917475221559654 -0.005374052394330172 -0.03127085944359098 
separe -0.04317052600753456 0.003696494115532137 0.0367890821252093 -0.04949731607520939 0.014884635246687927 0.047448004128712404 -0.014656764789072142 -0.039128487945121124 -0.043823665546705984 0.028681858230262928 
implique -0.04602149779242265 -0.035633656629547504 0.014773704910420555 -0.0183852061932991 0.0035871031836309315 0.0365079016413011 -0.015313910744217587 -0.03447064062757186 0.023808487569357148 0.004425677976405478 
publier -0.032385887298185805 0.025556743768190497 -0.024378908213431045 0.04371239491116802 -0.026297391342403206 -0.047505932008115134 -0.012708841644137648 0.02038252847693822 -0.03847751065049298 0.0460908275985654 
contourne 0.013520135015657823 -0.025484361418819868 -0.04980223408480148 0.021668860944888887 -0.013846837565301381 0.024262484321637048 0.008909451285102067 -0.03462059704712896 0.03965161154788127 0.004180930419153284 
surproduir -0.031165073805308932 0.021359244735305576 -0.025957538086460855 -0.03594593496799961 0.00773897870927768 -0.008311173678758573 0.007595752511943517 -0.049763944217574484 -0.04371646697519222 -0.03855908021330895 
contradictoire -0.003669014630228942 0.03514298847458164 0.00983484200158552 0.02314215790428775 0.02770574781567463 0.04055157399894565 -0.02937744355694841 0.049130150140606094 -0.03030840572698077 0.04377631703012587 
senior -0.030768733392817077 -0.038067205228157625 0.043476289716240166 -0.04117800735326514 0.01364214827220808 -0.04210159071296813 0.03537732898605812 0.014277312748921583 -0.04898275686393752 -0.03149667561950636 
chercheur 0.02938208046360591 0.034350421786932456 0.003141812644807574 -0.03610465214541541 0.03865389075957495 -0.049608074384698525 0.031076210704977198 0.006037569755513517 0.012383066169721615 0.02556512374653158 
eloigne 0.04142861112998429 -0.002186694864625558 0.04735134355019733 0.031174061703361806 -0.034553133537925794 -0.030371912644419085 0.03407924851260467 -0.0480176860152199 -0.030008739521772656 0.0092823470540624 
aeronef -0.043509303100511584 -0.0304434839667593 0.004960822141100802 0.015362828405764828 0.0053822268496907825 0.019301466272893555 -0.043386231089228004 0.009442749754387138 -0.03355759773459674 -0.030228165086330482 
mobilier -0.017101090396647065 0.009571623717691746 -0.0076423206775971695 0.04578512199425526 -0.04127840246744758 -0.02427509873387357 -0.021200070408943294 0.04521745349981613 -0.02489212455461784 0.04034040760930961 
venter 0.033267345964377054 0.04635019707063983 -0.009259554003703877 -0.0381350214821445 0.03292655825845181 0.047698743227382004 0.009527089013898258 -0.03945933611535212 -0.004960341503887012 -0.03532978368833861 
hyper 0.006763661294537943 0.025747940896128765 0.00919990317746419 0.01503391599417953 0.018614468628088254 -0.04715625646002538 -0.011845982718030565 0.04362310112891161 0.02749766735674487 0.0177148043134067 
ferme 0.02198314213146051 0.02428332116398377 -0.01804455065564423 -0.022626126559176965 -0.005124517510691894 -0.017949353306155078 -0.047474838928352164 0.009610976563238395 0.0050319172131613995 -0.015960664899631428 
alternance 0.009482237265946903 0.01980541490652608 -0.043720798560683276 0.015547053310417077 -0.02882025369958075 0.02520424315939322 -0.025383747643653316 0.02999855552368169 -0.004765632753727352 -0.01580900196781353 
filtrees -0.0221551336677818 0.041488606906343775 -0.032152986376407636 -0.02832142184889123 0.005360914015777893 0.015453716356165362 -0.0017708143749401654 -0.04083325930127247 0.0054784591091103655 -0.008232332791172671 
licorne -0.021516056358406893 -0.038861716550391036 -0.008949487785394542 0.02027328906697481 -0.023516908827777582 -0.004288306390766074 0.030717867977171943 0.01709588022472636 0.027169212932128057 -0.025465574485087322 
omnivore -0.03481967299651181 0.008655922843697395 -0.015212275728553406 0.04091582994879297 0.009084508130171835 0.006292241526329838 -0.04211101972672078 0.0073400744833643315 -0.03080443688639992 0.016851615549638724 
insertion 0.04590834416744199 0.0226557544147699 0.03928170270307184 -0.003868174302707374 0.039849040970452505 0.04698687856867741 -0.02764919942701354 0.017081572452435863 0.0407305197818103 -0.023215779942463034 
potentiellement -0.01226157999070694 0.03709915526056207 -0.02875854441203531 0.04789893610393711 0.014447797467746626 -0.026734313038789623 -0.03652499466150559 0.002658356891516476 -0.01349377581952933 0.014411463520530916 
kilometrique 0.045338110105625044 0.013856214280174016 -0.025981885155246423 -0.0006401410452242629 0.011413067181897057 0.0037940226051240773 0.00651997272909596 0.02340204575329279 -0.014354943633525491 -0.04194016574977239 
familial 0.04367733159417517 0.029895436808986344 -0.010024334699184713 -0.03754485682171766 0.04944390142102556 0.048466917728351114 0.017299834494825323 0.018039003175636645 -0.0450349598683959 0.017866395059273135 
histoire -0.038862319624638375 -0.010501422073780119 0.013378170710848809 0.03926076994177988 0.01487172186076377 0.03677444180573561 -0.0020901174934269693 0.04425493032311171 0.014066679661400669 -0.000528456448365822 
ceder 0.002560705619033032 0.01773308354410697 0.029050039811235943 0.02928034412314286 0.04535357633052658 0.0196983610224015 0.0008193412741009902 -0.02707947731445477 0.0324457266654184 -0.001254760529447362 
pietonn 0.03138820655683291 -0.0450639526522877 0.038880254852360276 0.03679146233754668 -0.04777052887369181 -0.007748399206549986 -0.04353564877933561 -0.048352372320376306 -0.016165801256227127 -0.040884527684535495 
tropical 0.007967602808875646 -0.04238315050099007 0.048989999189659364 -0.02651742226787453 -0.019798539931213062 -0.02986195962166177 0.028624611021460977 0.0030973069480498615 -0.003694215605547844 -0.0038801978022023546 
refection 0.0009682704645382076 -0.0241306793465167 -0.01471984061415806 0.024706374909894732 -0.02896838715249838 0.012635242391317462 0.02313837716248389 -0.010577192456840061 0.019280571309157127 0.029181109136114027 
depollutier 0.01195747490509003 0.0029775612875429422 0.04102437187133591 -0.03802487147765007 0.021138444040403784 -0.03633827561051031 -0.0303156458196161 -0.014830301387094772 0.035759507123232274 -0.024132038988354823 
peindre -0.004012727773727431 -0.027667583632769888 -0.005026616103377081 -0.014210037811599189 0.015063145285366748 0.04676528588632124 0.043422906888846764 0.015638300220058878 0.02913981747787321 -0.019538559040569708 
notation 0.007624495660431436 0.02190378309323522 0.031143576309787615 0.028060142188514717 0.008451824281192755 -0.010591997777528606 0.020663149821424604 0.02590548360978591 -0.024039348711372168 -0.022234873480661894 
respirer -0.03583754307659195 0.01716894390927 -0.0004106454897848356 0.03809319181390301 -0.0298889792087941 0.006061538770885571 0.04200957179955468 0.024548656911032703 0.04637426906059085 -0.006602801126572774 
piscine -0.045786512025185216 -0.048733955937497284 -0.04639036312714902 -0.018855067735841204 -0.03300819480701952 -0.0027274739431012458 0.020723450454805628 -0.035726865892233714 -0.026172902298534462 0.0270367458031047 
assurer -0.030087094942322135 -0.042533420781367036 -0.010115897417051758 0.02649550223052684 -0.0356166464368941 -0.02708611311046974 -0.02747621776306454 0.028399779461048564 -0.026398556004860716 0.030996633777547248 
amidon -0.026835166567541556 0.019036240896792223 0.03833917808094081 0.02556840515518029 -0.02148614250235505 -0.023955419494508433 0.030570578358985922 -0.04940467790888121 0.019283294603857252 -0.038871265559709454 
vraiment 0.013362907183342381 0.03356153426216151 -0.026918051577452327 -0.04439451319614951 -0.03288309653983501 -0.024111648213333108 0.02346683668627342 0.02129234977719111 -0.03357405472554961 -0.025125536359126982 
sequestration 0.011014921014739764 -0.027833334945738673 0.04601896960568222 -0.013680580699909848 0.02733922082582474 0.04960063984797324 -0.04311659899870692 0.04330773388071489 0.02621903833636121 0.023123168606809828 
hysterie -0.0013818633807566494 -0.014787640905907784 0.012793177047012603 -0.021988003231020962 0.04051682696419217 0.041202349101309925 -0.034370194219976995 -0.039134121213551254 -0.0018611815663415936 0.04187431474624207 
epandage 0.032137970798752136 -0.028465659521858963 0.03444211992274023 -0.020547713792077434 0.024608677320690373 -0.012224172617840584 -0.00824463618243158 0.04716055277427003 -0.0016092501393326424 -0.004274123800248543 
preconisation -0.04730024528517238 0.0317714787228148 -0.009167278339564511 0.03175667268135927 -0.04570013812742557 0.040342069360196936 0.029319257461235558 -0.048036696814032206 0.018650357514248424 -0.03761297057319524 
depensee -0.015657284230714687 0.04297585516583468 0.024729607498528147 0.029732754877935655 -0.019043971255348232 0.021201311969602937 0.01310117371358669 -0.04646016802572786 0.02404274824080758 -0.03859751458426229 
village -0.03569037815434923 -0.014578773624932987 -0.01849891065367763 0.0013314418609184162 -0.014524594653849454 -0.019951351886974156 0.03466225566290592 -0.018313276381139283 -0.012118997096051111 0.03129360283137664 
biocide 0.043081453019963044 -0.008200815681853766 -0.038169989345648886 -0.042011400937989204 -0.02139492290950165 0.0153351636609638 -0.002511899319641424 0.03204375334392843 -0.013110626941591621 -0.013166352753048144 
surconsommation 0.030396711442024996 -0.03989854311780191 0.0030043265994464732 -0.038583054548236496 0.021134623666128678 0.04841716540667488 -0.04329882741544492 0.015084734463137437 0.034743477616748834 -0.01769690430201551 
uniformise -0.040174765887428895 0.010243448187790686 0.018728140504203447 -0.03959982475888554 0.04076587830891678 0.049868173031311795 -0.04229496550326047 -0.04310610010395451 0.020081896018713206 -0.016232861298927207 
trajet 0.02237508712848016 -0.01882224215168416 0.02175766399532628 0.007049634522695612 0.04675344633535725 -0.0019701255273072323 -0.008534767733883833 0.003243920097076317 -0.011079700831330974 -0.026322607543982506 
ion -0.04648164449236177 -0.01143439982955453 -0.03826515987507206 -0.021002564261775075 -0.025923208005435534 0.006219996596185501 0.034647735201746285 0.03959442319643224 0.014767623941038633 -0.01593976417479736 
alimentaire -0.049207222871364455 0.04146293154829907 -0.03145673896341895 -0.0030052413531957904 0.015640529107706847 -0.005898040760431228 0.026656341492063508 0.014499817682203969 0.0015265964839577418 -0.04365592522015016 
pantone -0.03821584115814421 -0.018933679581519466 0.006349016375584117 -0.03597907596546775 0.04511201765733691 0.028352371247845832 -0.005421415410416276 -0.020261588362500464 0.03333701432176056 -0.029393921891016427 
equipeer -0.0475865101180656 -0.01803282969549507 0.028928570365851617 0.015138588443820974 0.010127341214501226 -0.010101278131249345 0.011430138552504663 0.01870625780596934 0.018976662880304515 0.014367735751923008 
offusquer 0.018665226785256443 -0.0251095314477307 0.001696913812332799 0.032348214532151046 -0.01855030575564211 -0.02776989653855139 0.03002685830742512 0.047079455534607004 -0.017897183506244536 -0.046999821842677134 
arriver -0.043043702801874896 -0.02705913085991833 0.04376646799523078 0.04705555356118698 0.008285793040988027 -0.013052576174681427 0.0005491940134082615 0.0038667404168117917 -0.003009384783134112 -0.04523009838003284 
uniquement 0.02604482299026116 0.01649280439795648 0.007842564458743494 -0.021819440471701475 -0.011811047007072698 0.04424040810758066 0.03233251166537712 0.018635379466490225 0.02520905401874597 0.03249350469078082 
unep -0.033338954399930065 0.022243130290997875 -0.013168532518032234 -0.025225143094318465 -0.015963771397907292 -0.03506427631393578 0.025034163296229955 0.03347692799021926 -0.04971452350288518 0.028379559271338787 
renouveller 0.011974318999283333 -0.04217706688004528 -0.032366846612142286 -0.04881985987620583 -0.02200299062440272 0.049833069463373056 0.04738740961182123 0.03545662084551348 0.046374481369761224 -0.017423889174923695 
border -0.006205154088115151 -0.0344122250009824 0.0020648154752144912 0.041054397814824825 0.0468355762831444 -0.04931897117360914 0.007086202731359244 -0.02284756698290197 0.047190547129995986 -0.035232819168776984 
banlieue 0.01831020245021731 -0.008460485816017077 -0.03728410063453009 0.04257937148035863 -0.006013849838570355 -0.016677639649016213 -0.049945739851376555 0.022566064652062623 -0.010198065108156119 0.011319467353965152 
eurovision 0.015290382590484201 0.027672580490871526 -0.0006003533777330363 0.04457199631763735 0.014643986541344177 -0.017917334528980127 0.035606310885988236 0.03363828746639692 -0.04060325391182078 0.024677093315517384 
chair -0.0037410264812740555 -0.026995399355048303 -0.026777251123256008 0.04826502863736103 0.0076026665152888065 -0.028970077164973046 0.049122093899846654 0.010862817059873053 0.03180502162573231 0.02230157765982887 
gouttiere -0.018260698185709457 0.00016770385438471787 -0.006065207258778298 -0.03713216756511869 0.016862687822656753 0.04910678313199035 -0.022292034172620247 -0.049815817499589986 0.03061617906142787 0.015210931074328674 
surpeuple -0.03174663442962394 -0.04754243329833117 0.01564960932489548 0.011648751116904605 -0.03602690938401857 -0.036258312510096855 -0.01667329819592966 -0.006285790592377488 0.04530245668976726 -0.04156894757566195 
hydro -0.04724102257985361 -0.011478543385625468 0.045890347034520336 0.03231188313791899 0.017784101430495882 -0.042741931146115436 0.03510857125184806 -0.03149974366337035 0.03295912525908853 0.0384130763095694 
berge -0.01994686373838239 -0.018914518434989234 -0.020676986111719628 -0.008507040470084184 -0.022856447914961366 0.028481087762393335 -0.049794927388566765 -0.03752926021716005 -0.04617675577366939 0.021186152941825943 
naviguer 0.04305360836178732 0.03533484265241113 -0.004210609392222057 0.0030392950167350274 0.04905797723501096 0.013519023087869723 0.04464554202342158 -0.008020975421575902 -0.04747191181252476 0.013757761677369645 
discussion 0.009114566224904568 -0.013441778732808708 0.001820219025736275 0.004681739223294487 -0.04941677528012108 0.04048155216626233 0.019623273479292234 0.026543716217281483 0.044470140429366076 -0.01610333230742578 
voix 0.009826416480688011 -0.010935248384808183 0.016952499592867872 -0.042772979388462376 -0.01757229620273199 -0.0018011915426277725 0.023682376413379447 -0.033020667152593795 0.02174515872620677 -0.036155307440867035 
activer 0.0011845038150073166 -0.02935958876268894 0.012793218152546032 -0.024852861609579467 0.04286993509554886 -0.03172815463648399 -0.026482490975155537 0.02212183976553151 0.002809155533824343 0.041368766051950716 
green -0.015273826399572041 -0.032226817398949795 -0.03236509379727036 -0.037708799647892574 -0.03851270359288701 -0.016469660803097735 0.014413687907997554 0.023663670298609028 -0.007055731913534127 0.003799922732030639 
environnement 0.021829434207961542 0.009877057139833135 0.006089567164033705 -0.05138786664304235 -0.04059294957076855 -0.0071620681509389945 -0.04808402349835675 -0.038750870793831486 0.0466245620219956 -0.014789776340990926 
alcalin -0.04050436242264769 0.0010376224860974457 0.04257084764601669 -0.021104088275590547 0.03654925857274748 -0.010660050652248912 0.04234491876282166 -0.030816797434871007 -0.04907693803312407 -0.04899593829888053 
imprime 0.016442688944568462 -0.023810914861109714 -0.04396186129623928 -0.018782724844279227 -0.03912514014882225 0.030225624828785803 0.030946209529247547 -0.023025550766245035 0.014930874046099862 -0.006315133881512863 
pleins -0.027265996735531314 0.03226706606893057 0.011652391972404285 0.0004732993346545405 0.03328481012412202 0.029444953504104244 0.036741709191723176 0.0057135759685319155 -0.029637123478977418 0.01942793798624076 
accer -0.0257009404448471 0.047151579194542464 -0.026654382158951124 -0.019485743931982637 -0.023906800985288516 0.007157932458711454 -0.0205243804218591 0.00551774661000868 0.03523779365241837 0.023738162116419624 
trouble -0.020324782209215946 0.04189959568366491 0.02468732077650251 0.04104273775426623 0.041763464713552745 0.031340433285139364 -0.02190686167041721 0.02781115646320542 -0.024893600824976797 0.049923825524147966 
fondamentalement -0.04245423292789062 -0.024755173252608703 0.017346853916501807 -0.01974481419984902 0.04194541834656187 -0.014446089428501013 0.011160598832756757 -0.01314907742376301 0.04048545972136884 0.04132481488999837 
terrible 0.0027490243739716628 -0.02306725458112909 0.0365424997822686 0.014899781546056323 -0.04240625475123908 -0.012329547163145523 0.02939957009439652 -0.01531783445916391 0.03424856675360352 0.01254109924975776 
