7231 20
potentiel 0.00973782139400213 0.018172347707017915 0.02109663402974108 0.019680159227307887 0.010703693473733998 0.02352344357606469 -0.024216898099704575 0.008727510913984514 -0.005638920412741105 -0.021875347512116065 0.005140803584884912 0.024175171337940598 0.017192771159796654 -0.02460345189102313 -0.0043545178686428 -0.011435149557656213 -0.01591933556391605 -0.013817613956165932 -0.02072697466930879 -0.017260320964412042 
nom -0.0109793014270514 0.024162032589120173 -0.024592378106420912 0.012169509111056293 0.022117741232656012 -0.000977702739753445 -0.0034422468183197027 0.016407938396896245 -0.005163581943590804 0.023440477831747138 0.017182706675532174 0.007419738473721132 -0.006296806150942899 0.020180763172221356 0.0020049234382022835 -0.0161855214664183 -0.01312437127245264 0.017579112502793388 -0.015084791892195075 -0.01767782577474103 
pro -0.023817516098277616 -0.005662578016711891 -0.017098229840735668 0.01396067871846415 0.001466843034807846 -0.008468722170363825 -0.01700494275331958 -0.0019535638058927603 -0.0004881861447959896 0.011124306326115309 0.014058878884175764 0.02405455431467716 -0.0032331445881960156 0.02250947531667342 -0.011974378908174356 0.022076739614840635 -0.005888462993075202 -0.010922536054181364 -0.007064014806988951 0.019538420901773032 
import -0.006738053370878109 0.018429650116121944 -0.023577891332941688 0.0019989627127247342 -0.02400034661048217 0.021542754937138458 0.009397807081570897 0.012566244784046441 0.011640937821755501 -0.010642543505806913 -0.010617956847571622 0.017229290152802224 -0.01830704051589519 0.006448220669329621 -0.0032823233900923484 -0.002928041292393423 0.013161516956903528 0.02330567952646485 -0.00020020485397379356 -0.0031846043816301287 
chaud 0.013018161820484478 0.023474535444593277 -0.021306797601323837 -0.02266321446987224 -0.007265056880974686 -0.007504032001007988 0.013584158032269242 0.013201140415569778 -0.023329002620193436 0.019852588410989424 0.022947713978634328 0.012948188435136718 0.014781968122982445 -0.0015471410091425664 -0.009200460587996208 0.009819313361525013 -0.009048726676688679 -0.0032445697122228867 -0.008385263091414045 -0.01750908424278853 
ami 0.0005447457521595368 -0.01994484892458782 -0.011861123355403685 -0.02456215302692377 -0.007583739886976609 -0.024340281125629665 -0.017613404469277498 -0.024786755866846675 -0.022767190986954115 0.011675623590507245 0.021161084691914106 -0.016823499957826723 -0.011783277984468416 0.0049104909027634785 -0.008426141411555817 -0.020052190918088634 0.010947006269053074 -0.02270487675486316 0.016288424862080368 -0.01854868177598945 
couter 0.023228069692677752 0.0238161640921321 0.018032976860279038 -0.020780373972661532 -0.010784361961827985 -0.020495364497496754 -0.0029957947462647136 0.019557992924798852 -0.009407211845652878 0.0048125779637847735 0.022244042271031605 0.01608553729222559 0.0009971071986665339 -0.01386508500185907 -0.01950077054017747 -0.006626433575068596 -0.019963248596800095 -0.013842296647805155 0.016810398094947356 -0.0023566420811326435 
info 0.003868290391496835 0.008607169996870492 0.007245569616232722 -0.008047331420736888 0.010540464935446718 -0.011001134469314382 0.018712151034302335 -0.01861256918121594 -0.02327879922352175 -0.011322782265087384 0.0009567532074158848 0.0036232694944644665 0.023482237516686218 -0.022505568738952774 0.013856783279732526 0.018347336682253534 -0.016038086646849917 -0.02162466479989181 -0.011432431407390276 -0.01935141060647051 
paneuropeenn 0.015729674581223468 -0.02312908435786035 -0.017050147962876093 -0.007722011204956723 -0.021729328384872588 -0.008083006595020674 0.014708203379815267 0.0015950308904421305 0.022368036002346867 0.022152085564706554 -0.002770117233731465 -0.0223384336007308 0.016745554492868645 -0.016774344944313024 0.012605587961013598 0.02446222313643222 0.003179333451698913 -0.009511193261118003 -0.020538607234001208 -0.017035221251715502 
revocatoir -0.0029326722992071372 0.011155552004720268 0.012504592850173598 0.005340776601803077 -0.01966267291255809 0.01653094083482481 0.008130437723157656 0.024606179341705815 0.00936317579756974 -0.021328046278966742 0.015465640282554947 -0.01583378576863945 -0.011363618476230259 0.009995854172707333 0.0014447986320625032 -0.023338950821972494 -0.01329899167177604 -0.004342128327226435 0.0015768362302657703 0.009725461243173687 
bloc 0.017318924605094956 0.011604054106176789 -0.022945267905001693 -0.009663959945420486 -0.011054651494080173 -0.020368897185616713 0.011628745912817113 -0.01834930835432132 -0.0016953752673066053 -0.01564619546421891 -0.0006226032769812904 -0.0041922390824111104 -0.024095747890475878 -0.004627412154941427 -0.02207267831078481 0.0032159478423365827 0.019636163360560725 0.010127005729938495 0.0020352805626930575 0.00464443484719199 
douteux -0.0022430825728384585 0.00848896850403164 0.010540787452397025 -0.0023847610245689064 0.023940211212503087 -0.0039007901644900777 -0.0221729093471574 -0.020949388173933277 0.021550640506064138 0.014607681546958703 -0.00876878655849767 -0.02218028839591372 -0.012755335446197275 -0.022368617669744892 0.021888472853009638 -0.01751172021686937 -0.010263748100208296 -0.024549192364768636 0.001960862701738657 -0.011409008667331102 
bareme 0.002712976105215065 -0.02329374010253938 -0.0179798334208531 0.02489168528547921 -0.00701170420267025 -0.00967998719056237 0.023941679262477967 0.0119876776668648 0.0019695111309002873 -0.004156241004663423 0.02500153847106236 0.009877450583254033 -0.0011730260070883629 -0.009691223241365808 0.009095226928257453 -0.018725516036807093 0.0009279619554218445 -0.022527212501146865 -0.008871545906930825 0.01691971994097629 
constructible 0.022150673906959063 -0.007820196824231485 -0.023746189949387306 0.008742090211918508 -0.008439459691789887 0.011200087387820688 -0.02270570784048908 -0.021343570929804746 -0.000961855101874495 -0.014357051101508578 -0.014190729143508092 0.004213944508147502 -0.022699056259075014 -0.007168479270216028 0.004481452010851315 -0.018583523467687314 0.009246733655447242 0.014469024650338844 0.00338661104214081 0.007237596316336981 
remboursent -0.01414668860406746 -0.0053633638909768465 0.014156783839367247 -0.023303989286828725 0.01746420630929442 0.007067510685257022 0.005142859298601729 0.00352682446359416 -0.009362169796763289 0.015554917715414012 -0.008614842747204685 -0.021769230039503314 -3.513218473354447e-05 -0.0087161100099992 -0.018308957258470232 -0.02182328073168778 0.015183943043536546 0.01594818740100566 0.01595783215121979 0.013771363649735987 
transnational -0.007324730034826592 -0.011432192084900782 0.012807183429260464 -0.02333620904770546 0.008766657783889516 -0.02300649874514721 0.015268004698645346 -0.017584836730323204 0.01840288037523603 -0.02182937815359257 0.022023965383988334 0.002375342738228557 -0.01091530192420108 -0.004130079306082622 0.018891016983855136 0.0019162201467871024 -0.009350483058538972 0.011411248803108889 -0.0156278669578844 -0.015699711868142348 
entree -0.01846279664333898 0.02035300946459451 -0.01376552359921806 -0.011858498883803177 -0.004476924034728171 0.015154047368772851 -0.007393643908786973 -0.000551618429498131 0.004467409137629746 -0.0024400345074713533 0.004502895853232664 0.013871657093279206 -0.022429154758890946 -0.01571641586344961 0.0005279824836910647 0.010953988038220553 0.011107107647534805 0.009768533863488369 0.009480561988619657 -0.019725611651521043 
nobel -0.01489978920585155 -0.011088533060130057 -0.012252236808637252 -0.0005155733094963996 -0.023746264381363003 -0.021519052798347666 0.0132055078142536 -0.020071035537449933 -0.014950508683899442 -0.006438647272911818 -0.02319091637830442 0.008154291060013055 0.012085045290288563 0.021899063607937044 -0.006035615500425183 0.012032182800418604 0.017357993385048124 -0.015883497066586497 -0.013659132579979354 -0.005503016120157416 
biodechet -0.020021377884584954 0.01049918233380788 0.008617931560231782 0.0067936176191096135 -0.015856354289063287 0.024183333468549624 -0.008633246386825902 -0.007181359633785731 0.00232890841860489 0.004169314340631859 0.010118571191588483 -0.0011574834220874101 -0.02402505528349825 0.016247988557734874 -0.006241884907960195 -0.022203468094917553 -0.023585730898177705 -0.002404754886479859 0.0033260568907590507 -0.010654490762695718 
dependron 0.018346895203649606 0.010350568874660994 -0.023255212841710376 -0.002993282419438243 -0.012776138571574669 -0.019111347959438245 -0.004992956229610845 0.020131211241193315 0.021307284532981596 -0.012872162962332161 -0.012307608717181166 -0.0026423237833795806 0.021520002355612827 0.012430234246652655 0.0014550582960766929 -0.02475261537170742 -0.010542056566771754 -0.01921657265333031 -0.009228638032416822 0.008649902694082265 
intergenerationnelle 0.01776378184853638 -0.006927507722848279 -0.012871877130430046 0.01078972024719883 -0.00721043123969744 0.017670526366944283 0.007188580076224163 0.023046360614983476 -0.01878631616561357 0.01739636078781206 0.007394955478441911 0.021846114512242578 -0.021101115279696613 -0.004415511346085539 -0.014336186901683728 -0.0033483868600622554 0.0191831691600939 0.004601101292906186 -0.019805067709103886 0.002847705064011234 
maternel 6.139093990745825e-05 0.0027376083512269276 0.022120176270636203 -0.018560035391042055 0.0212692441495058 0.00010153979119888009 -0.011088756724197993 -0.02383420593544592 -0.0026558029214182846 0.0046314167245838115 0.017775682295843732 -0.023713053416587988 -0.016671551164595462 0.010507424825502808 0.012991083700924624 -0.010634757612222531 0.008618974333506122 -0.01695175333396628 0.018468703699862126 0.01566164551497133 
utilisees -0.009810200816989577 -0.003881700261190571 0.00021612150727001492 0.012319437453123024 0.020820191333695674 -0.020512328543456637 0.0009605558260320726 -0.004617193301399989 -0.0003088979796302636 0.020020735408243152 0.009311861886936005 -0.00654057704670653 -0.01602048523801654 -0.00934112726526533 0.02119489316098516 -0.004931874851542038 0.004779804737140489 -0.010235107760410882 0.0036487155361237577 0.021583913798299867 
appartement -0.00026469125733857987 -0.007142460086777075 0.024673994581248564 -0.015135712953883065 0.015882959586059682 0.01968694727432137 0.023845501325595375 -0.005104893111108839 -0.021616890801409792 -0.020012026095028345 -0.023930055982011623 0.010561342062647243 -0.024530801102676608 0.02144116979242184 -0.008928280872496749 0.020967894478397035 0.023462687757953737 -0.022063172696258675 -0.00930711561292595 -0.017506079146832595 
strategie 0.006239757494947749 -0.02106813116324483 -0.004411344821525181 0.004986112034979979 -0.013833692326360192 0.019907708891929915 -0.018472797339755796 0.016410343668271064 0.007959654260739626 0.017162280602088083 -0.014579328117477858 -0.0034530114137035577 -6.797008806875779e-05 -0.02197107274662772 2.730838731636715e-05 -0.004042804723619917 0.0033704442849131202 -0.006871800716310755 0.0011502622033861347 0.007822324283395765 
scanner -0.022199621205482058 -0.020616260814603268 -0.00012037658723737155 -0.0018526204475823602 0.004142005871407604 0.013565083899010911 -0.013143689188234272 0.002307475460543661 -0.018344609913393314 -0.0027886366985607437 0.024914660151751245 0.006177471708099255 0.011939391934242243 0.022974856110708233 0.008674740068887703 0.021840915683744373 0.01261358418993926 -0.019831035732994034 -0.024140306467179334 -0.0068039846716595465 
intitule 0.009858990994625649 0.021821006657055223 -0.022769573310327196 -0.01588799833079233 -0.015870512749077217 0.014888405478635085 0.00773683973755233 0.015185524228214963 0.01965313573682809 0.021346425984124312 0.012022057271278459 -0.010967193728987837 0.023404833929538536 -0.01813599455303407 -0.0009659386937624994 -0.015249994169562782 -0.012125431576567562 -0.0033332155062726506 -0.015450732489028288 0.0024631460951715866 
conception 0.0005821689877383347 0.018536499211666155 -0.020826887145057586 -0.010821752253288526 -0.006118665976348781 0.01776319219618638 0.0031465146302431064 0.007465189287742025 0.021883405881967105 0.00419188723863213 0.021513279243550714 -0.002910618923800329 0.0029369080026254305 -0.014139620906012704 -0.01836534393395518 0.01442952515766669 -0.004973720845442372 0.016317492199534378 0.011696351679161665 0.02115639212284345 
agenda 0.008845516669036883 -0.013739196620218896 0.022384521190046094 -0.013475400779260996 0.002583256097597857 0.014484143984607501 -0.023537169511829183 -0.010971867146713403 -0.002050614247109336 -0.01732835854427955 0.018843620281823414 0.01747824194534977 0.014827842163037494 -0.014740678259838994 0.02001737826451137 0.0168599967816892 -0.013014780144361408 0.016088013465962114 0.01101434488921173 -0.020467473370286114 
dent -0.012850163163625876 -0.024711094454970405 0.003782695860025268 -0.016365072213958307 0.014130952273135568 0.00834194589875328 -0.010132160010209168 0.017317795618445 0.01746378955117371 -0.013334265664404746 -0.007441548260753558 -0.01458864869122394 -0.0008981739870863179 0.015847068124130916 0.006953740427582732 -0.021794930514725 0.018233622155744048 0.025114281680934693 -0.007859185858813294 0.002998232817322181 
justice 0.014122113614732432 -0.01268683387964935 0.02402057612734621 0.019615290266630527 -0.019638135000124003 0.02363825429829668 0.0074932097239653805 -0.0022633969681330503 -0.0005158327870267911 0.015929965069714426 0.003971778656605794 0.013636311946167917 -0.024945599575541755 0.013039202802571655 0.009644650366405737 -0.015506143320707 0.018212858215923642 -0.0002911617540616623 -0.000626316008453329 -0.015433283212251247 
cycliste -0.004338411100004301 0.004435386522832842 -0.005590307624018281 0.0021707462113797534 0.01467026785787217 0.0020527747422845774 -0.02380901109425481 -0.010196939714104451 0.005648583966584938 0.0014582607159311749 0.02215297748641239 0.022907784557680718 -0.012759757954320843 -0.00020707678416593568 0.01087720633130473 0.006353768390080312 -0.010108720229084224 0.013257884433135553 0.013882087007699323 0.008465274725501782 
crees -0.009705094842984993 0.024978672979050726 0.013676913582761682 -0.020864136943308548 0.010541943047509326 0.001193865120625271 -0.016611694809670948 -0.012547484300295522 -0.008851721318063109 -0.01924918955031327 -0.0066810312330765325 -0.009247029974912589 -0.005210765986656356 0.015693307251135564 0.023796205677309903 0.012725721010962749 0.009500659347183098 0.00495643683804425 -0.018437444061939395 0.017407983074551606 
chedigny -0.01746454861222872 0.00011187381918918548 0.017934936425339193 -0.015523604690451956 0.017731028769232174 0.005602784698176381 -0.02429981007664957 -0.023568928903601478 0.003989845648971797 0.01765179434886282 -0.011996998972344523 -0.024946267148801063 -0.022128174065659374 -0.010459320115321667 -0.01184842817386124 -0.018892673048011167 0.015292253930241941 -0.010157163692247928 0.006349354591556469 -0.0115051880464062 
present 0.014261330641961696 0.018984898548580154 -0.005268143662258073 0.0031194785497846078 0.015506670841962835 0.021619672665315275 -0.014668195370765936 -0.0005720263867813236 -0.0007385147397650355 0.02355611012406136 0.0014538027857972727 0.007302071733327542 -0.006371337827686153 0.00011242226882331685 -0.018909145967798392 -0.0013075097179539633 0.017682968316355293 0.01755790829294475 0.00838495068808345 0.006640234561267578 
contre -0.003959435853724145 -0.00931808241664259 0.012707081191308457 -0.013511803231711559 -0.018122656697832928 -0.0204046481215814 0.022462027987594824 -0.021035139645100363 -0.005732319200086915 -0.007941422028664841 0.01455618181045444 0.025114191221212813 -0.015748747997452028 -0.006665336793691361 0.022030555744087167 0.026363145902372306 0.021770304337448622 0.0020340154765269955 0.021437708384529658 0.022442458025704222 
immondice 0.015295555041688018 -0.005649710531633078 -0.01209528132159935 -0.0038925790634383377 -0.003139816583317463 -0.013403494101982877 0.0013450124351958189 -0.0017746254226970357 0.008265441939437065 -0.015508685583977583 0.012723353383830037 0.00526570420978611 0.017352389407928537 -0.00561797587918811 -0.00866889589454507 0.007099015344781932 0.009135680394092491 0.01153416018366891 0.011299768310460333 0.019716086844425263 
poid 0.01961617667936286 0.015261774280510888 0.009215135622756339 -0.01506018808655236 -0.018020756584222076 -0.023631183864142345 -0.0019709286304991592 0.02046335880935922 -0.020750579417905854 -0.005263720608897813 0.0011650025489645596 -0.004526662027657719 -0.003365444947310072 0.006319080572606417 0.00525358037075798 0.021986475473750794 0.010778353191633788 0.02173220125019093 0.022724901945240173 -0.0227313132379502 
ultra -0.016080212272139644 0.024518746208261565 -0.008448740997963658 0.0073979359066703694 -0.006788489084115518 0.008212959730418079 -0.0005992126497287801 -0.00943170639448384 -0.0016730778703405395 -0.016835021259502456 0.011962194496099556 0.010910536364957077 -0.01571472036259519 -0.02205789821632122 0.008227996039037146 -0.0202441151126074 -0.016929294939395288 0.0075211006400198776 -0.02457274410019991 0.0019818997889841697 
cleanfox 0.023362148554041392 0.0031392538692416373 0.020490444547961863 0.009664246514424156 0.014136368713510348 -0.02248634441777819 -0.02375696534891935 0.004721629980202614 0.01057177179197576 0.008090601125694461 -0.011237629359785757 -0.012660525431828312 0.01765881732932837 -0.022233428242134808 0.021337796248201014 0.010678876812574843 0.019023535019669142 0.006086692335604225 0.0029162760976635723 0.005201287890370286 
ramasser 0.006254364025302217 0.014043029760816816 0.0037412302208985823 0.01897487963242826 0.023363546203703584 0.0034209885826194894 0.022855063329358126 0.0023183253437642553 -0.0027026995873576285 0.004299225630241576 -0.000941448072626332 -0.016915668067787257 -0.016214478893543105 -0.0010702795288425897 0.010649681173760243 0.014961073188501277 -0.004464815985567425 -0.016823020291549286 -0.01410768945064722 0.007464132549246366 
reussir -0.018004309114081535 0.023447950553366893 0.004360105410392443 -0.022143784748450607 0.011572360772527799 0.016916106931244578 0.0061078095728582206 -0.022414156919408845 -0.004585110772525511 -0.0215792809569554 0.022168261688788885 0.010074052326137575 0.010883022526231072 -0.021601166078544592 0.024176033458343845 0.0037275963616759424 -0.012278370156875724 -0.013010837031822474 -0.012009713028276404 -0.007338533121403619 
clivage -0.0065628317753054005 -0.009661361163134286 0.008536127333448005 -0.0024743712582719953 -0.008502437111156825 -0.020279070840577063 0.01905148374902492 0.008090547339569413 -0.008113863463872675 -0.014640901804579637 -0.0002692253792994202 -0.00012138679554925999 -0.024897436606172482 0.009965204111835569 0.012805394797577885 0.023562595678647425 0.005725520649860602 0.017787618451781752 -0.017476401987168 -0.010380392360175107 
facilite -0.014521982350178979 0.013097652165028874 0.023782585259852357 0.009025283926752135 0.0004050029117998254 -0.019229679692543807 -0.019468638574894406 0.01667562447394873 -0.02348646590947154 0.021994360609572786 -0.017801948561752344 0.019757654514152723 0.021167546459084956 -0.015931123655550133 -0.024325465791552904 0.0012000248100613707 -0.024156007692999363 -0.01916268271330983 2.1942009220267703e-06 0.007866654810976677 
apl -0.015363641370069446 -0.008880639463398782 -0.004908875102639122 0.012993151605656644 0.014628352555426525 0.014329493656029346 -0.004161673833233093 0.0238568931731724 0.02492339020915169 0.019854515686815344 0.0012267485242660528 -0.017365180703958198 -0.024192313980912303 -0.016920447980481725 -0.02314884450934358 0.02073299656073067 -0.015217722046654726 0.017769384458564727 -0.01643061979236475 0.016232869982657164 
reel 0.0058940388212345655 0.014601792799256101 0.022070271806788062 0.003889457975497429 -0.021399801707392422 0.023259127064990403 -0.00975709833963639 0.015476117974666302 -0.01010781591561707 -0.018188124614211317 0.0028562392790474653 0.019298810501054742 -0.015369932290186898 0.010812667173772779 0.019904464007469546 -0.017060421301600744 0.02373414154492383 0.021052954825850543 -0.013854464015677224 -0.013998368489029779 
capote -0.020157939024666727 0.010071620574211456 0.023472289576375167 0.017882250251974954 -0.024208759176575275 0.02385360118851321 0.015375434634527957 -0.019221940700819506 -0.013338534010679873 -0.014173710686310124 0.024460963885263472 0.02233661445057365 -0.0030187585498555663 0.01804684374043004 0.005464042846270086 -0.021887360615410224 0.00826113209277217 -0.022626422722709625 -0.005992909153340759 -0.003109228751744239 
evaluer 0.0064471165137910055 0.011470575272279564 -0.007706438741326637 -0.017967459370161473 0.02011454292835417 -0.0023268119745137755 -0.015876522127206107 -0.02151854181336845 0.017671777987423306 0.021836114412934864 -0.011372835146486966 -0.0009638539676302811 0.004106001345297463 -0.0024248326882035302 -0.010317687649755677 -0.010118621803089872 0.018491690870541484 0.006221334426659798 -0.021077708558658318 -0.011537534958473995 
protegeer 0.018620864405313464 0.007437291997839645 0.015604465009950068 0.012253075694677824 0.005774657553396265 -0.020808245994594934 0.008977403065037255 0.015729876421120392 -0.012689932252299849 -0.015732984410990494 0.019939008572444652 -0.022231163838851542 0.02491491843318042 -0.012478047221763273 -0.01159249217285859 -0.010080515123719965 -0.021429231979810393 0.0004994103739959636 0.00031900131551417915 0.021043511412459116 
judicieux 0.023002651512477237 0.005192285947519307 -0.0034851771971084553 0.0105651365706544 -0.005118867504891606 0.02406853076180815 -2.8503498282664613e-06 -0.013504755802360466 0.01367417740923706 0.015063959654282352 0.014465271251722226 0.014856013123758699 0.022282944255167476 0.0018136471151280766 -0.0005474945879606904 -0.002890021139636724 -0.022623518531411934 -0.0070509384140698735 -0.01789074127763251 -0.00879371983449929 
determination -0.01780206163503228 0.024055576821526085 -0.0027697737726704113 0.005730867680847552 -0.01275521066466466 0.008438026813925982 -0.0019818498696481204 -0.002325000189569075 0.01869592621462461 -0.01844159402180392 -0.0137382654147433 0.01644477192533334 -0.009941236752355836 0.009046380217723572 -0.020862825621488355 -0.008396479150130316 -0.018146949475604288 -0.005527834735608994 0.024648164311159286 0.02490809304253501 
compostable 0.006490077495285604 0.021143401082125427 0.012091465731522068 0.011136935182512426 0.002944961133467161 -0.019051475859322025 -0.009825546874709858 -0.0021643891345130757 -0.00995017426959183 0.012129671458788667 -0.009444397766244655 0.023832472913444307 0.021050730305124717 -0.020576365050615983 -0.0010258364328048373 0.007607063372522594 0.003138543522011956 0.016053268690403064 0.010500865869511957 0.0028081691963002904 
degressifs 0.02146151891600394 -0.0190013593441142 0.014458382891533023 0.016926685986501117 -0.024179494081681248 -0.008882355776073936 0.0165298002824631 -0.0007431621231399487 0.0043886253573513076 -0.005512500575030319 0.0006692678753694378 0.006689775186445608 -0.017113244424405004 0.004667844582700393 -0.002786145256524103 0.0020107301335707075 -0.0038130042400469875 0.007783769246095919 0.0050207509161044024 -0.005122865146472352 
sentir -0.022335891341626547 -0.012312812089193447 -0.010162357323633074 -0.018713905995141274 0.00504714101956085 -0.002902690982118255 0.014266571514150082 0.012005063154315323 0.013023584914480494 0.016774487084098056 0.023801602476120887 0.009388348134989729 -0.024969970689555577 -0.007294490462238779 0.0062298781287286635 0.020177245759613147 -0.022353627173950483 0.014896131849969272 0.01833462358169747 -0.015501894364123261 
projet 0.006682386975424779 0.001431920246945484 0.007841521892344484 -0.0021554012062459577 -0.014179023517326958 -0.015622747763269992 0.008728881486509731 -0.014722592047898716 0.007102966491399417 -0.009383686776494957 -0.002198192119248407 0.009467572622049973 -0.016241983363032935 0.01684271925750283 -0.007871690373075883 -0.0019459552467016264 -0.01896181609019818 0.008979918882953701 0.013701066176540003 0.0012963165274811855 
colline -0.020755013014776582 -0.019640354194570022 0.013697735198664636 0.011371373007068048 0.013957479058703448 -0.013461854560521059 -0.0013604146594209756 0.023202320058829422 -0.013100437604050316 0.0248560703519099 -0.012532208590642998 0.01526403941239832 0.019069978239287976 0.003565726109680806 -0.0037905402123062253 -0.021805716196703955 -0.024704715087075002 0.0033924281067133073 0.011430254019728423 0.020768885217070317 
refiler 0.021146546698976507 -0.010739269765606642 -0.007579270652908863 0.002627979890061278 0.004698418676960363 0.009899206684752044 0.01900168454350899 -0.007220159918006122 0.006979211398503822 -0.013863737778059665 -0.018721315524046486 -0.0220037013081468 -0.024924111576112472 0.009553615189397935 -0.003658982446746751 -0.02351075504553829 -0.021925116113283846 -0.016486900184359547 -0.002553414161272971 -0.003236051423279938 
neige -0.017580157910392406 0.0012686142806893268 0.002736330693036635 -0.008918698240663181 0.020865786836258834 -0.01407008640891401 0.009834144050636158 -0.013020663213969379 -0.02049818936028565 0.001375192046508044 0.022613223140355444 -0.0033296108061221506 -0.000257317266880175 -0.008217434587027448 -0.004238952682525346 -0.0035663849829727706 0.024581659058666862 0.000667854041732094 0.004309909817519699 0.006101361510879939 
exploitant 0.02257622360847035 0.017098614433704497 0.017880871243410697 -0.014260822005974618 -0.02224403023385325 -0.013688369976298694 0.0005962085430887664 0.02323617813490864 0.013408021755589921 -0.019373316763612567 -0.019185570197840108 0.022968883772093978 -0.00273465485126981 0.002414783045067214 -0.012400537070165578 -0.0035582022110907234 0.010985505868251581 -0.02332508201242535 0.006994967593914853 0.01592183997028845 
allocation -0.007097326192278349 0.009178342554122608 0.004889349909317667 -0.0036496016712996926 0.0025689621114665085 0.012005884173125198 0.015811824531266484 0.010424406571803322 -0.006842478177627271 0.008485551118981872 0.02419986854471071 4.5825560849058916e-05 0.020378082953315106 0.0023599445989367983 0.013080717893175588 0.0008287383619250101 0.008909968761060424 0.02232626395558956 -0.020791728748322653 -0.012112999100519307 
visa 0.017391689113190237 0.017591703725236437 -0.01276840931318932 9.381498371453953e-05 -0.012853013761562561 -0.008980517480235735 -0.02140627534712258 -0.02190825703430559 -0.016610204812016874 -0.02469072544111691 0.0082437062771796 0.022939436380443445 -0.0154003212403105 0.024431167258337806 -0.0036476946793809212 -0.005513241419815729 -0.0112901253216513 0.02493518747669936 -0.01588240764255066 -0.018523176741286555 
dangereux -0.0011995304085100043 -0.012915274407630973 -0.01694859983669726 0.006715822166107446 0.0005046693971189289 0.008458102708717533 -0.009763746970742357 -0.008741623834908384 0.003674614127882051 0.01221271764665445 0.00884189351167502 0.0054063794875789115 -0.01076436120885903 0.01807689854019984 0.022812127266112914 -0.018141184171362804 0.0018807756308709034 0.00554267118476103 0.015247713686517889 0.00020341062593075068 
pouvoir 0.014038319379187763 -0.013309585559657767 -0.016572677546852474 -0.023595261051504307 -0.01316500073031377 0.001747606030881963 -0.02231796462348549 -0.005464715192977127 0.018392221214734578 0.01708907463000815 0.022943704187162104 -0.0037425899970373005 0.02187481808295108 0.00048011220777267606 0.0023831698404879814 0.0018792253452853788 0.023844423392678154 -0.007219434527293201 -0.023517534444795325 0.01649096223289318 
alcalin 0.0002809458423261171 -0.021080606238409124 0.016673250068594162 -0.011785370410140585 0.01826003099875347 0.005362937551008463 0.009159020560852018 -0.009160986889806879 -0.022926514802647412 -0.021728701416644736 0.02281532883002535 -0.011909188316588772 0.008587518290571345 -0.0006325877675075508 0.01996279411207271 -0.004985187669675384 0.024186984246999995 -0.0001686624367476824 -0.022750652238173255 -0.00972058463466467 
robin 0.012136998350322689 -0.0048681275446323564 -0.005526272772788084 -0.014925347873932092 0.014651166982654795 -0.008542912263975843 0.017715387479916498 -0.008906330831439286 -0.013850768097001745 -0.006262319707162949 -0.02084129626299574 -0.022930855914210083 0.011695421503274166 0.020846380560714448 0.007738592251686082 0.014868427661107346 -0.022472559732278158 0.010487757120010321 -0.007186689336788699 0.020858947310425154 
destination -0.00230570186343622 -0.019513528672927685 0.013516112430164344 -0.0005734637599307578 0.010440846129204708 -0.0054045359870688835 0.003954660021554844 -0.01946989377675316 -0.01250724071578301 0.010753990401834048 -0.009199727015915945 0.019383379341120072 0.007603626183019373 -0.00933903611734717 0.01274785239334407 0.004138192020432513 0.0003279905887523914 0.01578234829131476 0.023127697063982662 0.01302931656657145 
dentifrice -0.022141821909408155 -0.0026628707097427944 -0.0019249559961590443 -0.007741840361838167 0.001104335378140284 0.012832172268166199 -0.023987014936125976 -0.008289061855908561 -0.0054358320999195525 0.0005158312142811201 0.004172329977229323 -5.781052125028644e-05 -0.014798337168048929 -0.02064528151905405 0.007361993508799278 0.010172995081450326 0.003282288649827421 0.010544544654782212 0.008582451811767422 -0.009825127900884521 
histoire 0.007679297419363988 0.00210384330758807 0.009491764984193024 0.0014484549081076274 -0.010547662750296588 0.01609247141836396 -8.676785742056608e-05 -0.005237422669077269 0.005409664105985741 0.015366375559799288 -0.0131190977549071 -0.010008757773803788 -0.00022101367983672705 0.01822419949613521 -0.00688182912116016 0.01950153658332997 -0.01289758788861917 -0.012159368343981162 0.020466662749237783 -0.019406410053702246 
paix -0.024855755153679764 -0.01597921927077765 -0.02109341223880105 -0.013778722404277532 0.016911524410669735 0.024822906349905412 0.0032556107627448663 0.001414086520561254 0.009276065472721336 0.019221922900435347 0.011872717167204417 0.012722923820599242 -0.01827192970139358 -0.0006553864730598407 -0.004924720324272698 0.009437205753138283 0.01592916283876874 0.005004233692699444 0.010001302951044863 0.017147447333007222 
incoherent -0.007855935970076706 0.015451615700861497 0.0066958686485100475 -0.011674387075382042 0.018319349706710154 0.01527512946948161 -0.022664328361388035 -0.01586467862359424 0.001707315478705731 0.01527387209188687 0.020216321033479073 0.024887111947680545 -0.009578792409899558 -0.008224343256465448 -0.020307164931752986 -0.0031509010166102967 -0.014441445447402411 0.011259087441591308 0.014722628247771876 -0.022420583541350226 
occupant 0.02262630894218864 -0.005136743568316648 -0.0018853138728248014 -0.024204398305464805 0.008463203181293273 0.014394737857025237 -0.0034644388009181554 -0.014177410242994683 -0.024988215625034244 -0.012876227459955078 0.0020558440575838516 -0.019590024696501854 0.02421913811802494 -0.023896973627903422 0.01088733050936787 0.00023023257111561707 0.010945773715885718 0.00854235037936198 0.00957458334193237 0.013624920889580212 
sportif 0.013240128913050956 0.0054586194233105486 -0.019522821376725005 0.0194500981456881 0.01446454359423606 -0.015938273204730374 -0.016953957897883728 -0.008301381467060326 0.006611617143591522 0.02379651590745605 0.0014993583576077224 0.020168628865406886 -0.004130670432219624 -0.0057987850376056355 -0.00041565349050129907 -0.020837381769405725 0.017050618795515966 -0.0017561433076949868 -0.004625592394122411 -0.00428900743075941 
sincer 0.006969995567758168 0.011615938954007017 0.003193039570083372 0.009318772003222793 0.015626971620051746 -0.020165593112187425 0.010878474050908445 -0.023115892884237644 -0.010801026945348716 -0.00745418073637549 -0.002943442209023283 -0.014265147685003823 -0.015506403015802951 0.01123564743895062 0.008944726439957503 -0.007669594493311621 -0.0058037049171217985 -0.0014970425580795824 0.007429245398835598 0.011738148968348293 
riz -0.004119330797812915 0.022665820601467598 0.015836630899924587 -0.010014961485090379 0.013564284067319826 0.001340132260875748 0.002468987724819478 0.022809361142945166 0.0009526208746551981 0.021198767116104633 -0.02054289931976405 0.003791271913757515 0.02136217238675025 0.006401317300010955 0.016101868919372354 0.015283452949337589 0.010896784472489741 0.013310664302412982 -0.016343650328149568 0.019689678718715863 
ferry 0.004511149281503945 -0.0027326111843351303 0.005362338899880653 -0.011753532414300208 -0.007506535719839378 -0.0027087737787416543 0.015020011795538824 -0.022096747744003692 -0.022076059155244306 -0.008169618047478058 -0.0022633118927785343 0.01201715797887887 0.009568742028421418 -0.013024326207671022 -0.015129869712030352 -0.017308454981473757 0.007153550222360009 0.01993954915930957 0.022074341670590334 -0.019121619221818296 
halle 0.01873483030384665 -0.02138895667266597 0.000587809039777471 0.009799593469501378 -0.011557149709642969 -0.013266451051481071 0.024335651705856897 -0.011617090881527185 -0.0019975648035612348 0.021181183344768 -0.013110244727573966 -0.01801561310140459 0.023740649401149148 -0.00436507220160558 -0.0031585391325002436 0.01520807741517118 -0.00570266260278016 0.009223082788706085 0.013423847952246945 -0.017787389155147437 
gdf 0.016282940464789782 -0.007854770199057485 0.003337918350551414 -0.000541529536426768 -0.009922626392794478 -0.012378355314243321 -0.007138410599234646 -0.005524630002937488 -0.0192993285582402 0.019879434598836992 0.006326243407920303 0.0173924577591287 0.009892197051181795 -0.0004113985252565197 -0.02036270201658637 -0.007573006089589876 0.00863473609050128 0.01204991889493608 -0.0009840915376438631 -0.023106645950584995 
ruissellement 0.01627715497677588 0.013873414022415488 -0.015876599680289743 0.01078495518060721 -0.008638853083859985 -0.002821809270118941 -0.011609391268060355 0.008356700776403471 0.01884003046684859 0.00686109468792471 0.006544245683407663 0.011600495388735916 -0.0196685486812422 0.003805905099094363 -0.0034318630337341356 -0.014570234256885512 -0.0030719118984605196 0.014540919864198972 -0.010976531936250093 0.017296275980611054 
male 0.013811223907787978 -0.014033109923058947 -0.01083417454495573 0.012201338735709668 -0.011015948257759471 0.02310881022630727 0.010596185307485708 -0.00802955576494401 -0.00867186138686665 -0.011544429663575233 -0.018097925152961377 -0.0052829744033974875 0.011761398562193345 -0.01582224650532785 -0.014963817625913685 -0.006843058200090095 -0.02228308145180482 -0.004137292707131051 0.014009548601644106 0.02250451274404278 
cristal -0.002765568044925838 0.010479352573066508 0.01299575861027003 -0.0007806864821478299 0.006208620044629335 0.013219499677475757 -0.011308348395010945 0.010287539825649082 -0.003145017073732134 -0.0004101651644056954 -0.0120100380264951 0.01194762537534342 -0.01053225264027262 -0.0075739697168375674 -0.014105387564398006 -0.018037240995321724 0.018932893051002493 -0.004824590681675607 -0.024227080035364532 0.02230327357205322 
interet 0.009646102247892757 -0.004952912629359011 0.0245820651646399 -0.014394354800687709 -0.008066468898901764 0.019769764304105323 -0.017213797555983065 -0.016937620502141808 0.015058032725260836 0.021194665741613647 0.01976531107302693 -0.012204394474434043 -0.020214174785938677 0.0017337199030575503 -0.016678896088378047 0.0020104188178866624 -0.003294232315076558 -0.005031164722770886 -0.012562772535771694 0.005343922430199279 
dynamo 0.010077181089304933 -0.00690488622324728 0.004009925498668874 -0.017335387174140907 -0.004367085785137137 -0.01632929528915123 -0.024108287000302705 0.0007108241912106168 0.010759015121155712 -0.0043310861299780444 0.0035165332757529683 -0.02273570792992264 0.0026204540474484483 -0.02444807170526079 -0.009184595118395405 -0.0068605625172187676 0.020653488286328594 0.00419141141982856 -0.00724120457071179 0.008056150199034781 
equipeer -0.005409543484887222 0.023961129089609325 0.011226449399020016 0.010512880835878225 -0.0021804510251447425 -0.0052110156778107965 0.015101669974949739 -0.014025974547269636 0.008147721345314426 0.019411932638917138 0.010970932967118903 -0.011510209050711852 -0.012655795659400003 -0.011973059864452504 -0.019745508473693486 0.0011058847120527637 0.004877573949603079 -0.013085360737957406 0.023037607699110455 -0.02159323324002333 
abiment -0.01296493567835027 0.019761275930603214 0.01351222742401394 -0.02461230064945318 -0.012453500050805538 0.021160478549047748 -0.009650585392171111 0.01951512896659172 -0.005638915018500067 0.021573667345497746 -0.02446027353356078 0.02312640794690058 0.0008932716628748894 0.009590904434305804 0.01764413244874927 -0.006501461048999225 0.020605441746606203 0.01849120974120049 -0.007330979399894219 0.016760550509316723 
negociation -0.0032301678475197618 -0.0077577385057814845 0.009376267711075442 -0.00013317214189725952 0.024283742231408192 0.022086813685670382 0.019972559720204553 -0.005498561782737605 -0.005450477774117826 0.002178579649563453 0.02372017646358678 0.01549756495837734 0.006208594673190169 0.004159027978979767 0.019832864165513088 -0.002338331595454901 0.005187333448313663 -0.01630634650246876 -0.013876482494224709 -0.00951786469720338 
comptabiliser 0.0114505246268585 0.0029865629609580296 0.009894601207394901 -0.007815438357069666 -0.0003063435496389968 0.009925356292840266 0.006892988226796252 0.0030260663295076902 -0.0029890198730352863 -0.00555886859962917 0.0011242076236664357 -0.006829074383288462 0.0030055395723536274 -0.007830492484350048 0.014017951606375863 0.021916763971122584 -0.018500656388808254 0.0036604392415684407 -0.015768596182835333 -0.01917025926969376 
indu 0.003807760098484112 0.01362295175838592 -0.00016981803124682532 0.003536762376456445 -0.004677895933544331 -0.01315907188263222 0.013607237997161145 -0.013950717625524004 -0.0073877730399963554 0.001175362882306752 -0.0033650983324712393 0.014243531827352147 -0.004170548382918677 0.011763489563093027 0.020027737629534796 -0.015591449248048436 -0.00355752046451932 0.022622480939100468 0.015216807067849007 0.004052834590902973 
essence -0.011895952133628561 -0.0064056776466651045 -0.003520988872902369 0.014812568211835233 0.014022317135828556 0.01563634014326932 0.005508041935274492 0.022225403344962747 -0.007026904780399536 0.005037206637473213 -0.02049648804091098 0.022465647813988413 -0.01709564965981523 -0.02029016351728012 0.011538204641924364 -0.0036278157630128508 0.012805514241346273 0.02274334414656661 -0.020925591224816492 0.0008641160635046102 
cola -0.016024831214460446 -0.008239570290862051 0.00014679147430498565 -0.015378034739044397 -0.010273083096192516 -0.022473639385375534 0.015491550906812394 0.015472645316724473 0.01642992664990215 -0.009793943028416295 -0.00029843135952572483 -0.009979634133347829 0.02399454034776859 -0.0205265707141871 0.0023246278222224352 0.010881394618168547 0.02042632296645543 0.004953970447498878 0.02215957795187514 -0.00369164752228798 
bicarbonate 0.02252526993310884 0.0019423084390917127 0.003942543857906781 0.0004622723125713428 0.01614067467541962 0.0031749010322036256 -0.0006768414183072198 -0.008341435382752008 0.01570318865473866 0.015429116228652045 0.020994766182477823 -0.015662383180582648 0.01873412926984178 -0.005357152396705054 0.02237653251727195 -0.008571097088248615 -0.008886199024673077 -0.0018399720535462064 -0.007801127129673744 -0.01014622173777687 
civiliser 0.0088667382664404 0.014548526674010813 0.007902305631882297 -0.004979490589368837 -0.016143230098636482 -0.014809854302371826 0.015307378409228571 0.0077535775897484465 -0.007410273761173909 0.010968059266979984 0.01869464979198743 0.012668294821184553 0.010735389719548509 -0.01796782261017606 -0.008028096817102103 0.010647197477663364 -0.014506246969358103 -0.02163542752964011 0.023171138300776432 0.0014249003937439133 
television -0.001566371903248555 0.015037319050347067 -0.006209155555665496 -0.01388776981636253 0.0015157004007164605 -0.005264003776114362 -0.020051325496636237 -0.009800749967100153 -0.016358999093677645 0.018622569062625483 -0.005360979620677869 0.010710521250669547 -0.0057653723929943675 -0.023419547137038622 -0.010819950328987887 -0.002674875682163414 0.024424538662063865 -0.018762347904749087 0.009471980291445515 0.005450408862436567 
maitrisee 0.016201818192354153 -0.02327264568839882 -0.0055812067473251055 -0.002230332998125652 0.006761650705456954 -0.017188596655684337 -0.01895124831822229 0.004751701048313853 -0.024133029968558376 0.013601086816061222 -0.018192983276779397 -0.018732907939189605 0.009151660852553988 -0.012284940888354844 0.00782610258680767 0.014268210005775665 -0.015335569722721711 -0.02213968674574571 -0.02238336183683939 0.004873502592975666 
cabine 0.008602310747829108 -0.01433784756566881 -0.02281514160278203 -0.023982553291743362 0.023531077942923723 0.01844660185114037 -0.0037799347170703952 -0.008344704366725476 -0.0036751621720325527 0.0019583788730135145 -0.020350580626321224 0.0014116460998364099 -0.0008140359638429878 -0.01840206144189265 0.020495218065054156 0.010811947183305323 -0.006138489740966707 0.0062527348055666995 -0.011931772387991434 -0.006825982324664013 
elevage 0.010179848106361434 0.02185114202040837 0.021303402365704126 0.009793470034218632 -0.02462090671825264 -0.012840412319947087 -0.015672049685790838 -0.02397394438371707 0.00305282214883818 -0.021152943400502854 -0.013163904335162431 0.00022593620514791012 0.023264158128157398 0.0213509678649145 0.02299870360656192 -0.01812302232666383 -0.017664009704451648 0.012806619457609953 0.01850362359738629 -0.020203192602021438 
recrue 0.004214029659488501 0.0021177386603726304 0.019911756147534505 -0.01251747639861434 0.005212429005032709 0.01800370939186766 -0.022245312773630673 -0.00018798560865571022 0.014623995484603823 0.009973100297943661 0.02407307544565741 0.0037580315204382435 -0.01672185000418052 0.016137333165184644 0.01487032995005157 0.0016831490835030618 0.013664337721484204 0.0032738936779974155 -0.009291958783201524 -0.0045251577136399485 
existante -0.012868249726353512 -0.003212523308860515 0.019838449932012208 -0.015946605565219936 -0.019472181496563802 -0.020158888998674743 -0.005132604947357764 0.021138796020420098 -0.005541457746678972 -0.01025278298762036 -0.01999273297036999 -0.002002899182155067 -0.006284717323323408 0.023658914307136746 0.010151372481888086 -0.013204222159921007 0.006784521467449672 0.016891949734510504 0.016261434586217084 0.010582313979059335 
intervenir 0.008932222686845017 -0.005676487134868922 0.0005212641361931416 0.01616136915433784 0.015261349409517741 -0.01947265580070445 -0.004006313141091808 -0.014600378148934315 -0.010659738532124707 0.011391513407680702 -0.0007067535190406548 -0.005319711814945746 0.00859925457868915 0.02312004313820047 0.02127800025151087 0.009312238566017645 0.02038288770828657 -0.020987665853051413 0.005820271128515366 -0.010674314143082427 
scientifiquement -0.019001228468633533 -0.018671637042911055 0.007229598863218992 0.010541270169291447 0.024601134769581808 -0.02337297354028143 -0.018198041484625314 -0.014692377219021667 0.005894844397663239 -0.0023104212450071734 0.012682376316201052 0.022972216315933637 -0.018790115336511932 -0.001720834789964786 -0.003745603435781805 -0.010628413952631982 -0.005483879869375894 0.023086974934758902 0.0178479857432276 0.0034902148923791785 
remboursable -0.02180491294715025 0.024271576217951958 0.0029927815779094615 0.008926565282258594 -0.017886839138464807 -0.011841546717493948 0.00579973816206551 -0.006798869180075731 0.00010227216224546661 0.004239107473367343 0.02352037334846893 0.017422006646843485 -0.004776812148104517 0.011188040866146245 -0.009613895935097067 0.009978246483196064 0.011263502172672725 -0.010692256172800424 0.018343646959692744 -0.01164210066625797 
approuver 0.01725519412218452 0.0007988669079268851 -0.003273892378669359 0.019891549773724423 -0.022462275818687264 0.00012251784440290225 -0.003860582628461355 -0.020157440882051562 0.024462336455784654 -0.008164862374110661 0.005257985212617998 -0.006829075731433065 -0.016755127324178744 -0.011171438301328841 0.020181702105653107 0.01505237907696383 -0.002909670141772923 -5.3573634462589444e-05 -0.00439883039018054 -0.015975538786435556 
depotoir -0.008631964460201418 -0.007155365385200322 -0.006939066823061058 0.003884208610035622 0.018760646580154063 0.014273436233078614 -0.00350370733580977 0.0005379221737144141 -0.014304033709942723 0.016146182316565567 -0.016763666093051122 -0.00020870623421171083 -0.01655528195936802 0.01736511619010965 -0.003962172623795787 0.018335558973336507 -0.023529463431379242 -0.017451036831082324 -0.00938558294913898 0.018494591433437742 
ethique -0.024593998789641868 0.01992319184950434 0.006889561400869266 0.023051429627602572 0.0018905278569291983 -0.01251265375329272 0.0168707591850949 0.009469392689574488 -0.014435763638034112 0.0008085630235967649 0.015439030871472909 0.010904454892007785 -0.008014234997481405 0.008737519477495764 0.013812184099857806 -0.013098036245151332 -0.0025973886001709827 0.02392432208738387 -0.012118588057832887 -0.010198024921887138 
presentation 0.023436233131172022 -0.018106208652332454 -0.003451353865827865 -0.023979953246756672 0.007858161094074449 -0.0216461547012325 -0.02228492669851794 -0.02410043102570767 0.012450667159769911 -0.02263451443526293 -0.012748083658169972 -0.0025733056565840438 -0.02432560393567197 -0.01021696368835138 0.005039678162622245 0.024815987375631156 -0.01851646640523819 -0.004753648239084304 -0.013805698378787451 0.022630884438978267 
chemise 0.0035047829073286867 -0.008283011471290095 -0.007685916011515386 -0.011792259900213946 0.004935123677682329 0.012146290284197121 -0.00497452590057541 0.017320413086546353 0.005152303333647169 -0.02257219054287939 0.002760352379773504 0.024656380709114176 0.013109035577450245 -0.011151832594455666 -0.004382665908729588 -0.02350645432120724 0.0020027982517290786 0.017312832429596088 -6.450636880610341e-05 -0.006346417040839471 
euro -0.019720795294687943 0.022149630848586878 -0.019252722126079317 0.01641518587058034 -0.02239580511060834 -0.013427231225169811 -0.018625777472744607 -0.015205368046936571 -0.022757196194600742 -0.01862262999027578 -0.0035571834062892247 0.006743162975360152 -0.019871391383513196 0.014080389695231385 -0.001624995393648063 0.0047773062883338996 0.0029094453270696735 0.016130416820650348 -0.013805946363453664 -0.018788181580842608 
plaisancier -0.012398944613185494 -0.02079142294927173 -0.006082722262394179 -0.004635635189934464 0.0004470837571421924 -0.005360038220031886 -0.020943737154978822 -0.013608343120391542 -0.013446758559044652 -0.013558626127865398 0.018963637311061578 -0.0019575233783021813 0.019451943658554783 0.02371665720349651 -0.024939959187103896 -0.010968319305088568 -0.012088270742666768 -0.009190699167310445 0.012821115887296035 -0.00031374795037983393 
procede 0.015439765106880776 0.0015124224175911657 0.002643592760696701 0.006793628367541805 -0.016834726914453334 -0.023510929774406848 -0.016608558705836197 0.007420533311682379 0.0034896684259544644 0.0051089017226363925 0.014335676165011692 -0.005656435236247511 -0.020802526539229982 0.011450181414820947 0.0006243592693944251 0.00586015667836629 -0.013976774187039584 0.013032908028357043 0.00032582390548522373 0.00711374535842015 
restituer 0.014730341040136355 -0.012735597376954956 0.014049918746053968 -0.008576182226364143 0.0010327414448798413 -0.020846709432755958 -0.019149743392290204 0.003065263655838174 0.0019603648222772025 -0.023401144696036335 -0.018440350448749344 -0.008288491811034268 -0.005807649822751266 -0.01845104212776912 0.015990967796901626 -0.011661766187625901 0.017027264992206564 -0.011284236988923939 -0.011241103358474166 -0.0041322683289883215 
mal 0.020504758164536924 0.015304022698913882 0.005067438234047897 0.0029984027538050573 0.022354929870171954 0.015789192017391644 0.018509135810411338 0.021897365988331446 0.00721446312109346 -0.011481380334660639 -0.02465422804364058 -0.012757801596571266 0.0008613471465298723 -0.01923266013004979 -0.013585648628606705 -0.010001727048910891 0.014957679887963135 -0.002799214288996861 0.004587317713235521 0.019588972151040048 
boise 0.024344407773133354 0.01752126782371284 -0.003818308794706706 -0.017862179913650442 -0.0046207611837450376 -0.0006690397308814781 -0.022441250493463946 0.011473594561091004 -0.023111380795830066 0.022720289233557414 0.0069687802097346445 0.017216988188670197 -0.016806917764772042 0.02143660080346612 0.012219654418023165 -0.015083484375944646 0.01106539073336357 0.012407221345615728 -0.0017631733533204133 0.01125474717991749 
retap' -0.016390035765052827 0.003181927491863268 0.01974452656723199 -0.023655436766823086 0.016447553114121185 0.013094389158203315 -0.002635850868796413 -0.006644926523169516 0.017889098240608244 0.00028592050704058904 0.00954839316937048 -0.024805002512493565 0.01585855802946781 0.0004135921907500664 -0.018617891413310824 -0.022188433796248897 -0.008244736782557067 -0.01985334397602182 0.01843196332862756 0.022591198889663627 
degrade 0.015502824568037716 0.004613526121620185 -0.014218149559855743 -0.00980654885592713 0.024032907132579575 -0.004942373927242278 0.014898519449624453 0.002312496365387229 -0.0016009854033425359 -0.004358914037368341 -0.022598939200757943 0.0014494467552338226 0.007806860586155617 -0.012495071988700694 0.013213720502772513 -0.0009939438306437885 0.019990329405837764 0.021081375262289714 0.008202485529032032 0.003580578242305488 
circuler -0.01655028956336334 0.017781957714716898 -0.003916249834799924 -0.013299793637553712 -0.014300858276952209 0.003979371580076165 -0.015368813310439105 0.02459131143525153 0.01830148741876124 0.002195120269371575 -0.01071542493505745 0.013519688188470677 -0.02078731054768901 -0.008830652174769074 -0.02309393716198157 0.0030062597676043645 -0.017362291122025898 0.00842646997528738 0.01912945243113951 0.015642447559614102 
demolir -0.00428790141411129 -0.01925563566835645 0.009138774874881296 0.02071212741377559 0.022974855412673707 -0.0025571441578493247 -0.005699752773346443 0.004501861691323029 0.023873209510242552 -0.0022627391197428772 0.024160068779003462 -1.427530714610298e-05 0.016737639876848665 -0.022061405235032402 0.020939919905660506 0.0026253485596902048 0.012523002699458715 -0.010948896177191166 -0.016387609087303016 -0.024891118266295288 
libert 0.01973002789588845 -0.01685704622512467 -0.020525831067164876 0.0071567707158132115 0.013696140028432507 -0.023516800743855572 -0.01059543085272534 0.0006481406199785144 -0.0015162434832676041 0.0029284816781946334 -0.014389432156989838 -0.01719157507980923 -0.02242683862509394 -0.010987083121180624 -0.006635626424386748 -0.0125970905794722 -0.0061425508389716076 0.003018525154735975 0.00934388815965696 -0.001946331859334726 
oeufs 0.01832121089677704 -0.010352208144320885 0.009246575118775567 -0.008735082810221671 -0.0022073571012107556 -0.002329998463614855 0.006071449221456089 0.011281911641522641 -0.016267252411818485 0.014462868045057285 -0.016357016674837136 0.005764036450277096 0.01937317366707167 -0.005469374385349441 0.01752595024940577 0.01477148518015992 -0.017838247522828622 -0.004230208829546802 -0.00611191903909707 0.003517906943713035 
cygne 0.007590673113608077 0.0028784520355848047 -0.01861413202279182 -0.01089773636592359 -0.01904844381115215 0.0016270398150342233 0.022572979443178223 0.020161958255862193 0.01073839943581394 -0.013942283489047762 -0.0022482487127602393 -0.0007045731044693875 -0.01123321344865117 -0.006624653733273268 0.005690996146294119 0.02276234018314314 0.02202467187000365 -0.009418037049458384 0.017512656253381328 -0.00971104847306922 
petrol -0.0009863048718447302 0.007660818936718334 -0.01965876571906589 -0.01483903004187908 -0.0011447184231409358 -0.020183656459815378 0.005062179747660441 0.003305168600099355 0.019859386684718053 -0.0034593935349191847 0.007896481373376573 -0.00747229834914433 -0.007415629611881534 -0.006849701410917382 0.023964744434040106 -0.010199109270526351 -0.018827407345903557 -0.004487039776222461 -0.01371105917762565 -0.0009320827385550801 
cromagnon 0.019556819456134696 0.0009523562351051745 -0.015787262567797118 -0.005479679540924398 -0.006845468054129567 0.013899098446362996 0.0019583066603189874 -0.014988264915202281 -0.021247031668404946 -0.020701520884214782 0.003911666670796691 0.019760612867518516 0.010796005060529612 0.021079383886731643 0.021706678130091982 0.0036934879585367626 -0.01139912594949552 -0.01954134053502929 0.006835475757748535 0.020597645383072974 
frigorigene -0.012456989176220307 0.009740120180081665 -0.02051283272449923 0.01569041820205523 -0.0027991707677746604 -0.012437783660429646 0.011374653286352598 -0.024013365055709567 0.00980889768303868 0.013630705743507401 -0.008173575115780747 0.004791399610998925 0.004149921726918935 -0.003231087820619508 -0.02474728249481451 -0.020818657742980674 0.007691283915649894 0.0009296287900144715 0.0007070368779990896 0.013847492496240222 
argentine -0.0023457709745967063 0.004882383128227344 0.0005915380633734592 0.010764438649139597 0.016467985919942946 -0.006886997981584482 -0.012866497868018236 -0.015282033885869963 0.004684101775186856 -0.02282326145407032 0.020500831729198955 -0.014196931977897207 0.022951166103366293 -0.00833456566281281 0.014466418191207298 -0.019880503879003336 -0.0018486366742152052 -0.0006457829939121775 0.01593870144539927 -0.011737645831471738 
attenuer 0.01937182073714777 0.005835737948212983 -0.021408503414815386 0.009433214298658822 0.0010804514355916063 -0.00032275291584527114 0.01416633757287704 -0.016657877281743432 0.00568666066132883 -0.023312991506014537 -0.003537047578363395 0.0054844849879791815 0.012083409143038504 -0.0026393517558856703 -0.024525990754528066 -0.014735825533978413 -0.014110570136145561 0.010007508777469067 0.007015705456949872 0.023082150251469456 
fromagerie 0.014807616669899121 -0.02147953809878789 0.02256854883132509 0.01461223599199811 0.02012677626492906 0.020331872684001204 0.02239875895197014 0.002416620094718913 0.003109999059177205 0.020991993439113957 0.0005224214932664701 -0.020847883844684056 0.006933242089783929 0.016322835346737976 -0.0035225965155704316 0.018101268550993845 -0.02442291665496375 -0.02052148552583423 -0.006184201820046834 0.006021599296808439 
precoce -0.004421675187255805 0.0010887540092758524 -0.006217604622982338 -0.013072411705531002 -0.01383255408304462 -0.016713037528032743 0.0028120893036019316 -0.009950302671381216 0.013530211505384759 -0.024372269537453455 -0.0008285456947742564 0.0027554446203150226 0.02238706791094001 0.019304345241131674 -0.014161303421241358 0.006494050753045563 0.01813307463308825 -0.021341690371495577 -0.01884931247757143 -0.00629124191285611 
metre 0.011538023381194655 -0.0227114437394815 0.005887161419686404 0.006996889955872329 -0.00998072097567333 -0.008624379661161233 -0.0036962874652099794 -0.006648834480648196 -0.006652755264290587 0.024444816746076067 0.023217404079600955 -0.011124324263752755 -0.0008544012011066021 -0.0032893313629291593 0.0008293680918686253 -0.0033831097454832784 0.0036012458645781104 0.004969986723650724 -0.010309671252163996 0.004836211601684626 
notre -0.008632731669710896 -0.01883336621673864 0.002668208936804603 -0.009026763818197848 -0.013370533273914373 -0.017075473031722892 0.013774629917721852 0.007300833277039614 -0.015750453025834808 0.02241440863461304 0.01668369280648655 -0.02259644271277267 -0.011167023675191623 0.022385431753302463 -0.006539144375830123 -0.019397103304075913 -0.0043192727892721 0.004922292797509224 0.018921241915440902 -0.012717171474037437 
intuitif -0.006579813939515174 -0.017023314397487093 -0.009699689991685455 -0.003592644248836495 -0.02318796870112977 0.01285535351712375 -0.016262010298385195 -0.007966382816702743 0.022094634999166855 -0.005090038075310102 0.008319360441269567 -0.0012530955391304355 -0.003040838253226006 -0.01922123261376874 0.018931199158788745 0.010497853524209151 -0.022082312742706056 -0.009208572056136434 -0.010921928911268017 0.010604641212984715 
sylvopastoralisme -0.009596900616685531 0.011643527346992325 0.00124048325939573 0.011467600347819252 0.006042300164068861 -0.002120295260022461 -0.014470101030229231 -0.011167222057823703 0.012690309306174114 -0.0034450711309945772 0.01838969100393879 0.002561422473394267 -0.005062562399686301 -0.009109030937015962 0.004822400805693877 0.002765062157842017 0.0030051611391831443 -0.015600709747485755 -0.019884528546373254 -0.01444752902961021 
tampon 0.023957760458470038 -0.0080256818290817 0.023635891437289107 -0.01312905262608938 -0.01703207911142853 -0.024134473789894726 0.014509769905885875 -0.014299910241263437 0.007644190287800402 -0.017088714079383276 -0.021708861778487725 0.007238466573821589 -0.00020351883030327587 0.022014855651188873 0.01773255773696817 0.01056216464263258 -0.015565721479176144 -0.020851025006658554 -0.006916566538433308 -0.01853306203920946 
notice -0.010688736420989452 -0.012562646676747958 0.012525363627934877 -0.011305245163746008 -0.012900734237718795 -0.0002453108056044041 0.02392581119823279 0.00352544736657114 -0.0157248778319365 0.0017438002201162189 -0.004857947326083456 -0.004554146887280331 0.015286476373990353 -0.017206017652265936 0.017919359657065138 0.022026105515151113 0.018871865856704736 -0.02003332363933245 -0.01400667506673355 -0.004426059876012773 
fiscalement 0.006285756068328222 -0.013785501760178863 -0.019995344256757426 -0.018592798459115937 0.010140209937862459 -0.009538220207454588 -0.004559227470610421 0.022326974238947465 -0.01263173447938638 -0.021230590416565758 -0.010137556016553237 0.020179610940839122 -0.004995214840933835 0.016397608050827947 0.005813042155751375 0.017663053371435932 -0.022031841491193832 -0.020773475534311643 -0.009480805972348643 -0.0069357385318561 
remplacer 0.0067998151785064725 -0.022682750220347082 0.01570502536416336 0.015046223889838537 0.0061662872117910555 -0.010277515990850092 0.0014584421217863066 0.015998034365756128 -0.009038218837401631 0.009056750596874313 0.013651846103749534 -0.0053191047920995395 0.008963560711437071 -0.0024343175635422546 0.00943163636740102 0.023331576414517198 -0.005717173387584206 -0.0039012196853343787 0.021624586499905396 0.01808758513684857 
annuler -3.2946372234140625e-05 0.011577012186313681 0.00889097554794703 -0.005829473202792932 -0.01657867755296474 -0.009253501024406455 0.0165657683805618 0.006927003996857837 0.0037839543783431203 -0.020839184811841233 -0.014747249323149882 0.004984382965875847 0.014873587409834667 2.25758905900583e-05 -0.022490262989287985 -0.002152089324546546 -0.013963579323534696 0.021671080033312206 -0.017210734404823326 -0.012790944910589262 
cher -0.003914752127690164 0.017232095040969085 0.0122415832445736 0.007310772910590932 -0.006728638915209317 0.0070381933033008375 -0.007206481894064721 -0.010183375477382444 0.019356408107532364 -0.02190525054838406 0.022179933122165006 -0.001751594215407214 -0.013472403210955067 -0.007759536198719158 0.0033944586785413376 0.016810393933617364 -0.010732536288772071 -0.008162353113296775 -0.017668851671638452 -0.01851747655576066 
venue -0.010547284054580804 -0.01262254744294629 -2.6487438856765987e-05 -0.01934398516854878 0.01655843648858265 -0.001157955713855901 0.0031831141072668403 -0.017312328081206276 -0.02498143536438577 -0.020229476183641366 -0.015110795960648512 -0.006335226444273977 -0.024706981543352224 0.0003955637160755454 0.00645836449795904 -0.006331528661443339 0.011160624100983884 -0.011736101624154649 -0.01238452599626427 -0.0029451527222392835 
contravention 0.0051395993955068355 0.013408077781618979 0.01495748571577254 0.008378356761423827 0.022530388519533165 -0.0036046181018581196 -0.0007607839909583228 -0.01418230745484845 -0.011362408504819036 -0.010468720024488861 0.02050341580462216 0.024009169786929938 0.006502825144373771 0.008573445460187472 -0.012900528427458816 0.022076526088305987 0.019044964893585786 -0.009724579680677978 -0.0156907243670836 -0.015279162778386044 
externalite 0.004590890807282135 0.0016799049535904569 0.0023127206478628006 -0.01179673611089174 0.004866866967914645 -0.007744503656432715 -0.0077975864003502066 0.01965399715003309 -0.0054322385678555 0.01606685863705311 -0.023470531248329134 -0.012022327004106544 0.014912504927084314 -0.015005405336009164 0.007519601363158712 -0.004954312771017336 0.0170266591494934 0.023287280596219935 -0.02433880748297512 -0.01917799269785604 
malbouffe 0.02071444189019517 -0.020647469799926457 -0.022773419897994154 0.024172358458182382 0.00732944787650319 -0.018583163682285003 0.0035619846890925966 -0.006830114848383851 0.014433279234966203 -0.01002241124429012 0.018032595797021923 0.006291765330308164 0.005449361020960808 0.018168620165591152 -0.015481465633249395 -0.021029961015010798 -0.018047118202089096 -0.007513398044374298 0.01922169653122118 0.019932888703594026 
naturaliste -0.016839526071216047 -0.010082028763612251 0.00383706693326963 -0.005647980685479214 -0.01489124548490571 0.005250280041447864 0.010290362929799785 -0.010541842323167776 -0.00741594769881316 -0.004515810013295781 0.0012718676668629528 -0.004760470954851981 0.010857110951880827 -0.019572560654335554 -0.0035301796253375596 0.010930444067016933 -0.011396024387214758 -0.020501133923217986 0.009668048397545282 0.004217417708907584 
lingette -0.010443649906608772 0.02117783483469327 -0.010610963803033857 -0.02041141288334478 -0.004187840389185406 0.004947462086633899 0.019935070127334774 -0.00664046318871381 -0.017690889532495438 -0.00764323851745412 0.007867760024946534 0.002092547109112644 0.0022170118963955603 0.014929035214191767 -0.01795430697700815 0.00013242449216427908 -0.012869477898010748 0.022470382741316387 -0.00444614710639369 0.0013643399363082107 
remuneration -0.0007890977439304617 0.01944708574900611 -0.022920371926712885 0.019203785379075394 -0.021191018339803438 0.009664718509557227 0.014421188544026504 0.015563510790991693 0.019768490483253257 -0.01461821346386769 0.019928114686472806 -0.0034440344969021413 0.009708483748206025 -0.015079155688734512 0.00765934226768221 -0.0027755237829520927 -0.0235728846434186 -0.00044500420664582034 0.022870845286972374 -0.0149785406954419 
alleger 0.007722166187953334 -0.009558178596333962 -0.004017460049201902 0.018785050302011663 -0.020681394179378976 -0.022413054592850496 0.012875772603096388 0.007256886955424492 0.007261507049235347 0.001847865672386945 -0.014108714875202566 0.004622432788906486 0.00666158600231315 0.0046285913763478535 0.009803758914521878 -0.012267272022733245 0.0003406079282072513 -0.022796191696529747 -0.007985399701890985 0.00473807812647576 
ressort -0.002794224478514815 -0.018286696856776846 -0.022505358185198766 -0.01886035654723786 0.010006482674087009 -0.014018625323723171 0.011286627851969181 -0.003532582935718637 -0.005411125897137635 0.013107937611662275 -0.008450746920160424 0.023551148073156936 -0.02178469664938968 0.002241881211583311 0.017580450859249336 -0.008450568702301126 0.011157774736730077 0.01987606651090329 0.015298096836273516 -0.01947442794417049 
nanoparticule 0.008064798060461719 0.002583702619348334 -0.013388316002477963 0.0028950160054513722 0.0005026906758474042 0.0016897259665181266 0.006576458896006137 0.02382841347033347 0.004134497361932704 -0.008496994013401938 0.012707482315306497 0.017304733775077255 0.006995879522609205 0.020455236863005065 -0.00017120264890805952 0.01350123028279422 -0.010445867086910723 0.016785967682120182 0.016852818806818395 0.002311300302342987 
tanker -0.011823936257440444 -0.011225442171565759 0.018078896235981808 0.0021916446964232467 -0.017142998400730934 -0.0029453449635341244 -0.007314987334813 -0.00022009025758493766 -0.023509756136283196 -0.002258424027340518 0.019192722166794268 -0.006025829837966029 0.017049384028579237 0.0019817289385344957 0.0219809819791485 -0.0070736430113774946 0.02319439086962297 0.01183167685960349 -0.009512746796017579 -0.016181735892420192 
recipient 0.0015604879100978304 -0.007470623655550151 0.0012799107867552128 0.005908194985477804 -0.02019849249468853 -0.0014543242409563578 -0.008991352825941382 0.009191329948138384 0.018789243414465265 0.011784522667821186 -0.014979574861713592 0.010845120219918354 -0.007783439467199282 -0.02157454026603736 0.005850484578060995 -0.0068301041032344766 -0.007100254015015095 -0.010433165307629113 -0.009757308261125057 0.017581340627036392 
remplacement -0.014617068816155793 -0.023055905900962195 0.013856895681916663 -0.010818516988604747 -0.005911807623056701 -0.012579602926750881 -0.02019193135543353 -0.025027620190614174 0.01289899374817243 -0.016214509480314273 -0.014973173650039497 0.005271621636900958 -0.02400472044994763 -0.004338694454163394 -0.00977711746838459 0.019771056022271576 -0.015396602618360908 0.024916428264174895 0.00774969535719482 -0.012903693985642934 
eduqu -0.0045708076825785975 -0.017871110329901834 -0.014628012753412436 0.019812612102285396 -0.02330506327663199 0.024160945379487153 0.023569922658654888 0.0036639288001844737 -0.005342224055502992 0.002856801764218514 -0.005155192034941742 -0.024423700013202015 0.0006509386919986245 0.01084200781652701 -0.008536192703256071 0.0032183294392617735 0.004221192752475703 -0.01609385121355857 0.007145553034704902 0.023170829467308345 
retirer -0.001262374204213915 -0.013599911048261472 0.01234522343795457 0.01661550932928209 0.010958261941585237 -0.004876489235304475 0.01784235691796006 -0.011922659751517049 0.012294932280339253 0.011296912585510655 0.014936869522539208 0.002052337727476517 -0.006467288081603244 0.00950663881511819 -0.006219666017250909 0.017879100191753528 -0.01350159532261015 -0.02100027105093258 0.023907365960331498 0.013912161936330868 
autoproduction 0.007889914977991956 0.006024770590607263 0.024336689749373516 -0.01992388505010056 -0.002798720417234559 0.01556963609461346 0.0036356342014261995 -0.01420389388925212 0.012666785770421839 0.024654600054227815 0.010099882613467696 -0.013658934194611262 0.015356037683635223 -0.02101031937293707 0.011753453415413952 -0.009725535454213508 -0.013287856187611781 0.023391132514263283 -0.0245655118656047 -0.004931220028623543 
origin -0.021072182250463048 0.015934163411989395 -0.0025958515475999443 0.013132835925400321 -0.0036778332962236686 0.017778755450889513 0.0030805392109405924 0.01138283412074618 0.017317129351744915 0.011491700739176934 -0.0043607999331840225 -0.0028832735573078552 0.02025710739882378 -0.024309176653786162 -0.011221030220343674 0.02079853384626497 0.0015025260476892867 0.003530141321004909 0.01036359034217103 0.0005194731506424922 
conservation 0.01681243354679551 0.0077860794623645195 -0.02083768411681252 -0.020320674333818067 0.018466615047503424 -0.002486647714179571 0.022260005986097054 -0.013918127618957233 0.020733958182601927 0.009412851597521503 0.013355551377485411 0.007772316406074135 -0.010197420668734723 0.001284113774643405 -0.02022813489823982 -0.002473577992918138 -0.02395016594447707 -0.010501109184965437 7.324982589117217e-05 0.020501480471098617 
debarrer -0.0032192263316310455 0.016628968915704437 -0.0027158981018297356 -0.004416258759793968 -0.006538785783758445 0.01132354976363345 0.015743171875103414 -0.00035745584888873205 -0.023684535292853012 0.016947767402153067 -0.007947793719511702 0.00374269320486246 -0.003924843416112964 -0.008616482401779 -0.015273408834640486 0.013457922549906177 0.0008119573201724025 0.012702324693808312 -0.0026176652329371088 0.006088530838413046 
pouce -0.006875312517342853 -0.009722755978940468 -0.008127197265155822 -0.006111890403060743 -0.0054741916666945604 -0.0014565575668340769 0.008962980727846858 -0.02319896085913095 0.004824119903292154 0.018611146474945512 -0.015958448994861853 0.006125082260448942 0.007018103165973594 0.018710161185984873 -0.0021911784186557336 -0.001161023861964793 0.015133389192697947 0.01403439847975455 0.003502455908911954 0.005859081293978944 
filiere 0.000582343452235179 -0.006816373257539087 0.024145769414564262 -0.024664432607221783 -0.0018981939255733142 -0.010643418639229388 -0.024400614333901286 0.01624446682962491 -0.0034447840064189277 -0.022185561489302553 0.008503314613743741 -0.007152729171213566 -0.00135649826694986 0.005228763261602207 -0.0040875545396702765 -0.0022031638782324106 -0.024540616785983835 0.022276249308205875 0.011720185835291181 0.021637227960531386 
programme 0.013787650478759026 0.0027827040168362203 0.02377897588658932 -0.004546339966089534 0.015412529225980628 -0.007033759547272861 0.005804928693426996 0.021608991199940464 -0.00894642982761836 -0.0018057235392274834 -0.020538726145312502 0.017339526785504843 -0.01769647405377397 -0.011493787094806435 -0.007334752517274667 0.017194281355575863 -0.0015620323002157235 -0.015470402062988145 0.007898577575005051 0.015583360299690154 
superette -0.021591696274219054 -0.023596404008561552 -0.0034998468534961132 -0.010315408667516651 0.017642276925994828 -0.0005454945991525332 0.005045454416179487 0.0015173450240547896 -0.008615757105359723 -0.006846737574038403 -0.007911416411009545 0.02381738621923261 -0.003929515475639343 -0.0017634806939371764 -0.01678942803663218 0.0038782547090128287 0.024248766859066278 0.002002782701596684 -0.02086537175364311 -0.009040623052805844 
consommable -0.024913842778134413 0.007848604731987993 -6.81389513841412e-05 0.0076415221817715245 -0.003948689919031178 -0.024927040628035083 0.007442399252133498 0.015678790224033592 -0.0015994476090442054 0.01798086285268263 0.0035098284616162747 -0.0007596421929620002 -0.005311844580728609 -0.020398794465729217 -0.005090815544220151 0.0022839153273359484 -0.016129138668882336 -0.004438754283691564 -0.0022436469923154934 -0.014541028568323027 
xp 0.022633666655492234 0.015785415236411734 0.002006559182321435 0.013497577308067159 -0.0008769757677213474 0.010324846069874308 0.0009197310137848817 0.012352183351037311 -0.01993884738317272 -0.01319967047676343 -0.023441888813066615 -0.011896493946378154 -0.024567143324206293 -0.012153442252276072 -0.023607438625307824 -0.012991418102291204 -0.022358630175027233 0.01924270607517704 -0.02059022582402255 0.01653207156644582 
dlc 0.019026970295955906 -0.003871753384356634 0.004409661673152791 0.002296516269383956 -0.009505515729643687 0.008556728676966597 0.02188104416970606 0.012681066376881994 0.007205638518515843 0.010730272664140764 -0.01765947874538867 0.02355485133060124 0.00893570067520355 -0.020771045635159177 0.01445722111845732 -0.023393115682090397 -0.0023252636257708806 -0.00012777251759294367 0.007508642269907242 -0.0033790682284873183 
plastifie -0.013160559887414653 0.008523267552302002 0.018399716633128754 -0.0018734101909041454 -0.0030418682055694053 0.014893557369935372 0.0058759751020485505 0.0007169322578205274 0.005912602179848977 -0.010623961877699675 0.016801014233501926 0.011803914331124913 0.006499502560711188 -0.00028343939264931526 0.012726429018695636 0.01663838878582659 -0.019948737870906653 0.00039040567111710343 0.021650654249642347 0.004504137033958633 
verso -0.010291248202482683 0.005758345739261291 -0.01785008210319896 -0.015519996208845852 0.008403043356162012 -0.003422910251272435 -0.014380594830593485 -0.018111947957075325 -0.008940096824351032 -0.0042505377061074975 0.007453430628558852 -0.0009347729927758268 0.005127915005997669 0.0014891593577385943 -0.011781898584767978 0.012802923539504756 -0.02274076726729857 0.004455465443934762 0.024472186068513115 -0.019620527031731314 
collaboration -0.006327957986773066 0.018157171067065644 0.009325665090576528 0.015522971829931703 -0.0015923421617389038 -0.017981060075695526 0.018279712442078107 -0.003331571130823652 0.018095027033438196 -0.02366182101672004 0.021461064433878126 0.015271325453706009 -0.004520691367241283 0.01962767468290757 -0.003632240943737178 -0.006094812586566929 -0.02036912900778039 -0.020727387927952517 -0.0008084256294162728 0.01303759893683641 
ajuster -0.0005445243030999382 0.021328247594354525 -0.015237416422827436 -0.014069357834484354 -0.0037718771551052445 0.014389696020528121 0.007922273277651798 -0.0011713894736007427 0.00502430906685574 0.0031328633515800702 0.00832841230866872 -0.001519899074034079 0.012446522821125818 0.0004857129445703061 -0.015560056263619662 0.013306738091959458 -0.003758218580074677 0.015165925174939561 -0.0176286181064818 -0.019372345182385876 
famille 0.013487486604764462 -0.015660498049142556 -0.017267027968011352 -0.012067356756252593 0.02301458603578683 0.021809471320570713 -0.021202570822910684 0.01399449035019525 0.0006152673464007865 -0.024188093380561333 0.01538303981572128 -0.0005294718859995732 0.007034683836799581 0.0025372268569862928 -0.001865518990230907 0.022804845966338343 0.011299923182037055 -0.013545787387461082 0.00010279578154529221 -0.015280799287851154 
usage -0.019604003915740766 0.02444005739097289 -0.024347053434108836 -0.013750309505674947 0.0034472093590624626 -0.01619772302700067 -0.007357076592700905 0.009075632704904258 0.015145686645672247 0.011349216507398468 0.009451122744106687 -0.021694108452022062 -0.0002485847810360576 -0.0001719883063903647 0.023570336738612474 -0.012977821712825618 0.005389363511006351 -0.015530933010680063 0.0024169337143490305 0.005011301993873177 
gpl -0.01920980183945112 0.0038772384162516684 -0.018189634469361962 0.019867154494904924 0.016196911320150286 -0.010892841166527922 0.011744725814414679 -0.01700870461610572 -0.0005419059096792179 0.004209887878613859 0.007855791891052986 0.015375819529318128 -0.0064173483402738705 0.018611287196312044 -0.017426020173281445 -0.012752596865081359 0.00041895265166885136 0.004772256634905822 -0.022577689363976028 0.0054805509626305385 
detournees -0.018500485145621613 0.018890614898006534 0.011892929729314258 0.003975414618995824 -0.02129827948966728 -0.02069319908790843 0.0020098784794196755 -0.02320776653185092 -0.0013553767224142952 0.016157019563439273 0.0028100652425654023 -0.023982209865542174 0.003819626753314091 -0.02093456848424524 0.00023998379634178517 -0.003974818673337754 -0.02166168176777667 0.020382197905845785 -0.003078314605746651 0.02317683085612887 
prefectoral -0.018144456875764867 -0.024499548533517934 0.018920476770652332 -0.019487256534335428 0.01664996725240865 -0.003984594292641321 0.023605179638206453 0.021903666689795948 0.004483949382961527 -0.010552667024166839 0.023426385055635567 0.007590151465311911 0.007904456363628425 0.018325324081963006 -0.02255090662530705 -0.0037398169100611375 0.000394012052424081 0.021960354340684777 0.01258513476473146 -0.021837004354784282 
halte -0.018364280537959708 -0.0005543285997587509 0.0003964483647040805 -0.0113606945250171 -0.014215313734986785 0.021443143915616702 -0.016171704897631502 0.003961663445212296 0.023493893987888037 0.002241792716842888 -0.013262626933063005 -0.020069448350362902 -0.00843572585575146 -0.024878772562029146 0.01792856959560003 0.02308151393494621 0.019588235087352787 0.0012914598556663759 -0.008213394610760249 -0.013159464284843395 
pietonniere -0.0013012483356816026 -0.024714718192170762 0.011977869951693731 0.011608032519904792 -0.023777596252992104 0.02197471749220142 -4.4414464302337394e-05 0.009638632525145312 -0.010579974844534181 0.010684922035994382 -0.01822431350428196 0.015614768423530368 -0.018542171247490472 -0.005871268341406243 -0.019484503463661512 -0.005871550931774554 -0.01275640237838935 -0.02327804822755634 -0.006992528232778792 -0.0045672465081857926 
actionnaire 0.006570537070818909 -0.007171513033312506 -0.015544966576342452 -0.0012862746210895847 0.007347066117393631 -0.012854227620390696 -0.010890902512733216 0.014622646928072493 -0.007366100483454478 0.021817424427136363 0.003819713966030147 -0.0060407811446158465 -0.016235581441575647 0.017818027744028866 -0.011959469988525843 0.01766287429825108 -0.005974458248403026 -0.018471407801269324 0.00450777973914437 0.024029453770469184 
grillage -0.006845353182984601 0.014741742166016165 -0.0026925433163622493 0.01755139751524573 0.018599863402291476 0.01024702237644878 0.011688448945564001 -0.00715182558812749 -0.01060840932326933 0.002040016180288285 -0.008758548961617053 0.004548728815378297 -0.015358435217640878 8.680932705626446e-05 0.016577018032336802 0.018845804059114395 0.010168684120409591 0.004060667848413609 0.01559684331001394 0.0054145972206727224 
indigene -0.019817234280559457 0.0074691577929468875 0.015978169907298122 0.007656593424022033 -0.016547777471899935 0.022216878644191106 -0.020586320092144297 -0.02069515610714506 0.024756229714162335 -0.0159463780767882 0.024705349858866018 0.008880364296400833 0.0030258730869967073 0.01757019886474521 -0.02060222158547923 -0.0013547729651678362 -0.010072152305065044 -0.022661346036122375 0.005094911768666934 -0.011268483518803659 
microplastique -0.0012536673969136827 0.015447975019137191 -0.019581952171556397 -0.009659906521625959 0.019077033075996744 -0.013344721226090739 -0.021365256244465686 -0.007373208519757262 -0.018029088907663148 0.01620709822320696 0.0011167894830795442 0.0208326148410979 0.01851862461537471 0.012650775169234152 -0.017693095513808196 -0.023563874638795414 -0.00828310823117702 0.010657561492621247 0.013337302797301923 -0.014118279772630266 
productif 0.010751696926885325 0.005264212665467668 -0.023481451082179423 0.011186104791731712 -0.00011674384174261488 -0.009441690470510265 -0.02007482787522622 -0.005443071689673818 -0.006891806685619236 -0.006019687187799708 -0.01469382811230281 -0.024023969711140066 0.019192297138792388 -0.0069848587055973705 0.006832518846241261 0.01254917948009269 -0.003428893330797801 -0.003284837030593909 0.006984542128891486 0.005843207112866672 
absorption -0.00741005713986983 0.021496087234817923 0.00964250304864538 -0.02168275553520906 -0.012698905355242044 -0.018191140793937764 0.010214614304002482 -0.008530414306303757 0.02123684892717459 -0.0064524601082650845 0.020258944507968755 -0.02493804502593367 -0.004155681591418081 -0.0028029113039672654 0.021610880174952263 0.017454569414137776 -0.01938325947861264 0.005383699917634597 -0.017007615632865507 -0.02251822766033568 
brancher 0.008288700858476708 0.004733484720904227 0.018606594867325417 0.015433419323751247 -0.021095348975728793 0.021590997391648596 -0.022952522649573495 0.004321791843970244 0.009695756264447526 -0.00130622427698079 -0.0008269624065467109 0.008069591319359963 0.0014684147313415168 0.0230079180842263 0.015940302180609402 0.016947398747163264 -0.0131083677484858 0.006770162154301485 0.021504916996006932 -0.0022551686662842887 
reconstituer -0.013837291847240347 0.01138396561048527 -0.01256181910861066 0.02325433095934623 0.016593322957721573 -0.0200026434760102 0.017559545142059492 -0.008799548728727841 -0.012746581449517718 -0.02344173905799838 -0.007821910966457573 -0.017384643071483765 0.022186275542852633 0.02188499222292964 0.01055534067816183 0.008842368613525201 0.009991527326864051 0.012553726533832665 -0.011288621723888724 0.00967635238661309 
renvoyer 0.011827417434162869 0.006820545591053664 -0.01251155949521469 -0.011258964450008858 0.012652109851360711 0.01367123930341676 -0.00712235917853884 0.009817628762843547 -0.020947574066618707 0.01858798237115491 -0.018587720485208042 0.014385424447625503 -0.022109446085675784 -0.01251302462179187 0.02257511875328535 -0.018092639872773385 0.018098944763689968 -0.020245469430513953 0.010524488504304678 -0.017546297556391602 
paturer 0.0053174783678032606 0.0026405369036671088 0.013801003450319505 0.019835937368093016 0.01670865867373354 -0.018806444340608835 -0.02342815817445205 0.0170166420219652 0.024868307914818043 -0.0004941095379011817 -0.0133200061437002 -0.02338166745506006 0.0010863047979515132 -0.015665354749659757 0.0055021021144537 -0.01992964977661506 -0.0013947921174921206 0.0018870280546114861 -0.02335608515525186 0.006409245392346591 
chargeur -0.009783891247694037 -0.0006468403742339613 0.0006577903942572395 -0.010154576091008297 -0.00917679305763227 0.001958287467716022 -0.0044516454872542245 0.008068146901866828 0.018894476523524092 -0.02078103601539658 0.012672937381693897 -0.01130120536134966 -0.0014674146998668316 0.015246241037909461 0.01831905063392461 -0.010914113761991707 0.011212918686028911 0.018132995510356017 0.010449640935806734 -0.002555189716279591 
monoculture 0.005385848710063401 -0.005422212864228131 0.017928187994602846 0.02177543883354407 -0.0032148120575737067 -0.010149983550107168 -0.011115318467117118 -0.017423302089778884 -0.008405753647528956 -0.021991950909944196 0.0062106859842430175 -0.022104081185860068 -0.0001029471679242223 -0.009373319508023401 -0.0025117664791388912 -0.00831536337821471 -0.02481618260324565 0.012684061442342468 0.0070457264619296096 0.022336758738964135 
clairement 0.015528021556776937 -0.016984828798393924 0.006274115266068527 -0.0046358567798729525 0.006307212646684076 0.009396743931678308 0.005239836700808118 -0.001476546962253818 -0.0016462542248186526 -0.010308278985727923 0.014573424791692642 0.011902483470093232 0.012710956937448137 0.013233029647965638 -0.001253632785397421 0.020756565577959026 0.003798366821591807 -0.023423874679052322 -0.017526544741914504 0.009923945315757441 
refabriquer 0.01703552207133761 0.011002098444530508 0.013926566803914828 -0.000759278488542059 0.013801546672374172 -0.01540853899566151 -0.005053461737259883 -0.0015999665793148378 -0.022760837779678265 -0.008562059466153328 -0.02184951162068589 -0.0074393026433461395 0.02109044360461484 -0.023211174362074764 -0.007485432894333828 0.020699618740407728 0.020935964468106347 0.005480791370460634 0.002765098156546857 -0.009675874655903494 
decent 0.021331576635871822 0.02242540406098745 0.010475842077519566 -0.000816088603998598 0.019160463739122304 -0.005140872604713845 -0.012332865311680569 0.0019279384372017743 0.0016399523314162444 0.007026883628637162 -0.024744611592848003 -0.012672066666029555 0.02375804861321669 0.0073995506918728025 -0.019424275207695428 -0.01894777743613627 0.013797456455972797 -0.008468014436430908 -0.024056829601233638 0.006988906634430801 
fantasme -0.007996946985053608 -0.020142657115027673 -0.0009209141249711284 0.007598573632257948 0.0037496653179276266 -0.001448837720770192 -0.022649797004124405 0.010771125660816705 -0.003107705644970921 0.015814350156225468 0.02438556250354162 -0.007319110975305117 -0.017214103867113147 -0.009024787462736184 0.009158624767769888 0.023096601358439182 0.016862634449705736 -0.008761604231068905 -0.0034618345140939853 -0.0022647444782603015 
seau -0.011399496303241967 0.017816848523449124 -0.01278505857272156 0.011665133371665637 0.015547791691555282 -0.004542524162139153 -0.01388352482682275 -0.010361520524556857 -0.009011940917787502 0.0074137439791788495 0.011438812067448362 0.012133031358231253 -0.017485700176485743 -0.0003646582953262541 -0.016772185812387375 -0.018446623288148688 0.018395913390085842 -0.004071507539810535 -0.023678160992796494 -0.006616253718612324 
sigle -0.009037038654292328 -0.010077034905201863 -0.0005618984208007233 0.02050749688821388 0.003465136805459332 -0.022700671136613896 0.023140016313589046 -0.020628900152238235 0.021565486531358133 -0.02416493283187681 0.016313575007705635 -0.01723477223485648 0.00478535668680011 -0.02355579722772621 0.016808508325962743 -0.0036928699411728485 -0.019679669114206478 0.0211633220726798 -0.021225887766422296 -0.023874802742416337 
voile -0.0035876690539449127 0.02145575669845337 0.02370335795378381 -0.006842556764141747 0.010725062225755758 -0.0231744330396756 -0.020904129850954686 -0.009135589873341452 -0.007912862273519235 0.01236308821588081 0.007256226042920718 0.011043896070742475 0.0036923766343152807 0.02290502499386534 -0.009748181793495942 0.01755078193397948 0.02013048988422821 0.006125878584907985 0.02416171685420259 0.007021791615897178 
conforter -0.00288115521162515 0.009384860096020138 0.02284367717842 0.01404703982463019 0.01103110163600121 -0.014891986752397002 0.0038565927749757115 -0.0043756558168384 0.0019727845692436652 -0.023784974620754334 -0.007122874095061954 -0.017688415749672174 0.01895655070396059 -0.017064629928218642 0.020227617340873996 -0.0027999408489577464 0.023642853594710658 -0.02203577983101665 0.0012776161762787733 0.024036974621177865 
fashion -0.00236242548632489 0.017214199532017492 6.682123244158401e-05 0.012596484432599461 0.0056846931722826476 0.0015929673498405168 -0.016175797029845236 -0.009280308228658602 0.017939313603566383 -0.00496181558732254 -0.001572910107784626 -0.013307754140600508 -0.014178662410753745 0.00840178602840992 -0.01859701729934049 0.0019378557362473598 0.005238715406453117 0.01599531457855417 0.0046135474144065195 0.020103768191508425 
minimer 0.01134259402028801 -0.013648104748418204 -0.0075159872034535205 -0.02044698581283366 0.010800110964740813 0.016666962670319956 -0.00581796195682948 0.003156602623044742 0.001313772538597962 -0.006037329330323124 0.020954071448889656 -0.013935080118702104 0.008960038065657667 0.007520452061820858 0.010598479543673345 -0.01773343911840807 0.01884890720477623 -0.010522028573307498 -0.013725507415406818 0.010723104061594322 
compostage 0.013581593860509033 0.021327490496474123 0.019324457070105754 0.019287179351592566 -0.023746476623438248 -0.01115815770267275 0.005842199962616449 -8.742751848114605e-05 -0.022283822367334442 0.021934281166809313 -0.01119360608943569 -0.0013639454298594806 -0.009887587858156594 0.021257995998839523 -3.409880379092399e-05 0.02274950228972366 0.0004187022616894151 0.006902050435091216 -0.0005089220157725168 0.013002092095973649 
tard -0.012267737928150032 0.009172918710021278 -0.008237430619936122 -0.017894021155689496 -0.012775860912935817 0.009887353019574706 -0.0248010699900258 0.01874512546720205 0.011523526587419144 0.02353265770502589 -0.015378143258607072 -0.01167143014149271 0.021056776927909145 -0.010390567335229025 -0.000754372256846623 0.012058775097204457 0.02334414081110058 0.0219879648401074 0.014842743340550444 0.0059166990973264855 
exportation 0.0030078635652336498 -0.02470142340365208 -0.024415701213229182 0.0013040889711100924 -0.008774836550670958 -0.014440370562797549 -0.0141424236977651 -0.012823059521098234 -0.0037810559052570717 0.005684425235835356 0.014969516360578977 -0.006111318817237302 0.017986401689711037 0.0027183123021047207 -0.02427530585197501 -0.02082985366706547 0.022647036197880097 -0.012707975851461452 -0.018526928860571196 0.013333809330531101 
motoriser -0.022865253532685714 -0.023765594085386647 -0.009732502103102931 -0.019193248212968427 -0.019940166396535574 0.01767369612433289 -0.023689436871323754 0.017303058248202 -0.01701671919249629 -0.01975268440978503 0.011590156886846578 0.0036951707367184274 -0.02305273701906389 -0.006740274716247498 0.012914562493329413 -0.022091304003467965 0.005212855682922447 0.02463193368317151 -0.020984319813553854 0.009663819655787562 
relargage 0.019330644815164114 0.006234208888216856 -0.017967542759384066 0.018999510362845775 -0.013525179642323377 -0.00786460348763276 0.01291771069636612 -0.001976076245433339 -0.01061112680624549 -0.02252772086622668 -0.010078691105404637 -0.02169359317930259 -0.000413471452077858 0.0004728858763429234 -0.016421911854813637 0.00209953117402302 -0.00022104430957977292 0.016506485399348417 0.016001002626959394 -0.006278131674911966 
fluorescent -0.006620601796437462 -0.02122748161991919 -0.014833782965456555 0.015566948863339444 0.02217582660634842 -0.020607949489148472 0.010777270764991603 -0.022470877306606237 -0.004987187410001833 -0.014688989440607925 -0.023485836399212562 0.0027852205204033117 -0.004604166706670359 -0.009421029855722475 -0.019527391131748874 -0.002573376290913542 0.020507098303384007 -0.01792411552612394 0.011622175071953665 0.006560016290410932 
creux 0.022848966753660483 0.010913474602059213 0.003583248403794416 0.016047719647716716 -0.023584611973031896 -0.012818179943893563 0.013624987678534477 0.013521034645181859 -0.024244494139046356 -0.022450083108934635 -0.017532061015482985 0.004822158771675649 -0.008191971915247084 -0.010333943058877842 0.020119781905192712 -0.019833375129700133 0.006037922009082332 0.010699607407374925 0.024586607272062855 0.0032677335543713276 
publicitaire 0.020062556562704992 -0.008455010028077622 0.0015294284492855896 0.015010139844505933 -0.003969427119284344 0.01317366284603169 -0.004527491066457589 0.010582836793178571 -0.02091694878955881 -0.008509527566584078 -0.02100369236191522 0.01583632391007858 0.018259003945764574 -0.019884681982167977 0.004367089647722245 -0.0065096366486848975 -0.012970729525071514 -0.002302652878682868 -0.003978206290473843 0.0035485798903383686 
eur -0.0026965024665535227 0.020020918184972418 -0.015306537079031598 0.008493601988783626 -0.014230100348127469 -0.02466274481951217 -0.019634387041865525 0.006483950580254238 -0.0023882062512032847 -0.022510886630155602 -0.009692283793899923 0.021411982536746373 0.0068550369142710964 -0.019189230793647274 0.001925833510751115 -0.022162863698906483 0.0018893829033015154 -0.019758249491496627 -0.0017070125461380167 -0.0024904498991334214 
reduction -0.011494964182121179 -0.023697040005887283 -0.0001273843476363087 -0.01861020914080332 -0.008229613643100372 -0.012486601320970037 0.013240671717920616 -0.015575150287561576 -0.007672508957732859 -0.004397065886797962 0.007197566310570267 -0.0047214315580494 0.010788587211778368 -0.020203984880117747 0.023438914608382905 0.0008449612787111115 -0.016476173936585563 0.022979503179959157 -0.01676956495747907 0.015581000110104125 
maniere -0.006546078117729128 0.020482566569451577 -0.0014455803042168057 -0.004412297737590481 -0.02218659081328644 -0.0005541117242398458 0.009786834307646382 -0.010692319139798026 0.016502332969179204 0.0022162761237997175 0.01480843513698738 -0.0075673759199997885 -0.015256382416837647 -0.02158378107918315 -0.020321361110267173 -0.020199413407038923 -0.00577606521232685 -0.014046272433062373 -0.022829704286987607 -0.012303656629675726 
clarte 0.018904193841686952 0.01951916713623814 0.017192757433272938 0.005187610572275362 0.0010302343236071368 -0.019743848581335075 0.02092457580211707 -0.023040054525229964 -0.015899859241792644 -0.0007790559129637511 0.007004721585577849 0.013993203574690824 0.010336298898933177 -0.01836211271456336 0.009786791137170858 -0.007870356089966538 0.023742553262989116 0.01376450359347935 -0.003644760678501912 0.002113695700898685 
benevole -0.02118906129095129 -0.014251269648211627 0.02062365781851653 0.02109262799064406 -0.016065236196629546 0.008312810848228117 -0.001947030339530941 -0.012820392369086522 -0.019106121451386952 0.010087092276815111 0.00870556029476161 -0.02083425873022846 0.01170418131816016 -0.011722118498041527 -0.01626240996631256 -0.01889756273169838 -0.005292980088068144 0.014544290774606575 0.008080287993059857 0.011863781552906703 
impliquer 0.02206312131298647 -0.0008669038028073056 0.0013257748226791742 0.022068677422976215 -0.01311829042547614 0.023451210137374542 -0.0230416333892812 0.020420433721842348 0.018726668674934447 0.0033138323704816 -0.014355184154948665 -0.018165954534768144 0.010677781680489783 0.001897392377638359 -0.008146849622379477 0.023901292493588397 0.024431482980321124 0.002209781011176701 -0.010981252525204783 -0.023617731742152967 
augmenter 0.018029177369323718 -0.011590033392691466 -0.0022799117631456187 0.009521791036616508 0.01838099019670876 0.009914621515964932 -0.004758218299215439 -0.015300934492132203 0.00042882052628628956 -0.014194823420175383 -0.018421557747045982 -0.01693533863796953 0.005695105124341517 -0.01070710225072699 -0.002465043705398688 -0.015433465372243856 0.005979231218192974 -0.01414314397701298 0.018454927006888725 -0.020407732917834025 
dominant -0.022709463677882052 0.009995166996397237 0.012723372826287244 0.004434594762242247 -0.006588996685933801 -0.01889006297322807 0.003452387443343754 0.023039017355044322 -0.021675775827451647 -0.01805004847648763 -0.018010447266566233 -0.00037999264316538115 -0.007925238951377171 -0.020235101112830493 -0.016731383648180997 -0.020368363361837775 0.019534248717447796 0.016478096437887373 -0.022494822204846342 0.02263654372737951 
chassable 0.02149834066513862 0.006360139048316191 -0.010769141651523107 -0.021433132664489277 -0.008084652490581195 0.022389133828763116 -0.010108932220439288 0.0026213190724486916 0.011134812858861674 0.0022425781927899943 0.00862299798896549 0.023725759076975876 -0.012411636892172931 -0.01275160263055805 0.012087245396993353 0.020000219026232786 -0.012997814674163938 -0.01728577252079395 0.020724107788502297 0.018687183312437967 
emetter -0.015497642383751769 0.02227783053456478 0.006472245254159614 0.009897454100446946 0.016923753350289873 0.011698822366689886 0.009261707505771358 -0.022120644715155412 -0.001036941601580895 0.02000610532376873 -0.019815849394599377 -0.022233122417898276 0.02213684215216063 -0.005763584430081392 -0.0018724838174663764 -0.007869137449728605 -0.016477457064887832 0.004375366494632516 -0.01933664971641428 0.010251861988965385 
ameneraier 0.02217110648933679 -0.005341843726930356 0.015234631558580994 -0.02070714908558996 -0.01095607615847055 0.002149246812432014 0.018624165874296043 0.0016758367588704357 0.015440660502022224 0.016673931303213235 -0.010767022365056172 0.01455693919061426 0.0055272523054782545 -0.021024434105724087 -0.009181268182722871 0.008886621270248841 0.019003131193677997 0.0033391923390374027 0.007871086770366622 -0.009388120327773707 
composteur 0.0195402216708493 0.023258585819173408 0.0017211689167197562 0.024598230880565744 0.007569711905902369 -0.022728850954151333 0.004158842252890796 0.017210644329131664 0.01942297432830407 -0.0227528422921239 0.011936562864691287 -0.005514155740375551 -0.004462500060067325 0.01225697604020914 -0.009965743663083216 -0.017851698705162438 -0.017905409194987783 -0.00349221831880002 -0.015860191120611114 -0.01564783105994677 
venteux -0.003544384158995134 -0.003458979295698694 -0.015585167383809027 -0.004659633450937118 0.007649280154524946 0.012037951794693497 -0.011860973949349407 -0.02184634431759608 0.003440354589261148 -0.01756620750072227 -0.00538728137579446 -0.024192234765605846 0.019444888487542753 -0.02351034078786294 -0.003096456699689 0.015251229197061253 0.005274255390703494 -0.020767105926918793 0.008648393772045957 0.0015277553009023898 
sale 0.01570826703703827 0.01631040488004841 0.019774786043548185 0.004430655026200738 -0.011163773063562336 -0.009401033219157291 -0.005718107469440612 0.020814061341825625 0.01933306860254578 -0.009775999532786114 0.012372516838017272 -0.017914260571640167 0.01493618164568076 -0.0071548156487347084 -0.005465635970896769 -0.02338078740694481 -0.006634408030988975 0.023491823412885263 0.01832004525852269 -0.01663303799303811 
urbain 0.00852972722819544 -0.005507586364412663 -0.00371797466448796 0.021805518911426135 0.019364509259855903 0.023434053278914117 0.002182521890999036 -0.01616349299839189 0.01606643989444719 -0.007982811084063459 0.01588178892648188 0.022243727364208096 -0.0018299732040266204 -0.004724327552859462 -0.01838139612720886 0.010458256190129184 0.006103602760160642 0.01742283029457412 0.01392501283865598 -0.017674091074824174 
blanchir -0.0209162542174919 -0.013528271251851279 0.0014437267084512124 -0.02035871981889834 0.0037493945984232698 -0.004564360603793215 0.007426189374675876 0.004533966025975904 -0.003757646537642681 0.0018414874524394387 -0.01345689533420184 -0.012920365589441367 -0.009977501490525734 0.02029110796208623 0.022466341365015942 -0.02157541879525928 0.006069463568880422 -0.004811762178543657 0.005630283730381662 0.0049063737868139945 
pylone -0.010083009182069521 0.008035049406430128 -0.02407833208814818 0.005505430923225811 0.007574086545338423 -0.01701246913717801 0.007916187462694632 -0.006160273383848427 -0.01665442297485442 0.009031708326891503 -0.020974500229248332 0.0032603779240871905 -0.0015937992924238168 0.012544088465422716 -0.009183947747809932 0.00264494322458365 -0.01991085197848228 -0.020465354463403033 -0.016780725162655406 -0.009736653906437062 
reversees -0.02248110907742951 -0.011013170269943045 -0.01938003425163324 -0.0009199828246608554 -0.002958051323395506 0.019085515520003538 -0.015906280232989865 0.013784992683368106 0.010473999149981431 -0.011219744929224755 -0.014460167219010223 -0.00981365765663394 0.014940510257789233 0.00055815453208607 0.002039637958195186 -0.023681351033594533 0.021258226616271542 0.02114971182886852 -0.02022946847026007 0.008186063339171278 
fecondite -0.010808703614556043 -0.008925450417895723 0.0007207034406382665 -0.009610589639356957 0.01043084332340642 -0.016331591946018867 -0.0038483238686454384 -0.007223140646264982 0.005234654254162097 0.024873228829368172 0.013416232783956058 -0.011944165933933708 0.0026180037132731973 -0.01875663280820091 0.006388672145285436 0.020253098415966984 -0.00045847584400689927 0.006979058418937148 -0.00044472966301524036 -0.02128900966266833 
cargo -0.009334180032001113 -0.004367361923777208 0.004026939707132022 0.008604223296967176 0.003117942196459111 -0.016779452797789078 -0.007881322535789827 -0.007226020723563596 0.0006486421621440938 0.00841175864132867 0.0016183730168984512 -0.012851028641930908 0.0033951027946442515 0.016471862584184736 0.01611561617432349 -0.021417669027898892 -0.008895342450249265 -0.02408892377359656 -0.02015219284240996 -0.012683964896235468 
augmente 0.006678848998590684 -0.01900289179436653 -0.021001145436489402 0.01844311370550656 0.004002511857801248 0.021940304107694864 -0.012160173237215648 0.020999009691158806 -0.0017741275843138973 -0.014061415257292917 -0.020126958166254347 -0.01531244431552672 0.020617818981581493 0.018133413411325527 0.001305839678646619 -0.009398162982535561 0.006197053928013856 0.0032035340760333425 0.004086086991746735 -0.0027631125151047135 
hopital 0.018078865129407477 -0.002675055579981914 -0.021370350249955056 0.022498754040125836 0.0003974820800936501 0.017859306744454833 0.018123325857291882 0.02146719855626355 0.0026256997840362058 -0.013161473512297194 0.008407817871581992 0.016235149306530968 0.008083254149039473 -0.003529768985567228 -0.007861850439811762 -0.014603280930521814 -0.018755228285374674 0.02107817395992509 0.016317733495426475 -0.01316041169382543 
ambassade -0.0025655556022015982 0.009301336448026238 -0.0071502405183655705 -0.01820894996599265 0.017193441564430072 0.024606759015374503 0.021514046539798423 0.01733582683745504 0.012821090151299485 0.003629483452741649 -0.01666587052672294 -0.009327475432801824 0.01372639556169946 -0.010740693121208343 -0.017966658824620528 0.007844219015532023 -0.002021225872658562 -0.02486205443329834 0.014013018826899325 0.010109241229450647 
fuselage -0.006461981024091306 -0.0031384277626378323 0.01249034690395272 -0.013293813332772216 -0.010287907429523251 -0.01734616058989035 0.0008582726960190013 -0.007058095213141553 -0.0060067354353198045 -0.015027751054309176 0.0016001345260041396 0.013876480305039096 0.001578318036694543 -0.018880111777219384 0.0019794367679030213 0.01708837755240084 0.007017753358106604 0.010422850271658785 -0.016564944945125237 0.01266011478145313 
pac 0.0054072379061528755 -0.021172158690533602 -0.0069505227286860375 0.01858804738175685 0.0042150482206505325 0.00949453459179936 0.0026932999882487703 0.005521708942634557 0.014678315327940401 0.01963405464109832 -0.014153877413170299 -0.018197050925187308 0.015206470951195495 0.01696993101914017 -0.022094342645082463 -0.0050222747601095874 0.022192144814479255 -0.01850898286747808 -0.0103405102551992 0.01573291467399062 
naviguable -0.019375154313398892 0.020024533695573835 -0.017452499877635842 -0.003713609420826935 0.023082364164719153 0.017440001516671993 0.024852478088294692 0.0035206087122009525 -0.014063883631543801 0.024766529188574363 0.0029939121055579886 -0.022662755606087468 -0.022694281788307177 -0.004142902529345511 0.008908854802561986 -0.01130612133866909 -0.004938441698251164 0.01027946394965129 -0.001300936798339133 0.007833891591011343 
