7231 30
produit -0.11787199 0.30789915 -0.24807842 0.6703247 0.3030465 -0.30871922 -0.13173822 0.081194445 -0.93450785 -0.13494538 0.115239926 0.059787434 0.17025545 0.17967026 0.51383495 0.17088631 0.13033554 -0.19089332 0.59676427 0.97675127 -0.31524584 0.36992118 1.0484719 -0.040038824 -0.1105484 0.881629 -0.063873835 -0.6892944 0.108503774 -0.88781095
interdire -0.17259967 0.030753493 -0.27505946 0.3126458 0.15359253 -0.06461644 0.22058624 0.14089039 -0.66438633 -0.24387115 0.2483358 -0.1665997 0.6819562 -0.18232973 0.048202652 -0.19958185 -0.3693095 -0.2122282 0.70497733 0.584264 -0.28872758 0.1612944 0.28858683 0.005865797 -0.24714689 0.36496997 -0.3365022 -0.7636688 0.12118993 -0.8974909
arreter -0.15796316 0.2576445 -0.31272525 0.46470764 0.40727252 -0.099899925 0.09671162 0.14660536 -0.61251503 -0.25359467 0.35578933 0.06899435 0.25107074 0.22190408 0.1452874 -0.21510535 -0.47902173 -0.059240807 0.54221964 0.68671 -0.27193043 0.1904105 0.4917437 0.058036514 -0.08425197 0.4128322 -0.38402364 -0.7116328 0.30356866 -0.7476792
plastique -0.12464723 0.5205796 -0.59811085 0.39450428 0.38601825 -0.24508592 0.45549437 0.18786325 -1.2222909 -0.18497972 0.13589442 0.24045369 1.1440847 -0.118571036 0.03306403 0.24943116 -0.14269102 0.11550775 0.81939876 0.8981232 0.004875881 0.16533917 0.7571714 -0.035386972 -0.2311326 0.44945028 -0.6366392 -1.1284631 0.5906491 -1.3248844
faire 0.06639322 0.12054974 -0.06885509 0.61205965 0.16557898 -0.115557276 0.07835058 0.26460165 -0.39667213 -0.02493678 0.5724277 0.11355391 -0.06547068 0.056905784 -0.120168544 -0.31585017 -0.0912927 0.2411338 0.5119694 0.7915547 -0.13301893 0.15946224 0.37590393 0.020182101 -0.3482036 0.38484383 -0.119575046 -0.56596404 0.09818304 -0.5562825
dechet -0.2740758 0.2985355 -0.23943436 0.5806884 -0.11745646 -0.17858908 0.31981593 0.4355932 -0.5404423 0.14349392 0.7842609 0.5963128 0.014254418 -0.20419878 -0.29940018 -0.04496615 0.31493908 0.4355449 0.6287838 0.8073976 0.113637164 0.19163333 0.38479832 0.14365828 -0.7132247 0.25085947 -0.5426327 -0.7572778 0.47982144 -0.6153858
eau -0.24785902 0.3457918 -0.5374901 0.09193963 0.35757205 0.373616 0.3559605 0.3849351 -0.5002693 -0.013164163 -0.10439745 -0.2738261 0.68149376 0.09496648 -0.44288835 -0.572544 -0.92692375 0.2635188 0.54577285 0.55020314 0.06477215 0.23969713 0.19355315 0.25515336 -0.18373182 -0.006895107 -0.830315 -1.0174028 0.4063355 -0.92919356
mettre 0.3480218 0.22119792 -0.038555205 0.14402518 0.0047393343 0.30082294 0.6426684 0.3784235 -0.5563577 -0.03087412 0.31342572 0.34001285 0.43641007 -0.25131848 -0.55887383 -0.3333304 0.1762016 0.5754647 0.27307853 0.7372543 0.005080303 0.19715096 0.54809296 0.40201554 -0.50792307 0.35804093 -0.53009707 -0.8333026 0.20040543 -0.74159724
emballage -0.20703389 0.4295954 -0.5834788 0.33510196 0.26166096 -0.35153088 0.2830062 0.28044748 -1.1536016 -0.2591653 0.087655485 0.10757399 0.91088724 -0.1656969 0.2575846 0.3236524 0.010202519 -0.13287385 0.9410077 0.82374793 -0.04978986 0.21943566 0.87012094 -0.10500021 -0.21300395 0.6264726 -0.5653421 -1.068891 0.37616435 -1.2734604
ville 0.29698747 0.020954888 0.39657193 0.11379347 -0.5024821 -0.1289855 0.57085264 0.71643996 -0.32222274 -0.3265407 0.5029688 -0.1959009 0.13422155 -0.30948186 -0.803784 -1.0829353 -0.40601462 0.5214266 0.72932893 0.5892376 -0.28906462 0.15012538 -0.067969956 0.34036738 -0.2622956 0.29189494 -0.23554 -0.687011 -0.09140239 -0.3211508
entreprise -0.06147242 0.0632741 -0.06816859 0.35106125 -0.1177698 -0.08744867 0.23655222 0.46067253 -0.45132685 0.036448594 0.36496168 0.05344578 0.07212227 -0.25837222 -0.19775023 -0.2247045 0.20556419 0.13570678 0.63775766 0.73017955 0.086254746 0.34227914 0.48343173 0.078423865 -0.5140649 0.5664433 -0.09678752 -0.6687183 0.094845355 -0.6541983
developper 0.36047706 0.1391139 0.35039598 0.113481 -0.0026503932 -0.24766703 -0.021176476 0.56707335 -0.5109636 -0.39305755 -0.026785543 -0.36273146 0.09729958 -0.15995207 -0.30884054 -0.8337787 -0.20221369 0.25943807 0.7379995 0.6598315 -0.14266849 0.40904993 0.17907672 0.06775093 0.023387074 0.59126395 -0.03137855 -0.56573343 -0.14072183 -0.6180679
consommation -0.19711477 0.05741221 0.15450625 0.59892505 0.5243176 -0.37382427 -0.39403155 0.14489077 -0.5549237 -0.2779736 0.31373402 -0.44500276 -0.116096884 0.080212384 0.45160645 -0.2647105 -0.22390684 -0.30624786 0.6670075 0.68079764 -0.21004283 0.35357922 0.84318525 -0.0641829 -0.09523256 0.7062615 -0.05390412 -0.78909826 -0.014479713 -0.76256984
energie -0.2993127 -0.19424537 0.40229815 -0.035443068 0.3227503 0.032442003 -0.19889623 0.4142514 -0.33214268 -0.3202151 -0.08693401 -0.57312006 -0.34554538 -0.13466175 -0.17913283 -0.85168594 -0.47996902 0.1656749 0.48582795 0.47239706 0.04452003 0.69124126 0.55058557 0.5732271 -0.009886644 0.6421343 0.0040566004 -0.8418922 -0.049427435 -0.90900856
grand -0.08092588 0.10664308 -0.054714568 0.2857511 -0.1610566 -0.091603294 0.5947612 0.33405003 -0.53510064 -0.25512388 0.40709555 0.03184327 0.10018661 -0.28488532 -0.29605785 -0.495878 -0.15074307 0.023111207 0.4534305 0.54585093 -0.43875363 0.009753629 0.7236529 0.114626266 -0.08245588 0.59686184 -0.12794271 -0.83156526 0.18312615 -0.5468137
limiter -0.044774514 0.041607678 0.1506744 0.27599984 0.15850146 -0.42192462 -0.02537002 0.2555014 -0.77357423 -0.44115326 0.19556919 -0.24844341 0.24738023 -0.29063696 0.12178959 -0.34247157 -0.121765755 -0.106837094 0.7271543 0.7212614 -0.10705322 0.33860266 0.37328607 -0.20575635 -0.11715994 0.50330853 -0.1785266 -0.71964073 -0.03820475 -0.7222057
favoriser 0.18690144 0.24222086 0.09763418 0.22770002 0.25764477 -0.2729431 -0.01872194 0.33679286 -0.7123077 -0.3946851 0.028659282 -0.23798332 0.26799402 -0.01809242 -0.05470507 -0.50717056 -0.23764181 0.07536401 0.661088 0.6614577 -0.2685702 0.27437687 0.5494786 -0.034914717 0.12487609 0.62244934 -0.13356769 -0.60186154 0.0047388463 -0.6954889
creer 0.07384041 -0.0129382005 0.07249819 0.46532977 -0.11602407 0.13883759 0.23394775 0.3450777 -0.24304113 0.055348575 0.45587093 -0.11437275 -0.12309167 0.06204908 -0.3749344 -0.65017706 -0.14573531 0.35248744 0.43832123 0.7436506 -0.22927818 0.27938223 0.28457153 0.3502888 -0.34307194 0.4477707 -0.09960915 -0.53646326 -0.05701314 -0.48417813
reduire -0.062422644 0.043771274 0.16660357 0.40377086 0.20417269 -0.3609832 -0.12994504 0.2159256 -0.753001 -0.30174038 0.24696894 -0.25226298 0.039081123 -0.26628205 0.19852883 -0.2991375 0.02689985 -0.07504708 0.697652 0.80133647 -0.12790005 0.37958437 0.49910578 -0.18656379 -0.15574127 0.5349315 -0.124155134 -0.7160115 -0.028706059 -0.68674463
local -0.21004537 0.31539422 0.029657092 0.7660165 0.6112093 -0.46003786 -0.41426566 0.0057771085 -0.7031095 -0.4129594 0.3232542 -0.020629851 -0.08219151 0.57924956 0.5209041 -0.31580082 -0.3511733 -0.23275867 0.5362879 0.8259408 -0.62515163 0.26104385 1.2158831 0.060862474 0.19376111 1.0698364 0.082719386 -0.6875188 0.095768735 -0.7305923
environnement 0.113294356 -0.05723842 -0.01951625 0.9307311 0.26001754 -0.014336781 -0.08773447 0.17651367 -0.30868942 0.4161985 0.7864723 -0.15516837 -0.511789 0.24952269 0.040493105 -0.4128217 0.2195732 0.12942043 0.392569 1.0442326 -0.2007853 0.34149313 0.46087757 0.13634472 -0.5887791 0.6349062 0.26085606 -0.4042917 -0.14828314 -0.44854286
voiture 0.51376456 0.031639576 0.3073205 0.06371851 -0.0035760826 -0.35922256 -0.05454657 0.6002251 -0.5054973 -0.58849317 -0.061872944 -0.24922168 0.08019089 -0.32548392 -0.43039575 -0.8397995 -0.3213258 0.32003874 0.93320936 0.65563375 0.089037485 0.48252246 -0.042233694 0.011091404 -0.07005432 0.43199456 -0.1757133 -0.5689037 -0.20590505 -0.7875206
utiliser -0.11872958 0.25576457 -0.25816622 0.11987514 0.3162264 -0.12087821 0.20456848 0.40025437 -0.64590406 -0.29912338 0.07372943 -0.14502107 0.6165414 -0.11226081 -0.13527896 -0.263013 -0.39686877 0.0027285633 0.6667623 0.5992377 0.013431628 0.23840196 0.3935229 0.046043154 -0.058826197 0.35295898 -0.46574682 -0.8840858 0.19759206 -0.9136307
non -0.1375643 0.21941285 -0.3899589 0.30690902 0.22704467 -0.13318093 0.13058013 0.30017084 -0.7678391 -0.06678526 0.0658225 -0.054593466 0.49554977 -0.09067918 0.051658034 -0.09471204 -0.120688945 -0.022027392 0.7419934 0.68118536 -0.08399416 0.26446933 0.51245195 0.01398536 -0.19993208 0.5337431 -0.24444449 -0.77269596 0.12937829 -0.9438307
transport 0.47042868 0.24077684 0.6930033 0.2025656 0.06431821 -0.5469171 -0.300176 0.5994835 -0.64081395 -0.581028 -0.15206276 -0.38484746 0.0025084547 -0.15068242 -0.010423711 -0.8534434 -0.14810733 0.13686226 0.89205456 0.704726 -0.1970785 0.5859186 0.23397303 0.0073781386 -0.00405444 0.7390169 0.22023958 -0.5206571 -0.30811867 -0.6278327
taxer 0.033500265 0.17524649 -0.047366675 0.4631517 0.1969192 -0.20686056 -0.19088535 0.3000533 -0.7899127 -0.2500385 0.053459078 -0.11462011 0.23722759 -0.01633297 0.3016989 -0.1557773 0.040454626 -0.03463765 0.71055967 0.77659786 -0.06676081 0.44452614 0.5784435 -0.120640285 -0.17235401 0.67801285 -0.0014686838 -0.6726616 -0.052012447 -0.7320924
place 0.41683108 0.5383754 0.13170184 0.2603918 -0.0655323 0.20091017 0.6849882 0.6070591 -0.66691893 -0.20068389 0.21321847 0.51587725 0.45936418 -0.095264465 -0.75926626 -0.58994186 0.2562626 0.6538591 0.36244875 0.6402601 0.09104034 0.09520919 0.43066645 0.501524 -0.37249258 0.2877065 -0.6781313 -0.6840545 0.49164006 -0.79183674
bouteille 0.037957296 0.735246 -0.6736479 0.14363234 0.48869526 0.17280893 0.8599913 0.365038 -1.2609992 -0.28064945 0.16628549 0.4579743 1.4059128 0.0634835 -0.32074243 0.04698295 -0.3443513 0.5420766 0.9334284 0.8966656 0.11672517 -0.018824836 0.7565064 0.21244544 -0.36916578 0.40752417 -1.0384291 -1.2142321 0.8812759 -1.5708815
obliger -0.18830551 0.077739105 -0.20724647 0.30052626 -0.06633681 -0.06405337 0.41321665 0.3341366 -0.6004409 -0.14021572 0.3933752 0.058509808 0.44751692 -0.25250724 -0.2803621 -0.21070683 -0.06514716 0.07802981 0.6012891 0.60730267 -0.11362895 0.15418209 0.5253632 0.12016169 -0.3792045 0.38447228 -0.25904265 -0.7984911 0.17298809 -0.7323217
supprimer -0.029222589 0.2695996 -0.3086931 0.1853441 0.29050037 -0.097554624 0.35621676 0.2385535 -0.89467776 -0.24338718 0.09143951 0.03032504 0.8517052 -0.20847462 -0.06328984 -0.08606231 -0.1350807 0.028544363 0.6812127 0.6858554 -0.052023835 0.14651813 0.48614427 -0.045369577 -0.2128899 0.3603367 -0.50276184 -0.89488983 0.32845426 -1.0152489
consommer -0.22758332 0.23416215 -0.02349534 0.66022676 0.7063891 -0.4199144 -0.35511506 0.056440476 -0.59593964 -0.26664656 0.5180984 -0.07985701 -0.28294232 0.37378302 0.41051558 -0.33293775 -0.35362536 -0.30582708 0.4157132 0.83928406 -0.33948708 0.2469931 0.9838279 -0.06545584 0.05114453 0.6997389 -0.18970077 -0.7743305 0.22801705 -0.7966874
public -0.19107956 -0.2709445 0.48290676 0.27950817 -0.30242106 0.12688996 0.36280346 0.49325737 -0.07078987 -0.19354416 0.68333644 -0.50831366 0.00039850033 -0.3061742 -0.6394273 -1.0360029 -0.34836778 0.100212544 0.3786785 0.520708 -0.18820982 0.09644936 0.29782736 0.27984104 -0.61669225 0.47329536 -0.02894599 -0.83610284 -0.00325646 -0.4485719
vehicule 0.39352307 -0.16938287 0.27183983 0.020477828 -0.08868351 -0.27780214 -0.13886839 0.5522024 -0.3973747 -0.56962305 -0.2180005 -0.31262502 0.014902608 -0.27314728 -0.28209367 -0.92921 -0.26761478 0.0837758 1.0621055 0.6343141 0.03232875 0.7012165 -0.0065344265 0.05157045 -0.0014915072 0.5977283 0.009293589 -0.5163129 -0.21649759 -0.9110329
bio -0.16527613 0.22899437 -0.33445498 0.7162178 0.46163753 -0.2388009 -0.24188037 -0.05010203 -0.6527237 -0.25732368 0.29663837 6.4223204e-05 0.25755098 0.46874994 0.35701823 -0.26925087 -0.26804087 -0.2600199 0.45211494 0.8254194 -0.61411315 0.2006083 1.1579797 0.022439301 0.14968938 0.996706 -0.0057830317 -0.7346062 0.046161458 -0.74392265
arbre 0.51334894 -0.14647415 0.07924817 0.38351068 -0.4245375 0.13648582 0.88610274 0.4668074 -0.39368352 0.19023103 0.94631886 0.05118369 0.046697065 0.5167333 -0.54123074 -0.9205109 -0.9233768 0.6730546 0.68481046 0.880326 -0.7273926 -0.10663195 -0.13701576 0.8587948 0.0046945387 -0.16475661 -0.14787003 -0.68920463 -0.28626224 -0.22369073
acheter -0.16756998 0.41201895 -0.41616789 0.53672266 0.6093454 -0.3344189 -0.097342536 0.04524019 -0.869885 -0.30854064 0.32595238 0.18303761 0.42837685 0.26534504 0.2479103 -0.045106042 -0.31641772 -0.16517104 0.54423445 0.7798832 -0.21468568 0.18336864 1.0188912 -0.08253161 0.115263835 0.65713274 -0.44067517 -0.83849174 0.38351196 -0.9406869
proposer -0.026884563 0.18431194 -0.13543941 0.38225988 0.19754526 -0.2230997 0.10526563 0.27274784 -0.645631 -0.23415035 0.3556045 0.06682496 0.31297776 -0.14098233 -0.09581349 -0.17969036 0.04847835 0.048013955 0.56008136 0.73588336 -0.10235445 0.2102871 0.60332537 -0.08490953 -0.20390019 0.5561594 -0.2311787 -0.7348905 0.17190328 -0.72789794
verre 0.014524382 0.75232583 -0.6437936 0.22476618 0.28314283 0.23722467 0.8584442 0.32276356 -1.2924979 -0.19832656 0.20907004 0.6095244 1.3966568 0.020253658 -0.42267504 0.02475087 -0.123063326 0.51978815 0.8361001 0.89477926 0.045012757 0.091097005 0.8078835 0.102191545 -0.4525675 0.38745195 -1.0228281 -1.2391571 0.9285842 -1.4869095
imposer -0.10116579 -0.015909674 -0.034651335 0.32734647 -0.018769428 -0.0073718424 0.30409154 0.35216442 -0.47618228 -0.08099536 0.33169377 -0.04619547 0.19375004 -0.1478734 -0.21769746 -0.40917432 -0.07865999 0.1468891 0.51049036 0.6764673 -0.15749882 0.2520808 0.44637018 0.16443403 -0.35441983 0.38199812 -0.16464101 -0.77131593 0.07519336 -0.609469
carbone 0.11620393 -0.24867715 0.42868555 0.7260917 -0.035945483 -0.1653067 -0.48314548 0.21563224 -0.46873456 -0.044555422 0.26731148 -0.070432745 -0.5002922 0.2071048 0.28499085 -0.36696854 0.29592264 0.020057995 0.5999047 0.92305934 0.023713732 0.75890696 0.6852332 0.16760968 -0.26225927 1.034493 0.22036253 -0.6118131 -0.25567472 -0.5621414
être -0.02359796 0.08484093 -0.017835693 0.31600496 0.049163938 -0.12306976 0.15174961 0.39158595 -0.4351313 -0.0866751 0.29797822 -0.03655666 0.039563473 -0.13302465 -0.22535183 -0.43307537 -0.10859394 0.18135707 0.555221 0.70406485 -0.07727058 0.2946936 0.27595574 0.14569996 -0.34274212 0.44257084 -0.19684295 -0.6532321 0.05270341 -0.62420475
production -0.20305134 0.13448748 0.049099263 0.3425915 0.4310456 -0.35827935 -0.2751696 0.22787157 -0.665849 -0.38205633 0.07749409 -0.37683284 0.033673704 0.02917528 0.27326626 -0.38763598 -0.2137521 -0.26237386 0.62387 0.70389634 -0.19822985 0.47210065 0.6949093 -0.023106633 0.10094783 0.6931775 -0.13494578 -0.7798122 0.014886827 -0.8306211
transport_commun 0.6340237 0.18018873 0.5844585 -0.029060265 -0.13752742 -0.3332418 0.08962921 0.82055783 -0.52695525 -0.5537218 -0.08058706 -0.3041208 0.23330563 -0.30904004 -0.51934016 -1.0730023 -0.28039736 0.45762363 0.91722417 0.68585175 -0.054661583 0.47388807 -0.16307777 0.043640386 -0.0030966066 0.60225713 -0.021356592 -0.48545703 -0.27330077 -0.6192872
inciter 0.0006747801 0.08796746 0.020518143 0.40550354 0.120814994 -0.215053 0.07272674 0.34609178 -0.46767682 -0.19270714 0.34933028 0.055758785 0.050848443 -0.06281471 -0.108441286 -0.39220408 -0.056263752 0.14089976 0.56663376 0.687368 -0.09515488 0.2711661 0.5449864 0.04161484 -0.2676282 0.544599 -0.14920859 -0.6361259 0.14848347 -0.5885513
industriel -0.17732498 0.10527051 -0.29952443 0.4008459 0.15132385 -0.08136003 0.26268163 0.27981293 -0.5346029 -0.122275345 0.23942347 -0.07505472 0.29193234 -0.110724926 0.006720889 -0.17696667 -0.12737678 -0.07646801 0.5012845 0.68208593 -0.20282803 0.17101954 0.8234127 0.11542722 -0.27713832 0.57124895 -0.20270324 -0.8632231 0.18122292 -0.664119
prendre 0.40756953 0.15168394 0.2532693 0.48511583 0.2276033 -0.28060782 -0.21905722 0.44242728 -0.47554174 -0.25928307 0.41044858 -0.1879165 -0.20573641 0.030256694 -0.16360672 -0.63569 -0.22014615 0.33856392 0.7309966 0.731024 0.102874264 0.25730476 0.08473397 -0.07449039 -0.22035609 0.5003706 0.011385525 -0.5381537 -0.16296132 -0.49270824
animal 0.104326114 0.042164896 -0.053169202 0.72912586 0.3501327 -0.182291 -0.16946898 -0.032609265 -0.37003762 -0.10911149 0.5000203 -0.21025452 -0.14824307 0.21938846 0.1243477 -0.33419102 -0.299786 0.021982659 0.5037845 0.82063764 -0.38567862 0.16160174 0.47367698 0.06009266 -0.29921138 0.5044966 -0.03013069 -0.6407812 -0.08536524 -0.47428906
utilisation 0.0544045 0.31846336 -0.19770779 0.08914033 0.16744949 -0.26854527 0.12296607 0.41691265 -0.743663 -0.3943998 -0.09250563 -0.26960605 0.73999476 -0.19111228 -0.043461986 -0.2827044 -0.2910835 -0.024560783 0.9272528 0.57828075 -0.06200095 0.31203207 0.27897912 -0.06131393 -0.063262135 0.4080567 -0.38167155 -0.79168594 0.08187475 -0.9400013
taxe 0.09738097 -0.021911817 0.036290623 0.54664034 0.0053042006 -0.19231434 -0.1804432 0.35131255 -0.6404945 -0.070929095 0.24618877 0.08365641 -0.1910531 0.03352413 0.28115964 -0.18672386 0.35154068 0.16283974 0.7036066 0.9622261 0.0703524 0.60871863 0.55224836 0.17009045 -0.40966862 0.90011084 0.11643481 -0.48166037 -0.09353225 -0.57698315
produire -0.20319244 0.15774818 -0.09348387 0.2755375 0.27973104 -0.1552728 -0.058046132 0.22916788 -0.6179713 -0.31679627 0.181602 -0.038841188 0.1929679 0.040626265 0.03791958 -0.28309557 -0.22072376 -0.08600895 0.53253 0.66807914 -0.15644315 0.3587375 0.69456726 0.14852336 -0.06994946 0.4869669 -0.31018487 -0.816242 0.22735474 -0.7996341
impact 0.0029963744 -0.07413294 0.13500573 0.8244944 0.09541551 -0.07289132 -0.27620068 0.19727924 -0.49497068 0.24062617 0.5354005 -0.39225134 -0.6733181 0.26564193 0.2766439 -0.42981198 0.27337918 0.09174643 0.59047437 1.066447 -0.037711885 0.5083288 0.44800797 0.07942767 -0.49111393 0.8774606 0.3633801 -0.46222878 -0.35780263 -0.5020438
agriculture -0.040084887 0.11774064 -0.12669219 0.86450034 0.5308318 -0.0033479873 -0.24149922 -0.02826377 -0.38368782 -0.040440623 0.24158283 -0.25243667 -0.006505595 0.59458095 0.20170078 -0.62436885 -0.5063345 0.0058252905 0.3958198 0.7824913 -0.71924317 0.10223237 0.79320586 0.13394874 0.04178844 0.8558625 0.2190367 -0.5503383 -0.05522418 -0.47304216
pollution 0.051546507 -0.001399026 0.14751409 0.43292293 0.052478556 -0.19583763 -0.011379231 0.282748 -0.42200783 -0.13970582 0.40676484 -0.2692246 -0.09092346 -0.018884942 -0.090845406 -0.48597872 -0.30630708 0.020264143 0.57710266 0.6730441 -0.15983382 0.2996161 0.2909556 0.14038718 -0.3337956 0.47496554 -0.10384827 -0.60825366 -0.07201847 -0.60803556
pouvoir 0.03226458 0.08900378 -0.0134067 0.45022696 0.12414414 -0.08770633 0.11504007 0.2695219 -0.41499895 -0.07827721 0.38418677 0.03718907 0.039315682 0.12686959 -0.1714064 -0.46029875 -0.17135733 0.2005523 0.47411883 0.7103139 -0.11861647 0.18835858 0.4400375 0.21835291 -0.28686208 0.4875684 -0.1312524 -0.59729975 0.1209518 -0.6008149
polluant 0.18598652 0.136815 -0.0028291203 0.29636958 0.14606896 -0.20091236 -0.121743515 0.3489487 -0.67837805 -0.341038 -0.008523805 -0.19330764 0.3432686 -0.094814576 0.15987961 -0.3193274 -0.060079344 -0.0011566873 0.8147254 0.731018 -0.05863575 0.4645441 0.3986296 0.015243871 -0.15697007 0.636911 -0.06447443 -0.61769897 -0.068305805 -0.79350275
petit 0.22464748 0.14563997 0.12586555 0.40191588 0.11415797 -0.2505111 0.055649202 0.31843984 -0.4288193 -0.3650934 0.3076695 -0.13499801 0.12749368 -0.04081563 -0.21047257 -0.650646 -0.2824667 0.1529526 0.66824955 0.63649744 -0.25496435 0.14041485 0.42904148 0.054116566 -0.08959624 0.5720535 -0.07417238 -0.5747209 -0.07173979 -0.4772233
environnemental -0.022827428 -0.12718609 0.19742529 0.8153027 0.13361694 -0.02068685 -0.22392939 0.28382784 -0.36107397 0.26101357 0.64809424 -0.30195212 -0.5256266 0.18397795 0.035013597 -0.54519784 0.280794 0.090805136 0.38537267 1.0096083 -0.084898464 0.46041137 0.4054969 0.19554041 -0.4479801 0.6812015 0.2632264 -0.4677052 -0.25552425 -0.52996784
enfant 0.15267052 0.0061234375 0.037634894 0.9727952 0.35856134 -0.18081646 -0.11181282 0.17917114 -0.22877279 0.54550624 1.0096416 -0.025959164 -0.7312154 0.19267507 -0.028974328 -0.4241119 0.035892464 0.22501788 0.50851893 1.0179657 -0.08985093 0.077653065 0.26750857 0.0055220346 -0.724388 0.46715492 -0.0059613814 -0.5176996 0.061997727 -0.4701776
velo 0.6992091 0.06920713 0.49370065 0.030955022 0.0025803654 -0.39277235 0.06687497 0.7312738 -0.4323762 -0.51642746 0.036874477 -0.3993696 0.10246055 -0.24376307 -0.6498882 -1.0543996 -0.38641906 0.5134505 0.9226755 0.8369745 0.031486873 0.45956042 -0.26624507 -0.018685078 -0.11730722 0.4972771 -0.11949014 -0.470259 -0.34525117 -0.6426423
eviter 0.13058244 0.3031927 -0.12197529 0.36849576 0.18982974 -0.20584428 0.17637718 0.35823342 -0.64724433 -0.2380124 0.2587238 0.01032459 0.3059858 -0.032962367 -0.08149239 -0.26371762 -0.22631072 0.17038023 0.6194137 0.7503398 -0.025388977 0.22478685 0.28558373 -0.012741074 -0.1630589 0.34643504 -0.33677655 -0.6360062 0.15199459 -0.74328434
ecologiqu 0.12624528 -0.092623815 0.04530487 0.6466237 0.15287256 0.10492094 -0.13865833 0.13620067 -0.3544238 0.14659473 0.46564838 -0.103295274 -0.12727883 0.17257224 -0.09497811 -0.5449233 0.018393166 0.20168923 0.29648536 0.8675065 -0.14513828 0.3361529 0.6103342 0.17325746 -0.3672504 0.71332353 0.2103564 -0.4938986 -0.13501081 -0.6106922
jeter -0.19615342 0.28885195 -0.44906616 0.6658297 0.11893703 -0.07295387 0.3965263 0.2977066 -0.4892693 0.058724876 0.82630074 0.6556595 0.13828094 -0.13767967 -0.29766124 0.038980052 -0.08745989 0.37828118 0.64752704 0.91663474 0.018187853 0.076471664 0.24196473 0.13464499 -0.7443033 0.19878663 -0.6380724 -0.7646967 0.5065055 -0.54426634
tri -0.20934552 0.13986605 -0.17072086 0.5770662 -0.283298 -0.02461574 0.47873858 0.44396657 -0.49150434 0.19075786 0.8184537 0.62706745 0.14586309 -0.39544916 -0.5965135 -0.31273386 0.4235512 0.5220308 0.53689235 0.8272251 0.042745173 0.121749856 0.24667758 0.21898091 -0.93114096 0.26594874 -0.6045312 -0.715935 0.5292374 -0.63675916
usage -0.08539176 0.40842053 -0.40882424 0.11460301 0.21675406 -0.29107538 0.19079976 0.31460136 -0.9088524 -0.20542637 0.04358706 -0.19495934 0.95062125 -0.12918673 0.110848404 -0.035177924 -0.15128584 -0.014962624 0.98719066 0.69555885 -0.037709102 0.19667323 0.2937415 -0.03048911 -0.16600142 0.47563145 -0.5545687 -0.92201084 0.22258577 -1.1073425
diminuer 0.0794037 -0.005761411 0.2790378 0.36921567 0.13971925 -0.3368342 -0.15512621 0.26762134 -0.5911886 -0.365661 0.23566428 -0.3294718 -0.06036832 -0.17989872 0.083313964 -0.50778306 -0.11480666 0.022300273 0.69527525 0.7500309 -0.080882736 0.37382787 0.34501183 -0.0544872 -0.15212888 0.599726 -0.009604639 -0.6356439 -0.12537266 -0.64219695
consigne 0.13110557 0.6204881 -0.41244218 0.20509697 0.3696394 0.18630761 0.85915077 0.37976336 -1.2441009 -0.13118482 0.17626195 0.52300465 1.265256 -0.102045834 -0.47456065 -0.062083714 -0.035961412 0.61224383 0.7907023 0.9177126 0.05614433 0.037011817 0.8568859 0.21870446 -0.38818046 0.36189055 -0.9492482 -1.1585051 0.80627877 -1.3445492
zone 0.2080403 -0.13013281 0.1808265 0.3527349 -0.19407597 0.04877824 0.32563603 0.5141644 -0.18744087 -0.09185933 0.43131068 -0.41418993 -0.1632742 -0.017232936 -0.51633555 -1.0674348 -0.5569842 0.32996315 0.46552277 0.6942505 -0.36916855 0.19990598 0.08444206 0.3144394 -0.20273484 0.43621817 -0.07621423 -0.5981637 -0.123182036 -0.34368396
nature 0.1360852 0.05782503 -0.10025881 0.7401472 0.20071827 0.014175793 0.14946617 0.26006648 -0.29959363 0.29214206 0.71900916 0.06591275 -0.24451114 0.09722775 -0.20007338 -0.37214467 -0.12394893 0.36082664 0.46789524 0.87669057 -0.15210277 0.116223305 0.22632323 0.14892514 -0.6305377 0.3178179 -0.17441526 -0.56806433 0.109222315 -0.4285192
recyclage -0.07111253 0.25377646 -0.13985771 0.3508029 0.038757753 -0.08068113 0.30565548 0.3728851 -0.5948753 -0.06649289 0.27333564 0.26693943 0.36302158 -0.17865059 -0.24530819 -0.20665726 0.14584114 0.2520775 0.5310305 0.7339785 -0.01285931 0.24553442 0.4063093 0.16068873 -0.41309473 0.4159214 -0.43544197 -0.7596937 0.35842034 -0.742592
alimentaire -0.14980423 0.30420437 -0.25547856 0.5855847 0.29262558 -0.30013666 0.015923982 0.1539152 -0.8319946 -0.12456138 0.26343897 0.06469705 0.37851676 0.007829665 0.23238614 0.09569938 0.06111156 -0.05011916 0.599879 0.8351618 -0.12441116 0.29101467 0.77722085 -0.06431474 -0.22238266 0.56140435 -0.28528264 -0.7791152 0.21281686 -0.82579684
citoyen -0.017551487 0.028152645 -0.004212824 0.7158944 0.09027092 -0.017818136 0.06672698 0.31048918 -0.30926925 0.19125877 0.725506 0.07694816 -0.37524974 0.10439388 -0.1428057 -0.42325363 0.14914522 0.29312128 0.40685153 0.8758094 -0.050115734 0.2604164 0.38043085 0.16384764 -0.5505864 0.5574288 -0.06171503 -0.51814073 0.077621095 -0.4697001
ecole 0.13785379 -0.1385156 0.1499193 0.83421606 0.15795304 -0.008876947 0.083216175 0.26778668 -0.06629666 0.4164606 0.94896656 -0.05329754 -0.64912754 0.030579766 -0.2699235 -0.68101406 0.024460634 0.40726662 0.40523702 0.96475863 -0.057245076 0.14276193 0.19049974 0.10272303 -0.7332523 0.44091254 0.07971364 -0.564039 -0.014426858 -0.41732967
france 0.042138487 0.12302393 -0.0070812632 0.4351214 0.06838694 -0.1752243 0.0057903356 0.30633953 -0.54583627 -0.16986349 0.32506254 -0.056966573 0.101391494 0.15216081 -0.01191211 -0.41455594 -0.21080096 0.14721173 0.569672 0.7156596 -0.2791069 0.25908914 0.36126295 0.12398664 -0.12012113 0.5016093 -0.13429354 -0.643937 0.06868535 -0.5466839
agriculteur -0.016209137 0.05873023 -0.18120065 0.75307286 0.37546027 -0.095033295 -0.16494344 0.05339292 -0.37453258 -0.05071938 0.41321367 -0.1135949 -0.050720617 0.47368026 0.14232227 -0.5170064 -0.32196182 -0.00036175316 0.40748674 0.78909796 -0.53688467 0.15918447 0.74875814 0.123644024 -0.042093247 0.8360795 0.13104856 -0.58094 -0.07353706 -0.5065775
remplacer -0.02031202 0.3478776 -0.3421272 0.14224257 0.256622 -0.009456673 0.44500142 0.2541887 -0.8622884 -0.2317555 0.18084484 0.122089215 0.84681237 -0.11870577 -0.2047567 -0.12166632 -0.1434706 0.16652836 0.67828727 0.6767095 0.03853984 0.14945103 0.4686726 0.0065993364 -0.26858124 0.32069153 -0.5607011 -0.8779219 0.40256348 -1.0404991
encourager 0.13052261 0.10904604 0.08543358 0.34174177 0.25837785 -0.2219343 -0.07740648 0.33438155 -0.50992405 -0.25893945 0.2032715 -0.19193839 0.121244565 0.02585764 -0.06441061 -0.5170325 -0.15973628 0.10270805 0.6270162 0.73489505 -0.16527821 0.31765267 0.42595434 0.02790204 -0.06920597 0.62675774 -0.03282026 -0.5755775 -0.011751845 -0.6765259
terre -0.08609577 0.105102494 -0.21539013 0.6171518 0.15810487 -0.03422292 0.16852166 0.25825685 -0.27375898 0.07972883 0.6453 0.103111416 -0.20173281 0.09427216 -0.17988081 -0.4409127 -0.35683244 0.16814491 0.5275969 0.82690895 -0.2595065 0.16041806 0.32255596 0.24258292 -0.39584672 0.4121418 -0.27035552 -0.61811054 0.16744658 -0.4627572
exemple 0.055239417 0.104006894 0.0050534783 0.3315448 0.14942457 -0.090153724 0.17059535 0.31072176 -0.47835514 -0.13175462 0.29288802 -0.050539665 0.18672916 -0.1269534 -0.21118236 -0.41850108 -0.19021894 0.22273003 0.6170235 0.66409034 0.038044948 0.24555406 0.26915732 0.02886539 -0.357151 0.33952758 -0.23852238 -0.66394484 0.15039109 -0.7175021
prix 0.17414707 0.091348484 0.21350536 0.34417254 0.16325107 -0.34250987 -0.16562094 0.33342654 -0.63341177 -0.33260193 0.022642724 -0.14336894 0.06975536 -0.0016029348 0.09217137 -0.4126447 -0.11252748 0.02396001 0.7167712 0.7128557 -0.089008756 0.46053922 0.50710547 0.03676278 -0.040648114 0.7818342 0.047955155 -0.63656014 -0.12346831 -0.66341347
viande -0.223046 0.2659423 0.012456556 0.6918681 0.5898303 -0.50752264 -0.29893354 -0.082958594 -0.80913115 -0.4774816 0.38871115 -0.13670672 -0.082031794 0.19835168 0.4763 -0.13356587 -0.29634878 -0.22568902 0.59445685 0.80534405 -0.38559267 0.24907634 0.9493532 -0.22617385 0.023605507 0.74608046 -0.16790053 -0.88185084 0.16386011 -0.7569263
privilegier 0.024842553 0.3726957 -0.041516576 0.3293603 0.4388497 -0.345008 -0.013393256 0.19143684 -0.78821564 -0.47513306 0.16019364 -0.09569789 0.25416315 0.16284163 0.11116429 -0.30549663 -0.28905243 -0.027946182 0.5539375 0.7015628 -0.3231553 0.15690458 0.8092423 -0.008786887 0.1839025 0.66717684 -0.25982803 -0.72972107 0.16010678 -0.7316502
lieu 0.13200729 0.10601565 0.010410985 0.24659152 0.006799591 -0.11836042 0.22081211 0.4162737 -0.38173667 -0.16157742 0.3082955 -0.08354196 0.18666758 -0.09103278 -0.3780499 -0.61814964 -0.37366927 0.2831432 0.59783995 0.6707898 -0.10679706 0.2600978 0.16351227 0.09574186 -0.35519108 0.38875857 -0.1969116 -0.60666096 0.032839417 -0.60872084
permettre 0.12753782 0.0075544273 0.09419741 0.4263398 0.05620498 -0.08513412 0.08453516 0.36277345 -0.34458405 -0.05954655 0.39050722 -0.16470574 -0.07895704 -0.0145341605 -0.21103376 -0.5836929 -0.09998431 0.24693377 0.53999656 0.74192804 -0.07384844 0.3125472 0.28712115 0.12453178 -0.34708363 0.48911455 -0.060184043 -0.5792891 -0.029739838 -0.5561623
nouveau -0.083714396 -0.12602238 -0.001558305 0.1742092 0.022460915 0.15117599 0.29207814 0.58600026 -0.12225983 -0.055612117 0.2520821 -0.4847804 -0.025392266 -0.11841264 -0.43272927 -1.0036105 -0.6633518 0.18583393 0.42348439 0.5878734 -0.14129283 0.34606025 0.13254805 0.4589319 -0.2652779 0.29396108 -0.30973575 -0.79601294 -0.066542715 -0.67012733
vente 0.014353651 0.30100304 -0.21909921 0.30451554 0.20767963 -0.3077434 0.06974138 0.16828576 -0.8004431 -0.3746146 0.024124142 -0.0040759556 0.53263146 -0.03757291 0.15707088 -0.119151406 -0.18306649 -0.09980517 0.7568802 0.66255164 -0.20699891 0.2849595 0.6895938 0.019749893 0.009295948 0.6712088 -0.3068064 -0.79499084 0.19523373 -0.8749066
avion 0.38738006 0.11054341 0.46214002 0.37767753 0.19703285 -0.44512144 -0.30713025 0.47996366 -0.6042056 -0.52109385 0.07850328 -0.32418174 -0.07759536 -0.03614809 0.058146637 -0.615131 -0.22372098 0.16488408 0.7639872 0.74298215 0.011181857 0.50662386 0.2295481 -0.05128499 -0.04063627 0.6413319 0.15610075 -0.6175237 -0.24824312 -0.66914785
legume -0.3939527 0.5344829 -0.36945498 0.4803338 0.5035099 -0.76110935 0.020078287 0.03165015 -1.1464434 -0.6204397 0.5408836 0.23736238 0.33215037 0.58097875 0.4193346 -0.253138 -0.44558525 -0.33412027 0.39213812 0.76109314 -0.42150974 0.17475921 1.1463976 -0.056253817 0.33904552 0.9858875 -0.4824534 -0.9869468 0.609721 -1.1430144
donner 0.03670773 0.16409023 -0.07829467 0.5071351 0.20017155 -0.1660304 0.061089423 0.24450797 -0.4561115 -0.037885092 0.4945282 0.1346828 0.041603833 0.068546735 -0.07871276 -0.2962727 -0.108635314 0.1801901 0.5016499 0.82431626 -0.10321753 0.1905153 0.3999708 0.061711688 -0.36700496 0.5011528 -0.17168796 -0.5880898 0.11247688 -0.6133386
electrique 0.44777822 0.009434071 0.36528984 0.031237071 0.018268704 -0.20736596 -0.057271115 0.59753585 -0.33179623 -0.55622715 -0.03890129 -0.3076492 0.09894375 -0.3150034 -0.341261 -0.9238651 -0.2418853 0.2126164 0.9975857 0.6370453 0.088108405 0.534928 -0.01924664 0.11175183 -0.15246743 0.54500103 -0.034278907 -0.566994 -0.21354419 -0.8553425
bien 0.029842267 0.046559613 0.020048315 0.52679086 0.22903925 -0.109840795 -0.04151429 0.160206 -0.4337756 -0.1141045 0.35756093 -0.15110768 -0.03025995 0.11893897 0.06305169 -0.39764473 -0.16515023 0.06773958 0.53684896 0.7977054 -0.21904226 0.2548024 0.4479345 0.101444565 -0.2680863 0.53972447 -0.060774915 -0.5909524 0.015893845 -0.6369949
solution 0.0030430972 0.10053218 -0.031849775 0.25990647 0.19616537 -0.010807087 0.092176676 0.40406922 -0.47378016 -0.06431629 0.21724093 -0.11415993 0.117254846 -0.1092792 -0.20342766 -0.43846977 -0.0088061625 0.20081118 0.50833654 0.6759197 0.020057805 0.33831066 0.35997564 0.1009436 -0.2943987 0.44916883 -0.17109779 -0.69020885 0.11688674 -0.81113863
systeme 0.05261861 0.3076615 -0.12650295 0.09631618 0.01928442 0.20840333 0.5760464 0.45031667 -0.56588775 -0.11948314 0.101288326 0.1520319 0.59598804 -0.1644535 -0.5273206 -0.42800665 -0.12031255 0.46994027 0.48865283 0.55697346 0.08368095 0.17605518 0.37409663 0.30982837 -0.3857574 0.28050354 -0.596165 -0.841098 0.39538774 -0.88793594
panneau -0.34538808 -0.19345452 0.26159546 -0.06358498 -0.19413094 0.15630275 0.6656267 0.71308595 -0.02533773 -0.27397585 0.1787532 -0.71470886 0.0122444285 -0.47979358 -0.8848519 -1.1769369 -0.8103611 0.119363844 0.16920617 0.39457712 -0.183381 0.18156545 0.467858 0.68069607 -0.5143609 0.3404333 -0.5085542 -1.4353546 0.22429939 -0.6483932
solaire -0.44899824 -0.34547973 0.3594329 -0.037790544 0.09397764 0.24856049 0.33720884 0.7742041 0.04342406 -0.13769615 0.1754419 -0.49173167 -0.062912546 -0.2981678 -0.6116251 -1.2651632 -0.62056106 -0.0032943815 0.24458005 0.4739983 -0.19212575 0.36090776 0.3450914 0.7308742 -0.32717636 0.3923587 -0.47836155 -1.3005584 0.04438725 -0.7706079
travail 0.3295687 0.078864545 0.23910423 0.3711608 0.039118208 -0.21162845 0.018062234 0.48419434 -0.31968728 -0.27133223 0.32346365 -0.25094235 -0.008620397 -0.08719655 -0.30581868 -0.69042784 -0.2733923 0.30200616 0.7790811 0.79730105 -0.10455788 0.2611707 0.10180462 0.0042254617 -0.31241477 0.4836129 -0.06495092 -0.54871047 -0.214869 -0.48709166
responsable -0.055391017 0.09455251 0.005672508 0.77736557 0.35119134 -0.1584962 -0.17411783 0.11283853 -0.40864068 -0.01219105 0.49857476 -0.050700802 -0.30856284 0.16847801 0.2494409 -0.30608603 -0.085134335 -0.0028943326 0.4890901 0.89259726 -0.3046586 0.24217094 0.6894233 0.0463158 -0.250431 0.6622896 -0.014309411 -0.6232573 0.0054871594 -0.5726602
changer -0.019621141 0.08616215 -0.02330053 0.6902905 0.3208336 -0.13343783 -0.1821484 0.15971373 -0.4397869 -0.071370125 0.5091072 -0.061468694 -0.2089649 0.15563898 0.105814055 -0.298422 -0.04151695 0.06812206 0.50848716 0.9178213 -0.12147937 0.30008665 0.5455447 -0.03885134 -0.25552094 0.54622954 -0.0583728 -0.5425528 0.012738986 -0.59962976
an 0.21794994 -0.019989086 8.9930836e-07 0.41631028 0.07029187 -0.07234673 0.0588588 0.28771278 -0.41369027 -0.10863973 0.40427718 -0.112559326 0.022241727 0.07893116 -0.14733355 -0.48458022 -0.26510713 0.17729124 0.58848846 0.75568765 -0.12049712 0.2954454 0.17979027 0.13288629 -0.29744548 0.4007355 -0.0714403 -0.6119485 -0.058711667 -0.59306014
vert 0.12002497 -0.035008874 0.20939033 0.3215005 -0.11800915 0.07366129 0.23824504 0.53072953 -0.26309144 -0.09517173 0.3927654 -0.13951215 -0.066442706 -0.058921482 -0.5053285 -0.820817 -0.28371072 0.33061364 0.4700906 0.6724959 -0.2067201 0.31671092 0.25123623 0.3528441 -0.28679633 0.35849893 -0.13628618 -0.6320927 0.011539982 -0.5404461
vrac -0.18810326 0.4125902 -0.30961502 0.42659834 0.3817562 -0.36100674 0.16058624 0.10661838 -1.0452495 -0.4151027 0.14144422 0.20977658 0.59331656 0.025357794 0.26351297 0.1174401 -0.085386276 -0.13724475 0.6721933 0.8426598 -0.22831695 0.23741132 1.1101379 -0.12944405 0.028879745 0.74052906 -0.38126427 -0.9434227 0.35917556 -1.0485374
pays 0.08325624 0.078985825 0.09001067 0.4599821 0.11415823 -0.14462878 -0.00998564 0.3196067 -0.41147515 -0.09604656 0.33424234 -0.13624933 -0.031616192 0.07675321 -0.044554874 -0.5170432 -0.17904058 0.12680282 0.5523816 0.72487485 -0.1775484 0.28393525 0.32521895 0.14502929 -0.22096208 0.52585584 -0.07267199 -0.55779505 -0.019854598 -0.5540205
vie 0.13947365 0.0154071115 0.093829215 0.634447 0.22236101 -0.08435815 -0.12301099 0.23706497 -0.34671915 -0.040667526 0.4515529 -0.1796653 -0.25776935 0.12908716 -0.03925095 -0.5487173 -0.11342268 0.1747388 0.5759136 0.8806063 -0.124419495 0.32939535 0.29439974 0.114429556 -0.28619152 0.536378 0.014863011 -0.5615806 -0.07780803 -0.48579502
politique 0.11815387 0.05422753 0.073938295 0.49397558 0.07657229 -0.09041148 0.084623784 0.33967173 -0.37271342 -0.021003807 0.4113055 -0.18146308 -0.079737864 0.050107908 -0.17092854 -0.54136103 -0.08926601 0.20802549 0.5057229 0.754897 -0.09484156 0.2108355 0.282406 0.119100295 -0.35050464 0.5279132 -0.014587766 -0.5031196 -0.06009079 -0.5425432
recyclable -0.2295766 0.39319324 -0.6387656 0.39929008 0.28511912 -0.20611295 0.36954716 0.26056504 -1.0411237 -0.11075557 0.08381937 0.18389797 1.0277426 -0.19782677 0.061003346 0.16627012 0.01205235 0.004715315 0.7789 0.8799822 -0.045389026 0.20529653 0.70555943 0.004179749 -0.30651605 0.5155676 -0.63989973 -0.9996721 0.4598541 -1.2125034
planete 0.14888749 -0.027567064 0.08707182 0.66561747 0.17340407 -0.07368925 -0.035876807 0.2438409 -0.29558134 0.08238022 0.56713504 -0.16524406 -0.2815463 0.16215874 -0.070787236 -0.5296227 -0.20146517 0.16177857 0.50974065 0.84057945 -0.21567075 0.23587038 0.3185006 0.14884166 -0.34478506 0.46660548 0.017376276 -0.55688566 -0.09167701 -0.46746567
fruit -0.27014843 0.6115226 -0.18105829 0.54390436 0.6749817 -0.6821551 0.050162457 -0.036351234 -1.1797231 -0.72004366 0.5641413 0.35280946 0.18471012 0.40116113 0.3375358 0.033797376 -0.24041094 -0.19999948 0.53340465 0.91083336 -0.5688226 0.022795793 1.3407807 -0.09047765 0.29662582 0.83027035 -0.6431061 -1.1871647 0.39787933 -0.8977258
magasin -0.2878792 0.1447411 -0.11698856 0.26878312 0.043131407 -0.15378669 0.40576813 0.20447922 -0.6708873 -0.2952298 0.40391243 -0.036638796 0.62459564 -0.21764791 -0.24122532 -0.21334526 -0.296911 -0.11466024 0.54691684 0.48524493 -0.15561868 -0.046556514 0.73218316 0.053569574 -0.2668912 0.47080907 -0.33308744 -0.83510315 0.24877131 -0.877339
construction -0.13206768 -0.17586103 0.03355403 0.17374253 -0.023933394 0.22422367 0.34814224 0.57766765 -0.1260622 -0.11899322 0.14561914 -0.4480226 0.08736757 -0.12341263 -0.5389688 -1.036163 -0.7193648 0.14442754 0.4222364 0.57254785 -0.26414275 0.351976 0.087747514 0.5217428 -0.22663961 0.27931076 -0.35218042 -0.90491295 -0.018167041 -0.6324343
biodiversite 0.19739148 -0.075654894 0.1206213 0.59114385 0.056391064 0.04659657 0.09737677 0.27022395 -0.2306384 0.0621599 0.5394108 -0.30038232 -0.21044599 0.270931 -0.23197949 -0.7602283 -0.40335482 0.2735474 0.45284638 0.78358495 -0.41674474 0.24394147 0.17935441 0.2697069 -0.25510135 0.44775578 0.07691785 -0.521874 -0.1442457 -0.34584323
planter 0.5188853 0.01395858 -0.058751732 0.54420346 -0.22073129 0.1893406 0.6310978 0.46705493 -0.26763558 0.086487114 0.89793456 -0.106295586 -0.056646977 0.43423823 -0.68674916 -1.0765605 -0.743514 0.5262981 0.5351637 0.77747416 -0.6834674 0.15806003 -0.043175384 0.5899984 -0.26679727 0.0839431 -0.26025262 -0.7355964 0.041920964 -0.14079446
train 0.556798 0.10358863 0.62886524 0.18757081 -0.04668841 -0.3496848 -0.005831793 0.66794443 -0.5278377 -0.5263029 0.118788354 -0.3450394 0.124201655 -0.20986705 -0.39739177 -0.9286246 -0.24938306 0.403178 0.81258917 0.6966249 -0.022804929 0.34058747 -0.061779186 0.04032813 -0.11841571 0.5336208 0.02494637 -0.56984276 -0.26447126 -0.5938634
co_deux 0.14898239 -0.09842831 0.24494237 0.4516194 0.060433436 -0.11889774 -0.13145539 0.29823235 -0.40340072 -0.19614995 0.26335996 -0.24534675 -0.2564772 0.10257562 -0.0010297946 -0.64095354 -0.18536673 0.15670642 0.6901085 0.76519257 -0.119566865 0.47239187 0.24450332 0.13764836 -0.14648013 0.5710887 0.06734623 -0.52830935 -0.17968208 -0.5707962
revenir 0.0027323544 0.4626649 -0.36478543 0.32805887 0.44773754 0.01474181 0.28285 0.07352834 -0.88846344 -0.26895285 0.17756298 0.19822764 0.70795804 0.2139225 -0.025544444 -0.1093782 -0.26395136 0.18696971 0.565408 0.70715505 -0.19026762 0.06574671 0.7976294 0.05396426 -0.049841892 0.45205337 -0.4806101 -0.83175796 0.4471128 -0.95561177
papier -0.10913128 0.3994422 -0.5169702 0.40496174 0.24436 -0.12463861 0.46209916 0.24535377 -0.83217585 -0.08988995 0.4437773 0.3522497 0.6912337 -0.11415127 -0.16180901 0.10729361 -0.18203212 0.2060625 0.66853267 0.7975549 -0.018436287 0.041374363 0.4327439 0.026475685 -0.41381446 0.27889934 -0.6932414 -0.8521863 0.5170515 -0.9461276
recycler -0.054234695 0.28207892 -0.3458227 0.38189942 0.21861377 -0.06352167 0.3128408 0.30260885 -0.6618985 -0.05625412 0.34137785 0.2531034 0.51140493 -0.094631895 -0.13198774 -0.05691629 -0.06467526 0.18566792 0.60099405 0.7813191 0.037478935 0.14762303 0.46472955 0.032408338 -0.44705534 0.31664905 -0.47616184 -0.8086344 0.37725112 -0.8434892
poubelle -0.14524418 0.22700599 -0.25810426 0.43562406 -0.13109335 -0.049816858 0.5792625 0.44229 -0.54463387 0.05957528 0.64284134 0.5257613 0.34186977 -0.30164966 -0.49217942 -0.23982532 0.12985575 0.49894324 0.57071435 0.7834193 0.056084797 0.07928725 0.31193903 0.21000186 -0.7020468 0.1722205 -0.6209061 -0.80362606 0.49375632 -0.708011
pesticide -0.008602309 0.19935916 -0.28064036 0.527907 0.32745278 -0.105197884 -0.017006805 0.09378344 -0.5794885 -0.14433317 0.2204234 -0.14327691 0.351358 0.20065731 0.13225998 -0.2360751 -0.35916352 0.030964663 0.54146665 0.7134722 -0.35919854 0.20328292 0.51646763 0.11392218 -0.07677296 0.544808 -0.15535662 -0.65985566 0.0941524 -0.7275406
nuit -0.08975908 -0.30229816 0.50301313 0.3196281 -0.41885644 -0.024984619 0.39983752 0.38449758 -0.15570891 -0.2817779 0.6949536 -0.46310502 0.21734865 -0.40127593 -0.71981955 -0.99268025 -0.59097993 3.5967805e-05 0.5673528 0.39321104 -0.23482653 0.03853756 0.15988627 0.18719885 -0.55358326 0.45145223 -0.0105011305 -0.7203835 -0.12463552 -0.7137314
remettre 0.33055064 0.50452864 -0.22551212 0.1843889 0.16405134 0.23700616 0.6655518 0.34665063 -0.88883585 -0.14509708 0.20656814 0.36681598 0.79929954 0.019722387 -0.45543665 -0.21598001 -0.10808356 0.5678621 0.5834091 0.7866663 -0.02579497 0.066564254 0.5151329 0.18738249 -0.3658528 0.26818556 -0.6198091 -0.86171037 0.49302903 -0.96548647
sensibiliser 0.10037806 -0.067154154 0.12368071 0.80629593 0.23219706 -0.14608307 -0.07576797 0.20781507 -0.23814018 0.29018712 0.7352383 -0.18875504 -0.5812734 0.1430937 -0.033789683 -0.5750082 0.015168926 0.25972602 0.4922595 0.96038055 -0.14320084 0.23591995 0.30763254 0.06449848 -0.55260867 0.51758116 0.08791983 -0.5003904 -0.05702048 -0.516998
surface -0.30337358 0.09529725 -0.15396395 0.22519663 -0.003106267 -0.08735161 0.58495754 0.37744907 -0.50842834 -0.3206013 0.40046108 -0.067875795 0.32294503 -0.15505947 -0.25884062 -0.41477904 -0.37816954 -0.03017177 0.4587178 0.5111497 -0.34877107 0.025859397 0.9147964 0.31017938 -0.108522326 0.48055512 -0.38140976 -0.98971367 0.20913994 -0.5010619
aider 0.003827497 -0.0362455 -0.011153769 0.5760804 0.20815973 -0.07714558 -0.04220194 0.20915405 -0.27187052 -0.03350616 0.41280842 -0.14687122 -0.098619096 0.22739425 -0.08070488 -0.64266664 -0.2726061 0.111401744 0.4374338 0.71169376 -0.30806258 0.24027544 0.53793013 0.23009442 -0.19860877 0.6275308 0.07053273 -0.578543 -0.07126416 -0.5093426
espace 0.118993595 -0.041503295 0.15161969 0.36011815 -0.2148555 0.08283499 0.3610267 0.4527741 -0.23015766 -0.006373016 0.51720554 -0.20149554 0.06409008 -0.043036494 -0.567171 -0.88328826 -0.5188715 0.36822435 0.43201938 0.62497467 -0.36394474 0.16142875 0.09479691 0.4485838 -0.32488447 0.29636976 -0.18846454 -0.6821558 -0.013295537 -0.46737882
deplacement 0.398911 0.052931752 0.46201557 0.22230983 0.041126523 -0.3667584 -0.167703 0.5548071 -0.4631606 -0.448305 0.09554606 -0.37809068 -0.023346292 -0.20839414 -0.25942513 -0.84379965 -0.2624486 0.22370268 0.8799897 0.7069013 -0.021087866 0.45593038 0.03159339 -0.034204375 -0.17898338 0.55942607 0.018887356 -0.56044453 -0.2463383 -0.5879788
obligatoire 0.039376177 -0.018903699 0.014541623 0.34236494 -0.07108408 0.066416346 0.30101365 0.40644827 -0.3631783 0.015330002 0.37260094 -0.07127556 0.083003215 -0.1359117 -0.3771912 -0.57501066 -0.11713818 0.3295665 0.47015995 0.70464814 -0.083109275 0.27659455 0.18713796 0.22824612 -0.43580034 0.3630969 -0.2250521 -0.67858446 0.064809486 -0.59049076
service 0.122976676 0.04266512 0.12568179 0.4277719 -0.03249677 0.013490527 0.115084484 0.308471 -0.3773121 -0.026747655 0.39956814 -0.0010716233 0.008408865 -0.02908532 -0.2627593 -0.50577724 0.02665127 0.21152209 0.45483053 0.69840866 -0.11108311 0.28711748 0.4163809 0.24599428 -0.43557042 0.59807485 -0.044572257 -0.57556945 0.021313472 -0.5913522
moyen 0.23694813 0.08701711 0.22659153 0.33139643 0.11764868 -0.19544744 -0.04150584 0.38339642 -0.4898972 -0.23103523 0.19917141 -0.23663904 -0.016713751 -0.022541083 -0.14114021 -0.67009443 -0.13245602 0.22556233 0.59866446 0.7536859 -0.101948224 0.3352521 0.25046274 0.0724503 -0.23891199 0.5853357 0.025525628 -0.53566283 -0.104165636 -0.62089115
batiment -0.263608 -0.24704196 0.17491922 0.1849784 -0.11713004 0.15145 0.38646862 0.49359274 -0.026217578 -0.051686075 0.35180977 -0.44412974 -0.015123096 -0.26223934 -0.5595517 -1.0178684 -0.5821865 0.12957579 0.37764966 0.5110509 -0.20207967 0.2297177 0.30060956 0.5099066 -0.46334445 0.41708246 -0.20475116 -0.9882532 0.038747698 -0.54760104
propre -0.012556073 0.056382943 0.12837408 0.20943458 0.22909716 -0.08405826 0.06604199 0.4208961 -0.40487522 -0.25368005 0.12638257 -0.22478284 0.095613815 -0.08848275 -0.24111605 -0.6051452 -0.25275856 0.12428763 0.5871557 0.5914874 0.003944525 0.35777926 0.33942223 0.15670031 -0.16552727 0.46292815 -0.21227571 -0.7026288 0.048737854 -0.7805099
installer -0.15868881 -0.023288565 0.032072727 0.14070295 -0.09982683 0.13114913 0.54380107 0.5287336 -0.21745658 -0.035150886 0.3705379 -0.1148215 0.16424312 -0.20042087 -0.6370261 -0.8250219 -0.3983571 0.3056895 0.40349588 0.5498117 -0.11022615 0.17488419 0.2275817 0.41538283 -0.43068683 0.22377701 -0.47339776 -0.9227551 0.21988235 -0.6066427
vendre -0.13971208 0.30596852 -0.33119792 0.4599044 0.3720692 -0.26900548 0.07464997 0.06788506 -0.8433141 -0.22985004 0.2883086 0.16473246 0.4269977 0.19344668 0.22623654 -0.0033663057 -0.15907034 -0.08829371 0.5734552 0.7869789 -0.21393026 0.21248436 0.8085255 0.0016809801 -0.004790213 0.633789 -0.32785594 -0.7665733 0.24990809 -0.85441256
monde 0.03381374 0.040796675 -0.02367176 0.5947509 0.13385734 -0.07632709 0.024530705 0.23144445 -0.37154958 0.035847995 0.51586455 -0.0733253 -0.15685005 0.17565165 -0.051267207 -0.47616926 -0.23195384 0.1937493 0.4723233 0.7977991 -0.24516128 0.22474481 0.37623143 0.14585762 -0.29319876 0.47148612 -0.05198198 -0.54961574 0.01609948 -0.4732791
contre 0.15885773 0.14008372 -0.093039006 0.48086083 0.01447174 0.03107597 -0.0154182855 0.38152394 -0.37652275 0.09123811 0.58820057 -0.26436862 -0.3874044 0.2840434 0.063055225 -0.438332 -0.12859301 0.07674964 0.41849822 0.91447306 -0.1936587 0.32353708 0.23155475 0.13812508 -0.35029078 0.45369595 0.043577593 -0.530389 0.05153644 -0.65564346
nucleaire -0.098780304 -0.123258166 0.21067214 0.2623661 0.13724233 -0.029883312 -0.065964445 0.46969345 -0.26925302 -0.199352 0.26638982 -0.33802292 -0.23538281 -0.01007805 -0.19751777 -0.74852043 -0.3484741 0.0873066 0.4804628 0.64857936 -0.05176001 0.45118785 0.20473221 0.350084 -0.15829502 0.43946114 -0.09283615 -0.7276749 -0.06953124 -0.6971704
heure 0.084303334 -0.2131868 0.45946962 0.3399405 -0.25656006 -0.07238824 0.16609453 0.370344 -0.18426138 -0.26040143 0.60065025 -0.42428514 -0.06752575 -0.22553325 -0.5211721 -0.96681136 -0.44751406 0.103377424 0.6222786 0.5281667 -0.11652823 0.16742119 0.051510334 0.16328195 -0.5356308 0.4394222 0.02319867 -0.6134897 -0.13788432 -0.6011189
transition 0.1418162 -0.058160525 0.078008965 0.6823829 0.15293786 0.14255 -0.1536649 0.2520581 -0.30981678 0.079666466 0.39237958 -0.24321336 -0.185857 0.24528378 -0.054946203 -0.7129357 -0.09928623 0.2745074 0.37793365 0.79028094 -0.19455954 0.23411609 0.5102442 0.33904836 -0.35956383 0.83671844 0.3235042 -0.45737144 -0.26145297 -0.546956
particulier 0.0006759528 -0.012865153 0.0925434 0.3507567 -0.08020784 -0.05583487 0.19597065 0.47105604 -0.35194805 -0.053888667 0.44914883 0.03047337 0.022737121 -0.15999264 -0.32478628 -0.59517616 -0.07213975 0.27117062 0.6154625 0.6997642 -0.03842341 0.2727283 0.24891467 0.16383608 -0.4660654 0.39839596 -0.15976287 -0.6432288 0.09117211 -0.5781047
achat 0.00512848 0.17685382 -0.04931748 0.40319812 0.27894017 -0.3007393 -0.096187696 0.21666619 -0.5891473 -0.27104545 0.22067983 0.0066896607 0.14218327 0.1238118 0.11144789 -0.23238738 -0.104706384 -0.036641467 0.6450179 0.7695549 -0.15610975 0.33700135 0.61465585 0.0263652 -0.049786214 0.64354455 -0.14041917 -0.6233993 0.08343751 -0.7793095
action 0.14146024 -0.0473756 0.07941387 0.6929757 0.033249203 0.04691862 0.02904618 0.31901667 -0.2912499 0.22731335 0.646474 -0.18942198 -0.48178098 0.17088021 -0.1506523 -0.6345105 0.04115009 0.24269955 0.4474455 0.9116135 -0.14338964 0.30196688 0.27332646 0.18123087 -0.51757425 0.5395698 0.10816693 -0.49326208 -0.14025846 -0.48866105
mieux -0.020771245 0.062141497 0.08497799 0.5822756 0.2469292 -0.16491646 -0.10963132 0.25943273 -0.3448466 -0.06846155 0.44201204 -0.15169121 -0.24811319 0.17562552 0.018879188 -0.5134169 -0.21047771 0.09959017 0.49605113 0.7931575 -0.18988264 0.25317028 0.44252574 0.09283031 -0.27284792 0.5707595 -0.031982593 -0.56001186 -0.006720425 -0.56110764
etat 0.008069977 -0.040331773 0.06165978 0.46506777 0.08522933 0.017111149 0.07388198 0.32673246 -0.3029709 0.0023292243 0.38087368 -0.1466864 -0.08811313 0.030238764 -0.17926742 -0.56910425 -0.18359342 0.15174243 0.49352875 0.72258544 -0.1259844 0.29575005 0.3412448 0.2181691 -0.34891984 0.5114749 -0.033687983 -0.6033849 0.003357516 -0.58199584
sac -0.17396629 0.47444668 -0.5837698 0.29925656 0.3324352 -0.21825938 0.50807863 0.14774637 -1.0658702 -0.27936548 0.35553366 0.34017834 0.88482714 -0.067794256 -0.04622758 0.21315224 -0.07157479 0.049791966 0.74135184 0.82840943 -0.05033632 0.061543565 0.7653576 -0.07744447 -0.21825838 0.5051791 -0.7427455 -1.0427386 0.5733966 -1.1617045
naturel 0.04841975 0.058109798 -0.0807743 0.5228821 0.14424647 0.010651494 0.12324787 0.26029313 -0.38910386 -0.013501763 0.39053598 -0.10937172 0.060871568 0.14809842 -0.13991505 -0.47129586 -0.30942285 0.20175047 0.4862524 0.7044256 -0.26375344 0.21606904 0.35553953 0.1791306 -0.24097118 0.4504953 -0.10052138 -0.58887434 0.02126474 -0.5331466
augmenter 0.10558306 0.0958529 0.1248846 0.36314818 0.14338994 -0.18475026 -0.07875405 0.27460057 -0.5717065 -0.23087348 0.19049715 -0.07652684 0.032085847 0.056015804 0.03625498 -0.39874873 -0.08312812 0.086995356 0.64455545 0.7190831 -0.14317143 0.40679643 0.46276265 0.10384 -0.14076144 0.6448248 -0.044222057 -0.6199527 -0.025044892 -0.6939275
jeune 0.21178031 -0.10486515 0.16203472 0.956407 0.2982407 -0.055094603 -0.0922502 0.22898668 -0.13582107 0.4671219 0.94365025 -0.110738054 -0.7454457 0.14239575 -0.14248885 -0.5737601 0.010673581 0.2933946 0.47872183 1.045358 -0.10711311 0.1991712 0.23162755 0.11480851 -0.6628408 0.5460508 0.11733273 -0.53464824 -0.06440216 -0.41370663
elevage -0.058297556 0.08807557 -0.070908785 0.7772805 0.38729817 -0.19905075 -0.19261433 -0.031505235 -0.4472932 -0.17242654 0.39083758 -0.26764864 -0.0096269 0.2655615 0.23584415 -0.40569815 -0.37036836 -0.053117722 0.48365685 0.77055883 -0.4985773 0.14050002 0.6322572 0.032341726 -0.11583326 0.5988479 0.0058653783 -0.70173824 -0.03780459 -0.623554
instaurer 0.15025912 0.01861281 0.11697083 0.4385473 0.010663117 -0.06252968 0.07095895 0.26336682 -0.44447204 -0.025046201 0.39831555 -0.051873054 -0.055291668 -0.005125809 -0.15698972 -0.42561558 -0.016513059 0.23817171 0.58317685 0.7856528 -0.062062517 0.34883013 0.28542233 0.119133845 -0.40006727 0.5292014 -0.058221176 -0.54665816 -0.013764986 -0.58238876
saison -0.26136738 0.4155914 -0.17806785 0.68769884 0.6410886 -0.59458303 -0.2002847 -0.022600139 -0.99231434 -0.5111915 0.48334056 0.074170776 0.057077784 0.47020805 0.45890498 -0.20682119 -0.30386257 -0.27592763 0.49948958 0.91187197 -0.5623189 0.19763741 1.2482302 -0.104860656 0.26583913 1.0080972 -0.2695399 -0.9456404 0.2975552 -0.8573542
programme 0.13448472 0.0008864165 -0.00914655 0.57599854 0.16215034 0.015303338 -0.007365791 0.30083188 -0.32635576 0.26058653 0.6450885 -0.28788644 -0.38916656 0.2548873 0.005837481 -0.594725 -0.04605638 0.049128212 0.35885307 0.923537 -0.22261117 0.3387046 0.2636939 0.22900763 -0.43473694 0.5485197 0.13846818 -0.49404347 -0.05775748 -0.60417503
durable -0.022625264 0.10121124 -0.089674436 0.5087563 0.32490835 -0.076671794 -0.024813281 0.18405345 -0.44106853 -0.067872025 0.3596934 -0.121874765 0.044582054 0.10637903 0.06404014 -0.30138177 -0.09459395 0.016006393 0.51643735 0.82138616 -0.17935205 0.28625286 0.54247946 0.10609626 -0.22801358 0.5644689 -0.04969261 -0.63060176 0.06827147 -0.7222583
cesser -0.009228554 0.107305355 -0.0677353 0.46771464 0.20811048 -0.07478867 0.064401545 0.25752422 -0.42311466 -0.13197535 0.38613123 -0.07637978 0.03660721 0.110073715 -0.045335047 -0.40081722 -0.28471375 0.122700594 0.51962024 0.70269203 -0.21108195 0.20235427 0.39238247 0.105255105 -0.23407537 0.45865783 -0.18287662 -0.617729 0.0869219 -0.6061691
electricite -0.046710905 -0.044976376 0.2435471 0.2730041 0.18302684 -0.12166404 -0.074333124 0.39302933 -0.3099363 -0.27814955 0.20600584 -0.31905782 -0.12215414 -0.0057469346 -0.22053373 -0.7238817 -0.4446479 0.09364347 0.5520558 0.60818815 -0.09552309 0.4233061 0.305099 0.2830434 -0.112641454 0.4588568 -0.108213775 -0.6869514 -0.029803792 -0.73873144
aide -0.023454813 -0.0063571576 0.026527384 0.50047624 0.22346091 -0.110372394 -0.040200848 0.22871687 -0.347565 -0.13982515 0.28494135 -0.17637445 -0.053785622 0.086842604 -0.03511337 -0.57439345 -0.18647547 0.08952287 0.52541685 0.731307 -0.19601153 0.2822221 0.548677 0.116201065 -0.19812016 0.64538205 0.053702183 -0.60018086 -0.068382956 -0.6477149
publicite -0.008511232 0.1241124 -0.06996287 0.3693296 0.08859482 -0.22054452 0.06802141 0.20182635 -0.53556186 -0.19872956 0.32199153 -0.1339945 0.17902035 -0.083196014 -0.02810502 -0.30046746 -0.23164369 0.026928483 0.60209686 0.64291006 -0.14126958 0.2087634 0.36731115 0.006674543 -0.24668224 0.44324097 -0.22844686 -0.68140286 0.06510984 -0.72203743
personne 0.14836203 0.13752218 0.013911917 0.47598255 -0.0058620744 -0.07753815 0.18639605 0.4212496 -0.32505232 -0.026326932 0.48633063 0.11953309 -0.06136379 -0.121508434 -0.30218732 -0.47734797 -0.14552343 0.3153528 0.62330234 0.7715529 -0.027803404 0.21562828 0.17374432 0.12762593 -0.49651894 0.3768726 -0.2560819 -0.58110535 0.12934186 -0.5473525
court 0.13323098 0.35624707 0.1411648 0.54074293 0.5096586 -0.22851557 -0.2766713 0.10574641 -0.72797287 -0.35313752 0.09294256 -0.30004922 0.088740446 0.3872247 0.25835678 -0.4688377 -0.26262712 -0.044685926 0.63688374 0.8123203 -0.4899306 0.3324277 0.7463763 -0.06916472 0.16836782 0.7623008 -0.06482118 -0.5455593 -0.047403824 -0.63246536
route 0.25742608 0.04069214 0.1758309 0.2966072 -0.18192114 -0.013686777 0.41752046 0.5507576 -0.39869538 -0.09696444 0.39095753 -0.07865747 0.13039756 -0.024501681 -0.5507848 -0.8016811 -0.43532223 0.40277922 0.64014 0.72186714 -0.20960371 0.21787943 -0.0209965 0.3293457 -0.31113514 0.17481653 -0.29209083 -0.60288036 -0.02805279 -0.4389635
commune -0.0030098688 0.012651773 0.043030266 0.42006838 -0.09132487 0.0060726954 0.30495366 0.41868317 -0.31800422 -0.055860408 0.5472088 0.029457742 0.032734897 -0.028872343 -0.383431 -0.60491693 -0.19652222 0.31403118 0.4739698 0.6877577 -0.21306846 0.14703956 0.34939614 0.2877511 -0.33256254 0.40373117 -0.22239096 -0.64821845 0.07980458 -0.49027044
trop -0.042261332 0.10439256 -0.08320562 0.3980529 0.27678764 -0.107237466 0.043902412 0.24283433 -0.48051786 -0.17476512 0.25929525 -0.16263711 0.12339831 0.06749817 0.041676365 -0.3939024 -0.289424 0.029540133 0.55494195 0.7044154 -0.19957857 0.26388195 0.46253648 0.086692475 -0.14990422 0.4294004 -0.19685164 -0.69660795 0.09600353 -0.7129953
population 0.046030834 -0.035325736 0.13890827 0.5856964 0.18279402 -0.10426555 -0.08278229 0.2582386 -0.27812567 0.08399962 0.54073983 -0.22525656 -0.2832606 0.07665768 -0.06120621 -0.5529485 -0.120715596 0.16570532 0.49244675 0.81855106 -0.12509787 0.26381725 0.28003308 0.10531012 -0.41731805 0.4752972 -0.057208497 -0.57692796 -0.060823575 -0.5468468
urbain 0.16686833 -0.06211438 0.23003964 0.40497464 -0.11892204 0.0068036574 0.20815334 0.44460496 -0.23730385 -0.07632871 0.43280557 -0.26987743 -0.09932695 0.008289326 -0.4621158 -0.88911694 -0.39137465 0.32007897 0.49089307 0.69682336 -0.269204 0.24435335 0.14557312 0.2573191 -0.2471032 0.4311476 -0.087416016 -0.6269887 -0.054678228 -0.4514735
bon 0.08671137 0.12376027 -0.04454711 0.6020731 0.24569425 -0.085806236 0.058450386 0.19378766 -0.45449713 -0.0056553716 0.5094238 0.03569775 -0.08725818 0.112171076 -0.061380748 -0.33883587 -0.14315961 0.21225077 0.532035 0.82273436 -0.12581901 0.18921284 0.41646832 0.099385194 -0.33082572 0.4378652 -0.15560849 -0.5633626 0.1102984 -0.5915059
mode 0.069975786 0.06858119 0.22001545 0.50343394 0.23487204 -0.26692557 -0.27810043 0.2344678 -0.5254926 -0.21192321 0.2926013 -0.30128163 -0.2506872 0.0780484 0.13113107 -0.5604903 -0.14906888 0.08703904 0.5879284 0.8604522 -0.13145699 0.3885289 0.3786102 -0.029972278 -0.15664908 0.63245106 0.043443356 -0.59526235 -0.17358023 -0.54588026
promouvoir 0.13270773 0.030812072 0.10655228 0.38945037 0.13526258 -0.12519202 -0.06325854 0.31208554 -0.41698116 -0.1987075 0.22113003 -0.2414781 -0.0020589856 -0.003300402 -0.11828343 -0.6140703 -0.25317684 0.11315756 0.59517556 0.6924982 -0.19864328 0.31581223 0.2908605 0.07791931 -0.15222463 0.52417237 -0.04756641 -0.5836041 -0.072922185 -0.644046
ecologie 0.11504604 -0.007508139 0.05855465 0.6459614 0.14770518 -0.01904662 0.028313555 0.26717982 -0.2573545 0.15823872 0.5715383 -0.10824533 -0.29361373 0.08762917 -0.17872554 -0.50556713 -0.04272102 0.2661649 0.46644846 0.8365432 -0.101792425 0.23150744 0.28716782 0.15933457 -0.48311234 0.5078585 0.011667586 -0.51884824 -0.020579845 -0.50114137
eclairage -0.00036429608 -0.22885229 0.48007512 0.2995498 -0.42391387 -0.08208333 0.30837154 0.4149123 -0.12046429 -0.17871441 0.62022656 -0.42262122 0.18328016 -0.38239738 -0.72866327 -1.0673156 -0.591261 0.040340204 0.5131083 0.42590728 -0.26761314 0.07965069 0.06039367 0.3254836 -0.6355655 0.45104888 0.039252225 -0.71212137 -0.072483115 -0.6424819
circuit 0.02871718 0.35560927 -0.1588457 0.48518786 0.46651056 -0.28210115 -0.023366489 0.25847155 -0.61489195 -0.39345667 0.029610327 -0.101715446 0.21109551 0.34271213 0.24989192 -0.2801509 -0.27315345 -0.0944121 0.5825667 0.7940246 -0.32960165 0.18772219 0.8838276 0.15160227 0.28098416 0.8935273 -0.19977868 -0.6177518 0.1388582 -0.79636496
agricole -0.038195234 0.004281163 -0.0034212254 0.5971629 0.06548331 0.009976318 0.1432973 0.26858333 -0.31659552 -0.07119412 0.47042987 -0.13805977 -0.15234528 0.206098 -0.153579 -0.6617536 -0.441746 0.114588976 0.47690478 0.74352604 -0.47027194 0.19981499 0.38513115 0.29783025 -0.20316954 0.52513856 -0.020905642 -0.6206827 -0.05846213 -0.4149256
consommateur -0.060453676 0.16396165 -0.15356459 0.47597456 0.32747766 -0.17248854 0.018444676 0.18758737 -0.6350537 -0.15200406 0.26207942 -0.00011097612 0.23221843 0.110602215 0.13708822 -0.17252316 -0.10348936 -0.021754246 0.5271311 0.75744545 -0.17887586 0.2684932 0.6965238 0.072590165 -0.14004374 0.632506 -0.18156517 -0.68573785 0.14435941 -0.78042424
jardin 0.12860174 0.0008886263 0.06744796 0.3937892 -0.1426562 0.061848056 0.34643072 0.4260663 -0.23592803 0.022382647 0.55218714 -0.13576406 -0.003666916 0.06424627 -0.5160882 -0.8757001 -0.47333264 0.34487388 0.47390643 0.6561346 -0.32361597 0.1673495 0.12991509 0.38961974 -0.29327616 0.28688917 -0.20427404 -0.671463 0.004790595 -0.41075164
construire 0.065991126 -0.0022857687 0.0608658 0.33253407 -0.022811769 0.0051928405 0.2131975 0.4221956 -0.3027813 -0.14953953 0.34122524 -0.25446686 0.012764193 -0.006902584 -0.39803025 -0.7686312 -0.424379 0.22167303 0.48659477 0.65198314 -0.19730353 0.2757951 0.17970951 0.28914028 -0.2346941 0.39280516 -0.20552325 -0.6819073 -0.036102306 -0.529843
proximite -0.009381051 0.1734736 0.06563398 0.43435672 0.21292761 -0.33793584 -0.00611716 0.21025683 -0.58494824 -0.3707049 0.31551293 -0.113573544 0.041424993 0.14362472 0.021874117 -0.5199336 -0.30430636 -0.025279975 0.5496038 0.6956777 -0.35385743 0.19359227 0.6502283 0.03319671 0.012603588 0.6782323 -0.103708565 -0.62123245 0.0224278 -0.5671023
maximum -0.074295625 0.18733446 -0.08526233 0.3538007 0.25103328 -0.2857511 0.036081474 0.28018862 -0.6486221 -0.284833 0.21277453 -0.042033177 0.31743553 -0.0007643484 0.06422729 -0.23763837 -0.21471418 -0.004754449 0.63058007 0.657819 -0.17808962 0.20729637 0.5891228 0.019190302 -0.1685061 0.50906044 -0.26903003 -0.75535697 0.13436644 -0.7594304
objet -0.034645293 0.29457378 -0.3247306 0.3542678 0.26009727 -0.18080157 0.18935354 0.21769033 -0.73979884 -0.13412711 0.2107516 0.060476348 0.5155141 -0.009270322 0.019383887 -0.042770218 -0.06950149 0.0832855 0.64635843 0.7711172 -0.060448907 0.22319756 0.4602748 0.037470736 -0.2470661 0.42828414 -0.38217616 -0.70443046 0.23474564 -0.89822036
individuel 0.11115026 0.096031226 0.035348725 0.19514889 0.07515281 -0.17139697 0.18371344 0.39641014 -0.49499297 -0.26140884 0.20358063 -0.16375168 0.25359768 -0.106270865 -0.20312782 -0.59815556 -0.25802293 0.14954703 0.6014226 0.6377324 -0.104962915 0.28933498 0.28481302 0.1375295 -0.1602422 0.41198623 -0.23837276 -0.6944109 0.00915336 -0.6820593
parking 0.24554902 0.034751493 0.2783824 0.08356383 -0.20232655 -0.036887567 0.4380112 0.6443946 -0.3049881 -0.2634798 0.29241633 -0.18814722 0.10478965 -0.24929057 -0.68902904 -0.941822 -0.36607063 0.41639084 0.6015877 0.6219774 -0.12935051 0.20691209 0.09737333 0.32231942 -0.25537223 0.3451097 -0.25050488 -0.736703 -0.035863936 -0.5123132
centre 0.08312153 -0.08503033 0.22436665 0.2101393 -0.26804602 -0.09520751 0.370375 0.5970447 -0.301792 -0.23380177 0.41140115 -0.16884884 0.016898543 -0.30601907 -0.6151709 -0.9452465 -0.3252937 0.3056637 0.59010535 0.5684245 -0.17659064 0.24723126 0.0785857 0.24892397 -0.35643062 0.37512246 -0.21315086 -0.69699806 0.004485453 -0.5049552
chasse 0.002871323 0.065701015 -0.14629216 0.3870234 0.16693969 -0.067106694 0.10275865 0.20601851 -0.38011837 -0.04374446 0.2530337 -0.23034832 0.1950847 0.039957564 -0.09261208 -0.42618406 -0.4307013 0.13967358 0.5480624 0.5929212 -0.1756759 0.21768862 0.22252803 0.15029423 -0.252036 0.36222583 -0.25548774 -0.67989224 0.058745295 -0.67548454
gratuit 0.3185265 0.11040169 0.2795208 0.08245631 -0.11062699 -0.18195905 0.22794968 0.604605 -0.4545123 -0.25410047 0.1529186 -0.21025915 0.1308617 -0.22141218 -0.46951163 -0.80818474 -0.2418436 0.35061535 0.6931433 0.6572979 -0.06921977 0.3217998 0.04068899 0.09556903 -0.200954 0.48094776 -0.13481829 -0.6326016 -0.066503555 -0.6147796
jour 0.11946099 0.10718524 0.016421065 0.40224501 0.08950559 0.007995378 0.21669306 0.30402762 -0.45268083 -0.11283573 0.3699941 -0.002328448 0.14693964 -0.061085865 -0.2705492 -0.40906876 -0.16407308 0.27065194 0.5000396 0.64560056 -0.09160821 0.19544971 0.30325988 0.083632894 -0.37881657 0.35260126 -0.24554932 -0.6614329 0.13043937 -0.65348285
besoin -0.012430592 0.15790993 -0.06227563 0.3583914 0.27482498 -0.12790567 0.038822275 0.20057054 -0.52351314 -0.21767949 0.28211203 -0.111851275 0.18225336 0.07096282 -0.021294748 -0.36601228 -0.34668067 0.05432707 0.5313103 0.641635 -0.097225174 0.2088074 0.45097262 0.052133296 -0.15502745 0.43781644 -0.280158 -0.6610967 0.15194444 -0.76826125
unique -0.13410968 0.32963273 -0.5098829 0.41996682 0.43669918 -0.23726544 0.3937994 0.21715675 -1.0540669 -0.22148247 0.22269957 0.07795297 0.9756196 -0.18561669 0.0023208447 0.15922894 -0.12973621 0.024560533 0.80725 0.879885 -0.057493377 0.2249467 0.5224326 -0.035824094 -0.2882695 0.4022512 -0.59185016 -0.94393367 0.36038256 -1.2398864
polluer 0.09679979 0.09479545 -0.0048943413 0.39198205 0.10580089 -0.10973549 0.09185638 0.33470157 -0.40949875 -0.15650326 0.3016631 -0.13019967 0.076506995 -0.033189524 -0.13851227 -0.48715788 -0.24365644 0.19807328 0.59162724 0.70375985 -0.13579525 0.26658216 0.26818752 0.09525051 -0.28165004 0.43829313 -0.13563615 -0.5965703 0.019590473 -0.6279078
apprendre 0.019763317 0.05091009 -0.039035216 0.7405767 0.31037697 -0.15479472 0.006863258 0.20422289 -0.3469739 0.17770883 0.7240273 0.05774438 -0.35682532 0.054207046 0.0035790938 -0.3188207 -0.019358028 0.20443964 0.49023122 0.9405434 -0.09521923 0.15498893 0.41650772 0.011159331 -0.5310082 0.4450562 -0.14542708 -0.5860986 0.15189531 -0.5712508
eduquer 0.0755116 -0.058208458 0.091044605 0.8135942 0.23701873 -0.11971136 -0.030825155 0.2437448 -0.23726979 0.2853134 0.7521035 -0.091588706 -0.53563666 0.10977478 -0.072385415 -0.5094369 0.010086609 0.26509196 0.4917413 0.9838261 -0.09996253 0.22812623 0.323984 0.07476876 -0.59340197 0.49012023 0.037787195 -0.54833895 -0.0014250666 -0.52477443
respecter 0.00015723327 0.024337944 0.0009769072 0.6886544 0.16492008 -0.07762485 0.026248466 0.2008652 -0.40504214 0.08718278 0.6346174 -0.046286516 -0.29941496 0.12317582 0.029846536 -0.39398956 -0.053184625 0.147213 0.449814 0.8638821 -0.1961295 0.21683922 0.455581 0.072365955 -0.41383114 0.5661959 -0.0022129423 -0.59670055 -0.002671407 -0.4867004
inutile -0.10589695 0.20759694 -0.16927813 0.33972597 0.18579724 -0.17204037 0.2107689 0.2281805 -0.66002846 -0.18751088 0.26161134 -0.036588624 0.41212568 -0.1250005 -0.058168802 -0.18565679 -0.15866624 0.052199677 0.58851737 0.6707767 -0.037188984 0.16648725 0.49762943 0.00996146 -0.27108908 0.38993216 -0.35828567 -0.786677 0.22586676 -0.8139176
pollueur 0.09297266 0.07826836 -0.020766916 0.47321096 0.03296971 -0.03197103 0.096951425 0.36632448 -0.40028334 -0.036565997 0.35843697 -0.08256961 -0.017798798 0.009776583 -0.085529394 -0.4204496 -0.079298005 0.17493139 0.56903505 0.75843906 -0.12535553 0.31308785 0.3431999 0.16560219 -0.35973772 0.50807697 -0.070033655 -0.59248394 -0.008909162 -0.5449811
commerce -0.069130674 0.11448178 0.028955188 0.43660998 0.110695116 -0.2583914 0.09682271 0.19708873 -0.5460036 -0.2580283 0.3680979 -0.12770723 0.16182 0.017064504 -0.0623975 -0.42488343 -0.24824974 -0.05676438 0.5391161 0.6082783 -0.30543023 0.14734991 0.62251496 0.024442337 -0.064156905 0.63133365 -0.12167408 -0.6576572 0.030833382 -0.61911476
maison -0.050726004 0.0018773555 0.0005596256 0.36539337 0.07613007 -0.001179087 0.20110378 0.3534376 -0.30261996 -0.054838043 0.38582954 -0.19562078 -0.009201985 0.006435109 -0.2756358 -0.64156264 -0.3690975 0.192421 0.46433884 0.6486231 -0.17836116 0.2389457 0.26702443 0.22933076 -0.26009342 0.35417017 -0.2038035 -0.6949155 0.045435797 -0.5547342
partout 0.24186972 0.07601862 0.03886035 0.31528035 -0.1472916 -0.030922927 0.3961223 0.47693092 -0.4509904 -0.0533195 0.49126202 -0.002167531 0.15892342 0.07846487 -0.44586435 -0.66664875 -0.42337278 0.38112646 0.6304214 0.7222639 -0.29847386 0.1462149 0.024591977 0.3485963 -0.24719714 0.20784724 -0.28084305 -0.63192475 0.022327654 -0.4142423
eco 0.04612794 0.012619849 0.0038360998 0.57428086 0.18908446 -0.07350594 0.048133425 0.19656853 -0.32820022 0.010435832 0.46332458 -0.12878914 -0.14079763 0.12536266 -0.056015525 -0.43395028 -0.1015333 0.09701424 0.48233265 0.838292 -0.27321067 0.27079195 0.5400388 0.13008559 -0.24387759 0.5920571 -0.021061111 -0.5347245 -0.005093434 -0.5538417
stopper 0.0049273376 0.08389971 -0.03421488 0.42138937 0.2271935 -0.09459606 0.033299185 0.20117338 -0.44615486 -0.14573866 0.2718201 -0.17225419 0.065685146 0.036220204 -0.0045847613 -0.4354297 -0.22676821 0.06969028 0.5464752 0.6815442 -0.16979101 0.24029745 0.39933333 0.08688532 -0.15696618 0.4939793 -0.11874389 -0.6543992 0.0160463 -0.6445544
foret 0.15009613 -0.014848027 0.025211066 0.46566316 -0.042615075 0.035088502 0.2509824 0.3539744 -0.2654649 0.027000228 0.5494268 -0.15529725 -0.047417153 0.1661675 -0.3194381 -0.6548843 -0.4053097 0.31089684 0.48093334 0.7340097 -0.32367277 0.20051178 0.16384165 0.29767343 -0.25538582 0.29067093 -0.10194959 -0.6036457 -0.019193174 -0.38915128
davantage 0.058157742 0.065646924 0.054314505 0.4294801 0.070677534 -0.11150433 0.104656644 0.34980902 -0.40082905 -0.10077256 0.41276857 -0.09928515 -0.02968737 0.008380081 -0.19016112 -0.54084235 -0.1363337 0.21091902 0.5406801 0.7149154 -0.170668 0.24359898 0.2893231 0.116169125 -0.276527 0.44285837 -0.14777192 -0.6243286 0.025407746 -0.5319164
cout 0.054491185 0.06175722 0.07898293 0.43582398 0.12979902 -0.14327234 -0.031829555 0.31596407 -0.5227343 -0.107428044 0.2364109 -0.17902003 -0.023423359 0.035963684 0.0062359367 -0.43829757 -0.08534701 0.12390261 0.6056186 0.74874574 -0.089852095 0.37067738 0.3809331 0.10756137 -0.19508117 0.5867525 -0.048962537 -0.61793256 -0.012443058 -0.62493116
agir 0.011080552 0.039949335 -0.010416229 0.5944006 0.19130625 -0.05097809 0.03292058 0.242023 -0.40104884 0.08453899 0.5426994 -0.1145618 -0.20620653 0.1164889 -0.04015803 -0.44301054 -0.13209131 0.17379162 0.48058176 0.8210721 -0.15779792 0.23756196 0.40245512 0.108474776 -0.36203912 0.47654894 -0.038860537 -0.5946377 0.0035725543 -0.51514566
renouvelable -0.20493092 -0.13160476 0.3698309 0.16249625 0.369204 0.0134022515 -0.07325153 0.5624414 -0.27197 -0.28126475 0.11108103 -0.5192298 -0.18788843 -0.041892555 -0.20624791 -0.89491934 -0.36511135 -0.023814984 0.43792924 0.56941813 -0.07513156 0.5055533 0.44345403 0.38883662 -0.098098055 0.5790117 -0.10642596 -0.87110656 -0.026580794 -0.7769883
matiere -0.07058998 0.13319042 -0.14619257 0.40510178 0.2485671 -0.046411484 0.0815522 0.25104046 -0.6148405 0.0074500106 0.2978736 -0.038923737 0.17505693 0.054592177 0.029517697 -0.21588768 -0.048021078 0.10476875 0.56585604 0.7510256 -0.08429462 0.23046629 0.47755095 0.09974785 -0.29687914 0.47938773 -0.2166036 -0.68087065 0.17043684 -0.7466624
niveau 0.007973348 0.024909671 0.029110743 0.50212246 0.101576455 -0.056678254 0.0034952825 0.28757387 -0.4024499 0.0008344024 0.44493032 -0.1730854 -0.14125614 0.055745453 -0.11712629 -0.5103699 -0.13293956 0.17336325 0.47139257 0.746412 -0.12798852 0.2630167 0.3814472 0.17873357 -0.3483436 0.5010229 -0.021865044 -0.5994913 -0.03509478 -0.6236251
fonction 0.13222812 -0.000541667 0.12869868 0.41947055 0.087540984 -0.14235736 -0.115596786 0.30263737 -0.46936452 -0.17791018 0.27380243 -0.13235816 -0.07465898 -0.07395071 -0.045359924 -0.49835998 -0.010573335 0.12317791 0.6803007 0.7901597 -0.05387992 0.45586765 0.350498 0.0803216 -0.28478202 0.602654 0.01447508 -0.58062476 -0.09630593 -0.6542027
gaspillage -0.07401506 0.21143933 -0.17268828 0.46799734 0.2678837 -0.28996095 0.06839022 0.21884272 -0.6872364 -0.16567647 0.34149608 -0.024204189 0.23925631 -0.00796741 0.09164171 -0.11265985 -0.12387799 0.014694415 0.5565482 0.7466022 -0.13698964 0.24287972 0.5706935 0.031120246 -0.23218873 0.5059166 -0.26582524 -0.7879388 0.18991113 -0.7850715
projet 0.040819827 -0.042027146 0.058039974 0.56431615 0.09079214 0.01165383 0.042288404 0.32812735 -0.3173306 0.035946816 0.4555318 -0.25035533 -0.22375394 0.08874899 -0.16301669 -0.6489021 -0.16542733 0.1943551 0.46611142 0.7643021 -0.17518224 0.31570378 0.32374287 0.22316885 -0.3199785 0.5490542 0.0131667955 -0.52933973 -0.10039115 -0.50815356
ecologique 0.102984786 0.04220258 0.07112886 0.47680777 0.11055843 -0.07290109 0.06655156 0.28111002 -0.41617793 -0.053993862 0.3810485 -0.17091428 -0.018513214 0.012305549 -0.12816912 -0.5140746 -0.14695936 0.18542157 0.51027226 0.7735752 -0.15729535 0.27699137 0.2958527 0.1483221 -0.28287545 0.49550256 -0.06743014 -0.6002374 -0.034259792 -0.59303004
climatique 0.10159651 -0.050315548 0.11182528 0.6224148 0.10174353 0.0075729303 0.040174652 0.32004833 -0.30494484 0.14287587 0.57299227 -0.26203728 -0.38290974 0.16242176 -0.11204248 -0.62429255 -0.1460043 0.2059578 0.42660686 0.84497696 -0.12447131 0.31123745 0.20515543 0.19251518 -0.38855937 0.47595406 0.033380426 -0.56323355 -0.115668334 -0.53905386
national 0.04926852 -0.009056121 0.08505006 0.5439346 0.08847621 0.008131283 0.07000857 0.28329074 -0.35304397 0.040712845 0.45291814 -0.17560525 -0.13787353 0.059290495 -0.19362867 -0.59931254 -0.089261256 0.21857944 0.427208 0.7785935 -0.15768404 0.26219568 0.34769526 0.18257615 -0.37684086 0.5507623 0.019544622 -0.5424609 -0.033938576 -0.5373886
sol 0.05918359 0.07244541 -0.06885963 0.4735466 0.11426366 -0.04131277 0.13691641 0.25287187 -0.37742317 -0.0832915 0.37068835 -0.13512164 0.053997207 0.12029614 -0.13264689 -0.525241 -0.3646987 0.121890806 0.5038568 0.7407778 -0.2926531 0.19310686 0.3214068 0.19029576 -0.18464406 0.46121633 -0.14598589 -0.652942 0.024228148 -0.5332686
toilette -0.16822852 0.17963411 -0.3270998 0.15357755 0.21106419 0.11068727 0.42014757 0.46046364 -0.4170503 -0.074008636 0.062866814 -0.18043686 0.51348984 -0.04365816 -0.361758 -0.49147862 -0.5958799 0.24911216 0.544446 0.5256844 0.023541056 0.246951 0.24021761 0.3114535 -0.23949626 0.20745705 -0.6290952 -0.87783575 0.24853617 -0.90440947
energetiqu -0.0039792047 -0.07018186 0.18952315 0.42324278 0.11069316 -0.032279506 -0.023840358 0.27791202 -0.3482089 -0.053850062 0.3573331 -0.28124446 -0.14516649 -0.015609594 -0.17834136 -0.6228319 -0.18187137 0.13532189 0.48132476 0.7218082 -0.13425416 0.32185492 0.41426066 0.17833452 -0.3107943 0.55992466 0.054635786 -0.6488613 -0.08664228 -0.63405764
eteindre -0.071232066 -0.26109084 0.38723743 0.3208512 -0.3300312 -0.023780787 0.34460983 0.33976868 -0.20153904 -0.15470703 0.68171465 -0.3947827 0.18344334 -0.28529227 -0.62760186 -0.89014065 -0.4579044 0.005828279 0.5002835 0.4733079 -0.21101265 0.07243284 0.17734736 0.1928341 -0.56226325 0.4291798 -0.017839773 -0.68081725 -0.09756671 -0.68110347
loi 0.03480113 0.057311364 -0.077942245 0.4918144 0.09765911 0.0018928591 0.14928289 0.28112727 -0.4327227 0.038400885 0.42571115 -0.04583995 0.013622151 0.019097108 -0.13219085 -0.3661234 -0.056584433 0.17580487 0.4964737 0.75089 -0.086461276 0.23473394 0.40562508 0.12938485 -0.37682167 0.4546369 -0.12347888 -0.58691466 0.046896998 -0.5962414
contenant -0.07874127 0.48828417 -0.460552 0.28802305 0.34049767 -0.09830224 0.48077634 0.22589244 -1.0877339 -0.24098162 0.15551016 0.2937406 0.9532478 -0.035070978 -0.09023806 0.08606852 -0.08632177 0.1992669 0.7180971 0.8161144 -0.034072306 0.10000208 0.774552 0.038751114 -0.24349877 0.45283335 -0.65666425 -0.967325 0.56069475 -1.2171695
moteur 0.2734702 -0.054412734 0.27797505 0.25660393 0.017713344 -0.13097411 -0.0017837756 0.45144987 -0.3123621 -0.31173906 0.17022489 -0.29848593 0.0016232881 -0.15497519 -0.24841532 -0.8224266 -0.26766166 0.1911774 0.7687976 0.651925 -0.039625455 0.42940378 0.112008885 0.10322208 -0.19897124 0.48478463 -0.0678194 -0.5402713 -0.12670809 -0.693219
investir -0.013376761 -0.057599895 0.18204235 0.30621228 0.14533949 -0.0031653096 -0.009482851 0.42926848 -0.3121663 -0.16556156 0.1997699 -0.30370477 -0.09565261 -0.015198739 -0.24875593 -0.7625847 -0.26040927 0.14564572 0.54755294 0.61993694 -0.056119327 0.44991803 0.29367864 0.27698743 -0.19242954 0.5002997 -0.0654629 -0.6569171 -0.05194935 -0.73768705
sante 0.045741815 0.07262075 0.01499726 0.60261506 0.24663953 -0.093116745 -0.06701332 0.1603286 -0.43631196 -0.003013222 0.40723225 -0.1972226 -0.11167712 0.1418448 0.06814347 -0.40577993 -0.16367954 0.092557214 0.52867043 0.8327064 -0.20247972 0.27729192 0.45445934 0.08567422 -0.2789688 0.53709173 -0.02079809 -0.5817473 -0.040595975 -0.56401443
passer 0.054963246 -0.011808445 0.046303105 0.47544762 0.11497488 -0.04158844 0.06208264 0.28407705 -0.35441023 -0.05389579 0.405004 -0.107307315 0.007072101 0.048696972 -0.1801756 -0.5490612 -0.20042711 0.18089631 0.49555576 0.6972474 -0.16281125 0.20434882 0.3301028 0.1426685 -0.3310097 0.5166343 -0.055102058 -0.5988253 0.012348781 -0.60976326
falloir 0.024858244 0.15696676 -0.15402123 0.5058096 0.2705576 -0.058680117 0.12632534 0.23281191 -0.48915675 -0.10094494 0.4033152 0.045700893 0.13202769 0.17685658 -0.08028584 -0.3555696 -0.31099993 0.18589233 0.521801 0.7405203 -0.20588218 0.13389474 0.49153394 0.115943916 -0.20364496 0.4013052 -0.21434133 -0.6289512 0.150007 -0.5996287
proteger 0.13357164 -0.017826306 0.06263471 0.57472485 0.08864525 0.012078058 0.12764421 0.2901268 -0.24447799 0.034123294 0.5030232 -0.20299168 -0.15630907 0.13016462 -0.20649377 -0.6473692 -0.33533835 0.26593706 0.49395117 0.7478878 -0.25192705 0.19720627 0.21235125 0.25040042 -0.33610493 0.41770348 -0.06631678 -0.56158656 -0.069703326 -0.43265647
payer 0.015265926 0.10201481 -0.04175853 0.46828532 0.10027132 -0.10150378 0.11081853 0.31509885 -0.5346186 -0.04041293 0.4040845 0.12316866 0.04580651 -0.015613055 -0.08903859 -0.26801693 -0.0255519 0.19821386 0.57422155 0.8096018 -0.056635324 0.27902552 0.43841133 0.09759946 -0.39113337 0.4834392 -0.17466013 -0.635361 0.12545453 -0.6451175
nombre 0.14389354 0.047832556 0.108834505 0.36838368 0.086100504 -0.17304741 0.071653105 0.3333213 -0.46917385 -0.20609464 0.26583317 -0.13780461 0.08831764 -0.06640332 -0.11219475 -0.48430786 -0.15742964 0.12175524 0.62897724 0.69412595 -0.09691105 0.29178008 0.30564448 0.04295921 -0.27861297 0.45360255 -0.14130421 -0.5921318 -0.038467556 -0.63850373
fin 0.06855925 0.11639064 -0.0097405985 0.43887696 0.16556418 -0.08295965 0.097860925 0.2791071 -0.47611696 -0.13192499 0.29792717 -0.02957335 0.062317174 0.047077898 -0.09910761 -0.4314707 -0.17768939 0.14892136 0.45643416 0.71433854 -0.11145911 0.22009021 0.38776833 0.16292256 -0.23701005 0.4262398 -0.19897291 -0.63463765 0.09921453 -0.65292686
economie 0.036977444 0.04075707 0.12339891 0.42852804 0.15869871 -0.0711104 0.022241833 0.3203469 -0.39505294 -0.089384 0.3301038 -0.22361024 -0.023669109 0.03298231 -0.14984256 -0.53335613 -0.20541508 0.12344012 0.49787927 0.7046964 -0.17015302 0.2802996 0.38804898 0.18031557 -0.22881618 0.52040297 -0.06604333 -0.62029827 0.019039994 -0.6719566
social 0.047842324 -0.018453432 0.12790814 0.62352234 0.072350256 -0.023166891 -0.026935205 0.3317097 -0.3540385 0.0970433 0.48852363 -0.2652746 -0.3223126 0.099582694 -0.11692822 -0.59183574 -0.009859924 0.20305346 0.5254248 0.8504527 -0.09776303 0.33506128 0.3080695 0.14377074 -0.39944884 0.5842064 0.08248967 -0.5108183 -0.1516268 -0.5358467
integrer 0.03238698 -0.04198411 0.054202907 0.5713451 0.10707042 0.025718743 0.019724317 0.30755717 -0.33643776 0.11606321 0.45017657 -0.21139844 -0.25328544 0.087214984 -0.092257276 -0.5691976 -0.10553118 0.14280456 0.44361097 0.81128526 -0.15542579 0.33314684 0.32896906 0.17553847 -0.34374574 0.49390113 0.015941437 -0.5904479 -0.082660206 -0.533291
alimentation -0.050852396 0.10476093 0.012092976 0.5231349 0.28423703 -0.18566605 -0.092472106 0.14204574 -0.4963368 -0.13663706 0.34131783 -0.15352623 0.004407805 0.13500153 0.069440536 -0.3973115 -0.19806716 0.01646242 0.52996296 0.7413933 -0.2785458 0.22468773 0.5531304 0.033893026 -0.16908483 0.54833424 -0.08760061 -0.63493407 0.021793146 -0.6424017
haie 0.30181995 0.018617878 0.06884566 0.39715618 -0.12400642 0.1217986 0.47390595 0.39023525 -0.36352664 0.014150364 0.5238729 -0.10394045 0.10540827 0.21957059 -0.43801484 -0.7872766 -0.5303941 0.41705924 0.5219808 0.7389305 -0.38010892 0.07982497 0.13285683 0.42280072 -0.18641981 0.22585525 -0.14884669 -0.60230494 -0.041221317 -0.37578118
manger -0.13705912 0.24810036 -0.09306278 0.6133256 0.47921047 -0.32061118 -0.12237114 0.015846716 -0.6601373 -0.2717855 0.4453042 0.00047130213 0.03120476 0.25960913 0.28296742 -0.2330383 -0.25436345 -0.10808108 0.42406496 0.7578761 -0.33227783 0.1498244 0.8652654 -0.0423256 -0.005721086 0.690455 -0.23756403 -0.7649696 0.20189339 -0.694109
fortement 0.058979 0.12839468 0.01331036 0.32049933 0.118423276 -0.14653347 0.048027646 0.33536905 -0.5892684 -0.17065941 0.21528701 -0.10707873 0.18817282 -0.07419132 -0.0005349229 -0.32786706 -0.053167693 0.10679098 0.6415345 0.69367933 -0.08055193 0.37283018 0.40567702 0.031120522 -0.22923033 0.52258956 -0.11187157 -0.64069915 0.06071174 -0.71752554
industrie -0.03411625 0.10837805 -0.09201522 0.43240744 0.15848587 -0.14978114 0.07242842 0.29628626 -0.50610346 -0.10384125 0.28971246 -0.09668754 0.13876133 -0.021966599 -0.003786035 -0.29835173 -0.09261471 0.06528776 0.57442075 0.73415637 -0.12619722 0.27428946 0.46785295 0.06474809 -0.23373814 0.5098023 -0.0999292 -0.6726254 0.034254566 -0.68794996
emission 0.13239111 -0.12187863 0.2230189 0.4914441 0.0251612 -0.1958073 -0.11713904 0.33276358 -0.43421143 -0.15276831 0.36264035 -0.23613651 -0.28456846 0.094034545 0.036794562 -0.5636221 -0.1902607 0.097437665 0.6714559 0.7725979 -0.1121964 0.44663393 0.3256699 0.17324306 -0.2404387 0.6008251 0.075620934 -0.5825323 -0.14206487 -0.56244355
chauffage 0.002889032 0.0022119372 0.0060913158 0.32269892 0.039687883 -0.07564092 0.13894232 0.31998062 -0.33411035 -0.16477558 0.29838407 -0.18787931 0.14378902 -0.0785791 -0.23365174 -0.53532696 -0.30500945 0.1115526 0.5419744 0.61733985 -0.09991847 0.2788004 0.23745333 0.20192991 -0.25091794 0.38315403 -0.19181158 -0.68584585 0.047488555 -0.6906593
campagne 0.20290689 0.079879716 0.17608571 0.28983703 -0.097260036 -0.07895626 0.20950104 0.45727384 -0.38812396 -0.13237365 0.39580774 -0.12718268 0.047771398 -0.09472287 -0.41753304 -0.7665315 -0.26417744 0.32095802 0.5616374 0.6534961 -0.16616695 0.21723473 0.09740216 0.17388587 -0.27902278 0.41893137 -0.14467637 -0.5969758 -0.037901804 -0.5107642
rue 0.021088459 0.09013992 -0.033301562 0.3657688 -0.1506901 -0.023878185 0.46806294 0.4463602 -0.39143303 0.0044878502 0.5681186 0.16372022 0.1856746 -0.21154015 -0.51427126 -0.49217054 -0.2129125 0.33632964 0.58779275 0.6776753 -0.08613109 0.11804899 0.13050792 0.22237937 -0.53314006 0.20785387 -0.42672524 -0.6666448 0.2007163 -0.59450126
collectif 0.061404034 0.034146745 0.19468604 0.34681752 0.035104983 -0.12964973 0.10084766 0.41958326 -0.37048158 -0.16392142 0.3157789 -0.22593322 -0.045113213 -0.054361198 -0.2810931 -0.7274872 -0.22334729 0.17679055 0.523109 0.688377 -0.1993625 0.28997335 0.30619654 0.16617616 -0.22167927 0.5281931 -0.05062364 -0.63160795 -0.018251007 -0.5586061
importation -0.035970043 0.1624409 -0.08136852 0.499871 0.28383732 -0.3133676 -0.15054132 0.13466169 -0.61558694 -0.2656044 0.19703375 -0.101747096 0.15266861 0.16331671 0.2474966 -0.22763869 -0.17623958 -0.11112682 0.5985702 0.73384297 -0.27078888 0.34398893 0.645385 0.04633084 -0.06555404 0.6770899 -0.08731182 -0.66298383 0.033630177 -0.709611
immeuble -0.006535267 -0.05603491 0.095856786 0.2550942 -0.089320675 0.03381501 0.31375223 0.4797262 -0.25209117 -0.07529095 0.34514493 -0.23993805 0.061786685 -0.11041455 -0.43744442 -0.75986004 -0.366318 0.2514679 0.5048601 0.6321808 -0.16601649 0.25324342 0.1708525 0.3112446 -0.33409998 0.32748517 -0.2209386 -0.7485255 0.004404849 -0.55542177
tva -0.015860977 0.12904231 -0.01840915 0.61290205 0.23563635 -0.22436062 -0.20721453 0.14085242 -0.6439147 -0.14291921 0.2321659 -0.063328765 0.038168896 0.17908049 0.22542034 -0.2143507 -0.0013310041 -0.022174392 0.5876743 0.8390682 -0.21650581 0.37289926 0.7247912 0.03225681 -0.16546522 0.77890587 0.03984452 -0.60611916 -0.039925467 -0.6984487
marche 0.14357653 0.22711915 -0.0066168066 0.32545653 0.21307495 -0.20827596 0.0486279 0.31447828 -0.58497256 -0.28035107 0.19413382 -0.0391517 0.24481183 0.012508708 -0.115147986 -0.36217612 -0.1664564 0.14301448 0.5975547 0.7015499 -0.12640469 0.22323778 0.40509012 0.064429834 -0.11625604 0.516654 -0.26005873 -0.6124077 0.10055911 -0.72668856
poids 0.07652595 0.13161685 0.08782885 0.3951201 -0.05889133 -0.20838839 0.13232145 0.37750176 -0.5617255 -0.21147998 0.27467126 0.06782274 0.120405376 -0.19578983 -0.17675978 -0.4017714 0.07919356 0.23277438 0.6671054 0.7469575 -0.02223536 0.33967546 0.24729054 0.06620618 -0.4103308 0.45922515 -0.21767221 -0.62156904 0.11108261 -0.6526175
camion 0.18512261 0.15981662 0.25091717 0.28093988 0.022419864 -0.2511594 0.073791586 0.44445476 -0.5693736 -0.328714 0.15784174 -0.15774727 0.15756367 -0.1289856 -0.17335385 -0.60184234 -0.16574937 0.18142313 0.6490552 0.6818158 -0.089204945 0.28417292 0.25933334 0.090245366 -0.18605316 0.51810616 -0.1052545 -0.60023063 -0.024325322 -0.6421035
scolaire 0.14836875 -0.00873697 0.07366233 0.69124824 0.15174706 0.013385605 0.071332134 0.26128626 -0.27584827 0.21370003 0.65131515 -0.16776024 -0.3981446 0.12882231 -0.103394695 -0.514995 -0.06541212 0.20634058 0.43155932 0.9305488 -0.18419528 0.24047558 0.24597213 0.07691325 -0.46205541 0.45977896 0.048951168 -0.57810706 -0.06968788 -0.5101494
trier -0.06104879 0.17777434 -0.17678581 0.48703757 0.10450435 -0.10147533 0.23479062 0.29099944 -0.4907692 -0.012061706 0.5132504 0.195827 0.13705738 -0.07648315 -0.19973528 -0.22057773 -0.0030991312 0.2740543 0.589225 0.7938573 -0.013437426 0.17553852 0.36900926 0.10243991 -0.4849699 0.33848342 -0.3631474 -0.67148215 0.27472863 -0.6349601
megot -0.08728573 0.21058418 -0.2910926 0.51053125 0.08270158 -0.011586332 0.33965677 0.2976618 -0.43454263 0.08899229 0.6210242 0.33113766 0.14245738 -0.09382872 -0.24269347 -0.16013555 -0.19377907 0.31794044 0.6441465 0.80469155 -0.026715528 0.131034 0.24688928 0.13911994 -0.5749752 0.2873175 -0.4564326 -0.67158365 0.30354667 -0.64645004
financer 0.059777975 -0.018837435 0.14272207 0.39363924 0.15077482 -0.044203363 -0.030072346 0.3373111 -0.359919 -0.12192791 0.2518636 -0.2146632 -0.058562342 0.03922139 -0.1216645 -0.6338138 -0.17033568 0.17203002 0.53223324 0.70922035 -0.123765945 0.3667004 0.39373422 0.18207389 -0.22462903 0.6069861 0.03075935 -0.6028848 -0.08483859 -0.62075853
francai -0.02511841 0.104031555 -0.034141753 0.48696113 0.25219658 -0.20335893 -0.06405807 0.20912053 -0.50437725 -0.18709671 0.29171386 -0.048876226 0.07267598 0.1317522 0.07860406 -0.3584408 -0.1950589 0.005572465 0.53090525 0.7321071 -0.20234807 0.2931154 0.56021905 0.07147338 -0.12674934 0.61948353 -0.08777813 -0.63671803 0.07991645 -0.68554515
sauvage 0.05353496 0.026821688 0.012893727 0.49673867 0.024138661 -0.036495607 0.15280798 0.32011908 -0.32066312 -0.036922265 0.4733418 -0.08494824 -0.054429635 0.0456463 -0.26204813 -0.55763614 -0.24516347 0.2594664 0.50286025 0.74484015 -0.21911374 0.22883524 0.25636724 0.16725022 -0.35499898 0.42651537 -0.15227897 -0.56995636 0.020839289 -0.5304926
kilomètre 0.32380068 -0.04795874 0.3619285 0.35056037 0.008512827 -0.2320315 -0.08267809 0.40087545 -0.38691422 -0.28897232 0.32313555 -0.25211245 -0.10973735 -0.013699099 -0.24610735 -0.74678016 -0.30385232 0.1958116 0.7475081 0.75011563 -0.14572696 0.36245328 0.09724564 0.09061158 -0.23995543 0.49890783 0.01985671 -0.5308554 -0.21395305 -0.5589954
long 0.28926244 0.0066531147 0.22410254 0.36936975 -0.0043734456 -0.053847447 0.19115189 0.44568852 -0.39739493 -0.09283185 0.37954727 -0.21269636 -0.05564002 0.09257683 -0.32979092 -0.7828945 -0.31206882 0.3191111 0.5555789 0.7568658 -0.27785647 0.29526687 0.15985155 0.30221793 -0.2034785 0.37787357 -0.063742094 -0.58691525 -0.1359161 -0.46847787
teletravail 0.19039975 0.10140495 0.21499927 0.31063908 0.07005808 -0.17527722 0.07697883 0.4216991 -0.44751617 -0.22529767 0.22850354 -0.17093608 0.10745234 -0.071461745 -0.19768551 -0.5702019 -0.12878795 0.22091992 0.62733984 0.70678234 -0.099213935 0.30515668 0.27581716 0.030801302 -0.24087645 0.50532496 -0.107840665 -0.61063284 -0.030777093 -0.63932747
toit -0.14305027 -0.17263716 0.19557507 0.17240046 -0.13085677 0.09555432 0.41470012 0.54023254 -0.07247582 -0.10408623 0.35276404 -0.41593027 -0.07745346 -0.16266239 -0.5640774 -1.0282836 -0.52884084 0.13164751 0.35757297 0.5679008 -0.29313496 0.23510493 0.31767088 0.5294101 -0.35081518 0.37830836 -0.28585294 -1.0313522 0.06980596 -0.52118087
trajet 0.3539127 0.04077018 0.35439485 0.31768414 0.04268561 -0.26148686 -0.03271371 0.504988 -0.45850462 -0.35209104 0.22388905 -0.3008656 -0.024736928 -0.11150479 -0.26184833 -0.77387035 -0.22249785 0.2645516 0.7692584 0.767294 -0.035443276 0.34849057 0.09960815 0.047551252 -0.20243892 0.5521112 -5.8365586e-05 -0.55939865 -0.22756377 -0.59929365
carburant 0.13224338 0.017364519 0.16946012 0.3684374 0.12798634 -0.17771234 -0.10993609 0.3447996 -0.50365 -0.25878575 0.1451808 -0.25417995 -0.021970743 0.011376456 0.00040055875 -0.5292513 -0.2103304 0.11816876 0.6877968 0.6836068 -0.107230954 0.43424675 0.30873778 0.09348984 -0.17095095 0.59428436 0.029361958 -0.5972141 -0.07758028 -0.69079196
producteur -0.022400567 0.17202495 -0.029311456 0.5726771 0.3074946 -0.2293428 -0.10886476 0.15921432 -0.56768626 -0.19561453 0.30623278 -0.100584194 0.006503089 0.20293514 0.16155067 -0.36522102 -0.17673187 -0.049810465 0.5014681 0.77656454 -0.30893853 0.23926504 0.74438983 0.032201476 -0.027863838 0.7596448 -0.028855622 -0.60079324 0.029620523 -0.64920443
reseau 0.21080504 0.094590366 0.17574778 0.23288435 0.025819745 -0.10972581 0.14874361 0.5072555 -0.41535977 -0.18902937 0.1775938 -0.24317196 0.12750192 -0.058225587 -0.331268 -0.70859027 -0.27508196 0.28113648 0.5971778 0.66624534 -0.06902337 0.33201244 0.14450146 0.18522537 -0.18730338 0.46044794 -0.15207137 -0.5956723 -0.06922428 -0.6166972
gros 0.117205665 0.05573228 0.038187858 0.42374137 0.085865006 -0.074005015 0.018384092 0.34342507 -0.4301568 -0.10273106 0.3139359 -0.13259967 -0.010279751 -0.012490673 -0.046661943 -0.446265 -0.15213268 0.17190762 0.61737084 0.75187397 -0.12210517 0.32496852 0.32076952 0.07987221 -0.3000586 0.515788 -0.04042884 -0.5715544 -0.028399158 -0.6039953
trouver 0.041269515 0.18806922 -0.100903966 0.32672283 0.19342862 -0.05056668 0.18393005 0.32744616 -0.5650939 -0.16752379 0.29433125 0.012315316 0.3069687 -0.038258035 -0.16469254 -0.3237479 -0.1307421 0.1480759 0.54633677 0.6997064 -0.089166135 0.24388017 0.4023201 0.105004214 -0.24417599 0.4021728 -0.2946728 -0.7096574 0.1662732 -0.75402075
bus 0.4508299 0.093002096 0.37352684 0.18357341 -0.06437178 -0.20454726 0.12235297 0.59386605 -0.43545866 -0.34765166 0.17082858 -0.26664478 0.06509574 -0.17062242 -0.46901345 -0.88303995 -0.30034766 0.4033608 0.77427393 0.70454216 -0.0786963 0.3575771 -0.043761194 0.13422005 -0.17823625 0.45903346 -0.09490024 -0.590593 -0.15341146 -0.61249655
empreinte 0.12449421 -0.09566043 0.13361618 0.5358305 0.12238405 -0.26302093 -0.19480915 0.25416872 -0.5134256 -0.077241294 0.41622463 -0.19712263 -0.343729 0.22718649 0.22409864 -0.44140956 -0.01382691 0.07384876 0.5840124 0.93153006 -0.1424107 0.46731913 0.43880826 0.16672532 -0.2607626 0.84842426 0.14646722 -0.5114758 -0.18960392 -0.47976983
culture -0.0017802265 0.14551823 -0.12490712 0.51748616 0.25714234 -0.082181655 0.06448921 0.16875228 -0.4601105 -0.09061489 0.30503651 -0.11499513 0.12596366 0.21176663 -0.0102255335 -0.39966056 -0.30394402 0.10072608 0.4836107 0.6955202 -0.29198906 0.14919062 0.49446154 0.1339007 -0.14297491 0.49448916 -0.1477564 -0.6593493 0.069417104 -0.6032695
logement 0.019663107 -0.05897386 0.17158487 0.3757078 0.035702035 -0.021289652 0.10202522 0.4042418 -0.23865548 -0.062152453 0.34115577 -0.30230716 -0.08191372 -0.033419937 -0.2654831 -0.72034985 -0.29422423 0.20773308 0.53137565 0.6788568 -0.1336764 0.2881014 0.2272793 0.21694374 -0.32382143 0.4715843 -0.0659643 -0.63026065 -0.08405973 -0.55584216
lumiere -0.098149806 -0.18943128 0.29402894 0.3645429 -0.22393544 -0.105726026 0.29352024 0.3450844 -0.2473364 -0.22271055 0.6208668 -0.29559958 0.18013358 -0.24174526 -0.4909749 -0.7545569 -0.44428962 -0.03128444 0.4956083 0.5079622 -0.18977612 0.037898615 0.28984913 0.19529168 -0.4447777 0.42582977 -0.05329954 -0.6344024 -0.08375519 -0.6785437
amende 0.07351648 0.13525845 -0.07710272 0.46012238 0.018128313 0.013092087 0.27221525 0.35342094 -0.4444182 0.030118551 0.4428014 0.2169475 0.086802885 -0.0639678 -0.2646338 -0.37325484 -0.066168405 0.31957114 0.5635417 0.8080875 -0.0250005 0.2124075 0.32906085 0.19449729 -0.49571678 0.37371838 -0.3057781 -0.61681515 0.19553696 -0.6108475
venir -0.055859316 0.19504893 -0.14432593 0.4802166 0.32775936 -0.2817023 -0.016255738 0.15143707 -0.6272353 -0.24207506 0.36401373 0.057163633 0.1444114 0.13204484 0.11433302 -0.23423022 -0.1932717 -0.01017613 0.5796235 0.7798926 -0.226064 0.23128851 0.58972645 0.0036872604 -0.113219604 0.55501693 -0.233726 -0.676313 0.16007572 -0.7173761
voie 0.18127929 -0.0013857549 0.18895826 0.3548226 -0.03634683 -0.10901597 0.13707618 0.40300882 -0.33866587 -0.12290803 0.34887958 -0.20638666 0.005692457 -0.06439782 -0.33280236 -0.713192 -0.3094584 0.25249845 0.58084226 0.7091566 -0.18452679 0.26405522 0.14722638 0.17681372 -0.2813567 0.4232718 -0.11545754 -0.567959 -0.07258813 -0.51220477
cours 0.13079219 0.064787425 -0.052307222 0.48759815 0.13221893 0.025024114 0.21157822 0.35719046 -0.34032986 0.13652693 0.4575931 -0.0777071 -0.06808027 0.039733246 -0.24357446 -0.53613967 -0.21105954 0.3525429 0.48109245 0.7445396 -0.038267035 0.18611372 0.24127004 0.23191547 -0.3936444 0.38492817 -0.21203926 -0.6407072 0.0850038 -0.62266386
humain 0.10182521 -0.0054587717 0.035108436 0.64267284 0.20352137 -0.06994028 -0.03782798 0.20661104 -0.3807952 0.07289762 0.5268121 -0.21230195 -0.23055127 0.17017427 -0.029953275 -0.53244257 -0.16260733 0.16116627 0.5018582 0.86580896 -0.21175583 0.2614196 0.3645619 0.12985408 -0.3382905 0.49524966 -0.0058802147 -0.5495382 -0.075569235 -0.5240292
ex 0.0248008 0.16563627 -0.11710892 0.3197341 0.1124189 -0.05117226 0.23240866 0.3129886 -0.55772316 -0.12096405 0.30822116 0.015453113 0.33927846 -0.02605666 -0.178179 -0.3039335 -0.15673254 0.19305141 0.54322565 0.6666804 -0.089859895 0.18847121 0.3501266 0.11595409 -0.29536256 0.3674497 -0.3049449 -0.68257844 0.19372411 -0.7179703
education 0.15999065 -0.011190924 0.08364855 0.6345878 0.15501888 0.03622949 0.034663066 0.30845174 -0.27360812 0.183307 0.5555013 -0.19207032 -0.36300257 0.09187434 -0.15849896 -0.60900646 -0.048729684 0.24504364 0.45121175 0.89702857 -0.09142666 0.25253496 0.2773804 0.18031949 -0.46859902 0.48189124 0.049557135 -0.5391846 -0.07313525 -0.5305584
vrai 0.14250681 0.08322875 0.020277759 0.45861197 0.09315518 -0.001668564 0.1405832 0.32754397 -0.42646208 0.021846632 0.40290418 -0.04845825 -0.0028928241 -0.015206894 -0.21028878 -0.45739794 -0.04278263 0.27680928 0.4760344 0.7777191 -0.0748681 0.24111168 0.34197724 0.18095045 -0.3468958 0.46815276 -0.12311687 -0.57663333 0.054388817 -0.600823
fossile -0.077618584 -0.08423839 0.2921831 0.2381511 0.35821936 -0.040263273 -0.12662765 0.44582468 -0.36483473 -0.24870236 0.12389584 -0.4047244 -0.10626188 -0.021500472 -0.12068973 -0.71444446 -0.32079905 0.012991313 0.5159132 0.56124544 -0.050842293 0.515853 0.40411925 0.25882804 -0.07845852 0.56040305 -0.074675985 -0.75228786 -0.054765075 -0.7834121
supermarche -0.1672228 0.31557408 -0.308001 0.34999177 0.30432323 -0.23558775 0.25967732 0.17034745 -0.84105843 -0.2519367 0.28962088 0.14865816 0.5428256 0.0115587935 0.03564554 -0.008417404 -0.15444572 -0.043422967 0.5464206 0.68378526 -0.17834108 0.121239334 0.7144849 -0.008903486 -0.11407167 0.47064233 -0.4716185 -0.8853692 0.34449118 -0.89846414
type 0.028063232 0.12244011 -0.07815894 0.41243002 0.13167861 -0.10145949 0.1763172 0.25058025 -0.5489868 -0.14160176 0.30622113 -0.015333451 0.18292107 -0.03406329 -0.10720546 -0.3562913 -0.10818725 0.1593716 0.58189 0.72210115 -0.10684865 0.24006382 0.3907002 0.08968752 -0.22253625 0.46546873 -0.2110045 -0.646377 0.10546951 -0.6562734
commercial -0.089437135 -0.16834854 0.23239936 0.35172266 -0.15804955 0.051377647 0.35915634 0.49451825 -0.18286999 -0.14808856 0.47286582 -0.37177846 -0.07487898 -0.17591877 -0.5284609 -0.968056 -0.5136207 0.109201044 0.45429227 0.59636706 -0.31792298 0.21183456 0.26947886 0.35945356 -0.38603365 0.4272005 -0.12672834 -0.7906729 -0.06657217 -0.52159107
hydrogene 0.18623184 -0.011974312 0.27962756 0.24770606 0.07517304 -0.12572399 -0.010522801 0.45334086 -0.3696531 -0.2849833 0.15638626 -0.31172466 0.013390024 -0.081839345 -0.27309716 -0.8248328 -0.2792354 0.18644637 0.6988113 0.6802013 -0.07750683 0.43739715 0.1879394 0.17879082 -0.15925378 0.5279413 -0.03944094 -0.6048851 -0.11245531 -0.7463899
beaucoup 0.06755926 0.05362708 0.006745628 0.3914524 0.124291465 -0.0850125 0.12638292 0.31967193 -0.42693654 -0.14536792 0.34146267 -0.1276689 0.07204524 0.07013317 -0.13946216 -0.5127771 -0.30024227 0.1644272 0.60494906 0.70944625 -0.21707197 0.2416481 0.30145165 0.18038537 -0.22366723 0.40746373 -0.17432612 -0.64202744 -0.0008204579 -0.598525
mondial 0.10887847 -0.010318945 0.12431577 0.5064889 0.0664633 -0.07638876 0.0402951 0.3105623 -0.33756268 0.002164498 0.43692276 -0.18568254 -0.1861178 0.08126738 -0.153632 -0.59311825 -0.1849517 0.16907112 0.54182494 0.7818088 -0.13804767 0.27996555 0.23699352 0.14768556 -0.3187604 0.47736928 -0.017751263 -0.57193834 -0.073204294 -0.56149834
parc 0.102258846 -0.05093152 0.15304093 0.33384794 -0.01805754 0.043409597 0.18309906 0.41822723 -0.25688767 -0.08647732 0.373187 -0.22823383 -0.08831239 -0.013362721 -0.35374483 -0.8137251 -0.3479924 0.2404137 0.48891428 0.66245633 -0.22239712 0.2933935 0.19243006 0.3247649 -0.26555827 0.44388258 -0.068449944 -0.64460075 -0.08478265 -0.54692715
boite -0.045114808 0.14606853 -0.20994107 0.39965504 0.13435681 -0.091540135 0.24933378 0.26464164 -0.55974686 -0.053767856 0.37608618 0.07792179 0.34508246 -0.061013017 -0.11864564 -0.15371534 -0.17665859 0.15333371 0.5824581 0.70665914 -0.040546596 0.12662266 0.29956323 0.042886578 -0.30241987 0.28995278 -0.35525137 -0.6729535 0.22619115 -0.772974
collecte -0.010859814 0.23573036 -0.1765563 0.3137951 -0.0024327966 0.03177281 0.4432222 0.38553318 -0.6044097 -0.036325358 0.34897166 0.26884717 0.40410632 -0.15222806 -0.3739045 -0.2670633 0.07226328 0.37396955 0.5211203 0.69450873 0.021959502 0.16905531 0.36171782 0.21188346 -0.4377866 0.32511175 -0.49323526 -0.7343081 0.3600932 -0.7578729
suremballage -0.10514275 0.28342688 -0.3406431 0.34595063 0.28689483 -0.24341527 0.18995796 0.17119575 -0.8456362 -0.23799855 0.16594099 0.021927642 0.5617 -0.027200479 0.10807524 -0.029665327 -0.13874815 -0.039688997 0.6522979 0.6999607 -0.13714826 0.18251118 0.6719892 -0.050142728 -0.14078987 0.5373983 -0.35617968 -0.81713116 0.29298627 -0.9375362
alternative 0.04048339 0.2034498 -0.13534954 0.33659458 0.21762735 -0.16639353 0.07874907 0.23211797 -0.62299734 -0.20315368 0.2056635 -0.058555998 0.25406295 -0.028919516 -0.009045508 -0.26834655 -0.084445715 0.08034434 0.6184497 0.7092177 -0.09459246 0.2654942 0.49531236 -0.033742547 -0.18803671 0.54132164 -0.14502521 -0.6485841 0.10748699 -0.7744853
baisser 0.073994435 0.02427938 0.1699876 0.40331239 0.11135567 -0.17036316 -0.027422426 0.34160292 -0.4553745 -0.14907749 0.25358668 -0.19648963 -0.048767723 -0.009294494 -0.07684335 -0.52022797 -0.16169713 0.08235856 0.6116301 0.7396489 -0.16027638 0.37611476 0.4071878 0.120859645 -0.18589742 0.5722138 -0.0013051184 -0.6203667 -0.09350798 -0.6427208
cyclable 0.39929485 0.04417838 0.40565142 0.18907343 -0.18231416 -0.16344416 0.2785892 0.6558325 -0.36189356 -0.24665014 0.248643 -0.31749192 0.05227774 -0.062649496 -0.5509946 -0.9734776 -0.3315299 0.47102395 0.7404401 0.776075 -0.122158125 0.35008553 -0.085397035 0.22507368 -0.27318987 0.41496813 -0.20703587 -0.5525788 -0.2285632 -0.49864367
societe 0.08032416 0.03878118 0.024066295 0.49023587 0.15806237 -0.07741659 0.028172247 0.29156634 -0.43402353 -0.056660403 0.39978233 -0.15162107 -0.12639691 0.056441117 -0.05742319 -0.47944048 -0.12027323 0.15584217 0.5398993 0.78703016 -0.12710743 0.31682584 0.36283556 0.09434442 -0.29341218 0.5240074 -0.054246698 -0.559697 -0.018839387 -0.6034829
rien -0.0030858212 0.06554548 -0.07761787 0.51534766 0.13707739 -0.04287479 0.15218355 0.2847687 -0.4273097 0.023840915 0.515666 0.010598701 0.009285752 0.040956568 -0.16185044 -0.4060198 -0.18362454 0.19675681 0.5466653 0.7579664 -0.09318722 0.19093704 0.29162103 0.12951651 -0.38018215 0.35843796 -0.17481264 -0.6195959 0.09452769 -0.5969349
carton -0.07197654 0.40671247 -0.4861421 0.26392445 0.27405274 -0.081523746 0.48405918 0.23670058 -0.9288201 -0.13924427 0.19242722 0.21108446 0.9141539 -0.12105773 -0.10827669 0.08164549 -0.101162024 0.18066151 0.7219409 0.7840571 0.0138617465 0.09663725 0.5550884 0.0055300198 -0.30691436 0.35190657 -0.6230225 -0.9088524 0.4734938 -1.0626671
mer 0.00025186673 0.07142767 -0.011120394 0.37623116 0.073162615 -0.0343232 0.13289708 0.35784328 -0.36259127 -0.08614664 0.3453893 -0.1028339 0.047997184 0.015160021 -0.22889145 -0.5344671 -0.28919613 0.22343345 0.5295162 0.6557764 -0.096557826 0.25831842 0.23156707 0.1637104 -0.30394742 0.38231835 -0.22054806 -0.6333421 0.072148554 -0.5893517
