7231 15
produit 0.21197037 0.9299906 0.67937046 -0.1014969 0.051670395 -0.89658713 -0.69714844 -0.031717375 0.015099461 -1.3628467 0.09070704 -0.36682132 -0.91297877 -1.0568937 -0.63044196
interdire 0.26612383 0.51255316 0.65101457 -0.49422508 -0.155841 -0.7632848 -0.94456464 -0.2765875 0.16716297 -0.9899358 -0.21313012 -0.025348058 -0.055592977 -0.5965771 -0.27650726
arreter 0.49889946 0.2514876 0.6668281 -0.3626265 0.049741305 -0.8765499 -0.6773862 -0.16714175 0.12082373 -0.98620397 0.064701304 -0.07411333 -0.40157756 -0.82976764 -0.4946575
plastique 0.1270014 0.67143 0.7300571 -0.8134134 -0.6108881 -0.8573889 -1.0787128 -0.6503743 0.15232503 -2.1002321 -0.39577225 0.03363713 -0.7603314 -0.6684618 -1.091133
faire 0.37444314 0.16608565 0.659918 -0.49458945 0.5492232 -0.763665 -0.5470549 0.03665236 0.13015684 -0.8394885 0.014289905 -0.104331434 -0.0641142 -0.6793547 -0.06540434
dechet -0.042851657 0.31499094 0.59133244 -0.6153065 0.43922123 -0.52089757 -0.61701524 -0.08842827 0.18919414 -1.6288955 -0.2223486 -0.24412812 -0.28815323 -0.319213 -0.4316177
eau 0.08277366 -0.37459236 0.7079855 -1.2629504 -0.19052288 -0.4297877 -1.1600801 -0.82832927 0.42389977 -0.9585946 -0.35027647 0.2963281 0.042250693 -0.55001414 -0.81754595
mettre 0.16891995 0.43297887 1.2063402 -0.8557159 0.7234685 -0.26413772 -0.37871474 -0.19709538 0.24519111 -1.4892019 -0.5358603 0.50381637 0.1631699 0.17703287 -0.66545135
emballage 0.34026212 0.8295842 0.69268733 -0.48810092 -0.5494577 -0.7842943 -1.0645249 -0.65617615 -0.06365302 -2.0141442 -0.5587418 -0.106935486 -0.70677304 -0.9013031 -0.7162326
ville 0.20795044 -0.22108808 1.1633971 -0.74374366 1.0871862 -0.80809534 -1.0163846 -0.28132856 0.36487007 -0.20036848 -0.32385996 0.1508467 0.4140027 -0.031684067 0.323397
entreprise 0.14555317 0.43301728 0.8040736 -0.49189106 0.39864394 -0.3447267 -0.79199755 0.15168531 0.20088199 -1.1752758 -0.28504243 -0.18897256 0.062292784 -0.4438509 -0.3517056
developper 0.25331223 0.26537696 0.9322294 -0.49314165 0.8751172 -0.72567654 -0.9507931 -0.43254936 0.38020116 -0.18943952 -0.1602398 0.24467035 0.046869885 -0.48624355 -0.03375851
consommation 0.5196385 0.65762496 0.5909205 -0.041145224 0.37710065 -0.98136294 -0.6612125 -0.115616485 0.11720164 -0.81167394 0.04731815 -0.18078566 -0.5653343 -1.1319923 -0.07951415
energie 0.45888355 0.23302439 0.9495867 -0.49339113 0.3875932 -0.27616838 -0.84317666 0.27038953 0.8546297 -0.63422614 0.27718514 0.09823412 0.3234552 -1.0632689 0.24895455
grand 0.58416694 0.3264261 0.9109574 -0.36086106 0.31177476 -0.6614648 -0.91676867 -0.117343456 -0.03229168 -1.1126367 -0.11113983 0.117362805 0.45578778 -0.07118589 -0.32312915
limiter 0.45390508 0.6268491 0.79323244 -0.15633531 0.3018752 -0.9860783 -0.8220997 -0.5367183 0.0623713 -0.6891706 -0.286204 0.08772666 -0.30601785 -0.5483572 -0.24186756
favoriser 0.38025922 0.41096663 0.7590951 -0.3583212 0.36116663 -0.89432395 -0.8058553 -0.48601025 0.27360767 -0.552923 -0.15670264 0.18860269 -0.20162085 -0.6691105 -0.27818722
creer 0.14560059 0.08826776 0.8069152 -0.6159326 0.68018216 -0.54137003 -0.74980414 -0.009361726 0.42430073 -0.73297656 -0.13993078 -0.08821501 0.1536708 -0.41768757 0.0150246825
reduire 0.3536898 0.70925325 0.70757675 -0.13094419 0.43036985 -0.92543435 -0.7707593 -0.29843086 0.092802644 -0.78979236 -0.19050917 -0.015261586 -0.27515078 -0.63810265 -0.13916077
local 0.6401781 0.24255529 0.7407165 -0.024343936 0.22911131 -1.3202013 -0.63289946 0.1407242 0.09689932 -0.92396444 0.59506303 -0.1979563 -0.81420654 -1.1900853 -0.57644016
environnement 0.08971046 0.37996593 0.5608295 -0.54535025 1.0207822 -0.6500589 -0.5615714 0.49313453 0.20823412 -0.79308325 0.1425088 -0.43078434 -0.1684182 -0.80913407 0.34563133
voiture 0.44398212 0.4304801 1.157431 -0.41585374 0.9155999 -0.6502512 -1.1177541 -0.6005192 0.2648238 -0.017924197 -0.24770674 0.22096895 0.005263597 -0.30146044 -0.085297465
utiliser 0.34441006 0.35094962 0.77009153 -0.58095396 0.028943727 -0.63158864 -0.88545793 -0.55943924 0.2597609 -0.87741876 -0.35420772 0.224447 -0.12288974 -0.5904189 -0.62030846
non 0.22238454 0.62635463 0.66233575 -0.35004637 -0.18310446 -0.5849745 -0.9110241 -0.31566083 0.20435406 -1.2637594 -0.24151556 -0.1396962 -0.33317763 -0.9438922 -0.35318238
transport 0.23204403 0.46615878 1.07122 -0.3473104 0.90653557 -0.8623725 -0.9598547 -0.4907578 0.32684284 -0.018674033 -0.23334189 0.11292675 -0.24362256 -0.47201592 0.0067201257
taxer 0.36138755 0.6592351 0.6592666 -0.15433939 0.32970384 -0.7960088 -0.66478246 -0.2201826 0.18534179 -0.96899074 -0.247032 -0.1571219 -0.38893518 -0.76221335 -0.31407997
place 0.3686063 -0.19156381 0.70018816 -1.1054375 0.82799536 -0.39777094 -0.30345768 -0.75741696 0.34590423 -1.4725105 -0.9370493 0.3169592 -0.032629676 -0.20505981 -0.75129515
bouteille 0.3674496 0.42901263 0.83452284 -1.4836868 -0.36260074 -1.0197086 -0.7973041 -1.2125236 0.17125489 -2.3764772 -1.0035434 0.5785388 -0.6464972 -0.65044063 -1.3213612
obliger 0.30300185 0.4451561 0.669764 -0.50482774 0.18692374 -0.6414842 -0.77979034 0.003493369 0.01574957 -1.216123 -0.2893327 -0.036571797 0.1908463 -0.4048555 -0.30866596
supprimer 0.2996718 0.60303336 0.6557936 -0.562169 -0.23455897 -0.82676417 -0.7969328 -0.5191758 0.08035927 -1.4341573 -0.39856985 0.21696748 -0.24482293 -0.5705682 -0.6897737
consommer 0.8332021 0.33330336 0.7598896 -0.05503681 0.3018126 -1.0855097 -0.5793426 0.19183888 0.2328957 -0.71628356 0.5739365 -0.18479547 -0.59194666 -1.2258024 -0.3447967
public 0.14179875 0.1093913 1.1483133 -0.9198697 0.7189035 -0.6846991 -0.90323263 0.24558535 0.39527315 -0.5485348 -0.013533702 -0.007953057 0.62255687 0.033075515 0.46450007
vehicule 0.20475312 0.58856136 1.1212296 -0.32702932 0.7116432 -0.3889027 -1.2821479 -0.43908906 0.3500757 -0.19747382 -0.129469 0.1479573 0.15924607 -0.5686034 -0.024578622
bio 0.58089983 0.41492435 0.71471834 -0.17901343 0.047808398 -1.0733045 -0.605158 -0.045441147 0.093042105 -0.96292204 0.38050306 -0.13754612 -0.7429664 -1.2418714 -0.55018145
arbre -0.22509764 -1.055924 0.70750856 -0.37727422 1.213122 -1.1642288 -0.9445887 -0.17920567 0.36627972 -0.6803053 -0.43059132 -0.58034545 0.18746975 -0.5038526 0.64527917
acheter 0.58832544 0.431582 0.69985443 -0.2977035 -0.14010683 -1.2080741 -0.6339251 -0.3509721 0.090042815 -1.1633748 0.15582933 -0.03400053 -0.7684046 -0.982632 -1.0273792
proposer 0.35203266 0.41812322 0.6937982 -0.43227023 0.19679432 -0.6562504 -0.7654513 -0.1267838 0.09724972 -1.0914824 -0.1354794 -0.0039854045 -0.18275756 -0.6315675 -0.48041674
verre 0.21273303 0.55997586 0.6967262 -1.4047302 -0.2568684 -0.99397796 -0.8831994 -1.0841956 0.09965199 -2.3834739 -0.9704708 0.5985336 -0.5127417 -0.6134783 -1.3434236
imposer 0.21188124 0.38211623 0.7299028 -0.5695935 0.38659555 -0.5456085 -0.7536674 -0.08692332 0.2804948 -0.99503964 -0.23836896 -0.013614562 0.1463151 -0.42589432 -0.1057717
carbone 6.0308703e-06 1.2628995 0.4858538 -0.48015335 1.2450536 -0.38765672 -0.79565763 0.39798552 0.19717593 -0.82769436 0.029617261 -0.34976757 -0.29682553 -0.576775 -0.006279736
transport_commun 0.25909147 0.34710577 1.1588957 -0.64112955 1.2032024 -0.7360931 -1.0907286 -0.5949855 0.40724036 0.21179429 -0.11666963 0.3716086 0.12493352 -0.24648897 -0.050592232
production 0.5087864 0.5241345 0.666002 -0.17104077 0.19852729 -0.7884838 -0.82090306 -0.24732195 0.15157309 -0.758821 0.046626747 -0.035550494 -0.45022312 -1.0747423 -0.29009658
être 0.2845697 0.38213482 0.80450106 -0.5664169 0.46377575 -0.57558286 -0.7699139 -0.024341738 0.266365 -0.85998213 -0.04476635 -0.008662418 0.049143784 -0.36380756 -0.070268966
inciter 0.41128403 0.3558768 0.749004 -0.37412345 0.5329967 -0.70277 -0.63081694 -0.012575331 0.2085508 -0.89095664 0.020815864 -0.108156174 -0.07494312 -0.6164838 -0.17072135
industriel 0.36343485 0.35581908 0.7458715 -0.45597845 -0.022824278 -0.46871018 -0.6680301 -0.059455507 0.26251885 -1.3646876 -0.18259344 -0.19544563 -0.028416405 -0.6918912 -0.28076863
prendre 0.45298678 0.33165884 0.96541035 -0.35291582 0.7845556 -0.8846527 -0.86660224 -0.11085142 0.15202577 -0.19211586 -0.11345253 -0.07247679 -0.04490137 -0.5150025 0.11178366
animal 0.27462155 0.19971956 0.6690321 -0.41438836 0.47064266 -0.745681 -0.636026 -0.09166332 0.18123052 -0.7193354 0.07402193 -0.12473115 -0.3510579 -0.85493886 0.15408613
taxe 0.17576772 0.84435576 0.8995432 -0.36619255 0.5204907 -0.42017445 -0.5812493 0.18849081 0.3034798 -0.9661208 -0.2188179 -0.13808678 -0.09137247 -0.75329113 -0.10381057
utilisation 0.294801 0.45107374 0.7767745 -0.58014005 -0.03708711 -0.6087921 -1.0268333 -0.7107602 0.1073516 -0.8208296 -0.39697745 0.11805209 -0.31286877 -0.66493934 -0.39017174
produire 0.3032764 0.36888888 0.6764227 -0.36517558 0.15185057 -0.6606553 -0.7760502 -0.104284436 0.28931284 -0.96379334 -0.00556049 0.048154954 -0.23755036 -0.8790754 -0.37774172
impact 0.13814151 0.6918144 1.0057912 -0.23381443 0.9331594 -0.5257037 -0.7385781 0.52049816 0.17962064 -0.6075443 0.031664237 -0.548244 -0.33940554 -0.7910389 0.2161321
agriculture 0.16275193 0.06820425 0.6440381 -0.45389155 0.52890265 -0.81951404 -0.7047966 0.02508731 0.16882885 -0.54643327 0.3535426 -0.047489446 -0.29248625 -1.2215148 -0.08885641
pollution 0.3570739 0.39661032 0.756051 -0.4637569 0.6468041 -0.7036644 -0.7719115 0.026618276 0.25380796 -0.599167 -0.017182644 -0.06855571 -0.0010698326 -0.6416321 0.17366418
pouvoir 0.23107706 0.21873619 0.7141729 -0.5747319 0.4751051 -0.70539826 -0.7297916 0.047368355 0.20122245 -0.81991756 -0.055344913 -0.07018042 -0.037507564 -0.5067027 -0.204459
polluant 0.19740553 0.7674431 0.8815194 -0.24190977 0.35397056 -0.6086276 -0.9300064 -0.29243392 0.18064497 -0.6768765 -0.27767515 -0.055222146 -0.1454998 -0.7641066 -0.17008583
petit 0.46877736 0.15079539 0.90249854 -0.4217834 0.5474049 -0.9029586 -0.81873196 -0.22881904 0.120570794 -0.43557552 0.06411547 0.19169568 -0.11726342 -0.526065 -0.074476466
enfant 0.3256466 0.17895518 0.6754461 -0.6911639 0.97121596 -0.67281216 -0.36709228 0.48015162 0.16653877 -0.8038808 0.3563818 -0.46075705 -0.21660021 -0.8081572 0.5340661
environnemental 0.14735731 0.6674891 0.66365415 -0.5076332 1.0237453 -0.6180178 -0.7066846 0.49386775 0.10007453 -0.5917509 0.039071057 -0.49880308 -0.19179776 -0.79400396 0.25130337
eviter 0.40219626 0.30603778 0.6850798 -0.43422955 0.26722133 -0.868819 -0.70081985 -0.49309927 0.18410103 -0.89688855 -0.28744358 -0.005444704 -0.248936 -0.5899383 -0.3818357
velo 0.51878655 0.18842934 1.1847674 -0.5403253 1.2100388 -0.8290032 -1.0350018 -0.55763435 0.42287338 0.20013525 -0.26082745 0.31136844 0.24213502 -0.32062706 0.074061625
ecologiqu 0.17097184 0.6320573 0.7052058 -0.5074643 0.83985823 -0.42387918 -0.6989792 0.24886513 0.37624004 -0.7715964 0.08807117 -0.3406611 -0.055783812 -0.7253484 0.07387042
jeter 0.1499466 0.09208732 0.67081076 -0.683318 0.25003046 -0.6682306 -0.7247217 -0.32509547 0.05523144 -1.4002062 -0.21384145 -0.055436835 -0.19110778 -0.2706682 -0.33486578
tri -0.15791509 0.14177114 0.7054532 -0.8018027 0.50610495 -0.5389582 -0.6399499 -0.16550313 0.10317542 -1.4900036 -0.37359318 -0.2063053 0.043752458 -0.15707035 -0.24142164
usage 0.32208803 0.7211558 0.63495463 -0.5968769 -0.25397798 -0.5983626 -0.97242707 -0.7860905 0.03686573 -1.4217937 -0.6746188 -0.03510058 -0.55746466 -0.8224953 -0.41675735
diminuer 0.23862873 0.66037595 0.7840721 -0.21044643 0.57453424 -0.89857614 -0.74128973 -0.24068774 0.17643677 -0.6701773 -0.13623676 -0.011896222 -0.22957404 -0.64512223 0.021367174
consigne 0.28976765 0.5061892 0.8081909 -1.4407502 -0.012601988 -0.91931707 -0.59506565 -0.98849654 0.20513612 -2.315189 -0.94303364 0.5018969 -0.5313488 -0.35880628 -1.2493975
zone 0.23336573 -0.16846007 0.93623614 -0.620085 0.8613655 -0.71296185 -0.98719835 -0.1437253 0.53732467 -0.3410951 0.042961594 -0.1307971 0.2972236 -0.27081296 0.38061586
recyclage 0.15800561 0.29491335 0.72218794 -0.67324084 0.31133407 -0.5561571 -0.6974252 -0.31009072 0.15477107 -1.1346382 -0.3350374 0.029114675 -0.11206998 -0.45846665 -0.45664215
nature 0.1417015 0.07819734 0.6419389 -0.5910823 0.72737134 -0.73152655 -0.579978 0.06548741 0.2234552 -0.82033587 0.001888649 -0.21130253 -0.090344734 -0.58974636 0.16815932
ecole 0.2295834 0.025195885 0.84290576 -0.7049664 1.0695801 -0.55503 -0.5907542 0.37079367 0.19594066 -0.7010789 0.24194355 -0.2096842 0.018531822 -0.62300175 0.4989796
alimentaire 0.27896047 0.56132364 0.6134384 -0.23889452 -0.0067090434 -0.87809944 -0.630173 -0.33264643 0.079783894 -1.3891287 -0.16569363 -0.22943693 -0.6029008 -0.82526016 -0.4501747
citoyen 0.22313923 0.25032577 0.65357107 -0.6050687 0.7274424 -0.60398734 -0.60790485 0.31240305 0.22332081 -0.8655077 0.022948561 -0.28726625 -0.039952915 -0.60470957 0.051523276
france 0.24126351 0.17160532 0.76562154 -0.47646648 0.5694298 -0.8223031 -0.6012552 -0.17410794 0.27103364 -0.6729879 -0.14433983 -0.09599124 -0.13175632 -0.5819806 -0.15126476
agriculteur 0.24239665 0.12958163 0.75358486 -0.40556213 0.5613847 -0.81253135 -0.5887437 0.20649947 0.13923481 -0.6701639 0.30591968 -0.12082115 -0.17415357 -1.0333146 -0.0039816704
remplacer 0.24334638 0.5191421 0.6462808 -0.73313403 -0.10036868 -0.76390225 -0.81260854 -0.5280204 0.108335525 -1.3815236 -0.5053399 0.23212595 -0.27104336 -0.49902245 -0.7621251
encourager 0.34151354 0.28018436 0.76457936 -0.47059104 0.45753536 -0.7626788 -0.76341057 -0.1516698 0.24805343 -0.620164 -0.04851151 0.0042807334 -0.17704725 -0.6950209 -0.20782591
terre 0.31977388 0.06601004 0.66143095 -0.6100174 0.5293743 -0.6823002 -0.7808044 -0.06385159 0.26156244 -0.89759284 -0.023966277 -0.19477518 -0.07906315 -0.52810204 0.09876192
exemple 0.24801138 0.34006098 0.6940761 -0.5237517 0.3546532 -0.728584 -0.77081627 -0.16085638 0.18973355 -0.83368033 -0.23668201 -0.021168279 -0.15216076 -0.5617813 -0.23256524
prix 0.30216235 0.6277643 0.8251838 -0.3194956 0.5557948 -0.87231 -0.71979326 -0.15944023 0.24545637 -0.5403782 -0.029977243 0.04892192 -0.2575932 -0.5823474 -0.18725939
lieu 0.27834544 0.14550117 0.8023484 -0.67144406 0.576421 -0.7426924 -0.83010167 -0.127312 0.24042232 -0.6821165 -0.0773102 -9.860656e-05 0.10933776 -0.34742984 -0.121965885
viande 0.6314594 0.47022262 0.58743924 -0.11728209 0.21117263 -1.1707753 -0.52643144 -0.2339433 0.11726956 -1.029217 0.29469362 -0.19836591 -0.91856825 -1.0800941 -0.33916745
privilegier 0.60150766 0.30280045 0.7570004 -0.40067843 0.14695713 -1.0709572 -0.628222 -0.37870732 0.1926714 -0.76129013 0.054887287 0.18819407 -0.48674598 -0.7079812 -0.5387177
permettre 0.29349324 0.23021701 0.7546641 -0.6017477 0.6743462 -0.70822823 -0.7420331 -0.09321498 0.26474047 -0.60090214 -0.06495403 -0.021031694 -0.054502033 -0.53234327 -0.03635123
nouveau 0.35741627 -0.19760495 0.8104575 -0.9290081 0.4878328 -0.35517126 -1.021759 -0.11502333 0.48117357 -0.65437704 -0.06171411 -0.015950674 0.3934514 -0.56509346 0.30384627
avion 0.56753457 0.6868652 0.9028519 -0.29786682 0.8393647 -0.8461016 -0.8608514 -0.24603271 0.25256234 -0.23497538 -0.1130625 -0.080394424 -0.24663906 -0.52071446 0.024575243
vente 0.32827565 0.548192 0.66976494 -0.37641665 0.0048742113 -0.79366565 -0.85771465 -0.376064 0.04821494 -1.1396898 -0.26049146 0.0648297 -0.39514834 -0.630845 -0.55935895
donner 0.2759522 0.2635083 0.72913814 -0.58768374 0.43197078 -0.7832648 -0.61812127 -0.028451186 0.13557038 -0.866464 -0.1058049 -0.05668762 -0.2396155 -0.49784014 -0.19707431
legume 1.4432744 0.3543667 1.0202278 -0.007027626 -0.1721031 -1.6243806 -0.6832655 0.03923684 0.08582077 -1.3644098 0.5121688 -0.20795041 -0.835044 -0.73351 -1.2917984
electrique 0.3314632 0.44984022 1.1755521 -0.5101749 0.67859554 -0.61912775 -1.1747646 -0.36373436 0.37668714 0.034915626 -0.030090649 0.19402051 0.23335333 -0.66357434 -0.055748604
solution 0.25586084 0.3353607 0.69973445 -0.5489361 0.4590638 -0.49203813 -0.76789176 -0.20845884 0.20267808 -0.8516354 -0.20076065 -0.05479663 -0.11356301 -0.6845981 -0.3796239
bien 0.23055638 0.30919492 0.6742383 -0.38605 0.52010566 -0.81700283 -0.6824573 -0.05974396 0.24436198 -0.82062835 -0.042490773 -0.13878943 -0.21877128 -0.6664424 -0.04837289
panneau 0.66793776 -0.15313119 1.2147797 -1.2917691 0.104072295 -0.1592824 -0.8891397 0.17437206 0.6437805 -1.0717139 -0.09338467 0.29875353 1.1655844 -0.35719937 0.4210458
systeme 0.15576608 0.13584395 0.71464896 -1.0171983 0.25487968 -0.5096969 -0.6065414 -0.5366278 0.24436745 -1.3492862 -0.6058201 0.4161556 0.06471303 -0.28265116 -0.5519856
solaire 0.6305316 0.022849875 0.9698136 -0.87974554 0.7546556 -0.2407954 -0.8258196 0.15154347 1.0097414 -1.0864165 0.20044488 0.4809859 1.117566 -0.3720313 0.22831547
responsable 0.38858533 0.39712256 0.7006907 -0.39434722 0.4297242 -0.82831085 -0.55003166 0.21107015 0.17809269 -0.86049277 0.26911378 -0.25519416 -0.29780573 -0.869228 0.010542349
travail 0.44740245 0.23881048 0.8874809 -0.6023469 0.76339275 -0.8100326 -0.8533054 -0.22768112 0.30497283 -0.34949484 -0.09722254 0.06154499 0.06357998 -0.43880433 0.11036624
changer 0.39453134 0.40667117 0.7420859 -0.45457584 0.5551774 -0.81059825 -0.5669589 0.0135286525 0.0926632 -0.70613605 0.016607052 -0.24240156 -0.32082805 -0.7038119 0.013086958
an 0.24465767 0.19797064 0.777901 -0.558256 0.6462734 -0.7860079 -0.71280533 -0.082495436 0.2804981 -0.58139336 -0.1048913 -0.109756485 -0.09743647 -0.56100404 0.10757907
vrac 0.40603188 0.5734412 0.6395951 -0.3632457 -0.14062856 -1.0826685 -0.78229934 -0.440179 -0.04699323 -1.5032563 -0.13191228 0.083807476 -0.6697425 -0.6733431 -0.90468544
vert 0.17825459 0.0029706561 0.9373005 -0.56461346 0.92721415 -0.59385824 -0.7887821 -0.010014616 0.38983706 -0.6356143 -0.19448593 -0.0034512852 0.25562856 -0.34392005 0.051122747
pays 0.24324237 0.2635434 0.6891777 -0.45351225 0.6100228 -0.6986211 -0.72435975 -0.074147716 0.26907438 -0.64722997 -0.07579326 -0.110965304 -0.11496596 -0.6261397 -0.051421113
vie 0.20906553 0.3424249 0.8116237 -0.5475222 0.64955944 -0.86836016 -0.66212964 -0.048423104 0.15624776 -0.5591999 -0.022172982 -0.08209272 -0.18245117 -0.6113023 0.17948121
planete 0.2873729 0.21355875 0.6846891 -0.52926064 0.72070736 -0.7436513 -0.5982073 0.11266711 0.2684752 -0.71264213 0.07944266 -0.231353 -0.06761251 -0.6885433 0.27517176
fruit 1.1623963 0.38947064 0.7314209 -0.32687163 0.04746347 -1.3055428 -0.6968049 -0.14034624 0.18692099 -1.278263 0.3589164 0.1220732 -1.3784009 -1.05488 -1.208161
politique 0.3143966 0.2133944 0.7884101 -0.49212667 0.65123296 -0.6570937 -0.66246533 0.032134824 0.20043547 -0.6660298 -0.0732821 -0.17973183 0.014219317 -0.5697984 0.10850106
recyclable 0.16183554 0.7257042 0.711524 -0.5126362 -0.3473826 -0.6282238 -0.9606917 -0.4346519 0.035960697 -1.7391768 -0.39067945 -0.03534695 -0.46164876 -0.8525096 -0.6114532
magasin 0.26299852 0.26437196 0.701301 -0.5608021 -0.052761022 -0.83317065 -0.7594571 -0.022102669 0.07516859 -1.2999934 -0.18739179 0.1326457 -0.03759318 -0.2979911 -0.48596972
biodiversite 0.19143735 0.021089418 0.70779127 -0.6075676 0.77386004 -0.7340753 -0.7532427 0.093388185 0.3244366 -0.48853737 0.04268972 -0.11411933 -0.024246981 -0.61405015 0.27120003
construction 0.31270066 -0.15108256 1.0068868 -0.8393171 0.46104464 -0.43905956 -1.0849037 -0.11476773 0.49222195 -0.5545348 -0.17027736 -0.05932384 0.47739226 -0.41769344 0.27496088
train 0.3801847 0.3456045 1.0650429 -0.5118382 1.0598977 -0.92449296 -0.88759637 -0.41305 0.21754478 -0.04017357 -0.24730483 0.16864914 0.03249576 -0.28086045 0.029755214
planter -0.10775831 -0.41232583 1.2178743 -0.94859594 1.2901267 -0.9786943 -0.4326898 -0.14889708 0.3816151 -0.3769521 -0.47792438 0.050111737 0.6040758 -0.6120061 0.6253034
revenir 0.27828565 0.3242316 0.57426935 -0.7801254 -0.1570617 -0.92939657 -0.6332058 -0.61281776 0.16692899 -1.3953624 -0.32249427 0.30913603 -0.5012139 -0.6917966 -0.72239727
co_deux 0.111571275 0.45832568 0.79072875 -0.4051501 0.7709396 -0.6909367 -0.85035324 -0.011795325 0.40553167 -0.48603776 -0.038432878 -0.0954353 -0.010046306 -0.60597974 0.19264746
papier 0.3106409 0.38975573 0.70305467 -0.6163444 -0.14671704 -0.83537817 -0.7417867 -0.47681248 0.040738598 -1.5615709 -0.34803852 0.062174626 -0.38140625 -0.40124646 -0.68960434
recycler 0.24223106 0.42107865 0.5857686 -0.62656623 0.004207295 -0.6613424 -0.6775357 -0.4217395 0.1287439 -1.3524103 -0.4307075 0.033444274 -0.31764454 -0.56415087 -0.5792644
poubelle 0.087400466 0.21035312 0.6814938 -0.8072952 0.41015366 -0.5518735 -0.6113652 -0.34365144 0.120148644 -1.4700513 -0.40325946 -0.037878875 -0.122916214 -0.15706046 -0.44993445
nuit 0.10232749 0.20295721 1.0438106 -0.74867 0.601804 -0.848668 -1.0468993 0.24438736 0.29368982 -0.5435426 -0.06579892 0.11372963 0.5330531 0.020289278 0.38593507
pesticide 0.25299454 0.2708974 0.666776 -0.45234329 0.15845816 -0.70522666 -0.7365728 -0.23952588 0.22729023 -0.95918083 -0.10220876 -0.061407916 -0.32621276 -0.738022 -0.21799518
remettre 0.16199522 0.41892704 0.7701847 -1.0539436 0.1725074 -0.67951167 -0.5463913 -0.7139059 0.15644842 -1.6219826 -0.719181 0.46231306 -0.29282597 -0.25534335 -0.76393366
surface 0.6741834 0.047465228 0.8271152 -0.483692 0.22349209 -0.8454442 -0.74581814 0.050356537 0.19496952 -1.1358256 -0.16138117 0.094174266 0.099679105 -0.15012813 -0.29936716
sensibiliser 0.22422831 0.28316492 0.7289162 -0.55556613 0.9467038 -0.7614821 -0.58141834 0.3747877 0.26374978 -0.66104454 0.25961596 -0.2466027 -0.08712626 -0.7533458 0.39477727
aider 0.23727867 0.13297173 0.76904 -0.47574052 0.6570584 -0.7455407 -0.6642853 0.15821256 0.29138014 -0.6586304 0.17853713 -0.114934705 -0.021896357 -0.79316264 0.06229287
espace 0.10785313 -0.20771696 0.87750643 -0.687024 0.8006196 -0.72941744 -0.8548875 0.0093797995 0.42903516 -0.59595376 -0.08318522 -0.14974748 0.24524523 -0.31736204 0.13841024
deplacement 0.40295714 0.3823812 0.88912624 -0.48256263 0.8505373 -0.8244896 -0.9308635 -0.42326847 0.28296226 -0.21618304 -0.16833457 0.037604872 -0.0887933 -0.4949547 0.07218739
obligatoire 0.23591933 0.23089536 0.78591865 -0.71546143 0.6347187 -0.53232235 -0.7259056 -0.11669122 0.26143706 -0.8318504 -0.1965379 0.014342976 0.1140657 -0.36842826 -0.006379024
service 0.20931357 0.31407338 0.78310704 -0.5686788 0.6237575 -0.66403747 -0.6898986 0.032022737 0.1771343 -0.7912096 -0.18712229 0.012963978 -0.00055628794 -0.47138718 -0.109440215
moyen 0.30895406 0.29531083 0.9186134 -0.48234594 0.72236395 -0.7341639 -0.7671401 -0.17064819 0.27507296 -0.48632303 -0.15711853 -0.08192551 -0.075895794 -0.5156342 -0.027583912
batiment 0.3074423 0.011450548 0.88625246 -0.788157 0.6335926 -0.51199645 -0.99203575 0.17477186 0.44765714 -0.7508939 -0.07149905 0.07525494 0.7209994 -0.26799303 0.3103408
propre 0.28557462 0.3122827 0.76714057 -0.58416086 0.4226542 -0.57005453 -0.8620531 -0.16230188 0.35782808 -0.68119097 -0.10071347 0.11339865 0.09342881 -0.6825647 -0.21697277
installer 0.27833816 -0.0468246 0.84815145 -0.85059196 0.53559285 -0.532543 -0.7825667 -0.15954755 0.48007414 -0.81490535 -0.09202951 0.15485777 0.4641284 -0.30997425 -0.017155658
vendre 0.48619422 0.43720096 0.64117676 -0.30331138 0.02583936 -0.9475262 -0.6458517 -0.1561446 0.12831575 -1.1615608 0.021173002 -0.09759913 -0.6028038 -0.75145173 -0.67376876
monde 0.23299813 0.13741529 0.70968616 -0.5078442 0.68298626 -0.7637606 -0.62975174 0.09288921 0.26576337 -0.6770123 0.050035626 -0.16688246 -0.051739886 -0.6059721 0.07047225
contre 0.54892236 -0.06173619 0.5868424 -0.34274414 0.5618031 -0.65844214 -0.7128732 0.06275391 0.45275897 -0.78933257 0.00789386 -0.22939186 -0.2377362 -0.8824737 -0.009633075
nucleaire 0.3178327 0.12873398 0.73073125 -0.48574 0.55911916 -0.57964826 -0.90122586 0.09068782 0.4495399 -0.603847 0.02956112 0.03873472 0.10882814 -0.6615316 0.15869658
heure 0.29003957 0.18662466 1.0013665 -0.65626657 0.7753796 -0.87090737 -0.862621 0.15584327 0.33588457 -0.3535717 -0.06939659 0.123698704 0.26598066 -0.20531282 0.38307315
particulier 0.18267262 0.20582777 0.8374083 -0.5886346 0.66854393 -0.5932184 -0.7714041 -0.06618009 0.26709992 -0.8033457 -0.18125267 -0.07512306 0.13483097 -0.41753873 -0.058242116
transition 0.1309751 0.3391131 0.86591375 -0.35689384 0.93927836 -0.5787527 -0.6928757 0.25343755 0.26768288 -0.68665284 0.03752555 -0.15047568 0.08730802 -0.8026581 0.06652174
mieux 0.33656907 0.21136016 0.73247725 -0.48701078 0.57729924 -0.762425 -0.64049685 0.114952564 0.26800728 -0.680463 0.12655865 -0.117076956 -0.13129497 -0.6991903 0.0138117755
action 0.27637985 0.2362682 0.7101336 -0.5537523 0.9057138 -0.5915896 -0.68645686 0.32292363 0.21415919 -0.7106452 -0.005219347 -0.20956616 0.019020239 -0.6673783 0.123871386
achat 0.4252344 0.48607346 0.6942751 -0.37221685 0.30226055 -0.86572176 -0.6666259 -0.11613581 0.14086282 -0.7808422 -0.03629002 -0.017263524 -0.4516983 -0.7500422 -0.3501986
etat 0.22839424 0.22973987 0.7396986 -0.56032366 0.5919312 -0.5977249 -0.71024 0.11140486 0.26896793 -0.77798855 -0.06931913 -0.04822529 0.0986473 -0.6171214 0.0006751198
naturel 0.26003566 0.17522798 0.71177435 -0.50475514 0.44531998 -0.7160696 -0.7514473 -0.1058968 0.29947522 -0.7244146 -0.03570693 -0.089233644 -0.06584346 -0.56925565 -0.024227455
sac 0.5305434 0.480503 0.7271508 -0.6543646 -0.27747485 -0.9041506 -0.7070816 -0.49755463 0.02114885 -1.6165832 -0.3870609 0.20465085 -0.4896079 -0.55376595 -0.969654
jeune 0.29244727 0.071494274 0.8106247 -0.6552868 1.1231698 -0.6356121 -0.49308538 0.50862175 0.25428513 -0.70957255 0.23953873 -0.26468942 -0.056546178 -0.74358666 0.4873751
elevage 0.37824485 0.32087892 0.70157164 -0.35367435 0.35791332 -0.82868606 -0.7441668 -0.043016985 0.14323986 -0.70847785 0.0666301 -0.027757315 -0.16651273 -0.8873911 0.097478606
augmenter 0.23202282 0.5195599 0.75277966 -0.4525359 0.5867184 -0.71391755 -0.7063827 -0.033371173 0.24594796 -0.7465448 -0.10158399 -0.071785755 -0.15422387 -0.54979074 -0.18204969
saison 1.122564 0.38151574 0.8340096 -0.1387605 0.12667933 -1.4045966 -0.6617757 0.040608224 0.0953689 -1.0111816 0.59881175 -0.096557975 -1.046297 -1.0980756 -0.88523537
programme 0.43655193 -0.03519994 0.7001793 -0.59632593 0.72125894 -0.60410583 -0.6192072 0.23530005 0.37564647 -0.68282765 0.24090998 -0.28738448 -0.18142952 -0.91348284 0.26144138
instaurer 0.110868745 0.44479692 0.7077324 -0.61416304 0.6966242 -0.5673027 -0.7214052 -0.09539115 0.32126582 -0.7541359 -0.09973071 0.009542363 -0.04558249 -0.4294121 -0.098649405
aide 0.318442 0.19367851 0.7691467 -0.5114052 0.60588676 -0.727909 -0.7481799 0.11024647 0.23954244 -0.6789124 0.10995235 -0.11726494 -0.03570392 -0.69443595 0.0002617242
durable 0.35646316 0.35257298 0.7323476 -0.40729293 0.2841469 -0.6978428 -0.6284333 -0.008297593 0.2571529 -0.92356074 -0.03121181 -0.11544396 -0.3163988 -0.8452026 -0.16502135
electricite 0.35878208 0.20611003 0.8499538 -0.5171776 0.45245245 -0.706125 -0.8152947 0.003493218 0.44207555 -0.6070258 0.034903746 0.0464492 0.060544066 -0.6390336 -0.07558823
publicite 0.26795712 0.3630012 0.7464165 -0.44120896 0.23463137 -0.69754416 -0.7686153 -0.14396608 0.1464613 -0.8876927 -0.13566324 -0.062110744 -0.17131017 -0.5095203 -0.14373803
cesser 0.2874869 0.18639165 0.7575919 -0.5082309 0.43046167 -0.7525479 -0.6721337 -0.043596223 0.28269267 -0.75378615 -0.019674007 -0.10197748 -0.11179492 -0.57989675 -0.10398364
commune 0.22542916 0.012158422 0.8117627 -0.661653 0.6230306 -0.6964506 -0.70149213 -0.0059307627 0.26914924 -0.8062721 -0.13391554 -0.031141607 0.061870225 -0.41847184 -0.073763326
route 0.21493505 -0.107195236 0.81901604 -0.73727274 0.6555503 -0.7300415 -0.75110394 -0.39150834 0.32418984 -0.6635058 -0.33502674 0.040554106 0.088207066 -0.31996974 0.11326518
trop 0.25900814 0.25113603 0.79482335 -0.49003 0.41726303 -0.6263468 -0.7063812 -0.16394424 0.2585588 -0.78946453 -0.027842607 -0.014050882 -0.1224001 -0.6903901 -0.09644018
court 0.34198028 0.263963 0.8039345 -0.46803343 0.2774692 -1.1223232 -0.59739304 -0.32997692 0.17182282 -0.45105314 0.14833088 0.13482352 -0.52420735 -1.0420126 -0.33271852
personne 0.27788213 0.20726317 0.8098538 -0.6004604 0.64742386 -0.648286 -0.67112607 -0.0655205 0.1838828 -0.76879203 -0.12688725 -0.035279766 -0.05120044 -0.44850603 -0.05615134
population 0.34740144 0.22827804 0.7238015 -0.4809855 0.7359711 -0.7097593 -0.69752795 0.036608122 0.28490674 -0.67967254 0.04456514 -0.0858308 -0.073705666 -0.60202146 0.20649359
urbain 0.21845506 -0.060363904 0.86278707 -0.62637925 0.85316074 -0.73253244 -0.8110889 -0.10312902 0.4555583 -0.48837999 -0.008091618 -0.014314731 0.19816628 -0.39972377 0.26698303
promouvoir 0.28063792 0.26595032 0.75274783 -0.5075649 0.5938285 -0.7549528 -0.809543 -0.16811477 0.27664527 -0.5002883 -0.02077438 0.026532408 -0.14788367 -0.660808 -0.039283324
bon 0.3770454 0.3094082 0.71602786 -0.55256957 0.55122507 -0.74014634 -0.6013939 0.020502333 0.18704459 -0.77158153 -0.016675735 -0.12758583 -0.2060083 -0.6693756 -0.07113119
mode 0.29615885 0.37518194 0.81979465 -0.2954504 0.66585463 -0.9067521 -0.7370647 -0.11669028 0.17283967 -0.47574377 -0.0731544 -0.16881976 -0.25807673 -0.6633175 0.08961303
ecologie 0.28717038 0.21265525 0.76696044 -0.5999895 0.7539896 -0.6186509 -0.60154134 0.22627874 0.3001064 -0.7181841 0.057359073 -0.16609141 -0.042183604 -0.5903905 0.20998116
eclairage 0.08523396 0.049954493 0.86755556 -0.6682876 0.673066 -0.8087206 -1.1222671 0.3016236 0.26067546 -0.56531847 -0.10719718 0.0005759193 0.5214599 -0.05846478 0.29268977
circuit 0.40493497 0.03541346 0.79914105 -0.4807374 0.255571 -1.104032 -0.6755001 -0.4345581 0.22569902 -0.65505075 0.13986523 0.1612557 -0.3920254 -0.717461 -0.35877708
agricole 0.33088326 -0.0012098922 0.8150342 -0.53046626 0.6010092 -0.7760513 -0.7618616 0.048852257 0.29235548 -0.67088884 0.03982072 -0.17663509 0.019229956 -0.5683717 0.13207152
consommateur 0.32667544 0.47068137 0.7190026 -0.40200675 0.2350052 -0.75658935 -0.69267714 -0.062438734 0.16005826 -0.9881955 -0.047476728 -0.02657885 -0.29616734 -0.71228814 -0.29251152
maximum 0.35253567 0.38536388 0.70973784 -0.42567632 0.1907882 -0.77898484 -0.7587303 -0.31899598 0.19193399 -0.9294441 -0.09756017 0.037889663 -0.32736593 -0.6161707 -0.3109459
jardin 0.14785409 -0.18894453 0.86446285 -0.6978227 0.79560995 -0.7592719 -0.7697707 -0.03436251 0.3748579 -0.56211716 -0.14679681 -0.11202498 0.2308629 -0.38952762 0.21025284
construire 0.31165248 0.027611598 0.8467393 -0.6349873 0.5887558 -0.6625069 -0.84955746 -0.08980001 0.40144295 -0.519748 -0.09822621 -0.08165488 0.116687186 -0.51962465 0.103936374
proximite 0.5464417 0.24287818 0.75194377 -0.39442047 0.5455998 -0.9478682 -0.72652304 -0.13562992 0.22002256 -0.59948844 0.10762728 -0.03633286 -0.33084413 -0.57991415 -0.19993389
individuel 0.29341418 0.26406118 0.86019856 -0.5169219 0.4342474 -0.6978239 -0.8182975 -0.29087153 0.28466907 -0.70111847 -0.16303135 -0.0007377455 0.04722011 -0.5335091 -0.13382897
parking 0.3368124 0.02967578 0.994217 -0.77053535 0.83110213 -0.63245213 -0.78093857 -0.25423366 0.39322802 -0.5924211 -0.24159062 0.20173013 0.3681838 -0.14314434 0.0024601156
objet 0.1937704 0.46789393 0.70640606 -0.45414242 0.043347344 -0.684373 -0.76197743 -0.2666286 0.15144649 -1.0890563 -0.26329228 -0.10129017 -0.4372442 -0.7368546 -0.415646
centre 0.23648435 0.095501214 0.96314514 -0.63274676 0.8848527 -0.6427199 -0.9350543 -0.2169267 0.44521728 -0.5210717 -0.105964966 -0.035087172 0.39902392 -0.21805611 0.19919828
gratuit 0.30297667 0.12045203 0.94491136 -0.61883545 0.89807516 -0.72130984 -0.8580219 -0.27863756 0.31343088 -0.38061228 -0.1662581 0.18696252 0.19490834 -0.29129702 -0.06512243
chasse 0.17657499 0.1485874 0.7380753 -0.6562204 0.19904757 -0.5779976 -0.80327857 -0.24487181 0.23765041 -0.75988126 -0.14375098 -0.049615387 -0.17675814 -0.519721 -0.09013479
jour 0.30875957 0.20633076 0.70113724 -0.6661748 0.5129349 -0.64485914 -0.62575734 -0.26678225 0.19017546 -0.8309039 -0.19300807 0.06349776 -0.17898928 -0.4741434 -0.2542766
besoin 0.38419682 0.25422475 0.71952903 -0.5084417 0.28983295 -0.72465765 -0.7135486 -0.12693675 0.26366973 -0.75260484 -0.0021560446 0.030611139 -0.25020468 -0.6504704 -0.24566114
unique 0.16792068 0.660293 0.80947053 -0.6579661 -0.35242367 -0.8462228 -0.904928 -0.70022506 0.098778844 -1.5522827 -0.43891034 0.035114337 -0.6981131 -0.78357524 -0.86530155
apprendre 0.3275174 0.15553881 0.7964508 -0.51386666 0.6899661 -0.70885915 -0.60799426 0.1410211 0.20699176 -0.87414855 0.21948421 -0.21279426 -0.23964909 -0.70764774 0.12583132
polluer 0.24743283 0.27096647 0.76927423 -0.5644415 0.486258 -0.67884254 -0.7336721 -0.1280773 0.26664802 -0.68804353 -0.12281201 -0.06284025 -0.02575294 -0.56338775 -0.07478144
eduquer 0.24231245 0.2538134 0.78520495 -0.5716683 0.88850063 -0.7133421 -0.615492 0.27259 0.26248688 -0.7447709 0.19823177 -0.22442293 -0.07661361 -0.7106268 0.34147856
respecter 0.33706012 0.20869884 0.7470287 -0.45292655 0.6834059 -0.6985295 -0.65155965 0.17624457 0.20724571 -0.8140988 0.04589416 -0.254774 -0.15512758 -0.60064167 0.05083291
inutile 0.26984534 0.403869 0.67831004 -0.47623903 0.07731199 -0.7514748 -0.684179 -0.35011065 0.084097676 -1.1033683 -0.2900474 0.011152588 -0.33096707 -0.58750945 -0.3548304
pollueur 0.2710485 0.3402217 0.7010742 -0.48921648 0.57045174 -0.61483556 -0.67892945 -0.012769251 0.24162772 -0.8724024 -0.08359138 -0.09458021 -0.023495821 -0.56217664 -0.08095757
maison 0.28900078 0.029060613 0.77151424 -0.6888354 0.50318456 -0.6274358 -0.74401796 -0.11806384 0.28334633 -0.6993126 -0.041318376 -0.015991114 0.06089297 -0.53281933 0.0024473951
commerce 0.4154264 0.23402794 0.72382015 -0.5109033 0.36072063 -0.88063896 -0.763569 -0.07613208 0.17682725 -0.7305278 0.06920552 0.028550597 -0.15330221 -0.5053777 -0.16712931
eco 0.38012907 0.23531543 0.7331197 -0.5297695 0.56302726 -0.7241873 -0.63860667 0.10483455 0.20957094 -0.76577896 -0.012716008 -0.050756093 -0.09565155 -0.6881618 -0.03829838
partout 0.055803273 -0.065550916 0.8052242 -0.6138548 0.70410746 -0.79287696 -0.7213824 -0.24013242 0.2797493 -0.68042105 -0.28853765 -0.04579361 0.06338341 -0.5104516 0.1060929
stopper 0.28453332 0.27230275 0.69173896 -0.5148561 0.35508725 -0.6877895 -0.6842317 -0.14019164 0.24104364 -0.773253 -0.023836704 0.003388665 -0.18490745 -0.61553407 -0.13548711
davantage 0.25255677 0.10950243 0.7615905 -0.4813114 0.6222845 -0.65959024 -0.7244424 -0.10600966 0.30613384 -0.7251416 -0.07992537 -0.06192126 -0.017022548 -0.57250464 0.026961775
cout 0.25380936 0.42476237 0.73809785 -0.5399197 0.5042458 -0.63450015 -0.76549906 -0.05366027 0.26646617 -0.72240716 -0.07396223 -0.087661885 -0.116049215 -0.6560002 -0.06960149
foret 0.1897081 -0.049560416 0.7363216 -0.67320395 0.71998817 -0.72943664 -0.6359532 -0.031664588 0.32829598 -0.64213604 -0.13270651 -0.051356804 0.103606455 -0.44785213 0.15317455
gaspillage 0.30166245 0.33758193 0.66798806 -0.4229619 0.3584495 -0.71681046 -0.7021262 -0.29580352 0.14343907 -1.0979614 -0.12278917 -0.08237511 -0.45945948 -0.6523043 -0.2646106
matiere 0.23197259 0.3526047 0.6936238 -0.481301 0.27850094 -0.6118886 -0.6885166 -0.11035492 0.22553022 -0.9604901 -0.14154568 -0.09820656 -0.24514194 -0.69537276 -0.17677778
niveau 0.30054912 0.20706278 0.70388436 -0.509157 0.62890244 -0.68693584 -0.7360034 0.037417497 0.23200262 -0.69923073 0.020441853 -0.110739 -0.014949913 -0.7091699 0.047751136
agir 0.35049945 0.22069798 0.7094845 -0.51997924 0.59659034 -0.64604497 -0.67605364 0.13312043 0.24958766 -0.7863541 0.0033940687 -0.12696081 -0.03980988 -0.69141275 0.034051836
fonction 0.15445818 0.51067525 0.82088065 -0.40003076 0.6774669 -0.6675196 -0.8044513 -0.08441123 0.24573472 -0.66279817 -0.10245773 -0.089682914 -0.071845934 -0.613636 0.0006888498
renouvelable 0.3645809 0.22691798 0.86536175 -0.42084876 0.75591624 -0.4202169 -0.8826591 0.07775402 0.5201025 -0.6667843 0.048069097 0.17221004 0.36820212 -0.8733961 0.08021617
ecologique 0.3246102 0.24010046 0.73275346 -0.57233846 0.6224195 -0.7222794 -0.7316927 -0.02499239 0.24395141 -0.701118 -0.07406116 -0.068769746 -0.07822286 -0.56895965 0.025266174
national 0.29828548 0.25174454 0.77133405 -0.54823667 0.6881289 -0.6876399 -0.6820614 0.10839828 0.28758857 -0.67978424 -0.054647066 -0.084771834 0.02494848 -0.5551392 0.14477411
projet 0.31305256 0.13272327 0.75577897 -0.5695991 0.64708775 -0.6658608 -0.75028497 0.15535986 0.33066332 -0.66221046 -0.02083374 -0.11123785 0.035457835 -0.5758639 0.104001105
climatique 0.35232016 0.19861312 0.7945752 -0.5832822 0.84488666 -0.6543195 -0.6485343 0.16870189 0.2846968 -0.57320184 0.08288496 -0.24386877 -0.043098044 -0.6791482 0.190448
sol 0.28385425 0.09876107 0.8044302 -0.59722537 0.5209024 -0.72343177 -0.7516641 -0.08823335 0.28154698 -0.69801056 -0.047299746 -0.023208741 -0.02006823 -0.49798205 0.00655723
loi 0.22121543 0.24478619 0.6712679 -0.53990215 0.50347304 -0.62145615 -0.6382733 -0.034402754 0.25941607 -0.9091106 -0.091004804 -0.13955843 -0.065286264 -0.5699451 -0.04569151
contenant 0.31568798 0.5057153 0.64133084 -0.8308219 -0.22945024 -0.76655835 -0.6800846 -0.6442257 0.08907496 -1.7349273 -0.55840135 0.26195216 -0.5370569 -0.59288937 -0.9162226
energetiqu 0.31182304 0.3283791 0.7553125 -0.5038805 0.6499577 -0.6234233 -0.79383785 0.13255554 0.35651925 -0.69139355 0.049047668 -0.13421571 0.039748687 -0.64558893 0.062316142
toilette 0.21434492 -0.05491626 0.7543463 -0.94985396 0.18963292 -0.4996237 -0.90721864 -0.4525977 0.31565288 -0.82435524 -0.2950163 0.15404005 -0.10207895 -0.4516178 -0.4599423
eteindre 0.14744934 0.20022976 0.9205531 -0.66442686 0.6000768 -0.7228673 -0.9372043 0.21720304 0.306876 -0.66299695 0.025097221 0.078475505 0.37358502 -0.170097 0.24640352
proteger 0.23941703 0.016188586 0.7727283 -0.5794969 0.6372841 -0.71831083 -0.7525257 -0.006567365 0.3081418 -0.59885824 0.019781828 -0.1373239 -0.0012059623 -0.5619893 0.20761468
falloir 0.3103892 0.16909835 0.7006107 -0.56877995 0.37000972 -0.7352579 -0.6380709 -0.16755512 0.17189804 -0.8894907 -0.14684762 0.006471984 -0.17364511 -0.6575491 -0.21686965
passer 0.21825816 0.20646885 0.72605336 -0.56103694 0.52542424 -0.71992886 -0.71163064 0.029018352 0.25316238 -0.7269262 0.0041715265 -0.057118803 -0.09316077 -0.623606 0.006402413
moteur 0.29438934 0.26095775 0.91460675 -0.5714998 0.68885005 -0.60952127 -0.96701866 -0.18340418 0.3041163 -0.3186053 -0.09661868 0.045722295 0.13877131 -0.57970524 0.005503343
payer 0.15417272 0.35678422 0.7514839 -0.4870635 0.49831614 -0.62027526 -0.6366906 -0.088396996 0.24851014 -1.0483195 -0.04940434 -0.12973864 -0.12982567 -0.56206495 -0.13360369
sante 0.2529133 0.28059664 0.6983332 -0.47167528 0.61847633 -0.69297767 -0.6530383 0.07691699 0.2143258 -0.76119727 -0.031430617 -0.14137442 -0.17802857 -0.6857242 0.018251136
investir 0.23057963 0.23049715 0.83372617 -0.56493324 0.6294589 -0.4712846 -0.88450676 -0.015270422 0.39376745 -0.60232997 -0.011725268 -0.018885562 0.13984041 -0.6944842 0.065934114
economie 0.27917418 0.23089169 0.7612389 -0.55321425 0.56569344 -0.6283644 -0.72230834 -0.0055073216 0.2836522 -0.67590547 -0.018718299 -0.044317268 -0.09249041 -0.70422435 -0.0006136242
nombre 0.29763934 0.38123348 0.7312977 -0.47583303 0.53647316 -0.7508031 -0.71780837 -0.2757557 0.2003106 -0.6732932 -0.16397612 -0.009645726 -0.19733064 -0.5017055 -0.0060730805
social 0.21552046 0.33228552 0.8079606 -0.60358864 0.78789836 -0.63620883 -0.71434575 0.2035019 0.28897086 -0.6247183 -0.0031132123 -0.19627598 -0.11286281 -0.59702355 0.060061276
fin 0.30599463 0.20584813 0.6719733 -0.6134338 0.4313641 -0.7208188 -0.5677382 -0.14906362 0.20393373 -0.91973686 -0.1719311 0.014733752 -0.16172048 -0.5199077 -0.19659679
integrer 0.23172249 0.25379017 0.7599111 -0.58419794 0.6473829 -0.61466885 -0.7415585 0.07145619 0.30470082 -0.68454677 -0.034013223 -0.11189337 -0.02903113 -0.5715613 0.08631398
alimentation 0.29508784 0.27322018 0.68407375 -0.44360757 0.42091152 -0.8215062 -0.6763308 -0.122222796 0.22040632 -0.77600497 -0.0027134097 -0.08643868 -0.23097521 -0.7509043 -0.14699252
haie 0.09734462 -0.27738407 0.7560751 -0.6321294 0.7850938 -0.79785925 -0.7362934 -0.12076663 0.3257887 -0.62167156 -0.29445904 -0.09769311 0.0710032 -0.47471735 0.29864064
industrie 0.24736503 0.31030536 0.7216474 -0.48704213 0.34128228 -0.6365301 -0.75350296 -0.06446013 0.18758027 -0.8975834 -0.12474662 -0.097972594 -0.13510427 -0.6288848 -0.13626632
manger 0.67220277 0.28296605 0.6421212 -0.25524718 0.30942145 -1.0584869 -0.5828991 0.024336418 0.16780518 -0.8245666 0.23682754 -0.07622829 -0.5261595 -0.87044746 -0.35747695
emission 0.25126544 0.48632032 0.8129509 -0.4709167 0.7038525 -0.6872714 -0.781922 0.026424965 0.29263684 -0.6112888 -0.079265624 -0.18136905 -0.008224974 -0.6383072 0.16296299
fortement 0.26098016 0.40556616 0.7218504 -0.466633 0.44263783 -0.58957845 -0.77705216 -0.17612386 0.28740194 -0.79938984 -0.12116534 -0.048144724 -0.18897487 -0.5769798 -0.18783203
campagne 0.23113455 0.14485614 0.8917473 -0.6167008 0.8142879 -0.79482293 -0.78397185 -0.20520487 0.23981832 -0.4451851 -0.10979671 -0.00026287365 0.124997504 -0.33574265 0.030691752
chauffage 0.264187 0.17204691 0.7390194 -0.59632874 0.45464793 -0.61401546 -0.75481534 -0.11311055 0.23940025 -0.70746577 -0.10171184 -0.0059519024 0.01714968 -0.44965786 -0.05522828
rue 0.15177374 0.100406885 0.78629756 -0.7023908 0.5193392 -0.7243876 -0.7835455 -0.14626399 0.19646028 -0.8777226 -0.1582483 -0.026487334 0.10177308 -0.25613266 -0.0036924146
immeuble 0.2826435 -0.017608058 0.83410096 -0.72368467 0.6193069 -0.6308319 -0.8705364 -0.044642102 0.35288772 -0.65951973 -0.108322315 0.04856776 0.24603163 -0.34668955 0.11162053
tva 0.23914576 0.5822774 0.69926083 -0.38413534 0.4260377 -0.7485132 -0.6700322 0.006962748 0.19445801 -0.853253 0.022744704 -0.14181386 -0.40130872 -0.741075 -0.23661077
importation 0.3561314 0.42194775 0.65143657 -0.34856406 0.2784793 -0.70235646 -0.6987919 -0.14656296 0.22726856 -0.8969484 -0.0546591 -0.14597331 -0.4468511 -0.7127553 -0.22515714
camion 0.28315252 0.25643784 0.8806872 -0.47473755 0.63471735 -0.7776444 -0.69747984 -0.2223742 0.23268187 -0.59792614 -0.20176032 0.039588667 -0.16068694 -0.4322517 -0.09029625
marche 0.43906805 0.2771137 0.72098315 -0.4965651 0.42882985 -0.8065078 -0.66753256 -0.2566111 0.20169662 -0.74121636 -0.11733453 0.10868135 -0.21452647 -0.59073573 -0.2906507
scolaire 0.35936877 0.017750952 0.75348175 -0.6304929 0.75883996 -0.6866386 -0.6449813 0.21088186 0.2704507 -0.6140231 0.15597752 -0.2497514 -0.15299678 -0.71728647 0.2067995
poids 0.13927452 0.41239297 0.8228334 -0.53964996 0.5380665 -0.58346903 -0.6921865 -0.16770712 0.22407141 -0.91084605 -0.19376862 -0.0653803 -0.0710142 -0.45321706 -0.14360447
collectif 0.30199534 0.17587537 0.8414755 -0.568375 0.67043525 -0.74016106 -0.8107774 -0.1443611 0.3063769 -0.53018296 -0.06447799 0.003213805 0.06022714 -0.4545969 -0.0091155935
megot 0.226552 0.2326415 0.6447074 -0.6064218 0.32626915 -0.69649374 -0.73524183 -0.21574977 0.093105376 -1.19088 -0.2034571 -0.058855895 -0.13425854 -0.34686232 -0.258509
kilomètre 0.33276412 0.3073499 0.8647659 -0.5180494 0.7657446 -0.8323166 -0.7722239 -0.1452364 0.31507453 -0.37100285 -0.073418275 0.03505824 0.0137779405 -0.48525012 0.16906917
financer 0.23173219 0.32023865 0.7820269 -0.45464483 0.6839162 -0.58695865 -0.7959839 0.06449563 0.36278203 -0.6534926 0.0064135557 -0.09983717 0.016598044 -0.69020444 0.008920493
toit 0.45967963 -0.04261726 0.9550584 -0.7898453 0.5903017 -0.47830766 -0.81458956 0.07380652 0.58295375 -0.8380567 -0.028774904 0.12175738 0.67756325 -0.33837008 0.29513645
long 0.15667892 0.06698165 0.832531 -0.6462196 0.7582671 -0.79237056 -0.7266031 -0.17201436 0.34585977 -0.49434552 -0.21293636 0.0053048385 0.017090969 -0.48949832 0.18313202
teletravail 0.30927792 0.26852903 0.8049931 -0.53893757 0.673835 -0.6962508 -0.8198474 -0.29454514 0.19222392 -0.52820116 -0.18137796 0.021377884 -0.12367693 -0.477904 -0.10152534
sauvage 0.27955708 0.08499657 0.79604256 -0.56316346 0.5719294 -0.70455116 -0.71103 -0.07924146 0.30997348 -0.6809666 -0.062590905 -0.079598434 -0.0066802516 -0.4886167 0.1570649
francai 0.3463724 0.35465822 0.71518147 -0.38356876 0.4492165 -0.7945492 -0.68440545 -0.012329737 0.18682429 -0.7828537 0.055366404 -0.051952697 -0.29460558 -0.6888161 -0.169996
trier 0.2020006 0.20134565 0.64881486 -0.58740574 0.4065384 -0.6662553 -0.6642194 -0.114660315 0.20027721 -1.0619881 -0.22239865 -0.08046219 -0.14149007 -0.4683435 -0.18389529
carburant 0.31049854 0.41068193 0.7973499 -0.44300753 0.6034193 -0.65820074 -0.8124598 -0.06915714 0.33396786 -0.57050884 -0.02427411 -0.06701341 -0.060570467 -0.64429456 -0.01424132
trajet 0.4098411 0.2624494 0.9783309 -0.5112934 0.8738977 -0.9038572 -0.8618411 -0.20383239 0.26656213 -0.21918815 -0.113651834 0.10088708 0.042066623 -0.4745403 0.14173903
producteur 0.48406023 0.35090604 0.7254993 -0.38200697 0.42661077 -0.89767325 -0.6771232 -0.021636859 0.14054471 -0.7349406 0.15600383 -0.009737926 -0.29133397 -0.803713 -0.24244401
gros 0.32877725 0.3520089 0.80383474 -0.44951895 0.51907766 -0.60133684 -0.7479776 0.0048718015 0.27958465 -0.7088921 -0.11106814 -0.06370953 0.0014363225 -0.6123014 0.023486387
reseau 0.25436288 0.11121132 0.90284896 -0.65343636 0.7399857 -0.6550273 -0.79528403 -0.28058583 0.30358416 -0.45149568 -0.14990322 0.10851637 0.0020419497 -0.3830052 -0.05029894
trouver 0.27949023 0.25887066 0.71768147 -0.57319623 0.31552616 -0.5985971 -0.7053142 -0.098868586 0.27817026 -0.92917657 -0.20284025 -0.00567502 -0.12665224 -0.6122449 -0.2843465
bus 0.34857067 0.19780444 1.0542758 -0.6416591 0.905098 -0.7513977 -0.8933314 -0.27892452 0.33626914 -0.223501 -0.14898102 0.19692853 0.14341392 -0.28812817 0.0777399
empreinte 0.31742594 0.6433831 0.96032625 -0.37455794 0.5334038 -0.5698076 -0.74457246 0.21826826 0.33015603 -0.6560075 0.020262357 -0.11545769 -0.050241716 -0.6546501 0.05872851
culture 0.27771482 0.18943961 0.68401426 -0.56078625 0.37440422 -0.75110084 -0.62176996 -0.09959781 0.17978556 -0.76101255 -0.017699583 -0.017420499 -0.2539542 -0.6805571 -0.1985713
logement 0.2961161 0.15426086 0.76802 -0.5577185 0.62588334 -0.7179896 -0.83265156 0.028359868 0.30987036 -0.5364519 -0.05262634 -0.07637064 0.07276098 -0.48329633 0.098022684
cours 0.29241866 0.046649136 0.81365603 -0.7802208 0.58756703 -0.6093618 -0.6557062 -0.096941926 0.28637522 -0.71083796 -0.119724974 -0.027590232 -0.052882466 -0.52100694 -0.05021306
ex 0.30792373 0.29645902 0.6703274 -0.5317952 0.30850443 -0.7432848 -0.6990458 -0.26220077 0.22490413 -0.96824616 -0.19467801 -0.03526099 -0.16993554 -0.4675372 -0.27753487
education 0.29546186 0.122102045 0.7960823 -0.59849346 0.824436 -0.6219139 -0.637634 0.14117855 0.24135284 -0.66073596 0.04484007 -0.19874085 -0.10810236 -0.6516239 0.12455137
vrai 0.294259 0.22444378 0.7603827 -0.5948409 0.6256751 -0.5672873 -0.61096007 -0.009302605 0.2564909 -0.87200487 -0.14231533 -0.005632058 -0.051055312 -0.5109549 -0.07951764
voie 0.21532714 0.10259974 0.8277746 -0.5515583 0.6912313 -0.7165111 -0.79685223 -0.18936369 0.30361873 -0.5861459 -0.1004065 0.024563948 0.054790106 -0.46593365 0.07749622
venir 0.41751307 0.3414337 0.70946455 -0.39446148 0.3431434 -0.85426706 -0.64282364 -0.15133834 0.16983931 -0.8538738 0.037946902 -0.09473368 -0.4019015 -0.73363674 -0.29050133
amende 0.25218922 0.1916629 0.7334475 -0.64985496 0.5470652 -0.56570834 -0.66027284 -0.095659226 0.22580229 -1.0171479 -0.20766246 -0.008329369 -0.08250988 -0.43007737 -0.17692
humain 0.24528481 0.24114266 0.77360326 -0.5552796 0.6511663 -0.72372717 -0.7177667 0.04610758 0.24281465 -0.691766 -0.034602035 -0.1264936 -0.11105163 -0.66706854 0.144264
lumiere 0.1539669 0.21425833 0.8555594 -0.5750803 0.559367 -0.7654492 -0.94624335 0.21999858 0.3117181 -0.6282443 -0.05074118 0.04386074 0.28916135 -0.21008028 0.14787439
fossile 0.2570927 0.28629568 0.8215487 -0.38468617 0.7402269 -0.38900188 -0.8873825 0.0255083 0.43491748 -0.7079028 -0.04390204 0.11216994 0.15816666 -0.8039871 0.053290445
commercial 0.39102176 0.10369481 0.94092447 -0.69428056 0.55583405 -0.60669196 -0.95100087 0.066678174 0.44367683 -0.6997107 -0.015876167 -0.04187392 0.42886573 -0.3478117 0.22935256
hydrogene 0.25246274 0.2574799 0.90865284 -0.5431266 0.6928571 -0.6691818 -0.9257323 -0.12406495 0.39660525 -0.39774495 -0.07123983 0.0629609 0.041112695 -0.587816 -0.038464677
beaucoup 0.22717847 0.17559779 0.78320456 -0.50758135 0.5212966 -0.70314115 -0.74784344 -0.10022072 0.26316667 -0.75679725 -0.12426778 -0.050518565 -0.04153031 -0.5716722 -0.04868086
supermarche 0.46213073 0.40503383 0.6641413 -0.45156193 -0.0013160331 -0.78584975 -0.6387238 -0.2858292 0.08791925 -1.2499495 -0.117232196 0.036566123 -0.4119079 -0.57026833 -0.63415974
type 0.30068204 0.37635458 0.72987497 -0.5120873 0.33842963 -0.6785017 -0.674748 -0.19424018 0.17699732 -0.88280374 -0.23416649 -0.0066945176 -0.15685596 -0.58824223 -0.23368214
mondial 0.24277313 0.25266558 0.72531533 -0.5587776 0.6796548 -0.6973278 -0.6689988 -0.021376735 0.23086612 -0.69255406 -0.07332573 -0.04716772 -0.09534419 -0.60811967 0.1302385
boite 0.28436127 0.21974023 0.6111991 -0.5746029 0.20423576 -0.73664474 -0.68447876 -0.22385325 0.07590089 -0.9348363 -0.19818045 -0.0037693656 -0.18034029 -0.43882367 -0.18278545
parc 0.22978352 0.07980176 0.86236954 -0.62862796 0.7195265 -0.67777985 -0.7886838 -0.013638242 0.398206 -0.5339408 -0.0037076962 -0.016944597 0.21081947 -0.48578355 0.19695947
collecte 0.15195923 0.21629481 0.71254206 -0.7719245 0.3504206 -0.55728054 -0.62321913 -0.34615752 0.17835554 -1.1798192 -0.41304147 0.091682084 -0.06632316 -0.32228896 -0.41400442
suremballage 0.3774731 0.5106268 0.66557664 -0.36017734 -0.09555808 -0.7685298 -0.67276156 -0.2912214 0.081878 -1.1660795 -0.19120593 -0.007999364 -0.43790933 -0.69571257 -0.53726214
baisser 0.21501566 0.4110945 0.7809366 -0.45357284 0.66496694 -0.77242035 -0.78708184 -0.030891422 0.2962642 -0.58049554 -0.05385865 -0.046032872 -0.074929416 -0.5854475 -0.06348494
compost 0.20526776 0.09998577 0.75063246 -0.66439205 0.5865038 -0.6433033 -0.6993788 -0.17532209 0.2588229 -0.94915825 -0.22202554 -0.021070106 0.02507796 -0.25464767 -0.13450927
cyclable 0.32229576 -0.03324897 0.94688255 -0.79441375 0.90654916 -0.62966305 -0.84630877 -0.35578236 0.54355216 -0.37075636 -0.2383679 -0.024364952 0.06479091 -0.26461068 0.1214938
alternative 0.29011908 0.40186238 0.70043904 -0.5032197 0.3099053 -0.67518884 -0.7180999 -0.27106795 0.1053616 -0.89049137 -0.2255713 0.0086255055 -0.17107773 -0.6184207 -0.31274298
societe 0.29990467 0.26075974 0.73216325 -0.49566874 0.57572883 -0.6245271 -0.65962887 -0.013415998 0.23259324 -0.7934156 -0.07786628 -0.0899864 -0.096180096 -0.6174275 -0.05493664
rien 0.25744027 0.21383981 0.7601637 -0.51171476 0.502006 -0.6799735 -0.74665296 -0.0030490276 0.18610907 -0.8239133 -0.050923202 -0.10233259 -0.092134625 -0.56181943 -0.05335304
qualite 0.24814829 0.29693446 0.70081204 -0.5094717 0.39090353 -0.8118181 -0.719304 -0.07245841 0.22094426 -0.8183092 -0.0070519666 -0.09048751 -0.29783058 -0.68582004 -0.1847761
carton 0.27278265 0.46855673 0.58765876 -0.73415107 -0.20247874 -0.7593475 -0.6674257 -0.5827277 0.09212302 -1.489737 -0.48776713 0.1722183 -0.42362064 -0.49986184 -0.73450273
mer 0.25661978 0.16785459 0.7155912 -0.6007202 0.48833 -0.6601679 -0.73489296 -0.17007513 0.28185928 -0.74654543 -0.061904885 -0.005692656 -0.077169195 -0.52821296 -0.06960737
piste 0.26739168 -0.081213936 0.905435 -0.6646183 0.99922204 -0.731872 -0.9869993 -0.46111688 0.4086738 -0.2513784 -0.12191184 0.11899867 0.24874626 -0.44496474 0.2127981
obsolescence 0.49300435 0.049754974 0.76009417 -0.54393303 0.4700264 -0.59397006 -0.72552615 -0.0005413018 0.28447002 -0.72785574 0.12840946 -0.23524024 -0.32629383 -0.8116845 -0.03293077
recherche 0.257192 0.1965699 0.7892076 -0.52993965 0.56630147 -0.56367016 -0.8163803 0.0069052973 0.34764573 -0.6765646 -0.057652302 -0.014525245 0.027461657 -0.613539 -0.029797137
subventionner 0.27251154 0.24042223 0.77509713 -0.5361777 0.60277516 -0.6377825 -0.78997827 -0.074155435 0.29330245 -0.6392946 -0.013048545 -0.07817895 -0.053170487 -0.64273554 -0.005392711
appareil 0.23850691 0.26132613 0.77545637 -0.5113674 0.47134492 -0.6616114 -0.84081787 -0.09355976 0.28300306 -0.63653463 -0.102195576 -0.044139825 -0.05818404 -0.5642754 -0.06530893
jetable 0.2991403 0.4609906 0.60957366 -0.5364341 -0.108846776 -0.74372065 -0.6771938 -0.33445713 0.07802498 -1.2921655 -0.3472036 -0.010377914 -0.43527013 -0.6226137 -0.59791744
gobelet 0.3043636 0.5067876 0.6237008 -0.5792094 -0.28229475 -0.7249916 -0.82041436 -0.5422094 0.057510797 -1.4846857 -0.5270165 0.073839515 -0.41945383 -0.69996315 -0.7288943
penser 0.29124814 0.19507203 0.7709495 -0.5451838 0.5108765 -0.7112085 -0.72993416 0.014834809 0.22406162 -0.6831198 -0.011582785 -0.07979648 -0.08240739 -0.6019404 0.020981211
marchandise 0.23958476 0.38409042 0.8990742 -0.4238977 0.7274991 -0.8448677 -0.7547697 -0.2267076 0.22744048 -0.48379564 -0.17675567 0.045308974 -0.15444565 -0.4788585 -0.008134569
sanctionner 0.24781606 0.23733169 0.7485143 -0.49867487 0.55628115 -0.6461021 -0.6958829 -0.026923649 0.20603044 -0.8178044 -0.053576335 -0.07045131 -0.10724272 -0.52813584 -0.028271658
materiau 0.2895899 0.33651903 0.645248 -0.6101925 0.07642104 -0.65156054 -0.7421855 -0.26856723 0.22191904 -1.0527077 -0.1774033 0.034361295 -0.19109827 -0.6472904 -0.33526593
bateau 0.34030932 0.34978047 0.8145862 -0.5081734 0.5614012 -0.67559266 -0.84989655 -0.16064042 0.31578407 -0.5362881 -0.15307853 -0.017671786 -0.050967485 -0.49970186 -0.0019431697
covoiturage 0.3194736 0.18772061 0.8529528 -0.57934266 0.76916426 -0.74903655 -0.8150167 -0.17631537 0.30785206 -0.44045004 -0.11828641 0.06429529 0.057520997 -0.4331976 -0.0023301926
pratique 0.2251363 0.21869485 0.7314652 -0.57495826 0.57934546 -0.6947298 -0.65532446 0.039273925 0.24764566 -0.744018 -0.011366929 -0.10691224 -0.07681464 -0.6514272 -0.010418071
intensif 0.21345684 0.16819052 0.75613606 -0.51428276 0.42178503 -0.75144285 -0.69632787 -0.13344689 0.26907647 -0.73543197 0.11839216 -0.07046984 -0.23238312 -0.8893108 0.072494924
electriqu 0.3086024 0.27571222 0.84545106 -0.5092679 0.6008798 -0.68998295 -0.87682205 -0.098711915 0.3680275 -0.45318943 0.005654633 0.022137899 0.032106888 -0.6456386 0.06843279
nettoyer 0.25764653 0.075906314 0.72193706 -0.6824794 0.56121266 -0.676543 -0.7378984 -0.037646074 0.25026736 -0.7213155 -0.042071905 -0.08038052 -0.030706985 -0.46733448 0.07631429
lutter 0.3818852 0.19331188 0.6476476 -0.554548 0.7766443 -0.5542126 -0.6552526 0.033648968 0.242514 -0.8026805 0.09219861 -0.20831086 -0.08749437 -0.8542262 -0.057391893
organiser 0.21673828 0.20963816 0.73838145 -0.6217071 0.51731676 -0.6381946 -0.7409137 -0.103327796 0.24900694 -0.753392 -0.086377464 -0.005173496 -0.016891038 -0.5220591 -0.07395583
territoire 0.27424088 0.22215472 0.76289934 -0.5852455 0.6696835 -0.74343127 -0.7734657 -0.15544067 0.24305566 -0.6002205 -0.06726882 -0.010791701 -0.03582977 -0.455215 0.06669458
lumineux 0.28378472 0.21063715 0.8357372 -0.61479676 0.44542253 -0.63772666 -0.8606258 0.022957692 0.3760815 -0.7971499 -0.010816685 0.11167148 0.2934513 -0.3637592 0.13245362
ordure 0.08867836 0.30753806 0.6595298 -0.65241855 0.5067944 -0.53379434 -0.7108157 -0.1002334 0.22659984 -1.1217756 -0.19491205 0.01429591 -0.16072355 -0.44586506 -0.19232659
thermique 0.3072637 0.27543834 0.8766521 -0.5998488 0.602236 -0.6527495 -0.907905 -0.13950892 0.29008162 -0.4943509 -0.06533237 0.073545255 0.16950327 -0.5100621 -0.022992108
cantine 0.31107378 0.24114238 0.6987177 -0.46328115 0.48205972 -0.7722712 -0.64974934 -0.08848551 0.1465584 -0.85567147 0.034959476 -0.10966079 -0.26769072 -0.6617407 -0.24155931
quotidien 0.3300672 0.3578324 0.7510273 -0.48988548 0.5216047 -0.770307 -0.76676327 -0.03153393 0.15627265 -0.74268097 -0.057528555 -0.0843573 -0.17010665 -0.60771906 -0.07498358
pluie 0.30848035 -0.049887776 0.76812595 -0.94986457 0.22211972 -0.57879615 -0.84023494 -0.4126994 0.41877353 -0.7601309 -0.25987908 0.10045456 -0.015342162 -0.4885407 -0.3369363
devenir 0.2800502 0.17082849 0.7358905 -0.5705864 0.53515625 -0.6900883 -0.67786413 -0.06439651 0.19763775 -0.7251095 -0.08622474 -0.10838497 -0.038552076 -0.5852221 -0.035121374
neuf 0.30248344 0.1893155 0.7845452 -0.5834875 0.41231918 -0.6366325 -0.8257189 -0.14099373 0.32184273 -0.71410936 -0.06574611 -0.012453195 -0.06231497 -0.55912596 -0.056833316
plus 0.3173899 0.23735996 0.7989408 -0.5731973 0.65790105 -0.7244557 -0.77021456 -0.026674073 0.32864538 -0.60864735 -0.054378018 -0.014747261 0.049619872 -0.4857145 0.024636809
autour 0.29662225 0.054001696 0.8125352 -0.6368318 0.58437186 -0.80688363 -0.68146527 -0.12194323 0.2933414 -0.62724084 -0.10181045 -0.053695973 0.017145919 -0.47616994 0.02028003
ensemble 0.24261914 0.2414059 0.75366575 -0.5921632 0.56178886 -0.62770927 -0.68838495 -0.022283394 0.26661742 -0.743425 -0.04749285 -0.055533152 -0.06810024 -0.59212 -0.00042729598
ameliorer 0.2350787 0.19645734 0.7944623 -0.58860046 0.64944285 -0.6849086 -0.7372201 -0.16340894 0.27033672 -0.54317707 -0.07511627 -0.028213868 -0.030795943 -0.5128161 -0.055344433
association 0.27642962 0.24221593 0.7257095 -0.5581947 0.5299073 -0.7351731 -0.71914446 -0.033498637 0.19802289 -0.7403781 -0.046783812 -0.09688321 -0.08278815 -0.54503554 -0.055669475
protection 0.26651096 0.15168074 0.75654274 -0.547661 0.7478488 -0.6480823 -0.7019111 0.25626907 0.2784188 -0.68701637 0.043576937 -0.20384352 -0.058212843 -0.69549596 0.2000203
recuperer 0.23823138 0.09385317 0.73738587 -0.70724267 0.3517554 -0.62684035 -0.72663975 -0.22914056 0.2743088 -0.87123746 -0.16936561 0.07807669 0.004702158 -0.49738908 -0.24315529
gaz 0.2642057 0.22560622 0.7438594 -0.52976495 0.49822587 -0.72723067 -0.78108746 -0.09251118 0.34961727 -0.6095326 -0.024181996 -0.046417747 -0.029278515 -0.5688656 0.04656944
surconsommation 0.32206205 0.2484763 0.6743616 -0.4828713 0.444758 -0.713144 -0.71232665 -0.09653009 0.22581713 -0.79486716 -0.05065217 -0.05357857 -0.15966311 -0.5958859 -0.10066363
conscience 0.4263115 0.31901482 0.8237789 -0.49236378 0.7577459 -0.6883252 -0.72824967 0.13751668 0.28010002 -0.58234525 0.023449795 -0.18895933 -0.06581152 -0.6224038 0.1204637
generaliser 0.22340572 0.19477572 0.6807621 -0.6047993 0.4385745 -0.69749844 -0.71118706 -0.16556348 0.19314504 -0.7189239 -0.182672 0.040193103 -0.036852036 -0.39836556 -0.15418161
quartier 0.293117 0.15560189 0.7724402 -0.6263674 0.63379216 -0.711234 -0.7310145 -0.08071878 0.23579347 -0.7123862 -0.042175453 -0.052030597 -0.0086944625 -0.47544992 0.015166896
potable 0.30591023 0.03315126 0.7260408 -0.85084844 0.09570833 -0.5743861 -0.921384 -0.5097051 0.33564472 -0.8489687 -0.28368694 0.108441494 -0.22189906 -0.5681044 -0.506211
revoir 0.28798443 0.28622836 0.7630428 -0.5351762 0.49104464 -0.69761777 -0.7295046 -0.0015781323 0.23784214 -0.6433987 -0.063169345 -0.103329435 -0.07348663 -0.5490348 0.012811929
vetement 0.29581076 0.29213846 0.6636722 -0.48932427 0.25419006 -0.77728385 -0.6765664 -0.18280797 0.19253208 -0.9243748 -0.08880705 0.012745041 -0.32547733 -0.6640368 -0.36549374
developpement 0.2830091 0.15848196 0.78494596 -0.5382129 0.65756345 -0.693281 -0.7751667 -0.014818506 0.2774023 -0.6219328 -0.028875347 -0.12795055 0.027865652 -0.6444549 0.03897575
fois 0.31303924 0.32466388 0.7113708 -0.5491115 0.42102978 -0.7598553 -0.74436337 -0.20664789 0.19379124 -0.7590757 -0.08171403 0.005557967 -0.21929535 -0.5438294 -0.21551128
sortir 0.22934553 0.2347948 0.76437616 -0.603508 0.59686226 -0.61972475 -0.7691127 0.038602564 0.30670628 -0.58374476 0.006287328 -0.027676996 0.057693556 -0.5944748 0.10829063
activite 0.27118316 0.23117903 0.75411546 -0.5736122 0.6345468 -0.66706777 -0.75764114 0.03484551 0.2581529 -0.6797723 -0.019462544 -0.07409638 -0.062581755 -0.5594566 0.049485713
preserver 0.2473889 0.031920142 0.7542322 -0.5377658 0.59071845 -0.7133139 -0.72719425 0.05736253 0.27643412 -0.638778 -0.021265412 -0.12642832 -0.012968569 -0.6117318 0.14687887
habitation 0.31457192 0.10218704 0.82470095 -0.648727 0.62026674 -0.6821182 -0.83685696 -0.08612021 0.3428156 -0.62266326 -0.09642209 -0.05905179 0.14462614 -0.4920769 0.117007114
aller 0.32330543 0.19997524 0.77461654 -0.58904964 0.68426937 -0.68839204 -0.70092005 -0.017476732 0.27807415 -0.60889405 -0.046884824 -0.04108402 -0.04160939 -0.54820275 0.028143859
informer 0.23339811 0.3000526 0.7298336 -0.51347667 0.6261349 -0.7378687 -0.76746404 0.098709665 0.2333702 -0.6474299 -0.026906112 -0.09897318 -0.04442903 -0.5966048 0.07661128
emploi 0.2745328 0.22297768 0.75947726 -0.5259566 0.55520046 -0.6757193 -0.76860607 -0.04870791 0.2913454 -0.72391933 -0.045264784 -0.10677967 -0.07994172 -0.62748194 -0.03466258
respectueux 0.32706508 0.20529176 0.71495056 -0.44902724 0.5039163 -0.7356662 -0.6995888 0.04347611 0.25982597 -0.7744615 0.012327907 -0.11898968 -0.16537921 -0.8033504 -0.07102514
biologique 0.2464728 0.16370817 0.7478603 -0.39925793 0.49152234 -0.79813087 -0.69087005 0.027822653 0.31726426 -0.75341237 0.12821946 -0.124572426 -0.307949 -0.82681286 0.0045567914
interdir 0.27831367 0.28098232 0.695672 -0.5046409 0.33383545 -0.687503 -0.6661615 -0.09819765 0.21760923 -0.7836834 -0.11247793 -0.0024187989 -0.16999127 -0.5682501 -0.17365591
lourd 0.20301013 0.26670253 0.7570071 -0.5052438 0.6222722 -0.6751025 -0.7688266 -0.1447481 0.28619888 -0.69489187 -0.08240131 -0.034899652 -0.033381756 -0.4850688 0.027720619
ferroviaire 0.2913693 0.26987237 0.87273043 -0.51334167 0.75457484 -0.8101745 -0.72038347 -0.32450092 0.22196731 -0.4289511 -0.23161241 0.117612556 -0.079614475 -0.4018534 -0.005895174
faciliter 0.2750715 0.22482365 0.7031762 -0.56141996 0.4945003 -0.7055237 -0.7056793 -0.08202792 0.25017703 -0.74722946 -0.10626907 0.034253515 -0.07978843 -0.50945723 -0.10095234
temps 0.28641868 0.233774 0.7001622 -0.5775481 0.44555205 -0.66361266 -0.7339796 -0.053803727 0.2836958 -0.7353134 -0.09935468 -0.027595883 -0.12038507 -0.54070944 -0.08253131
vivre 0.2732794 0.1767128 0.75268483 -0.5245335 0.60652345 -0.6941201 -0.7309079 0.031481452 0.30753917 -0.6835105 0.037105322 -0.07842367 -0.039279748 -0.64992994 0.06966268
point 0.20859142 0.19198015 0.7191474 -0.729578 0.4664733 -0.63706964 -0.62021416 -0.28278214 0.2131912 -1.040935 -0.32339513 0.106657736 -0.08180662 -0.37907085 -0.26539022
automobile 0.24784492 0.2980062 0.81136113 -0.55193967 0.59741783 -0.62557715 -0.8777767 -0.048565805 0.3314118 -0.5416378 -0.04844723 -0.06743764 0.03479839 -0.55132484 0.08797847
centrale 0.22564338 0.10993741 0.71629566 -0.6330543 0.55141884 -0.5249359 -0.85403943 0.06427513 0.38315013 -0.67337203 0.03780612 -0.0069442266 0.14461437 -0.621576 0.19123484
enseigne 0.25192434 0.23830685 0.8302155 -0.6381329 0.38172796 -0.7353607 -0.858186 0.13261014 0.2430357 -0.7524973 -0.026572762 0.08368231 0.1809172 -0.25638625 0.08328666
argent 0.25399897 0.25848302 0.72210205 -0.5173689 0.5580016 -0.6166191 -0.7287013 0.04898566 0.28855684 -0.72777706 -0.06254818 -0.021098109 -0.011904994 -0.60564077 -0.07339798
nourriture 0.33746326 0.2279819 0.6764658 -0.517974 0.33151844 -0.79073006 -0.65015954 -0.18369375 0.21176301 -0.8636593 -0.0993524 0.009874755 -0.25197038 -0.554324 -0.1857728
respect 0.24524514 0.18906522 0.7328369 -0.50652444 0.74374264 -0.607521 -0.70022166 0.16021091 0.2619473 -0.76815903 0.079724394 -0.17346345 -0.03890776 -0.67413414 0.12989494
habitude 0.36384332 0.32636094 0.73655164 -0.40652597 0.55060774 -0.8006874 -0.71141416 0.072692774 0.20452109 -0.700595 -0.00015135012 -0.0979484 -0.17632511 -0.67399263 -0.0068586096
publicitaire 0.3438803 0.21697994 0.81173486 -0.6443905 0.40166363 -0.5699324 -0.739155 0.053789712 0.50154984 -0.8933663 0.04941199 0.16198343 0.27337438 -0.35643476 0.091418594
collectivite 0.28880894 0.16576098 0.80666393 -0.54132175 0.58050215 -0.70370054 -0.73945177 -0.052124206 0.24043535 -0.73774797 -0.011524108 -0.031142665 -0.0022916289 -0.5721284 -0.07642433
compostage 0.24807099 0.1160953 0.79036075 -0.59140915 0.5413605 -0.69035286 -0.70146847 -0.16931309 0.21874371 -0.7866733 -0.09667567 -0.028499033 -0.0016152298 -0.41940635 -0.11940909
appliquer 0.22373438 0.32780352 0.71469176 -0.5307052 0.5029742 -0.5754963 -0.676186 0.010261953 0.2509961 -0.7883949 -0.11522606 -0.072616726 -0.066380166 -0.5406968 -0.0785346
chimique 0.22516511 0.33116984 0.6562698 -0.48830622 0.20680043 -0.7055926 -0.6861361 -0.16010824 0.15483335 -0.8292866 -0.06695578 -0.06223533 -0.26602712 -0.7258823 -0.22287816
bilan 0.24787681 0.47858557 0.92478466 -0.4755868 0.53454465 -0.61625075 -0.70640576 0.14789239 0.2678272 -0.72280276 -0.024795173 -0.12318734 0.030372074 -0.575808 0.016984716
profit 0.29421148 0.17567115 0.7616691 -0.5188248 0.52499986 -0.74472344 -0.76313967 -0.10377847 0.24030574 -0.62716246 -0.08009141 0.007393832 -0.06510788 -0.5930825 0.018839898
massivement 0.26891834 0.19971548 0.78812087 -0.48211667 0.626308 -0.6370143 -0.8356222 -0.082281515 0.32755592 -0.5791091 -0.0034197546 0.02303903 0.014935839 -0.638373 0.00095681584
bureau 0.17695911 0.22656472 0.7823648 -0.57485765 0.45204425 -0.7254753 -0.78316987 -0.016832586 0.2036687 -0.745282 -0.09143209 0.017557006 0.07211111 -0.3384421 -0.0069404272
age 0.26025385 0.19589753 0.75330436 -0.6574407 0.8679112 -0.71887016 -0.62278044 0.2458785 0.34256768 -0.7704986 0.22029148 -0.21735238 -0.07906141 -0.68326485 0.42068726
voir 0.29176334 0.18411487 0.6866628 -0.5633366 0.50045216 -0.7213746 -0.7348714 -0.044868708 0.27889407 -0.800801 -0.037242353 -0.07535203 -0.0942744 -0.56938463 -0.0030213478
douche 0.29101473 0.09387848 0.7168581 -0.6843745 0.36160687 -0.64102226 -0.7712933 -0.2621002 0.29346907 -0.72697324 -0.1705075 0.08248509 -0.096120596 -0.534889 -0.28177118
acce 0.30136254 0.21169744 0.7138811 -0.52135265 0.46848342 -0.7092836 -0.708621 -0.1347084 0.23992625 -0.7077693 -0.046616383 0.0022493866 -0.09807593 -0.541238 -0.104484476
climat 0.23888543 0.20304903 0.7471729 -0.5173793 0.6332142 -0.6678627 -0.6981334 0.09459897 0.27488118 -0.6836306 -0.03667334 -0.092769206 0.018180033 -0.6270437 0.06948828
filiere 0.19191787 0.25408477 0.7138951 -0.63288397 0.4254231 -0.54685926 -0.7038403 -0.21880318 0.26862556 -0.8581944 -0.20035869 0.04256566 -0.13100016 -0.53226745 -0.22833058
ferme 0.2805286 0.18807214 0.7451178 -0.5980389 0.48697862 -0.7442404 -0.7672166 -0.10394604 0.21497115 -0.72339183 -0.049412407 0.009633711 -0.0052760816 -0.51086885 -0.052341994
terme 0.24773651 0.17274277 0.7353314 -0.5159791 0.5440489 -0.771465 -0.7358859 -0.07040115 0.2736405 -0.7180642 -0.085486755 0.011782103 -0.08852142 -0.58605784 0.0155563615
air 0.27017775 0.17821163 0.79564685 -0.5918779 0.5822176 -0.7256845 -0.76678795 -0.1321775 0.28185323 -0.5870026 -0.09833202 -0.01679112 -0.050037116 -0.5275473 -0.081167005
boycotter 0.3441567 0.31029412 0.6732399 -0.4336985 0.32234892 -0.7239932 -0.66128695 -0.034700084 0.17023835 -0.8501988 -0.03417819 -0.020344337 -0.16217513 -0.52490336 -0.19434437
zero 0.19388475 0.2963057 0.6909175 -0.5185633 0.4425121 -0.6817959 -0.69128317 -0.12820967 0.19784987 -0.9752332 -0.16031398 -0.056410305 -0.1374045 -0.54749674 -0.1286691
village 0.24810527 0.1544871 0.78945297 -0.61047477 0.64193416 -0.72847706 -0.7363562 -0.121851474 0.3034975 -0.67212653 -0.08767931 0.0047733597 0.018890277 -0.4396844 0.029932838
mesure 0.3672458 0.25151882 0.8083469 -0.5284698 0.6292402 -0.6685997 -0.7333571 0.04201012 0.24969468 -0.68115956 -0.09559274 -0.054358874 -0.009059765 -0.5178716 0.01909145
autant 0.2918582 0.19795252 0.77722013 -0.5128069 0.5675638 -0.7455133 -0.6969835 -0.13663681 0.28170794 -0.62002414 -0.063618496 -0.02025348 -0.11449391 -0.5899833 -0.02641217
ligne 0.2886457 0.17579009 0.83970314 -0.6123918 0.6236139 -0.7405076 -0.7026105 -0.15507805 0.21572442 -0.50086915 -0.11637583 0.091842785 0.012169177 -0.43170056 0.067327425
masse 0.23677832 0.2117822 0.73803294 -0.47740334 0.51494426 -0.6858844 -0.7092854 -0.13696903 0.26780066 -0.69916874 -0.06359901 -0.09060115 -0.14827673 -0.5914638 -0.046853073
plan 0.29600704 0.15150301 0.76344645 -0.611258 0.639636 -0.63279104 -0.70047283 0.042196136 0.26374403 -0.7718747 -0.1054012 -0.052076533 0.034386225 -0.46009797 -0.04202549
reutilisable 0.39968708 0.40796474 0.5932082 -0.5068496 -0.0557884 -0.81912357 -0.6788056 -0.310485 0.09693198 -1.2685487 -0.17751089 0.06629511 -0.4278382 -0.64982533 -0.7094582
fabricant 0.26713637 0.38441977 0.67540747 -0.4288555 0.15991537 -0.59578353 -0.7069864 -0.1317756 0.19415802 -1.0646254 -0.15727225 -0.118972495 -0.22654723 -0.6120954 -0.31555447
devoir 0.31701466 0.24001999 0.73026663 -0.48829466 0.44162488 -0.76751274 -0.7355454 -0.106004685 0.24643022 -0.7417816 -0.06621204 -0.0767703 -0.14446293 -0.5745451 -0.06096499
espece 0.2732583 0.1462659 0.7140651 -0.5598924 0.5954284 -0.69688326 -0.70985925 -0.088252366 0.27268246 -0.66882783 -0.066171855 -0.093752995 -0.06673662 -0.56919914 0.084146634
soutenir 0.32623932 0.17167298 0.7703252 -0.48167938 0.5888685 -0.7156967 -0.6988378 0.0077800946 0.27351716 -0.5881429 0.024566479 -0.05713908 -0.04134049 -0.63565 0.03785483
ressource 0.25294015 0.19022124 0.7394746 -0.5197034 0.4731321 -0.69099915 -0.70468754 -0.11769498 0.27512378 -0.76635134 -0.06417946 -0.09444929 -0.19240518 -0.6442504 -0.016913582
replanter 0.10559321 -0.06223236 0.8491316 -0.6930115 0.8255754 -0.78829306 -0.62361723 -0.059190847 0.31372523 -0.5235229 -0.18637061 -0.065042965 0.22386505 -0.52856094 0.2105289
penaliser 0.2735346 0.29239094 0.72480464 -0.4926408 0.44928196 -0.6730252 -0.72000676 -0.07246091 0.19500503 -0.80034006 -0.0057355603 -0.048334047 -0.116203845 -0.5650913 -0.13723211
distribution 0.38968906 0.28758782 0.6551214 -0.46886277 0.16215548 -0.772425 -0.6837585 -0.16838518 0.1717073 -1.0396589 -0.13935778 0.03461929 -0.20517299 -0.4683273 -0.34134
semaine 0.34378928 0.2354671 0.7170422 -0.4799026 0.5996075 -0.7624169 -0.7531526 -0.08114235 0.20712778 -0.68076986 -0.032874193 -0.026310971 -0.09728293 -0.5600016 -0.04864621
gouvernement 0.28642973 0.21947981 0.6989959 -0.47000727 0.55934393 -0.67932934 -0.6727085 0.061620675 0.23672497 -0.6833501 -0.07929699 -0.0492041 -0.08541815 -0.57036185 0.0037320894
reparation 0.3478669 0.24435934 0.7553326 -0.5062323 0.52316815 -0.70410466 -0.7507892 -0.04173485 0.23382932 -0.67842245 0.014588761 -0.0698789 -0.16311705 -0.5804174 -0.07880715
journee 0.2881811 0.18149449 0.76226217 -0.60696757 0.5882914 -0.6842959 -0.7032597 -0.0024736836 0.21743266 -0.72245663 -0.046704292 -0.045767415 -0.0630501 -0.5193865 0.012640435
servir 0.27694264 0.18951224 0.73501074 -0.5911963 0.42045292 -0.65106153 -0.7470844 -0.046406507 0.29547802 -0.8435621 -0.06723659 -0.013377773 -0.019806908 -0.47601628 -0.11991577
cafe 0.26233643 0.2894087 0.61708283 -0.5816638 0.078059226 -0.65658736 -0.6961111 -0.29827532 0.14795543 -1.028948 -0.29425603 -0.004075133 -0.22876969 -0.54533327 -0.37759966
bois 0.28187892 0.23217823 0.7313737 -0.5770462 0.34056613 -0.6914186 -0.7392979 -0.19326015 0.25289533 -0.7819198 -0.10578843 0.007619137 -0.03684878 -0.5138202 -0.14480191
comprendre 0.25699198 0.29445586 0.7870282 -0.59089655 0.68718815 -0.62019265 -0.72246045 0.087588325 0.30620125 -0.7239633 0.0065358654 -0.06299343 0.007636742 -0.5633912 0.072122194
fret 0.22846828 0.27966824 0.8386446 -0.4877008 0.6934498 -0.7566312 -0.69363743 -0.23386155 0.27480155 -0.52807045 -0.19280878 0.030428214 -0.12734126 -0.45386088 0.016630761
restaurant 0.32776293 0.22685575 0.71532285 -0.5377405 0.34336132 -0.67486763 -0.6675564 -0.074243635 0.20955504 -0.8701764 -0.12969469 -0.057209652 -0.12162627 -0.5589608 -0.21262467
installation 0.33129683 0.09069245 0.82549417 -0.6534905 0.5263854 -0.5922347 -0.75087124 -0.054915503 0.38566276 -0.73486346 0.0006964455 0.015517998 0.21890484 -0.5194732 0.06150671
oiseau 0.1966015 0.059944663 0.78430843 -0.62424225 0.6354785 -0.6938986 -0.6993512 -0.015782703 0.27429277 -0.6568861 -0.11908767 -0.06389149 0.030649312 -0.4728038 0.108379565
reduction 0.25615126 0.26381078 0.7229937 -0.5358786 0.49405178 -0.6705854 -0.67503893 -0.053112824 0.23993436 -0.81174386 -0.07147458 -0.094056524 -0.173595 -0.5639647 -0.089081824
exploitation 0.30752635 0.1777898 0.69330263 -0.44437504 0.46575138 -0.7704223 -0.70851487 -0.07939957 0.21311645 -0.70996344 0.023314368 -0.09436921 -0.15943387 -0.71895784 -0.07436182
usine 0.32051536 0.15514567 0.75524664 -0.5693447 0.46898687 -0.7056515 -0.766517 -0.10249021 0.24825746 -0.7619225 -0.061250713 -0.028990163 -0.0021955955 -0.5313137 0.0014110957
chaleur 0.29401442 0.1374059 0.7555356 -0.5659057 0.53059834 -0.6692029 -0.7659913 -0.0027196405 0.32619947 -0.6418294 -0.044675875 0.0026591897 0.07417202 -0.4952022 0.08276588
minimum 0.23715436 0.12313653 0.7031756 -0.60765207 0.5451762 -0.6364757 -0.7260996 -0.057833508 0.27310824 -0.71237665 -0.08358161 -0.046955444 -0.023543485 -0.50307286 0.04336598
creation 0.2675872 0.21921755 0.76477975 -0.5633328 0.6431562 -0.7266816 -0.7405614 -0.09710209 0.286319 -0.62838674 -0.14187172 -0.04529373 -0.01782912 -0.50484204 -0.008576788
maniere 0.3170064 0.19975352 0.74167633 -0.45212594 0.54597235 -0.6902122 -0.71708006 0.014483565 0.25735494 -0.71023643 0.023479851 -0.087637566 -0.12948284 -0.634216 -0.035366442
recuperation 0.27572048 0.10261667 0.69651216 -0.7800282 0.25803444 -0.60206217 -0.7607078 -0.26946595 0.23981224 -0.9019757 -0.27523774 0.09034797 -0.05793461 -0.47574455 -0.3086484
echelle 0.2734766 0.2004012 0.7717893 -0.56305844 0.5155277 -0.7373973 -0.67432547 -0.08964991 0.27946332 -0.77470875 -0.15142421 0.0018161798 -0.051011406 -0.51160055 -0.11752191
partir 0.2149083 0.20645295 0.8223647 -0.56101066 0.57863975 -0.71331924 -0.77907497 0.01963525 0.3339325 -0.6233596 -0.06796171 0.019307654 0.0763009 -0.44174722 0.07083248
champ 0.21068363 -0.010693213 0.80004406 -0.6859576 0.67460716 -0.7313532 -0.6561729 -0.122149915 0.30042863 -0.6206804 -0.20617722 -0.011837562 0.02484903 -0.54066455 0.13895811
economiqu 0.2804013 0.24168661 0.7127021 -0.6049302 0.5424292 -0.65740967 -0.7159501 -0.06297207 0.25541323 -0.74901366 -0.14033166 -0.062508404 -0.053117692 -0.5322234 -0.068292774
selectif 0.13968302 0.2706206 0.75174934 -0.6796034 0.5584082 -0.6071521 -0.70052946 -0.18830185 0.16867995 -1.1516149 -0.21406984 -0.08348788 -0.015587104 -0.34597582 -0.3067261
utilise 0.23384418 0.25656855 0.68115145 -0.56898457 0.31851965 -0.683548 -0.72781473 -0.1991895 0.21002014 -0.8246888 -0.18820156 0.010371811 -0.11472725 -0.525376 -0.1791287
lobby 0.27618578 0.25024495 0.7012547 -0.53912073 0.49098596 -0.63696575 -0.7120412 -0.012358597 0.25071064 -0.7152424 -0.0911789 -0.077170126 -0.014983125 -0.52720755 0.026141247
europe 0.22162369 0.24496672 0.73437536 -0.5178172 0.5596919 -0.71536624 -0.71602744 -0.095215 0.24349464 -0.7146645 -0.09421993 -0.051930256 -0.11240916 -0.54782915 -0.01490345
machine 0.22330487 0.28570896 0.6023906 -0.5787943 0.06626963 -0.6532531 -0.8190652 -0.29049677 0.16005912 -1.104695 -0.24307199 0.051139764 -0.19693154 -0.50495356 -0.42826793
duree 0.20813726 0.27699497 0.7962831 -0.5302855 0.50713366 -0.77835655 -0.7359802 -0.12487625 0.20852932 -0.6570811 -0.10452636 -0.017212229 -0.1585458 -0.51871985 0.010081525
petrole 0.25023276 0.30069393 0.66621494 -0.54495955 0.37148613 -0.69921577 -0.71842504 -0.15388748 0.26248598 -0.75887775 -0.10603873 -0.001281498 -0.075451255 -0.5816126 -0.10055715
recycle 0.26596445 0.33102262 0.67930835 -0.62172985 0.09321582 -0.6607987 -0.65658784 -0.28680187 0.1469191 -1.070466 -0.26487225 0.062392253 -0.19925743 -0.5090093 -0.36692816
ete 0.28353631 0.19248678 0.7093953 -0.57327145 0.48064813 -0.7020303 -0.7473886 -0.027577 0.2733572 -0.6939237 -0.070096135 -0.027122961 -0.04138391 -0.51240116 0.017367082
commun 0.27895698 0.13449869 0.7680589 -0.5966988 0.5663326 -0.69840854 -0.7284548 -0.03186623 0.34902433 -0.7266889 -0.0790146 -0.057593618 -0.041056164 -0.53606427 0.04152507
valoriser 0.35644865 0.18729639 0.72676116 -0.51003826 0.48127866 -0.7099043 -0.66780907 -0.036912903 0.2323093 -0.7533668 0.02904641 -0.08170291 -0.16081649 -0.6348532 -0.07961883
fabrication 0.30572924 0.32808116 0.66304946 -0.47431046 0.29451767 -0.60551083 -0.7000133 -0.18198885 0.2395796 -0.8395978 -0.13581075 0.015976043 -0.18527241 -0.617829 -0.22873197
cher 0.29287803 0.28665948 0.7872182 -0.5123516 0.5333351 -0.77518624 -0.7218735 -0.1375456 0.25643322 -0.66891235 -0.07548379 -0.045166764 -0.04881831 -0.5791308 -0.069002986
bannir 0.26324815 0.32712188 0.58632547 -0.49828753 0.112764314 -0.6689412 -0.63880014 -0.24341506 0.16854042 -0.8735303 -0.2047643 -0.003970166 -0.261408 -0.51696974 -0.3470694
forme 0.30024475 0.31039146 0.68241876 -0.50370795 0.30877608 -0.6636646 -0.6891115 -0.1535009 0.16191968 -0.86515 -0.10061351 -0.07307676 -0.24060968 -0.64527315 -0.15516911
homme 0.24600677 0.18482696 0.71837175 -0.5575732 0.5837895 -0.67037886 -0.69242686 0.022939324 0.26683292 -0.7253763 -0.00056888245 -0.09746315 -0.080058694 -0.5913957 0.039320853
droit 0.27320662 0.19099963 0.7381598 -0.5178086 0.5955101 -0.6700323 -0.68748957 -0.07682865 0.22942136 -0.7124275 -0.09090182 -0.035372768 -0.09321206 -0.5419799 0.014628502
fabriquer 0.25634822 0.32497627 0.66558886 -0.44049397 0.30564278 -0.6410411 -0.69668376 -0.086727984 0.1696119 -0.7551845 -0.091694824 -0.088989586 -0.19951841 -0.6057446 -0.18299615
salarie 0.23716058 0.24057609 0.72525746 -0.57229054 0.4772522 -0.6643191 -0.72697353 -0.13938236 0.18004306 -0.7763898 -0.15122163 -0.03375532 -0.09361715 -0.497614 -0.15878198
base 0.2740525 0.25561064 0.68050605 -0.472105 0.4175819 -0.6565174 -0.6700017 -0.054150652 0.18479761 -0.7547573 -0.093297645 -0.07553831 -0.17431891 -0.5777868 -0.08053133
voyage 0.3545864 0.28557557 0.7976506 -0.4205944 0.56805944 -0.83210003 -0.8250917 -0.14130439 0.20993905 -0.49589187 -0.066659175 -0.06916411 -0.1518193 -0.56361574 0.049468674
drastiquement 0.26308993 0.39768642 0.6827096 -0.4774392 0.39245382 -0.7141375 -0.7271443 -0.269467 0.16338366 -0.75929433 -0.19384152 -0.026137168 -0.28066778 -0.54507816 -0.10433275
porte 0.26223254 0.19875808 0.6676252 -0.55263084 0.4635582 -0.6849011 -0.72264177 -0.054943163 0.18871248 -0.77277696 -0.09612454 -0.023040844 -0.0087428875 -0.37607574 -0.026687358
terrain 0.23763302 0.120785534 0.72734356 -0.58598995 0.54358774 -0.7345509 -0.76816636 -0.101059966 0.32524258 -0.6755755 -0.10162173 -0.030748472 0.0077993837 -0.5720393 0.04890268
vraiment 0.3333425 0.26394242 0.7020673 -0.5302376 0.38957545 -0.70697105 -0.73542213 -0.11006892 0.21552402 -0.74385333 -0.09961396 -0.023667784 -0.08825806 -0.59299797 -0.12657255
quantite 0.30575666 0.28075895 0.7232184 -0.46086082 0.41721654 -0.68586457 -0.74038994 -0.08779552 0.22297175 -0.8368981 -0.0869902 -0.037904177 -0.13566418 -0.5896918 -0.14644116
plage 0.24965215 0.1395337 0.7152083 -0.5659339 0.5375506 -0.6884175 -0.6920453 -0.048405826 0.25842476 -0.72589254 -0.08073515 -0.05117922 0.009435846 -0.47242582 0.038352966
former 0.26719686 0.16142935 0.7071613 -0.5794402 0.6247602 -0.6519193 -0.67696476 0.078771524 0.28985545 -0.6654061 0.011188171 -0.086174905 -0.07072954 -0.6026631 0.07081639
ramasser 0.21220735 0.18768044 0.7213076 -0.56810755 0.39759988 -0.6886449 -0.6931937 -0.17022863 0.19830754 -0.9012484 -0.14680451 -0.07958817 -0.11796168 -0.47969761 -0.10859186
faune 0.22560875 0.16937497 0.6870093 -0.5831937 0.5314042 -0.68585265 -0.7281192 -0.007953746 0.26943552 -0.631149 -0.05893833 -0.060896847 -0.011907024 -0.54267156 0.09037171
commencer 0.29621598 0.21371143 0.6979577 -0.52412015 0.4571171 -0.6323671 -0.65818423 -0.07648011 0.25196952 -0.7575827 -0.071015164 -0.06398872 -0.06968362 -0.5569425 -0.10830429
vol 0.2203053 0.22151425 0.7249543 -0.50349826 0.5217523 -0.7020246 -0.67956495 -0.13358286 0.22027998 -0.6179754 -0.12826638 -0.017590435 -0.090748854 -0.53459364 0.050229147
course 0.27993447 0.25438535 0.7649085 -0.5293835 0.47701222 -0.68108344 -0.71774685 -0.13531294 0.236935 -0.62554705 -0.04878424 0.0035307934 -0.11616211 -0.55706996 -0.12244814
investissement 0.31846347 0.23838396 0.76856667 -0.5274179 0.6102054 -0.64521885 -0.71264756 0.026166268 0.32500547 -0.6050964 -0.058788083 -0.034414813 0.06268452 -0.6079403 0.07531504
suv 0.23136935 0.33756095 0.80019104 -0.43811995 0.41263008 -0.6100337 -0.80880743 -0.23337305 0.20614405 -0.6581035 -0.14948279 -0.036968037 -0.050370056 -0.53386617 -0.15008098
europeen 0.2587113 0.15756454 0.736822 -0.5780943 0.61292213 -0.67584467 -0.7348345 0.061735775 0.30635384 -0.677731 -0.029157504 -0.11698926 0.05128508 -0.55553466 0.051776107
savoir 0.26628914 0.1981018 0.6996945 -0.5703394 0.58264303 -0.68848765 -0.65355927 -0.044308692 0.2252702 -0.67331123 -0.06918725 -0.044768926 -0.061749995 -0.515927 -0.01732843
site 0.26375327 0.14518328 0.757906 -0.57302237 0.5450611 -0.67989826 -0.7617745 -0.08464342 0.23878072 -0.72101104 -0.0841785 -0.019296288 0.039440975 -0.48530418 0.020314218
source 0.3022535 0.23358282 0.71208715 -0.5597873 0.4540941 -0.66183025 -0.7534756 -0.0924829 0.29782775 -0.76753265 -0.08134948 0.00632964 -0.008957057 -0.5549243 -0.058860358
reutiliser 0.24864301 0.21641363 0.64634264 -0.59687674 0.24769726 -0.67100006 -0.65458196 -0.20756087 0.19851287 -0.94086176 -0.1886365 0.06937549 -0.21150106 -0.46744663 -0.3282189
autoroute 0.2194524 0.20616543 0.85639584 -0.55041724 0.6761214 -0.69262 -0.7443469 -0.087484054 0.32057017 -0.5701773 -0.12607068 -0.011090366 0.024848487 -0.4664825 0.101617545
mise 0.28571337 0.29907933 0.766731 -0.6171604 0.3394513 -0.5882813 -0.6626531 -0.17320482 0.23136961 -0.96199656 -0.20454666 0.078544945 -0.05121293 -0.40503117 -0.29424727
photovoltaique 0.42928094 0.117677845 0.7952302 -0.72185427 0.56292564 -0.58577627 -0.7306673 -0.009624838 0.54364014 -0.86058867 -0.024877388 0.13759087 0.3805711 -0.4047604 0.091859914
aerien 0.24824154 0.27608556 0.75403595 -0.4539747 0.5761629 -0.7161798 -0.7373993 -0.17803597 0.22305204 -0.55203557 -0.099327825 -0.017612591 -0.14716724 -0.51870376 0.05109314
multiplier 0.2421874 0.18487446 0.7382438 -0.5893762 0.55825746 -0.5849037 -0.7074968 -0.062219743 0.2609511 -0.7370375 -0.08906617 -0.010253182 0.0566336 -0.4185187 -0.017230267
fermer 0.25038671 0.16375919 0.70974165 -0.5517272 0.47449335 -0.6306749 -0.7599115 -0.059721395 0.21415694 -0.7079388 -0.03275583 0.026043491 0.06824334 -0.42617244 -0.0011915222
plante 0.19973686 -0.005655205 0.75063574 -0.5846633 0.58986694 -0.7254946 -0.66564906 -0.10656111 0.25772157 -0.64623076 -0.14933206 -0.056401223 1.0600488e-05 -0.5192047 0.03003822
vegetaliser 0.2995978 0.0446195 0.8319839 -0.6110862 0.6758169 -0.6378236 -0.7619658 -0.002653831 0.33412912 -0.60280746 -0.08929237 0.011205096 0.19998667 -0.41078895 0.08548991
impot 0.26065803 0.22971644 0.7221649 -0.5203602 0.56930774 -0.6254173 -0.72177017 0.0012902403 0.28255054 -0.6472923 -0.035714034 -0.057401877 -0.040449828 -0.54585344 0.026230011
essence 0.2259241 0.24557616 0.8213235 -0.50699425 0.61000293 -0.6967889 -0.7624796 -0.12341165 0.2690654 -0.57287526 -0.10918878 -0.020078637 -0.022282448 -0.5476835 0.0066578086
peche 0.30811244 0.26195723 0.68827057 -0.50293833 0.4104803 -0.69318616 -0.72184753 -0.036902804 0.18222651 -0.7128131 -0.0007803209 -0.06959562 -0.11094109 -0.57691383 -0.083288945
mauvais 0.29479054 0.3072729 0.75912905 -0.50182587 0.5728714 -0.73544234 -0.737547 -0.015323767 0.22686473 -0.6950951 -0.059314877 -0.14546481 -0.118415676 -0.63193506 -0.01604277
gestion 0.20924723 0.16935103 0.72530174 -0.63089323 0.49488607 -0.67849773 -0.71674854 -0.014016028 0.28119573 -0.7772893 -0.12077704 -0.08778771 0.0295554 -0.48114568 -0.06688281
habitant 0.24875586 0.18889733 0.80430144 -0.5676076 0.68627566 -0.7113381 -0.74013895 -0.007914804 0.33394638 -0.5986249 -0.022240188 -0.08750293 0.047735475 -0.5124773 0.10881928
international 0.26280668 0.23508446 0.7518367 -0.5001603 0.58528924 -0.7082587 -0.6975991 -0.005198526 0.249109 -0.635106 -0.10194738 -0.09614229 -0.08792728 -0.49838257 0.05357847
ocean 0.2457315 0.19340202 0.6887237 -0.57812387 0.4544298 -0.6350368 -0.6924749 -0.10945103 0.22902972 -0.7616057 -0.15871614 0.0077226325 -0.063099615 -0.4687242 -0.048837967
mail 0.24490477 0.2296568 0.6919688 -0.5282641 0.4226118 -0.6663672 -0.7516724 -0.10410002 0.20169216 -0.7156024 -0.07863882 -0.0668893 -0.050367106 -0.5251593 -0.07085112
enjeu 0.2607898 0.22713357 0.8187356 -0.55710614 0.69541025 -0.68803024 -0.7460324 0.118839815 0.24733056 -0.58727545 0.014492737 -0.18778367 -0.06465373 -0.61739194 0.11472968
vouloir 0.28427222 0.17153573 0.7489512 -0.45687598 0.52514106 -0.6965496 -0.68410015 -0.0011076205 0.23878421 -0.71155953 -0.018086797 -0.044054795 -0.08848293 -0.60041684 -0.02633825
nucleair 0.30694923 0.21426632 0.7695418 -0.53953725 0.608433 -0.55811614 -0.74355984 0.008515302 0.3599534 -0.6841727 -0.07909175 0.018745964 0.079568245 -0.5517464 0.050392024
professionnel 0.32439196 0.2616772 0.74143356 -0.5043373 0.5883645 -0.7408769 -0.80041593 -0.10793288 0.30062944 -0.59358233 -0.07453847 -0.060867075 -0.07540996 -0.55329853 -0.024909003
finir 0.25102723 0.27193362 0.67355865 -0.5584558 0.38039035 -0.6317488 -0.68148816 -0.13299936 0.19379617 -0.86677897 -0.119160414 0.018664384 -0.0828126 -0.4783834 -0.21394396
routier 0.27823943 0.27572215 0.8136971 -0.48977622 0.63277406 -0.7567391 -0.7672465 -0.21871074 0.27934286 -0.54881966 -0.15506943 0.02870087 -0.097990185 -0.44048318 0.017197708
composteur 0.24678229 0.1474514 0.7294575 -0.5920241 0.46939772 -0.67880416 -0.6822276 -0.19268334 0.22271901 -0.78278834 -0.15367156 0.011137715 -0.015525147 -0.39649007 -0.1413895
uniquement 0.2320187 0.25318113 0.708918 -0.5551853 0.31637204 -0.7326417 -0.671265 -0.19355433 0.20276703 -0.9001451 -0.18679677 0.043516666 -0.17832208 -0.5850659 -0.22844777
permaculture 0.24122104 0.15818155 0.7792283 -0.5846213 0.598766 -0.699103 -0.6761257 -0.050017633 0.24174018 -0.6558361 -0.013808785 -0.008336615 -0.0802157 -0.575389 -0.0124383
renovation 0.2842184 0.10373377 0.7723255 -0.64804083 0.6112654 -0.62835294 -0.81244975 0.02406152 0.29088333 -0.58989906 -0.04287817 -0.03330478 0.12750904 -0.54062384 0.10741816
ramassage 0.20672974 0.16292393 0.698175 -0.5979668 0.5729253 -0.6879536 -0.71156085 -0.03945838 0.22579956 -0.80835456 -0.06200201 -0.054749653 -0.07601271 -0.46467394 -0.0014997043
stockage 0.30569082 0.18897262 0.719642 -0.5721857 0.5002287 -0.64785653 -0.8321596 -0.0872989 0.2764596 -0.65590245 -0.10161658 0.022855587 0.0031401135 -0.5971827 -0.018221157
accessible 0.3108387 0.3025998 0.75924 -0.51309997 0.5274342 -0.7089313 -0.71841156 -0.066583574 0.2567376 -0.6448536 -0.050964773 -0.026668359 -0.12560648 -0.5866404 -0.07234432
consigner 0.24206355 0.40742508 0.521632 -0.7121113 -0.16023175 -0.71732414 -0.58643275 -0.5263544 0.11021256 -1.316045 -0.44879633 0.16056551 -0.37394387 -0.44624513 -0.6932179
surtaxer 0.30360258 0.27758643 0.66040385 -0.41988784 0.38044107 -0.6932222 -0.6333897 -0.124377534 0.23364851 -0.65161663 -0.03638711 -0.052697796 -0.13936158 -0.56069005 -0.105218455
chose 0.26989007 0.25118536 0.7088124 -0.5212975 0.32640687 -0.72234356 -0.6939843 -0.07337627 0.21127829 -0.87469494 -0.09607945 -0.07729738 -0.1895077 -0.6185205 -0.16533446
rural 0.25349692 0.08973295 0.788568 -0.61337376 0.7228709 -0.7321746 -0.78409815 -0.094175495 0.39543188 -0.51449245 -0.052618578 -0.06545915 0.087511055 -0.45829415 0.14430234
fort 0.26933914 0.30513033 0.7240245 -0.5144898 0.42995015 -0.65677667 -0.7071765 -0.07536216 0.2278331 -0.76872915 -0.06450931 -0.043136097 -0.109993234 -0.54637957 -0.09336751
subvention 0.23191264 0.21445282 0.7406339 -0.5233038 0.5081625 -0.6530726 -0.75451887 -0.011311106 0.21958113 -0.67778397 -0.019267015 -0.02499952 -0.053982213 -0.60895765 -0.041762155
croisiere 0.33537212 0.3113698 0.7364138 -0.47356296 0.5074524 -0.6861434 -0.7697553 -0.09805042 0.2490206 -0.6249944 -0.104218304 -0.019773308 -0.08538086 -0.49924904 0.023626663
reparer 0.29090145 0.23688471 0.7033091 -0.5361471 0.46357575 -0.69706225 -0.6883704 -0.10508456 0.19868004 -0.81591606 -0.09157543 -0.053892646 -0.13414755 -0.5152244 -0.11222975
travailler 0.28560022 0.24545333 0.72488016 -0.5099631 0.5467281 -0.7014965 -0.68113995 -0.05551019 0.2666441 -0.7364457 -0.022157801 -0.061792668 -0.033941433 -0.56192404 -0.044110388
charge 0.26592585 0.27030155 0.79670304 -0.5438105 0.57432187 -0.64424604 -0.7698951 -0.008766331 0.25111693 -0.6557897 -0.044150535 -0.068288945 -0.002800499 -0.5499559 -0.060032066
foyer 0.29698053 0.20175895 0.743718 -0.5213254 0.49885207 -0.6466865 -0.727165 -0.06268457 0.30094963 -0.75978595 -0.07153067 0.040422816 -0.05994584 -0.5809259 -0.051844243
controle 0.25996673 0.20111243 0.7217077 -0.52407247 0.564151 -0.6459846 -0.7575669 -0.048639473 0.24529476 -0.7494912 -0.09643143 -0.018104114 -0.0034151033 -0.5122509 -0.07890039
croissance 0.25771534 0.20032352 0.70240366 -0.5241417 0.48330975 -0.67141247 -0.6475745 -0.051264662 0.28036287 -0.6563664 -0.05755432 -0.078680046 -0.07062452 -0.56210506 -0.012826002
vaisselle 0.25632146 0.22798035 0.61395884 -0.5493187 0.13346031 -0.60154426 -0.66853017 -0.24158254 0.2180912 -0.8781135 -0.18971072 0.020778723 -0.21597764 -0.5086304 -0.31313887
ancien 0.35111538 0.1398944 0.72125834 -0.5906522 0.4934334 -0.6699268 -0.69772774 -0.04305186 0.31303075 -0.67803735 -0.030824069 -0.0086181965 -0.053123463 -0.45055324 -0.076517634
distance 0.29550165 0.28389758 0.77427155 -0.52737796 0.58600384 -0.72502726 -0.72406566 -0.1315244 0.30792862 -0.62630665 -0.1385397 0.015535724 -0.12357378 -0.52717704 -0.03905631
systematiquement 0.22061889 0.13326588 0.7456431 -0.558886 0.5479694 -0.6287149 -0.71504563 -0.04374382 0.23857911 -0.6478978 -0.093727805 -0.035007548 -0.045904282 -0.50076103 -0.06484372
vivant 0.2529569 0.21955049 0.73550266 -0.48716262 0.5919376 -0.70775414 -0.72809273 0.023170609 0.26215765 -0.644524 -0.027880726 -0.09714713 -0.08376788 -0.6024762 0.088228546
plantation 0.1472 0.025190884 0.85587186 -0.66970676 0.6572324 -0.70928717 -0.61608684 -0.14242777 0.2955629 -0.67204434 -0.24352762 0.005743247 0.12042854 -0.49696818 0.0880552
geste 0.3122509 0.25905964 0.74167144 -0.5419395 0.57020247 -0.74904215 -0.68921393 0.019045902 0.19894032 -0.76464623 0.032764714 -0.121598296 -0.10785779 -0.62255514 0.020147974
obligation 0.20580341 0.18401325 0.68396205 -0.61820525 0.5056156 -0.6725958 -0.736524 -0.10806848 0.24200566 -0.71919984 -0.11914217 -0.038826045 -0.0018957168 -0.47574174 -0.09131392
lourdement 0.2657791 0.25698683 0.7096014 -0.4051534 0.51470953 -0.6068169 -0.66453093 -0.021666912 0.30009067 -0.709636 -0.06762911 -0.120542355 -0.11096464 -0.6175553 -0.028721163
riviere 0.27315426 0.15884194 0.75731444 -0.6317763 0.5422466 -0.7241198 -0.72903883 -0.05170941 0.2598628 -0.66742814 -0.13394472 0.018235607 -0.008351471 -0.50590867 -0.013891881
robinet 0.26573843 0.17964351 0.6320015 -0.7289164 0.104812995 -0.6650195 -0.69221157 -0.3722118 0.2130098 -0.89579624 -0.21456988 0.16593088 -0.21706904 -0.50436705 -0.41885152
isolation 0.32548207 0.13568996 0.7726292 -0.5491161 0.57474697 -0.65462744 -0.7411904 0.06378184 0.35831395 -0.6389919 0.0380339 -0.047141593 0.08222034 -0.5474289 0.12678123
engager 0.23068067 0.16051692 0.68095845 -0.53644043 0.60362655 -0.66047347 -0.66998315 0.0493596 0.26786205 -0.6711371 -0.004983638 -0.08579833 -0.04607368 -0.53995633 0.023262361
demander 0.24692833 0.17313758 0.69158345 -0.5469564 0.43012893 -0.619529 -0.67913026 -0.072712824 0.2332585 -0.69499576 -0.118698366 -0.026640924 -0.025095148 -0.48736295 -0.07173336
annee 0.26150602 0.21764758 0.70199996 -0.53738016 0.5431176 -0.6571103 -0.7052575 -0.039546218 0.21930963 -0.66067976 -0.04203431 -0.055854138 -0.057782877 -0.5320858 0.022154342
quota 0.22337767 0.28144494 0.75917524 -0.5249231 0.5964098 -0.6374724 -0.69564337 -0.01117922 0.27744257 -0.6934704 -0.12436962 -0.053665992 -0.015969468 -0.5216996 -0.01598887
batterie 0.27838105 0.2844017 0.8355971 -0.57258284 0.5057758 -0.65182984 -0.82225776 -0.087142915 0.34943184 -0.6301252 -0.029407876 0.0026137056 -0.00358623 -0.6043138 -0.002643738
eolienne 0.34777036 0.13896993 0.76882446 -0.594944 0.5713614 -0.55429065 -0.7398439 0.024805674 0.4110939 -0.6888984 0.017471097 0.026554756 0.20509933 -0.5201596 0.07248177
pari 0.24762177 0.2090264 0.7931099 -0.54203033 0.5626521 -0.6684646 -0.76278365 -0.13087662 0.22460629 -0.6290816 -0.08862542 -0.061816588 -0.05640767 -0.49917138 -0.05176991
auto 0.28936735 0.23982164 0.7753509 -0.55951047 0.5761604 -0.6739928 -0.70512825 -0.115730554 0.27646375 -0.6128012 -0.10480884 -0.00620942 -0.00048091944 -0.5240289 -0.015528504
hiver 0.29238853 0.16623591 0.71127295 -0.57360107 0.49485296 -0.66159636 -0.6678748 -0.049104027 0.23233676 -0.71289426 -0.08668969 -0.020353675 -0.07414442 -0.49439043 -0.08793163
emballe 0.40796226 0.3753764 0.61336625 -0.35475785 0.092456855 -0.7809973 -0.6265703 -0.17144959 0.12635957 -0.94055676 -0.05156423 -0.063925914 -0.4350015 -0.69746554 -0.45251495
probleme 0.32522398 0.20171466 0.74431926 -0.5163295 0.6356497 -0.6566791 -0.65794116 0.081730604 0.2909283 -0.6996503 -0.0017837585 -0.092318155 -0.065192424 -0.58626103 0.069981724
sortie 0.23935585 0.14851183 0.731516 -0.5960622 0.59471464 -0.6562199 -0.7001584 -0.043875616 0.25940788 -0.7111443 -0.051165935 -0.026271848 -0.051596742 -0.49666658 0.002048256
potager 0.26364905 0.14342321 0.76328206 -0.5651949 0.63848835 -0.72550434 -0.6795 -0.0299028 0.2906844 -0.65420306 -0.04411429 -0.057441078 -0.02441581 -0.4853361 0.05369545
circulation 0.25492555 0.2126119 0.7733248 -0.5730389 0.45116743 -0.6534994 -0.7826358 -0.29936296 0.27631527 -0.6808397 -0.2208006 0.04689685 -0.08110574 -0.39878693 -0.10106939
vegetal 0.23391482 0.23792642 0.6980152 -0.5762503 0.42539087 -0.6511604 -0.67824894 -0.117684804 0.2669641 -0.8213917 -0.11881421 -0.012050801 -0.093555644 -0.52654123 -0.13068645
main 0.30618346 0.22197218 0.71019906 -0.5926683 0.39730448 -0.70225924 -0.6873241 -0.11529 0.2673582 -0.7314881 -0.11375177 0.009019407 -0.11132559 -0.5047934 -0.15332761
modele 0.24857125 0.24765824 0.7263955 -0.5258605 0.51834834 -0.708979 -0.70930916 -0.05822546 0.23280834 -0.72969526 -0.09568007 -0.036803495 -0.11977467 -0.5425724 -0.07380761
financier 0.30150443 0.23521477 0.67417675 -0.4716103 0.4667192 -0.67244697 -0.691541 -0.013123764 0.22890688 -0.7377778 -0.04420291 -0.07036183 -0.07510922 -0.5361222 -0.112230174
financierement 0.25023913 0.253128 0.73964375 -0.47346923 0.61306083 -0.65669173 -0.68334985 0.020602517 0.25708273 -0.70488435 -0.06319668 -0.05959034 -0.043243177 -0.60872495 -0.06316981
repas 0.31941321 0.26625028 0.71806127 -0.50013083 0.37622625 -0.6846968 -0.68667024 -0.16433269 0.19021875 -0.8184224 -0.087716974 -0.015466718 -0.18785797 -0.60333055 -0.24491917
poisson 0.5081384 0.2760116 0.63785446 -0.2982499 0.3463363 -0.89793736 -0.63499296 -0.043650407 0.20096003 -0.82736003 0.018776013 -0.047577936 -0.30468056 -0.7247964 -0.2506454
part 0.25288478 0.28815836 0.6494639 -0.56577766 0.3910586 -0.66575867 -0.69154507 -0.10693113 0.22609212 -0.8640481 -0.16542567 -0.01305621 -0.11095345 -0.51847976 -0.19263102
simple 0.2876344 0.3038183 0.7281892 -0.5149949 0.42164665 -0.6791839 -0.682754 -0.0875212 0.21752341 -0.785534 -0.11616613 -0.076679416 -0.1279278 -0.59907997 -0.099172965
repenser 0.2446613 0.24595043 0.7248188 -0.507536 0.5015015 -0.63509697 -0.68579555 -0.060046647 0.22728789 -0.708393 -0.066892415 -0.021446083 -0.033580594 -0.51160175 -0.04913606
taille 0.2745873 0.24390604 0.73378223 -0.50612533 0.45444435 -0.6725359 -0.71665674 -0.13381201 0.22805773 -0.77498287 -0.07447256 -0.059728447 -0.0958484 -0.5026838 -0.06448773
bord 0.156301 0.046870913 0.7520458 -0.6336676 0.58892536 -0.6727596 -0.7094849 -0.14431988 0.3017516 -0.706412 -0.25049105 0.0095908055 0.027597263 -0.4633581 0.02925688
cause 0.30967373 0.19476268 0.736821 -0.55068785 0.5995662 -0.6979777 -0.6987168 0.05855782 0.21700571 -0.67484295 -0.03381396 -0.07160254 -0.105614886 -0.5702323 0.042321377
dechetterie 0.21954829 0.22421354 0.679865 -0.54167646 0.42946613 -0.66475827 -0.66867673 -0.09561238 0.20717604 -0.811525 -0.112574674 -0.05463469 -0.048384644 -0.4405091 -0.09905656
pub 0.24226423 0.25744706 0.681882 -0.5258172 0.3596922 -0.66264945 -0.69104385 -0.08347903 0.16451494 -0.7994036 -0.125977 -0.033700578 -0.0843915 -0.4538826 -0.076315716
effort 0.30763656 0.20769939 0.72105783 -0.48509708 0.58992875 -0.6464716 -0.654416 -0.053561304 0.25625396 -0.7066274 -0.045008834 -0.078666374 -0.05714611 -0.5404152 0.019537246
ferroutage 0.2676063 0.21836865 0.7307992 -0.5029545 0.5397283 -0.62658626 -0.68764555 -0.17893358 0.2079192 -0.61545503 -0.15322176 0.038986675 -0.043719612 -0.40905225 -0.02908938
compte 0.30182475 0.31277362 0.8002394 -0.52396554 0.6163014 -0.70837104 -0.76431304 0.043359037 0.2902533 -0.6247584 -0.020257222 -0.13578275 -0.106132954 -0.62841374 0.03744188
cigarette 0.1784471 0.20706879 0.6660936 -0.59172416 0.27673617 -0.6631562 -0.716927 -0.25693196 0.18570529 -0.96496147 -0.20056662 -0.015878541 -0.20895489 -0.429444 -0.2139129
fiscal 0.24604647 0.19948319 0.76286274 -0.50446296 0.5963085 -0.67558026 -0.6987637 -0.009085061 0.23167124 -0.64697874 -0.040095013 -0.052647103 -0.025522208 -0.5856544 0.00822888
scientifique 0.27433252 0.21556148 0.7215455 -0.5766465 0.5510391 -0.65502906 -0.7045297 0.056704067 0.28138164 -0.6849236 -0.05897446 -0.053613618 0.010103566 -0.5342957 0.029490663
autoriser 0.25792545 0.26418686 0.69304943 -0.54064137 0.3987135 -0.6662561 -0.6777608 -0.117978975 0.26249856 -0.73082805 -0.10662177 -0.040000614 -0.1257202 -0.55599445 -0.12128119
medicament 0.23674339 0.26627344 0.66883194 -0.52511543 0.34110138 -0.70322514 -0.6420637 -0.19661583 0.15395716 -0.8230921 -0.15484858 -0.051953577 -0.18592569 -0.52835107 -0.26113975
revenu 0.24111146 0.24739864 0.76701254 -0.5506678 0.5569219 -0.6582186 -0.7248238 -0.051652763 0.2714982 -0.691728 -0.06272878 -0.0593717 -0.03931313 -0.5220748 -0.012334026
equiper 0.2793383 0.12303049 0.770376 -0.65263873 0.56124294 -0.57563937 -0.7663302 -0.013403276 0.38463786 -0.657563 -0.0137883 0.0056716125 0.18842994 -0.4678354 0.07671685
avoir 0.25553286 0.18300234 0.7337722 -0.60971177 0.5076444 -0.63774526 -0.69777036 -0.024031326 0.2700314 -0.74621695 -0.07267847 -0.020701334 0.0057097436 -0.5271023 -0.048299693
primaire 0.22294275 0.17560783 0.74192446 -0.6500166 0.70767194 -0.6545587 -0.681157 0.11061745 0.2506369 -0.67459095 -0.016695214 -0.14643204 -0.044749614 -0.52573305 0.13631082
interet 0.30498594 0.18373522 0.74105287 -0.5856484 0.56715536 -0.65979767 -0.7658577 0.011888645 0.2724073 -0.6390689 -0.036345445 -0.035036582 0.016135925 -0.5428304 0.032555733
client 0.2964842 0.22035567 0.6525148 -0.5665672 0.39371634 -0.6426143 -0.6412076 -0.1184058 0.19118242 -0.88936555 -0.1305003 0.02365627 -0.16098543 -0.49996486 -0.23003288
existe 0.23808286 0.24422905 0.74345607 -0.5405093 0.4440815 -0.670335 -0.6872603 -0.13186099 0.25722873 -0.745513 -0.0826632 -0.060041945 -0.13752474 -0.5200349 -0.09477483
financiere 0.2554531 0.23558933 0.7061038 -0.55045336 0.53920984 -0.6004312 -0.72499543 0.05566207 0.2736407 -0.7221342 -0.03729802 -0.03481323 -0.023840569 -0.6045235 -0.036348056
couper 0.20220594 0.071771085 0.7710545 -0.5913264 0.5439859 -0.68992656 -0.6741079 -0.060207486 0.2757476 -0.5936463 -0.074336216 -0.019565018 0.09576034 -0.4664653 0.096473515
controler 0.24855033 0.19637437 0.7113857 -0.49423933 0.48613003 -0.65510607 -0.6842562 -0.04721096 0.23010637 -0.64486086 -0.08537798 -0.0143560795 -0.03666479 -0.47381827 -0.008298908
croire 0.27787885 0.22961111 0.67677987 -0.4612989 0.4718748 -0.58008814 -0.6484288 -0.0060481336 0.22056824 -0.6516116 -0.06564629 -0.10307012 -0.12269926 -0.59340036 -0.069837786
enseigner 0.21866514 0.16084357 0.6741569 -0.527173 0.5339959 -0.6098806 -0.57985437 0.036067776 0.25390086 -0.6200771 -0.031471185 -0.08704679 -0.040967237 -0.52470225 0.06457849
