7231 15
produit 0.2503056 1.2397399 0.6087845 -0.3813926 0.31328824 -0.98840004 -0.7703895 0.05233879 -0.4469266 -0.8638111 -0.09693783 0.12149593 -0.75841326 -1.0633672 -0.67644244
interdire 0.27224982 0.6360734 0.38677412 -0.72146595 -0.3604125 -0.95191014 -1.1009108 0.03062002 -0.13951388 -0.70166653 -0.37266082 -0.055516444 0.4148066 -0.37980902 -0.19108708
arreter 0.51415974 0.036724173 0.2839654 -0.686175 -0.059003618 -0.98096585 -0.7230612 0.16195145 0.08689599 -0.83118886 0.06547784 -0.1268403 -0.085724145 -0.8137039 -0.50270766
plastique 0.24450262 0.7996078 0.46002883 -0.7318833 -0.5629295 -0.92863566 -1.2871727 -0.42819893 0.103693545 -1.7280743 -0.3098985 -0.1755211 -0.56554246 -0.60786504 -1.3501452
faire 0.19222255 0.20375127 0.32339385 -0.51738864 0.72946936 -0.7923173 -0.46001077 0.18826987 0.120737724 -0.9743958 0.019395212 -0.080895916 0.013385523 -0.45183498 -0.28702852
dechet -0.3904638 0.4584018 0.29935202 -0.26983082 0.7177296 -0.31699497 -0.67630994 0.12573586 0.36261907 -2.1553082 0.094205216 -0.040650263 -0.3696965 -0.19069688 -0.41708988
eau 0.07209891 -0.9342323 0.15805879 -1.2168946 -0.4225786 -0.6854047 -1.6570836 -0.22513561 0.7371191 -0.713314 0.08452339 -0.24227461 0.083808035 -0.62979096 -1.0435419
mettre -0.17390053 0.44509202 0.8694648 -0.63369006 0.82152724 -0.17049038 -0.3818836 -0.055428267 0.65867066 -1.4429058 -0.4774352 0.17081341 -0.029832622 0.15920274 -0.7194593
emballage 0.4560969 1.0913646 0.4212087 -0.49149704 -0.41541258 -0.8223828 -1.2282779 -0.52699697 -0.1969648 -1.725296 -0.530694 0.12734088 -0.44871444 -0.78672343 -0.8986599
ville 0.034043472 -0.58361965 1.1544396 -0.7778567 1.2032082 -0.70447206 -1.0516793 -0.32207233 0.5316225 -0.48185205 -0.36611757 0.18470626 0.5807043 0.52265036 -0.10178812
entreprise 0.046413966 0.9875718 0.6442098 -0.17297642 0.6111115 -0.06223121 -0.94408923 0.17824279 0.0690816 -1.1172391 -0.40791917 -0.23087077 0.24562037 -0.39819714 -0.45806104
developper 0.43561357 -0.03975244 0.8510091 -0.50197625 0.9405562 -0.43716568 -1.1371801 -0.6538537 0.40446895 -0.08757352 -0.36517423 0.41814753 -0.018912854 -0.57124674 -0.3485739
consommation 0.43599325 0.8446721 0.38202572 -0.17171283 0.3510481 -1.0533494 -0.9677589 0.06898281 -0.16088627 -0.4462953 -0.05980185 -0.019644668 -0.1720188 -1.2493737 0.031345215
energie 0.615732 0.45418465 1.1504802 -0.24611162 0.22188792 0.188416 -1.4536037 0.028526286 0.91760814 -0.33900478 0.44244134 0.02360916 0.36589262 -1.6076682 0.30484256
grand 0.7796627 0.77111304 0.77695465 -0.4426066 0.5716285 -0.81492853 -0.6698002 0.07276935 -0.07142228 -0.99407965 0.0436655 0.52197075 0.5975516 0.26846224 -0.51835126
limiter 0.50668335 0.55610394 0.6952342 -0.2866918 0.41064367 -1.0029632 -1.0989739 -0.6288039 -0.13715222 -0.33972174 -0.51154995 0.16293648 -0.0066586314 -0.3921746 -0.28835294
favoriser 0.5596141 0.19027522 0.6094654 -0.47346893 0.6392471 -1.0307982 -0.9178004 -0.49676055 0.17945337 -0.13687652 -0.329433 0.44585168 -0.1158209 -0.5296898 -0.28536087
creer -0.040664893 -0.027374297 0.61057806 -0.58265847 0.8452869 -0.45024708 -0.72615176 0.24886993 0.46959254 -0.58318025 -0.27527872 -0.21276776 0.041343287 -0.3744429 -0.059814353
reduire 0.43346626 0.80241054 0.5480809 -0.21391635 0.50230134 -0.91226465 -1.0626507 -0.497311 -0.21965423 -0.44390664 -0.4620359 0.11227945 -0.015772166 -0.6539875 -0.25436074
local 0.7849773 0.5375995 0.51766443 -0.36226347 0.6310285 -1.4875721 -0.6866692 0.26741984 -0.20092785 -0.5398453 0.53450125 0.5419525 -0.533244 -0.99008185 -0.42903194
environnement -0.069294564 0.6892568 0.34192222 -0.47760296 1.2191745 -0.7113165 -0.3578652 0.7520764 0.15532273 -0.8695483 0.035335917 -0.56283355 -0.22656919 -0.7866277 0.31080616
voiture 0.5037628 0.24757558 1.1791048 -0.4537984 1.0418518 -0.3372343 -1.4536257 -0.79598314 0.2990135 0.029036932 -0.4497682 0.09476373 0.10035171 -0.1484185 -0.6196318
utiliser 0.6169018 0.15880802 0.5521282 -0.63833356 -0.10428747 -0.4726851 -1.2031968 -0.35127878 0.38096732 -0.6701125 -0.3131162 0.1757407 0.069702305 -0.65923 -0.8996699
non 0.36882225 0.7823866 0.5092532 -0.38737062 -0.16513206 -0.46819556 -1.0549473 5.5295153e-05 0.058623962 -0.95891535 -0.38987735 -0.030085025 0.00065406464 -0.91997564 -0.3414199
transport 0.4347701 0.5727723 1.1839322 -0.29808128 1.3076894 -0.82515824 -1.1738516 -0.9089253 0.12320276 0.35165256 -0.62069774 0.060951352 -0.56620604 -0.5889803 -0.42448488
taxer 0.582677 1.262906 0.5771782 -0.068073034 0.6541339 -0.60328496 -0.9182717 -0.38512847 -0.03918422 -0.47789046 -0.5743897 -0.13849385 -0.35450077 -1.0235668 -0.51553303
place 0.011204254 -0.22081743 0.6305173 -0.84914166 1.0574166 -0.15820612 -0.39665577 -0.6510678 0.53410465 -1.4618899 -0.836133 0.099110045 -0.22121096 -0.0051793507 -0.82722753
bouteille 0.39376023 -0.029953534 0.31462854 -1.5110177 -0.5848754 -1.2726415 -1.2705817 -0.9325562 0.6021514 -2.1383526 -0.77686954 0.25720122 -0.36644697 -0.38971487 -1.6374017
obliger 0.2810906 0.5748972 0.46532553 -0.5139956 0.09589897 -0.41560978 -1.0210822 0.16047911 0.102908775 -1.1553059 -0.3211727 0.122271486 0.61697716 -0.23696147 -0.47927967
supprimer 0.4415591 0.7697371 0.4150973 -0.5501502 -0.26374742 -0.8493197 -1.111154 -0.462666 -0.07092218 -1.0087377 -0.5692032 0.15214112 0.20255515 -0.5453844 -0.7307104
consommer 0.8873792 0.74144566 0.4687055 -0.3034153 0.46945477 -1.3226321 -0.5466159 0.28801778 -0.023449052 -0.6831582 0.6571639 0.090310514 -0.5009169 -1.3092964 -0.29710278
public -0.068592876 0.35543934 1.0051156 -0.7179702 0.58709276 -0.6015432 -1.1123359 0.49347192 0.4977841 -0.6592116 0.16521679 -0.033806093 0.8220779 0.24202685 0.4710273
vehicule 0.31419274 0.5685474 1.2552226 -0.3880252 0.7842319 0.00034468333 -1.6874992 -0.59005064 0.25692928 0.13536045 -0.4052649 0.25232992 0.2546246 -0.7180329 -0.562725
bio 0.6989246 0.56692016 0.4397139 -0.6557615 0.34111515 -1.3660496 -0.40072533 0.271109 -0.15498485 -0.7601326 0.3501345 0.47584748 -0.5581016 -1.1624409 -0.49679706
arbre -0.5036784 -1.2520789 0.7066833 -0.9604554 1.1703969 -1.1902354 -0.7142328 0.22248587 0.2196929 -0.6547981 -0.834382 -0.5183239 0.5329914 -0.15589122 0.3210367
acheter 0.57354015 0.45167595 0.21851932 -0.7031417 -0.029841874 -1.5156734 -0.70712173 -0.15815485 0.103034675 -0.91112924 0.33071914 0.1800929 -0.5776448 -0.87071884 -1.3421059
proposer 0.49635556 0.5854911 0.30422515 -0.47605053 0.5258558 -0.6161488 -0.7390847 0.0018414776 0.04818798 -0.9734308 -0.04944763 0.16186038 -0.082811855 -0.48874545 -0.7648251
verre 0.13096994 0.31843042 0.2694573 -1.2671739 -0.45896214 -1.0999353 -1.3476936 -0.8615389 0.312741 -2.3590508 -0.90671617 0.24544784 -0.23063633 -0.3528127 -1.5636495
imposer 0.08439253 0.61049676 0.5600668 -0.49375772 0.3725218 -0.280306 -1.0321636 0.030550987 0.20191574 -0.8910428 -0.37221447 0.044940546 0.3879864 -0.40121657 -0.07491701
carbone 0.20109016 1.5542992 0.6984193 -0.37976605 1.4414895 -0.08847653 -0.8430701 0.27269614 -0.10451084 -0.2946191 -0.40935192 -0.28659394 -0.28382754 -0.8926526 -0.24595554
transport_commun 0.40954283 -0.010555307 1.2709574 -0.73166806 1.4963051 -0.53999794 -1.4996948 -0.97800165 0.55724335 0.39449054 -0.5350036 0.20648596 0.19453439 0.015566358 -0.6787582
production 0.7307126 0.7212394 0.7354498 -0.30515185 0.20925894 -0.61542493 -1.066392 -0.19593464 -0.024911616 -0.35018352 -0.019101564 0.20632975 -0.21951246 -1.3611511 -0.21296383
être 0.28626144 0.6494751 0.64870244 -0.4399771 0.51156265 -0.33392212 -0.8154738 -0.00097448815 0.19255456 -0.9384557 -0.050714757 -0.001158497 0.118312694 -0.33130476 -0.15853967
inciter 0.44302085 0.50803906 0.48693383 -0.29539067 0.69481665 -0.57907504 -0.71297395 -0.090952985 0.16371952 -0.85465604 0.06114905 0.17267324 0.06707365 -0.5142713 -0.36490405
industriel 0.46139216 0.72466075 0.5419812 -0.46830824 -0.06353346 -0.49917495 -0.59096456 0.11680156 0.016037323 -1.3529176 -0.08729561 -0.030804554 0.18658346 -1.0225874 -0.29802766
prendre 0.53996706 0.37065473 0.88453203 -0.29567447 1.0517318 -0.7997219 -0.77858967 -0.14755894 0.080769 -0.09128697 -0.17532928 -0.46997878 -0.13961957 -0.49130237 -0.20105834
animal 0.079670526 0.25512144 0.40926915 -0.5873165 0.48696706 -1.2511394 -0.4579412 0.11512431 -0.17497125 -0.55524457 -0.030376451 -0.2820887 -0.3871999 -0.92654413 0.23163807
taxe 0.06546981 1.3773488 0.86024314 -0.13649605 0.9597057 -0.13280712 -0.7407253 -0.08258594 -0.021752011 -0.7615459 -0.6508454 -0.1573635 -0.3184939 -1.0268571 -0.34313235
utilisation 0.51938796 0.17071661 0.7016143 -0.7319546 -0.19997528 -0.52241254 -1.4420233 -0.7928226 0.106111035 -0.47139406 -0.53955644 0.071208134 -0.023965918 -0.69200116 -0.59962887
produire 0.4195835 0.46137872 0.5851534 -0.34825268 0.070740744 -0.32195652 -0.9987854 -0.04653426 0.26015523 -0.8956141 0.13378412 0.24195896 0.016346408 -1.1831996 -0.41212353
impact 0.032990612 1.2001185 0.8645507 -0.22053762 1.2907842 -0.5399752 -0.7065659 0.6458473 -0.29974094 -0.4092251 -0.24404904 -0.66904175 -0.5184071 -0.8888077 0.15656535
agriculture 0.37239492 -0.263075 0.45296183 -0.8121221 0.7095708 -1.3464876 -0.47232336 0.4470049 -0.08634367 -0.20350075 0.44744962 0.3962665 -0.45731407 -1.5412164 -0.010661025
pollution 0.15279156 0.61617297 0.65895164 -0.39534193 0.63243467 -0.6255182 -0.9638491 0.002454052 0.020822102 -0.3715564 -0.15306301 -0.12452914 0.15769139 -0.5940979 0.08981283
pouvoir 0.19842066 0.31706798 0.5181084 -0.54464 0.6028655 -0.58854616 -0.6782849 0.22455566 0.28322244 -0.79508454 0.019637927 -0.04034378 0.007585755 -0.28253925 -0.44680145
polluant 0.37829006 1.0439867 0.8642189 -0.25642085 0.50509745 -0.21078505 -1.1701257 -0.45821762 0.015725924 -0.4352005 -0.639161 -0.07676298 -0.06734813 -1.0012212 -0.5245335
petit 0.5164119 -0.030686269 0.7402637 -0.55859995 0.80319756 -1.1548462 -0.7657852 -0.29499137 0.056040738 -0.29117844 0.14954376 0.48063585 -0.043339238 -0.27154475 -0.25598025
enfant -0.035099603 0.37237644 0.17788662 -0.73629165 1.1558405 -0.96167666 -0.19951482 0.692983 0.030188428 -1.3779541 0.43336272 -0.53232616 -0.43063992 -0.70741004 0.5581791
environnemental -0.04193528 0.98283774 0.54872656 -0.4052754 1.2965251 -0.47432607 -0.5801852 0.68027294 -0.025625778 -0.60670143 -0.16528934 -0.6410939 -0.31066242 -0.72779524 0.2388216
eviter 0.5280459 0.15373713 0.4597546 -0.41122764 0.3490053 -0.9545399 -0.89771175 -0.51227444 0.17652068 -0.6467532 -0.33253905 -0.042608723 -0.09971047 -0.35258135 -0.6977203
velo 0.8748903 -0.26268616 1.159623 -0.6954494 1.4903384 -0.61772823 -1.2527328 -0.7960853 0.50799865 0.26766068 -0.59444964 0.19790158 0.22041792 -0.14279526 -0.54770136
ecologiqu 0.19498359 0.8070954 0.6583071 -0.35352582 1.0532622 -0.23657447 -0.6242949 0.5022499 0.3312393 -0.60468507 0.012391201 -0.3894478 -0.18717985 -0.94007057 0.09160393
jeter -0.13372853 0.22881567 0.17695554 -0.60822374 0.43289778 -0.90995455 -0.621745 0.040171254 0.21065587 -2.232471 0.37450087 0.05365547 -0.26934826 0.21179561 -0.26916695
tri -0.6012981 0.3566774 0.2951367 -0.560758 0.70227695 -0.3114665 -0.79398525 0.10118465 0.39318046 -2.28114 -0.024431812 -0.19606608 0.09863606 0.2409338 -0.23452045
usage 0.5475195 0.5499634 0.44258112 -0.6904659 -0.30171594 -0.59986794 -1.3928019 -0.89656544 0.06860367 -0.8782782 -0.7864839 -0.18604456 -0.2581668 -0.68434054 -0.61478573
diminuer 0.19795221 0.8422113 0.77710795 -0.17426647 0.78968567 -0.9341678 -1.0304546 -0.42727953 -0.20336582 -0.15750268 -0.53205425 0.08809751 -0.020328818 -0.67791945 -0.029031206
consigne 0.16066335 0.30479184 0.35966766 -1.2699968 -0.20750642 -1.0838311 -1.0744119 -0.8293952 0.49198163 -2.109818 -0.9309966 0.1379177 -0.34004483 -0.23769894 -1.445171
zone 0.09380498 -0.6640758 0.9024465 -0.7538878 0.96896183 -0.76916784 -1.0891663 -0.0119903 0.6922459 -0.22445174 -0.124192454 -0.19175993 0.46481112 -0.012254522 0.28230903
recyclage -0.029937124 0.4745884 0.4459941 -0.50760674 0.31621337 -0.20693922 -0.82967335 -0.2030746 0.27268496 -1.566134 -0.29239422 0.018516691 -0.15615705 -0.45233443 -0.53534573
nature -0.20043215 0.048778016 0.1973055 -0.65917915 0.87201506 -0.8579338 -0.3019733 0.4679293 0.29760462 -1.4179826 0.15677172 -0.37628356 -0.09458906 -0.4200572 0.3229003
ecole -0.10225939 0.0391558 0.43899104 -0.7571173 1.3760417 -0.7495061 -0.33381733 0.75132865 0.24901828 -1.2907771 0.4748107 -0.2563891 -0.08583 -0.3919739 0.6496466
alimentaire 0.25708455 0.8144593 0.33620694 -0.37044176 0.10454069 -0.95275354 -0.7015134 -0.22705667 -0.1552818 -1.3141869 -0.21612787 -0.0013769424 -0.5612204 -0.8720663 -0.55823344
citoyen -0.05233384 0.5903066 0.3855569 -0.44991523 1.1544521 -0.45972264 -0.37210113 0.70030105 0.29909182 -1.2308402 0.18798758 -0.32412186 -0.12409741 -0.51707166 0.1099387
france 0.21868175 0.33491158 0.6182079 -0.47787157 0.71078426 -0.7841341 -0.6176042 -0.2730993 0.057694227 -0.48687732 -0.4005319 -0.10375496 -0.26961806 -0.55072176 -0.4439703
agriculteur 0.35782972 0.045898084 0.5823311 -0.6514849 0.8446625 -1.0684226 -0.32437742 0.67414254 -0.07793959 -0.46677294 0.40614918 0.25984904 -0.30091748 -1.3585505 0.04792354
remplacer 0.2895183 0.5523503 0.4525509 -0.7708332 -0.179674 -0.66459984 -1.093312 -0.4231428 0.1656059 -1.0621951 -0.6461158 0.03947963 0.1595777 -0.26606524 -0.9686859
encourager 0.5483441 0.12377823 0.6591007 -0.5224971 0.73162526 -0.7148748 -0.8043356 -0.25851205 0.2089816 -0.25378323 -0.1479552 0.1945574 -0.22290742 -0.6958439 -0.37070796
terre 0.24258657 -0.06454905 0.39417717 -0.5749981 0.6497847 -0.90604526 -0.5352042 0.32174042 0.343323 -1.2338659 0.3569655 -0.08132937 0.029013935 -0.24811956 0.2633169
exemple 0.24756774 0.41639328 0.48010933 -0.44382164 0.34820154 -0.5556951 -1.0171101 -0.119506955 0.23587362 -0.7392168 -0.23149782 -0.13221906 0.011520753 -0.31329426 -0.38273153
prix 0.43363237 0.98023975 0.8994211 -0.354063 0.80873597 -0.6438133 -0.95255184 -0.360503 -0.020310253 -0.07459357 -0.35366914 0.114575125 -0.24924947 -0.7596172 -0.54536396
lieu 0.32759354 -0.112643674 0.49477404 -0.66165936 0.68857324 -0.63044655 -0.96104926 -0.19548723 0.32066828 -0.6410243 -0.13348709 0.009315939 0.19494013 -0.06004298 -0.5061879
viande 0.62531877 0.92625546 0.24563862 -0.36668462 0.36982444 -1.7320763 -0.6306355 -0.11479696 -0.42463878 -0.71412414 0.24708474 -0.009068093 -0.8078402 -1.2216736 -0.48052037
privilegier 0.88972265 0.35601395 0.5616048 -0.570815 0.3825161 -1.3582178 -0.73614186 -0.44834757 0.089116655 -0.42449605 0.0841561 0.54729885 -0.52136487 -0.58510745 -0.76205915
permettre 0.22876081 0.14471819 0.56996375 -0.542629 0.87215245 -0.47956607 -0.8634361 -0.033672653 0.28332758 -0.4467504 -0.1430483 0.0011644673 0.03864531 -0.40874827 -0.2288206
nouveau 0.29069313 -0.46695814 0.78046143 -0.90097463 0.15976293 0.046233088 -1.4405584 0.17061265 0.80623513 -0.77341974 -0.030628255 -0.06206532 0.6314949 -0.6447467 0.14945322
avion 0.7245824 1.053381 1.0611246 -0.20695603 1.1891615 -0.8058033 -1.2041363 -0.65025854 -0.076141186 0.3203096 -0.5763815 -0.3179179 -0.32813293 -0.6964802 -0.41125077
vente 0.49190173 0.89280427 0.64705914 -0.49231997 -0.015039327 -0.87991756 -1.0325722 -0.4756713 -0.12747686 -0.7742525 -0.35159227 0.34434125 -0.23005025 -0.5179228 -0.8597688
donner 0.19695711 0.447007 0.43288848 -0.5432721 0.72144216 -0.79699636 -0.54858804 0.23308314 0.08444551 -0.97298276 -0.017418554 -0.07666483 -0.36148137 -0.3017061 -0.28369826
legume 1.233352 0.7499158 0.486242 -0.6425246 0.2037543 -2.0204785 -0.66862434 0.14165169 -0.17959915 -1.0421306 0.3315203 0.079236984 -0.83834237 -0.5303333 -1.4697095
electrique 0.5170412 0.33250827 1.2625425 -0.5774884 0.7514612 -0.059408132 -1.5489674 -0.54139227 0.47282684 0.092884324 -0.24691851 0.22194448 0.3860452 -0.6250011 -0.64201194
solution 0.33034647 0.47226527 0.5881834 -0.37744668 0.3327433 -0.12081246 -0.94739217 0.0034727647 0.32402217 -0.86653095 -0.063796364 -0.272386 -0.03305542 -0.860103 -0.39216658
bien 0.12731522 0.32907176 0.47818246 -0.37918603 0.6335584 -0.88780904 -0.6752603 0.09939746 -0.032998614 -0.5880312 -0.09499608 -0.17655727 -0.18353593 -0.8269597 0.03870304
panneau 0.35296398 0.06047068 1.3113352 -1.1563325 -0.19614302 0.014682161 -1.5957357 0.2236204 0.8939033 -1.3593607 0.08525807 0.2819144 1.5484312 -0.22231008 0.36174572
systeme -0.09142342 -0.025017144 0.5207178 -0.769229 0.111085616 -0.23216815 -1.101364 -0.46905497 0.52966934 -1.2716011 -0.54943174 0.17288013 0.2028408 -0.2622004 -0.6045381
solaire 0.60463834 -0.00814699 1.0921813 -0.84707505 0.334219 0.28012916 -1.4669349 0.1768317 1.0829911 -1.2193364 0.16016264 0.42559168 1.3830458 -0.51932013 0.12261887
responsable 0.38544956 0.75276667 0.44716942 -0.4523542 0.5778115 -1.0941952 -0.46434632 0.5487799 -0.21464737 -0.90451324 0.4376349 -0.03313387 -0.32440704 -1.0650946 -0.0023568072
travail 0.5280155 0.14518511 0.7023004 -0.5372692 1.2636378 -0.7607372 -0.93981254 -0.327722 0.29907644 -0.0977006 -0.27721578 0.009224202 0.12044655 -0.16818005 -0.21646912
changer 0.36784458 0.67350924 0.47302398 -0.38715237 0.7529718 -0.9796352 -0.40416494 0.36138088 -0.21435086 -0.8264524 0.12090109 -0.27598318 -0.49697807 -0.8728214 -0.061206426
an 0.13509801 0.21654776 0.653155 -0.53371197 0.6729685 -0.6012886 -0.809945 0.08004316 0.1623838 -0.45365798 -0.2256141 -0.34206834 -0.0018486857 -0.5779885 0.0141081335
vrac 0.5681821 0.97701806 0.386699 -0.49702722 -0.013621684 -1.3299187 -0.98423874 -0.36360282 -0.24306446 -1.3398216 -0.051248025 0.49307975 -0.54017293 -0.660374 -1.1848532
vert 0.07989864 -0.23914512 0.82445645 -0.50885195 0.9286018 -0.2411548 -0.8578396 -0.026840681 0.5654536 -0.7154022 -0.3317805 -0.08888616 0.26250276 -0.34869742 -0.13825305
pays 0.23092175 0.32549626 0.50515366 -0.405111 0.78141683 -0.61039054 -0.78312075 -0.08786337 0.15201476 -0.42679462 -0.1844163 -0.12705158 -0.19894375 -0.71291476 -0.20561571
vie 0.08231934 0.5237395 0.6196187 -0.46475914 0.99763876 -0.80691195 -0.62720376 0.16462985 -0.046655808 -0.38401788 -0.14479789 -0.2131209 -0.28986502 -0.722745 0.12626606
planete 0.19351584 0.35362712 0.41096488 -0.5792275 0.8617333 -0.9240945 -0.4332841 0.30650386 0.03198923 -0.6769136 0.059410866 -0.367434 -0.15274903 -0.7217429 0.2656612
fruit 1.2825952 0.8896 0.40838882 -0.7091425 0.26124296 -1.7661093 -0.67002445 0.041070383 -0.037291836 -1.1811867 0.19409198 0.2452604 -1.0270622 -0.6464294 -1.4883674
politique 0.2370219 0.3019445 0.6456472 -0.44835982 0.93160266 -0.5713573 -0.6281634 0.1671058 0.11467868 -0.5263867 -0.22708157 -0.36355907 -0.012238585 -0.56344146 0.11397014
recyclable 0.287518 1.0042531 0.420044 -0.60395914 -0.49126166 -0.3975615 -1.3099575 -0.31424162 0.056728184 -1.8169885 -0.4487669 0.047483884 -0.16414209 -0.9150845 -0.8471168
magasin 0.23716621 0.68658173 0.5810536 -0.60788786 -0.38900357 -1.0884929 -1.1070666 0.3460247 0.046945155 -1.3205711 0.12888105 0.4156528 0.45695177 0.16845271 -0.63651186
biodiversite 0.008097894 -0.44131932 0.6369447 -0.709764 1.0943869 -0.9469324 -0.6957773 0.50097495 0.30667692 -0.24166957 -0.057382476 -0.29943916 0.13551682 -0.5800504 0.56478983
construction 0.25989628 -0.59009016 0.9838486 -0.98832524 0.13489342 -0.1102723 -1.5535333 0.051078618 0.8660874 -0.6432973 -0.2878325 -0.17140953 0.88264 -0.412232 0.10633096
train 0.40942904 0.30911523 1.3048595 -0.50468284 1.3653954 -0.80402017 -1.3244455 -0.95801884 0.14679694 0.31900296 -0.76743287 -0.042378165 -0.0039902274 -0.120762885 -0.5415901
planter -0.24137847 -0.79466325 0.98463535 -1.218734 1.3979832 -1.0006459 -0.38516065 0.0799673 0.14923295 -0.5465913 -0.7345482 -0.22876844 0.74772984 -0.3304742 0.43724984
revenir 0.345278 0.22473015 0.18616162 -0.8684311 -0.18455598 -1.3312093 -0.6825155 -0.35075697 0.12579402 -1.1296494 -0.21761614 0.26007524 -0.3679399 -0.66100395 -0.773007
co_deux 0.10412765 0.6468295 0.80502504 -0.37768173 0.9270701 -0.4166584 -1.0835286 -0.021596113 0.123930775 -0.02998763 -0.44876823 -0.13631545 0.12107337 -0.82083035 0.05482563
papier 0.24283089 0.4796788 0.3083403 -0.6937774 -0.22781125 -1.0537388 -0.86886024 -0.20564966 0.119779095 -1.9384011 -0.105410114 0.017538024 -0.12745023 0.09931489 -0.8697663
recycler 0.1995737 0.37629548 0.16714872 -0.60540533 -0.0444643 -0.5726784 -0.9071576 -0.15490173 0.25923496 -1.5842633 -0.2336599 -0.089447945 -0.15894909 -0.5184176 -0.74795276
poubelle -0.35583857 0.25752795 0.29478112 -0.69531274 0.44400102 -0.5515414 -0.79053414 -0.14364757 0.36345175 -2.2542703 -0.15056485 -0.10844622 -0.06898865 0.30304277 -0.6053577
nuit -0.15069988 0.48817465 1.1546496 -0.6576862 0.24105372 -0.8664123 -1.7018327 0.5249887 0.27390093 -0.44640878 -0.018215952 0.11188347 1.165279 0.45662943 0.33077988
pesticide 0.29810318 0.13554068 0.37868926 -0.65643525 0.02282748 -1.1405743 -0.6711004 0.10553342 0.03111052 -0.6759265 -0.011582143 -0.07839427 -0.42812896 -1.0135022 -0.19070666
remettre -0.16654584 -0.038162094 0.43040046 -0.99714464 0.19104803 -0.6884661 -0.8382588 -0.7682099 0.39015958 -1.4057891 -0.91844296 0.108907685 -0.12515351 -0.04537212 -0.7420996
surface 0.67069685 0.2692643 0.7079085 -0.69583863 0.12948355 -0.84883523 -0.67965996 0.13346516 0.19480741 -1.2183169 0.01919681 0.52330405 0.63189805 0.08246687 -0.52204645
sensibiliser 0.038839374 0.56675225 0.35817474 -0.52981097 1.1680528 -0.98802614 -0.37521735 0.75128555 0.061155878 -0.80509794 0.38518053 -0.40591323 -0.31739166 -0.76598936 0.48166716
aider 0.24589582 0.032962132 0.5928792 -0.5746885 0.82613456 -0.712955 -0.5671492 0.4467981 0.18285821 -0.49482653 0.2895911 0.060444683 -0.0647878 -1.0152757 0.029875059
espace -0.0612772 -0.756532 0.7081582 -0.8597283 0.77970165 -0.72812265 -0.93175477 0.2020103 0.6458992 -0.70329386 -0.1546378 -0.26441866 0.60397387 -0.008755091 0.10656856
deplacement 0.5234867 0.25552386 1.0095276 -0.43971074 1.297483 -0.651769 -1.2517073 -0.74733937 0.18296114 0.21593222 -0.59349686 -0.017175796 -0.0040413877 -0.3385659 -0.27137616
obligatoire 0.01209256 0.16064492 0.53671443 -0.68252045 0.53135043 -0.16396347 -0.9893133 0.08933337 0.42767194 -0.97212386 -0.27051955 -0.13977869 0.31475168 -0.18319073 -0.1029438
service 0.049378518 0.5133705 0.66176933 -0.4536006 0.78221714 -0.42305508 -0.7430304 0.20413674 0.17491162 -0.7935944 -0.3026432 -0.01442515 0.101016685 -0.28501633 -0.14534476
moyen 0.37686822 0.3019487 0.8525176 -0.40430716 0.91029847 -0.4692972 -0.9490141 -0.34533834 0.25509784 -0.23862714 -0.31387013 -0.16017759 -0.12961546 -0.514155 -0.32884666
batiment 0.20732334 -0.01770438 0.8598356 -0.8228287 0.36702675 -0.07673245 -1.369122 0.43746048 0.72205967 -1.0326152 0.01698666 0.104802385 1.1821343 -0.18011563 0.28382826
propre 0.46416613 0.32142735 0.6755261 -0.48709643 0.3346243 -0.16757758 -1.1318473 -0.19951242 0.4564841 -0.58877546 -0.112339035 0.17450197 0.22687683 -0.8218439 -0.4248249
installer -0.0020179295 -0.43042123 0.57475793 -0.9439282 0.3351201 -0.2951239 -1.1572239 0.026053084 0.79945785 -1.2542657 -0.042300276 0.11532397 0.8074565 0.09264872 -0.2459007
vendre 0.56973064 0.7924392 0.309164 -0.53490204 0.04894069 -1.1026856 -0.69313085 -0.03816074 -0.011382282 -1.0713831 -0.081748195 0.03496089 -0.55739397 -0.65987444 -1.0055078
monde 0.14435782 0.27367502 0.40198603 -0.49504057 0.8394128 -0.88640654 -0.47499242 0.3296441 0.06885165 -0.684382 0.1394538 -0.20975399 -0.14625894 -0.62915736 -0.009690094
contre 0.41536668 -0.1118205 0.39471325 -0.37485945 0.79274654 -0.62114483 -0.53144735 0.5254641 0.4332964 -0.7785017 0.14156418 -0.4718715 -0.35851985 -0.9580955 -0.04335103
nucleaire 0.36565277 0.010799136 0.77170753 -0.3834277 0.43848974 -0.0010287851 -1.3791553 0.1917596 0.6962478 -0.51438445 0.085020825 0.002525505 0.34486052 -0.98651445 0.29068026
heure 0.012315432 0.40702423 1.1630254 -0.56016344 0.7540009 -0.7448809 -1.444309 0.369291 0.29286328 -0.0849119 -0.15340243 0.043669574 0.7679139 0.15429479 0.49774373
particulier -0.038053922 0.29782963 0.6542228 -0.43274134 0.75827396 -0.19996838 -0.953239 -0.05729005 0.31250504 -0.9331236 -0.2620419 -0.106795385 0.28492802 -0.2806077 -0.22034603
transition 0.13378014 0.4985556 0.9043121 -0.24521776 1.248592 -0.38070795 -0.55198395 0.6310081 0.16728476 -0.4987016 -0.044238593 -0.20043118 -0.0017928688 -1.0803913 0.1606785
mieux 0.37265253 0.2594897 0.47269478 -0.5115788 0.6833411 -0.82732195 -0.6182731 0.36194938 0.1252402 -0.60011834 0.29572472 -0.06778132 -0.114826255 -0.81895053 0.03218766
action 0.0018505106 0.4270365 0.5729335 -0.5191387 1.3993906 -0.53668994 -0.47266227 0.84559494 0.16560607 -0.77714866 0.026970202 -0.44436824 -0.046107594 -0.553788 0.30575114
achat 0.578309 0.7565396 0.5451481 -0.4054396 0.46632102 -0.8578174 -0.84072834 -0.16246559 -0.048851166 -0.4772553 -0.13919923 0.21099885 -0.4356499 -0.76482236 -0.63605756
etat 0.15433556 0.37467313 0.635349 -0.45229796 0.71071017 -0.3491997 -0.7768274 0.4401462 0.20889354 -0.70313525 -0.040261053 -0.11301087 0.25862586 -0.727261 0.08481271
naturel 0.19771688 0.006995068 0.40363133 -0.59301513 0.41414142 -0.8441955 -0.7283784 0.13292624 0.2735965 -0.6429495 -0.022050215 -0.18765417 -0.053735822 -0.6265651 -0.027390083
sac 0.62581265 0.7737769 0.35106125 -0.82242346 -0.4525356 -1.22477 -1.0063497 -0.2640765 0.07240143 -1.9120747 -0.23676373 0.20903979 -0.3202533 -0.3212029 -1.3848046
jeune -0.055979356 0.2889458 0.4727154 -0.67909616 1.5791398 -0.86025167 -0.25246534 0.9742295 0.13947783 -1.0641823 0.34935486 -0.47080615 -0.3204527 -0.7069691 0.709494
elevage 0.3628661 0.4126304 0.44847232 -0.5400632 0.3661111 -1.4379536 -0.545385 0.22920577 -0.2947542 -0.5016866 0.13829151 0.043488175 -0.3366426 -1.2672242 0.1612793
augmenter 0.247109 0.77326536 0.6955377 -0.38056007 0.73085743 -0.61041147 -0.88430095 -0.21332377 0.022086853 -0.34089097 -0.2982217 -0.02166746 -0.20660324 -0.655188 -0.47407883
saison 1.1409711 0.93061614 0.47509006 -0.59711426 0.5929655 -1.9802238 -0.6144231 0.23884913 -0.30564034 -0.81125265 0.53195745 0.26290423 -0.99922776 -0.99667674 -0.98685044
programme 0.24594471 0.12798283 0.5211232 -0.54276025 0.9638175 -0.67904687 -0.55722094 0.80202854 0.2698465 -0.7051879 0.34799498 -0.5977593 -0.3410115 -1.0101066 0.4612662
instaurer -0.103378296 0.64751476 0.48975223 -0.44875127 0.864377 -0.3679581 -0.85225207 -0.010737545 0.22261152 -0.6008775 -0.2791015 -0.1696545 -0.030928398 -0.4464227 -0.18096419
aide 0.4480929 0.28248987 0.6006709 -0.47937244 0.685289 -0.6553048 -0.7227257 0.26685068 0.14859678 -0.5177443 0.19297862 0.12191395 -0.023922976 -0.8733878 -0.06509203
durable 0.36858335 0.5149574 0.49751705 -0.43509188 0.43590835 -0.6933311 -0.5893099 0.3667435 0.14066106 -0.8131301 0.08124358 -0.12501535 -0.28448197 -1.0035262 -0.09756567
electricite 0.42473647 0.14885724 0.89901835 -0.44198886 0.26077408 -0.32098195 -1.3416803 0.09820071 0.55423975 -0.27804288 0.10968728 0.05577558 0.4051509 -0.8128028 -0.094289005
publicite 0.23445287 0.6812432 0.64187306 -0.39055422 0.054349303 -0.86384386 -0.95069486 -0.074739054 -0.08058697 -0.73651725 -0.0645306 -0.041247524 0.10805179 -0.39867002 -0.18122062
cesser 0.25507405 0.09222133 0.5122396 -0.56247526 0.414588 -0.8568086 -0.7013982 0.20512281 0.24112771 -0.59585685 0.032739107 -0.12248332 0.06425323 -0.5596671 -0.16766815
commune -0.028895078 -0.16166699 0.57560635 -0.6894066 0.7829171 -0.6112973 -0.75957704 0.27901548 0.42123467 -0.93536776 -0.05103217 0.0026066655 0.2685857 -0.0116004115 -0.1630874
route -0.13441397 -0.61582583 0.7866461 -0.8477271 0.884608 -0.5429302 -1.0236428 -0.52148134 0.45674613 -0.62727654 -0.7240229 -0.1464547 0.33633006 0.0965667 -0.011380668
trop 0.2794246 0.34936634 0.56364155 -0.5773844 0.18695101 -0.596756 -0.8318361 -0.10007323 0.104975656 -0.73013896 -0.03104383 -0.025852079 -0.07919959 -0.8322268 -0.33020312
court 0.61574644 0.37816894 0.6617116 -0.54703504 0.6816898 -1.4294183 -0.7879907 -0.41518545 -0.07582501 -0.076451555 0.04797359 0.4689417 -0.74004126 -1.0680873 -0.42242348
personne 0.07465025 0.083598465 0.52543086 -0.546126 0.9900709 -0.4924665 -0.67391175 -0.023406455 0.30397108 -1.0011582 -0.089065254 -0.06460264 0.0016835587 0.007685422 -0.20469001
population 0.16016231 0.27294716 0.5192725 -0.4248256 0.997458 -0.76167333 -0.65983266 0.24039942 0.13844714 -0.5776537 0.057529677 -0.20020826 -0.07651432 -0.63478136 0.38046786
urbain -0.021069067 -0.54166526 0.8603979 -0.7272082 1.1548207 -0.68962497 -0.9177119 0.03500452 0.5710665 -0.38369846 -0.15445295 -0.048545677 0.4236459 -0.107171886 0.29231325
promouvoir 0.39705852 0.22966339 0.6763904 -0.49937886 0.74228823 -0.6929172 -0.9247469 -0.27812147 0.17297862 -0.12538585 -0.144959 0.06117168 -0.13329369 -0.70141315 -0.22707687
bon 0.27297288 0.4168196 0.32558098 -0.55396324 0.6651892 -0.8506751 -0.405005 0.29049185 0.042499017 -0.9477821 0.08532665 -0.22052538 -0.3191545 -0.7203855 -0.17443761
mode 0.33782876 0.6321176 0.6718602 -0.21473897 1.022004 -0.9997181 -0.7709846 -0.13590649 -0.20203833 -0.16832519 -0.2361637 -0.20181929 -0.49033132 -0.872306 -0.071432754
ecologie 0.016816067 0.34409466 0.5191456 -0.549813 1.0530274 -0.5519903 -0.46699044 0.61878425 0.25845078 -0.91981685 0.08424673 -0.35355526 -0.16303095 -0.5740211 0.36105445
eclairage -0.1898654 0.2205489 0.97816014 -0.6641532 0.45208263 -0.68007964 -1.6926037 0.64664763 0.36676568 -0.50881165 0.045793153 -0.061629705 1.1143564 0.29645544 0.51277816
circuit 0.64216787 0.16963221 0.54229206 -0.6608439 0.28473985 -1.4505736 -0.86571825 -0.44932106 0.027189013 -0.4677309 0.24802251 0.54868925 -0.6425084 -0.6967798 -0.6051202
agricole 0.30543852 -0.22467467 0.6737481 -0.6491968 0.6148998 -0.9680827 -0.5953481 0.47235137 0.22461058 -0.6124477 0.18071163 0.059524603 0.17373376 -0.6067064 0.20491129
consommateur 0.4478316 0.89988947 0.49615738 -0.40746057 0.27712318 -0.8224534 -0.7425734 0.09788446 -0.08380258 -0.88542974 -0.036743354 0.13577409 -0.3657505 -0.82291657 -0.5390065
maximum 0.4849695 0.47804052 0.5113488 -0.45005473 0.24506938 -0.8885063 -0.9554846 -0.41512617 0.046245445 -0.7396798 -0.15084434 0.23914073 -0.18488483 -0.47527474 -0.610946
jardin -0.121931195 -0.782167 0.6446699 -0.9384351 0.8810361 -0.77600425 -0.8325175 0.21329004 0.53312165 -0.75598705 -0.2167814 -0.20101702 0.4810221 -0.010930309 0.071778946
construire 0.23050624 -0.40246746 0.72931737 -0.76063937 0.54019773 -0.5173355 -1.0807514 -0.020700503 0.62699765 -0.37909812 -0.17554002 -0.106357604 0.3814698 -0.34890515 -0.09084802
proximite 0.68112946 0.29766276 0.5451673 -0.46618572 0.8371113 -1.2504007 -0.7097397 -0.13347079 0.04735663 -0.31615266 0.061634406 0.3157408 -0.30757323 -0.3124097 -0.4407086
individuel 0.37495574 0.18819001 0.722277 -0.5330025 0.26569334 -0.46988788 -1.0773942 -0.42477882 0.27328467 -0.6107812 -0.37454873 -0.013105739 0.26014963 -0.46088737 -0.4024769
parking 0.29884976 -0.3543762 1.1424248 -0.9476895 1.0563176 -0.3785861 -1.1480242 -0.50599074 0.71851414 -0.4400326 -0.4417437 0.24523947 0.86892813 0.35268605 -0.35619283
objet 0.23370206 0.613188 0.4590818 -0.49074298 -0.032951877 -0.69410276 -0.9552108 -0.1792395 0.08320106 -1.0705991 -0.34669524 -0.1340932 -0.4007796 -0.6681674 -0.6465962
centre 0.07832639 -0.06941101 0.91605943 -0.6107099 0.8523428 -0.3440112 -1.2354102 -0.21095932 0.6180009 -0.66768974 -0.16760331 0.04934914 0.7538854 0.2019697 0.004261853
gratuit 0.35572267 -0.16599536 0.9936991 -0.65879834 1.1211857 -0.47325388 -1.1621064 -0.5432993 0.41335624 -0.19209802 -0.3941061 0.12712751 0.2537045 -0.021478295 -0.5128532
chasse -0.004524012 -0.18983923 0.47277236 -0.83313566 0.010620776 -0.7296519 -1.070339 -0.0016482532 0.30806255 -0.57289594 -0.12045887 -0.35548982 -0.017855382 -0.38501993 -0.09489814
jour 0.08661697 0.21610044 0.42859682 -0.5745907 0.5245381 -0.61328685 -0.8539362 -0.09229326 0.1870659 -0.75992054 -0.2907828 -0.18539901 -0.020611102 -0.26657465 -0.35488114
besoin 0.39613524 0.22412108 0.47702792 -0.6087255 0.13195603 -0.77608156 -0.9031622 -0.09191699 0.23653388 -0.5957519 0.006535019 0.005783957 -0.1688601 -0.6301493 -0.53282124
unique 0.35767716 0.7438521 0.4229012 -0.7220348 -0.46951932 -1.0204017 -1.2264088 -0.563038 -0.010247869 -1.4267226 -0.5679185 -0.1820773 -0.49747646 -0.68964213 -1.0033557
apprendre 0.096912906 0.31566355 0.2805122 -0.5409919 0.8780507 -0.9159812 -0.38030267 0.476055 0.14220482 -1.3964639 0.47740525 -0.23756205 -0.39325154 -0.55586 0.15568598
polluer 0.26263046 0.329484 0.6008371 -0.50475323 0.48878646 -0.5904856 -0.8839711 -0.14786717 0.21508536 -0.5104909 -0.16598557 -0.13823715 -0.021907002 -0.5144424 -0.30537644
eduquer 0.006503188 0.5473503 0.37515122 -0.5655339 1.1441474 -0.90712434 -0.38428032 0.75842625 0.15033594 -1.1745322 0.4274412 -0.37660956 -0.3020043 -0.7528141 0.48278102
respecter 0.17506908 0.5015553 0.42940536 -0.45571828 0.92362314 -0.9349046 -0.4143941 0.5755709 -0.007607175 -0.9360494 0.16211791 -0.33463296 -0.24311179 -0.575949 0.16195503
inutile 0.27405012 0.5868218 0.46575803 -0.4799945 -0.12441835 -0.80533224 -1.0097699 -0.2356536 -0.003408914 -1.0196978 -0.25302786 0.015563966 -0.006093107 -0.50256443 -0.42726585
pollueur 0.15704493 0.6353775 0.5052605 -0.3479022 0.7403341 -0.45931995 -0.6700413 0.027280651 0.09388641 -0.88940656 -0.19435558 -0.21019961 -0.10590566 -0.5815038 -0.21163952
maison 0.17985715 -0.25170475 0.5515711 -0.78457785 0.33486092 -0.5587452 -0.9039245 0.046669472 0.41348338 -0.8220582 -0.01690739 -0.033106938 0.29569423 -0.3342726 -0.14972793
commerce 0.46269953 0.4418685 0.57826775 -0.5094535 0.34645614 -1.0767347 -0.89475495 -0.0041293674 0.015043486 -0.5717508 0.11421054 0.4029909 0.0668326 -0.20788878 -0.33241862
eco 0.2624561 0.5069666 0.45123214 -0.45186725 0.7989853 -0.79259026 -0.50807154 0.4386767 -0.014638969 -0.7178938 0.07346754 -0.071224876 -0.18598215 -0.7595517 0.019566618
partout -0.16017944 -0.37500736 0.6371957 -0.7389597 0.81552374 -0.7078721 -0.71022564 -0.18772641 0.23370525 -0.79996455 -0.5263899 -0.078634135 0.24354349 -0.12610127 -0.08760966
stopper 0.33959663 0.24273513 0.4616978 -0.58042634 0.31487927 -0.75814736 -0.75101835 0.050485447 0.13786884 -0.5570843 -0.005605942 -0.042184923 -0.16899031 -0.7771742 -0.18775338
davantage 0.20632908 0.11720732 0.53445166 -0.42186546 0.774273 -0.6472133 -0.71950656 -0.004588 0.18547647 -0.6834736 -0.09511935 -0.04879251 -0.012367841 -0.5181659 -0.082100235
cout 0.25478625 0.67529565 0.6663975 -0.4211442 0.7340686 -0.49048048 -0.91955805 -0.03653714 0.041771065 -0.35736722 -0.24851523 -0.15430538 -0.17292084 -0.7436079 -0.21394713
foret -0.035402536 -0.39410913 0.53038985 -0.83751756 0.8702613 -0.811302 -0.536154 0.27446085 0.32164165 -0.6732291 -0.21829692 -0.2079161 0.23197949 -0.29992405 0.16795172
gaspillage 0.23082547 0.51868457 0.3560267 -0.43648282 0.2057664 -0.84772015 -0.81414545 -0.09777941 -0.015782718 -1.187126 0.01491601 -0.057351843 -0.4656413 -0.60566866 -0.49112022
matiere 0.20598835 0.60663587 0.3954078 -0.47326714 0.2726835 -0.54499644 -0.7605963 0.12214709 0.12362723 -1.0392258 -0.18624558 -0.18261558 -0.20924026 -0.75477993 -0.23190509
niveau 0.1214848 0.36167067 0.55983025 -0.44962236 0.7951615 -0.5088183 -0.6969295 0.28078377 0.1766303 -0.6985351 -0.01687614 -0.2465093 -0.0029455535 -0.73596394 0.13624775
agir 0.18891957 0.3952297 0.37573257 -0.5432139 0.6938487 -0.7458437 -0.5308886 0.47055277 0.047386803 -0.8884933 0.028180616 -0.2744939 -0.06445585 -0.6633557 0.034585055
fonction 0.14876674 0.7687782 0.7691521 -0.25545296 0.9966014 -0.33664018 -0.91003513 -0.15675728 0.08283925 -0.45432886 -0.302137 -0.07594369 -0.11134979 -0.7341895 -0.22121347
renouvelable 0.52966195 0.21942887 1.0405849 -0.38117418 0.57138944 0.1329544 -1.3492391 0.18730955 0.6739161 -0.5186905 0.08055302 0.17329362 0.59551144 -1.1914743 0.25918826
ecologique 0.23679902 0.30056146 0.5520472 -0.54506785 0.7839855 -0.54573655 -0.7286573 0.11650443 0.19189243 -0.6238377 -0.12248805 -0.1815599 -0.061636016 -0.5027262 -0.07826557
national 0.11068514 0.38037238 0.6252181 -0.47751278 0.9819985 -0.5216545 -0.58957964 0.3717874 0.260599 -0.70722264 -0.122446075 -0.24252403 -0.014082356 -0.55720216 0.23060852
projet 0.17002767 0.23638341 0.7063986 -0.47331092 0.9162039 -0.47907212 -0.77233166 0.52205354 0.31731337 -0.5317428 -0.017035427 -0.25258097 0.088487305 -0.6383832 0.31434935
climatique 0.15617178 0.17584123 0.6548791 -0.5996283 1.1553725 -0.5437367 -0.58308494 0.57356906 0.2706895 -0.5551991 0.09608187 -0.5273915 -0.07278401 -0.63526046 0.24766707
sol 0.19475728 -0.27858904 0.5534137 -0.73535234 0.4968002 -0.85103446 -0.73659945 0.09869538 0.25751317 -0.59573084 -0.032422397 -0.0519006 0.06355836 -0.3887546 -0.035135128
loi 0.12205699 0.46908343 0.4545455 -0.5091366 0.5405041 -0.49037224 -0.6125313 0.24166748 0.18654987 -0.9947997 -0.13088256 -0.22855344 0.046380505 -0.51937455 -0.11224886
contenant 0.41309395 0.6935302 0.3138147 -0.887979 -0.35715553 -1.0058453 -1.0897428 -0.5637179 0.12489592 -1.8147998 -0.5427275 0.21936715 -0.46103087 -0.5402644 -1.3199143
energetiqu 0.26674378 0.45307866 0.7568261 -0.3535099 0.6926038 -0.24346453 -1.08367 0.25659862 0.37544417 -0.4211802 0.018337041 -0.12864937 0.2755702 -0.77338547 0.12631299
toilette 0.1781902 -0.6794055 0.43988985 -1.2011722 -0.25983334 -0.40262112 -1.703958 -0.35485405 0.8499323 -0.92550546 -0.23560339 -0.109995395 0.2522579 -0.30108964 -0.904005
eteindre -0.16273415 0.39701438 1.0018356 -0.6840566 0.34296787 -0.7406139 -1.5759095 0.6795604 0.39275888 -0.6389102 0.16021189 0.066337235 1.0619532 0.31777868 0.3744513
proteger 0.01499966 -0.33333042 0.55821323 -0.73505086 0.805813 -0.84484255 -0.6566203 0.26615041 0.3173546 -0.5893963 -0.07788559 -0.29581514 0.118264385 -0.429688 0.3004694
falloir 0.28017196 0.13269068 0.37797236 -0.6333349 0.41180632 -0.9437993 -0.4745925 0.081532955 0.03693139 -0.94156235 -0.0014056867 -0.011744503 -0.19070554 -0.7005174 -0.3167316
passer 0.09072909 0.15947497 0.53157794 -0.55187446 0.6267742 -0.6651882 -0.76162034 0.3079495 0.20487124 -0.6317029 0.06896821 -0.10456083 -0.01137697 -0.55398184 0.062365144
moteur 0.33921358 0.16968548 1.0162681 -0.58160883 0.94405437 -0.19035375 -1.3158426 -0.33437675 0.3222159 0.06666308 -0.3877941 0.019021273 0.32488537 -0.5640316 -0.26917675
payer 0.04910146 0.6463306 0.48166934 -0.36787927 0.55839026 -0.46321777 -0.6985721 -0.08650761 0.06282881 -1.2100558 -0.10858525 -0.060221717 -0.15705568 -0.6186669 -0.38670364
sante 0.2502524 0.57078433 0.42074737 -0.4879459 0.615657 -0.8954667 -0.58451587 0.23392957 -0.09103766 -0.6184476 -0.0889916 -0.16411376 -0.29439157 -0.86915714 -0.05665505
investir 0.2574713 0.15704273 0.9059769 -0.47816443 0.61340046 0.11184728 -1.2917194 0.065281115 0.601785 -0.40276125 -0.05347362 -0.07501573 0.35283226 -1.0446813 0.16044654
economie 0.27593726 0.307191 0.65847623 -0.48152593 0.57932264 -0.59089565 -0.88668835 0.15102175 0.19680786 -0.5121715 -0.01197398 7.22874e-05 -0.041601125 -0.688725 0.03628883
nombre 0.19990575 0.4617715 0.62157476 -0.4325208 0.630633 -0.660458 -0.89984477 -0.4388241 0.0771788 -0.51166993 -0.4012074 0.0070950896 -0.115152754 -0.39267817 -0.26788136
social 0.012272149 0.55634564 0.65809554 -0.50353867 1.1677741 -0.5303934 -0.63204926 0.5384316 0.1924361 -0.5151219 -0.051906504 -0.3830126 -0.19598693 -0.63703793 0.13031971
fin 0.18601951 0.25430253 0.52933204 -0.56756896 0.50200003 -0.64913034 -0.6811495 -0.03128107 0.13213894 -0.76758856 -0.1546134 -0.05396266 -0.103841655 -0.4951393 -0.22741148
integrer 0.052462943 0.32795778 0.56523013 -0.52549386 0.9238036 -0.50553244 -0.72163266 0.48384833 0.24555196 -0.60103375 -0.028109392 -0.354814 -0.063912414 -0.64569575 0.2570987
alimentation 0.28974244 0.44844022 0.44484526 -0.47131073 0.5999443 -1.0185214 -0.61989594 0.13495271 -0.04385846 -0.55107915 0.031911805 -0.047841646 -0.2892491 -0.8719842 -0.0912818
haie -0.14964318 -0.87891686 0.6911193 -1.0036768 1.0479388 -0.92441034 -0.6953555 0.12200301 0.31667984 -0.46695036 -0.5844953 -0.1650004 0.3210478 -0.28504592 0.33352137
industrie 0.2637127 0.613932 0.525219 -0.42024016 0.34525123 -0.50722295 -0.8296962 0.055410594 -0.014685887 -0.8283191 -0.17773513 -0.09376879 -0.11718579 -0.7795612 -0.24562687
manger 0.68128884 0.68649393 0.26648352 -0.5045099 0.49492177 -1.4970697 -0.43694142 0.30762228 -0.17260984 -0.8511123 0.2954621 0.062012304 -0.62831396 -0.92455643 -0.49767777
emission 0.13994682 0.7161847 0.8001931 -0.36021268 1.0296391 -0.43315554 -0.9905723 -0.024897182 -0.0045769587 -0.2213994 -0.3324165 -0.22935233 0.09744146 -0.7324143 0.07451822
fortement 0.2808268 0.6832721 0.6579768 -0.3481267 0.5384897 -0.37581676 -0.9663482 -0.2642103 0.1253876 -0.54940605 -0.33254242 -0.15439907 -0.15160741 -0.6248412 -0.4221926
campagne 0.10094373 -0.07412537 0.7734111 -0.6018816 1.025162 -0.7168224 -0.8800076 -0.26647645 0.24734941 -0.3882511 -0.29702637 -0.066221654 0.18033998 0.019324442 -0.18258706
chauffage 0.19411977 0.09227681 0.65002406 -0.6519499 0.27987084 -0.5224713 -1.0940243 0.04924358 0.29950196 -0.57568294 -0.09096894 -0.03241598 0.31882477 -0.25869828 -0.22326899
rue -0.22122306 -0.049681365 0.5348161 -0.7367325 0.47866815 -0.6323417 -0.93694 0.034254927 0.4064463 -1.4041343 -0.047727846 -0.06181615 0.4117751 0.38192827 -0.07803941
immeuble 0.032234192 -0.511623 0.7453953 -0.8518215 0.55277044 -0.3609787 -1.2101464 0.066311434 0.6513693 -0.7794887 -0.20048444 -0.020409176 0.6444415 0.013444845 -0.036617015
tva 0.3090892 1.1939363 0.5793774 -0.3489964 0.65231174 -0.77117884 -0.73387825 0.07155478 -0.11549626 -0.5509247 -0.15850171 0.03520018 -0.5429703 -0.99801606 -0.48545173
importation 0.5028466 0.7707507 0.5201252 -0.3720015 0.43363264 -0.96389514 -0.7522011 -0.08441434 -0.06215901 -0.4797176 -0.12275787 -0.057470847 -0.5692898 -0.94388634 -0.3951186
camion 0.2378081 0.37358394 0.93240964 -0.41916955 0.9394955 -0.6581968 -0.94277215 -0.6994739 0.05428894 -0.2808406 -0.69448745 0.052034624 -0.2530479 -0.30897483 -0.48787218
marche 0.5889582 0.2962048 0.5157141 -0.54604375 0.5476816 -0.8017698 -0.76733047 -0.30666143 0.17430085 -0.53737086 -0.2330607 0.17308757 -0.206106 -0.42883182 -0.5984228
scolaire 0.064646184 0.13815297 0.43331754 -0.65073675 1.1629107 -0.8641304 -0.4290603 0.81806684 0.12867995 -0.79652005 0.31650248 -0.49536926 -0.28451395 -0.71495813 0.4451418
poids -0.08274689 0.83758104 0.6751534 -0.32302812 0.6860009 -0.24777298 -0.91003144 -0.528373 0.06885986 -1.0931925 -0.4923346 0.017594818 -0.26242548 -0.37937102 -0.60926616
collectif 0.2617354 -0.027979719 0.66957664 -0.5317098 0.887534 -0.76627034 -0.85922176 -0.11566637 0.29251823 -0.42446092 -0.0587213 0.10071511 0.095279425 -0.2899022 -0.15603557
megot -0.057782363 0.24766721 0.2236462 -0.58167756 0.39647287 -0.7406049 -0.73393536 0.09994442 0.23112243 -1.9270514 0.1150833 -0.10779372 -0.039362986 0.111928314 -0.26107422
kilomètre 0.36244202 0.3511073 0.94426495 -0.47265112 1.112266 -0.70914197 -1.0429034 -0.3439505 0.20710741 0.16100508 -0.39647514 0.0156874 0.0841239 -0.4622277 -0.055629298
financer 0.31870645 0.58877194 0.7930661 -0.2587824 0.8866395 -0.25190797 -0.93351597 0.20704591 0.31843048 -0.3374877 -0.07332857 -0.13102116 0.015563715 -0.98415 0.028711578
toit 0.30686864 -0.24215177 0.98488116 -0.91828054 0.48723623 -0.19841583 -1.2076747 0.2148053 0.7732315 -1.033251 -0.086913906 0.15914145 1.1849692 -0.13399583 0.21466468
long 0.021822408 -0.21256903 0.87575424 -0.6790946 1.1138241 -0.6363399 -0.85731643 -0.23829976 0.33981204 -0.18997724 -0.53136796 -0.070788346 0.105395816 -0.45981926 0.2381538
teletravail 0.3106294 0.19667779 0.7437077 -0.4764975 0.9174121 -0.55157036 -1.1324673 -0.43492123 0.1503701 -0.2710263 -0.4275769 -0.021824846 0.015114534 -0.29824933 -0.3470097
sauvage 0.010907618 -0.1590349 0.5570665 -0.639411 0.67656356 -0.71396124 -0.7450068 0.187301 0.35426292 -0.8604762 -0.109211765 -0.2242862 0.120202795 -0.27952686 0.20372473
francai 0.4063676 0.65214676 0.49396452 -0.4199649 0.56599534 -0.8933604 -0.7033082 0.12371497 -0.014873031 -0.5430575 0.07659732 0.06663854 -0.36272094 -0.7871901 -0.35678762
trier -0.07987729 0.30474266 0.2584684 -0.4762647 0.4644785 -0.59651643 -0.69234514 0.081469 0.2408149 -1.5599817 -0.051818594 -0.09762746 -0.16164708 -0.27666008 -0.3236479
carburant 0.35653672 0.6372675 0.857344 -0.3670753 0.7211538 -0.4087494 -1.1366769 -0.2855634 0.15377128 -0.11609575 -0.32901752 -0.08234348 -0.043483086 -0.7990304 -0.22645548
trajet 0.53644836 0.26764888 1.0584112 -0.49732143 1.2554064 -0.7486649 -1.1678371 -0.56491965 0.15927388 0.22622955 -0.50417536 0.05886179 0.0025956887 -0.39230493 -0.24786617
producteur 0.59430116 0.6554914 0.5564225 -0.4394561 0.58409226 -1.1132019 -0.6799913 0.030912552 -0.11332356 -0.47807273 0.10314226 0.30209643 -0.3566968 -0.87594426 -0.34929675
gros 0.33441156 0.6357028 0.62838906 -0.3519144 0.6141072 -0.4698783 -0.8327511 -0.0677323 0.069283985 -0.60385716 -0.27454728 -0.09571752 -0.090569414 -0.7036233 -0.18233947
reseau 0.2385501 -0.25975886 0.91758 -0.68287385 0.93989193 -0.40323007 -1.1126986 -0.5008296 0.48200715 -0.1595644 -0.40780625 0.0065911263 0.09464049 -0.1756244 -0.39250982
trouver 0.31488478 0.31893432 0.5504164 -0.5263096 0.2766649 -0.42419162 -0.8516365 -0.020277215 0.30439347 -0.8676011 -0.21777953 -0.08862308 -0.084814236 -0.6378448 -0.49419352
bus 0.37201646 -0.06998913 1.1902906 -0.71937203 1.285663 -0.53778327 -1.1934555 -0.5839924 0.4192332 0.11341545 -0.4991186 0.084172904 0.20476618 -0.08946094 -0.3283816
empreinte 0.4460963 1.0719103 0.8400358 -0.2484756 1.0281942 -0.6856906 -0.7382542 0.30440882 -0.15802726 -0.25779918 -0.08541648 -0.17803161 -0.40729073 -0.8946686 -0.12750486
culture 0.24230592 -0.0013467751 0.43015912 -0.7582255 0.3919252 -1.0244124 -0.53782016 0.15430312 0.06348758 -0.60558325 -0.028008047 0.03186181 -0.2097665 -0.7188043 -0.20336966
logement 0.18842281 -0.03602065 0.7094985 -0.581849 0.78602606 -0.41803467 -1.0616419 0.23602879 0.4445293 -0.40090364 -0.104469724 -0.18865524 0.374912 -0.36998078 0.08619951
cours 0.040164616 -0.18858472 0.40866312 -0.8402659 0.714775 -0.5510237 -0.61478806 0.29312563 0.42513123 -0.92313683 -0.025112713 -0.30323905 -0.091639854 -0.36527723 -0.025187513
ex 0.24735226 0.2783139 0.3862141 -0.5517224 0.2400926 -0.6933512 -0.87035525 -0.17133215 0.24234542 -0.92870086 -0.25866422 -0.12160055 0.008713148 -0.30028167 -0.46953696
education 0.048007336 0.2501915 0.5415301 -0.5770174 1.2021487 -0.6783945 -0.4348009 0.6457094 0.15228331 -0.83002114 0.14727321 -0.4417725 -0.32796538 -0.68261486 0.33961228
vrai 0.116685875 0.3014253 0.5351309 -0.49243692 0.7395779 -0.4229195 -0.5854051 0.112404354 0.21381664 -0.92059183 -0.2328613 -0.16220993 -0.09220054 -0.5026311 -0.11736387
voie 0.10583218 -0.18579087 0.7488928 -0.6050629 0.94340485 -0.583576 -0.8828836 -0.301952 0.346568 -0.49151358 -0.31756872 0.016520282 0.19930388 -0.16543001 -0.05572818
venir 0.5967342 0.6518396 0.3796942 -0.4360645 0.45112085 -1.1125826 -0.6022465 0.0037194896 -0.07976694 -0.7483198 0.12215843 -0.021949695 -0.5374195 -0.8077974 -0.6132793
amende 0.0018244801 0.31770492 0.46111667 -0.5470377 0.6026944 -0.4162914 -0.7224949 0.057753075 0.2609587 -1.4715581 -0.14991595 -0.13140112 -0.046653926 -0.15513244 -0.24120337
humain 0.09629945 0.28062022 0.5090781 -0.58717537 0.8680778 -0.86440575 -0.52711064 0.3608757 0.06287798 -0.675458 -0.070707016 -0.27607763 -0.21447934 -0.72408754 0.2713805
lumiere -0.12794395 0.3720878 0.84272647 -0.60485893 0.20549247 -0.7736806 -1.4811069 0.5806643 0.31002134 -0.71444684 0.10472366 0.075107366 0.8688396 0.30638242 0.17270276
fossile 0.4225318 0.39275876 0.98567086 -0.29447386 0.6798909 -0.00908819 -1.2241297 0.0099454215 0.39924142 -0.3324272 -0.102250785 0.04854417 0.19605128 -1.1575031 0.1471176
commercial 0.24540311 0.056508217 0.9473265 -0.75356853 0.49967262 -0.41464 -1.2433926 0.33332887 0.58653826 -0.6957858 -2.2405551e-05 -0.004427754 0.9803032 -0.10039528 0.3184779
hydrogene 0.38775632 0.14872637 1.0221937 -0.5096407 0.73143953 -0.19961548 -1.3847424 -0.2831195 0.48532867 -0.023564212 -0.27449346 0.08170494 0.2548606 -0.77896714 -0.3019341
beaucoup 0.24724801 0.20651414 0.58553493 -0.5736215 0.5401431 -0.63589674 -0.80791855 -0.045606453 0.14650111 -0.6601317 -0.18777369 -0.048758924 0.06381562 -0.5272263 -0.18184516
supermarche 0.6020666 0.75303125 0.3409376 -0.58612704 -0.052596863 -1.0827395 -0.7971322 -0.13732722 -0.08889263 -1.2705039 -0.07438643 0.10578958 -0.3907443 -0.48092675 -0.94522274
type 0.17708723 0.4410755 0.5354266 -0.4932732 0.5139885 -0.60733926 -0.7573966 -0.19761704 0.101071365 -0.74279 -0.3859188 -0.068917215 -0.14021574 -0.45696038 -0.4249502
mondial 0.0469337 0.26807675 0.54938334 -0.54628015 0.9838038 -0.63847154 -0.6931456 0.18923353 0.10737758 -0.50068164 -0.14931062 -0.21291721 -0.08033941 -0.62568206 0.20907068
boite 0.19327092 0.453734 0.30518112 -0.6187412 -0.16285345 -0.87545794 -0.929643 -0.1442811 -0.080212176 -1.3020489 -0.18790987 -0.06954815 -0.08321069 -0.14731751 -0.50954944
parc 0.076114684 -0.23602572 0.8555866 -0.69073606 0.9056899 -0.41868335 -0.97533137 0.16291168 0.5559862 -0.4366971 -0.12541458 -0.08786528 0.5298837 -0.34393224 0.23728624
collecte -0.12104465 0.11275467 0.4371897 -0.68892354 0.30415183 -0.3599542 -0.84773636 -0.2518567 0.4243352 -1.5733159 -0.39747384 0.049730785 0.021261053 -0.09030977 -0.545963
suremballage 0.4940525 0.87278676 0.4129754 -0.49908158 -0.181802 -0.9612736 -0.90263367 -0.23818353 -0.095803164 -1.156275 -0.25624555 0.10292964 -0.3726426 -0.76967704 -0.7988796
baisser 0.20949057 0.6746976 0.75522524 -0.39128482 0.7592745 -0.61820906 -0.97237897 -0.04227727 0.06554959 -0.19981503 -0.18127403 0.0382501 -0.009265027 -0.6379196 -0.1835201
compost -0.1128468 -0.12814601 0.49370036 -0.6716782 0.51070875 -0.4903436 -0.8547889 -0.093400985 0.4780755 -1.4421668 -0.20224722 0.057069786 0.17375723 0.14877161 -0.397068
cyclable 0.24762869 -0.5406195 1.1611271 -0.87115604 1.4501517 -0.47283724 -1.2251855 -0.54094404 0.7278452 -0.09357348 -0.6541887 -0.10492249 0.29815874 0.029919652 -0.07953709
alternative 0.42009676 0.57396865 0.52443534 -0.45945415 0.30078718 -0.64317364 -0.8557746 -0.3331899 -0.0054135844 -0.7194745 -0.3511295 -0.009719871 -0.15628543 -0.6219082 -0.57936364
societe 0.20668079 0.3482017 0.56806594 -0.42563897 0.8062918 -0.53111297 -0.68909115 0.21057974 0.12668547 -0.6473504 -0.08871416 -0.2335013 -0.085919805 -0.6847009 -0.06388006
rien 0.047705047 0.3399674 0.4290753 -0.5060293 0.4052424 -0.7190015 -0.74738264 0.28590843 0.065833084 -1.0865984 0.06926172 -0.22662684 0.004677246 -0.3542064 -0.092248656
qualite 0.24682951 0.5182948 0.34067854 -0.54117393 0.2833448 -0.92191285 -0.7524193 0.08722364 0.0007689872 -0.8057475 -0.014375956 -0.10916477 -0.35428452 -0.84694636 -0.36938396
carton 0.359953 0.64421487 0.2722583 -0.81503546 -0.4740753 -0.9907515 -1.089 -0.4965979 0.09833275 -1.6553606 -0.5399069 0.0218426 -0.27868453 -0.4689017 -1.0839477
mer 0.12402734 0.022168396 0.4343279 -0.6061342 0.41412288 -0.5234294 -0.92057353 -0.1133154 0.3659913 -0.82587177 -0.05401215 -0.0784578 -0.00076267135 -0.39944983 -0.27308694
piste 0.24069579 -0.67960674 1.0640223 -0.78963685 1.4745082 -0.5672407 -1.2825774 -0.5892684 0.6360017 -0.030098265 -0.5006778 -0.017536731 0.42008895 -0.13419583 -0.024530957
obsolescence 0.35927382 0.20854758 0.57259065 -0.46586964 0.630921 -0.6386232 -0.7210262 0.36188453 0.17693996 -0.65045357 0.2807609 -0.42168528 -0.43688455 -0.9614374 -0.08370651
recherche 0.23846081 0.23783341 0.78364986 -0.4598736 0.6052591 -0.17733249 -1.1087312 0.13400115 0.40386724 -0.44326302 -0.09963499 -0.10593268 0.18941873 -0.756826 0.022999698
subventionner 0.37596372 0.12637427 0.73095596 -0.5690456 0.71065784 -0.45295477 -0.9488194 -0.021858519 0.2951084 -0.23746908 -0.05700416 -0.060693156 0.028546782 -0.80523145 -0.050362714
appareil 0.19824275 0.3446536 0.65419203 -0.42702025 0.46492764 -0.45754367 -1.1074595 0.032560233 0.24094519 -0.44050848 -0.124422565 -0.12024773 0.060891643 -0.56552154 -0.25597918
jetable 0.37268403 0.68641293 0.30661452 -0.6611013 -0.39960265 -0.8899161 -0.99287 -0.23149915 0.03450413 -1.4234585 -0.35702154 -0.035114657 -0.3256348 -0.5562085 -0.9562024
gobelet 0.41242826 0.66398084 0.2865289 -0.72609633 -0.5827874 -0.8671553 -1.3144335 -0.42723587 0.08747334 -1.5991287 -0.6052565 -0.080116704 -0.15463054 -0.60039604 -1.1169665
penser 0.20858416 0.29458398 0.55958307 -0.51148516 0.6075348 -0.7727086 -0.72604144 0.27257466 0.098975934 -0.5872232 0.0456303 -0.18182872 -0.056635983 -0.63651836 0.056910373
marchandise 0.28178677 0.484389 0.9162274 -0.37153167 0.99566436 -0.79648167 -1.0106399 -0.6465127 0.02301419 -0.09860273 -0.5508452 0.03651031 -0.33231336 -0.59442234 -0.34529927
sanctionner 0.12725218 0.43337923 0.45023197 -0.4137508 0.6053779 -0.48855522 -0.7082388 0.14891005 0.1165241 -1.0583552 -0.09509072 -0.1507941 -0.09308937 -0.4457601 -0.106160164
materiau 0.34281182 0.4551429 0.43026727 -0.6157636 -0.1336945 -0.5209721 -1.0306361 -0.13232455 0.20945798 -1.0695758 -0.22528963 0.045109876 0.02721799 -0.69085115 -0.4749316
bateau 0.39307034 0.48506293 0.79037035 -0.42701253 0.7053037 -0.507327 -1.0821997 -0.30334684 0.1812837 -0.13980155 -0.41001102 -0.1351327 -0.055321503 -0.58267456 -0.24006137
covoiturage 0.34066594 -0.003614205 0.8760746 -0.57366556 1.1039302 -0.59366405 -1.0049309 -0.39026427 0.31664807 -0.14627405 -0.38361362 0.012096615 0.1488934 -0.18028301 -0.27442655
pratique 0.08574853 0.24523495 0.46112704 -0.58568907 0.6620515 -0.72499317 -0.603027 0.30771512 0.15367122 -0.7480434 0.055788968 -0.21253389 -0.08819395 -0.68609 0.02400824
intensif 0.24558567 0.24976146 0.59398425 -0.63455313 0.49563774 -1.1906902 -0.5155005 0.120747544 -0.10950323 -0.50955063 0.14131267 0.027977712 -0.3533996 -1.2108772 0.13606189
electriqu 0.3869366 0.29212165 0.90012646 -0.49368787 0.6770258 -0.36504668 -1.2206256 -0.21057433 0.33448628 -0.059815444 -0.1887373 0.043682028 0.22548263 -0.63084763 -0.17654112
nettoyer 0.029703917 -0.16026872 0.47502136 -0.74754614 0.64591724 -0.58098173 -0.8512974 0.1345652 0.33549532 -0.8659351 -0.06263835 -0.17550524 0.143348 -0.20179132 0.05157183
lutter 0.19376437 0.06129343 0.4576541 -0.52268386 0.92288357 -0.5375742 -0.6329943 0.38953212 0.25337592 -0.7048316 0.21289754 -0.51003927 -0.14166565 -0.88053936 -0.1887713
organiser -0.0031413485 0.21429715 0.50828177 -0.5638452 0.72263634 -0.48520872 -0.761032 0.026619354 0.23603044 -0.8454023 -0.08457644 -0.03558581 -0.0327123 -0.36359248 -0.15247855
territoire 0.19765985 0.062399775 0.7019948 -0.6204541 0.9411555 -0.6410548 -0.87911326 -0.14327727 0.22795516 -0.35441795 -0.2491626 -0.06523661 0.07226555 -0.2841268 -0.04376785
lumineux 0.058719836 0.45240462 0.92268956 -0.6459204 0.13840026 -0.6360548 -1.4013976 0.35613063 0.30670002 -0.7800181 0.08468872 0.12255749 0.9428732 0.0049055465 0.30336568
ordure -0.22579978 0.55319494 0.34912726 -0.47988728 0.50396377 -0.38748565 -0.7920089 -0.052395806 0.17115399 -1.5659397 -0.2992145 0.031490285 -0.20924798 -0.28496662 -0.45713663
thermique 0.2641432 0.27616876 0.92786753 -0.60150105 0.6709177 -0.2006807 -1.2125078 -0.22012225 0.3683628 -0.28574768 -0.26369467 0.08533407 0.4241438 -0.40569323 -0.24365918
cantine 0.35405937 0.56374454 0.3406064 -0.4485721 0.5215516 -0.98689944 -0.5839596 0.16583712 -0.113205776 -0.94699395 0.13273801 0.020676408 -0.3503403 -0.65916306 -0.3905633
quotidien 0.29093465 0.54473835 0.47920933 -0.41731414 0.693806 -0.8095332 -0.7066778 0.19267224 -0.024366053 -0.69932234 -0.019786838 -0.17445293 -0.22592525 -0.60029364 -0.18193102
pluie 0.1971929 -0.7730424 0.5427628 -1.1746514 -0.034824613 -0.39377812 -1.5410001 -0.27708745 0.9724112 -0.80673933 -0.23330824 -0.09606423 0.3731791 -0.27541256 -0.6422622
devenir 0.2012315 0.23340851 0.44724855 -0.56334805 0.6497382 -0.7590633 -0.6213459 0.15729286 0.040229052 -0.6478953 -0.0697254 -0.16298294 -0.082907535 -0.59263104 -0.123146616
neuf 0.34573776 0.02157024 0.66342294 -0.68221563 0.33246827 -0.48614562 -1.0921671 -0.0766949 0.40116036 -0.52784604 -0.09399572 0.07588016 0.1755438 -0.45840082 -0.2700442
plus 0.2538111 0.26165366 0.62263775 -0.53843087 0.775288 -0.52423525 -0.8926772 0.0743801 0.30722457 -0.48671123 -0.12947547 -0.12380301 0.16118285 -0.37070873 -0.07790221
autour 0.2220331 -0.24260044 0.6250432 -0.7855339 0.6556918 -0.9064817 -0.6710149 -0.027868833 0.22290024 -0.51426643 -0.27993837 -0.074274324 0.19230685 -0.22157067 -0.12093723
ensemble 0.20528632 0.34420067 0.53180647 -0.538375 0.6967252 -0.65515333 -0.6686887 0.2126471 0.12983556 -0.7233365 -0.022779124 -0.14498733 -0.1744282 -0.61444736 -0.092172496
ameliorer 0.18471582 0.095555395 0.6599201 -0.6279926 0.7291861 -0.5167802 -0.88215697 -0.33838463 0.2843372 -0.45112717 -0.32219264 -0.079338536 0.0031291873 -0.36932695 -0.35477245
association 0.17985411 0.34926042 0.41913283 -0.5746313 0.5994367 -0.80993426 -0.66350937 0.26459473 0.0833871 -0.81396836 0.03719215 -0.104971975 -0.08469656 -0.41714692 -0.11731945
protection 0.011759312 0.16422805 0.5167297 -0.6118018 1.0561281 -0.70305145 -0.53387123 0.7061626 0.2077699 -0.7617161 0.032655496 -0.40938568 -0.08729208 -0.63993204 0.40165073
recuperer 0.14173469 -0.19633286 0.41895124 -0.82345915 0.06513418 -0.49241906 -1.0469844 -0.15518287 0.48433656 -1.0094078 -0.17506282 0.0042400574 0.19353987 -0.33543798 -0.5278625
gaz 0.28265852 0.28145328 0.67024875 -0.46804628 0.55862445 -0.57610977 -0.9934749 -0.09454761 0.19980893 -0.29191196 -0.1649598 -0.046547648 0.060078263 -0.70569336 -0.106929906
surconsommation 0.29683232 0.3997973 0.44887277 -0.46639103 0.36304146 -0.816696 -0.7995485 0.031487852 0.079408646 -0.7460766 -0.018700782 -0.05701129 -0.15220022 -0.55668944 -0.26410505
conscience 0.2800461 0.43671897 0.6052926 -0.38587674 1.1343766 -0.7045382 -0.62619483 0.43120182 0.14327958 -0.5613188 0.06681145 -0.4107184 -0.13782322 -0.6450659 0.18649283
generaliser 0.098251946 0.16020747 0.42017698 -0.6178012 0.4561745 -0.6307621 -0.8605264 -0.10178464 0.20917939 -0.8391873 -0.25514162 0.013384484 -0.013010472 -0.25350732 -0.3464335
quartier 0.0932646 -0.007821635 0.59924084 -0.6390098 0.8399279 -0.6795785 -0.7802471 0.16421646 0.2877906 -0.70374185 -0.012006289 -0.046801686 0.15918648 -0.16687843 0.036050074
potable 0.2874013 -0.54948837 0.41005054 -1.0823396 -0.21490675 -0.52760893 -1.5553485 -0.40856653 0.792028 -0.8583588 -0.25142026 -0.09496377 0.049891718 -0.39584798 -0.9792995
revoir 0.24910143 0.31247702 0.60797286 -0.53720766 0.61685604 -0.7069096 -0.8171496 0.10857632 0.12178361 -0.40205333 -0.16228575 -0.15399481 0.008458186 -0.510638 -0.04061304
vetement 0.39488903 0.46864414 0.37234604 -0.5523634 0.17743282 -0.9448796 -0.7341527 -0.076039486 0.058274213 -0.90845317 -0.031497303 0.10112029 -0.39122328 -0.6874048 -0.6835404
developpement 0.19485846 0.10371145 0.67099786 -0.46363634 0.9498814 -0.5869877 -0.8093265 0.26238996 0.23332079 -0.41245556 -0.013310591 -0.21384172 0.07994341 -0.7053279 0.13989232
fois 0.28455245 0.3830206 0.42104208 -0.53304523 0.37651718 -0.8178026 -0.8738643 -0.16995707 0.073378935 -0.681828 -0.16823214 -0.0887799 -0.25461215 -0.5100872 -0.5071852
sortir 0.15345865 0.11946004 0.6564686 -0.58904785 0.67267483 -0.4010251 -0.92549413 0.23595527 0.34424505 -0.35891977 -0.022621922 -0.1494015 0.17400673 -0.59858805 0.10405877
activite 0.1350974 0.32415646 0.63495576 -0.5265169 0.89576447 -0.52414626 -0.82179695 0.28781772 0.18971723 -0.4835678 -0.091112 -0.20512159 0.04712045 -0.50133646 0.14338893
preserver 0.08016673 -0.16515507 0.63258076 -0.6639043 0.8546756 -0.868569 -0.6928527 0.45739007 0.21428835 -0.45793983 -0.0064487946 -0.22364429 0.08117219 -0.53785783 0.31085292
habitation 0.24651352 -0.22154753 0.72086585 -0.7190161 0.6416552 -0.47898594 -1.0558317 -0.021763757 0.46187636 -0.5226306 -0.20955883 -0.060334325 0.3801842 -0.34000552 0.0018457007
aller 0.33244228 0.22416644 0.54380524 -0.5588421 0.85880804 -0.6517118 -0.7295621 -0.02266068 0.19871333 -0.45603406 -0.17056029 -0.122573 -0.10270023 -0.3958502 -0.21729092
informer 0.11626882 0.4470598 0.47900894 -0.5003197 0.6946787 -0.65478134 -0.77300864 0.40213716 0.15258548 -0.63298535 0.008418619 -0.20515667 -0.021902526 -0.5610855 0.047357645
emploi 0.2499126 0.3414892 0.56860614 -0.43312007 0.6769728 -0.6183593 -0.78521776 0.028352622 0.19207764 -0.59113955 -0.1536147 -0.14633134 -0.13720933 -0.629426 -0.16175301
respectueux 0.33085263 0.30854356 0.4791135 -0.52947754 0.6019731 -0.8618165 -0.54734397 0.31084892 0.057881434 -0.75271666 -0.013087636 -0.019246895 -0.19215858 -0.86332804 -0.10295843
biologique 0.3580192 0.18510908 0.54652315 -0.55683047 0.6939414 -1.1045542 -0.53851795 0.4000636 0.04363481 -0.52368766 0.28773627 0.08063027 -0.50246036 -1.1263022 0.084817156
interdir 0.25630665 0.4006897 0.45463085 -0.5427303 0.23624587 -0.6827161 -0.7594591 0.010557168 0.1343576 -0.7766185 -0.1663701 -0.051902268 -0.10637682 -0.47702157 -0.385648
lourd 0.093044244 0.48332325 0.71581286 -0.39988664 0.801254 -0.47230527 -0.9884088 -0.41607425 0.14174156 -0.46248206 -0.41877556 -0.06796263 -0.12058953 -0.44543436 -0.29066813
ferroviaire 0.25001916 0.195613 0.9847616 -0.48485333 1.235014 -0.69636387 -1.0121465 -0.78023106 0.110882245 0.03183705 -0.6897255 0.041089408 -0.19199015 -0.35919058 -0.30257633
faciliter 0.23888718 0.23154248 0.5239348 -0.54928267 0.62771195 -0.65603757 -0.80839884 -0.06692102 0.20141 -0.5810402 -0.2060357 0.061036486 -0.04627999 -0.36289442 -0.28669423
temps 0.22341268 0.2196307 0.45982727 -0.6169939 0.4313663 -0.6500434 -0.78355795 0.07874965 0.22186406 -0.66268504 -0.14082459 -0.1187591 -0.1037852 -0.472605 -0.22643082
vivre 0.16906434 0.19673127 0.44859207 -0.5763644 0.7577992 -0.7858046 -0.61201864 0.39781624 0.2185539 -0.75994325 0.17625216 -0.16055122 -0.08925474 -0.63510716 0.11811979
point 0.019202998 0.042898845 0.48848796 -0.7416558 0.38221806 -0.5257024 -0.79657304 -0.22767323 0.35800445 -1.2219391 -0.3444416 0.090426035 0.039964676 -0.07289263 -0.54388475
automobile 0.21034312 0.31918874 0.80907065 -0.5436421 0.6890946 -0.3340368 -1.1367092 -0.07001754 0.29974997 -0.28587925 -0.2599495 -0.08069621 0.2404636 -0.50963426 -0.08884914
centrale 0.26952928 -0.100423194 0.76364815 -0.66499424 0.44812366 -0.113352224 -1.2918183 0.16364421 0.6367247 -0.5660528 0.057178125 0.01831651 0.52956265 -0.7147806 0.14392975
enseigne -0.012566674 0.4705952 0.8339428 -0.65541565 0.10278134 -0.7609766 -1.32314 0.5581557 0.24115005 -0.7978567 0.14262919 0.12598391 0.77952564 0.12610045 0.23576476
argent 0.24535094 0.39189872 0.59843755 -0.42918772 0.68432 -0.5226243 -0.8357598 0.20025621 0.22862604 -0.50718683 -0.053020645 -0.11444366 -0.015328229 -0.7076863 -0.10601476
nourriture 0.34926486 0.344045 0.4212898 -0.5362757 0.44049704 -1.0050067 -0.6465623 -0.024042169 0.039820876 -0.7628225 0.021660758 0.07192448 -0.36812603 -0.6182137 -0.28787977
respect -0.0017481884 0.4245811 0.39418402 -0.50931066 1.0530005 -0.6968682 -0.5032622 0.627312 0.13512607 -1.1083059 0.20858018 -0.34351307 -0.14657618 -0.62435216 0.30497232
habitude 0.23284999 0.50261253 0.46980637 -0.4084888 0.7970511 -0.8830824 -0.6512481 0.3223196 -0.03476823 -0.6596375 0.046572134 -0.1485124 -0.24951078 -0.7234242 -0.052988127
publicitaire 0.21999252 0.33991706 0.8389003 -0.6486619 0.0834808 -0.48669103 -1.1303957 0.23097938 0.39451963 -0.83897316 0.059722528 0.15774475 0.7799517 -0.16403782 0.17616658
collectivite 0.15506253 0.15754518 0.5376075 -0.55923015 0.52812636 -0.5764677 -0.7715098 0.13263431 0.22944312 -0.8474126 0.014368741 0.013765542 0.06602275 -0.50637656 -0.13162254
compostage 0.04201984 -0.0063797385 0.5435537 -0.6223982 0.58393896 -0.58516145 -0.84379977 -0.11031178 0.31720862 -1.0253828 -0.13477121 -0.016160889 0.062845744 -0.13044521 -0.3794846
appliquer 0.07047497 0.60872006 0.48035246 -0.47682878 0.56655145 -0.49180424 -0.7267812 0.2529977 0.10412812 -0.8936633 -0.1497903 -0.21458384 -0.052868742 -0.5683672 -0.13682872
chimique 0.32117712 0.4113384 0.3541638 -0.634478 0.09626573 -0.9605936 -0.72986865 0.064662874 0.00026548046 -0.73682106 -0.009870408 -0.022052394 -0.35994115 -0.9282011 -0.38197687
bilan 0.22048199 0.8479088 0.80982816 -0.2996827 0.7983678 -0.4279129 -0.83396894 0.2644169 -0.045018137 -0.52314705 -0.18374112 -0.23448347 -0.045701507 -0.74018455 -0.08201678
profit 0.266794 0.08042257 0.6634729 -0.5778009 0.6751728 -0.7441602 -0.7990401 -0.041759595 0.15395501 -0.40026355 -0.1615593 -0.030477613 0.022285454 -0.5377195 -0.020702884
massivement 0.30099124 0.18699473 0.79097986 -0.43397534 0.78777146 -0.409124 -1.0309972 -0.05056998 0.26405752 -0.26327255 -0.10911 0.016681695 0.05802058 -0.8028785 -0.043820072
bureau -0.004444538 0.24927634 0.66099995 -0.58822703 0.27453664 -0.6975521 -1.1498636 0.15142146 0.25155184 -0.704706 -0.07960591 -0.0003913606 0.45794687 0.027492132 -0.07079887
age -0.027730158 0.3417704 0.46591464 -0.6672398 1.3743 -0.865991 -0.47497928 0.8051205 0.25701395 -0.9993872 0.4042662 -0.5113942 -0.26117286 -0.7512939 0.6723928
voir 0.14853917 0.083383024 0.4543024 -0.6098477 0.624347 -0.71814173 -0.7397677 0.18066308 0.24815208 -0.7454741 -0.019276349 -0.15504445 -0.01559822 -0.44466987 0.0014583622
douche 0.30530345 -0.30212098 0.3784763 -0.84428173 0.056377593 -0.58313113 -1.2580134 -0.38283554 0.5639856 -0.6915762 -0.24869116 -0.024621414 0.044368386 -0.37639013 -0.82259244
acce 0.324627 0.22603348 0.59530646 -0.5520398 0.5969516 -0.6838294 -0.8595888 -0.109878205 0.19861601 -0.5078571 -0.075115845 0.121798016 -0.025323834 -0.39472356 -0.36627564
climat 0.072557546 0.21683802 0.56712794 -0.5241849 0.8772536 -0.5808577 -0.67416406 0.4275657 0.21385293 -0.6181699 -0.09497397 -0.32418072 0.052843306 -0.6335755 0.14856625
filiere 0.13981181 0.27101013 0.48121858 -0.553353 0.27644885 -0.32903245 -0.9176456 -0.16533777 0.3453749 -1.040683 -0.26692057 -0.012872216 -0.065284275 -0.4939543 -0.40953267
ferme 0.15734594 0.0429238 0.6141826 -0.6659515 0.42273563 -0.8312259 -0.9167075 0.10424918 0.19791101 -0.5670917 -0.025904918 0.047179725 0.26084134 -0.32349068 -0.03182838
terme 0.20685504 0.29018554 0.6683203 -0.44441926 0.78351176 -0.7270973 -0.80594444 0.04076288 0.12930825 -0.4520618 -0.1533293 -0.04464356 -0.13117978 -0.73691785 0.13938051
air 0.22626245 -0.0074254805 0.62603605 -0.6542622 0.5994765 -0.63322186 -0.88681257 -0.0067689647 0.28077263 -0.4286021 -0.18305638 -0.11956948 0.11551893 -0.45308432 -0.21448672
boycotter 0.4276751 0.6099131 0.36430043 -0.4580668 0.2663115 -0.9359222 -0.6702032 0.098602325 -0.023296183 -0.80553555 0.0130835725 0.055339444 -0.2663237 -0.5888566 -0.46404606
zero 0.11630987 0.5485132 0.33120576 -0.43250635 0.49996662 -0.71889853 -0.693635 -0.0002708981 0.0661654 -1.1794949 -0.08843959 0.015210224 -0.24612877 -0.5695805 -0.24795853
village 0.13372627 -0.07312732 0.6779595 -0.61006194 0.7939587 -0.67913425 -0.8726708 -0.04980612 0.38133648 -0.54814583 -0.14264232 0.048739217 0.20187475 -0.18959828 -0.0321688
mesure 0.25320512 0.35311595 0.64212 -0.44183967 0.8171551 -0.6118969 -0.7114148 0.25974277 0.13786356 -0.5920325 -0.12685193 -0.23949106 -0.01477713 -0.49829856 -0.0010643764
autant 0.2908932 0.22894365 0.6630106 -0.53334737 0.66286445 -0.7393556 -0.79070866 -0.14075193 0.13883385 -0.37798995 -0.1936828 -0.017600384 -0.043889664 -0.55191714 -0.14196521
ligne 0.23093669 -0.04710513 0.9066587 -0.6781878 0.8711946 -0.6608534 -0.9571417 -0.34222853 0.21485001 -0.09040898 -0.42136654 0.06429859 0.17564969 -0.18843107 -0.12560438
masse 0.21124512 0.3571359 0.5619818 -0.45572612 0.61554515 -0.77886045 -0.7095393 -0.039599992 0.054214116 -0.58325696 -0.11900082 -0.10316196 -0.17083406 -0.63017744 -0.14816363
plan 0.12352328 0.12373956 0.68820184 -0.5738476 0.8700296 -0.3920449 -0.7432783 0.3479475 0.36331156 -0.76992226 -0.09572614 -0.16917114 0.19558442 -0.40189308 0.03470998
reutilisable 0.5220213 0.6321376 0.25577545 -0.68123126 -0.22642456 -1.0825148 -0.97223705 -0.18989265 0.06725592 -1.4255886 -0.16631489 0.08929992 -0.37192887 -0.5746598 -1.195544
fabricant 0.3281617 0.7437018 0.35158587 -0.43510863 -0.0005562141 -0.59099215 -0.85590845 -0.081613034 0.038860604 -1.1784394 -0.2410611 -0.1339984 -0.23588258 -0.7009392 -0.6421308
devoir 0.27504176 0.35386547 0.5430428 -0.48733208 0.4519987 -0.76117384 -0.8242854 -0.014218503 0.11293389 -0.6174728 -0.12871426 -0.10801027 -0.06550247 -0.5598076 -0.18968655
espece 0.13839924 -0.023229858 0.52217007 -0.62905884 0.67542815 -0.7798072 -0.70732653 0.16629645 0.20490016 -0.50321954 -0.11702631 -0.2331549 0.00080380496 -0.5042022 0.10444343
soutenir 0.31989747 0.26413286 0.62837285 -0.4842466 0.8749718 -0.77814144 -0.67407966 0.27948213 0.12496089 -0.39381212 0.07268552 -0.05650884 -0.06342519 -0.75360066 0.09394943
ressource 0.13032648 0.19472028 0.50662106 -0.53125787 0.5949213 -0.73684 -0.73247117 0.16610156 0.18540603 -0.62109625 -0.014827177 -0.22681107 -0.156568 -0.7342468 0.08224666
replanter -0.12788922 -0.5383547 0.7665798 -0.98847294 1.0462868 -0.8150175 -0.66496104 0.1554836 0.28003532 -0.4730606 -0.42394307 -0.22510824 0.5541028 -0.3241088 0.3006089
penaliser 0.24761592 0.44253403 0.4737518 -0.48395774 0.57926035 -0.7245533 -0.74928594 0.085383974 0.08914584 -0.766578 0.033801187 -0.039179627 -0.11926147 -0.4299853 -0.2799921
distribution 0.46856642 0.68565583 0.3577029 -0.49633935 -0.020578504 -0.90493184 -0.81463003 -0.072139174 0.022731867 -1.0825367 -0.10641043 0.13492224 -0.16364038 -0.48028228 -0.66197586
semaine 0.31770775 0.47488865 0.437355 -0.38219377 0.6208278 -0.8584909 -0.8989628 -0.043622527 -0.01200105 -0.5591867 -0.1096233 -0.033921994 -0.12154337 -0.5487442 -0.27648908
gouvernement 0.20520303 0.3009491 0.5309507 -0.46340135 0.7552494 -0.64471805 -0.6728813 0.2907387 0.13484392 -0.60641384 -0.06669004 -0.15862288 -0.089885734 -0.5908081 -0.03453573
reparation 0.36762252 0.3943187 0.59010917 -0.46280494 0.6922014 -0.7204186 -0.8071919 0.12828428 0.0985568 -0.5189031 0.038430296 -0.0893517 -0.22820903 -0.6372991 -0.19943945
journee 0.096616864 0.18273006 0.601956 -0.5563789 0.8090322 -0.5857545 -0.8335296 0.16443706 0.20676039 -0.68013823 -0.047359254 -0.11717443 0.079539865 -0.29407775 -0.014747163
servir 0.1313945 0.06778222 0.48401964 -0.66876113 0.20711684 -0.53968143 -0.9470141 0.1059697 0.4225694 -0.9534501 -0.022000985 -0.06378584 0.1574661 -0.28820533 -0.37685353
cafe 0.29611617 0.422404 0.32826743 -0.6673449 -0.2232924 -0.71060747 -1.0601199 -0.28400296 0.1574566 -1.223385 -0.40237406 -0.08822998 -0.09496243 -0.46014777 -0.82272357
bois 0.265404 0.2139422 0.4670002 -0.6162651 0.11276881 -0.65352416 -0.9522683 -0.1107818 0.25373882 -0.81032485 -0.18469658 -0.05338486 0.040013492 -0.47330523 -0.39184028
comprendre 0.17872111 0.46767288 0.64169616 -0.5052223 0.8456824 -0.5042886 -0.7165525 0.38797337 0.18967779 -0.57120013 0.055159036 -0.171422 0.0049190614 -0.68759423 0.18957122
fret 0.17873317 0.28554332 0.9115421 -0.43273538 1.0609127 -0.67604864 -0.93448555 -0.5943032 0.17158532 -0.12347832 -0.6079969 -0.019062757 -0.24952099 -0.389338 -0.28577238
restaurant 0.29815665 0.35551396 0.374876 -0.60162705 0.16435538 -0.7917727 -0.743842 0.038156956 0.11076249 -1.0053995 -0.12525561 -0.039458837 -0.13278021 -0.4741537 -0.5312638
installation 0.25954822 -0.10173254 0.7440136 -0.7606418 0.41317323 -0.35799444 -1.0381259 0.1079977 0.5552818 -0.7669435 0.029416354 0.042782057 0.5629278 -0.394582 -0.0018669589
oiseau -0.019629009 -0.22426963 0.61109674 -0.7312064 0.69341534 -0.713446 -0.78354615 0.21915592 0.28283432 -0.5938309 -0.18319754 -0.19312836 0.21672349 -0.31024316 0.14875776
reduction 0.24577053 0.50050473 0.45885906 -0.50737995 0.56784964 -0.6692085 -0.6823169 0.054835036 0.09035689 -0.7967605 -0.12484374 -0.10388207 -0.21619703 -0.5147078 -0.2937172
exploitation 0.22207795 0.1427291 0.5036169 -0.5593633 0.6197707 -1.0107117 -0.62263167 0.2054148 -0.0052360864 -0.51126975 0.033631783 -0.025909932 -0.18423492 -0.86407936 -0.024897745
usine 0.2465677 0.15561849 0.5607602 -0.5890425 0.37062132 -0.6948929 -0.9103153 0.007164318 0.1851752 -0.72761184 -0.06075599 -0.0045983447 0.15424077 -0.46764174 -0.12047632
chaleur 0.18229195 -0.18829195 0.6663911 -0.6635325 0.47583547 -0.45518762 -1.0775863 0.09184919 0.52403015 -0.5971454 -0.07506312 0.0020766645 0.40866533 -0.2909364 -0.074171185
minimum 0.09259993 0.0655379 0.5438842 -0.65147126 0.482018 -0.5031461 -0.8778934 0.10525334 0.2973234 -0.8185734 -0.1751692 -0.114750534 0.22427757 -0.34209034 -0.06288028
creation 0.20067869 0.06970613 0.66107684 -0.58207583 0.8750029 -0.6496611 -0.8736021 -0.040735945 0.28170475 -0.39140645 -0.27731547 -0.09092539 0.1054338 -0.32123762 -0.06467343
maniere 0.26564032 0.3355037 0.50215614 -0.43233594 0.6924457 -0.72093177 -0.6858683 0.24908295 0.10352697 -0.641445 0.09383079 -0.11202511 -0.18055394 -0.70585185 -0.110674776
recuperation 0.1358374 -0.28471774 0.45543352 -0.93199885 0.004019331 -0.35222948 -1.2364846 -0.16915432 0.62235403 -1.0527498 -0.28883284 -0.023093464 0.19446702 -0.2839754 -0.5644183
echelle 0.21074574 0.2283385 0.57008016 -0.5669224 0.6100425 -0.7722813 -0.6498078 0.049891345 0.19804043 -0.71438533 -0.19418897 -0.019132135 -0.00940597 -0.50881124 -0.21390784
partir 0.081041455 0.11314021 0.77905506 -0.5364507 0.5315563 -0.5372142 -1.1339368 0.15501347 0.44927222 -0.4678203 -0.066172004 -0.03022959 0.40456298 -0.2313528 0.09567385
champ -0.05036185 -0.47418225 0.6844133 -0.9260084 0.8732245 -0.74607235 -0.7009358 0.050107893 0.26171288 -0.51379746 -0.49380168 -0.16098346 0.2946278 -0.36548242 0.20722902
economiqu 0.20891829 0.29133448 0.48260176 -0.5708496 0.520843 -0.603903 -0.8018176 0.07953487 0.196926 -0.69426775 -0.20599157 -0.15694575 -0.07987038 -0.5847611 -0.18422344
selectif -0.22468272 0.42157182 0.34882683 -0.57461596 0.460812 -0.43557292 -0.86326516 0.07635718 0.34770355 -1.8303093 -0.113260396 -0.17640693 0.053025413 -0.09383163 -0.45264497
utilise 0.1860584 0.26889873 0.45848203 -0.5962525 0.20644155 -0.62728745 -0.9393971 -0.16586192 0.15983845 -0.72821146 -0.32337284 -0.079266764 -0.0131646 -0.48330855 -0.37353483
lobby 0.19519289 0.3452818 0.5408983 -0.5159932 0.5824152 -0.5516774 -0.7718411 0.22102667 0.19961126 -0.6303795 -0.114806674 -0.1971989 0.054537777 -0.5351143 0.04364924
europe 0.2178887 0.29028082 0.60729665 -0.48770118 0.67061436 -0.6939721 -0.8188101 -0.119907975 0.1187254 -0.4874262 -0.22950128 -0.086559206 -0.16690068 -0.6068243 -0.19167584
machine 0.26899296 0.23908824 0.23773152 -0.734297 -0.3194797 -0.73427314 -1.2230829 -0.2941741 0.24842909 -1.2329853 -0.34358284 -0.031179791 -0.044895954 -0.35595286 -0.93364275
duree 0.13900675 0.29976296 0.6554609 -0.47303915 0.61368763 -0.6663092 -0.89706963 -0.037054 0.13275222 -0.5352637 -0.1821508 -0.09577886 -0.099307634 -0.49656156 -0.03128187
petrole 0.32178637 0.2930433 0.5238723 -0.5802477 0.2687997 -0.5787338 -0.97170806 -0.12969953 0.27211 -0.5506587 -0.14014536 -0.03699372 1.2682074e-05 -0.65700835 -0.33533338
recycle 0.19768684 0.5374465 0.37078702 -0.67321724 -0.05957205 -0.6576722 -0.8549254 -0.13214016 0.13302037 -1.4078423 -0.27049235 0.012427874 -0.11930921 -0.45130908 -0.6011481
ete 0.14898676 0.076226704 0.5681385 -0.649415 0.4201111 -0.6486386 -0.97116476 0.16971794 0.2871754 -0.66179454 -0.11396136 -0.09176424 0.2346972 -0.31893232 -0.065807596
commun 0.16666625 -0.017430067 0.5886842 -0.63362604 0.6580246 -0.65624386 -0.81576604 0.18393898 0.34373546 -0.5894894 -0.13131301 -0.16151676 0.040382963 -0.47806802 0.0002073248
valoriser 0.36028588 0.27152416 0.4769051 -0.5423856 0.4942004 -0.7802097 -0.67003196 0.1706336 0.13933401 -0.75802654 0.08327438 -0.04493499 -0.20747103 -0.65677005 -0.2153503
fabrication 0.36999425 0.52436215 0.5374717 -0.48570538 0.26426154 -0.46942124 -0.95584273 -0.15517324 0.17569543 -0.7122831 -0.24680243 0.017075608 -0.072410814 -0.6693304 -0.40311718
cher 0.36132097 0.4831301 0.69280547 -0.48324463 0.6966658 -0.7140961 -0.8375915 -0.15935071 0.081834644 -0.39359084 -0.16865356 -0.028871313 -0.102533005 -0.6569901 -0.30716336
bannir 0.32311332 0.41186956 0.31312752 -0.62479 -0.0067330557 -0.84916645 -0.76587594 -0.12779334 0.1331292 -0.9949716 -0.24883373 -0.05648047 -0.24234112 -0.49018282 -0.6520943
forme 0.29609862 0.41296986 0.4359695 -0.53859895 0.40142742 -0.7333872 -0.7184778 0.10431727 0.04841345 -0.7852695 -0.06911822 -0.13564034 -0.21209595 -0.6883618 -0.21180291
homme 0.07879546 0.21298811 0.49755713 -0.58874434 0.7752531 -0.76343715 -0.61932075 0.2748567 0.1734154 -0.70085144 -0.024691673 -0.20928505 -0.061759226 -0.54890686 0.118787095
droit 0.15065369 0.19230084 0.5358943 -0.50557303 0.6797146 -0.6913573 -0.690852 0.14005166 0.13909365 -0.64191246 -0.12307827 -0.18042013 -0.08132765 -0.5373372 0.002238091
fabriquer 0.3143995 0.532378 0.37843546 -0.52165556 0.13278404 -0.6604413 -0.83141977 -0.06733297 0.047135133 -0.840059 -0.2023562 -0.018157102 -0.20704758 -0.63545936 -0.51221704
salarie 0.18993932 0.29237276 0.48319504 -0.5291026 0.55078495 -0.5410457 -0.91523665 -0.14069694 0.16696404 -0.6989183 -0.29716277 -0.1039856 -0.04430147 -0.36967772 -0.43591338
base 0.30465186 0.45393923 0.48179644 -0.48707622 0.4981424 -0.7009796 -0.72252077 0.07861946 0.05099768 -0.65079564 -0.14575326 -0.09631927 -0.252454 -0.66966474 -0.25268716
voyage 0.3305909 0.40909448 0.87104577 -0.34837896 0.9701743 -0.8167704 -1.0147396 -0.21975438 0.040513285 -0.0032620037 -0.3395195 -0.24056388 -0.12928095 -0.5695934 -0.07349308
drastiquement 0.29054886 0.52815145 0.5741397 -0.43356356 0.536399 -0.7226748 -0.9732121 -0.36629707 -0.036450606 -0.4138581 -0.3906816 -0.01603224 -0.2249864 -0.6422856 -0.2817191
porte 0.21847327 0.23923509 0.49092096 -0.58170754 0.35353902 -0.7438605 -0.94202703 0.09698968 0.13903715 -0.7770467 -0.060270138 0.034689832 0.1918828 -0.18057483 -0.2320868
terrain 0.08432287 -0.22241999 0.554233 -0.7312874 0.57609725 -0.6813673 -0.8248072 0.15032299 0.38693008 -0.6241376 -0.13880993 -0.05912088 0.26453042 -0.42120287 0.06448294
vraiment 0.3142937 0.42914236 0.5109326 -0.47786793 0.41885707 -0.68952805 -0.86848027 -0.055145115 0.116774715 -0.65451705 -0.15230931 -0.07445379 -0.07665781 -0.5608332 -0.29857796
quantite 0.23603676 0.53406715 0.46594337 -0.39602727 0.40087053 -0.61046565 -0.84236777 -0.012062667 0.05757965 -0.8885884 -0.11913315 -0.0059648035 -0.16390385 -0.67838645 -0.37965646
plage 0.0028414484 0.049067035 0.50057995 -0.58965796 0.6590912 -0.6258849 -0.769336 0.20419897 0.3114545 -0.99309367 -0.069730856 -0.12418881 0.17459601 -0.16062999 0.021091672
former 0.13173579 0.13805902 0.49705207 -0.5924763 0.84627616 -0.63524777 -0.6041072 0.4493285 0.25642624 -0.66913795 0.12744626 -0.20404355 -0.096397474 -0.6484267 0.17022935
ramasser -0.03357811 0.1891741 0.38447067 -0.56001526 0.46732998 -0.611889 -0.72811157 0.04428921 0.24140792 -1.2830384 -0.06679717 -0.10523627 -0.048779093 -0.21910544 -0.19460739
faune 0.015274135 -0.02562309 0.55312026 -0.6467453 0.7675487 -0.704702 -0.7750764 0.29402623 0.28194305 -0.52159035 -0.12558846 -0.24041253 0.15801753 -0.43137777 0.256136
commencer 0.20773993 0.2651626 0.5031235 -0.5462535 0.51994336 -0.69459856 -0.7314256 0.09153157 0.19699089 -0.7607808 -0.064711444 -0.107913226 -0.0271403 -0.4711989 -0.18544605
vol 0.1514597 0.3547588 0.7332086 -0.47390288 0.7842664 -0.66612685 -0.876353 -0.124673545 0.091650285 -0.3242317 -0.31531864 -0.12968972 -0.050249904 -0.52555364 -0.009388542
course 0.37407112 0.3493291 0.5663185 -0.55421954 0.5201158 -0.7140283 -0.8140406 -0.13409749 0.14711264 -0.5173164 -0.09768317 0.045093033 -0.13033761 -0.512225 -0.45146093
investissement 0.26915693 0.22498104 0.73593265 -0.46613282 0.78521127 -0.37490466 -0.88942105 0.17211983 0.36798704 -0.42995286 -0.081302814 -0.12791266 0.16052699 -0.69925475 0.13950865
suv 0.3011947 0.4448205 0.8118587 -0.43317103 0.5723463 -0.5031652 -1.047985 -0.28609702 0.11979988 -0.33203572 -0.26982465 -0.026813237 0.08372377 -0.4839323 -0.3436376
europeen 0.14835678 0.23875959 0.6391532 -0.5087466 0.8059176 -0.5621918 -0.7866459 0.28064412 0.24662562 -0.5546617 -0.07169471 -0.24845897 0.056021955 -0.591006 0.06924314
savoir 0.15526095 0.26326138 0.51596737 -0.5660866 0.687471 -0.69123584 -0.6861208 0.14417309 0.14280595 -0.68384033 -0.05958376 -0.112632446 -0.081970915 -0.50233454 -0.101682544
site 0.16846661 0.08038231 0.59604394 -0.5777784 0.63645875 -0.5391108 -0.9080434 -0.004688596 0.28697723 -0.6910833 -0.14736614 -0.06520125 0.1394052 -0.3277196 -0.12543485
source 0.3031209 0.2456925 0.5699967 -0.5859806 0.331912 -0.56886584 -0.9274419 0.073831886 0.2737419 -0.68317574 -0.0726045 0.023367891 0.17844687 -0.59471023 -0.11227179
reutiliser 0.20759451 0.2177013 0.2676189 -0.665353 0.026026128 -0.7488511 -0.8330871 -0.057311196 0.21611232 -1.1537538 -0.119892664 -0.004182122 -0.22490625 -0.4491782 -0.60557747
autoroute 0.09750761 0.09095426 0.90681815 -0.53731894 0.971557 -0.49925074 -0.99675196 -0.2144125 0.30758762 -0.25569552 -0.45813084 -0.08267673 0.18598776 -0.28717923 -0.014484278
mise 0.2713061 0.27376148 0.59334683 -0.6333709 0.20118888 -0.5039949 -0.89563286 -0.090245605 0.34655973 -1.0165249 -0.22739664 0.049154416 0.09482328 -0.31276205 -0.49149287
photovoltaique 0.3145973 0.04835343 0.7551704 -0.7656965 0.4415401 -0.28309536 -1.0955712 0.20479947 0.6614045 -0.9322128 -0.03022116 0.09623754 0.80885386 -0.27080616 0.07631779
aerien 0.27722868 0.38051397 0.8131848 -0.3849706 0.9269254 -0.62785697 -1.0094959 -0.40905285 0.06990855 -0.11675106 -0.4036789 -0.07528972 -0.18189988 -0.5247219 -0.16036071
multiplier 0.097853385 0.08148826 0.6407015 -0.6069543 0.61133856 -0.39675316 -0.8950075 0.077753745 0.35412613 -0.7537429 -0.1298373 -0.051196557 0.30660653 -0.19524491 -0.08308472
fermer 0.24854083 0.04588182 0.6252808 -0.60449535 0.4639944 -0.5344178 -1.0419573 -0.0058366945 0.3074551 -0.5854471 -0.07023025 0.037318878 0.29523936 -0.2830312 -0.18284659
plante 0.064873785 -0.2725696 0.6155508 -0.761421 0.6874341 -0.7190336 -0.7423345 0.11613254 0.2594975 -0.6055535 -0.23297395 -0.1375639 0.19194734 -0.37414047 -0.018420076
vegetaliser 0.121116854 -0.31891683 0.78404176 -0.77029395 0.75807905 -0.45407382 -0.97204906 0.18434942 0.50010175 -0.63647974 -0.19895208 -0.046051197 0.6248009 -0.12668121 0.087086044
impot 0.2326666 0.27828017 0.63108844 -0.49136615 0.85477483 -0.49516177 -0.86804664 0.053953268 0.25145382 -0.4405394 -0.13392538 -0.12036094 0.030776596 -0.496416 -0.08999842
essence 0.17985019 0.20958073 0.8509338 -0.5288781 0.8430872 -0.53718525 -0.9895225 -0.15517463 0.18401785 -0.18752283 -0.35331106 -0.0829367 0.13112237 -0.53944767 -0.09787046
peche 0.34899104 0.40637538 0.42306098 -0.54717803 0.35539955 -0.8988188 -0.7316837 0.17734973 0.0029571217 -0.6056196 0.051588595 -0.057714153 -0.14416733 -0.6596154 -0.21601565
mauvais 0.24279334 0.5634895 0.5009943 -0.45131084 0.62969506 -0.75257 -0.71804786 0.11233052 0.0139469495 -0.6915446 -0.058435682 -0.16982748 -0.20231399 -0.7383361 -0.16215254
gestion 0.029040208 0.055606846 0.5059542 -0.6505029 0.5927937 -0.5626727 -0.82594275 0.23897623 0.3572116 -0.82226515 -0.1052341 -0.18167096 0.15763505 -0.395228 -0.07904524
habitant 0.1144593 0.13066795 0.74989843 -0.5699886 1.0185696 -0.5961077 -0.8670464 0.102059476 0.31900856 -0.4184865 -0.1454528 -0.17777322 0.19605 -0.33691075 0.08596855
international 0.098499306 0.3537112 0.65921324 -0.453244 0.85793227 -0.5992796 -0.7789403 0.12359182 0.12872477 -0.41926727 -0.27461305 -0.28495628 -0.08005484 -0.47375527 0.056283496
ocean 0.11396636 0.2877323 0.4127821 -0.55666673 0.42276773 -0.57296264 -0.7886907 0.032927625 0.20796974 -0.9715105 -0.17745487 -0.08054448 -0.03297153 -0.401393 -0.14916782
mail 0.1236754 0.30220994 0.45013124 -0.5256812 0.3590458 -0.6359233 -0.9111146 0.039692163 0.095972955 -0.7618551 -0.16641647 -0.19743651 0.05338706 -0.42805517 -0.20379403
enjeu 0.0821441 0.3880194 0.6593562 -0.52390933 1.0659713 -0.59574586 -0.6683803 0.6043525 0.14170352 -0.56007516 0.08472673 -0.41945928 -0.097473584 -0.7130709 0.3254516
vouloir 0.25065964 0.19228466 0.5221682 -0.52474207 0.57725185 -0.74981284 -0.6632741 0.2064118 0.094046876 -0.67534703 -0.066264 -0.07606692 -0.055894565 -0.6335981 -0.12334491
nucleair 0.32781434 0.16249178 0.7972256 -0.5167377 0.6401617 -0.19705102 -1.0715576 0.17480908 0.4792707 -0.5193137 -0.06786317 -0.042767473 0.31366748 -0.69965357 0.1529798
professionnel 0.26995885 0.24689107 0.67564535 -0.44989014 0.78179324 -0.5568968 -1.0173532 -0.11447762 0.2857542 -0.31463617 -0.22680154 -0.11485521 0.05867559 -0.48325166 -0.14522815
finir 0.1599431 0.33565593 0.37612686 -0.60458934 0.22378598 -0.63788706 -0.80101395 0.006039543 0.19484812 -1.0862991 -0.12135687 -0.02819537 -0.03429067 -0.34696656 -0.44320992
routier 0.25146505 0.28991428 0.8601236 -0.45309082 0.96898675 -0.676009 -1.0509504 -0.52325106 0.18291742 -0.14543995 -0.50306094 -0.013900111 -0.11930664 -0.38938472 -0.21692187
composteur 0.035584275 0.014284415 0.5453889 -0.61436355 0.554637 -0.56565416 -0.8772034 -0.06334647 0.34432262 -0.97026384 -0.18269388 -0.013190535 0.1301341 -0.15342331 -0.2553804
uniquement 0.3034384 0.43492925 0.44265082 -0.53630644 0.27503857 -0.8748834 -0.72077274 -0.08807578 0.009163624 -0.8568601 -0.19344816 0.11342426 -0.22236453 -0.6227961 -0.4787553
permaculture 0.1524589 -0.0023592839 0.6048644 -0.63916856 0.8329152 -0.7015164 -0.64580077 0.18658018 0.25000927 -0.6015179 0.06471875 -0.009231915 -0.12051774 -0.55446875 -0.038615175
renovation 0.16850036 0.07718314 0.7151489 -0.65066445 0.7637402 -0.40527818 -1.0159519 0.22701715 0.35193327 -0.51618326 -0.086038746 -0.09637305 0.36326465 -0.52164835 0.14670119
ramassage -0.056647286 0.20729087 0.43209144 -0.55475116 0.7914788 -0.6015022 -0.70982003 0.25360557 0.23835635 -1.0785185 0.014851459 -0.09141698 -0.060118392 -0.29125032 0.0043412647
stockage 0.30766302 0.0832041 0.61540335 -0.5751256 0.31206444 -0.38328674 -1.2012076 -0.042300217 0.37060094 -0.53709984 -0.17929117 -0.009409393 0.19292435 -0.6537212 -0.1557223
accessible 0.32261732 0.38015726 0.6820073 -0.51843166 0.6822399 -0.63579994 -0.89904934 -0.123623066 0.16332883 -0.39467618 -0.18047975 0.0043817284 -0.10402671 -0.5542717 -0.31901962
consigner 0.29908374 0.46757188 0.23644236 -0.8316188 -0.32975414 -0.8959332 -0.97108746 -0.44887805 0.21332946 -1.5113868 -0.49263382 0.025507374 -0.26554903 -0.41682488 -1.0514822
surtaxer 0.39777547 0.57694906 0.5680055 -0.40860757 0.5272384 -0.8262624 -0.79287785 -0.11265477 0.04098016 -0.44626254 -0.13483837 0.013218879 -0.19897994 -0.6335493 -0.30881405
chose 0.22240292 0.36854735 0.4303245 -0.5501205 0.26617572 -0.8148237 -0.7422389 0.1557921 0.09239179 -0.9441782 -0.007481763 -0.08396003 -0.124291785 -0.60082006 -0.3412348
rural 0.15340336 -0.2148423 0.7377891 -0.6750424 1.0255971 -0.66290617 -0.9696083 -0.041133422 0.45630616 -0.28296313 -0.19304292 -0.14867422 0.25742888 -0.24738201 0.06794462
fort 0.3128493 0.48531118 0.5595034 -0.49191642 0.5764548 -0.6237934 -0.7913434 -0.037960935 0.08554172 -0.56596404 -0.16775191 -0.066125266 -0.15135668 -0.5794375 -0.30875775
subvention 0.26037672 0.3015185 0.6099167 -0.51917857 0.5965496 -0.7438381 -0.77469033 0.19124703 0.06560588 -0.5127512 0.058097403 0.016468247 -0.09090348 -0.7556675 -0.04101151
croisiere 0.30298862 0.3968141 0.67404366 -0.4424775 0.58281386 -0.5836469 -0.9866649 -0.15352535 0.17391591 -0.40295753 -0.28478113 -0.11377742 -0.04636934 -0.48028815 -0.1824592
reparer 0.23678811 0.3037904 0.44405496 -0.53486717 0.48875514 -0.68908805 -0.7877136 0.033053316 0.15017164 -0.8884919 -0.057624303 -0.07553354 -0.08969961 -0.43522862 -0.30613106
travailler 0.23534082 0.25978804 0.5700346 -0.523796 0.72697836 -0.66851586 -0.7364244 0.09252416 0.20413354 -0.6019853 -0.056885425 -0.06571452 -0.011579875 -0.545172 -0.09201292
charge 0.2332309 0.27673733 0.6781375 -0.5106016 0.75395113 -0.5111732 -0.89753723 -0.048513863 0.20694515 -0.44139114 -0.20344391 -0.09674232 0.042395957 -0.4641296 -0.25189537
foyer 0.23505783 0.25039014 0.59227127 -0.49203798 0.46308202 -0.4555062 -0.9705391 -0.022348356 0.30025798 -0.7235796 -0.13571322 0.002105126 0.034082085 -0.65087163 -0.19012494
controle 0.11388947 0.21709004 0.51875705 -0.5044382 0.6773513 -0.5028094 -0.8039669 0.1854419 0.24692047 -0.80573994 -0.09780197 -0.14279139 0.086026825 -0.4837415 -0.099354945
croissance 0.15298183 0.2021446 0.56930137 -0.5435702 0.62201625 -0.64153504 -0.7417107 0.12479683 0.23688933 -0.5700266 -0.12101365 -0.19483688 -0.052614436 -0.5379663 -0.067602076
vaisselle 0.2691291 0.16794151 0.3162265 -0.731621 -0.24667527 -0.6503416 -1.0690244 -0.30504927 0.30479962 -1.0756009 -0.31352726 -0.027045099 -0.11926804 -0.41411614 -0.82580423
ancien 0.29885334 0.020622589 0.5783945 -0.6545332 0.6219673 -0.63001156 -0.82190007 0.1810614 0.36520606 -0.56949914 -0.0124906795 -0.043708794 0.11844727 -0.3481554 -0.1116328
distance 0.30298683 0.2981869 0.7727516 -0.5088221 0.8292382 -0.6616099 -0.93783414 -0.35569635 0.20551401 -0.25195011 -0.37217316 0.059345342 -0.13953316 -0.4761342 -0.2343648
systematiquement 0.09702897 0.04870004 0.58405006 -0.5819895 0.5937375 -0.5216255 -0.8400499 0.14459689 0.29683438 -0.70169437 -0.12798606 -0.117087476 0.10061989 -0.31034508 -0.15644707
vivant 0.11018782 0.18848589 0.5480857 -0.5366977 0.81639665 -0.8089484 -0.71357507 0.25677523 0.17208067 -0.5426556 -0.0512871 -0.25152844 -0.089029506 -0.5988951 0.14290763
plantation -0.03506288 -0.33101755 0.76437163 -0.8458669 0.88901275 -0.66426224 -0.7189888 0.08712973 0.30183274 -0.5937893 -0.40183485 -0.17070776 0.41139567 -0.3348612 0.1428232
geste 0.188832 0.45189437 0.41929668 -0.53659743 0.6849371 -0.84693134 -0.6259535 0.34087673 0.038671706 -0.86596334 0.13541684 -0.1875793 -0.14419574 -0.5693561 -0.053653147
obligation 0.051314704 0.046124652 0.43247288 -0.68941593 0.39594308 -0.49965316 -0.955721 0.07580435 0.33736596 -0.78550756 -0.16489606 -0.13761899 0.18750846 -0.3203184 -0.23064104
lourdement 0.2585071 0.5212686 0.6055649 -0.33460504 0.6821746 -0.53624237 -0.77376395 0.0147350365 0.14619137 -0.54667675 -0.17805792 -0.18506873 -0.19552629 -0.7231389 -0.1519665
riviere 0.09409171 -0.061334543 0.53619796 -0.72254395 0.61083037 -0.61937654 -0.84126425 0.11774315 0.32099134 -0.7172538 -0.20362633 -0.08110137 0.16395634 -0.29988995 -0.088185556
robinet 0.28097716 -0.13059795 0.2971284 -0.96089834 -0.24600281 -0.75992167 -1.1539614 -0.3422025 0.49566588 -1.0311806 -0.19842061 0.069816664 -0.057056405 -0.39787963 -0.93375987
isolation 0.27890545 0.09230139 0.76677144 -0.5495452 0.64718664 -0.40214303 -1.0271477 0.20873444 0.42571378 -0.49641755 -0.017423593 -0.041555215 0.3593989 -0.57976735 0.13354155
engager 0.09720214 0.228364 0.48446375 -0.5404027 0.8385856 -0.6037563 -0.65799326 0.38807842 0.20119657 -0.6808866 0.025593745 -0.20486744 0.015413064 -0.56283706 0.09551708
demander 0.17058094 0.21596661 0.52768916 -0.54663277 0.55912274 -0.6124693 -0.8306719 0.106966004 0.19051732 -0.5942828 -0.10897729 -0.109947935 0.03511286 -0.4691722 -0.12381686
annee 0.18619351 0.34040588 0.48684475 -0.5472664 0.5093426 -0.6573387 -0.7873183 0.10823536 0.12387922 -0.7807122 -0.07265108 -0.09977006 -0.086493306 -0.5315699 -0.14276965
quota 0.16679978 0.41140515 0.7167839 -0.4381077 0.8310761 -0.5081184 -0.9019586 0.0850304 0.18381602 -0.40118447 -0.2661209 -0.20940061 0.02717262 -0.59384406 -0.063667856
batterie 0.28917792 0.2385896 0.76662165 -0.5749364 0.53869236 -0.40314722 -1.0793607 -0.108523756 0.34962085 -0.41591927 -0.14803936 -0.003983248 0.13433646 -0.6999457 -0.19819173
eolienne 0.31535515 0.07907435 0.7371498 -0.5962383 0.47540775 -0.27547538 -1.0403885 0.11738709 0.51924807 -0.6865472 0.017998092 0.020569306 0.46584815 -0.5256406 0.040178277
pari 0.15451871 0.16288973 0.6837404 -0.5599556 0.6709761 -0.5401695 -0.9363654 -0.13631846 0.23639815 -0.51953626 -0.23245355 -0.14121489 0.048550487 -0.350994 -0.22769612
auto 0.22462966 0.21924756 0.7650765 -0.51434195 0.80188763 -0.5109859 -0.9058668 -0.1346363 0.26787993 -0.32071885 -0.26366878 -0.072061196 0.088793896 -0.47269198 -0.1394326
hiver 0.30195153 0.12863079 0.5111235 -0.6456018 0.37838548 -0.72633225 -0.83633775 0.1439153 0.2016744 -0.69689256 -0.04500208 -0.021345645 0.04824588 -0.33974415 -0.337939
emballe 0.56967354 0.8413679 0.34780365 -0.47728223 0.06832132 -1.0574225 -0.741783 -0.043171152 -0.105321355 -0.9634888 -0.0723053 0.049597017 -0.5482335 -0.7849058 -0.81407017
probleme 0.19582461 0.29199997 0.5817678 -0.4830129 0.90451455 -0.64320546 -0.70172167 0.38505638 0.207178 -0.6068446 0.03172002 -0.2915128 -0.07888991 -0.63875943 0.10302695
sortie 0.07996374 0.11477062 0.4797325 -0.65553147 0.6596753 -0.6135119 -0.72745967 0.1859299 0.2711304 -0.87976444 0.019428696 -0.075572625 0.053201795 -0.30051854 -0.050332215
potager 0.1366058 -0.09040183 0.585933 -0.67030305 0.7906466 -0.7822238 -0.70614517 0.18325827 0.3215691 -0.6782403 0.0012708828 -0.051737465 0.101176746 -0.30879727 0.04930308
circulation 0.22387528 0.05378753 0.7708778 -0.58054507 0.68949234 -0.5326377 -1.0790821 -0.4454166 0.32961676 -0.35560325 -0.43252036 0.054414656 0.10950368 -0.19935937 -0.29199776
vegetal 0.14504895 0.12405989 0.47600064 -0.64902973 0.38669762 -0.66304547 -0.7944837 -0.027195854 0.25823307 -0.84414774 -0.19069327 -0.018155737 0.02002123 -0.42486846 -0.29462847
main 0.2851431 0.15693651 0.4740233 -0.64341104 0.3499471 -0.76141655 -0.87940943 0.02623523 0.24334368 -0.6434703 -0.084255055 -0.036617417 -0.06111813 -0.49399045 -0.35255432
modele 0.19630788 0.23743214 0.54860115 -0.53430444 0.58827084 -0.6785838 -0.82530993 0.043556068 0.165138 -0.6019713 -0.17352773 -0.08580127 -0.09681984 -0.5635407 -0.20278612
financier 0.2565932 0.31644976 0.5438272 -0.47240454 0.64361376 -0.5589352 -0.7775343 0.17596482 0.183977 -0.65843266 -0.099889904 -0.1636989 -0.0016153218 -0.54248005 -0.17293474
financierement 0.24365705 0.29692203 0.54930913 -0.4850058 0.77902204 -0.6773208 -0.71617514 0.13665508 0.15696098 -0.6078927 -0.06293285 0.025263757 -0.12450037 -0.65796417 -0.23140568
repas 0.3471982 0.49136955 0.37426135 -0.549298 0.24814984 -0.80040425 -0.7566801 -0.08517983 0.060771797 -0.9838697 -0.11896218 0.033613537 -0.21927604 -0.5246284 -0.58494943
poisson 0.63529015 0.68683046 0.2765564 -0.3991675 0.28443676 -1.3024036 -0.66207564 0.08504544 -0.16922104 -0.8171382 0.06350094 0.059452496 -0.5079689 -0.9277749 -0.6144309
part 0.18749642 0.39183933 0.4811043 -0.5124815 0.5150176 -0.6305173 -0.7881326 0.031206198 0.17048335 -0.84921426 -0.21661854 -0.08864573 -0.054226503 -0.51940316 -0.26039886
simple 0.26532254 0.40906355 0.5309519 -0.50070906 0.4884536 -0.62071276 -0.80028766 0.07933352 0.1553153 -0.78579795 -0.10533522 -0.14872816 -0.10479835 -0.6159685 -0.23648812
repenser 0.2155066 0.25041214 0.55107576 -0.51474255 0.5414443 -0.57335 -0.8317586 -0.026247444 0.1805492 -0.6195232 -0.18515322 -0.073458426 0.026738206 -0.48359653 -0.17102592
taille 0.23466769 0.27807248 0.59103304 -0.53737766 0.46719408 -0.63305557 -0.83971614 -0.08885379 0.14738439 -0.674755 -0.15979426 -0.017913178 0.025079183 -0.46690086 -0.24699602
bord -0.015381288 -0.19248945 0.56506234 -0.7647338 0.63491374 -0.58589584 -0.83463204 -0.04868456 0.34087834 -0.8627575 -0.40464103 -0.07153081 0.18164214 -0.21625614 -0.10543908
cause 0.16589084 0.29137036 0.5435756 -0.5417195 0.76948005 -0.76075214 -0.658596 0.3465212 0.059219766 -0.5958047 -0.019609531 -0.2166883 -0.12766701 -0.58353096 0.072250105
dechetterie 0.07725386 0.28627804 0.4585473 -0.54605937 0.49364954 -0.6136261 -0.8158544 0.056170635 0.222615 -1.0099348 -0.0743768 -0.08450365 0.030464595 -0.31113893 -0.24406232
pub 0.14227746 0.42377955 0.49215904 -0.56610227 0.12320004 -0.691472 -0.90070474 0.044746682 0.096982814 -0.9802997 -0.16633207 -0.05136998 0.1073629 -0.25373942 -0.26294744
effort 0.2903584 0.33830303 0.5246958 -0.4734344 0.75468105 -0.7089286 -0.6741529 0.09082585 0.11528978 -0.72155696 -0.022504749 -0.10313039 -0.1345383 -0.5636159 -0.12001334
ferroutage 0.24819471 0.2528509 0.7480519 -0.49440458 0.7183551 -0.568698 -0.9374017 -0.40369377 0.14403453 -0.4489454 -0.4299206 0.022232315 -0.063208625 -0.3498634 -0.3051595
compte 0.21208256 0.42518392 0.6611267 -0.4294782 0.8647116 -0.6328295 -0.79200864 0.27446726 0.14744526 -0.38460964 -0.113214344 -0.3092366 -0.089975126 -0.746062 0.10670951
cigarette 0.02960562 0.21368216 0.38948345 -0.6075366 0.2778596 -0.7490607 -0.7889723 -0.054302163 0.24171536 -1.3673949 -0.041228786 -0.055065352 -0.10345802 -0.111986294 -0.31385696
fiscal 0.23757823 0.31154883 0.68024665 -0.44456393 0.87112796 -0.58796126 -0.78386205 0.13363001 0.12832467 -0.42442653 -0.10185505 -0.1096694 -0.011985135 -0.6446119 -0.029479139
scientifique 0.16291516 0.2538157 0.58243847 -0.5913973 0.7136975 -0.51196814 -0.7894178 0.32950047 0.28297102 -0.584835 -0.06769496 -0.19755578 0.13496767 -0.5227554 0.0872814
autoriser 0.25972795 0.35140374 0.48005584 -0.5587405 0.36815932 -0.6272904 -0.85798913 -0.06500341 0.19839521 -0.6978579 -0.18034583 -0.07515717 -0.14023818 -0.5706472 -0.31962907
medicament 0.1705556 0.340567 0.35626474 -0.5777548 0.20086518 -0.76285625 -0.7083539 -0.047521044 0.08438793 -0.9414121 -0.1570869 -0.096413866 -0.22055417 -0.45998693 -0.5107137
revenu 0.17676058 0.33423108 0.6485938 -0.5093714 0.7472262 -0.5515013 -0.81029177 0.051804427 0.1689478 -0.52185273 -0.15845479 -0.10409737 -0.04786541 -0.55002344 -0.19219106
equiper 0.123385906 -0.08293845 0.69676536 -0.75019526 0.53116024 -0.2910649 -1.0991833 0.08645976 0.5893799 -0.7107288 -0.055110037 -0.01986614 0.5448549 -0.2541029 -0.015571769
avoir 0.15305722 0.15063779 0.48945275 -0.6338228 0.45787877 -0.50734407 -0.80161667 0.14351313 0.28131095 -0.83184564 -0.054812364 -0.06873083 0.13061178 -0.4237203 -0.1556077
primaire -0.009619647 0.18486558 0.46820658 -0.6901103 0.9923472 -0.7028965 -0.5929054 0.51329786 0.19986877 -0.80147123 0.07600295 -0.34477496 -0.12084743 -0.52428424 0.2683395
interet 0.25381958 0.13505505 0.5835243 -0.6041783 0.8057768 -0.64368665 -0.8417975 0.21658057 0.22343509 -0.5882966 -0.090821356 -0.18817921 0.06937684 -0.48907223 0.065189235
client 0.31506577 0.42379415 0.3922931 -0.59044653 0.27894786 -0.67165774 -0.75841033 -0.05134405 0.11374564 -1.0032709 -0.15667559 0.05924359 -0.19693154 -0.41743982 -0.5767323
existe 0.20391622 0.37039304 0.6270806 -0.51381826 0.53196096 -0.5591738 -0.87219864 -0.07370933 0.19893922 -0.6078557 -0.20297895 -0.13489297 -0.052256815 -0.49249116 -0.23501936
financiere 0.21503106 0.46340647 0.56025696 -0.47651818 0.6675699 -0.523494 -0.8244361 0.3059745 0.15633105 -0.61836964 -0.030066358 -0.06257534 -0.0018475858 -0.71395874 -0.06741775
couper 0.090510435 -0.084899746 0.6773912 -0.7110502 0.56368905 -0.66465896 -0.8693775 0.11598933 0.28999427 -0.5533243 -0.14534585 -0.10201249 0.33505616 -0.31372744 0.053899035
controler 0.16436286 0.2482024 0.55145615 -0.5074169 0.52109617 -0.58857095 -0.8439379 0.09663942 0.18924502 -0.6036376 -0.1624107 -0.075573705 0.05454625 -0.4093554 -0.122609265
croire 0.2546533 0.37330684 0.52356213 -0.48642287 0.5298443 -0.594998 -0.7107592 0.14409181 0.17066334 -0.72176045 -0.052711196 -0.1717774 -0.13275583 -0.6601254 -0.21506189
enseigner 0.079696074 0.2074448 0.47235247 -0.6030954 0.8361526 -0.67927396 -0.5395513 0.44205555 0.222042 -0.723808 0.11107411 -0.22700442 -0.08421138 -0.5660883 0.20541134
partage 0.1371562 -0.14278828 0.6125947 -0.6510562 0.8462328 -0.6795591 -0.8873121 0.03892315 0.36915922 -0.59032977 -0.10912473 -0.049146347 0.1365715 -0.1795786 -0.06266081
doux 0.39461938 -0.015794232 0.77226335 -0.61326194 0.9871023 -0.5878522 -1.0502456 -0.32172248 0.37705997 -0.13270135 -0.36640483 -0.0540926 0.042270754 -0.38027576 -0.16707626
origine 0.30812436 0.6110777 0.46811298 -0.45007816 0.43831602 -0.956184 -0.6452523 0.15113814 -0.037268646 -0.65947974 -0.001551683 -0.07961199 -0.32317868 -0.7613222 -0.2706095
