7231 20
produit -0.09901691 0.7974156 0.27718773 -0.47821292 0.08077623 -0.8264986 -0.3460895 -0.0022687803 -0.3308255 -1.1482344 -0.089145094 -0.3851788 -0.5194185 -0.9574084 -0.33456478 0.410612 0.49030432 -1.2641001 -0.76719207 -0.033786237
interdire 0.24206758 0.13008367 0.41544083 -0.80377054 -0.3292873 -0.81793076 -0.99884933 -0.15517643 -0.0736543 -0.45270926 -0.17377007 -0.38257328 0.0022886102 -0.3933265 -0.17664048 0.5028702 0.08473559 -0.69957244 -0.53244674 0.25826386
arreter 0.5801582 -0.1272006 0.22593412 -0.6505953 0.022365592 -0.8134806 -0.56221783 0.11398235 -0.092380255 -0.7557026 0.10198342 -0.22290708 -0.3026608 -0.65355617 -0.24016911 0.6430548 0.1172556 -0.7455544 -0.18545368 0.17953114
plastique 0.36153877 0.29909408 0.3021658 -0.88195556 -0.42464137 -0.7865194 -1.0127617 -0.46876025 -0.10111092 -1.6623286 -0.3218832 -0.47060677 -0.8103194 -0.79052067 -0.847608 0.9440239 0.1471202 -0.47474167 -0.7124265 0.42999715
faire 0.5021581 0.15107873 0.36196452 -0.35368362 0.6676078 -0.6257729 -0.3849498 0.14199609 -0.18083929 -0.73581296 0.00396616 -0.1871915 -0.17444067 -0.42031205 -0.14261678 0.30675545 -0.2964212 -0.69689703 -0.31065544 0.12483943
dechet 0.37217686 0.37235084 0.26707518 -0.28652835 0.7285037 -0.14192507 -0.60261023 -0.023725986 -0.24401729 -1.7165987 -0.16092774 -0.27613348 -0.56967974 -0.21291879 -0.5709632 0.294369 -0.8212347 -0.4011316 -0.6198628 0.47113943
eau 0.3313275 -0.94485056 -0.016177276 -1.206153 -0.084977284 -0.43921873 -1.3187978 -0.10076058 0.30097914 -0.47342217 -0.12308917 -0.19171478 -0.13717239 -0.5882012 -0.37721252 1.7069347 -0.44100395 -0.76954854 0.26792383 0.414734
mettre 0.24925134 0.3546514 0.68714553 -0.52111304 0.5177285 -0.11493656 -0.26347232 -0.19544694 0.3262567 -1.3731258 -0.57917845 -0.08717377 -0.09131378 -0.089408204 -0.5228352 0.7439637 -0.73455983 -0.30822212 -0.63692176 0.0055474443
emballage 0.18039595 0.49067524 0.37197512 -0.73298085 -0.41950837 -0.75023896 -0.8938152 -0.50762415 -0.34736648 -1.441967 -0.38819018 -0.33816576 -0.7616831 -0.854252 -0.62108535 0.75243574 0.21807037 -0.7936194 -1.1090034 0.28027314
ville 0.23085049 -0.64202374 1.1130891 -0.5249524 1.0007048 -0.72537494 -1.0937489 -0.31007922 0.3634858 -0.20715924 -0.65087587 -0.083093524 0.14806564 0.5139706 -0.1008941 0.13611408 -0.7618615 -0.35862288 -0.54224414 -0.48727655
entreprise 0.00868547 0.5301203 0.53951377 -0.25734842 0.2658709 -0.07019848 -0.75026524 -0.04924141 -0.063989714 -0.9771632 -0.5097609 -0.16746542 0.00600315 -0.44130152 -0.34910175 0.20432954 -0.52818745 -0.82840896 -0.6143521 0.028131247
developper 0.15913674 -0.06036561 0.66530234 -0.34324047 0.7058441 -0.557336 -0.96677876 -0.60857666 0.42302257 0.015836114 -0.33805302 0.15856628 -0.09316356 -0.4059406 -0.10818089 0.36916652 -0.40028864 -0.695257 -0.5969837 -0.64692926
consommation 0.083845854 0.56301033 0.33930427 -0.17810187 0.3352269 -0.7558079 -0.51456493 -0.14695983 -0.025502661 -0.7097964 -0.06321167 -0.08892084 -0.3107217 -0.6666294 0.18517399 0.23315006 0.35817656 -1.6128628 -0.17737475 0.077723294
energie 0.3392513 0.30924982 0.5442891 -0.22973554 0.022678945 -0.18108553 -1.270089 0.38536748 0.88828117 -0.32633382 -0.14916189 0.45935783 0.35856158 -1.1526513 0.4048695 0.216857 -0.35143462 -1.226716 -0.09152099 -0.5184642
grand 0.44747588 0.09168592 0.84873533 -0.57044417 0.14506143 -0.44943663 -0.6145938 0.011048382 -0.06869297 -0.9351964 -0.2483755 0.14147627 0.39814237 0.14695129 -0.42390764 0.16401732 -0.12578478 -0.74799794 -1.1450663 -0.13976946
limiter 0.1461952 0.31561714 0.7258702 -0.27589273 0.16607141 -0.9285272 -0.81112736 -0.74773604 -0.13078696 -0.21068692 -0.3266785 -0.035053153 -0.3393999 -0.15294868 -0.17687753 0.43549922 -0.017794847 -1.0811685 -0.6397585 0.076352805
favoriser 0.14965133 -0.07126963 0.44804126 -0.5637107 0.3126466 -0.889657 -0.6698139 -0.5970281 0.28911623 -0.09885313 -0.2536779 0.0691252 -0.28916302 -0.4153702 -0.13237357 0.5602967 0.018976081 -0.8950559 -0.6868157 -0.4326654
creer 0.21086903 -0.11290455 0.3383944 -0.4136605 0.6647883 -0.47782066 -0.57923436 0.099017225 0.25747463 -0.7853987 -0.37839445 -0.3947867 0.058803774 -0.22669524 -0.04068459 0.14861873 -0.53430563 -0.54556495 -0.282744 -0.45309746
reduire 0.04849127 0.5859037 0.6340988 -0.22002918 0.28038612 -0.841637 -0.7032334 -0.5365409 -0.18766366 -0.4801515 -0.3530683 -0.10056137 -0.29721183 -0.20933664 -0.17401889 0.23119342 0.11387243 -1.2081736 -0.6146467 0.16762818
local 0.24386509 0.09982586 0.334768 -0.6088005 0.16564208 -1.2351012 -0.22618325 0.23238409 -0.14536998 -0.55232126 0.5422802 0.03025327 -0.46815646 -0.7590446 -0.07468308 0.29615924 0.3477166 -1.6448742 -0.58511984 -0.38608462
environnement 0.105898365 0.6100391 0.20586576 -0.23692816 0.92021036 -0.6105644 -0.30169863 0.31030032 -0.12757808 -1.1984072 -0.10051697 -0.5296096 -0.08774978 -0.6283379 0.1973299 -0.4058443 -0.41332653 -0.98785436 -0.066124804 -0.18531317
voiture 0.4923028 0.2630767 1.1373578 -0.22549854 0.94008476 -0.6067223 -1.2658323 -0.7186376 0.20226279 0.2720782 -0.4924293 -0.05435522 -0.1829208 -0.15527695 -0.3780904 0.5053329 -0.25672263 -0.6168162 -0.45631516 -0.062389918
utiliser 0.5023936 -0.055030502 0.44850677 -0.6638299 -0.0393515 -0.48697788 -1.1321473 -0.27236345 0.20477407 -0.2944603 -0.34168625 0.053559355 -0.24546792 -0.7255483 -0.5075881 0.96697754 -0.10375913 -0.55251235 -0.5313872 0.23423788
non 0.21682432 0.37394494 0.22139327 -0.49704617 -0.25199974 -0.46387154 -0.8388035 -0.16830647 -0.02057422 -0.8271151 -0.26600662 -0.2296871 -0.23024617 -0.9202288 -0.116569296 0.4562287 -0.23336253 -0.6814288 -0.63405704 -0.080664955
transport -0.1627899 0.43968812 1.0163422 -0.24802044 1.0183952 -0.8524708 -0.80385107 -0.9719933 0.32527566 0.3269592 -0.53337705 -0.09380948 -0.5027506 -0.33764088 0.038891215 0.20919766 0.25193825 -1.2858449 -0.56659305 -0.5341632
taxer 0.12428622 0.8838786 0.34815222 -0.13784297 0.22270024 -0.70418733 -0.5574819 -0.45609006 -0.074598156 -0.52768016 -0.35083863 -0.27358177 -0.35099304 -0.79873705 -0.1451942 0.37321693 0.10123521 -1.1443 -0.78950393 0.042146243
place 0.23779878 -0.12221526 0.49296024 -0.5397333 0.9653218 -0.24355683 -0.2948073 -0.5294781 0.3236164 -1.252498 -0.88116133 0.0015943341 -0.21741657 -0.40064478 -0.6221064 0.72691876 -0.6935137 0.014708961 -0.59476686 -0.16810419
bouteille 0.5673254 -0.20077753 0.2905744 -1.5524701 -0.2049499 -0.88439786 -0.88200593 -0.75177866 0.225758 -1.8422757 -0.714142 -0.14620289 -0.70321155 -0.7540706 -1.0133696 1.8235742 -0.2551281 -0.23389833 -0.7088493 0.6553116
obliger 0.30861497 0.22513275 0.3818625 -0.52065533 -0.10995059 -0.38125372 -0.82022434 0.19547226 -0.19797054 -1.0094727 -0.44834697 -0.09268247 0.09851716 -0.31163985 -0.3563489 0.43330792 -0.4584124 -0.6018519 -0.80874145 0.17361836
supprimer 0.2637821 0.21549298 0.3641204 -0.7318538 -0.35828155 -0.83222127 -0.9112413 -0.5312014 -0.066515885 -0.84144586 -0.3511433 -0.11387934 -0.2894151 -0.4967855 -0.44893828 0.77674973 0.08520316 -0.56428003 -0.7234168 0.14353825
consommer 0.7224105 0.37323868 0.3731171 -0.32531667 0.2707718 -1.0004742 -0.27711707 0.27414232 -0.104839 -0.8300238 0.54561 -0.10957443 -0.44052935 -0.9308959 -0.004706581 0.2684686 0.39881045 -1.4903897 -0.1740196 0.18894075
public 0.024148064 -0.17072892 0.86737186 -0.7072288 0.30803904 -0.44352588 -0.8798768 0.30046812 0.3048291 -0.6977915 -0.25679648 -0.008615806 0.6194957 0.4089858 0.40924108 -0.036495425 -0.7965233 -1.0726277 -0.47584245 -0.15831728
vehicule 0.21028374 0.5680583 1.1032711 -0.18438894 0.5321896 -0.42961606 -1.6063904 -0.5695419 0.2933102 0.34816477 -0.48270953 0.10739548 0.05425645 -0.6622029 -0.352041 0.47285882 -0.26500815 -0.83706367 -0.24636562 -0.15861884
bio 0.21576157 0.03216168 0.15986116 -0.76502055 -0.05867593 -1.1816943 -0.20087527 0.17123592 -0.1685486 -0.7639612 0.52716255 -0.08752623 -0.46449095 -1.0519353 -0.042993125 0.287328 0.3705814 -1.4252852 -0.937011 -0.61834687
arbre 0.19386339 -1.2284386 0.40203738 -0.31714723 1.2515938 -1.2259521 -0.69713235 0.2618512 0.17728744 -0.8795547 -0.716293 -0.8042893 0.09312401 0.13150735 0.25956115 0.5802486 -0.45070338 0.012901845 0.05906788 -1.1016082
acheter 0.51651514 0.12805912 0.1497184 -0.8270128 -0.087239146 -1.1198198 -0.35857335 -0.072018825 -0.11836896 -0.9050646 0.3467769 -0.04597599 -0.64253384 -0.87673044 -0.6135587 0.97814137 0.3866941 -1.0699894 -0.52970177 0.37798008
proposer 0.36415908 0.3221174 0.47450846 -0.5037972 0.20748384 -0.55179083 -0.5798377 -0.13921648 -0.15503393 -0.84198177 -0.09671794 -0.054891042 -0.3019919 -0.47406563 -0.5918071 0.2127949 -0.27237093 -0.6518412 -0.79111844 0.0015759019
verre 0.3727631 0.05584413 0.21950155 -1.3190593 -0.25370368 -0.8197149 -0.94311506 -0.7526438 0.026198225 -2.059307 -0.781089 -0.15744077 -0.6682631 -0.6689391 -1.0811031 1.5085301 -0.4515789 -0.19704635 -0.81203246 0.49134967
imposer 0.0929949 0.23280463 0.40197086 -0.49079636 0.1293573 -0.37028536 -0.7630362 -0.06488357 0.05890645 -0.7799858 -0.45454204 -0.12809281 0.09050109 -0.22577322 -0.0834398 0.40593764 -0.46523625 -0.74911314 -0.5701487 -0.12238485
carbone -0.2142756 1.3357881 0.48743168 -0.12378293 1.0157874 -0.44164422 -0.63433814 0.055100664 0.03061878 -0.7145844 -0.50374115 -0.25108072 -0.116107844 -0.5147028 0.04131869 -0.07679132 0.16235617 -1.366343 -0.20557854 -0.46393153
transport_commun 0.18191093 0.0682803 1.2142045 -0.52996534 1.1047976 -0.79321814 -1.3003697 -0.87761724 0.4682248 0.38653284 -0.49277017 0.11992401 -0.2461794 -0.038488664 -0.38812178 0.3621932 -0.5044641 -0.48181397 -0.534468 -0.49672347
production 0.2425372 0.40576828 0.3886618 -0.29946423 -0.048758175 -0.7106782 -0.8573653 -0.20790076 0.11969894 -0.38051134 -0.007377061 0.110670306 -0.2628385 -1.0003254 -0.007397068 0.3334243 0.30299708 -1.362609 -0.46688145 -0.14583051
être 0.38733277 0.33657303 0.5479886 -0.37232083 0.3676713 -0.4149081 -0.6955067 -0.093423896 0.053249486 -0.7057808 -0.19124617 -0.115760714 -0.027422786 -0.27872097 -0.118421525 0.2613006 -0.5262732 -0.6065685 -0.5502695 0.028730797
inciter 0.38883284 0.30921286 0.4527013 -0.3394835 0.44016913 -0.46680057 -0.5283129 0.032674916 0.0065865004 -0.6999022 -0.040105145 -0.02231684 -0.12022213 -0.4035211 -0.30081713 0.3031669 -0.3744758 -0.82493097 -0.5928673 0.07743903
industriel 0.23093463 0.13097067 0.36010832 -0.5903437 -0.27357844 -0.27947295 -0.4319793 0.019866666 -0.027097946 -1.3302782 -0.22915706 -0.22169225 -0.041116823 -0.76357204 -0.12590967 0.34975517 -0.041845046 -0.9846506 -0.6901071 -0.21723242
prendre 0.5387273 0.4448878 0.81572205 -0.042538483 0.99927825 -0.82472974 -0.6838816 -0.22772948 -0.007249895 -0.0727626 -0.27520266 -0.31614828 -0.21248044 -0.3216044 -0.0227052 0.16434838 -0.034388654 -0.90536034 -0.19115226 0.113514096
animal 0.1302576 0.06098943 0.36281008 -0.44016898 0.53390324 -0.85002023 -0.24963829 -0.08097771 -0.07018622 -0.8456525 0.04293472 -0.47998413 -0.21386576 -0.4740576 0.3363927 0.21507536 0.285715 -1.0802431 0.0049430756 -0.08148228
taxe -0.17042656 1.2708759 0.5608398 -0.11146994 0.54386336 -0.48008177 -0.3968391 -0.122901894 -0.032178797 -0.8609421 -0.46589017 -0.24948208 -0.119010925 -0.7708009 -0.06220768 0.116672054 -0.20751329 -1.03628 -0.7233249 0.05411331
utilisation 0.1707832 -0.056921452 0.51351947 -0.7160686 -0.13741167 -0.59795165 -1.2228785 -0.77107763 0.108086616 -0.22993156 -0.39366496 -0.16475506 -0.39553714 -0.69512814 -0.31382054 0.82363653 -0.010391925 -0.61042154 -0.5634919 -0.0018644806
produire 0.36324838 0.35268357 0.27844873 -0.279097 -0.010312333 -0.51098734 -0.82127714 0.13612716 0.15663734 -0.70147645 -0.067937754 0.15726389 -0.08505551 -0.9477339 -0.1806385 0.6675589 0.025714446 -0.9523911 -0.3927679 0.033709213
impact -0.14757092 1.0557035 0.5680683 -0.05918274 0.8586569 -0.5588572 -0.4768109 0.14584687 -0.1556368 -0.84040153 -0.27579716 -0.5059342 -0.12153266 -0.6906313 0.28280392 -0.5620224 -0.22709656 -1.4050162 -0.32188812 -0.2742729
agriculture 0.04883104 -0.4309349 -0.0019495814 -0.656513 0.39089707 -1.0812432 -0.27634507 0.27079934 -0.037658103 -0.35051453 0.50328547 -0.24702002 -0.08924706 -1.1073083 0.4439754 0.30668637 0.13619815 -1.5508513 -0.3750734 -0.83545184
pollution 0.14893758 0.41352668 0.59209836 -0.30716333 0.52567893 -0.58554876 -0.75001675 -0.063285835 0.071833 -0.54202604 -0.26808023 -0.18423463 0.035258643 -0.27933788 0.10666271 0.19124056 -0.042962536 -0.9083084 -0.2561357 0.016780833
pouvoir 0.2553963 0.17413014 0.4142679 -0.42044723 0.4976305 -0.5252242 -0.51164734 0.15625946 -0.00220794 -0.82199585 -0.13567336 -0.14399797 -0.069521986 -0.35453036 -0.21451129 0.26551124 -0.26556113 -0.70899993 -0.38128877 -0.10106232
polluant -0.052812777 0.9515842 0.66227186 -0.1731838 0.2632231 -0.51060736 -0.9605855 -0.53367996 -0.010288354 -0.3304391 -0.4755307 -0.18108317 -0.20108728 -0.8929464 -0.19277032 0.37455696 0.007378961 -0.9751694 -0.5906913 -0.07606321
petit 0.39607343 -0.23497193 0.66236645 -0.5271422 0.5285684 -0.8592508 -0.5852144 -0.32095808 0.020144626 -0.21043706 0.07955489 0.10832584 -0.29764032 -0.20465977 -0.09344077 0.32624212 -0.19858614 -0.8710038 -0.50350505 -0.23695306
enfant 0.6041507 0.36315486 0.3217319 -0.34338692 1.2388707 -0.5813396 -0.13646275 0.23210464 -0.2950633 -1.2998132 0.31022996 -0.56231296 -0.40526173 -0.51980567 0.30344406 -0.36356702 -0.85655826 -0.79484177 0.021761527 0.06758083
environnemental -0.0176166 0.8212026 0.41543967 -0.148032 1.0182489 -0.57942104 -0.46786597 0.26912117 -0.12501621 -0.8802466 -0.24733825 -0.5142052 -0.065743454 -0.60743487 0.32310134 -0.5642468 -0.32971907 -1.1569278 -0.14201804 -0.2528619
eviter 0.51326716 0.03078978 0.49480614 -0.43187976 0.35289297 -0.8057517 -0.7007486 -0.37684816 0.030053493 -0.4528255 -0.21700214 -0.2385352 -0.3806074 -0.3261315 -0.36355802 0.686532 -0.0278317 -0.5551264 -0.45233056 0.29344854
velo 0.650017 -0.079454154 1.202324 -0.37072486 1.2593837 -0.7244687 -1.2018505 -0.79190814 0.43073735 0.5272405 -0.52746475 0.14480454 -0.14715369 -0.21013297 -0.30768928 0.5447796 -0.5795915 -0.49464405 -0.5331937 -0.42992884
ecologiqu 0.1399127 0.68017113 0.29452676 -0.19247146 0.76005286 -0.41998577 -0.47994995 0.25013384 0.16977361 -0.82561636 -0.118087396 -0.3058304 0.12051746 -0.7847296 0.26053834 -0.14744745 -0.34236374 -0.9382912 -0.46422502 -0.47952822
jeter 0.75383914 -0.026585532 0.31820044 -0.4723093 0.73115957 -0.45721588 -0.6224658 -0.09127277 -0.44795284 -1.7169591 0.06085019 -0.39792427 -0.3364517 0.00862997 -0.47764578 0.46197608 -0.73814434 -0.16697653 -0.57399553 0.8615264
tri 0.2920923 0.24343804 0.40047705 -0.39505634 0.7332489 -0.12459021 -0.615342 -0.011935846 -0.33969137 -1.6838306 -0.3572448 -0.38542372 -0.24740554 0.0397087 -0.43270642 0.31495735 -1.3531268 -0.2940042 -0.71536654 0.56496096
usage 0.30038172 0.23399124 0.36381003 -0.74802744 -0.25712466 -0.6678379 -1.2288707 -0.7662966 0.041474707 -0.73228925 -0.5220454 -0.32374611 -0.6642793 -0.7005389 -0.39974388 0.81082827 0.15820992 -0.43564758 -0.7201825 0.15630679
diminuer -0.044030588 0.55535805 0.7072487 -0.17180704 0.5896743 -0.8598218 -0.6945542 -0.47679597 -0.03146306 -0.24690393 -0.3590828 -0.082219765 -0.20190656 -0.22646166 0.044316296 0.2692002 0.079468206 -1.2282959 -0.35082603 0.045980964
consigne 0.4421379 0.041150086 0.32176855 -1.3410368 -0.06846306 -0.82234055 -0.7031482 -0.836177 0.20539582 -1.969136 -0.8744486 -0.19384545 -0.6710531 -0.5039607 -0.9807393 1.3517315 -0.40241396 -0.15585981 -0.81288445 0.3116229
zone 0.33324108 -0.72604024 0.6680456 -0.5485033 0.7569497 -0.66258883 -1.0326022 -0.12600191 0.5258439 -0.2205464 -0.276148 -0.33083433 0.20412652 0.12690367 0.26834166 0.17388996 -0.60819906 -0.629241 -0.17075157 -0.6767004
recyclage 0.26353896 0.3214919 0.31011385 -0.4636176 0.26815835 -0.27540502 -0.6361419 -0.17291823 -0.069775425 -1.1814115 -0.3701345 -0.13526691 -0.29190543 -0.5870796 -0.45640606 0.45023552 -0.6400381 -0.45169827 -0.5482954 0.18032166
nature 0.40339765 0.0016686147 0.21226977 -0.34061775 0.9851083 -0.5834235 -0.32085523 0.15319878 -0.11033308 -1.2684755 -0.03187793 -0.49939772 -0.17865191 -0.29910615 0.11862988 -0.020754032 -0.72175455 -0.49103013 0.02429431 0.042886417
ecole 0.50702375 0.15098473 0.49515715 -0.2828054 1.2958816 -0.43719664 -0.2912634 0.3313745 -0.20116226 -1.198156 0.20816214 -0.32804194 -0.08437272 -0.34875187 0.36019257 -0.4373789 -1.1223167 -0.840174 0.042910036 -0.23040171
alimentaire 0.09417618 0.47919682 0.26283255 -0.45912585 0.024657713 -0.78935444 -0.35725573 -0.31589204 -0.2413029 -1.2137113 -0.095056854 -0.29750335 -0.6339379 -0.6611748 -0.32236612 0.5081157 0.20489922 -0.9932103 -0.70727783 0.09255768
citoyen 0.31843296 0.44795462 0.23522802 -0.18500882 0.92969507 -0.41732043 -0.32051167 0.34288332 -0.11463422 -1.2116587 -0.07834567 -0.33601242 -0.069204345 -0.43250465 0.0015106838 -0.24074464 -0.76570946 -0.8060438 -0.26779503 -0.036739375
france 0.14616135 0.13927348 0.4439657 -0.39243332 0.5840815 -0.76625264 -0.48572853 -0.19581524 0.018105041 -0.4426184 -0.2791006 -0.297395 -0.25821865 -0.43024376 -0.13123193 0.398521 -0.0050574057 -0.7378956 -0.43350962 -0.16810511
agriculteur 0.15610771 -0.19580589 0.1732773 -0.46325704 0.46518803 -1.0056757 -0.24215676 0.39385158 -0.09226798 -0.5408494 0.37029195 -0.19257577 -0.08883402 -0.98106796 0.31619078 0.28605238 0.117956586 -1.2417997 -0.52693725 -0.8024367
remplacer 0.38352364 0.22082399 0.39833456 -0.8075059 -0.15187907 -0.6752125 -0.915836 -0.39113155 0.020291205 -0.9253608 -0.50697434 -0.09353577 -0.28085363 -0.46735895 -0.6629327 0.77905065 -0.15563847 -0.35679522 -0.6140178 0.31322604
encourager 0.29073784 0.10353981 0.51310694 -0.4005097 0.50571364 -0.76090145 -0.6488797 -0.26568973 0.14064671 -0.14942142 -0.07876264 -0.05622356 -0.2564277 -0.5730679 -0.14718589 0.30482098 -0.117641486 -0.8782508 -0.51726764 -0.3145611
terre 0.61811334 -0.25436184 0.22776268 -0.3998419 0.67121196 -0.6365237 -0.488478 0.13677672 -0.043039173 -1.06018 0.04646337 -0.43250027 -0.11839703 -0.14054473 0.13025662 0.08602634 -0.42272055 -0.5939054 -0.29278773 0.01735625
exemple 0.2992287 0.23718101 0.4698243 -0.42965394 0.32855353 -0.51365757 -0.7941168 -0.13959444 0.015478081 -0.58420867 -0.27691168 -0.15274386 -0.19841179 -0.29169032 -0.26782024 0.36141828 -0.33185706 -0.71113867 -0.37798786 0.17314929
prix 0.050991617 0.75462455 0.668148 -0.3221636 0.4972166 -0.8229273 -0.60292333 -0.31168908 0.16219631 -0.20033334 -0.2377848 0.022862663 -0.19751039 -0.50218797 -0.17572147 0.28592208 0.10848279 -1.1525323 -0.52634764 -0.15725689
lieu 0.37199295 -0.13024952 0.47960335 -0.554311 0.6277994 -0.5585654 -0.8084313 -0.15735944 0.09135927 -0.3705435 -0.21723512 -0.17039423 -0.07338349 -0.14808045 -0.20852014 0.5392135 -0.3910985 -0.5406357 -0.4668335 -0.033750925
viande 0.23129986 0.38206607 0.30735773 -0.4967886 0.20545715 -1.3008628 -0.21802023 -0.21489063 -0.19793053 -0.85052496 0.3181302 -0.29402757 -0.671372 -0.7408333 -0.09930305 0.39803696 0.8258422 -1.7306515 -0.37307733 0.08834465
privilegier 0.41012642 -0.09565008 0.475592 -0.7072771 0.06755583 -1.0667837 -0.4882096 -0.37810794 0.16673712 -0.2760336 0.13641407 0.15260315 -0.4732561 -0.5475828 -0.27837116 0.6995937 0.34462607 -1.1584072 -0.7307989 -0.23489268
permettre 0.2226207 0.1170667 0.4412427 -0.37540558 0.66607535 -0.56563437 -0.68475056 -0.07252916 0.12618902 -0.47967023 -0.18392697 -0.10368986 -0.10013472 -0.37107292 -0.06845608 0.17368342 -0.48425654 -0.71599317 -0.2874017 -0.25887
nouveau 0.4343834 -0.56511045 0.3343751 -0.74564916 0.1189884 -0.1535757 -1.2224449 0.19503596 0.43063316 -0.48316664 -0.2621264 -0.05496671 0.30989674 -0.55936265 0.25404504 0.5952359 -0.8699046 -0.76834357 -0.012857745 -0.2920632
avion 0.26137337 0.8657841 0.7972811 -0.06289507 0.9676957 -0.9175954 -0.77896714 -0.64053184 0.08991983 0.2812251 -0.4196851 -0.2964863 -0.346438 -0.37356475 2.8265427e-05 0.4781368 0.33228698 -1.2568226 -0.6656586 -0.09889487
vente 0.13583012 0.38401848 0.49143675 -0.67455405 -0.1306665 -0.8282242 -0.79427195 -0.43094572 -0.08548795 -0.7048481 -0.22396141 -0.070011064 -0.45749533 -0.5877232 -0.57364476 0.6199427 0.31660172 -0.84125113 -0.76419795 0.053530045
donner 0.4334315 0.2360862 0.4012385 -0.42000702 0.5337584 -0.67596644 -0.44203094 0.062397324 -0.16668892 -0.8027986 -0.038939226 -0.22473487 -0.29482535 -0.34010616 -0.19171324 0.1284389 -0.3716093 -0.7109071 -0.451283 0.044291407
legume 0.89011854 0.08701127 0.49112463 -0.79648775 -0.14750397 -1.668236 -0.33148894 0.26828334 -0.23994586 -1.0362151 0.49381775 -0.35130495 -0.7300724 -0.6347261 -0.9318259 0.5386176 0.66045934 -1.2516527 -1.1023482 0.09992463
electrique 0.36790383 0.34429872 1.1251216 -0.34963104 0.5741344 -0.5177019 -1.5297343 -0.45906377 0.39718512 0.3418385 -0.40622252 0.18405682 0.074447334 -0.6310368 -0.34343508 0.43558234 -0.48268542 -0.6558512 -0.28727248 -0.12847972
solution 0.3507314 0.39966974 0.34813437 -0.28092057 0.24258758 -0.25623533 -0.83396876 -0.083538696 0.11391627 -0.8142552 -0.31598297 -0.15577729 -0.14284307 -0.8164517 -0.3439894 0.2767148 -0.39810583 -0.65122074 -0.2935514 -0.0027070837
bien 0.08064667 0.22929363 0.33613563 -0.316254 0.5012508 -0.7794647 -0.5033236 -0.07700216 0.019637275 -0.69270486 -0.11401222 -0.293124 -0.20132677 -0.5066925 0.14483702 0.27840906 0.0077023073 -1.0015783 -0.10816384 -0.08284503
panneau 0.67645043 -0.5505671 0.9569766 -1.052766 -0.29536113 -0.015083335 -1.3937219 0.48037586 0.6728704 -0.97866213 -0.4488593 0.30217013 0.9468497 -0.3277 0.31876418 0.56978804 -0.95991516 -0.7332143 -0.38999307 -0.24295174
systeme 0.25423023 -0.13686278 0.334848 -0.7579393 0.12866993 -0.22836432 -0.8230483 -0.28012747 0.26191643 -1.0505564 -0.62996286 0.056079403 -0.018738309 -0.37026474 -0.4118834 0.8762176 -0.7489906 -0.32182574 -0.3970851 0.16793936
solaire 0.6584032 -0.37756106 0.72140086 -0.7065195 0.18339816 0.0058772825 -1.261111 0.4263314 0.88536257 -0.7674952 -0.23739216 0.5006517 0.99869525 -0.45925686 0.2596946 0.834876 -1.1237211 -0.8617335 -0.16903512 -0.41550452
responsable 0.286366 0.4929188 0.33553097 -0.33306527 0.43165967 -0.81526273 -0.12828961 0.29246545 -0.24743655 -1.0500156 0.2990795 -0.2556365 -0.27598366 -0.7386548 0.1195941 0.0026384436 -0.039387796 -1.3100398 -0.34730533 -0.10483699
travail 0.42170617 0.05774376 0.7001705 -0.29430428 1.0333833 -0.67407626 -0.8300689 -0.36315534 0.14327551 -0.03490784 -0.22050849 -0.1209241 -0.07944507 -0.1088546 -0.015240239 0.28359726 -0.40259358 -0.7563248 -0.49453208 -0.1914947
changer 0.35829493 0.5394782 0.37638745 -0.2767107 0.5303203 -0.82067233 -0.22984552 0.11517159 -0.2380493 -0.8395097 0.06882085 -0.3045859 -0.34689888 -0.6303072 0.09268616 0.048950892 -0.03319963 -1.1417077 -0.23743314 0.039877154
an 0.2773105 0.10686205 0.52667683 -0.32559368 0.6643704 -0.6816713 -0.72022045 -0.031362053 0.112426825 -0.4220934 -0.2437949 -0.4097851 -0.043650985 -0.35491067 0.16711403 0.33211234 -0.26619717 -0.61666805 -0.23176916 -0.13322885
vrac 0.22330852 0.39074165 0.3559507 -0.8017114 -0.24394996 -1.1092441 -0.52643096 -0.36875746 -0.28770247 -1.2029133 -0.046316154 -0.009775264 -0.7700449 -0.639929 -0.8068146 0.75793135 0.39780018 -1.099042 -1.0725573 0.24889319
vert 0.34067786 -0.22895865 0.58998156 -0.32007807 0.77344906 -0.3588648 -0.8094852 0.0690855 0.39158094 -0.6346228 -0.48039854 -0.094233364 0.18570559 -0.26074508 -0.04397042 0.36971217 -0.6796827 -0.49132454 -0.17877495 -0.30103683
pays 0.18986575 0.20546411 0.3877745 -0.31798202 0.64082295 -0.6309419 -0.52637714 -0.14643174 0.068163924 -0.4602677 -0.16453093 -0.21064132 -0.15679975 -0.50900507 -0.0035566739 0.24263759 -0.09881096 -0.8633471 -0.40511116 -0.1728567
vie 0.14478447 0.41763934 0.4910881 -0.26290202 0.7961445 -0.7974076 -0.53814834 -0.039073013 -0.046938866 -0.5879163 -0.07395968 -0.26421627 -0.16045736 -0.4256624 0.22690776 -0.018465491 -0.1399999 -0.9546635 -0.12098425 -0.13113771
planete 0.2720729 0.2836802 0.32738075 -0.31706345 0.7796997 -0.7194409 -0.32518536 0.08900079 -0.032264333 -0.80653226 -0.032593343 -0.40325192 -0.111569785 -0.49274537 0.33072016 0.0027940075 -0.17489569 -0.9372663 -0.036234543 -0.15938121
fruit 0.9208368 0.134983 0.45873883 -0.9281791 -0.019666381 -1.4197859 -0.36330444 0.038226414 -0.058348224 -1.0310938 0.31380743 -0.22464094 -0.981871 -0.74351835 -0.8219404 0.479292 0.8623659 -1.3791353 -0.9762154 0.24989286
politique 0.2948612 0.17147616 0.4876441 -0.24478756 0.70544773 -0.57734746 -0.5428683 -0.019403918 0.033299096 -0.57866055 -0.17792368 -0.345548 0.0031696244 -0.40945452 0.19147691 -0.04181216 -0.36297125 -0.844432 -0.24339817 -0.2717509
recyclable 0.26289573 0.4829041 0.21575928 -0.71512705 -0.5023809 -0.5094608 -0.9810198 -0.31169423 -0.27361533 -1.5009543 -0.36104786 -0.16012971 -0.5749015 -1.0086194 -0.59234273 0.72923446 -0.2722343 -0.57464176 -1.0267967 0.23293792
magasin 0.2726263 -0.046707317 0.63538325 -0.8295888 -0.37672356 -0.70356935 -0.7281453 0.20178229 -0.09334445 -1.085184 -0.13529076 0.1327763 0.02639129 0.0051805433 -0.36946207 0.5561021 0.06790576 -0.8195046 -0.9465367 0.29132506
biodiversite 0.17577973 -0.48098698 0.310343 -0.47339258 0.89608914 -0.92404944 -0.60038084 0.24573351 0.24865758 -0.4814286 -0.14384727 -0.43181464 0.089831166 -0.27978876 0.4913404 0.023838634 -0.34533727 -0.71136963 -0.00042486208 -0.6259469
construction 0.45746243 -0.73559415 0.51699233 -0.8330372 0.14527203 -0.26255882 -1.3559787 0.1422355 0.5380017 -0.35104698 -0.48597318 -0.14466727 0.43944478 -0.33060384 0.26696494 0.8132931 -0.74479526 -0.6432489 0.058827884 -0.29158464
train 0.16235545 0.31103748 1.1843637 -0.2583968 1.1928934 -0.9574533 -1.0098926 -0.9058114 0.23359919 0.4063498 -0.6504907 -0.06028069 -0.21769314 0.031600088 -0.09618525 0.42234796 -0.13101144 -0.9038224 -0.5213598 -0.2639764
planter 0.29737914 -0.7835177 0.68996364 -0.8313872 1.5003262 -1.0055414 -0.4957738 0.10595102 0.17912455 -0.70536405 -0.7672638 -0.52124035 0.39027613 -0.09898821 0.32103342 0.46983635 -0.4598875 -0.06529361 0.08480057 -0.5399573
revenir 0.31488323 -0.11989949 0.082283504 -0.929498 -0.17549732 -0.99834067 -0.43201724 -0.32309833 0.052036054 -1.0542109 -0.13899846 -0.12304247 -0.4757397 -0.6416288 -0.3808658 0.8931236 0.19152783 -0.72066736 -0.5423084 0.040564664
co_deux -0.05522831 0.43946877 0.51684505 -0.1548592 0.7359589 -0.669766 -0.8541254 -0.11422796 0.25385964 -0.23166755 -0.4166918 -0.18764776 0.09140948 -0.3864948 0.24307998 0.20041591 -0.040050283 -1.0665249 -0.10808824 -0.3997133
papier 0.64440703 0.053227883 0.37353373 -0.74801934 -0.043380443 -0.7819343 -0.8002041 -0.28832597 -0.2916037 -1.4118775 -0.17275956 -0.3215166 -0.53256464 -0.27153307 -0.703117 0.68847126 -0.23194577 -0.22726311 -0.75368494 0.6108513
recycler 0.4581454 0.2288235 0.19677922 -0.5947142 0.069864154 -0.43440408 -0.66175145 -0.18504502 -0.17899194 -1.3010432 -0.2918801 -0.24365631 -0.5010621 -0.5785884 -0.5650853 0.6968179 -0.4297326 -0.48500338 -0.51527125 0.46660957
poubelle 0.45768136 0.081082344 0.37680236 -0.55150056 0.58788866 -0.269561 -0.6561573 -0.16963261 -0.28519028 -1.6119938 -0.3839595 -0.33545148 -0.37675157 -0.035647925 -0.61416095 0.56747365 -0.9622056 -0.13825993 -0.718019 0.54991853
nuit 0.037529573 -0.15692945 1.1559002 -0.79816467 0.15044509 -0.61555576 -1.3596677 0.3349121 0.24330407 -0.38909802 -0.39312857 0.079236954 0.7336243 0.625362 0.3049535 0.29873434 -0.36293465 -0.9812364 -0.56679523 0.1996215
pesticide 0.19006932 -0.15540755 0.18925154 -0.5931559 0.028091855 -0.8963297 -0.5547279 -0.04795545 0.020288097 -0.62210536 0.12054965 -0.38087597 -0.2983178 -0.7006763 0.05498459 0.47954977 0.15934739 -0.9555197 -0.32616213 -0.30491045
remettre 0.21744192 -0.039203726 0.3555628 -0.917006 0.3085895 -0.5701353 -0.5623716 -0.71641773 0.26999295 -1.2600663 -0.8022359 -0.17392206 -0.39122933 -0.17511481 -0.5289252 1.127882 -0.44435975 -0.080298506 -0.48198488 0.08653213
surface 0.54203147 -0.5029269 0.5847238 -0.8527677 -0.17767891 -0.7180686 -0.5143024 0.16697328 0.16193075 -1.0170944 -0.27121472 0.08344885 0.044296723 0.08497169 -0.38751072 0.34407482 -0.21972999 -0.6880256 -0.9227456 -0.2479287
sensibiliser 0.30225483 0.43891928 0.39127558 -0.22409418 1.0822514 -0.69984967 -0.3246418 0.34077793 -0.07840285 -0.91239804 0.1953894 -0.37022015 -0.09941152 -0.47578776 0.37440997 -0.36982873 -0.5491605 -1.093551 0.036467962 -0.16771097
aider 0.1931429 -0.06418514 0.31038058 -0.3773806 0.61554545 -0.7233456 -0.47584537 0.31862018 0.09344361 -0.4836263 0.2273166 -0.15466611 0.0603945 -0.7156086 0.26566777 0.1462647 -0.3086376 -1.0302715 -0.31979173 -0.6004342
espace 0.30345628 -0.7083243 0.5445841 -0.61495334 0.78513324 -0.544553 -0.8485665 0.17931561 0.39864329 -0.6569599 -0.40368646 -0.37844044 0.22101057 0.06522094 0.09447365 0.32104856 -0.72832215 -0.43074667 -0.086518526 -0.35493174
deplacement 0.1769589 0.26307067 0.94910204 -0.22779027 1.0029683 -0.74168813 -0.98649406 -0.7567865 0.25658134 0.27234963 -0.4736761 -0.10243416 -0.2121858 -0.1661385 -0.025168657 0.2718432 -0.124538906 -0.9845997 -0.4874858 -0.28765604
obligatoire 0.20895803 0.09089176 0.42738396 -0.49456224 0.54032266 -0.24569955 -0.7237115 -0.012305385 0.077088594 -0.7909363 -0.3994046 -0.2109393 0.14306203 -0.19931117 -0.00062452094 0.29348275 -0.80090845 -0.5982767 -0.28585467 -0.02204003
service 0.076977246 0.34896004 0.50411713 -0.3731631 0.5417705 -0.42197144 -0.5739484 0.023946716 0.027014202 -0.8679932 -0.38693792 -0.07775999 0.054647375 -0.34077743 -0.03089394 0.029110773 -0.5236716 -0.7382847 -0.3951756 -0.14604867
moyen 0.22194913 0.22749628 0.6638479 -0.25721535 0.6799111 -0.58493584 -0.7884806 -0.4218427 0.15704845 -0.2061519 -0.37594122 -0.15654102 -0.16409464 -0.3659971 -0.07721431 0.2785323 -0.22822641 -0.8447117 -0.35852644 -0.18452573
batiment 0.3879543 -0.38830045 0.6046888 -0.707298 0.21631423 -0.1592669 -1.1300485 0.47787273 0.40052304 -0.7818854 -0.35962027 0.10406941 0.7824393 -0.14198725 0.2949225 0.41433853 -0.98658 -0.8097869 -0.33322263 -0.23831998
propre 0.34300378 0.2088155 0.43301007 -0.4237724 0.15294504 -0.41711745 -1.0124422 -0.13052598 0.3106742 -0.42806023 -0.22537875 0.15636884 0.03243309 -0.764963 -0.18509595 0.5233299 -0.30061534 -0.78574604 -0.28861487 -0.1093721
installer 0.4788695 -0.6272818 0.5008467 -0.8104371 0.33928594 -0.21441631 -1.0009303 0.123418294 0.3812292 -0.82099545 -0.34206036 0.021699904 0.38864437 0.022072637 -0.18473895 0.7640298 -1.064513 -0.37985346 -0.33162865 -0.06274652
vendre 0.39966398 0.3495849 0.27999276 -0.6786007 -0.055523623 -0.9566325 -0.4482381 -0.09115853 -0.1403742 -1.020689 0.027805736 -0.24015856 -0.58124447 -0.73030454 -0.5318263 0.5752308 0.32515696 -0.81981933 -0.7003122 0.1439564
monde 0.29280594 0.100458406 0.28892964 -0.34808657 0.7199868 -0.71288025 -0.37594342 0.14544964 -0.07140198 -0.74873346 -0.0048714904 -0.35958576 -0.16863674 -0.4102269 0.07756783 0.11661768 -0.24754633 -0.76095253 -0.26233134 -0.110617295
contre 0.58735347 -0.017125107 0.3933214 -0.15968937 0.72750854 -0.6715427 -0.48474494 0.18672554 0.16210783 -0.8588487 0.007942024 -0.5146965 -0.16724284 -0.71387243 0.14106499 -0.022520868 -0.08985244 -0.6080582 -0.16060463 -0.08875401
nucleaire 0.46807447 0.0015757475 0.3667319 -0.15545772 0.43380222 -0.38246417 -1.1748751 0.28691247 0.52241987 -0.36708856 -0.16753925 0.1805733 0.28760254 -0.6910061 0.37396044 0.3671527 -0.44700637 -0.8940796 -0.09513639 -0.4239083
heure 0.11507299 0.013014129 1.0785604 -0.47317675 0.6560535 -0.6328103 -1.154447 0.117226094 0.29868758 -0.11605141 -0.46523246 0.03838488 0.5079816 0.40495765 0.39470953 0.08911447 -0.43363032 -1.0291891 -0.41019973 -0.062491756
particulier 0.23751219 0.20038278 0.55982214 -0.30842713 0.6646404 -0.3287682 -0.78428036 -0.015391852 0.025074387 -0.67170703 -0.39306334 -0.20883203 0.05757141 -0.2506774 -0.16612798 0.34734625 -0.6417219 -0.5938384 -0.3799454 0.062673606
transition 0.05115471 0.36340722 0.36567333 -0.08583079 0.76038224 -0.5612033 -0.44022065 0.3600074 0.07703221 -0.6811617 -0.05464465 -0.26209185 0.26075226 -0.8091954 0.33323765 -0.19217223 -0.32114074 -1.256705 -0.41140392 -0.54702365
mieux 0.36697492 0.21531223 0.3859193 -0.35553053 0.5764111 -0.7080352 -0.47557226 0.22537334 0.011071531 -0.5822014 0.10682413 -0.12885076 -0.12633547 -0.57495874 0.17830044 0.044038463 -0.16905637 -1.0908698 -0.15858452 -0.19386405
action 0.21574238 0.4082924 0.4005207 -0.1728881 1.1268879 -0.48719648 -0.4497535 0.3849516 -0.01245388 -0.9840837 -0.18740618 -0.41856012 0.112151794 -0.46307486 0.27925333 -0.41801822 -0.59695995 -0.9425813 -0.12333985 -0.33113295
achat 0.23837323 0.5336677 0.43571368 -0.43312848 0.26003328 -0.84953713 -0.5220772 -0.15753119 -0.061679635 -0.5196846 -0.06258535 -0.064780466 -0.45745647 -0.7159129 -0.29231238 0.3062634 0.11970588 -1.0216273 -0.5736351 -0.03721288
etat 0.24078226 0.22840968 0.42641976 -0.2992132 0.566876 -0.41808861 -0.7427934 0.21058784 0.09356024 -0.6564415 -0.23985828 -0.14716806 0.19496164 -0.49737552 0.09579528 0.0620436 -0.44913816 -0.8337405 -0.24364062 -0.19454867
naturel 0.30035058 -0.09201441 0.26864997 -0.46860027 0.3554064 -0.71969354 -0.59601724 0.002783049 0.14142366 -0.66367906 -0.06255293 -0.29447183 -0.11323471 -0.460052 0.1002088 0.3254892 -0.17896235 -0.71417326 -0.18572134 -0.2899577
sac 0.67515284 0.18663675 0.44271702 -0.98455435 -0.25911844 -1.0130677 -0.77181345 -0.3149444 -0.24776563 -1.5292919 -0.20869909 -0.18124296 -0.7490616 -0.5699 -1.0339193 0.853704 0.010839628 -0.45099384 -1.0494709 0.5618941
jeune 0.43829963 0.3320062 0.41496667 -0.22705942 1.4397023 -0.57148063 -0.19575083 0.41547063 -0.10757633 -1.1725147 0.14043829 -0.4633166 -0.12033606 -0.45827594 0.43325612 -0.5236247 -0.9076145 -0.9796803 0.0056452695 -0.2534009
elevage 0.15565084 0.10701254 0.27984223 -0.4420588 0.22030453 -1.0314239 -0.34347922 -0.028087325 -0.12502547 -0.6601917 0.20999505 -0.2940152 -0.20114988 -0.79496545 0.30905464 0.40035176 0.43853718 -1.4075979 -0.18327211 -0.17384726
augmenter 0.042223215 0.62568885 0.5306828 -0.31838757 0.5226297 -0.68393207 -0.6051158 -0.19166909 0.056749098 -0.406849 -0.23358771 -0.19469695 -0.15883838 -0.49568817 -0.121496744 0.32068658 0.08181728 -1.0323039 -0.5334204 -0.16173999
saison 0.6814378 0.30076987 0.425754 -0.77499217 0.09476217 -1.530753 -0.27574688 0.1806626 -0.22793637 -0.8639372 0.59416014 -0.19204946 -0.77435046 -0.9261675 -0.42742828 0.39742708 0.7807786 -1.7433922 -0.8997625 -0.020697488
programme 0.495637 0.13150932 0.48332447 -0.30384195 0.9770181 -0.5524139 -0.5153895 0.39258626 0.11905648 -0.8376921 0.16600989 -0.5741153 -0.072952755 -0.70049375 0.47450748 -0.41963762 -0.44530222 -0.7684841 -0.084301576 -0.25995082
instaurer 0.026000837 0.5278497 0.44214895 -0.31016102 0.70672977 -0.41045013 -0.5833512 -0.12623337 0.05203769 -0.66399795 -0.28817716 -0.2603044 -0.043062072 -0.28591764 -0.061995707 0.24736367 -0.3749847 -0.762194 -0.3912825 -0.102202915
aide 0.2466894 0.124892525 0.37638915 -0.37623173 0.3987126 -0.71069306 -0.59178686 0.1470267 0.050578095 -0.41555527 0.13669066 -0.059865996 -0.034333244 -0.68869364 0.080712125 0.13512811 -0.25190255 -1.0981362 -0.41639686 -0.36998433
durable 0.33345264 0.3017585 0.34671775 -0.38942555 0.3038654 -0.6634325 -0.42712492 0.16654126 -0.007871672 -0.8123754 0.045739826 -0.24888314 -0.24520907 -0.795537 0.08850293 0.1390066 -0.09426887 -0.9653331 -0.2587433 -0.06591894
electricite 0.39030877 0.048647 0.60259265 -0.3494616 0.2892768 -0.49219134 -1.1209476 0.21968354 0.5040541 -0.22901514 -0.17343706 0.17875955 0.19355905 -0.5764524 0.10806159 0.50242144 -0.2435601 -0.9512127 -0.103638254 -0.21472758
publicite 0.25698927 0.2374899 0.6067786 -0.4916959 0.10403955 -0.6895856 -0.72727966 -0.1498101 -0.06323949 -0.7441285 -0.15822001 -0.18932678 -0.11912294 -0.25891852 -0.08246127 0.35920233 0.085865214 -0.7571365 -0.39861372 0.22493985
cesser 0.2905282 -0.023883134 0.37860227 -0.49110627 0.37123826 -0.66045713 -0.54840034 0.09824112 0.07075741 -0.6324503 -0.079512864 -0.27493367 -0.10656205 -0.41075057 -0.0105261905 0.40119582 -0.18016768 -0.8012585 -0.17882252 -0.0228746
commune 0.28147575 -0.36228713 0.51922435 -0.53796595 0.7032944 -0.49371916 -0.62977654 0.13785419 0.121105045 -0.78351533 -0.28782603 -0.17892684 0.052035682 -0.038145073 -0.12328053 0.29280114 -0.7330897 -0.4782223 -0.39632004 -0.1894827
route 0.280484 -0.49933994 0.6017286 -0.4958414 0.9314094 -0.5877091 -0.92323387 -0.37978426 0.26826495 -0.5134525 -0.7095435 -0.30308017 0.035920836 0.07157586 0.049899004 0.68093354 -0.650298 -0.12121421 -0.17033952 -0.3015094
trop 0.26770592 0.14030749 0.39648226 -0.5023426 0.18560506 -0.61238533 -0.6533482 -0.058234505 0.0732123 -0.67550725 -0.063384086 -0.14373705 -0.14881401 -0.68859464 -0.021723378 0.49594963 -0.00041451358 -0.80864894 -0.24959415 -0.01733807
court 0.13287055 0.035632916 0.44100788 -0.69266605 0.27388057 -1.1748548 -0.45569703 -0.3252072 0.059003968 -0.14112012 0.23403983 0.031844456 -0.56433666 -0.81207156 -0.012330135 0.46602616 0.36984885 -1.4789963 -0.42946076 -0.40007907
personne 0.46204925 0.0570581 0.56043035 -0.32484618 0.9266956 -0.3920316 -0.627328 -0.1250345 -0.06865029 -0.7491903 -0.24588016 -0.24587244 -0.15348701 -0.11653585 -0.1817488 0.23765814 -0.6329654 -0.45199046 -0.39439157 0.13295466
population 0.30352396 0.23839673 0.42543063 -0.16113968 0.89756477 -0.6179638 -0.555423 -0.022864662 0.07606978 -0.66990215 -0.032224253 -0.24537906 -0.094350375 -0.36252248 0.26942718 -0.10352427 -0.35726482 -0.942757 -0.08206475 -0.20494337
urbain 0.28056502 -0.5638258 0.648297 -0.4752297 0.9187484 -0.61390394 -0.8462974 -0.04156497 0.42379096 -0.34403324 -0.26079053 -0.18960257 0.24563743 -0.0072609177 0.279737 0.14461088 -0.71696043 -0.66008425 -0.18604957 -0.612009
promouvoir 0.21363866 0.106172904 0.5565387 -0.40691885 0.5143483 -0.70678043 -0.783621 -0.24976073 0.1727037 -0.11353929 -0.12973961 -0.06596392 -0.12868494 -0.5040638 0.036640927 0.3021783 -0.1478567 -0.908679 -0.34067678 -0.26061127
bon 0.4260203 0.30541328 0.29542893 -0.34811753 0.6433963 -0.6970401 -0.30673432 0.08853937 -0.11600194 -0.91491807 -0.031337894 -0.296142 -0.26165292 -0.550656 -0.035109535 0.16273366 -0.19407201 -0.81621575 -0.19574618 -0.0010183213
mode 0.13296022 0.4816983 0.614775 -0.08730724 0.7376423 -0.9327863 -0.514093 -0.25593767 -0.06562527 -0.34129936 -0.11941415 -0.23303328 -0.32781202 -0.47611418 0.16498215 -0.05655666 0.07362804 -1.2820693 -0.22430329 -0.20405024
ecologie 0.3535623 0.29311475 0.35948685 -0.2869518 0.93781614 -0.4444289 -0.40237865 0.2762711 0.020384803 -0.9509573 -0.0968971 -0.36785185 -0.049397863 -0.42272136 0.27872983 -0.14055581 -0.6781676 -0.75762093 -0.034804024 -0.1593444
eclairage -0.018823346 -0.23780757 0.95918286 -0.6181054 0.43350458 -0.47700927 -1.3322477 0.36775783 0.25236714 -0.49834523 -0.42426303 -0.0333803 0.7142021 0.47191486 0.37020576 0.054948762 -0.6240691 -0.9853856 -0.4264545 -0.040693395
circuit 0.230613 -0.21834 0.25186995 -0.84187746 -0.021005005 -1.050177 -0.44939476 -0.2820959 0.0497795 -0.3775966 0.26397324 0.1588483 -0.5214392 -0.6672553 -0.04632691 0.7387588 0.15546858 -1.3534889 -0.45573422 -0.31985816
agricole 0.34977078 -0.48166353 0.35109302 -0.47047916 0.54502946 -0.82916653 -0.4629228 0.2469166 0.14066899 -0.60084677 0.042842243 -0.31861386 0.13892984 -0.30840558 0.2610874 0.15690392 -0.24138346 -0.9235896 -0.34584808 -0.5923569
consommateur 0.25074184 0.5016815 0.31396616 -0.47997102 0.07735015 -0.7797873 -0.39950097 0.004506416 -0.1504242 -0.8919508 -0.0044266414 -0.09894817 -0.3878419 -0.7358242 -0.20659846 0.35775697 0.10548802 -1.0454556 -0.58681434 0.0019398552
maximum 0.26119727 0.17728731 0.4329899 -0.5420394 0.09674163 -0.6846438 -0.65488195 -0.3065661 -0.031916503 -0.64297605 -0.10523422 -0.076976426 -0.4443338 -0.41235846 -0.31969813 0.56137544 -0.011720612 -0.88317406 -0.5610938 0.090194754
jardin 0.3102064 -0.7454013 0.47750327 -0.61629283 0.8213002 -0.60024947 -0.77189803 0.16209011 0.24298659 -0.61344594 -0.40875688 -0.37272343 0.15807745 -0.013466106 0.13269798 0.44631323 -0.8037981 -0.41937917 -0.09796892 -0.40835258
construire 0.41865015 -0.41480586 0.5062268 -0.5590947 0.48275357 -0.5242962 -0.96153855 0.049830165 0.3970214 -0.31534705 -0.26349732 -0.17878392 0.15518762 -0.28214958 0.11197193 0.43201098 -0.44753307 -0.6469407 -0.16282302 -0.25906748
proximite 0.3482661 0.0076447036 0.47300768 -0.5218192 0.4064139 -1.0479057 -0.46586555 -0.18704827 0.00691529 -0.33636424 0.097439505 -0.107466176 -0.38590968 -0.26788712 -0.18685722 0.24341309 0.21652904 -1.0765544 -0.7453911 -0.33933172
individuel 0.26475567 0.014272707 0.5555596 -0.47344297 0.22625959 -0.5725937 -0.911633 -0.32723022 0.1845452 -0.40255788 -0.3904059 -0.1288091 -0.07311049 -0.41307637 -0.18522485 0.5376836 -0.2980125 -0.60293853 -0.36986044 -0.18428153
parking 0.44341946 -0.44082034 0.99401 -0.6961008 0.78922087 -0.45389894 -1.0547339 -0.36040887 0.51161504 -0.30161968 -0.6345368 0.06051011 0.29949898 0.23042414 -0.26556796 0.5232563 -0.80326605 -0.23740678 -0.4976465 -0.33747134
objet 0.23247176 0.318123 0.34900007 -0.5745391 -0.031993814 -0.66377234 -0.72897494 -0.28633335 -0.071610205 -0.8888359 -0.25031775 -0.27145568 -0.5590086 -0.68259484 -0.40647253 0.52006555 -0.033808995 -0.6577214 -0.5385172 0.25634623
centre 0.33758003 -0.32683137 0.8345795 -0.45536402 0.82837933 -0.36277384 -1.097876 -0.19540852 0.32481626 -0.40761822 -0.44707096 -0.15270135 0.3773781 0.26653603 -0.08258997 0.29327247 -0.85654277 -0.4914479 -0.4611761 -0.25549448
gratuit 0.28029668 -0.081313394 0.8871782 -0.40207496 0.8773033 -0.57108796 -0.9983284 -0.5131465 0.3197812 -0.100467354 -0.4779939 0.011458359 0.049147204 -0.032936715 -0.25598904 0.37555614 -0.5652061 -0.47302836 -0.54438233 -0.3231662
chasse 0.2591935 -0.2846407 0.36050105 -0.6947301 0.19742016 -0.5264205 -0.8951668 -0.03833289 0.18383907 -0.49299067 -0.14284453 -0.40248778 -0.11143255 -0.30989045 0.060136687 0.6769437 -0.18402642 -0.6654229 -0.019466698 0.13551533
jour 0.22067925 0.038989447 0.46677607 -0.50244945 0.48221102 -0.4467735 -0.62352204 -0.23201637 0.089997604 -0.70304143 -0.35076764 -0.20568259 -0.1184042 -0.19437476 -0.19318482 0.47960928 -0.3246379 -0.65091956 -0.30827528 0.079732224
besoin 0.38163647 0.11255638 0.39623567 -0.5613853 0.15592177 -0.68721175 -0.7335799 -0.064926736 0.122454554 -0.5448702 -0.07508852 -0.062019575 -0.2700799 -0.52742803 -0.17907201 0.554983 0.015677124 -0.8366023 -0.19429037 0.12576012
unique 0.29961687 0.21154921 0.41708001 -0.9262899 -0.41216657 -0.87621766 -0.990065 -0.62061465 -0.16264513 -1.1740247 -0.27195933 -0.43644992 -0.75502396 -0.69958377 -0.73091745 0.7339637 -0.18462297 -0.581029 -0.8616176 0.41076663
apprendre 0.5597176 0.24165747 0.35754573 -0.27593318 0.9028961 -0.526701 -0.29883417 0.17822967 -0.23237053 -1.2173316 0.19507967 -0.3372184 -0.35449186 -0.38280234 0.048903905 -0.036599148 -0.6339035 -0.80547553 -0.07521684 0.10272015
polluer 0.30499357 0.18630545 0.4860321 -0.39192715 0.5123365 -0.5457938 -0.72939205 -0.15924658 0.073579155 -0.43225414 -0.21724565 -0.25272334 -0.11838603 -0.42665914 -0.11729699 0.38888454 -0.21234101 -0.746205 -0.32710516 0.03633699
eduquer 0.40772042 0.46299842 0.42107832 -0.21317112 1.1512665 -0.5863766 -0.3286834 0.32327446 -0.119407475 -1.1384423 0.18648197 -0.42293307 -0.12728213 -0.4846273 0.34006813 -0.36895007 -0.70724994 -0.97692025 -0.014090478 -0.10174097
respecter 0.3417723 0.2516424 0.35371688 -0.29832932 0.795141 -0.6438727 -0.27662498 0.2370893 -0.14711896 -0.9850243 0.020204509 -0.46728393 -0.1417706 -0.38598472 0.14307418 -0.1297576 -0.2599566 -0.9889586 -0.319052 -0.10499915
inutile 0.2609871 0.22597222 0.4382938 -0.5513179 -0.08429132 -0.6221033 -0.76189804 -0.27730036 -0.10456214 -0.9142337 -0.31938437 -0.1469187 -0.3268742 -0.39052886 -0.30190042 0.5561198 -0.06820536 -0.66936046 -0.59557736 0.22078624
pollueur 0.21391687 0.42570853 0.3266631 -0.26869288 0.5713692 -0.44096494 -0.4983603 -0.09625902 -0.044572294 -0.8584367 -0.2574289 -0.33839822 -0.120720655 -0.5247391 -0.08054567 0.27431616 -0.20752828 -0.7653341 -0.45690238 -0.000608018
maison 0.40441272 -0.34826064 0.41951877 -0.62990505 0.41250607 -0.46141928 -0.77549756 0.066818155 0.181451 -0.5442543 -0.14978424 -0.14216764 0.035508763 -0.34558454 0.032767214 0.5050217 -0.51746124 -0.6110736 -0.18238716 -0.1108294
commerce 0.24598613 -0.026733713 0.5199815 -0.62897956 0.14353469 -0.8809423 -0.6119784 -0.09378819 -0.00042748163 -0.5323027 -0.0027512037 0.04665422 -0.18041645 -0.16326912 -0.13447022 0.30401844 0.08762715 -1.0259707 -0.70601493 -0.06267581
eco 0.2840559 0.268216 0.34724128 -0.32890287 0.6426912 -0.6533771 -0.33213562 0.16268021 -0.07692446 -0.79713356 -0.04769193 -0.20428948 -0.07891444 -0.5232774 0.09775647 0.04134066 -0.2799078 -0.9502856 -0.2577841 -0.16666564
partout 0.217501 -0.41438687 0.5279516 -0.47535494 0.89285874 -0.70240563 -0.6553737 -0.15382409 0.09048003 -0.71477264 -0.5297995 -0.34771377 -0.04372221 -0.058804978 -0.029572744 0.47790968 -0.45469862 -0.19748354 -0.27217448 -0.2515197
stopper 0.23798689 0.06835956 0.343637 -0.48204383 0.25082952 -0.6566797 -0.57339853 -0.03516601 0.08251567 -0.5505548 -0.030865848 -0.19774592 -0.1494708 -0.51296043 0.0046306103 0.35576072 -0.061718933 -0.9080789 -0.2576356 -0.13444485
davantage 0.25976098 0.05867712 0.40502414 -0.29222396 0.64934754 -0.55272156 -0.5275183 -0.0594014 0.018099105 -0.7320856 -0.19781253 -0.24531774 -0.12599854 -0.39259955 -0.048976276 0.12806319 -0.33493003 -0.72932297 -0.39292517 -0.16411497
cout 0.09053567 0.50964606 0.42512897 -0.3254427 0.49478337 -0.5768744 -0.64730084 -0.116185084 0.08869293 -0.5150437 -0.21798544 -0.1784488 -0.13721867 -0.5776356 0.019781081 0.16756773 -0.17546941 -0.97355473 -0.35924092 -0.16880953
foret 0.30415916 -0.39039338 0.3655881 -0.5256428 0.8680047 -0.7080803 -0.5668176 0.15724006 0.18037485 -0.7298834 -0.33999613 -0.3851346 0.11181586 -0.14591186 0.1965537 0.27837986 -0.4475866 -0.36445737 -0.07098503 -0.37751898
gaspillage 0.30801147 0.24932668 0.35591945 -0.49596414 0.17117164 -0.6484238 -0.5179339 -0.22499977 -0.17510693 -1.049041 -0.05460633 -0.22861496 -0.56503934 -0.54188156 -0.28910065 0.55318385 0.08196251 -0.84902143 -0.50299007 0.23108461
matiere 0.23546383 0.3538199 0.25646797 -0.4836166 0.15630157 -0.5227055 -0.55877763 -0.07478953 -0.060865983 -0.92190766 -0.1770861 -0.24924003 -0.3088739 -0.6900105 -0.12590952 0.31424746 -0.22669749 -0.7364909 -0.43669382 0.05240346
niveau 0.23472346 0.22367859 0.34233773 -0.26656428 0.6437834 -0.50989074 -0.58850443 0.12014819 0.06693115 -0.6982304 -0.16475885 -0.24679635 0.060295083 -0.52847964 0.17180857 0.07746204 -0.37018818 -0.8874068 -0.2349656 -0.22702877
agir 0.32622662 0.24666095 0.29310402 -0.36166114 0.5935704 -0.5952242 -0.41231117 0.19732787 -0.08618612 -0.96265763 -0.08388353 -0.3175184 -0.08432782 -0.48952073 0.096933484 0.04409182 -0.24542461 -0.8138968 -0.21872832 -0.0864056
fonction 0.025916222 0.6993234 0.58300245 -0.13215731 0.707275 -0.53103817 -0.7266846 -0.22092389 0.015400217 -0.4710758 -0.34760553 -0.1631468 -0.103379585 -0.5375034 -0.04434096 0.17865014 -0.14896488 -1.0031035 -0.30440587 -0.07941781
renouvelable 0.3851501 0.05765011 0.50774115 -0.2323911 0.40938747 -0.34755406 -1.1277422 0.23445107 0.6148745 -0.38819447 -0.19996348 0.31985453 0.44727242 -0.8896247 0.30754423 0.40643272 -0.45156702 -1.0605401 -0.09409538 -0.48646507
ecologique 0.29711264 0.22593142 0.42533562 -0.33909285 0.62204325 -0.56666833 -0.6111106 -0.0032012837 0.05522928 -0.6379982 -0.19165666 -0.23007946 -0.09538125 -0.43215242 0.023461377 0.07894453 -0.36521444 -0.7534182 -0.32011658 -0.14532
national 0.24020547 0.23782042 0.44022757 -0.28699774 0.7183078 -0.55245733 -0.55859876 0.1477385 0.112008914 -0.65184784 -0.20732988 -0.25667843 0.1094273 -0.34665406 0.24399906 -0.06631103 -0.4178415 -0.92237586 -0.28479496 -0.31773546
projet 0.2655238 0.06192899 0.38092002 -0.31294394 0.6440006 -0.63288385 -0.6468167 0.18644302 0.16408037 -0.58653027 -0.19641319 -0.26598957 0.09065327 -0.4203189 0.25895464 -0.07565552 -0.40909624 -0.89603156 -0.19223389 -0.32751626
climatique 0.3690701 0.25612494 0.49176687 -0.23954478 1.0509901 -0.5619528 -0.55147934 0.30004346 0.10506005 -0.70916724 -0.08993266 -0.426669 0.076867 -0.45141962 0.35081097 -0.28116068 -0.4724931 -0.8873578 0.064726934 -0.28566512
sol 0.3247518 -0.3200652 0.37987217 -0.5536306 0.47000176 -0.6832783 -0.58847535 0.04717514 0.114536114 -0.5752813 -0.046493087 -0.28191173 -0.02742511 -0.28823432 0.08344519 0.3935636 -0.27376783 -0.6758635 -0.22628038 -0.23149766
loi 0.21329443 0.24848242 0.32012975 -0.3973631 0.43887496 -0.46894172 -0.44882697 0.05524125 -0.004558561 -0.98024166 -0.1958829 -0.30520308 -0.061177455 -0.47515744 -0.015839336 0.16772921 -0.33394837 -0.6905038 -0.37531033 -0.086839594
contenant 0.40668288 0.175446 0.2883321 -1.0706614 -0.2989315 -0.8124027 -0.74975973 -0.5064691 -0.08431802 -1.5247699 -0.40973675 -0.13940074 -0.7504789 -0.7210448 -0.8996538 1.1040745 -0.07391314 -0.48825473 -0.91681397 0.38087565
energetiqu 0.21898602 0.24090835 0.44001007 -0.25527987 0.49126083 -0.48829368 -0.8116844 0.1536673 0.3064101 -0.49034673 -0.16864203 -0.085939124 0.21112463 -0.53284436 0.23927417 0.13444532 -0.32892475 -1.0185063 -0.28047693 -0.29759958
toilette 0.4537333 -0.675483 0.2536373 -1.1252615 0.024442 -0.34428996 -1.3589038 -0.14016551 0.34775054 -0.44564408 -0.35699084 -0.10083967 -0.15414688 -0.47317424 -0.34630266 1.4298997 -0.654561 -0.5414161 -0.09741286 0.3615529
eteindre 0.124200694 -0.1779107 0.983248 -0.6805724 0.34769335 -0.54006183 -1.2091427 0.40115005 0.23986739 -0.5389944 -0.2570854 0.055815928 0.60782576 0.44910747 0.29105443 0.13603698 -0.5741289 -0.94710755 -0.4790199 0.08986596
proteger 0.29072514 -0.28769076 0.39689115 -0.41431385 0.77180004 -0.66811657 -0.65011597 0.106565475 0.16790567 -0.58284193 -0.14354937 -0.4134886 0.07157034 -0.27994603 0.33738986 0.18274446 -0.41249445 -0.6787452 0.018590184 -0.3610773
falloir 0.4191687 0.0057999976 0.28022435 -0.498743 0.4413803 -0.7388234 -0.37408662 0.054924525 -0.09066155 -0.8487604 -0.03208331 -0.24165973 -0.24165781 -0.5798037 -0.08302258 0.4593155 -0.013136631 -0.7186453 -0.28547856 -0.024353364
passer 0.2512056 0.07788385 0.39586577 -0.383277 0.5250088 -0.6047398 -0.6042057 0.111583054 0.056643132 -0.6272904 -0.041947335 -0.21389377 -0.0363379 -0.4048847 0.0980944 0.15638717 -0.3633931 -0.7888677 -0.31861904 -0.2270148
moteur 0.28398368 0.15321167 0.8428253 -0.3384964 0.70707273 -0.5105948 -1.197119 -0.32750022 0.27821478 0.08107566 -0.38721353 -0.022130473 0.11392776 -0.41470876 -0.11902794 0.34892645 -0.38443312 -0.7177904 -0.1785366 -0.18942001
payer 0.20960484 0.5066986 0.4023024 -0.32030433 0.46539795 -0.43870792 -0.4573939 -0.059886612 -0.120550916 -1.0492903 -0.16265902 -0.18058188 -0.27741903 -0.4661876 -0.22341955 0.3652706 -0.3276862 -0.74263376 -0.5600602 0.11954673
sante 0.16479464 0.33001032 0.32903373 -0.38208294 0.5071069 -0.72763646 -0.4174321 0.045157515 -0.07973942 -0.76030546 -0.06256696 -0.3130038 -0.18418182 -0.60631377 0.11460925 0.09630859 0.0631381 -1.0468866 -0.2572382 -0.1452178
investir 0.29119173 0.11504315 0.4687592 -0.29985327 0.48723513 -0.28491405 -1.1097457 0.12206541 0.4544203 -0.3442115 -0.22935201 0.049292736 0.26352814 -0.7873685 0.2312376 0.30879983 -0.5255449 -0.86349535 -0.12807848 -0.34673586
economie 0.19119354 0.101982415 0.42423144 -0.4210123 0.4499624 -0.594466 -0.66191834 0.0773445 0.15985228 -0.51764303 -0.1114383 -0.08775925 -0.019726682 -0.5106395 0.18479846 0.27789593 -0.19308005 -0.99879706 -0.24416475 -0.18063736
nombre 0.17127053 0.2956074 0.553669 -0.3495631 0.5238545 -0.6299333 -0.6570778 -0.45475233 0.07233746 -0.48039442 -0.3793895 -0.16004314 -0.271553 -0.25400278 -0.11668415 0.40171295 -0.16378677 -0.6951375 -0.4269532 -0.053429857
social 0.1424104 0.44364548 0.4556353 -0.23827772 0.9563307 -0.57064396 -0.5202777 0.22303201 0.049611825 -0.6429357 -0.14264566 -0.3654344 -0.016113088 -0.46198714 0.24696663 -0.2566789 -0.48157498 -1.0716568 -0.20593758 -0.30183604
fin 0.28406724 0.09441234 0.36446768 -0.4362042 0.4667953 -0.61676323 -0.46431708 -0.027637454 0.04051831 -0.8104528 -0.21982194 -0.17613855 -0.12571035 -0.4042548 -0.0418394 0.353633 -0.2229204 -0.6405394 -0.33977506 -0.076661825
integrer 0.23436204 0.1895834 0.41267326 -0.32508516 0.7486425 -0.53569144 -0.5884876 0.20381868 0.0939094 -0.6394465 -0.13535705 -0.29380047 0.02279507 -0.44040465 0.30750337 -0.09083459 -0.49300802 -0.9160229 -0.10379162 -0.23866157
alimentation 0.13317236 0.17934594 0.306335 -0.40756664 0.36825448 -0.8169337 -0.3892848 -0.025214009 -0.025956368 -0.66500384 0.05483049 -0.22665313 -0.2213713 -0.60956687 0.08828035 0.21317089 0.085612826 -1.2131493 -0.2931018 -0.18540399
haie 0.17876826 -0.75023824 0.39963195 -0.5521678 0.93369424 -0.8970258 -0.66624665 0.03521791 0.22460428 -0.5676425 -0.5225944 -0.42049658 0.0563814 -0.08684361 0.3069947 0.44857442 -0.48896116 -0.30459106 -0.1156978 -0.7317521
industrie 0.19254242 0.30673477 0.33323073 -0.41809994 0.17594329 -0.5513812 -0.634556 -0.07479449 -0.070607096 -0.75999475 -0.16151828 -0.22665107 -0.1870603 -0.63095903 -0.06621044 0.3267758 -0.10917477 -0.86275786 -0.46013197 -0.06998404
manger 0.46587095 0.22466421 0.24344479 -0.53864956 0.17389865 -1.108065 -0.19479313 0.12966712 -0.16940413 -0.7982946 0.33641934 -0.1927942 -0.4678151 -0.6982101 -0.17418419 0.3226918 0.4015954 -1.3636893 -0.5179837 -0.0119943665
emission 0.02966774 0.58413756 0.55777675 -0.13914844 0.7249504 -0.65245074 -0.73994803 -0.09183872 0.059559114 -0.3668616 -0.3323972 -0.23602228 0.0851966 -0.38427174 0.22950354 0.09793353 -0.13967502 -1.1911955 -0.21753453 -0.24290861
fortement 0.1388711 0.45521596 0.47045365 -0.34569657 0.3511594 -0.49332628 -0.6962654 -0.30275545 0.069875866 -0.54202193 -0.29721496 -0.25094783 -0.21767792 -0.54725015 -0.20179859 0.338314 -0.08660893 -0.8368582 -0.57386404 0.03657231
campagne 0.24894434 -0.12950028 0.69357896 -0.41136217 0.91322744 -0.6573098 -0.75476885 -0.25160483 0.13630848 -0.362973 -0.32248172 -0.22077589 0.03241185 0.030348679 -0.05022325 0.15701127 -0.5214697 -0.5307999 -0.4071935 -0.2630775
chauffage 0.28794342 -0.105366364 0.5306266 -0.5348155 0.29257476 -0.4608948 -0.8921699 -0.010843017 0.16748227 -0.52298164 -0.23644577 -0.13022941 0.10207471 -0.26055032 -0.021176588 0.50481117 -0.31032014 -0.6432112 -0.23949476 -0.042710755
rue 0.39537758 -0.16290689 0.5675695 -0.5205991 0.67080003 -0.40955007 -0.8556305 -0.10879823 -0.04345913 -1.0117244 -0.32177958 -0.29152992 0.05592659 0.20655234 -0.16291301 0.38325164 -0.8325454 -0.22365369 -0.4613307 0.26948708
immeuble 0.35783657 -0.511436 0.5399769 -0.61289114 0.5270567 -0.36622915 -1.0255322 0.084058784 0.32699096 -0.56493664 -0.40265155 -0.098353446 0.27913573 -0.020201135 0.063284166 0.5011623 -0.829767 -0.48355561 -0.14910063 -0.2669884
tva -0.012825773 0.81300396 0.39853612 -0.3740129 0.31721795 -0.79198295 -0.42170924 -0.04438203 -0.109233156 -0.76460147 -0.03841217 -0.21083832 -0.37554583 -0.77612394 -0.06942168 0.1532616 0.1907608 -1.261932 -0.57055706 -0.15148966
importation 0.1781091 0.40647537 0.34009248 -0.43551812 0.21553536 -0.82951844 -0.48942807 -0.15839313 -0.03129648 -0.5994072 -0.0005660594 -0.3219987 -0.4297929 -0.70862895 -0.071565114 0.34525016 0.39677572 -1.1792883 -0.49420428 -0.06280503
camion 0.1291462 0.20023519 0.75664467 -0.33263192 0.69740605 -0.67561924 -0.64443207 -0.5715219 0.08352124 -0.2865457 -0.49284917 -0.10267435 -0.34829003 -0.21589307 -0.18971224 0.47854885 -0.092157826 -0.7947235 -0.5247091 -0.06721135
marche 0.40839604 0.121303394 0.48505837 -0.4956712 0.3467076 -0.75027627 -0.58665824 -0.27530634 0.06418903 -0.45324662 -0.17909011 -0.00833803 -0.32413977 -0.4890878 -0.307023 0.46950218 -0.030615417 -0.68658817 -0.56405604 -0.0829802
scolaire 0.3468035 0.08316738 0.41261825 -0.30320835 1.0394845 -0.62572545 -0.3996166 0.28825718 -0.044387992 -0.8542687 0.04574067 -0.48022655 -0.096836515 -0.46544662 0.34690386 -0.28168646 -0.6182079 -0.8373584 -0.07250685 -0.2794602
poids 0.08909385 0.60300666 0.5344473 -0.2485607 0.64128524 -0.40189382 -0.65725553 -0.37516114 -0.07866177 -0.7981439 -0.39824766 -0.21067418 -0.35277972 -0.34974882 -0.3647679 0.4511524 -0.3536877 -0.6158911 -0.60748404 0.18884322
collectif 0.25292417 -0.15140192 0.58040065 -0.43649936 0.6420568 -0.646612 -0.7026306 -0.21979147 0.1688744 -0.34462312 -0.17071348 -0.07937546 -0.05397365 -0.19328587 -0.031051533 0.22764896 -0.4461552 -0.7921737 -0.36822394 -0.32447058
megot 0.62444484 0.019083215 0.3146592 -0.45179075 0.6084547 -0.4638314 -0.6605529 -0.10753917 -0.2506117 -1.4470773 -0.16633432 -0.42701992 -0.23312406 -0.030678928 -0.37730655 0.43027058 -0.5914857 -0.18466175 -0.5075941 0.55319554
kilomètre 0.20751101 0.23952094 0.8124858 -0.2890043 0.8179004 -0.76976985 -0.8736233 -0.3813384 0.21619248 0.02338064 -0.38181806 -0.12779556 -0.02474593 -0.19746518 0.0633918 0.34978947 -0.07067578 -0.90886897 -0.34462762 -0.217005
financer 0.15965247 0.38002422 0.44584295 -0.1671748 0.59033275 -0.52815425 -0.7399637 0.0732989 0.2637203 -0.3794003 -0.106108174 -0.10825253 0.10991052 -0.7070169 0.21063697 0.15503027 -0.2292836 -1.047915 -0.35803705 -0.35370794
toit 0.5171617 -0.5751078 0.7091603 -0.75072414 0.38335255 -0.25003627 -1.0354213 0.33890286 0.58110464 -0.75124246 -0.40362188 0.068869315 0.7410794 -0.085178174 0.2654475 0.50447977 -0.941129 -0.6370963 -0.26700377 -0.45527828
long 0.1436318 -0.16700642 0.5611333 -0.37629375 0.9233203 -0.6977682 -0.72983336 -0.22067983 0.33188134 -0.35023904 -0.5206966 -0.17440872 0.00478414 -0.21506631 0.25329834 0.36027277 -0.47348812 -0.6265562 -0.10356122 -0.520358
teletravail 0.16246721 0.20395279 0.6939116 -0.33180457 0.7400472 -0.5631795 -0.8303129 -0.45828915 0.11659933 -0.23118067 -0.41712812 -0.111461155 -0.15439665 -0.21243185 -0.14395294 0.32200593 -0.3455755 -0.73284656 -0.44319627 -0.19814435
sauvage 0.33186674 -0.1457538 0.40497574 -0.38172597 0.66226053 -0.5680419 -0.6474499 0.013072121 0.1260026 -0.76007235 -0.2254741 -0.34943995 -0.008592352 -0.20333953 0.17451882 0.21306498 -0.5076164 -0.5717264 -0.19414334 -0.12042479
francai 0.2003361 0.34868565 0.35575944 -0.40489832 0.35294342 -0.7829089 -0.4767788 0.024065258 -0.03610759 -0.5924079 0.035899308 -0.12316984 -0.2753647 -0.6184977 -0.019393023 0.28530598 0.08939998 -1.0888745 -0.48360553 -0.16731517
trier 0.40659988 0.22033803 0.22824374 -0.37340304 0.4277811 -0.4381361 -0.54365915 -0.031009708 -0.22162454 -1.2843199 -0.2152292 -0.26813766 -0.37029463 -0.3468018 -0.3680882 0.40798813 -0.55138266 -0.513463 -0.46736658 0.40889475
carburant 0.12881936 0.5089637 0.5691262 -0.26312745 0.49392846 -0.6381803 -0.84382176 -0.2905283 0.17156123 -0.19072491 -0.28378004 -0.17911331 -0.124023326 -0.56743985 -0.011781138 0.34257796 0.031060051 -1.0004452 -0.39538258 -0.13664858
trajet 0.2805564 0.2367422 0.9092251 -0.29553154 0.9240014 -0.80325437 -0.9176609 -0.5209693 0.18795623 0.17069736 -0.41013741 -0.046768673 -0.12695779 -0.24099557 0.0019229101 0.2943487 -0.16703135 -0.924857 -0.46137753 -0.2893724
producteur 0.24904722 0.2555187 0.31558776 -0.49511656 0.24924141 -0.962043 -0.35849324 -0.016256334 -0.08539725 -0.56391513 0.18339592 -0.030226842 -0.32729366 -0.7342757 -0.049729105 0.3025866 0.26752555 -1.2879649 -0.6043573 -0.25770256
gros 0.2692056 0.43276143 0.4652949 -0.2721591 0.47472766 -0.50706476 -0.6259447 -0.11166126 0.025229633 -0.5718692 -0.26441762 -0.23553386 -0.09217768 -0.5742904 -0.014730429 0.27520162 -0.16841114 -0.8422883 -0.40454134 -0.06870614
reseau 0.26192433 -0.15382685 0.6914114 -0.44606695 0.76851726 -0.5149199 -0.8858601 -0.3836467 0.34032413 -0.14717446 -0.41812554 -0.044424575 -0.08011153 -0.23126495 -0.08079371 0.42134097 -0.5140271 -0.57421154 -0.29155508 -0.3473944
trouver 0.33823133 0.19630805 0.39079267 -0.46823108 0.17180887 -0.47643515 -0.71423155 -0.049739074 0.08204893 -0.84706134 -0.2595859 -0.17974457 -0.2028322 -0.6478046 -0.2954865 0.44012752 -0.2220156 -0.584299 -0.420187 0.03940022
bus 0.33644933 0.022769189 1.0859785 -0.41971296 1.0347561 -0.674134 -1.1065125 -0.52600366 0.36611503 0.1678156 -0.5094716 0.004176734 0.02273903 -0.046701293 -0.1334339 0.40813363 -0.45239764 -0.56125426 -0.39610866 -0.35623756
empreinte 0.0912312 0.8965669 0.6229803 -0.13240483 0.7033187 -0.8015439 -0.43654972 0.11731146 -0.016357947 -0.5213252 -0.061010886 -0.23948304 -0.076255746 -0.55243254 0.1267067 -0.13696454 -0.042238135 -1.3138771 -0.4326238 -0.19664124
culture 0.23822534 -0.18416855 0.251397 -0.6412282 0.30836126 -0.8374107 -0.44827077 0.06580821 0.043505587 -0.5774989 0.045948118 -0.21774313 -0.18631129 -0.62567353 0.056688707 0.41319692 -0.053272087 -0.8336949 -0.25051072 -0.2711765
logement 0.28513455 -0.10873868 0.4633906 -0.40904206 0.60758686 -0.48940098 -0.87011385 0.119854614 0.22321276 -0.36528742 -0.25219384 -0.17894131 0.18382943 -0.27087837 0.17458908 0.2020423 -0.5650909 -0.7867817 -0.18263668 -0.25554538
cours 0.4329309 -0.11712639 0.38069278 -0.5349602 0.81010616 -0.41346863 -0.5617415 0.0955471 0.10044107 -0.7645808 -0.17651409 -0.31592363 -0.12120261 -0.3713748 0.04052421 0.26217276 -0.8097394 -0.54464155 0.0026116723 0.03747047
ex 0.33589172 0.075773224 0.36436415 -0.52154434 0.2300149 -0.5940018 -0.6808959 -0.2170442 0.068077415 -0.78755313 -0.27086857 -0.2463158 -0.21814096 -0.31487212 -0.27094617 0.5025675 -0.27514753 -0.5227375 -0.47322446 0.07769941
education 0.34103757 0.22494937 0.4463718 -0.22012916 1.0903202 -0.53097886 -0.40237278 0.22744676 -0.009241107 -0.86698014 -0.01636919 -0.43190572 -0.07444829 -0.47774532 0.32722992 -0.26879418 -0.6733267 -0.9124748 -0.037760284 -0.2638699
vrai 0.29424936 0.22939172 0.38068417 -0.3550245 0.58103234 -0.4121082 -0.4714566 -0.01712021 0.02813755 -0.9816276 -0.30391082 -0.2388118 -0.13825919 -0.45968893 -0.09260645 0.2608794 -0.40868232 -0.5815525 -0.3595613 -0.053009395
voie 0.25368172 -0.16169855 0.62597805 -0.42131656 0.7547888 -0.5436212 -0.8351639 -0.27954152 0.20678014 -0.39154786 -0.33362833 -0.118556164 0.031153534 -0.12627296 0.018423883 0.2483173 -0.5184127 -0.54222554 -0.30095527 -0.28361645
venir 0.42101684 0.31334883 0.34894508 -0.44792488 0.26383528 -0.8849536 -0.38916728 -0.072883315 -0.18489917 -0.7688697 0.15581763 -0.2581625 -0.5081589 -0.63734394 -0.27369845 0.35631174 0.12748471 -0.9644042 -0.55519474 0.10534376
amende 0.4073794 0.19873153 0.4406095 -0.37659448 0.69679755 -0.32071963 -0.6022983 -0.0551605 -0.07954001 -1.2488719 -0.32538414 -0.3185002 -0.13776967 -0.20531945 -0.24229115 0.35156044 -0.6271415 -0.33834288 -0.4703262 0.26342165
humain 0.22636738 0.15836109 0.37425736 -0.33071545 0.7777938 -0.6555092 -0.46834433 0.08365786 0.017100943 -0.8056547 -0.12181797 -0.361102 -0.08613908 -0.4429646 0.2928498 -0.032288704 -0.32509485 -0.8749151 -0.08618407 -0.2264321
lumiere 0.081508465 -0.060253914 0.8855873 -0.54785985 0.25983396 -0.5736054 -1.1140218 0.3373024 0.14163394 -0.52459013 -0.26350033 0.03998424 0.4327417 0.35845873 0.14791109 0.2544342 -0.29491672 -0.9436533 -0.5269027 0.0964503
fossile 0.2498634 0.26986146 0.4812949 -0.14372444 0.49704692 -0.40046832 -1.0128744 0.095065884 0.44426548 -0.3562657 -0.20246111 0.15884228 0.23712151 -0.88967496 0.28283855 0.32086718 -0.23514125 -1.0210712 -0.19511284 -0.4031232
commercial 0.38553235 -0.38645884 0.7659688 -0.6577455 0.37994322 -0.38085127 -1.090285 0.23841989 0.44021773 -0.54184 -0.3625078 -0.06315387 0.6233347 0.059037898 0.26287684 0.3168478 -0.7069632 -0.7758654 -0.4238066 -0.26176363
hydrogene 0.27296785 0.12025355 0.75928783 -0.30176622 0.5966343 -0.5393449 -1.2098387 -0.2213197 0.44971496 0.064532675 -0.35322955 0.0931969 0.06612171 -0.5681138 -0.032473117 0.3914986 -0.38391593 -0.81907046 -0.19240311 -0.3611258
beaucoup 0.29667452 0.035870783 0.45254982 -0.44506913 0.4694669 -0.6151257 -0.6610818 -0.064910755 0.058064174 -0.62498033 -0.24596755 -0.19946577 -0.10097066 -0.40864748 -0.06756599 0.4390435 -0.1577511 -0.6362899 -0.35781646 -0.08533787
supermarche 0.4288524 0.21641538 0.3226829 -0.7485449 -0.17733482 -0.81075805 -0.5227563 -0.18052459 -0.16544643 -1.1619439 -0.08472793 -0.18866006 -0.518301 -0.52614343 -0.61387724 0.66622764 0.1735063 -0.756348 -0.7710522 0.22125524
type 0.25680503 0.23069516 0.39668325 -0.45928928 0.34142855 -0.5911748 -0.5837172 -0.18094522 -0.01004705 -0.72460926 -0.33825353 -0.216882 -0.23267554 -0.39514652 -0.24137738 0.3971685 -0.20539223 -0.6238146 -0.49534386 -0.0019785508
mondial 0.20017773 0.24197988 0.41415194 -0.29931152 0.82142204 -0.6079585 -0.54513484 0.019205326 0.046237364 -0.64299566 -0.1907753 -0.28329447 -0.064405404 -0.4209336 0.2202171 0.05132212 -0.33711013 -0.77303857 -0.19913279 -0.24022
boite 0.41413465 0.06100272 0.34423393 -0.63792735 0.033551708 -0.6467778 -0.74357903 -0.19637246 -0.20764971 -1.0221013 -0.23190059 -0.2554178 -0.32257324 -0.26263797 -0.31691054 0.58691293 -0.15345167 -0.3723362 -0.5765271 0.27511573
parc 0.27607474 -0.27056083 0.6279021 -0.43530712 0.7917573 -0.556713 -0.9384116 0.07660107 0.37283638 -0.34702843 -0.33756873 -0.16671975 0.32374468 -0.1919721 0.25407618 0.16069093 -0.68178976 -0.6388517 -0.1094938 -0.41172308
collecte 0.31951544 0.019113004 0.3439069 -0.64875454 0.31969896 -0.33194387 -0.6361473 -0.2581598 0.021322045 -1.2504759 -0.5011054 -0.17104676 -0.25154528 -0.27551693 -0.5218071 0.6435506 -0.7521181 -0.21027946 -0.55753773 0.24174005
suremballage 0.31103876 0.36338836 0.34370357 -0.67414993 -0.29070085 -0.8072323 -0.6433361 -0.2758784 -0.16875573 -1.0501769 -0.17648102 -0.21054843 -0.5234514 -0.71794385 -0.50852853 0.6047193 0.1807736 -0.7592184 -0.77623796 0.18583189
baisser 0.063768394 0.43504447 0.5816149 -0.34638944 0.55161923 -0.6883907 -0.6902275 -0.090546675 0.1180245 -0.3642434 -0.21094832 -0.09828681 -0.019618893 -0.43847394 0.03145783 0.20633665 -0.017765274 -1.0158122 -0.45967576 -0.22559026
compost 0.33965498 -0.21180452 0.4439755 -0.5367135 0.5361174 -0.3804132 -0.7255234 -0.092885114 0.06994503 -1.0193685 -0.3917104 -0.18849057 -0.10898429 -0.019504378 -0.32855567 0.54048806 -0.75617975 -0.29565307 -0.5144129 0.026591884
cyclable 0.40269864 -0.43036216 0.9431329 -0.5081385 1.2041733 -0.57066315 -1.1505387 -0.45143512 0.5673209 -0.10719279 -0.62566495 -0.24556558 0.07177124 0.053694464 0.014831112 0.23348296 -0.70951086 -0.40294772 -0.23308758 -0.6770516
alternative 0.23738049 0.3366381 0.4321829 -0.4594604 0.16944632 -0.6335952 -0.66383016 -0.3216528 -0.077626064 -0.66112286 -0.29900604 -0.17594635 -0.27896056 -0.5466349 -0.31840795 0.3730061 -0.06709741 -0.7272559 -0.5095344 0.05514214
societe 0.24106084 0.29255438 0.42142096 -0.23995727 0.67964405 -0.5245136 -0.58237076 0.046450373 0.06702501 -0.6843865 -0.2010946 -0.2619821 -0.052572977 -0.49260485 0.08581293 0.04894938 -0.30788818 -0.840632 -0.22043695 -0.20323361
rien 0.40622166 0.12547465 0.38714784 -0.35718736 0.5146425 -0.53472584 -0.5911149 0.084325306 -0.1171485 -0.99213815 -0.092543095 -0.31702456 -0.12976621 -0.28750288 -0.07330964 0.23431389 -0.32862365 -0.58858526 -0.2974143 0.1274851
qualite 0.19219904 0.2873996 0.25722694 -0.5083215 0.18217964 -0.7790603 -0.49668768 0.014124919 -0.08171957 -0.7459826 0.020046366 -0.21903771 -0.3245649 -0.6704946 -0.077509545 0.42614034 0.057536285 -1.0819441 -0.3282735 0.054868873
carton 0.40673608 0.20178214 0.2657052 -0.9378242 -0.29010603 -0.77877855 -0.8053281 -0.4747535 -0.14660692 -1.4248842 -0.40189204 -0.2942711 -0.63311917 -0.60579467 -0.7346139 0.88325256 -0.09171437 -0.3924973 -0.78002304 0.3653356
mer 0.3532818 -0.08204231 0.31852603 -0.49535206 0.45760646 -0.4748699 -0.7507889 -0.090053655 0.103554375 -0.6556151 -0.1869327 -0.21762286 -0.12594028 -0.3455902 -0.11258337 0.56417435 -0.4420658 -0.5621869 -0.28139237 0.0840843
piste 0.3882321 -0.493915 0.8381407 -0.46709955 1.1992867 -0.61118466 -1.1690009 -0.5228952 0.45224553 -0.045563787 -0.5306242 -0.14405882 0.15720496 -0.06568534 0.02555977 0.37652686 -0.69551486 -0.3775635 -0.26486647 -0.6344578
obsolescence 0.45290428 0.13858229 0.49898502 -0.30780432 0.60928303 -0.58767784 -0.57732433 0.120294586 0.02927753 -0.75684553 0.11318689 -0.4936855 -0.22717991 -0.70312023 0.17328545 0.06552363 -0.17606927 -0.77562475 -0.16247286 -0.071309924
recherche 0.24738379 0.15179381 0.45384234 -0.29517442 0.47338566 -0.42072865 -0.900575 0.07802603 0.23889047 -0.49434727 -0.20745017 -0.091183744 0.06928434 -0.59015185 0.12194222 0.18191724 -0.3911855 -0.8062771 -0.24816869 -0.27895147
subventionner 0.21755698 0.07148824 0.4930178 -0.39083531 0.5550813 -0.5569343 -0.8099583 -0.057302132 0.22357096 -0.25761113 -0.13692531 -0.14268894 0.05122381 -0.55413884 0.15499476 0.2541022 -0.2901087 -0.9356163 -0.26136 -0.3359582
appareil 0.29661095 0.17167005 0.53848743 -0.3600958 0.4005242 -0.5924054 -0.9033557 -0.07202614 0.118586406 -0.41059053 -0.21795416 -0.1880956 -0.090444915 -0.45305905 -0.076056525 0.38276762 -0.22494464 -0.6967829 -0.26880535 0.024969202
jetable 0.3757997 0.24372895 0.25757334 -0.81377786 -0.34041208 -0.74816895 -0.7411253 -0.2676335 -0.17231183 -1.1875035 -0.23250033 -0.28613952 -0.57501286 -0.6575469 -0.64178264 0.7967637 0.037868403 -0.5224067 -0.71506786 0.4254763
gobelet 0.42158294 0.16456912 0.29280525 -0.95042783 -0.38535205 -0.7887077 -0.9910044 -0.47567278 -0.16500773 -1.3088914 -0.42956913 -0.3213671 -0.62199575 -0.71173275 -0.8161674 1.0157633 -0.12179996 -0.38951957 -0.8733373 0.6051661
penser 0.30101308 0.08880957 0.44906062 -0.37443852 0.5873985 -0.6362836 -0.5976155 0.096254684 0.021567779 -0.5992017 -0.09069315 -0.24400383 -0.06849128 -0.4065078 0.18257345 0.17850624 -0.2711162 -0.79951245 -0.15471926 -0.12570497
marchandise 0.021965347 0.34021708 0.720938 -0.25512445 0.7259172 -0.7884635 -0.72318095 -0.61207265 0.101372056 -0.17073342 -0.37991259 -0.08328465 -0.30396715 -0.34635782 0.0054716207 0.35772386 -0.0829694 -0.9813349 -0.45264974 -0.23292744
sanctionner 0.3071897 0.233359 0.34389347 -0.34932983 0.49275362 -0.45733616 -0.5800598 -0.011226991 -0.071461655 -0.9172791 -0.1837227 -0.27214375 -0.15072459 -0.39614576 -0.061451837 0.27379954 -0.3662801 -0.6331775 -0.3782157 0.06804399
materiau 0.29263872 0.17339608 0.2601486 -0.6334792 -0.111561574 -0.50447005 -0.7758596 -0.19653012 0.02752441 -0.84900755 -0.22599979 -0.10389388 -0.26705402 -0.72152036 -0.30514097 0.5554391 -0.25686452 -0.65026516 -0.5353665 0.022530109
bateau 0.2487164 0.3168069 0.5743333 -0.31672683 0.50669044 -0.60227144 -0.8410168 -0.30646172 0.16272233 -0.20696509 -0.34640983 -0.21332799 -0.12927336 -0.40375638 0.0074245213 0.44380152 -0.08383013 -0.8972795 -0.3261272 -0.036216654
covoiturage 0.29847544 0.0078089437 0.75392383 -0.3440802 0.93054163 -0.6414057 -0.8674433 -0.33195025 0.2441226 -0.09669827 -0.37490427 -0.11796513 -0.0013232987 -0.12420199 -0.056073323 0.18527624 -0.4344773 -0.67811126 -0.37025735 -0.35256064
pratique 0.25988337 0.08710966 0.3438093 -0.450453 0.57789844 -0.5943264 -0.4618032 0.10600171 0.03870648 -0.7626075 -0.06148094 -0.2945553 -0.07237986 -0.5045912 0.093216315 0.20367445 -0.31636307 -0.7776579 -0.21506579 -0.12037268
intensif 0.101625286 0.035383582 0.31116006 -0.5168712 0.32316697 -0.9411874 -0.28690925 0.014711139 -0.03878077 -0.71571237 0.21136625 -0.2884398 -0.18947127 -0.784132 0.29375327 0.28829885 0.20856433 -1.3309537 -0.28383777 -0.37176666
electriqu 0.2544357 0.18206625 0.6990612 -0.3122375 0.54603595 -0.57443815 -1.0713211 -0.16424137 0.30759922 -0.07750446 -0.2674562 0.00024826793 0.0672645 -0.42516312 0.04806089 0.27593818 -0.25797668 -0.90922236 -0.18764502 -0.19190581
nettoyer 0.3900915 -0.15584753 0.39288852 -0.46160704 0.7623674 -0.49766558 -0.7102149 0.052086074 0.056843758 -0.75776345 -0.22218807 -0.3191422 -0.04407468 -0.17522074 0.065552026 0.3163188 -0.58659935 -0.4741774 -0.16657685 -0.034153506
lutter 0.4000557 0.10434145 0.38858753 -0.41027552 0.85939497 -0.54822314 -0.5473973 0.13303751 0.08881929 -0.79195446 0.022688506 -0.513213 -0.074624166 -0.569463 -0.012115449 0.21318236 -0.23871383 -0.6386863 -0.048457857 -0.26815683
organiser 0.22793384 0.119255416 0.37857032 -0.41350174 0.5972307 -0.46609598 -0.65467703 -0.040375173 0.07408587 -0.75597113 -0.21585381 -0.20367584 -0.04933532 -0.3442302 -0.05250801 0.19754992 -0.5316017 -0.60767174 -0.2993333 -0.08063589
territoire 0.23504457 -0.000477154 0.5730813 -0.3971059 0.798602 -0.67741776 -0.76250184 -0.2212224 0.1518511 -0.3205681 -0.2668915 -0.16492717 -0.048101485 -0.16768965 0.0684832 0.21727687 -0.37990335 -0.69286317 -0.3375686 -0.28928012
lumineux 0.22967173 -0.07832162 0.8371209 -0.60088795 0.1597039 -0.4962253 -1.113929 0.22425328 0.27855924 -0.6584451 -0.22689909 0.0573337 0.56007034 0.12667131 0.26413146 0.2906423 -0.37655777 -0.85880107 -0.40744644 0.025987402
ordure 0.13689068 0.32034388 0.29131243 -0.43209493 0.5411106 -0.29978743 -0.5856109 -0.121970475 -0.09958325 -1.335755 -0.40815407 -0.21838291 -0.34962836 -0.29691678 -0.359605 0.472007 -0.5424258 -0.4146678 -0.5763379 0.16999806
thermique 0.2948275 0.1635057 0.72862536 -0.4117778 0.5403523 -0.4564448 -1.0803202 -0.18674435 0.27077663 -0.18694843 -0.3542637 -0.012193628 0.19403122 -0.3370984 -0.093875214 0.31976 -0.4934744 -0.7201618 -0.22737634 -0.16553313
cantine 0.21082923 0.17844948 0.32579732 -0.48265633 0.33438137 -0.7189743 -0.3626144 -0.035564627 -0.17340825 -0.81649077 0.07470248 -0.19916354 -0.29987922 -0.4880939 -0.17803161 0.21483652 -0.06570067 -1.0909551 -0.52926666 -0.08972303
quotidien 0.2964154 0.33484903 0.4090581 -0.30486345 0.5671437 -0.6820584 -0.559794 -0.024582049 -0.12638968 -0.7073422 -0.08405374 -0.25907448 -0.24462256 -0.4667942 -0.028093062 0.08821732 -0.19466747 -0.90779763 -0.30465773 -0.054405198
pluie 0.4939277 -0.64723194 0.30993783 -0.9754896 0.116532385 -0.32723835 -1.2025541 -0.03447714 0.45576724 -0.41757315 -0.36251196 -0.10007177 -0.009262309 -0.443065 -0.21815331 1.2062719 -0.7324833 -0.5838901 -0.07574828 0.13171881
devenir 0.28527373 0.08809258 0.3661593 -0.44009548 0.52772033 -0.65511006 -0.4996666 -0.007031047 -0.041199513 -0.7057396 -0.13745886 -0.2862983 -0.11806392 -0.44092473 -0.0057967487 0.24344851 -0.14085723 -0.71972185 -0.25821137 -0.09533324
neuf 0.33069256 -0.13025132 0.5120861 -0.5925271 0.29416993 -0.51245534 -0.9067831 -0.02149166 0.22955601 -0.39496046 -0.17750749 -0.09620149 -0.02658084 -0.42791876 -0.047463022 0.57295924 -0.33800986 -0.68552786 -0.24272297 -0.088269524
plus 0.3139926 0.14061679 0.5236007 -0.36339208 0.6381736 -0.56947416 -0.7738865 -0.04222932 0.18854614 -0.4699118 -0.25227436 -0.19296743 0.09743912 -0.2835753 0.057360537 0.23197919 -0.33800146 -0.70036304 -0.24124838 -0.13930109
autour 0.3748557 -0.3645525 0.49153703 -0.5923268 0.6303851 -0.7865955 -0.6019708 -0.022477351 0.19383284 -0.51650393 -0.29025254 -0.31396782 -0.009258721 -0.16861823 0.014285594 0.37122443 -0.2927458 -0.4473076 -0.23381929 -0.32050067
ensemble 0.24066351 0.20894998 0.35967502 -0.37092674 0.59146386 -0.5811632 -0.522799 0.048123714 0.019688206 -0.7696882 -0.108153895 -0.27237034 -0.10580274 -0.46118125 0.052326873 0.1476144 -0.31925458 -0.8045291 -0.27743602 -0.14593609
ameliorer 0.21774563 0.06439613 0.5409031 -0.4293888 0.6054299 -0.56421715 -0.7220063 -0.3020712 0.14356288 -0.39329 -0.2924099 -0.17215453 -0.13697006 -0.3009422 -0.15197751 0.32554528 -0.33121073 -0.6472601 -0.39721897 -0.1626993
association 0.25847447 0.18541473 0.36958608 -0.40335912 0.5358549 -0.63367724 -0.533796 0.057462648 -0.04460575 -0.758048 -0.102498285 -0.25524637 -0.09360015 -0.3815466 0.009429427 0.10321335 -0.30396184 -0.8239694 -0.33791023 -0.133823
protection 0.28963637 0.12166179 0.3834374 -0.30984965 0.8903845 -0.5787033 -0.48286048 0.29648125 0.049438704 -0.84570366 -0.08828407 -0.42135808 0.015019144 -0.45030996 0.32177594 -0.15685527 -0.48442408 -0.81083375 -0.07448237 -0.34991035
recuperer 0.39634687 -0.2564419 0.31528074 -0.7134126 0.22559713 -0.44974798 -0.8341907 -0.084537596 0.098221324 -0.7574346 -0.26322767 -0.12109867 -0.11152098 -0.35599777 -0.278174 0.7834007 -0.47579443 -0.4472464 -0.29907078 0.19618478
gaz 0.2223402 0.09211713 0.49208713 -0.35562268 0.46586835 -0.67349106 -0.8289879 -0.086549625 0.2436456 -0.2748856 -0.16076668 -0.11592766 0.04391629 -0.44471195 0.13332053 0.34075657 -0.19298454 -0.82910496 -0.22821862 -0.25146517
surconsommation 0.31102204 0.18494377 0.3670538 -0.40253136 0.31997496 -0.70892423 -0.58754104 -0.0651275 -0.027049588 -0.7349988 -0.029765373 -0.2203627 -0.2625189 -0.48665977 -0.05726716 0.35238075 -0.006459705 -0.78804797 -0.3593745 0.0109793935
conscience 0.42220557 0.46616623 0.51873446 -0.09865127 0.9981997 -0.6185345 -0.5441766 0.15445718 -0.003610626 -0.61920387 -0.0886109 -0.3262783 -0.079621896 -0.4276993 0.19356805 -0.10101994 -0.4255758 -0.9702356 -0.14236476 -0.1433709
generaliser 0.23415391 0.06792367 0.38480335 -0.49303073 0.4528181 -0.53979814 -0.66549265 -0.17008042 0.00026869535 -0.7394384 -0.30527174 -0.17185181 -0.14943974 -0.23506095 -0.23754321 0.38536808 -0.46662113 -0.50985134 -0.41328192 0.012492058
quartier 0.29960212 -0.11303721 0.5176604 -0.44316006 0.721161 -0.56798303 -0.65922546 -0.0068835476 0.09795301 -0.63519967 -0.19989425 -0.18457516 0.039184876 -0.11858715 0.035445053 0.17574461 -0.50564843 -0.652728 -0.34172553 -0.27604294
potable 0.48332387 -0.4766513 0.24996224 -0.9749452 0.031954356 -0.452595 -1.2215782 -0.16487627 0.3306002 -0.48468453 -0.3296335 -0.13904998 -0.2581108 -0.5650933 -0.4062366 1.3212497 -0.44914496 -0.61687076 -0.18447022 0.34067735
revoir 0.1859943 0.14109759 0.47979727 -0.40072182 0.46068072 -0.6470488 -0.6435402 -0.02912716 0.07262768 -0.4625461 -0.2085175 -0.25506228 -0.06184922 -0.35523665 0.11234756 0.20351058 -0.21007305 -0.87322617 -0.28858924 -0.17694741
vetement 0.2987701 0.22458208 0.29709113 -0.58341724 0.11573191 -0.78892195 -0.5268053 -0.119799376 -0.0954017 -0.8200183 -0.024445992 -0.14871423 -0.47518238 -0.6626765 -0.36131608 0.5413535 0.10835783 -0.8926346 -0.48942304 0.14256348
developpement 0.27901623 0.033942264 0.47594327 -0.29446217 0.69806063 -0.5829072 -0.69955796 0.053312898 0.1525305 -0.445741 -0.15399404 -0.22863509 0.09102178 -0.4719712 0.16851124 0.12226027 -0.4429017 -0.8675986 -0.19885132 -0.30235094
fois 0.30102414 0.17196126 0.40026894 -0.50581354 0.36557308 -0.72679657 -0.6271278 -0.24897575 -0.008672606 -0.5927218 -0.15789083 -0.18863052 -0.31510523 -0.38742313 -0.2693601 0.51181114 -0.15557745 -0.72403634 -0.41153023 0.051079027
sortir 0.24524312 0.083827175 0.45849308 -0.37632152 0.5864796 -0.5073051 -0.79899496 0.13252108 0.226002 -0.3795716 -0.15370265 -0.13665049 0.13000785 -0.45155582 0.21700145 0.20824449 -0.3629529 -0.80378115 -0.15791075 -0.29053864
activite 0.2111632 0.17922777 0.46500996 -0.33002713 0.7047908 -0.5268948 -0.6361181 0.07624072 0.11341603 -0.59806514 -0.20048556 -0.2559007 0.045832682 -0.34338254 0.19591111 0.085391864 -0.41643894 -0.83298993 -0.2323772 -0.27897787
preserver 0.2525706 -0.2723508 0.4540129 -0.41167617 0.69673127 -0.7393125 -0.5966656 0.19701022 0.14844486 -0.496647 -0.1124298 -0.31572545 0.08585961 -0.2680444 0.3199548 0.14640632 -0.30748346 -0.83324474 -0.15957776 -0.42051023
habitation 0.3547104 -0.26859865 0.51343936 -0.5116221 0.57628465 -0.5254624 -0.89916945 0.018892895 0.29811645 -0.3905488 -0.28408894 -0.14883061 0.17010331 -0.25480652 0.15531673 0.42295742 -0.50990105 -0.6711206 -0.20357217 -0.3450475
aller 0.35422498 0.18420407 0.51797384 -0.37787342 0.6914584 -0.5888691 -0.62981063 -0.11980893 0.07425457 -0.49867165 -0.2234442 -0.21938233 -0.1911423 -0.32316253 -0.09925897 0.21503294 -0.38397723 -0.6190439 -0.33352327 -0.07414266
informer 0.1825774 0.30836645 0.39854053 -0.32959908 0.5612145 -0.595057 -0.6320422 0.14543371 0.012358898 -0.6880189 -0.1343911 -0.21899772 -0.038992334 -0.42396837 0.105047606 -0.026034443 -0.2909432 -0.92883873 -0.18399894 -0.12414911
emploi 0.22868422 0.13721646 0.4435395 -0.34426606 0.55873287 -0.6012359 -0.63506174 -0.05143753 0.10136921 -0.5886725 -0.19696926 -0.26884595 -0.105255276 -0.44516587 0.04814982 0.1428135 -0.21918063 -0.82542354 -0.36481154 -0.20567757
respectueux 0.22980434 0.15583323 0.27590033 -0.42842865 0.40405768 -0.7265479 -0.3729666 0.12740436 -0.023362614 -0.8154841 0.019695267 -0.2421638 -0.17321636 -0.73435956 0.052287582 0.16616759 -0.1105652 -0.96859086 -0.43637168 -0.35490215
biologique 0.1542468 -0.050594583 0.2535722 -0.48505604 0.41273755 -0.9101159 -0.35966212 0.2259715 0.032261148 -0.57874864 0.27472585 -0.2178141 -0.18616852 -0.75623125 0.29946417 0.11703138 -0.036173113 -1.3248597 -0.40038502 -0.57930785
interdir 0.2824416 0.17541593 0.36926723 -0.50511694 0.2216986 -0.57267076 -0.60531557 -0.09666726 -0.004472949 -0.76161796 -0.20226824 -0.22822669 -0.19781552 -0.44540063 -0.18733448 0.41945866 -0.14726183 -0.6266307 -0.3823035 0.09355761
lourd 0.0813481 0.36559325 0.55313027 -0.2831771 0.668352 -0.58570033 -0.7601327 -0.39205906 0.102625705 -0.40275806 -0.35003304 -0.2132404 -0.17694753 -0.37029916 -0.05194134 0.37536868 -0.15516755 -0.75685436 -0.41413888 -0.07843859
ferroviaire 0.06618806 0.17879866 0.7859919 -0.2974912 0.8794218 -0.7554081 -0.7543532 -0.6818119 0.18729933 -0.07978294 -0.5058581 -0.07219342 -0.2022096 -0.21256913 0.033588503 0.32016477 -0.22042863 -0.8272694 -0.397409 -0.34866747
faciliter 0.23399271 0.07398154 0.4121075 -0.4630016 0.45181388 -0.61553824 -0.5841704 -0.08885131 0.07863963 -0.6312342 -0.2049492 -0.118608065 -0.13143742 -0.3576649 -0.11707904 0.29180428 -0.25561574 -0.6603797 -0.50603646 -0.17678323
temps 0.32966155 0.05066283 0.33917683 -0.49311173 0.39941508 -0.5980455 -0.6297402 -0.0014855895 0.09087478 -0.6089631 -0.13055748 -0.21684407 -0.15749836 -0.4134794 -0.044517525 0.38203865 -0.18219435 -0.694718 -0.2581328 -0.029394716
vivre 0.34206775 0.10507144 0.36176628 -0.35582164 0.69109035 -0.6548116 -0.51259595 0.17435576 0.03625742 -0.71403444 0.017426176 -0.2689429 -0.06361968 -0.4535894 0.17946209 0.071548305 -0.33817446 -0.87040144 -0.16527015 -0.16547419
point 0.3154622 -0.05755485 0.37858984 -0.6843537 0.3521554 -0.471708 -0.6143407 -0.20668806 0.058434818 -1.084371 -0.44531044 -0.15371233 -0.21096925 -0.25787258 -0.40191415 0.63049525 -0.52539706 -0.26340857 -0.47262555 0.11076217
automobile 0.23932776 0.18224016 0.6074951 -0.37265494 0.49536017 -0.5109766 -0.97333413 -0.14331855 0.19625022 -0.30938867 -0.28949872 -0.15175186 0.0338077 -0.37226647 0.013027156 0.32253593 -0.3383355 -0.7663042 -0.2867698 -0.14933026
centrale 0.37014213 -0.14094137 0.43769258 -0.46772334 0.38072592 -0.35367298 -1.1483089 0.24522074 0.4792627 -0.4617157 -0.18943499 0.06010157 0.2933155 -0.56028104 0.27621365 0.35006553 -0.5116363 -0.83054733 -0.09966435 -0.34982586
enseigne 0.2132059 -0.06617479 0.7759466 -0.64992374 0.14322309 -0.555798 -0.9971988 0.32297978 0.13204946 -0.66820985 -0.20259325 0.031791113 0.38004103 0.2156546 0.15700497 0.20134406 -0.36459664 -0.8321115 -0.50184506 0.044542115
argent 0.26313964 0.2430495 0.38889188 -0.31315067 0.5400992 -0.5575124 -0.6587872 0.10690947 0.11756359 -0.605253 -0.15478697 -0.14767694 -0.030621545 -0.5594232 0.030058982 0.18481554 -0.19756065 -0.8354103 -0.2768884 -0.15568677
nourriture 0.3172821 0.124668725 0.30903962 -0.5037205 0.29956666 -0.7541168 -0.42981267 -0.11113611 -0.04522103 -0.7618683 -0.018694256 -0.16968185 -0.35485432 -0.45677328 -0.0892401 0.36384583 -0.058610987 -0.9217116 -0.37115273 -0.0015085551
respect 0.36037177 0.29610813 0.3783091 -0.22255711 0.98809254 -0.4717537 -0.42906418 0.23720026 -0.09832181 -1.0467081 8.09107e-05 -0.3868122 -0.03810693 -0.43841082 0.20841737 -0.16562393 -0.6028121 -0.8310536 -0.14962602 -0.136063
habitude 0.32254282 0.38153118 0.43401328 -0.23695974 0.6264046 -0.75978327 -0.4452653 0.06923309 -0.11112757 -0.7742872 -0.017874423 -0.22826669 -0.22042912 -0.5216775 0.04077184 0.101430334 -0.11612791 -1.0355645 -0.1735264 -0.008534026
publicitaire 0.3314673 -0.06016975 0.68997717 -0.62478817 0.043344826 -0.43073085 -0.9141603 0.18714315 0.32935646 -0.7045161 -0.1712786 0.08518426 0.37867033 -0.093606316 0.14939515 0.48649198 -0.39569739 -0.7716026 -0.35235143 -0.059607092
collectivite 0.2638182 0.035796754 0.38399273 -0.44881803 0.46055198 -0.5201188 -0.6092971 0.06863342 0.06307165 -0.7267326 -0.09953833 -0.11771809 0.0029725234 -0.44413075 0.001866678 0.28183404 -0.40548444 -0.774635 -0.35010067 -0.111624904
compostage 0.29509965 -0.101922676 0.47828868 -0.5088954 0.49798262 -0.4744064 -0.6777469 -0.11241162 0.0390278 -0.813587 -0.25044668 -0.18247698 -0.119983666 -0.18522501 -0.24540475 0.423779 -0.5499927 -0.48582605 -0.46876675 -0.015884016
appliquer 0.18426546 0.41478613 0.36816826 -0.371429 0.48490334 -0.49040112 -0.551504 0.038968556 -0.021344837 -0.8463328 -0.22385259 -0.27825963 -0.108572945 -0.44391796 -0.068962954 0.2117024 -0.26566038 -0.7690202 -0.3373599 -0.0031763487
chimique 0.19921207 0.100516014 0.23400459 -0.595853 0.09112119 -0.75465584 -0.53798157 -0.039979823 -0.057096783 -0.6801355 0.043627717 -0.24551423 -0.26009226 -0.72252995 -0.048373576 0.50327253 0.06550399 -0.91958517 -0.38806793 -0.090348765
bilan 0.045765445 0.7113537 0.56305134 -0.16795103 0.61349994 -0.61489785 -0.5208148 0.17279007 -0.02617848 -0.65938556 -0.18779688 -0.24655618 0.0974413 -0.4651 0.147857 -0.039580267 -0.3066347 -1.0869352 -0.3623628 -0.17622392
profit 0.24619155 0.0032094577 0.47127786 -0.4114228 0.5541743 -0.6979489 -0.64340323 -0.097424306 0.08751716 -0.4831262 -0.18935582 -0.2002908 -0.072344184 -0.38607267 0.090741806 0.20788251 -0.22708842 -0.79064685 -0.29766917 -0.21999384
massivement 0.22183914 0.10339181 0.52981335 -0.292012 0.56518 -0.58335525 -0.897399 -0.09245608 0.2636806 -0.25264218 -0.17508924 -0.023198782 0.042289887 -0.5897626 0.091528736 0.21504019 -0.3231255 -0.8813025 -0.26209548 -0.41511494
bureau 0.18264124 -0.07147571 0.641752 -0.56914777 0.25174022 -0.56000674 -0.898081 0.009182626 0.09721626 -0.61292696 -0.28344354 -0.0953154 0.118574016 0.035946634 -0.043581776 0.38315848 -0.37759474 -0.6384331 -0.45080307 0.09748786
age 0.38151637 0.38675898 0.4575686 -0.20770665 1.2782437 -0.6139359 -0.41672215 0.29535317 -0.00790375 -1.0506047 0.116163135 -0.43631724 -0.06367725 -0.4466048 0.44514287 -0.39087418 -0.8071622 -1.0545471 0.06546092 -0.24226154
voir 0.3262053 0.00056617404 0.35883743 -0.45934924 0.5038163 -0.60288924 -0.64353067 0.005809267 0.052149218 -0.74444 -0.13039903 -0.24944347 -0.10465091 -0.3314142 0.012902609 0.26080543 -0.35671803 -0.649064 -0.28654835 -0.076431476
douche 0.43060383 -0.31963727 0.3289543 -0.78639257 0.2262427 -0.47795358 -0.9930764 -0.21262838 0.2552101 -0.40902355 -0.28907856 -0.082972646 -0.22699799 -0.42547655 -0.36799663 1.0014641 -0.35193953 -0.5044129 -0.28790298 0.22870347
acce 0.26665905 0.083239675 0.5118714 -0.45610642 0.46562827 -0.6557345 -0.7160496 -0.1638113 0.10301449 -0.4176504 -0.14792563 -0.10363052 -0.13360377 -0.33126992 -0.14486106 0.31330532 -0.24959296 -0.7131323 -0.44106528 -0.12185465
climat 0.22324638 0.17277052 0.40345278 -0.2916289 0.7001001 -0.59017193 -0.58091414 0.15044881 0.09059373 -0.69491965 -0.18402366 -0.29029962 0.044146758 -0.44767085 0.1810456 0.056769393 -0.3269366 -0.80730504 -0.13811146 -0.25819594
filiere 0.25947154 0.11300073 0.35145503 -0.5282135 0.2733103 -0.37382782 -0.70063186 -0.1519531 0.096445374 -0.8630698 -0.3273331 -0.122681715 -0.25168163 -0.5168015 -0.28366813 0.42114636 -0.48630974 -0.46192178 -0.48060626 -0.011992434
ferme 0.22643355 -0.14606982 0.47919753 -0.5475618 0.365311 -0.63957053 -0.702992 0.011668737 0.12554887 -0.57316595 -0.14831047 -0.13227738 0.04593166 -0.24365377 0.049803656 0.365104 -0.24340829 -0.80475223 -0.2920896 -0.17741674
terme 0.18073767 0.13961506 0.3952116 -0.36722326 0.5415932 -0.7285347 -0.62467164 -0.06238672 0.11249025 -0.57944626 -0.17897186 -0.15938269 -0.094612084 -0.49228203 0.21265115 0.21510692 -0.18347527 -0.9511083 -0.20801874 -0.29722297
air 0.30578908 -0.015668845 0.46470487 -0.45545644 0.5128676 -0.6368712 -0.7158132 -0.03862069 0.15738842 -0.41976994 -0.21290448 -0.20103021 -0.052116085 -0.38773263 -0.046849668 0.4074898 -0.28224838 -0.7714358 -0.17575586 -0.117378965
boycotter 0.31697384 0.29859358 0.26497906 -0.5182988 0.10241281 -0.7444645 -0.4280213 0.014008188 -0.12751655 -0.89722925 -0.01680098 -0.17210539 -0.33815846 -0.54224986 -0.24220814 0.37692901 0.034283727 -0.8593917 -0.58010435 0.07167572
zero 0.25614664 0.27902615 0.3018859 -0.35142902 0.46488616 -0.58077294 -0.5521122 -0.079880245 -0.120388255 -0.99524075 -0.15980388 -0.19400015 -0.30487594 -0.39510214 -0.18466991 0.2419508 -0.35629737 -0.74970293 -0.453798 0.109953456
village 0.26916772 -0.18017982 0.5504154 -0.44405356 0.7008013 -0.6061646 -0.71553236 -0.0782958 0.22665854 -0.5200785 -0.28947017 -0.12913054 0.06362593 -0.10288837 0.058970436 0.27176186 -0.42642307 -0.61574316 -0.31605035 -0.2990415
mesure 0.31946453 0.23463112 0.49798393 -0.281349 0.6553226 -0.5886403 -0.60543126 0.05169156 0.059792 -0.5432588 -0.20069125 -0.23206036 -0.029046835 -0.36766163 0.08895344 0.17232239 -0.29085892 -0.8561654 -0.2474404 -0.15755124
autant 0.26558807 0.05420429 0.53367454 -0.42890707 0.5858877 -0.67618275 -0.6413611 -0.17370225 0.12057456 -0.41014475 -0.2430634 -0.16976042 -0.12038786 -0.37587732 0.03700185 0.35409063 -0.10625668 -0.7456082 -0.26155722 -0.16694024
ligne 0.27775967 -0.07710798 0.71043295 -0.4677003 0.73899573 -0.6927642 -0.76807916 -0.26501036 0.18356414 -0.19287914 -0.3565126 -0.082625136 -0.018258283 -0.1722412 0.04804256 0.319334 -0.29478434 -0.6141914 -0.2848994 -0.25856516
masse 0.21179703 0.113628365 0.41723338 -0.3991569 0.46398777 -0.6980481 -0.55821586 -0.13188587 0.055060234 -0.6048909 -0.15055045 -0.2417206 -0.18953456 -0.43748996 -0.014754744 0.31605983 -0.029345745 -0.84571815 -0.2854774 -0.10107656
plan 0.27091128 0.039549347 0.4598336 -0.34083924 0.70879996 -0.46604943 -0.63916063 0.17139488 0.17201672 -0.7281833 -0.27002123 -0.22762285 0.13528603 -0.29088792 0.091868065 0.10791529 -0.59375614 -0.7062484 -0.3190154 -0.28531924
reutilisable 0.49153355 0.208184 0.2433097 -0.8471098 -0.230113 -0.879506 -0.68927985 -0.25082418 -0.16681162 -1.2631038 -0.14839181 -0.19558316 -0.6268127 -0.7152061 -0.7776277 0.84075934 0.076233506 -0.6017909 -0.7957822 0.39251712
fabricant 0.27927044 0.3741732 0.32157204 -0.5056386 0.030886255 -0.5112106 -0.61343884 -0.12053313 -0.12857674 -1.0798168 -0.20103604 -0.27692 -0.37323967 -0.63339114 -0.36353025 0.46616495 -0.11319903 -0.6451813 -0.5912634 0.16077489
devoir 0.27624673 0.12287783 0.40610206 -0.42340353 0.39456463 -0.6869305 -0.631098 -0.056625348 0.054071408 -0.61753225 -0.16690737 -0.22399029 -0.1521316 -0.40874773 0.008650705 0.29708967 -0.10540532 -0.81195915 -0.3523129 -0.07090733
espece 0.2582996 -0.14379351 0.3760205 -0.46779594 0.5760797 -0.68962675 -0.6167061 0.005851385 0.13895108 -0.51348555 -0.16413319 -0.32345983 -0.045287132 -0.31027514 0.17831445 0.3002703 -0.22799619 -0.729987 -0.1543666 -0.21754685
soutenir 0.26326224 0.091238216 0.44475263 -0.3202204 0.6930677 -0.7234852 -0.5457505 0.09260292 0.077308215 -0.4514816 -0.013208161 -0.16942781 0.0008544457 -0.4933665 0.22918801 0.07968469 -0.21200871 -1.012899 -0.2885006 -0.40695986
ressource 0.24707252 0.08709095 0.38746879 -0.36191118 0.5409089 -0.6403804 -0.5893752 0.008819913 0.080344856 -0.6291164 -0.08646874 -0.29606867 -0.14652969 -0.50265336 0.16559425 0.21749373 -0.2491554 -0.8143735 -0.14794937 -0.14806603
replanter 0.25168562 -0.49312913 0.491095 -0.6485096 0.99111325 -0.8085546 -0.6388265 0.05626127 0.22410333 -0.5622661 -0.4401839 -0.3898481 0.23206641 -0.15640146 0.22031501 0.3796892 -0.40564933 -0.3771466 -0.045553334 -0.44452292
penaliser 0.32031807 0.2084062 0.41260013 -0.40113226 0.45669132 -0.63036036 -0.56623834 -0.0263805 -0.05051431 -0.7171448 -0.052742723 -0.24604242 -0.19339879 -0.39630446 -0.14184967 0.23881036 -0.19441265 -0.76896966 -0.43795887 0.007261883
distribution 0.32208124 0.20115948 0.26602384 -0.6427744 -0.13994227 -0.80222446 -0.5218154 -0.12876871 -0.09950994 -0.99626756 -0.115045875 -0.13849624 -0.4129033 -0.47108242 -0.4213577 0.503469 0.06609177 -0.81476736 -0.73660773 0.14288376
semaine 0.1899883 0.24983306 0.47070196 -0.35022858 0.5134156 -0.6647925 -0.60995877 -0.16410515 -0.029165024 -0.5068941 -0.1325333 -0.18971592 -0.14580546 -0.3322485 -0.068201646 0.3046088 -0.08759335 -1.0415406 -0.41743386 -0.050743442
gouvernement 0.29253468 0.19501846 0.41363055 -0.29020202 0.6599593 -0.5998063 -0.5444936 0.09817968 0.03768741 -0.6597082 -0.17353238 -0.21499348 -0.08309812 -0.4396321 0.079664685 0.11136816 -0.32600182 -0.82428914 -0.2558928 -0.14375582
reparation 0.3172515 0.21058853 0.4672803 -0.37095866 0.5371538 -0.6943198 -0.6266017 -0.018625382 0.027588557 -0.4958494 -0.0063995286 -0.20788997 -0.21999538 -0.49902514 0.0138151795 0.19942325 -0.16746457 -0.8937275 -0.3097765 -0.12618959
journee 0.27300724 0.09972716 0.55655473 -0.39077666 0.6890653 -0.4908748 -0.6704926 -0.0069811526 0.04213106 -0.6299863 -0.23871249 -0.21593308 -0.031821426 -0.23550315 0.0048351847 0.21164387 -0.48320952 -0.7246294 -0.34010595 -0.044671413
servir 0.35173613 -0.1161764 0.39702466 -0.5662259 0.3054551 -0.48583347 -0.74316376 0.12198128 0.16828537 -0.7223827 -0.15334934 -0.15607221 -0.012795168 -0.30904958 -0.10110334 0.4810408 -0.39319178 -0.64962727 -0.3223721 0.05908849
cafe 0.36260638 0.07232114 0.24098897 -0.8043969 -0.20655684 -0.63332665 -0.76764685 -0.3251684 -0.07789121 -1.0696245 -0.32400692 -0.27452725 -0.45661166 -0.5855611 -0.5884325 0.86484784 -0.11364629 -0.46266782 -0.6647549 0.36240286
bois 0.32519874 -0.030267674 0.33779597 -0.56822896 0.16746324 -0.5887132 -0.77554536 -0.114952266 0.10574562 -0.68281955 -0.21242277 -0.16793762 -0.08757805 -0.39760923 -0.15565158 0.5664963 -0.26846632 -0.54246515 -0.3194144 0.009147424
comprendre 0.22368808 0.3282342 0.46293986 -0.33377713 0.6662746 -0.54607415 -0.6021278 0.16641006 0.11328376 -0.6905705 -0.107688546 -0.16009086 0.049061622 -0.46294352 0.1938238 -0.017611973 -0.34772682 -0.93078905 -0.20601462 -0.24683505
fret 0.044607528 0.22098635 0.7287688 -0.30889854 0.8163264 -0.712406 -0.6973819 -0.60540694 0.20628309 -0.19572921 -0.4849618 -0.13068877 -0.27011943 -0.282639 0.0037017395 0.36143005 -0.16739729 -0.81247485 -0.42720467 -0.2716764
restaurant 0.32614252 0.092576 0.34920537 -0.59090984 0.1548541 -0.62952197 -0.5407879 -0.10263976 -0.054699883 -0.87073624 -0.14278106 -0.22898754 -0.27445948 -0.45012975 -0.30804065 0.4849565 -0.15181026 -0.6552739 -0.5126567 0.08445044
installation 0.38375714 -0.2865909 0.5203891 -0.5931433 0.38949028 -0.4041415 -0.8416091 0.11918314 0.31595567 -0.54913765 -0.18254814 -0.04994824 0.28349724 -0.3219106 0.13986298 0.47400594 -0.6107874 -0.701043 -0.21420245 -0.26307738
oiseau 0.22635028 -0.32060242 0.47672018 -0.50387454 0.71124744 -0.6251632 -0.7081211 0.13537665 0.20395686 -0.5702805 -0.2858204 -0.31032845 0.14049278 -0.17062147 0.24936274 0.2695581 -0.40988833 -0.590143 -0.094658665 -0.31029713
reduction 0.24877134 0.26526043 0.37584972 -0.39614207 0.42313346 -0.58841187 -0.5318148 -0.04493359 -0.03382923 -0.73865277 -0.1459628 -0.23843594 -0.21440525 -0.44519067 -0.10584551 0.22326036 -0.21523112 -0.80435246 -0.40440327 -0.030960767
exploitation 0.19641314 -0.03715116 0.31107348 -0.44408417 0.4315107 -0.83926725 -0.50109154 0.029753499 0.01898283 -0.56039286 0.0302044 -0.25219133 -0.12501986 -0.6208977 0.13693027 0.26729697 0.0003588816 -1.0041112 -0.26057085 -0.34884265
usine 0.31487396 -0.07505294 0.438353 -0.48602232 0.3197951 -0.5719496 -0.69767386 -0.0367726 0.09642493 -0.63364077 -0.17390485 -0.14657106 -0.024464639 -0.36177912 -0.013123211 0.4570043 -0.25229067 -0.7738363 -0.3354989 -0.07658181
chaleur 0.37972325 -0.17322809 0.48611167 -0.46912327 0.50924116 -0.51395434 -0.9041751 0.1122012 0.29109538 -0.52483326 -0.24643277 -0.11363066 0.15295112 -0.2613989 0.101437375 0.41265297 -0.44950885 -0.6070776 -0.21137413 -0.17721611
minimum 0.2916503 -0.124172874 0.42799908 -0.5040295 0.47236457 -0.49549636 -0.7425594 0.036478866 0.12787688 -0.6879086 -0.25370237 -0.23901483 0.014796733 -0.2816742 0.016663887 0.39646047 -0.44958824 -0.51399565 -0.28454792 -0.12731034
creation 0.24036902 -0.01078282 0.4877419 -0.40171227 0.7042739 -0.64047813 -0.6887547 -0.085388355 0.16084924 -0.4312687 -0.27515328 -0.18180849 -0.025265865 -0.2791573 0.075326905 0.25298718 -0.35250273 -0.73339033 -0.31155533 -0.30674782
maniere 0.2958013 0.19182196 0.37334427 -0.3277403 0.5413569 -0.6163515 -0.50122595 0.108031936 8.804341e-05 -0.65535486 -0.0080506345 -0.22390848 -0.14632322 -0.51407397 0.048124656 0.19706035 -0.19662929 -0.9236323 -0.28211042 -0.10801869
recuperation 0.38123858 -0.29006132 0.27075288 -0.8031093 0.12816261 -0.35367566 -0.91579366 -0.10175436 0.21520294 -0.772956 -0.40665612 -0.09886004 -0.0874067 -0.41552886 -0.2809713 0.8839542 -0.59696275 -0.44513825 -0.27799037 0.1260556
echelle 0.2628145 0.031819332 0.42879024 -0.4407786 0.5206172 -0.6852493 -0.5379367 -0.03312757 0.12567884 -0.7181914 -0.2776269 -0.18745293 -0.10401206 -0.3691861 -0.07177921 0.25113627 -0.2608965 -0.7081289 -0.3462892 -0.22086646
partir 0.22436965 -0.015175034 0.6191823 -0.41345993 0.5234091 -0.56252253 -0.9362845 0.06662053 0.26255646 -0.39272964 -0.2627917 -0.0830621 0.14646989 -0.16635175 0.13189979 0.2742868 -0.43160623 -0.75537694 -0.24778382 -0.12706447
champ 0.25303787 -0.43590906 0.45269665 -0.55740833 0.855811 -0.7234628 -0.64148915 -0.005087757 0.19073278 -0.5848287 -0.46455956 -0.31940433 0.07334254 -0.18703113 0.20355132 0.42774275 -0.44887608 -0.34988955 -0.10934378 -0.4626513
economiqu 0.26505056 0.16148674 0.33782127 -0.46489555 0.4418092 -0.58378446 -0.6506288 -0.07631144 0.08729094 -0.69474846 -0.2814866 -0.22515394 -0.11172276 -0.4538243 -0.05425252 0.33061862 -0.25761673 -0.7122395 -0.25360268 -0.031272635
selectif 0.34933162 0.18077296 0.3904666 -0.489842 0.5806448 -0.29439712 -0.69456375 -0.06864573 -0.17453565 -1.3816991 -0.32736024 -0.33356017 -0.17835619 -0.21040444 -0.44517615 0.38610622 -0.9018364 -0.4157832 -0.5744484 0.30545428
utilise 0.21953823 0.07799958 0.3255589 -0.5439704 0.22934566 -0.605883 -0.6945625 -0.1560159 0.03743565 -0.6478254 -0.28495562 -0.20862137 -0.1462336 -0.43224406 -0.13713378 0.48796138 -0.16880096 -0.672112 -0.4070831 0.024232749
lobby 0.23220062 0.1730522 0.37975547 -0.39870653 0.44694602 -0.51349366 -0.65959394 0.0363308 0.08961491 -0.63807994 -0.22801997 -0.26022077 0.012716818 -0.40621343 0.11493445 0.19213326 -0.29154807 -0.7446871 -0.25749928 -0.14073938
europe 0.18319589 0.13967682 0.4193943 -0.40348467 0.5063227 -0.69342077 -0.6170901 -0.14726645 0.050923385 -0.5293069 -0.19883911 -0.23425522 -0.18039641 -0.42517883 0.0063921963 0.3056626 -0.13074704 -0.83798885 -0.33007059 -0.13972434
machine 0.36374342 -0.08815811 0.23763369 -0.8121101 -0.14753172 -0.58474344 -0.96135795 -0.2981574 0.01242916 -0.9080333 -0.30190924 -0.18739468 -0.3569832 -0.46961507 -0.54314923 0.9334657 -0.21730377 -0.478057 -0.5533598 0.36597386
duree 0.21478806 0.18066098 0.48319763 -0.3655441 0.52443326 -0.676292 -0.69835025 -0.06812635 0.04631079 -0.5209809 -0.18201892 -0.19338259 -0.14526474 -0.3831494 0.10720123 0.24604878 -0.30870208 -0.7659168 -0.27206534 -0.13406168
petrole 0.29996586 0.11832472 0.3965256 -0.48534784 0.2810045 -0.6266011 -0.81031543 -0.11723012 0.17110437 -0.47083756 -0.1476667 -0.13140835 -0.10036804 -0.5197242 -0.07200558 0.4481292 -0.1707253 -0.7065893 -0.30329815 -0.10625627
