7231 30
produit -0.22568522 0.27176577 -0.18295856 0.5394411 0.23225711 -0.6089078 -0.1080561 0.17612506 -0.9245965 -0.43014663 0.42709228 0.109069474 0.35608393 -0.035521872 0.29380035 0.28449523 -0.041209806 -0.40249842 0.3735044 0.8705888 0.0489637 0.26751822 0.9548741 0.024265334 0.030595073 0.82950544 -0.14753138 -0.8480973 0.1797866 -0.9720324
interdire -0.12944023 0.09655089 -0.1594783 0.48290724 0.26527748 -0.1365445 0.036337446 0.15078188 -0.5703216 -0.34107754 0.502888 -0.029922128 0.5484097 -0.34995422 -0.21575032 -0.15416346 -0.35996222 -0.17546917 0.5220061 0.5793241 -0.05426005 0.14592847 0.36588863 0.09042443 -0.2476165 0.35186145 -0.24137989 -0.7553718 0.051034313 -0.9209114
arreter -0.11148687 0.2784097 -0.2184898 0.5255214 0.25343552 -0.20865391 0.050931122 0.13345322 -0.529145 -0.38930652 0.51538783 0.15750101 0.34239107 -0.095016636 -0.08362576 -0.100319386 -0.23378257 -0.14826542 0.39487934 0.6820267 -0.010075994 0.21146418 0.46211806 0.07353377 -0.19131306 0.51851666 -0.28013566 -0.74719775 0.23158252 -0.8216725
plastique -0.17521559 0.30530304 -0.50425446 0.7411493 0.30364534 -0.4633823 0.20665634 0.10218448 -1.0658811 -0.27693233 0.7208913 0.19864078 1.1905233 -0.4333385 -0.44162893 0.42313123 -0.23661949 -0.13184299 0.5999914 0.62677443 0.23397394 -0.021374365 0.6764714 -0.010412601 -0.34092835 0.30230087 -0.547209 -1.3136344 0.43472084 -1.4516875
faire 0.024821345 0.19584002 -0.06274959 0.5705866 0.07121925 -0.095383555 0.027055282 0.26801696 -0.30995107 -0.3042938 0.42548305 0.023158506 -0.05884531 -0.0357657 -0.119667575 -0.3722572 -0.10520906 0.10189764 0.45914468 0.90825874 -0.006201546 0.27611625 0.30004665 0.096077435 -0.3109989 0.62009746 -0.040199287 -0.5052628 0.085268445 -0.6038916
dechet -0.15487629 0.38281578 -0.21975946 0.68682384 -0.11790431 -0.2080263 0.1979442 0.3007297 -0.35271865 -0.079477094 0.5238491 0.3765087 0.13355789 -0.30892456 -0.3035624 -0.06228151 0.14131099 0.16262417 0.57014024 0.7886542 0.16005464 0.23930262 0.2893148 0.10540802 -0.6977116 0.4178201 -0.2663049 -0.7329125 0.4031085 -0.7951141
eau -0.21156615 0.24541065 -0.40635303 0.57624173 0.16773628 0.09308427 0.18513703 0.20745659 -0.43593368 -0.15995908 0.301394 -0.065871604 0.77832377 -0.4704264 -0.7320193 -0.32497153 -0.61870766 0.09893167 0.42998555 0.47259435 0.066331096 0.17429204 0.029931169 0.015386648 -0.5575594 0.065056704 -0.66796994 -1.0076014 0.10090857 -1.0381868
mettre 0.25841132 0.33418927 -0.30432335 0.40337145 0.02750315 0.3983212 0.49234667 0.12609598 -0.5481183 -0.09739452 0.4109995 0.33656168 0.6127154 -0.29865572 -0.63192385 -0.20048083 -0.109136745 0.4175854 0.16986667 0.81341684 -0.034030754 0.22864269 0.27658898 0.10379215 -0.6057664 0.21269014 -0.49986517 -0.81699514 0.26227328 -1.0144708
emballage -0.1935538 0.29466486 -0.44356576 0.5665931 0.3223466 -0.58784664 0.06901882 0.2262526 -0.9993719 -0.38013095 0.6202032 0.07582503 0.90681213 -0.43280023 -0.18632251 0.35860962 -0.16878411 -0.22668365 0.6343797 0.5119667 0.2519615 0.04974985 0.8065314 -0.03434379 -0.15477134 0.45934156 -0.48110548 -1.2514353 0.27243102 -1.3478411
ville 0.20014894 0.11309978 0.11240604 0.27164462 -0.36233088 0.224968 0.3553471 0.52426505 -0.20575891 -0.4458994 0.27645802 -0.2418988 -0.03236312 -0.2673491 -0.61395466 -1.0842857 -0.36428067 0.4503336 0.59837776 0.81668955 -0.1838236 0.35865375 -0.039735496 0.242119 -0.31588632 0.4608273 -0.119414985 -0.42714423 -0.16940916 -0.5003306
entreprise -0.04531555 0.12169341 -0.07940383 0.49769032 -0.03866085 -0.16068766 0.14798988 0.33421227 -0.35875627 -0.21849182 0.3785195 0.00053919066 0.13040273 -0.26928234 -0.17597093 -0.20630339 -0.09921031 -0.027535098 0.51123357 0.79244465 0.09648223 0.32715568 0.38293886 0.11126467 -0.44002742 0.5956848 -0.020151677 -0.5718999 0.10212067 -0.6884054
developper 0.22025168 0.06592063 0.115689196 0.26681018 -0.034734286 -0.012184206 0.0034278512 0.44643533 -0.4328855 -0.4931425 0.10713403 -0.3122092 0.13053109 -0.19098227 -0.28464237 -0.7702267 -0.28715017 0.15813023 0.5453514 0.75942147 -0.015514128 0.3891378 0.16167215 0.111295626 -0.126384 0.6024282 -0.12717961 -0.48417515 -0.12959549 -0.68900883
consommation -0.11743245 0.13042846 0.13224036 0.3695477 0.25690907 -0.4419216 -0.2568388 0.24552278 -0.48734006 -0.5849965 0.35390648 -0.23406339 -0.024863122 -0.03022093 0.19926573 -0.2422956 -0.13221878 -0.27637562 0.46517226 0.7717357 0.09793077 0.40337676 0.64941245 0.1300913 -0.075675815 0.7958366 -0.07213353 -0.7261373 0.096314736 -0.72163105
energie -0.07708894 -0.06442179 0.43109885 0.1954762 0.2217944 -0.0009919249 -0.20472318 0.24439178 -0.2609321 -0.57627404 -0.0395772 -0.30351633 -0.15962455 -0.21072733 -0.10196816 -0.77867603 -0.61741954 0.012731924 0.35105732 0.695477 -0.08937971 0.7615112 0.4074205 0.5197763 -0.19435872 0.7654729 0.032927945 -0.6255451 -0.13162713 -0.72513276
grand -0.050894927 0.22092123 -0.17753291 0.34755963 -0.08998043 -0.028287105 0.37972495 0.28289047 -0.44622412 -0.33480653 0.4341463 0.03841345 0.15665402 -0.33496588 -0.34230438 -0.4410045 -0.21954755 0.08815294 0.40632632 0.6684729 -0.11353471 0.18437402 0.52812153 0.007863494 -0.13838476 0.56400514 -0.14524038 -0.752746 0.24847941 -0.72669256
limiter -0.050588213 0.049965356 -0.017663104 0.32506168 0.092637084 -0.2717843 -0.016981201 0.24191983 -0.66478103 -0.55097944 0.34494603 -0.14781314 0.3108576 -0.30847088 -0.073094726 -0.30950907 -0.17439255 -0.12660259 0.46657133 0.6966828 0.14800823 0.2793693 0.39306745 -0.0073385974 -0.13670114 0.5247606 -0.21967296 -0.67639387 0.012702163 -0.8271871
favoriser 0.038715336 0.15025993 -0.07678965 0.29763177 0.15503252 -0.17217004 0.01188986 0.3050113 -0.6085031 -0.49402642 0.27903762 -0.15938689 0.20462921 -0.092225626 -0.14605266 -0.44776496 -0.2412955 -0.052362096 0.42520037 0.74080426 -0.05117374 0.2730257 0.5330536 0.011592827 0.07760114 0.64769363 -0.20578745 -0.5857731 0.007286199 -0.7932643
creer 0.08955301 0.14782831 0.011745091 0.4636173 -0.12232356 0.10849565 0.16975062 0.25342563 -0.26479417 -0.24502404 0.27855974 -0.06756408 0.011004764 -0.049354676 -0.29879892 -0.54683477 -0.18565626 0.20647086 0.44083953 0.95722353 -0.11686302 0.3714622 0.18404853 0.23266247 -0.40606338 0.55293673 -0.052780397 -0.40589687 0.009226838 -0.58437175
reduire -0.06546821 0.050815232 0.027820852 0.39159304 0.12587482 -0.28377876 -0.11040486 0.23507154 -0.6388588 -0.4764021 0.31658977 -0.17497328 0.18726519 -0.22343232 0.0044853855 -0.26884764 -0.09705774 -0.12959415 0.45872107 0.7791989 0.09286121 0.34420857 0.473508 0.043655477 -0.14207235 0.5739394 -0.15888597 -0.71139103 0.039619 -0.76982635
local -0.28351465 0.35815996 -0.05534677 0.37352043 0.33645913 -0.56911975 -0.17104974 0.21354702 -0.7251767 -0.701696 0.45111322 0.11664477 0.07695026 0.29693362 0.3318894 -0.24851978 -0.19566323 -0.37676883 0.3101488 0.8548445 -0.150976 0.3109093 1.0768464 0.11999073 0.31639117 1.1100272 -0.07694785 -0.7182741 0.21516843 -0.79890233
environnement 0.04674621 0.15595487 0.014684377 0.6496555 0.089499325 -0.072079964 -0.02143634 0.2202786 -0.32455122 -0.16816737 0.37191305 -0.13295878 -0.3079456 0.219935 0.05646667 -0.43360698 -0.012029607 -0.0058530853 0.44493678 1.2544822 -0.10491031 0.4726248 0.35040277 0.25431773 -0.49742246 0.77598447 0.32298118 -0.23225072 0.037649468 -0.4377374
voiture 0.3092183 0.010768405 0.058746137 0.28700787 -0.06547267 0.004777806 -0.0084580965 0.44341365 -0.45074812 -0.68103796 0.060186088 -0.2616867 0.10725688 -0.27042022 -0.3736876 -0.8187553 -0.33214986 0.25175276 0.6463309 0.7101127 0.10230336 0.45413956 -0.008567841 0.10197774 -0.150379 0.5113939 -0.16917327 -0.43529066 -0.21573709 -0.75674856
utiliser -0.060056236 0.15641604 -0.15154512 0.46766454 0.28082123 -0.17338479 0.01135659 0.27880841 -0.52930224 -0.32252958 0.37919697 -0.08237594 0.5683467 -0.37246338 -0.32246947 -0.14692284 -0.2829546 -0.04354912 0.5174575 0.56179667 0.14463153 0.16735724 0.36475584 0.072377 -0.2530969 0.37648585 -0.33070928 -0.85788745 0.036914583 -0.96064734
non -0.12727967 0.16211613 -0.20830022 0.4826803 0.31034923 -0.2853529 0.015125039 0.24286914 -0.69170785 -0.24966514 0.38229284 0.013978857 0.4778076 -0.2831344 -0.15148543 -0.025527572 -0.22812398 -0.12110565 0.51846844 0.62523264 0.09784349 0.19510835 0.5262522 0.06797265 -0.21784213 0.49688786 -0.20852622 -0.80460703 0.05137587 -0.9714324
transport 0.2308 0.06836549 0.26098892 0.2117469 -0.10787555 -0.22194894 -0.15545131 0.46956024 -0.5204127 -0.7096123 0.00029304088 -0.34511423 0.062294964 -0.15524258 -0.090826325 -0.78825045 -0.29129043 0.064010575 0.6080684 0.7639425 -0.021206932 0.564237 0.20357493 0.2049882 -0.09811802 0.7416213 0.06979858 -0.429373 -0.19192043 -0.6222589
taxer -0.024747506 0.1380417 -0.07386394 0.47190738 0.102708936 -0.2689173 -0.080281295 0.24614099 -0.65430295 -0.40258023 0.30683106 -0.057443123 0.32304224 -0.14899503 0.043718353 -0.15287265 -0.13671485 -0.14591146 0.45635238 0.7355799 0.09986407 0.30361748 0.59242547 0.0663916 -0.15973859 0.6038245 -0.087147534 -0.6801457 -0.002420896 -0.7730274
place 0.39471665 0.4562027 -0.10007048 0.59259146 -0.20720097 0.0024874755 0.554172 0.26929504 -0.5910264 -0.09805715 0.4052014 0.53636986 0.5984776 -0.15929228 -0.8683868 -0.3844348 -0.13824433 0.4583838 0.31019276 0.75650597 0.11336748 0.045484565 0.14336029 0.22596082 -0.51397806 -0.08006652 -0.64819735 -0.8492635 0.3621972 -1.0145024
bouteille -0.06314386 0.40059412 -0.615229 0.79042 0.40116727 -0.14749888 0.47005624 0.08785648 -1.0281192 -0.2503843 0.82659787 0.30299497 1.4950032 -0.43069145 -0.71384233 0.30518565 -0.35600019 0.31194592 0.72019637 0.67754006 0.23957843 -0.20143244 0.5513906 -0.017614044 -0.577424 0.30857056 -0.84217995 -1.530784 0.5627615 -1.7295673
obliger -0.104037575 0.20469058 -0.15110393 0.49195564 0.028163742 -0.17201012 0.15380259 0.243165 -0.4661932 -0.28968933 0.49536476 0.059467882 0.30817938 -0.32444376 -0.32685098 -0.18039513 -0.16415958 -0.022076698 0.4623528 0.66709286 -0.020351522 0.19288741 0.47457778 0.09055026 -0.32961696 0.4490044 -0.13098422 -0.69491017 0.11734773 -0.7360106
supprimer -0.097661205 0.13525434 -0.28208965 0.48163056 0.3079133 -0.19446418 0.13595442 0.13005213 -0.7358451 -0.27289787 0.5145955 0.06373875 0.83367014 -0.40429702 -0.36775777 0.016833983 -0.21660616 -0.088879175 0.4809468 0.5844811 0.12813684 0.0612064 0.4716213 -0.003874271 -0.27986923 0.2897196 -0.42990714 -1.0094435 0.23306957 -1.1360756
consommer -0.19823727 0.29468644 -0.009667102 0.35381773 0.3622616 -0.49206 -0.16225298 0.18219732 -0.5332046 -0.5596172 0.4395787 0.05632323 -0.07661944 0.17820802 0.20966534 -0.26005965 -0.12500528 -0.38694143 0.2526436 0.9119897 -0.041806802 0.33073395 0.85387444 0.09232488 0.0969266 0.8369378 -0.16423057 -0.759271 0.27646372 -0.7752504
public -0.101375766 -0.024650335 0.2558647 0.20736693 -0.29788917 0.17902838 0.3013237 0.43068847 -0.02986511 -0.438445 0.4017344 -0.36568564 0.0028956337 -0.32138932 -0.48646578 -0.9415783 -0.41924646 0.14381517 0.48077658 0.81097335 -0.08965577 0.3040506 0.15253295 0.22419356 -0.5294551 0.6701752 0.016133994 -0.4834515 0.027946075 -0.47806907
vehicule 0.21027362 -0.1270356 0.13251874 0.24011771 0.02817543 -0.0054549067 -0.13049549 0.43074661 -0.41771448 -0.7083069 -0.033513956 -0.27194282 0.04845802 -0.2481305 -0.2394982 -0.8469325 -0.3651355 0.01652224 0.68301094 0.6811503 0.06297652 0.61173606 0.049446233 0.17998798 -0.08639669 0.6183541 -0.068856105 -0.39259416 -0.19628991 -0.8049963
bio -0.2232969 0.24813794 -0.24951263 0.4275212 0.34783423 -0.42614076 -0.096691325 0.12019388 -0.66208524 -0.5041398 0.5006508 0.18719327 0.2989012 0.17630523 0.104238264 -0.15971678 -0.1558989 -0.31844917 0.28602266 0.8067239 -0.10084958 0.16885972 1.0455805 0.055054817 0.24921 0.89294994 -0.18524945 -0.8043071 0.15130349 -0.86704326
arbre 0.4513345 0.18021603 -0.0135108875 0.24043155 -0.4559083 0.23542555 0.6833705 0.1766204 -0.45761266 -0.09322759 0.6605314 0.16681038 -0.040532533 0.36311835 -0.5050918 -0.9922774 -0.48898172 0.64471585 0.7198234 1.2432873 -0.51803124 0.15219748 -0.14099723 0.50446033 -0.16415103 0.15731567 0.053630423 -0.35061866 -0.43000266 -0.55456334
acheter -0.19503835 0.32973927 -0.33969742 0.44100007 0.326907 -0.46969762 -0.021527125 0.13970724 -0.76923376 -0.43033096 0.5708737 0.17962247 0.5528876 -0.05564549 -0.14052351 0.03051594 -0.105752274 -0.27352643 0.3422755 0.69093794 0.06156362 0.11859017 0.8856227 0.001583035 0.11170138 0.6281766 -0.42424378 -0.9901261 0.32802156 -1.054867
proposer -0.045165237 0.18361744 -0.16472067 0.41356868 0.08090895 -0.18364987 0.06996732 0.27114213 -0.5169242 -0.39914325 0.4288658 0.0018415542 0.32658705 -0.24852663 -0.27109373 -0.18930028 -0.09332832 -0.03799755 0.43260732 0.741109 0.06789209 0.21112159 0.48916277 0.038236212 -0.1900581 0.53172433 -0.17886749 -0.67762625 0.15051693 -0.78359884
verre -0.049568933 0.45121232 -0.5971839 0.8113041 0.18558148 -0.10945603 0.43132123 0.016726159 -1.075639 -0.19879992 0.8010977 0.38323873 1.4383191 -0.31876376 -0.8659254 0.2534473 -0.33776596 0.26337707 0.626111 0.70072734 0.119760714 -0.056787662 0.54765004 -0.038804915 -0.6099809 0.16823713 -0.78596634 -1.4485494 0.62515545 -1.6548166
imposer -0.04430845 0.10620329 -0.04381055 0.44820058 0.04448681 -0.07046528 0.13659093 0.25509167 -0.38718423 -0.28029427 0.3581916 -0.013051225 0.1386034 -0.15821932 -0.22907929 -0.3965819 -0.19886325 0.05044207 0.42085856 0.83314943 -0.03682613 0.32946417 0.3693108 0.15283827 -0.35078368 0.50002 -0.09321647 -0.5943039 0.08435469 -0.66741556
carbone -0.0032546865 -0.06755281 0.34207883 0.5611139 -0.15138598 -0.16962062 -0.24564585 0.20327185 -0.388691 -0.391181 0.10224933 -0.059196997 -0.12370623 0.25869003 0.31638703 -0.22561729 0.02097383 -0.14318997 0.44549963 1.0969527 0.11763894 0.7004068 0.54643476 0.30674618 -0.31260473 1.0644976 0.21020934 -0.45010528 0.0323574 -0.63722247
être -0.023025738 0.1368903 -0.05914724 0.40605772 0.02049218 -0.10761674 0.06512462 0.29710913 -0.35021234 -0.28179675 0.29642138 -0.0558662 0.090057544 -0.18200256 -0.2545289 -0.41827738 -0.24337411 0.053281628 0.48860413 0.79127717 -0.009573926 0.35118622 0.22904313 0.17748888 -0.4030703 0.5610345 -0.1118683 -0.5614763 0.045619685 -0.6825976
production -0.175995 0.09174338 0.048872273 0.34027454 0.29036874 -0.39766005 -0.20305042 0.24327336 -0.56651723 -0.54213023 0.285559 -0.17933111 0.1213842 -0.08098627 0.048854046 -0.27113104 -0.20791782 -0.28892115 0.42023355 0.7204331 0.048614357 0.41361532 0.6277889 0.11580346 0.025026886 0.7307044 -0.17637783 -0.75562114 0.0943761 -0.7990454
transport_commun 0.34501287 0.07293294 0.16616917 0.1917197 -0.11542796 0.07571925 0.053048316 0.5641273 -0.4528918 -0.6422747 0.004103874 -0.32226336 0.13662921 -0.17775306 -0.3663556 -0.9852572 -0.35034916 0.3708674 0.583493 0.7528167 -0.039569624 0.4845905 -0.031947892 0.08858734 -0.045181353 0.6518827 -0.07355236 -0.34438077 -0.25092292 -0.69057566
inciter 0.0050060316 0.16859047 -0.07704503 0.5035709 0.029515592 -0.19691288 0.069678105 0.26202375 -0.43720567 -0.35004395 0.38864982 0.059111733 0.12690368 -0.11310812 -0.14529742 -0.33379832 -0.11456947 0.009569779 0.4566843 0.78401977 0.024504552 0.3012957 0.44117945 0.057224695 -0.28054023 0.59604156 -0.103986464 -0.5783952 0.16335021 -0.67217714
industriel -0.050199322 0.16379014 -0.1713289 0.42170972 0.16558233 -0.23232333 0.13651153 0.24701293 -0.4098694 -0.32329738 0.4094624 0.027279865 0.29437658 -0.22838148 -0.2072036 -0.21663767 -0.27854 -0.09221244 0.41031253 0.67332345 0.019765737 0.23293382 0.5878067 0.1541956 -0.25613415 0.51591396 -0.19336127 -0.77254796 0.14763957 -0.767213
prendre 0.23939635 0.11855164 0.045676168 0.45711318 0.045444645 -0.005313617 -0.090426035 0.3578551 -0.40789357 -0.48372078 0.24411677 -0.22770225 0.006731753 0.009518009 -0.16677883 -0.60892713 -0.28761357 0.22813708 0.62140036 0.8565574 0.11638025 0.3599365 0.087581255 0.0761007 -0.26084766 0.6068667 -0.0079213865 -0.4453111 -0.087541394 -0.59715044
animal 0.05736594 0.17631823 -0.01161576 0.4728014 0.1848372 -0.19472364 -0.0904936 0.06814687 -0.3678422 -0.45096403 0.38824168 -0.069009736 -0.025278736 0.04199792 -0.063014 -0.3313093 -0.20727284 -0.03086469 0.4288649 0.91996515 -0.07612844 0.25506467 0.37314048 0.18784587 -0.25596076 0.6175515 -0.071424544 -0.5356335 0.002494739 -0.5513625
utilisation -0.0317842 0.15174747 -0.16173653 0.3973743 0.1950145 -0.22781032 -0.027854733 0.30018312 -0.6028563 -0.42517897 0.3192161 -0.18728067 0.5948082 -0.32307225 -0.26664436 -0.20046262 -0.28211018 -0.067245334 0.60091174 0.48023763 0.12869076 0.19150993 0.35453984 0.030335313 -0.17493998 0.40939924 -0.3254373 -0.7959716 0.020817025 -0.96213603
taxe 0.012077863 -0.033515505 0.053661082 0.5186004 -0.068808645 -0.2686311 -0.09027483 0.26617014 -0.56725353 -0.28818336 0.3396111 -0.007750215 -0.015090397 -0.014697732 0.16515365 -0.16795813 -0.049740564 -0.022640873 0.4417382 1.0130143 0.14399071 0.43350065 0.4341434 0.2606596 -0.36782354 0.80578554 0.07259363 -0.5513653 0.04119512 -0.60060155
produire -0.09425021 0.13215722 -0.032892648 0.38592738 0.21515171 -0.23248574 -0.096810125 0.19211471 -0.46883652 -0.3954963 0.35554025 -0.014154732 0.27215466 -0.12402189 -0.13794251 -0.2323786 -0.2788099 -0.18817396 0.4176174 0.7084658 0.0006065295 0.33255428 0.52591306 0.18710174 -0.15678146 0.52030236 -0.23747681 -0.7703266 0.16446325 -0.7621333
impact -0.039888993 -0.0015097479 0.16364379 0.5278147 -0.072681084 -0.24704632 -0.107718274 0.22423264 -0.5726631 -0.25835216 0.22265856 -0.3363157 -0.40796465 0.23442271 0.3533498 -0.34640953 -0.002501419 -0.032007705 0.4780068 1.3895043 0.0989965 0.50780153 0.3110855 0.21414314 -0.40989313 1.0039103 0.2892033 -0.32137707 -0.12246784 -0.42671052
agriculture -0.089090995 0.18936646 -0.03321066 0.5664803 0.34179527 -0.133222 -0.09563403 0.120647945 -0.44383743 -0.35399282 0.30100402 0.029613664 0.053005707 0.22737704 -0.005700435 -0.5592121 -0.33599046 -0.051403467 0.36508098 0.8811411 -0.28418988 0.16450885 0.61079645 0.10431688 0.0041874545 0.83511025 -0.026243068 -0.4942189 0.02891557 -0.5513376
pollution 0.043834545 0.095592566 0.10423821 0.42654634 -0.011487506 -0.11576034 -0.0191981 0.26736185 -0.35258475 -0.3709347 0.31954122 -0.2006984 -0.03724898 -0.09129961 -0.14798595 -0.47010875 -0.29652765 -3.667939e-05 0.46928236 0.83715886 -0.028066125 0.40861875 0.23652469 0.23960438 -0.37823913 0.63872135 -0.059059963 -0.5108546 0.0055040354 -0.62689817
pouvoir 0.012164657 0.15347978 -0.07683216 0.46903074 0.035800874 -0.11982509 0.10378937 0.21335661 -0.37556735 -0.32677794 0.3386979 0.054219436 0.16163136 -0.053295083 -0.18040234 -0.3722904 -0.18467072 0.051793702 0.4357791 0.82991135 0.008758738 0.27334577 0.33423606 0.16239737 -0.3236964 0.59155613 -0.069061525 -0.5552625 0.14161515 -0.6782921
polluant 0.08348714 0.08942059 0.001387891 0.40997055 0.08757901 -0.1832109 -0.10787365 0.24241164 -0.5617585 -0.48011428 0.27411786 -0.17337118 0.3048469 -0.14616472 -0.020848298 -0.32388207 -0.2366742 -0.07511127 0.5460771 0.7297209 0.055556994 0.33327523 0.42743117 0.16955112 -0.1973082 0.5905223 -0.104937695 -0.59239745 -0.056977857 -0.7727908
petit 0.09350349 0.13714822 -0.03304845 0.40702263 0.044644415 -0.07289085 0.053161185 0.28984126 -0.37129667 -0.50232655 0.30001268 -0.09279729 0.119920686 -0.1232316 -0.23231412 -0.5959928 -0.24830107 0.0966625 0.53648055 0.77170455 -0.034912057 0.25999904 0.3655798 0.11180851 -0.13178277 0.61809504 -0.09090845 -0.4988667 -0.040910058 -0.61580426
environnemental -0.019658886 0.08932972 0.13351656 0.5959629 -0.008964235 -0.13120438 -0.18464597 0.24790531 -0.41459063 -0.29947576 0.28422686 -0.2503831 -0.25299022 0.24100406 0.13922687 -0.4391745 0.015956149 -0.049416754 0.39527798 1.2372521 0.014954981 0.57301444 0.33164787 0.28967902 -0.39726743 0.78446054 0.31882817 -0.2924171 -0.029822871 -0.5153885
enfant 0.1292327 0.24965563 -0.02501015 0.6733852 0.15230212 -0.11002698 -0.01145287 0.17803983 -0.27709186 -0.012335222 0.42754978 -0.00066400407 -0.37851512 0.1562567 -0.031032879 -0.380727 -0.035317056 0.062625125 0.5171589 1.1877501 -0.02080904 0.29228976 0.20256217 0.10132371 -0.6375559 0.6975043 0.091146484 -0.33267495 0.23255388 -0.53976965
velo 0.4181375 0.021665715 0.08613455 0.2404918 -0.08188365 0.0986185 0.07342176 0.49689284 -0.40045717 -0.65779966 0.0687702 -0.37603205 0.08103151 -0.16160321 -0.47965056 -0.9798688 -0.37548742 0.3921203 0.63804275 0.88922673 0.022225954 0.48533523 -0.136317 0.052308165 -0.16964929 0.5913742 -0.14919014 -0.31439528 -0.31218243 -0.66899145
eviter 0.07624857 0.24630678 -0.207034 0.4577291 0.1046151 -0.14092977 0.1286382 0.25175446 -0.52532357 -0.3676043 0.36332092 0.008808543 0.35828024 -0.1544243 -0.23348188 -0.23155591 -0.20505425 0.054175504 0.44412383 0.7309052 0.089162275 0.22487162 0.27027664 0.060697973 -0.23380034 0.43649969 -0.26859313 -0.63417196 0.09981027 -0.8444668
ecologiqu 0.042933896 0.028623777 0.09356325 0.5167501 0.03715811 0.007824212 -0.10247515 0.14904127 -0.38680863 -0.26671115 0.3101196 -0.05317676 -0.0013888784 0.101599425 -0.046053257 -0.50476867 -0.17599204 0.053667948 0.35661727 1.0833634 -0.010596096 0.40965334 0.45195884 0.18631518 -0.3476781 0.7090244 0.13114828 -0.35002434 -0.013140714 -0.56418365
jeter -0.089441575 0.32128987 -0.37886736 0.7102188 0.08756317 -0.10874969 0.21052624 0.19646771 -0.31752914 -0.11086674 0.5831247 0.37785175 0.19502188 -0.2401037 -0.361298 -0.026039965 -0.110597834 0.14715016 0.60821927 0.78777283 0.11134426 0.15314057 0.27240053 0.11415295 -0.60932386 0.41449684 -0.32477146 -0.75479394 0.40181518 -0.6888133
tri -0.0739972 0.25692657 -0.27827093 0.73822045 -0.21755475 -0.04676058 0.27928254 0.20681609 -0.2662939 0.0408243 0.5564829 0.39207432 0.1485306 -0.32467178 -0.49654827 -0.27496883 0.08789023 0.21601033 0.49135363 0.8923476 -0.0045788083 0.23419993 0.16351843 0.12867297 -0.83587646 0.39814836 -0.30631065 -0.604717 0.46322325 -0.68593293
usage -0.11024167 0.24864234 -0.34021136 0.4784445 0.24278641 -0.2884047 0.0052913786 0.19967838 -0.76762956 -0.27599785 0.55235994 -0.06315556 0.9071303 -0.34866083 -0.24883825 0.04770031 -0.16144773 -0.1305518 0.700662 0.4481826 0.14447586 0.04426868 0.43386468 0.0319864 -0.21558458 0.40990713 -0.49098808 -1.0456488 0.17193079 -1.2091842
diminuer 0.021602858 0.06423333 0.06467239 0.39396888 0.048574977 -0.19759339 -0.09404297 0.22659546 -0.50842595 -0.5132436 0.30212963 -0.1950319 0.047808737 -0.13331464 0.00048938434 -0.37788126 -0.16240491 -0.047769383 0.49066755 0.8550485 0.071396604 0.38823903 0.3495838 0.14507 -0.1913651 0.67466074 -0.058738496 -0.56899047 0.0050017666 -0.68580747
consigne 0.018484408 0.33613557 -0.4349384 0.7436976 0.2570126 -0.0075471234 0.524206 0.08784249 -1.0236832 -0.17117326 0.6509303 0.33184868 1.3771542 -0.40859315 -0.843071 0.10804657 -0.27458954 0.38289607 0.5893141 0.7875304 0.1958656 -0.11697039 0.5343442 0.04627471 -0.5853904 0.18636991 -0.8154245 -1.3284868 0.558537 -1.5588063
zone 0.16082883 0.09839619 0.018937262 0.31648192 -0.12579605 0.15981159 0.19717985 0.38118294 -0.21333236 -0.38265896 0.22399777 -0.25184855 -0.13506408 -0.10217148 -0.382179 -0.90685266 -0.46058896 0.22946241 0.4178959 0.8987765 -0.21730977 0.37288722 0.12901416 0.23365788 -0.2955586 0.6488107 -0.043439604 -0.38943303 -0.05514626 -0.45800444
nature 0.09183163 0.19664103 -0.11369207 0.59789747 0.08840567 -0.0048366543 0.09038924 0.21328136 -0.29182294 -0.15997136 0.36099926 0.0026038494 -0.024010858 -0.019098224 -0.22804478 -0.38007677 -0.2045753 0.16250405 0.51629084 0.97074205 -0.06804532 0.27186117 0.14959198 0.15617342 -0.5450082 0.5253465 -0.06283924 -0.4633965 0.12050239 -0.551578
recyclage -0.00458599 0.21860434 -0.16701338 0.53883153 0.050728913 -0.12361611 0.17458645 0.20623256 -0.452626 -0.18111028 0.37632817 0.17224635 0.3961803 -0.2557139 -0.3492149 -0.17596835 -0.10703471 0.0650756 0.44418138 0.73879683 0.061291613 0.21610293 0.31022745 0.11174461 -0.4308873 0.40967134 -0.28986588 -0.71894497 0.25815666 -0.82713515
alimentaire -0.14217715 0.2714933 -0.21988721 0.52339816 0.22454903 -0.45860875 -0.02728197 0.16608363 -0.69592273 -0.35599628 0.47511032 0.06955034 0.43331143 -0.1734926 -0.023214115 0.12222186 -0.07980499 -0.22463255 0.44531986 0.7075232 0.12412276 0.25022474 0.6909822 0.035979755 -0.15422611 0.5574791 -0.25742504 -0.84124017 0.18274353 -0.9170318
citoyen -0.01143619 0.18345681 -0.025899284 0.5703989 -0.009311801 -0.052137487 0.070887476 0.26674604 -0.3035224 -0.20588046 0.34551865 0.006672728 -0.18681034 0.06603105 -0.077527106 -0.42678395 -0.060662784 0.097054444 0.40927416 1.0543829 0.0036682899 0.40253672 0.27378544 0.18137763 -0.4601736 0.7098637 0.04010953 -0.39893913 0.13720548 -0.5208063
ecole 0.10130764 0.14575112 0.049138915 0.6271306 0.0091996705 0.045978725 0.11093757 0.25264505 -0.13030544 -0.124430604 0.3868463 -0.046729647 -0.39700186 0.031957533 -0.13995686 -0.6285709 -0.0826714 0.21995781 0.49140096 1.2114766 -0.012059951 0.36120495 0.10645286 0.12268414 -0.651473 0.69295937 0.17830844 -0.32774588 0.10921757 -0.4621574
france 0.010409661 0.13964488 -0.05201563 0.42294985 0.012265125 -0.09448641 0.032903656 0.25588185 -0.41927546 -0.34317532 0.35207576 -0.05211211 0.1382024 -0.018755319 -0.18512811 -0.43629915 -0.22908859 0.059751485 0.45205066 0.81525177 -0.06618875 0.29811466 0.29157004 0.15632406 -0.23537804 0.5735869 -0.11053987 -0.5741133 0.07736731 -0.64741445
agriculteur -0.039777245 0.15443152 -0.07222045 0.50946826 0.19841315 -0.1348501 -0.026208848 0.14796641 -0.39385998 -0.35043293 0.39236674 0.032559868 0.025499163 0.15950479 -0.042373843 -0.5125788 -0.24817978 -0.015688853 0.35773692 0.89586306 -0.17752853 0.25400415 0.5189863 0.09320538 -0.08851793 0.79061323 -0.030033063 -0.48037636 0.02724154 -0.5682227
remplacer -0.03913039 0.19324571 -0.31362012 0.50092334 0.22316244 -0.100682706 0.22176531 0.12969227 -0.693659 -0.26291165 0.5033158 0.06179567 0.87952125 -0.33609673 -0.48076108 -0.012986013 -0.22798087 0.07645332 0.50163066 0.5592032 0.15438741 0.037371185 0.3840964 0.007094231 -0.35237703 0.2534699 -0.46273836 -0.9509637 0.2661617 -1.1431546
encourager 0.042965543 0.109535515 -0.021164248 0.42795822 0.12040389 -0.11560167 -0.023508511 0.27745077 -0.43660071 -0.41393453 0.31001517 -0.11102683 0.15015902 -0.07907983 -0.15816362 -0.44817588 -0.20041008 0.036333594 0.49619934 0.8399545 -0.0025397632 0.3208371 0.35592666 0.090552285 -0.17616957 0.65217704 -0.05498687 -0.5031906 0.025610127 -0.6864137
terre -0.024192126 0.26991466 -0.16977495 0.5207219 0.07449646 -0.028229427 0.1247205 0.24402536 -0.24460968 -0.20004404 0.38716057 0.100065485 -0.05547327 -0.07549234 -0.2348154 -0.41872206 -0.2645808 0.07592574 0.5266599 0.92459905 -0.07320715 0.2848842 0.25151455 0.20881031 -0.38812312 0.58727866 -0.15167129 -0.5258515 0.20681497 -0.5869358
exemple 0.020780006 0.14835316 -0.07563895 0.4832261 0.0807859 -0.08488687 0.06232221 0.20846443 -0.40943074 -0.32876503 0.34479094 -0.025763497 0.22589971 -0.19025643 -0.2388939 -0.34985757 -0.2373406 0.07963028 0.51313186 0.77833134 0.06141438 0.27208892 0.24431485 0.078977086 -0.38498172 0.46854272 -0.12875217 -0.6042081 0.10614192 -0.7355953
prix 0.062519 0.042584416 0.0436771 0.35896176 0.019848768 -0.22321238 -0.026941027 0.27106324 -0.553364 -0.4486198 0.2245605 -0.110842004 0.17833722 -0.03078042 -0.055153076 -0.3632577 -0.21137236 -0.04395044 0.46622968 0.8148586 0.04952235 0.3772159 0.40785384 0.1323151 -0.12583695 0.7258072 -0.036395982 -0.57641214 -0.04736437 -0.697156
viande -0.2632042 0.29581177 -0.034289997 0.39874944 0.26406285 -0.4963699 -0.10461829 0.12172187 -0.69607794 -0.70269656 0.45691085 -0.0069479384 0.09428887 0.025067713 0.16381818 -0.094114535 -0.14471503 -0.26566458 0.3167689 0.7528674 -0.0047229533 0.32314947 0.7537514 0.03118492 0.09271581 0.77396256 -0.23866813 -0.89712864 0.25314748 -0.76982445
privilegier -0.07829619 0.26324752 -0.14606883 0.34658968 0.22250505 -0.28520584 0.026530212 0.2104316 -0.6667585 -0.55392754 0.3977577 -0.0062642284 0.32829475 -0.06753067 -0.11089313 -0.21432148 -0.17700973 -0.103507444 0.3840918 0.7131438 0.0064526014 0.16687518 0.6623772 0.037715614 0.08249587 0.6242574 -0.30057535 -0.77488613 0.17041527 -0.86748683
lieu 0.08865178 0.170166 -0.11250038 0.3956799 -0.024732027 -0.016754827 0.16513284 0.27735007 -0.3547223 -0.35578477 0.31805173 -0.050654147 0.23991273 -0.17474361 -0.385237 -0.53631383 -0.3262353 0.16937734 0.4878708 0.7451649 -0.038635552 0.29802197 0.18436286 0.08247348 -0.37394628 0.52609277 -0.15904808 -0.538032 0.01199724 -0.70749617
permettre 0.06920891 0.11671419 -0.023081416 0.45770156 -0.011864308 -0.04385911 0.0772357 0.27275157 -0.32986587 -0.33810908 0.30599847 -0.11115511 0.042546883 -0.07420466 -0.19377546 -0.5002413 -0.19324651 0.113734655 0.4669673 0.8796301 -0.005518562 0.36721197 0.25125143 0.14722149 -0.3431139 0.61870456 -0.0432501 -0.47972575 0.044032205 -0.61981165
nouveau -0.0092431 0.055128373 0.0047875782 0.28977242 0.056652583 0.099439666 0.12023607 0.3890435 -0.15351097 -0.3096092 0.23972845 -0.27788046 0.07864208 -0.3025027 -0.34204724 -0.7976166 -0.55377054 0.04499478 0.3684228 0.75787556 -0.12175771 0.38748908 0.12783515 0.27412638 -0.46073896 0.50623035 -0.22718616 -0.5601096 -0.08953929 -0.6918569
vente -0.046746787 0.22810203 -0.24712281 0.3725061 0.18040909 -0.3250701 0.022263987 0.16021624 -0.7006422 -0.41959983 0.3617709 0.039239585 0.5557043 -0.23632836 -0.18018554 -0.043954097 -0.2096987 -0.13812368 0.5034377 0.5339975 0.09721424 0.1674624 0.59546906 0.081498384 -0.0387778 0.49455377 -0.32995024 -0.84471846 0.18948764 -0.98060745
avion 0.1964145 0.09466885 0.17271884 0.3377047 0.0049545704 -0.15319452 -0.10053752 0.36876532 -0.5122755 -0.67184496 0.13590658 -0.29126158 0.0897118 -0.09042782 -0.04154812 -0.57269317 -0.25525314 0.09025444 0.54504704 0.8120901 0.09673216 0.46104 0.211684 0.1361092 -0.13837934 0.6710642 0.013614718 -0.5424778 -0.17026353 -0.67853814
legume -0.48484266 0.49530116 -0.4093502 0.22076903 0.1466886 -0.7708606 0.11996143 0.25626075 -0.9755815 -0.8552015 0.7503234 0.27622756 0.54215086 0.08558446 -0.028329965 -0.1611134 -0.16086087 -0.47030133 0.15127282 0.68908566 0.017989267 0.25615174 1.025666 0.09837832 0.3563844 0.9578566 -0.5059931 -1.2134669 0.71112657 -1.2369263
donner 0.019822264 0.21952495 -0.10070902 0.48830098 0.08883134 -0.14326905 0.064309075 0.2196999 -0.4263673 -0.27894714 0.40794504 0.07591466 0.15478528 -0.06383233 -0.18039016 -0.28927493 -0.15616858 0.044071283 0.42577186 0.87361366 0.010951212 0.24397233 0.32524356 0.11609273 -0.33448082 0.5630871 -0.120009795 -0.58297336 0.11503108 -0.69582134
electrique 0.26602823 0.0028060924 0.18856554 0.28754404 0.009432772 0.08630726 -0.12821372 0.38643238 -0.2774363 -0.64407104 0.03295368 -0.28342074 0.056322377 -0.2603974 -0.25420097 -0.8630985 -0.3583086 0.13882363 0.7042915 0.80875033 0.040676493 0.48752066 0.044240855 0.23004703 -0.23895316 0.57643425 -0.028580623 -0.44651088 -0.22388609 -0.7534473
bien -0.0010621495 0.11686426 -0.007901961 0.4523068 0.10078286 -0.12192575 -0.0089156395 0.15805474 -0.4093726 -0.39310226 0.31896022 -0.058321178 0.101502046 -0.012444615 -0.080711335 -0.35622752 -0.18422587 -0.03082708 0.44290656 0.89294827 -0.05391481 0.3054842 0.3394698 0.17112345 -0.27813712 0.65082425 -0.06560017 -0.52378154 0.076864704 -0.68319607
solution 0.014520098 0.11312357 -0.0461393 0.41797775 0.12990607 -0.04408707 0.04141262 0.2668693 -0.41716036 -0.28980133 0.31282294 -0.06910866 0.25107962 -0.1819248 -0.27156395 -0.39000392 -0.18485741 0.07290694 0.409319 0.74218655 0.02089134 0.32336578 0.25981948 0.100761294 -0.34173912 0.48937416 -0.13979423 -0.6258606 0.08127446 -0.80807847
systeme 0.02548766 0.27157748 -0.224826 0.47911078 0.029900916 0.050185036 0.324848 0.18292055 -0.4958653 -0.16639584 0.37922162 0.17280099 0.6642328 -0.28537297 -0.61071306 -0.20835282 -0.2792761 0.27075806 0.37394744 0.5813854 0.08252454 0.12200884 0.23779058 0.09384362 -0.523812 0.22769094 -0.49779063 -0.8786782 0.2886464 -0.9882518
panneau -0.16409482 0.15122943 0.17356388 0.10892993 -0.022653762 0.09884588 0.29242876 0.48071927 0.07658819 -0.46272278 0.039673056 -0.46357778 -0.012282209 -0.4581695 -0.7387019 -1.0272871 -0.93771553 0.103949696 0.20986754 0.5960413 -0.15316513 0.4442337 0.32351923 0.45932704 -0.63132226 0.43961766 -0.436582 -0.95020664 0.120668985 -0.58801913
solaire -0.29801035 -0.06341859 0.34271008 0.06698666 0.23983917 0.18359953 0.16079028 0.42248607 0.14196445 -0.29301652 0.19619107 -0.12493748 0.017130455 -0.28133166 -0.43219766 -1.2395933 -0.7081322 -0.12910354 0.2289389 0.7171599 -0.3053947 0.59263843 0.20763338 0.49377728 -0.48581415 0.5332759 -0.37526456 -0.9270587 0.02566059 -0.7885847
travail 0.16683982 0.12613776 0.018602613 0.43190137 -0.029989298 0.048471157 0.08156687 0.35626817 -0.30394632 -0.4681127 0.23395689 -0.20403807 0.057889342 -0.12026938 -0.27210698 -0.66651773 -0.2809748 0.24050075 0.62634087 0.92912555 -0.0126634175 0.32774082 0.12188266 0.0807303 -0.32290068 0.5822448 -0.09716882 -0.45459515 -0.11474411 -0.58210874
responsable -0.025551042 0.21038404 0.006190965 0.53047985 0.12303587 -0.16745727 -0.020249411 0.20658204 -0.3351775 -0.34801507 0.34293637 0.036363795 -0.09401372 0.026718708 0.04185973 -0.33877814 -0.16568613 -0.05791634 0.42246976 0.98022413 -0.055470552 0.32811588 0.46868044 0.13387017 -0.24775802 0.70600325 -0.039978705 -0.5307227 0.11070393 -0.609002
changer -0.003973031 0.15030506 0.019676443 0.50819874 0.08296034 -0.12728006 -0.085005194 0.21596353 -0.35311285 -0.4297884 0.34815484 -0.056468632 -0.062275227 0.03400827 -0.054327276 -0.3996851 -0.15596803 -0.0075903945 0.4390949 0.9878224 -6.993883e-05 0.39177728 0.34010327 0.085154474 -0.2398878 0.6362977 -0.062331825 -0.46298134 0.06578394 -0.5855467
an 0.10841195 0.09133345 -0.036343418 0.42535812 0.035847813 -0.0035015123 0.036133327 0.21784091 -0.3803909 -0.36460894 0.35237265 -0.066473864 0.046041083 -0.018399175 -0.21711275 -0.48980942 -0.30383947 0.10614947 0.50304425 0.9110413 -0.026898727 0.36837262 0.17583612 0.17604078 -0.35096547 0.533897 -0.048353247 -0.48821288 0.0066579883 -0.622949
vert 0.08233951 0.0979613 0.07322893 0.39866424 -0.078553185 0.104504436 0.120344386 0.36382368 -0.22848791 -0.31686744 0.24776489 -0.11072838 -0.001500874 -0.12367038 -0.37513265 -0.7031457 -0.28562295 0.1744164 0.4569206 0.89385796 -0.13066724 0.42225096 0.1728746 0.2299075 -0.38108578 0.5338829 -0.083370276 -0.46764648 0.026988363 -0.62255687
vrac -0.19706239 0.29294795 -0.3222221 0.43460375 0.23717028 -0.45978478 0.14775698 0.16780797 -0.8508349 -0.47794777 0.5142665 0.19911882 0.62186056 -0.23624979 -0.12160026 0.15930201 -0.15483716 -0.20504147 0.41589192 0.63934386 0.11296544 0.14875753 0.8695157 -0.056278266 0.048078593 0.5754322 -0.34873533 -1.0304308 0.30578434 -1.1364237
pays 0.04609276 0.13778955 0.0063554253 0.41981056 0.012685692 -0.10732937 0.033708658 0.259833 -0.36932302 -0.3543043 0.28644308 -0.08586265 0.0899759 -0.07723468 -0.15026774 -0.47575104 -0.22526109 0.039348982 0.46226665 0.82229275 -0.05092092 0.33621994 0.26963794 0.17493178 -0.28025335 0.60136014 -0.09060591 -0.5049257 0.034839842 -0.63281083
vie 0.044401225 0.09290625 -0.016984077 0.4865234 0.07453826 -0.0578639 -0.060154587 0.20570122 -0.3286711 -0.38113418 0.3166075 -0.13069527 -0.086262956 0.08254236 -0.105715714 -0.5054154 -0.17703505 0.06254165 0.5048555 1.0161136 -0.019186169 0.39252138 0.25814354 0.1868383 -0.28827208 0.69065595 0.023262119 -0.4488623 0.021280557 -0.54064775
politique 0.047070723 0.15415902 0.0017792686 0.48158267 -0.009037497 -0.05067058 0.09010636 0.26197046 -0.37038752 -0.305079 0.29484266 -0.12275489 0.05240947 -0.0201853 -0.1878502 -0.4877238 -0.19629008 0.082009055 0.44635764 0.898059 -0.0115717435 0.2773729 0.23558104 0.15853596 -0.36981443 0.5946397 -0.006080927 -0.43207029 0.012549507 -0.59375095
recyclable -0.15706223 0.24408387 -0.4183566 0.626775 0.27460286 -0.37556463 0.1377522 0.18504825 -0.768539 -0.19523692 0.54274434 0.18244173 0.83668005 -0.43062505 -0.30028567 0.1433324 -0.17777425 -0.10551729 0.52814656 0.66508275 0.164044 0.047474522 0.61680734 0.03452849 -0.31897333 0.346551 -0.445569 -1.0033984 0.24043232 -1.1495298
planete 0.07824981 0.1268121 0.018713335 0.53035456 0.039577883 -0.050494183 0.0067138323 0.24085627 -0.30691177 -0.28877088 0.34569785 -0.088565215 -0.087168254 0.038981985 -0.12627704 -0.49565718 -0.22245039 0.06881459 0.47776833 1.0048906 -0.054421462 0.36696154 0.2466056 0.19530338 -0.36329088 0.6197817 0.028011974 -0.44365042 0.02634935 -0.54242855
fruit -0.44384873 0.66911876 -0.18651114 0.37642473 0.3449662 -0.69719064 0.14996319 0.1456718 -1.0416889 -0.89203465 0.8422832 0.35676402 0.30966002 0.027419092 -0.030609177 0.08181085 -0.017861733 -0.32342085 0.20737444 0.7932659 -0.11706367 0.07942289 1.1769516 0.01975929 0.31993297 0.8184676 -0.6455235 -1.4478834 0.38413417 -1.0287942
magasin -0.16124386 0.18676202 -0.1382118 0.35899842 0.07524048 -0.1541514 0.22518739 0.22969976 -0.48381296 -0.35521215 0.50269216 -0.03391273 0.4521411 -0.33754966 -0.3806137 -0.2227306 -0.31702954 -0.06727096 0.44561115 0.5682839 0.05424615 0.07903947 0.5172464 0.09144011 -0.2222909 0.4522958 -0.22459936 -0.74408597 0.16764475 -0.8878776
construction -0.062430315 0.032412887 -0.035754442 0.30295932 0.0189139 0.17363016 0.12701496 0.34183484 -0.15784103 -0.37044916 0.12821941 -0.20290364 0.12502344 -0.28443408 -0.4230576 -0.78088677 -0.5169319 0.07120637 0.4098126 0.7637464 -0.18465614 0.4696776 0.1043217 0.35640043 -0.38504001 0.5003621 -0.20028734 -0.623686 -0.021669418 -0.6739648
biodiversite 0.08851245 0.109049365 0.048489492 0.44277623 0.03922596 0.06292557 0.07976775 0.24248824 -0.28618056 -0.31313017 0.28725877 -0.17011037 -0.08411243 0.056337945 -0.20467618 -0.6184361 -0.30719185 0.16559945 0.44514573 0.96091866 -0.16621836 0.37405005 0.16119349 0.2161542 -0.3215739 0.6259492 0.036877126 -0.39129686 -0.013905713 -0.48750928
planter 0.44860223 0.28103045 -0.16567661 0.42947814 -0.1520443 0.38922524 0.43752015 0.36201438 -0.15367018 -0.22191535 0.6682924 0.022124043 -0.18830529 0.23867112 -0.71716475 -1.0724372 -0.4418269 0.5067706 0.45919114 1.1046647 -0.46552768 0.46951726 -0.011514571 0.44592473 -0.33776164 0.3083486 -0.24349245 -0.4738245 0.021851186 -0.35854876
train 0.2902119 0.041399296 0.19249758 0.29081032 -0.10570927 0.00539546 0.026921378 0.44087178 -0.44396892 -0.6409514 0.14490636 -0.33501065 0.11530314 -0.13056606 -0.2766997 -0.8272381 -0.30165976 0.2836748 0.5921678 0.8574017 0.03904396 0.38992986 -0.004061317 0.12581721 -0.1934585 0.5959725 -0.040818322 -0.42082983 -0.194691 -0.6432328
co_deux 0.065686375 0.04479873 0.13513024 0.41935876 -0.010869674 -0.016176585 -0.038860206 0.24316667 -0.3557544 -0.43758088 0.23469302 -0.1147227 -0.10282183 0.019903138 -0.0732625 -0.57391703 -0.23299864 0.065934 0.5214579 0.92887545 -0.037139636 0.4505332 0.22745192 0.2513556 -0.22279714 0.6429646 -0.009684735 -0.4328816 -0.05973013 -0.5911665
revenir -0.086986884 0.28511888 -0.341779 0.5171492 0.30072752 -0.1922004 0.16882068 0.020044364 -0.7738193 -0.34434175 0.5533091 0.18289024 0.8176808 -0.12651342 -0.3625402 0.058253013 -0.2258657 0.058243982 0.42366406 0.6463176 0.067128286 0.010092817 0.614671 0.02897994 -0.17720066 0.368649 -0.47779018 -1.0088408 0.3451053 -1.1166837
papier -0.11422919 0.30845675 -0.37593532 0.5925751 0.19971423 -0.22999707 0.22362725 0.18413897 -0.66347575 -0.23906979 0.5857155 0.20500332 0.659488 -0.3432794 -0.3760774 0.09738647 -0.17409144 0.033559147 0.5122543 0.6322387 0.14383037 0.014837891 0.41167256 0.025067108 -0.38645718 0.34058478 -0.44066656 -0.92724615 0.35225245 -1.0300118
recycler -0.040928088 0.24760765 -0.30865148 0.5638483 0.17355251 -0.19444428 0.14751528 0.17148745 -0.5287698 -0.20438606 0.50448936 0.21193823 0.58957666 -0.25454065 -0.3390765 0.0072486643 -0.15546604 0.019152615 0.46760625 0.67587173 0.13599615 0.09459763 0.37499914 0.008374516 -0.4353181 0.31262708 -0.35304955 -0.8441272 0.2735678 -0.9328128
poubelle -0.056256473 0.29352567 -0.2648749 0.66556156 -0.09324232 -0.12074001 0.32799044 0.24776164 -0.35669944 -0.08695066 0.5017854 0.33987778 0.3373992 -0.33078873 -0.47167432 -0.23591596 -0.018736793 0.21553315 0.48538625 0.791979 0.09413478 0.13368993 0.23499247 0.11728322 -0.63830054 0.2790438 -0.35650158 -0.73436487 0.34485316 -0.8518248
pesticide -0.04063775 0.17854637 -0.13786826 0.46887353 0.22733623 -0.21259707 -0.026109051 0.1530245 -0.5628428 -0.3598342 0.3836183 -0.038129807 0.36420283 -0.10466045 -0.12694228 -0.17597438 -0.27963653 -0.060267527 0.45162436 0.6544021 -0.035117622 0.20027381 0.42543885 0.14801401 -0.15644786 0.51536596 -0.20196289 -0.64064366 0.1081404 -0.7918159
nuit -0.035785485 -0.037220985 0.2208913 0.29641673 -0.23860936 0.10030207 0.22636107 0.3577062 -0.16566522 -0.44671988 0.41410607 -0.31004634 0.076107785 -0.32180533 -0.49559948 -0.8500441 -0.5240663 0.07254981 0.53454983 0.7219424 -0.10447231 0.2919433 0.13597581 0.1746633 -0.38944483 0.627431 0.02852194 -0.41098475 -0.054015763 -0.62404746
remettre 0.16906455 0.31728694 -0.334266 0.5197831 0.084985554 0.11252505 0.40212193 0.08553905 -0.7379281 -0.20166421 0.49880117 0.2311782 0.8809575 -0.19971468 -0.6565312 -0.032337032 -0.23732124 0.3619019 0.40928003 0.74509585 0.041482445 0.019606864 0.30178714 0.024200743 -0.4950679 0.18798941 -0.5172256 -0.9697069 0.34997654 -1.1563402
sensibiliser 0.06515198 0.12940909 0.04078381 0.59446687 0.042001348 -0.098458834 0.016779458 0.23030406 -0.29040673 -0.21429953 0.32853928 -0.12383678 -0.29112214 0.07449261 -0.013695177 -0.49374974 -0.07330582 0.110545635 0.50676686 1.1475089 -0.030884597 0.3769684 0.22165221 0.1533099 -0.5186456 0.7122425 0.13342042 -0.3471729 0.1125274 -0.55077285
surface -0.16740036 0.19762509 -0.17144716 0.29088557 0.056177333 -0.09417223 0.3431021 0.37367684 -0.35277405 -0.41860312 0.47682557 -0.023465505 0.21091814 -0.32012343 -0.32086903 -0.39853677 -0.32020333 -0.02526259 0.41740176 0.6269024 -0.0729263 0.24728549 0.68750435 0.24812253 -0.079645835 0.46374363 -0.21631113 -0.7995768 0.13217556 -0.71452534
aider 0.017904416 0.099133976 -0.0069576674 0.46655676 0.104939416 -0.091267005 0.021333996 0.2226504 -0.31304055 -0.33699495 0.31434566 -0.042061295 -0.0038141408 0.03663925 -0.13200398 -0.57638586 -0.25298727 0.035671297 0.4446129 0.9093413 -0.091482006 0.33910832 0.37356532 0.19280046 -0.26588646 0.6819895 -0.008335372 -0.45050263 0.0070524686 -0.57724667
espace 0.087237306 0.16386212 0.04315896 0.42249125 -0.17861998 0.10135339 0.1679093 0.3220684 -0.20603532 -0.301277 0.32242292 -0.090681106 0.007517715 -0.1105489 -0.400232 -0.757026 -0.38761988 0.2295104 0.43220443 0.8568564 -0.23630397 0.34722948 0.11697705 0.2863332 -0.3598638 0.5358422 -0.03352606 -0.46531728 -0.004336742 -0.5382839
deplacement 0.20322481 0.067366645 0.117459424 0.31172574 -0.010639793 -0.059364893 -0.086468525 0.39588875 -0.43657118 -0.60902774 0.11904046 -0.3030898 0.051813357 -0.16437587 -0.20765941 -0.7250775 -0.2963169 0.16174847 0.62832165 0.8264591 0.070218906 0.44477114 0.11748943 0.08685567 -0.2238348 0.63314116 -0.045515683 -0.44634852 -0.14038765 -0.6313266
obligatoire 0.0068391883 0.10960482 -0.04902848 0.48263466 -0.029690668 0.008677496 0.13345684 0.24361944 -0.33185908 -0.23371828 0.30974847 -0.038624406 0.11990996 -0.15331611 -0.27760044 -0.46644273 -0.22476044 0.13682847 0.41103566 0.8882732 -0.04090074 0.33928007 0.17824994 0.15726136 -0.44557643 0.51164126 -0.11504673 -0.51637465 0.07853778 -0.665502
service 0.06389778 0.12544863 0.012280629 0.40979543 -0.05599093 -0.058150727 0.0712017 0.23351689 -0.40534794 -0.31945866 0.31657234 -0.0013990722 0.17356709 -0.08767169 -0.25572234 -0.40544274 -0.20124362 0.06669228 0.4177085 0.82785827 -0.011422547 0.32005578 0.3111911 0.18718728 -0.36272705 0.61097777 -0.04037391 -0.51829493 0.058206268 -0.67563444
moyen 0.14220755 0.10762403 0.02989964 0.376103 -0.009931384 -0.07658158 0.0233465 0.294588 -0.4299796 -0.43224972 0.21360415 -0.17024414 0.09114546 -0.102412015 -0.19564871 -0.59892464 -0.20800476 0.1254516 0.47183752 0.8618618 0.012824061 0.3532761 0.17771097 0.14931785 -0.33236018 0.62831926 -0.036943417 -0.47661355 -0.04431033 -0.6790986
batiment -0.12429466 0.018578265 0.124163985 0.24174523 -0.032084886 0.11801286 0.17020196 0.33570597 -0.037974533 -0.34774962 0.2197984 -0.24956149 0.014024919 -0.2829557 -0.39514336 -0.93921643 -0.57736117 0.056720253 0.41012755 0.7539324 -0.16168854 0.4337091 0.19893488 0.36140212 -0.49589115 0.6221786 -0.0779704 -0.6189368 0.014168944 -0.56286275
propre -0.0031684455 0.08534005 0.07404047 0.37521192 0.15681726 -0.056969985 0.02471428 0.28485796 -0.35091233 -0.42131448 0.22220284 -0.15589304 0.16758138 -0.15694122 -0.25944546 -0.52728105 -0.32691514 0.019213058 0.46376675 0.73629993 0.022437107 0.36883143 0.26881522 0.17018658 -0.29084027 0.5715889 -0.16016592 -0.60680264 0.024354579 -0.78894895
installer -0.068380766 0.14121987 -0.0096624065 0.33703128 -0.006081324 0.100347444 0.24646463 0.29918697 -0.14569134 -0.21992087 0.3187749 -0.01909033 0.121254 -0.2153846 -0.45832598 -0.72857493 -0.36720335 0.1315417 0.38396612 0.7369202 -0.120162465 0.34330228 0.18130982 0.20892979 -0.4711804 0.4273507 -0.27628818 -0.64969695 0.10228004 -0.6746031
vendre -0.15356503 0.25850537 -0.22472319 0.41174093 0.21006604 -0.35253322 0.0513233 0.14867479 -0.6841196 -0.41093427 0.49448323 0.13243952 0.4386826 -0.063959405 -0.0964812 -0.05612763 -0.1647201 -0.17228723 0.39591262 0.7156236 0.02796606 0.18890572 0.64861155 0.07753133 -0.005051751 0.58153105 -0.28738657 -0.8260491 0.20308614 -0.89410824
monde 0.023444682 0.15534315 -0.03925468 0.48418078 0.029555378 -0.041384567 0.0368209 0.21474297 -0.3336098 -0.2788429 0.33148828 -0.052965693 -0.039831053 0.020562192 -0.1281173 -0.48101395 -0.23407161 0.09937771 0.43664598 0.94446355 -0.07201918 0.33392715 0.2744916 0.1718662 -0.3165317 0.6121373 -0.023141796 -0.43033546 0.06146175 -0.56146026
contre 0.07192892 0.27623394 -0.073957585 0.33083296 -0.022451961 0.00235503 0.01763949 0.2549235 -0.38311863 -0.28631777 0.4244673 -0.1532948 -0.10163215 0.17050679 -0.0203882 -0.38522512 -0.20329097 -0.012643267 0.41560984 1.041266 -0.07330243 0.4319885 0.15124463 0.19821967 -0.36159462 0.58448815 0.029669145 -0.43254325 0.1713728 -0.6833036
nucleaire -0.015802817 0.026855431 0.11982172 0.3694016 0.07548931 -0.03157141 -0.047289114 0.31467992 -0.26013154 -0.38813844 0.24254867 -0.1405911 -0.081630796 -0.09550929 -0.14817347 -0.5838344 -0.3364369 -0.017890537 0.4193509 0.8683446 -0.04421145 0.4455736 0.15986316 0.31405896 -0.29110354 0.59863555 -0.024031052 -0.5371248 -0.020787878 -0.6247593
heure 0.05888586 0.011636994 0.14830384 0.3099456 -0.17413977 0.10634116 0.14087456 0.31034097 -0.22945091 -0.47916064 0.3332537 -0.26304933 -0.0072251125 -0.19658919 -0.3848625 -0.8014882 -0.42058745 0.12087322 0.5360818 0.8219635 -0.031553693 0.33785868 0.047690626 0.20082183 -0.4263149 0.5827019 -0.03510227 -0.40957025 -0.026116421 -0.58738697
transition 0.09031951 0.056927722 0.09332636 0.5862739 0.05710725 0.039002266 -0.067134775 0.2318769 -0.39842838 -0.27318582 0.20007561 -0.13990918 -0.031211482 0.054069918 -0.03603187 -0.61622435 -0.23384432 0.107112095 0.3525008 1.0341362 -0.03526171 0.34529504 0.31281096 0.2728553 -0.3629592 0.8041477 0.15349257 -0.34837523 -0.16154972 -0.5604398
particulier 0.00859008 0.115657754 -0.018422764 0.46890813 -0.046579346 -0.020685123 0.10072349 0.30904448 -0.29591858 -0.26628262 0.3669533 0.009948288 0.07638378 -0.1432412 -0.26131845 -0.5408549 -0.1801698 0.091680214 0.49304247 0.8590691 -0.0065167113 0.32419583 0.25113636 0.16210513 -0.4393843 0.55863386 -0.08008704 -0.52773124 0.09376816 -0.6412052
achat -0.07361403 0.17297792 -0.07769812 0.37575632 0.12438794 -0.29262516 -0.048436694 0.23676224 -0.5272254 -0.4593281 0.34548748 0.0040768115 0.20332937 -0.03521096 -0.06083063 -0.2123447 -0.17441468 -0.13778634 0.45758572 0.80796355 0.021360416 0.31799555 0.52573305 0.113394424 -0.06304308 0.63903034 -0.113558054 -0.6494697 0.11615687 -0.79282296
action 0.064893365 0.1320259 0.019300692 0.5227441 -0.045523483 -0.009656592 0.06137234 0.27349505 -0.33109036 -0.23856002 0.32123163 -0.14003903 -0.22363304 0.086925656 -0.07651906 -0.53432053 -0.101635136 0.08623563 0.43380263 1.1170398 -0.04976025 0.4053063 0.22283383 0.18015943 -0.4558505 0.67925996 0.11228988 -0.35226434 0.023017267 -0.5444468
mieux -0.040766913 0.17432241 -0.0039741853 0.46458036 0.105188794 -0.1482603 -0.0026227657 0.23981707 -0.33316723 -0.3695889 0.32356912 -0.045083687 -0.030639365 0.022430105 -0.06448166 -0.44594505 -0.21703623 0.0003225052 0.4236676 0.8958342 -0.032128304 0.33355322 0.34624428 0.14374359 -0.28324598 0.69094026 -0.046144925 -0.47643444 0.087664485 -0.6213774
etat 0.012852231 0.102982685 0.03699723 0.43754894 0.044570412 -0.0016586458 0.064894155 0.26048118 -0.31470442 -0.30877733 0.2906576 -0.07063308 0.047739707 -0.05421261 -0.20320395 -0.5087959 -0.26556164 0.0376163 0.4311736 0.86707646 -0.045854058 0.35846904 0.27165237 0.21038888 -0.33413994 0.5981556 -0.04662966 -0.4951147 0.066103764 -0.62071526
sac -0.1707821 0.3079385 -0.41721097 0.5028425 0.23309603 -0.33006683 0.25886792 0.12482708 -0.76335293 -0.34630784 0.6774139 0.17377555 0.77130306 -0.36061192 -0.39485165 0.17735071 -0.14380145 -0.08928475 0.4984894 0.55445164 0.15149778 0.020226972 0.5649107 -0.04407961 -0.21225214 0.39439178 -0.5028395 -1.0951514 0.38544926 -1.1403712
naturel 0.024533838 0.1492745 -0.06527057 0.49681163 0.07859068 -0.016204389 0.084668145 0.2302362 -0.35770494 -0.28073224 0.3529964 -0.028421521 0.11593304 -0.031461287 -0.2188931 -0.4097567 -0.28370216 0.10508959 0.46598822 0.82581824 -0.06798144 0.28345972 0.30460146 0.16633154 -0.31879884 0.56252605 -0.07931556 -0.5105346 0.049229145 -0.6120832
augmenter 0.038130358 0.1260619 0.03408667 0.3982787 0.01764962 -0.1577477 0.0055361744 0.21665965 -0.512658 -0.3957261 0.28448996 -0.045649026 0.11673243 -0.024213765 -0.07318731 -0.33747798 -0.17274202 -0.00035490608 0.47303241 0.86197424 -0.021827342 0.39357316 0.36390886 0.1740986 -0.22497831 0.6392236 -0.055899236 -0.5607709 0.049226046 -0.7303861
jeune 0.1490358 0.16153662 0.066100284 0.63999385 0.07378464 -0.024607275 0.027551593 0.24541844 -0.19805819 -0.11501458 0.36244807 -0.08260484 -0.40579227 0.082411416 -0.0975681 -0.5104014 -0.09794118 0.11636283 0.5247214 1.2237867 -0.025086533 0.38536155 0.15363784 0.19689025 -0.5861824 0.75403255 0.14675438 -0.3557291 0.090577975 -0.46176177
elevage -0.04960589 0.18803535 -0.015369656 0.564924 0.2038423 -0.22107226 -0.12114758 0.10819566 -0.40201008 -0.42798588 0.37622708 -0.09223861 0.076769166 0.051754847 -0.032116733 -0.37464774 -0.27153936 -0.04596613 0.44353265 0.8532947 -0.12976816 0.22749868 0.46885437 0.15257996 -0.13264754 0.65863734 -0.071396306 -0.61143106 0.0449274 -0.6479061
instaurer 0.055852015 0.11884574 0.0154705765 0.47507215 -0.027353415 -0.06272161 0.09361628 0.19127455 -0.418588 -0.2845388 0.31737712 -0.031365555 0.15193304 -0.091919675 -0.19649982 -0.32055572 -0.1564088 0.07667002 0.46271327 0.881969 0.015627915 0.33663118 0.2580355 0.1509344 -0.39454064 0.5796074 -0.08222626 -0.5264165 0.09553953 -0.6915623
saison -0.3590656 0.4283415 -0.18867865 0.3101128 0.25843185 -0.6297296 0.0038839697 0.21064898 -0.8663431 -0.7677722 0.6117414 0.17365362 0.21535097 0.12608893 0.08976385 -0.15905367 -0.07981045 -0.35631463 0.22349736 0.8421521 -0.081424594 0.26421204 1.0530342 0.04268053 0.32739243 0.9632243 -0.3544537 -1.0633245 0.38476387 -0.92217475
programme 0.054951377 0.14790522 -0.039950583 0.38134095 0.0998485 -0.014098152 0.05220498 0.22880767 -0.38571194 -0.20219216 0.4037361 -0.1994629 -0.13134797 0.14810917 0.02826254 -0.49545175 -0.17623925 -0.019965922 0.3637007 1.0742835 -0.10342614 0.4544274 0.15452185 0.24936481 -0.42965472 0.70757747 0.1238323 -0.32507247 0.1006692 -0.63664347
durable -0.03000346 0.16469042 -0.05030645 0.45173922 0.17477366 -0.15511565 0.005463984 0.19553378 -0.43096736 -0.35996807 0.3780864 -0.042887956 0.1541614 -0.05023349 -0.078971736 -0.27453303 -0.15998961 -0.084089704 0.42599958 0.8809491 0.00067708717 0.32200494 0.43413988 0.14926639 -0.23544118 0.61745393 -0.043141842 -0.5817873 0.10000196 -0.7475535
cesser 0.002628839 0.1814422 -0.090476304 0.47224393 0.09656472 -0.08658499 0.06292024 0.22634907 -0.3868651 -0.34917524 0.37655425 0.0054580094 0.13533951 -0.05947476 -0.1673994 -0.37667486 -0.24112958 0.03975714 0.43819562 0.8008904 -0.05302191 0.26570252 0.30460623 0.12601568 -0.2965196 0.55269545 -0.15497388 -0.550569 0.08996067 -0.6642253
electricite -0.01624119 0.07288309 0.12056358 0.3784962 0.111182354 -0.06359942 -0.036184996 0.26543635 -0.29057625 -0.47136164 0.2576827 -0.12553188 0.012945981 -0.11860769 -0.19350298 -0.57308924 -0.3682079 0.029992634 0.45703232 0.80851537 -0.042527158 0.4447644 0.27740178 0.26661134 -0.24995948 0.60943174 -0.08765167 -0.5605358 0.006587829 -0.70595497
aide -0.042132683 0.09517775 0.008243472 0.47211865 0.088965096 -0.08361491 0.010964815 0.23296021 -0.33337083 -0.3894078 0.29190737 -0.07298712 0.0010979446 -0.024637034 -0.11885195 -0.54613864 -0.22273964 0.016766582 0.4387656 0.8951183 -0.044067133 0.3338633 0.39062443 0.15510122 -0.25897804 0.6717049 0.00180475 -0.49028072 0.008697511 -0.63846284
publicite -0.013498774 0.17358202 -0.090316966 0.4189616 0.07142783 -0.21344614 0.001594064 0.20303513 -0.47473413 -0.3616345 0.37625182 -0.07350196 0.21507393 -0.13273466 -0.16484906 -0.25943822 -0.21564342 -0.020738551 0.47165173 0.69985765 0.045307968 0.25351697 0.34332284 0.10448057 -0.24233042 0.52945095 -0.17817092 -0.60844415 0.0854638 -0.7652405
personne 0.102457836 0.21479402 -0.08746238 0.4930497 -0.04272206 -0.021897322 0.09494734 0.30235156 -0.29152778 -0.2868757 0.29612786 0.022865465 0.0325213 -0.13146931 -0.23334676 -0.43571573 -0.20778048 0.12562044 0.55367315 0.8704534 0.02125406 0.30496427 0.17414308 0.13168368 -0.44599903 0.5651413 -0.13060948 -0.49888998 0.10217409 -0.6452734
court 0.02548673 0.27701327 -0.021493204 0.45508078 0.24333954 -0.17599894 -0.10031027 0.17156942 -0.61901754 -0.52489614 0.31698114 -0.10727171 0.12037587 0.15585884 -0.027825478 -0.44133887 -0.20048112 -0.06847785 0.46677804 0.90362895 -0.18397452 0.3092214 0.5726806 -0.008317679 0.08704554 0.6779923 -0.202518 -0.5065947 0.035910122 -0.7267978
route 0.12096312 0.1667393 -0.026174558 0.42677876 -0.091460735 0.081943005 0.24965423 0.2952583 -0.37146202 -0.27790472 0.30848092 -0.01454545 0.1829306 -0.10399005 -0.46600586 -0.64859134 -0.36386904 0.2234131 0.5009324 0.86766934 -0.112291925 0.29901186 0.086406745 0.19891748 -0.3951499 0.36313218 -0.23830143 -0.50973475 -0.0066055884 -0.62267447
commune 0.024992347 0.17209367 -0.04854843 0.440023 -0.09142053 0.014737189 0.2107254 0.30117035 -0.30833057 -0.30373657 0.4122657 0.03561064 0.08296407 -0.10839314 -0.3365145 -0.5484857 -0.21016096 0.19450226 0.46001822 0.8752986 -0.083400264 0.27250838 0.26066038 0.17362212 -0.33421457 0.53254855 -0.14038378 -0.5130761 0.07779388 -0.6295026
trop -0.012281662 0.15136781 -0.040151995 0.40843266 0.15978262 -0.12024586 0.04070337 0.22353275 -0.3976279 -0.36929923 0.32238302 -0.07964711 0.18776798 -0.09644905 -0.14321612 -0.37258202 -0.24972738 -0.005803075 0.43910792 0.7990612 -0.028060801 0.3050579 0.36604658 0.14092591 -0.23699883 0.53745234 -0.14873181 -0.6169474 0.099971525 -0.7395641
population 0.012511407 0.112502195 0.017472368 0.47062582 0.044707306 -0.10542784 -0.028528897 0.24185492 -0.32764384 -0.3166399 0.31787878 -0.1500768 -0.05219281 -0.014101918 -0.09668756 -0.45956793 -0.1682915 0.036427274 0.46403027 0.9570113 0.021995217 0.37018389 0.26016858 0.16968451 -0.38867295 0.64977837 -0.03862049 -0.4793706 0.044757437 -0.6215841
urbain 0.09039123 0.10359465 0.043421026 0.40582067 -0.08845731 0.065307125 0.13000514 0.32392955 -0.2531921 -0.33231068 0.29103744 -0.13079742 -0.016015492 -0.0835446 -0.33346957 -0.7123649 -0.3245991 0.18806985 0.46711153 0.88657016 -0.118046656 0.36944404 0.15844837 0.18185638 -0.31465447 0.5994987 -0.082173094 -0.4653941 0.009954053 -0.56699026
bon 0.03766428 0.18043754 -0.07001659 0.5240647 0.08348958 -0.09689324 0.05536671 0.18501478 -0.4191393 -0.3154976 0.3782288 0.010963561 0.062853925 -0.03131667 -0.13510464 -0.32358235 -0.1920082 0.06403798 0.47430962 0.92566854 -0.024241654 0.27992278 0.3206229 0.14640523 -0.32876977 0.5648466 -0.08987581 -0.51425934 0.117762074 -0.6423081
mode 0.018239342 0.12591845 0.07398688 0.40924948 0.048733406 -0.16182183 -0.11634424 0.23739752 -0.46272674 -0.4912984 0.24430732 -0.19247644 -0.09048686 0.03537943 0.015755624 -0.5240336 -0.21659443 0.02061709 0.4495246 0.97577643 0.025150586 0.4171494 0.2766168 0.1174997 -0.22422129 0.728937 -0.028379956 -0.50281453 -0.029219575 -0.5644244
promouvoir 0.050316587 0.07424921 -0.0061916998 0.41665247 0.07316793 -0.054986384 -0.02285281 0.2612523 -0.4070173 -0.414809 0.2461804 -0.14530587 0.09663021 -0.10151233 -0.1543178 -0.52652156 -0.26832792 0.033506148 0.4642528 0.8260617 -0.036462907 0.335656 0.27642372 0.11952044 -0.21401723 0.60576224 -0.089756586 -0.5175241 -0.009862572 -0.6978819
ecologie 0.051196277 0.16806561 -0.014075722 0.5282171 0.028290171 -0.030505337 0.046354454 0.23113078 -0.30171198 -0.2611562 0.31881315 -0.07466701 -0.07567458 0.02454697 -0.15106271 -0.44591457 -0.16890977 0.10260052 0.45578754 0.9894554 -0.05602526 0.3576437 0.23992692 0.18262435 -0.42799166 0.63846403 0.025633855 -0.41781172 0.07799531 -0.5610955
eclairage 0.013687311 0.025340777 0.21798322 0.24150744 -0.24270506 0.050411504 0.15894821 0.34763938 -0.15598994 -0.42947444 0.3435054 -0.27122462 0.1234059 -0.32721648 -0.52180475 -0.93472135 -0.5618489 0.07134649 0.48715195 0.7109384 -0.12734394 0.2949305 0.042752646 0.30574933 -0.4991022 0.6403928 0.07502321 -0.43436506 -0.0073819533 -0.58112234
circuit -0.08100504 0.22204007 -0.22947492 0.3935982 0.15300587 -0.33004645 0.03923163 0.32285815 -0.5338466 -0.54591346 0.23913437 0.07694019 0.24089414 0.06311044 0.001963958 -0.20137922 -0.09456314 -0.15250278 0.4182211 0.82136995 0.02383454 0.20343891 0.6899183 0.1294163 0.13986751 0.8163737 -0.26178902 -0.6025709 0.1293977 -0.899481
agricole -0.028414832 0.17735882 -0.011309568 0.47590962 0.0342825 0.0033352983 0.11146607 0.25631896 -0.32889983 -0.36063713 0.34137315 -0.011199842 -0.06644588 0.029778361 -0.15888733 -0.5376491 -0.30522895 0.068220824 0.48212722 0.9244825 -0.1664849 0.33142918 0.30766827 0.23669124 -0.2835431 0.6663884 -0.03612894 -0.47896495 0.030618206 -0.53823346
consommateur -0.04085443 0.15556723 -0.10210977 0.4464196 0.17973481 -0.21806559 0.044869673 0.21573994 -0.5038179 -0.35460946 0.38610756 0.016048832 0.24484883 -0.07088805 -0.07803533 -0.21880074 -0.20017819 -0.08694972 0.39762864 0.79030603 0.015749186 0.29377013 0.50769794 0.1429846 -0.17730622 0.6116327 -0.15161988 -0.6589595 0.13281558 -0.78598297
jardin 0.085589424 0.19662711 -0.060098555 0.43328407 -0.12085146 0.10961065 0.21913573 0.28907552 -0.23892131 -0.24339412 0.37349367 -0.0263447 0.05064789 -0.06179803 -0.41947198 -0.7375244 -0.34150064 0.20877612 0.4455842 0.8687023 -0.18718842 0.31807598 0.12829617 0.22748816 -0.37373632 0.49713343 -0.13299847 -0.49013677 0.0215225 -0.55312765
construire 0.025768846 0.1440918 -0.02805456 0.35456872 -0.013031065 0.00798643 0.10011193 0.28105673 -0.31214643 -0.39584723 0.26713124 -0.13862982 0.08856797 -0.10591877 -0.2952127 -0.5934439 -0.33296323 0.0923138 0.43045977 0.802615 -0.0824353 0.36938822 0.2288726 0.21826465 -0.27024314 0.56951284 -0.13815393 -0.5463021 -0.006605769 -0.61150044
proximite -0.066946045 0.21746564 -0.060703177 0.3104254 0.09263083 -0.22950687 0.049473878 0.26127133 -0.51171803 -0.54315567 0.33237797 -0.056925684 0.1068997 -0.015829798 -0.12504007 -0.49990776 -0.24845009 -0.04939074 0.40774125 0.7693302 -0.061057474 0.278241 0.5394833 0.10436926 -0.012594981 0.7208391 -0.17244689 -0.5882536 0.082177304 -0.6874244
maximum -0.07766698 0.16170257 -0.12133011 0.41030207 0.16014151 -0.26046994 0.012007258 0.27047503 -0.53063613 -0.42732298 0.35928112 0.0031744177 0.34319797 -0.15925272 -0.13726528 -0.24469931 -0.22600119 -0.05816413 0.4476068 0.64740616 0.028521242 0.22336747 0.4802051 0.084127024 -0.18922953 0.5354569 -0.22961825 -0.7479348 0.106523685 -0.8306848
objet -0.06282784 0.21748118 -0.23568651 0.48389637 0.21203382 -0.2812658 0.05219268 0.16060498 -0.63366246 -0.33364865 0.43911347 0.053752005 0.50230724 -0.20187552 -0.17855544 -0.03433709 -0.13967036 -0.0755373 0.48567542 0.6733605 0.08036385 0.19086307 0.44230953 0.057037458 -0.24189977 0.43482086 -0.28265542 -0.7637317 0.17255832 -0.93842506
individuel 0.048882592 0.12981786 -0.052077662 0.37942523 0.07495537 -0.08316622 0.072119504 0.26626402 -0.42135334 -0.39224714 0.31539604 -0.10070158 0.2446312 -0.18371482 -0.23302089 -0.48772672 -0.26761264 0.049088854 0.4689194 0.7586599 0.014309453 0.30433184 0.2862127 0.14567575 -0.27261382 0.52179027 -0.17000203 -0.61959976 -0.012105832 -0.74702144
parking 0.13108142 0.1462651 0.0047646975 0.31023407 -0.10249537 0.123081595 0.24691291 0.3674175 -0.2871602 -0.37634245 0.2705715 -0.098289646 0.10504853 -0.19765471 -0.46416146 -0.75003743 -0.35019064 0.28226194 0.49633953 0.8158304 -0.0900434 0.32535145 0.11347005 0.19113989 -0.32754156 0.46090385 -0.18655212 -0.5431912 -0.022930095 -0.6493319
centre 0.08182491 0.06788834 0.020057395 0.3329562 -0.17004293 0.07715093 0.21422392 0.41845137 -0.22456792 -0.3989143 0.285085 -0.13447908 -0.0404848 -0.20792653 -0.44031483 -0.86937916 -0.30944195 0.23020808 0.47767386 0.80576193 -0.09064872 0.4054046 0.091649376 0.20852768 -0.33781245 0.56145084 -0.11475951 -0.44876093 -0.013767353 -0.5815218
chasse -0.021544486 0.13900153 -0.11880336 0.43108907 0.10873251 -0.12552251 0.021806914 0.18564092 -0.3580177 -0.28224063 0.31497246 -0.09366281 0.24097294 -0.17304952 -0.22867636 -0.32807484 -0.3240741 0.042967003 0.4719209 0.6351575 -0.014778097 0.26489982 0.2268085 0.16913545 -0.34581253 0.48563316 -0.21824488 -0.60814536 0.076750346 -0.7567812
gratuit 0.16253291 0.12591659 0.027232617 0.3163156 -0.113486975 0.028010964 0.16164072 0.41128427 -0.37136602 -0.36966327 0.24645615 -0.19447106 0.10568588 -0.1715873 -0.35849094 -0.66703445 -0.2928586 0.22845185 0.5007528 0.8093041 -0.007846887 0.35782543 0.086679995 0.11281027 -0.31203115 0.5661193 -0.107746676 -0.5103723 -0.06049973 -0.6765042
jour 0.04803717 0.16383135 -0.083452806 0.48454177 0.017608736 -0.008510836 0.13264996 0.20626411 -0.40232223 -0.32295558 0.36104563 -0.004259119 0.22610413 -0.12037158 -0.29539618 -0.34594694 -0.24909954 0.13032691 0.40248072 0.7779397 -0.012420607 0.24597278 0.23973328 0.09216323 -0.39362448 0.44767573 -0.18310326 -0.588495 0.1346983 -0.72174454
besoin -0.019755917 0.14607093 -0.06603311 0.42048424 0.11288347 -0.11237022 0.05000926 0.18304496 -0.43347967 -0.37877148 0.36953732 -0.063168064 0.26127517 -0.12203994 -0.20072584 -0.3196382 -0.2923074 -0.0030930715 0.4122661 0.71266085 0.00782886 0.24656539 0.32247466 0.101316996 -0.2631591 0.5140864 -0.21498322 -0.618016 0.11848708 -0.77640074
unique -0.10865702 0.13981424 -0.35358655 0.66655576 0.35993558 -0.35466728 0.18322353 0.14804941 -0.87077427 -0.31067 0.65043074 0.094712734 0.95099944 -0.41798064 -0.38728258 0.1887257 -0.28004143 -0.118424684 0.5850325 0.6137793 0.14067207 0.10574055 0.4232805 0.039135225 -0.2931997 0.2784831 -0.43534943 -1.0173491 0.21741444 -1.2376895
polluer 0.02737609 0.15705049 -0.051097155 0.4302009 0.053694353 -0.08329242 0.056050666 0.2658562 -0.37420523 -0.37840554 0.29813996 -0.107308336 0.16539374 -0.16133493 -0.18330136 -0.41640767 -0.23463733 0.077006236 0.4915034 0.751489 -0.0134050865 0.29681572 0.2759172 0.12702115 -0.30760574 0.5444514 -0.1291286 -0.5537258 0.04129077 -0.7018803
apprendre 0.033977292 0.19129229 -0.04374142 0.5785864 0.10924344 -0.13709821 0.05354811 0.22764227 -0.33061218 -0.25233093 0.40495953 0.0138762165 -0.13319384 -0.017309478 -0.06965159 -0.38634887 -0.08641612 0.044794723 0.46887708 1.0420203 -0.009770542 0.2972671 0.30335027 0.101034045 -0.44975093 0.6626166 -0.023033796 -0.48678377 0.19511384 -0.6366353
eduquer 0.059771992 0.15068153 0.0045182877 0.62500745 0.07274417 -0.09288502 0.046170995 0.24638556 -0.28385457 -0.19076885 0.36686936 -0.06793505 -0.24240835 0.042656958 -0.08597356 -0.46600378 -0.09133482 0.10715179 0.50364745 1.1309791 0.011335973 0.34529904 0.24205019 0.13477337 -0.5375826 0.6805545 0.090734065 -0.41902274 0.14214969 -0.5924139
respecter -0.00021055984 0.1736157 -0.047608003 0.5163271 0.036646813 -0.083298266 0.07607521 0.21312365 -0.38008332 -0.27821174 0.3944901 -0.012120536 -0.07592081 -0.01486278 -0.063385464 -0.37561712 -0.13917798 0.04422603 0.4253477 0.996785 -0.031778306 0.31104258 0.33670697 0.15855561 -0.39348802 0.672324 -0.0010011966 -0.5127133 0.09385997 -0.5805812
inutile -0.07716522 0.17042583 -0.16373885 0.4654521 0.14132135 -0.20168123 0.07275786 0.18323638 -0.54425704 -0.32107425 0.41175807 -0.015390655 0.41248468 -0.22705294 -0.21441819 -0.14610243 -0.2061411 -0.033028334 0.44975552 0.664934 0.10695901 0.17242703 0.4143565 0.057311054 -0.26934627 0.439068 -0.25804868 -0.7485755 0.15458718 -0.8350099
pollueur 0.05631408 0.19124435 -0.09175569 0.497755 0.0013662115 -0.07944961 0.07865888 0.25659043 -0.40817308 -0.305248 0.34052846 -0.045164194 0.13501959 -0.076449856 -0.13003176 -0.31470412 -0.19123521 0.031644203 0.46853137 0.8131069 -0.029175384 0.31242993 0.3291221 0.18856439 -0.34368423 0.558992 -0.08385564 -0.5764343 0.04964979 -0.6359504
commerce -0.046130527 0.15597603 -0.045426283 0.37835407 0.024375629 -0.15785599 0.11808639 0.24334864 -0.4478466 -0.41034475 0.3743827 -0.08858415 0.1514915 -0.10811364 -0.1943305 -0.4229262 -0.23441729 -0.031065306 0.44130948 0.75800806 -0.043129988 0.26666307 0.4518288 0.08363941 -0.1102764 0.66694283 -0.12753703 -0.57847905 0.06046578 -0.69185257
maison -0.040320978 0.13892896 -0.05076949 0.41806617 0.03218527 -0.024001835 0.103040315 0.2490155 -0.27778512 -0.32009745 0.345826 -0.08063048 0.067309305 -0.12196504 -0.2669377 -0.5561445 -0.32320493 0.07551875 0.4289813 0.8059876 -0.092014834 0.341284 0.22195193 0.17384866 -0.32572684 0.5434384 -0.13830476 -0.5510996 0.047913823 -0.62933815
partout 0.13971591 0.17638539 -0.09430421 0.38533905 -0.09349552 0.04044034 0.23057216 0.3010904 -0.37095073 -0.23561947 0.42303464 0.028744353 0.11025974 -0.05251939 -0.41438267 -0.5921135 -0.29582694 0.23917225 0.5240918 0.872325 -0.14284833 0.2514286 0.112930425 0.22157565 -0.32548273 0.4100412 -0.1815198 -0.5191858 -0.010793968 -0.611269
eco 0.0035073275 0.12949882 -0.05858982 0.45142087 0.05335416 -0.075667195 0.07979201 0.2012033 -0.32179296 -0.29466382 0.32284993 -0.06477233 -0.0122498935 -0.01197954 -0.14257619 -0.41463038 -0.18306652 -0.0030352809 0.4313362 0.9656683 -0.08245601 0.35951117 0.3985264 0.14617789 -0.2446816 0.6287262 -0.0131703485 -0.4524052 0.095620506 -0.6395823
stopper -0.0055876593 0.15155533 -0.04695145 0.42867473 0.12485232 -0.101111546 0.043123797 0.19074056 -0.4024401 -0.35898075 0.32495973 -0.05125251 0.16087407 -0.111824244 -0.15283106 -0.3740918 -0.22188237 0.005608712 0.43353707 0.7595389 -0.011311939 0.26876667 0.34195408 0.15066384 -0.21126953 0.54199123 -0.12422447 -0.5979622 0.049932636 -0.68692183
foret 0.098197706 0.15967217 -0.050169207 0.44267568 -0.052203346 0.041705202 0.14729892 0.2536048 -0.27254367 -0.25706044 0.38457236 -0.06580586 0.0018076871 0.029347248 -0.2868459 -0.57332647 -0.3134106 0.17796889 0.460403 0.9382807 -0.169485 0.3385881 0.16251044 0.21231608 -0.3214458 0.48700213 -0.048778895 -0.4604718 0.027236989 -0.5306008
davantage 0.049066685 0.15168934 -0.027351948 0.44795385 0.017997092 -0.0465519 0.079484664 0.2655211 -0.34241688 -0.3361727 0.3253605 -0.07665387 0.03657802 -0.055590764 -0.20812489 -0.50858164 -0.19394197 0.09941749 0.446567 0.86311626 -0.047698703 0.3204094 0.23706612 0.14889503 -0.3166658 0.5679471 -0.103011265 -0.5096658 0.041317936 -0.59340775
cout 0.019682942 0.070096366 0.018465722 0.45410624 0.004196796 -0.14044555 -0.00070928835 0.26239848 -0.45749164 -0.33766058 0.26701427 -0.1383091 0.05509091 -0.0518013 -0.06822613 -0.39098024 -0.1983131 0.03285672 0.48143765 0.9066648 0.015750526 0.3871267 0.28638658 0.17716356 -0.26962942 0.6633092 -0.042445783 -0.5446479 0.04078199 -0.64046377
agir 0.0073712296 0.14722326 -0.025824906 0.5020453 0.06686455 -0.07272201 0.045587465 0.23750715 -0.3676466 -0.27269456 0.37542707 -0.07407603 -0.01956266 -0.031157833 -0.1167886 -0.43053487 -0.21094784 0.069212586 0.46778607 0.94601727 -0.0305568 0.33939344 0.28305358 0.16251191 -0.36342037 0.5943919 -0.023026204 -0.50917965 0.05791959 -0.58560574
renouvelable -0.05627686 -0.0057604513 0.28356516 0.28450522 0.26610318 -0.0056604603 -0.046902295 0.40317538 -0.2425509 -0.47136277 0.13699487 -0.28872728 -0.031749066 -0.12542982 -0.18912598 -0.71588343 -0.3798894 -0.085415386 0.37797683 0.8377902 -0.045491528 0.5367659 0.28308457 0.36673152 -0.28589222 0.6938339 -0.06124481 -0.61042315 0.01653243 -0.729196
matiere -0.05972399 0.12846884 -0.083145 0.4574306 0.14696339 -0.1305258 0.03557052 0.21814121 -0.49227506 -0.2501239 0.3719612 -0.04528816 0.22790416 -0.11774198 -0.14846568 -0.24327448 -0.19573691 -0.0075909384 0.46122637 0.78425884 0.016022159 0.22829914 0.35004127 0.13510568 -0.31876233 0.5036254 -0.14419995 -0.63378847 0.12254001 -0.7513325
niveau 0.018499985 0.13322842 0.00202645 0.45515752 0.014232151 -0.07444467 0.0129778115 0.24470477 -0.3561968 -0.3114739 0.31992146 -0.09629553 0.0008440875 -0.050071802 -0.1769233 -0.45831934 -0.22090688 0.07537154 0.42632636 0.9017947 -0.011467182 0.34177804 0.2595019 0.21718153 -0.37472162 0.5947288 -0.015762324 -0.49980822 0.020397622 -0.661173
fonction 0.061295684 0.07015998 0.04893823 0.41965076 0.01693395 -0.07534368 -0.07225642 0.24982733 -0.41187087 -0.41560125 0.24251103 -0.11879482 0.04396088 -0.10513941 -0.08898877 -0.46703938 -0.1678179 -0.0005106844 0.51846826 0.887493 0.02912775 0.45058838 0.27292144 0.19020386 -0.31575146 0.65259784 0.0012682166 -0.50746596 -0.02238474 -0.6671735
gaspillage -0.046788517 0.19814728 -0.12980773 0.4545125 0.14511846 -0.29341653 0.048525326 0.23286164 -0.5531061 -0.381467 0.41860887 -0.026742043 0.268994 -0.16244282 -0.119787 -0.16482745 -0.15842178 -0.03435133 0.4371977 0.7628726 0.062298443 0.2771905 0.41813415 0.10623536 -0.26480383 0.5737272 -0.16859071 -0.74039716 0.15487848 -0.81742144
projet 0.02374904 0.10640023 0.016516842 0.46264848 0.02295273 -0.018415771 0.03785385 0.27294025 -0.33552697 -0.32184356 0.28029153 -0.15596306 -0.031194106 -0.03392514 -0.14393254 -0.5454355 -0.25890082 0.071599215 0.42135644 0.9064558 -0.058272984 0.38765445 0.260222 0.20793244 -0.33595726 0.6452701 -0.014866591 -0.43611115 0.025020218 -0.5674297
ecologique 0.05669408 0.13602301 -0.0003949311 0.46234772 0.035784163 -0.062515065 0.02478303 0.23366143 -0.37372553 -0.35324618 0.31062284 -0.11824385 0.06706634 -0.05958677 -0.1604052 -0.4712092 -0.22296432 0.07081542 0.45747587 0.9191416 -0.046243057 0.34977543 0.25100473 0.1811519 -0.29026407 0.61009 -0.050332054 -0.510476 0.01369772 -0.6367286
climatique 0.048224967 0.11240851 0.046491124 0.4747117 0.006767896 0.0161292 0.04893811 0.27273533 -0.32557413 -0.29563454 0.30620262 -0.17503667 -0.13644743 0.04059623 -0.10837295 -0.5631264 -0.25573435 0.10065288 0.43262908 1.025979 -0.03897594 0.4532348 0.17370293 0.24586721 -0.3987873 0.63218 0.025954416 -0.44252807 0.0044692783 -0.58086693
national 0.013872911 0.1180135 0.0037051025 0.4459874 0.017516 -0.0049067023 0.05988434 0.24865481 -0.32173938 -0.30234838 0.28782138 -0.11211819 -0.0058841263 -0.051868703 -0.18514816 -0.54560894 -0.20730639 0.08045234 0.41714358 0.9379237 -0.047605377 0.3699611 0.25057688 0.18859096 -0.3791051 0.63618195 0.0019162475 -0.43804508 0.06119792 -0.597862
sol 0.03932728 0.13583805 -0.0726271 0.47568336 0.037458625 -0.039868563 0.09493864 0.22804616 -0.35215506 -0.31640288 0.34717083 -0.053668592 0.090682164 -0.06874939 -0.2112871 -0.46900237 -0.26303557 0.07414868 0.4571038 0.8672583 -0.052481584 0.2869525 0.24384479 0.17021662 -0.29825792 0.56935513 -0.10221913 -0.5268523 0.052477665 -0.6222652
toilette -0.11559624 0.1468468 -0.22992975 0.51205176 0.16570549 -0.059610136 0.14816347 0.24238653 -0.33705416 -0.23809442 0.34689915 -0.036482584 0.43163806 -0.29300523 -0.3912422 -0.2847941 -0.381023 0.091925055 0.42164242 0.5752031 0.040693086 0.23978932 0.20336272 0.1246954 -0.4357247 0.38399038 -0.37408015 -0.7288942 0.03875461 -0.921311
energetiqu -0.004092 0.06539071 0.08041761 0.40064412 0.02818028 -0.023321887 0.006285577 0.2260686 -0.33794034 -0.34830454 0.29258722 -0.14307466 0.0292091 -0.07187939 -0.19897783 -0.5431964 -0.2832265 0.06526245 0.43534058 0.8908782 -0.03205258 0.39223972 0.28749007 0.21635649 -0.35745806 0.6289212 -0.014783724 -0.51045465 0.017957924 -0.6561073
eteindre -0.025466088 0.012763159 0.16203798 0.30787376 -0.18000925 0.049154326 0.18337828 0.29561302 -0.21124467 -0.37663344 0.42911163 -0.24682277 0.100472674 -0.24517775 -0.4302699 -0.7381825 -0.43550506 0.027896037 0.4867656 0.7651951 -0.08024801 0.28744483 0.15874916 0.17107436 -0.41613632 0.59348214 0.011096365 -0.4305346 -0.035051987 -0.6259771
loi 0.01931004 0.13592033 -0.06534346 0.4839241 0.05089449 -0.054327838 0.0689873 0.22707847 -0.38813153 -0.27369505 0.34529617 -0.06070011 0.10418654 -0.083763316 -0.18351984 -0.3734029 -0.20130737 0.04977048 0.45324796 0.8508958 -0.0017918039 0.30054444 0.3099474 0.15108755 -0.35677892 0.5575651 -0.06619791 -0.5102999 0.054417327 -0.6396839
contenant -0.09205763 0.27313542 -0.3753021 0.58060133 0.24738058 -0.23856105 0.26523867 0.09278691 -0.8389718 -0.27772382 0.5655795 0.19048385 0.9423212 -0.3253733 -0.4483323 0.14543402 -0.21260715 0.069924116 0.4801703 0.6174827 0.14505905 -0.018553818 0.535035 -0.0050885365 -0.31761986 0.30163664 -0.50477093 -1.0626839 0.36382037 -1.2435721
moteur 0.1378348 0.03284172 0.08780827 0.3907949 -0.0057754577 0.032194782 -0.004060608 0.30304372 -0.30754784 -0.46067628 0.19829042 -0.18766972 0.07847781 -0.15587814 -0.21914428 -0.6740705 -0.3079338 0.098559596 0.54896516 0.7924995 0.00061208644 0.4004701 0.12996042 0.15271755 -0.28006932 0.5543157 -0.09640483 -0.42938802 -0.04632263 -0.6807649
investir 0.016764918 0.07312542 0.06362999 0.41536993 0.06004251 -0.005833095 0.014240191 0.2772666 -0.3233366 -0.3712437 0.21029732 -0.13169952 0.048616122 -0.10513403 -0.20876206 -0.590695 -0.29874957 0.038407538 0.45414487 0.8421902 -0.040620133 0.44081506 0.23974104 0.25726965 -0.31916627 0.59780765 -0.050618604 -0.51317906 0.0018053137 -0.7012663
sante 0.013342023 0.14142689 0.0080217095 0.48302948 0.08012178 -0.094671175 0.013874974 0.20148851 -0.3862518 -0.3181665 0.31351295 -0.12831056 0.03124227 -0.027830716 -0.085185215 -0.39053652 -0.20975411 0.02492268 0.45573497 0.9428269 -0.015567666 0.31281063 0.31449527 0.16689739 -0.31210515 0.61526775 -0.019861294 -0.49258384 0.02493735 -0.6057782
passer 0.026859304 0.093006976 -0.006995735 0.4648715 0.07115753 -0.026729314 0.049457837 0.24268687 -0.3618376 -0.3355395 0.32532147 -0.056547847 0.103577204 -0.061504304 -0.2042211 -0.49504596 -0.25719026 0.08013155 0.44910127 0.85518664 -0.042950124 0.29140237 0.26907942 0.1473947 -0.33052698 0.61596805 -0.059629735 -0.5086271 0.06177822 -0.66090995
falloir -0.0043360055 0.18082616 -0.12587412 0.49442002 0.1360256 -0.08144757 0.09628075 0.218483 -0.42098433 -0.30542555 0.37967044 0.040365167 0.2283194 -0.05048514 -0.22863847 -0.33349788 -0.25095227 0.08498749 0.44518623 0.79709506 -0.020897448 0.21480592 0.37214682 0.119583935 -0.2600348 0.4925682 -0.17641325 -0.5966076 0.11794442 -0.70633376
proteger 0.055712048 0.13842565 -0.019631434 0.48244196 0.04808105 -0.0024835928 0.08791518 0.22199497 -0.29440728 -0.30816787 0.313546 -0.105150454 0.00859353 -0.02957537 -0.18669072 -0.51848346 -0.2769246 0.122657314 0.46985963 0.8850455 -0.08448938 0.3075716 0.2093962 0.21280536 -0.3609549 0.6039353 -0.050732866 -0.454064 0.01704069 -0.54634815
payer 0.00010054474 0.17744589 -0.08854388 0.51237047 0.048376612 -0.10459043 0.07997766 0.2238638 -0.42243174 -0.23782551 0.39704132 0.08055828 0.13813566 -0.08978742 -0.17946003 -0.27887744 -0.17047533 0.03882092 0.45992428 0.8707424 0.0073466976 0.29748562 0.3388966 0.12675658 -0.39284372 0.5540744 -0.11246746 -0.5795681 0.14008015 -0.7023697
nombre 0.0630538 0.088237934 -0.021149604 0.39225543 0.044597443 -0.10272673 0.052184343 0.26951557 -0.40479526 -0.3816183 0.28884608 -0.0962537 0.17362845 -0.14194612 -0.1979818 -0.42683184 -0.23261613 0.026484687 0.4816977 0.7841162 0.019635353 0.3086891 0.28104272 0.1186589 -0.291935 0.51817924 -0.12931463 -0.55229086 0.0151435 -0.7052593
fin 0.07634726 0.18511234 -0.07213789 0.4671544 0.041744575 -0.11947386 0.10442111 0.20700988 -0.45131794 -0.32167494 0.3188172 0.055461314 0.18176913 -0.07671709 -0.2430202 -0.37366793 -0.23941618 0.05284004 0.3813021 0.8152746 0.015727706 0.2496459 0.29694358 0.16662271 -0.28716165 0.4328118 -0.19758958 -0.6127815 0.10661099 -0.73022485
economie 0.01734219 0.0837755 0.060454343 0.42214632 0.0690061 -0.07957426 -0.0038435424 0.28238928 -0.36525396 -0.3419248 0.28935325 -0.15402678 0.052238334 -0.07542953 -0.18331352 -0.44974342 -0.23141834 0.014535254 0.4401327 0.86825013 -0.046780895 0.36819866 0.2928032 0.2077426 -0.27029452 0.6233874 -0.037259754 -0.5232202 0.046637334 -0.6914955
social 0.01705983 0.11832843 0.046284664 0.49429926 -0.02405696 -0.035662096 0.020628931 0.2765737 -0.40541115 -0.2989412 0.26806334 -0.18926793 -0.09486939 0.0318515 -0.08496513 -0.49751833 -0.15587391 0.08171709 0.47239685 1.0736157 -0.0054186084 0.40563747 0.22194172 0.18514106 -0.40589088 0.70329595 0.05335672 -0.37416053 -0.020435339 -0.57325244
integrer 0.015712725 0.09963197 0.0034153245 0.46631268 0.025771858 -0.03136966 0.036595292 0.24754192 -0.37467194 -0.2806207 0.28586087 -0.11242786 -0.013891159 -0.040127214 -0.115603104 -0.47299096 -0.21697377 0.044307962 0.4245542 0.96065027 -0.03877752 0.39170262 0.263557 0.1728506 -0.35222167 0.6092462 0.004623707 -0.48163816 0.014768076 -0.5999771
alimentation -0.029288009 0.14353493 -0.005696894 0.43543497 0.11349172 -0.15626787 -0.02720495 0.20421924 -0.4106735 -0.38975334 0.32963234 -0.07677845 0.064838685 -0.025710274 -0.11022817 -0.4275883 -0.20196927 -0.012382368 0.45216444 0.86716026 -0.050663013 0.2987395 0.3901485 0.12464657 -0.23324612 0.6418858 -0.07733611 -0.5260416 0.0418034 -0.66848594
haie 0.18453902 0.18025127 -0.018975392 0.39066142 -0.1094753 0.1322854 0.29740393 0.22911593 -0.35758093 -0.24819593 0.39741516 -0.0109293 0.07622546 0.053265795 -0.39256033 -0.68992996 -0.35877177 0.2876649 0.4925726 0.95261705 -0.18638359 0.23444466 0.12888353 0.25242046 -0.3028476 0.41358045 -0.08699936 -0.436429 -0.046189487 -0.5706969
manger -0.15111944 0.27075818 -0.077067874 0.3887311 0.20322636 -0.33073276 -0.030727899 0.16228361 -0.5368027 -0.5191195 0.43783268 0.031108841 0.12730639 0.03523605 0.02150986 -0.254756 -0.16028267 -0.17757456 0.3057716 0.79670125 -0.035636645 0.23894542 0.67896426 0.08615938 0.01864024 0.7389211 -0.20845121 -0.7437966 0.21634093 -0.72938484
fortement 0.012055716 0.12498458 -0.055273682 0.3967869 0.050555978 -0.13761269 0.050018337 0.2422598 -0.4988918 -0.36237478 0.3215699 -0.09353434 0.2854583 -0.17069305 -0.1430619 -0.28113714 -0.20375778 0.0167341 0.48262912 0.7075498 0.049069144 0.31995857 0.3324569 0.10606942 -0.27995715 0.5356931 -0.13609838 -0.61440486 0.086190216 -0.7592272
industrie -0.046329673 0.14457925 -0.08148999 0.4503509 0.10128807 -0.17778258 0.041487277 0.2532439 -0.4266799 -0.33351958 0.3415289 -0.06691813 0.20753658 -0.15990415 -0.15083125 -0.28913 -0.19849792 -0.026825648 0.4653895 0.7603056 0.016021285 0.28869262 0.36765125 0.13825427 -0.26007017 0.5480533 -0.107294604 -0.6181243 0.055692654 -0.7246787
emission 0.0686183 -0.00046627846 0.119353816 0.42374867 -0.055768292 -0.12402883 -0.03193921 0.29696566 -0.41267037 -0.4290849 0.26205975 -0.14720197 -0.10230876 0.0012070282 -0.04351687 -0.52534664 -0.2780614 0.02115836 0.5215519 0.97680926 -0.0033487629 0.4896054 0.26511344 0.26825905 -0.27436972 0.6872578 0.016790451 -0.4900547 -0.0153268445 -0.6108297
chauffage -0.00597546 0.112774804 -0.04278516 0.3970393 0.03546814 -0.05964333 0.05359961 0.22877468 -0.3043936 -0.36485767 0.30671343 -0.090081066 0.17957866 -0.17278978 -0.2513492 -0.42818084 -0.29147425 0.04313043 0.44124585 0.71841526 0.0027458244 0.32835522 0.20632443 0.19090581 -0.3240597 0.47426125 -0.1407267 -0.5608923 0.06356903 -0.7055113
campagne 0.107294776 0.14207013 -0.020402843 0.37011707 -0.08483902 0.04647014 0.1372326 0.33172256 -0.35454616 -0.3419701 0.30595654 -0.09628733 0.1055326 -0.13471164 -0.34457657 -0.652692 -0.2663262 0.20553726 0.4737937 0.8089959 -0.046015866 0.3161704 0.11937047 0.15675595 -0.31649458 0.5467327 -0.12750116 -0.4880684 -0.006439316 -0.62886703
rue 0.006226422 0.16583213 -0.085092515 0.481438 -0.05859302 -0.0074935127 0.22567992 0.29087132 -0.31242925 -0.22077984 0.40690756 0.0425155 0.12967323 -0.19631425 -0.38282642 -0.45465732 -0.24896273 0.1492633 0.52779627 0.8206564 -0.018798925 0.26073924 0.17025183 0.14291851 -0.44715852 0.4372768 -0.19256416 -0.5358518 0.11620606 -0.67323095
collectif 0.03247535 0.12681858 0.026723884 0.38916704 -0.03313567 -0.016776297 0.09432672 0.32249537 -0.3324651 -0.36828113 0.25064984 -0.14466797 0.044672012 -0.11530592 -0.26616552 -0.629238 -0.25176153 0.10235461 0.4425913 0.86201376 -0.08009148 0.36089924 0.21738236 0.1796631 -0.30465993 0.6128653 -0.04699436 -0.4863033 0.028264683 -0.62496424
importation -0.04749556 0.16650292 -0.06942114 0.40986052 0.13826464 -0.27499476 -0.042986467 0.18302846 -0.51933616 -0.41926762 0.328523 -0.041175727 0.22208272 -0.04570611 -0.036162063 -0.23371813 -0.18088132 -0.11621502 0.4383238 0.7278167 0.010516748 0.31201878 0.47563884 0.15197505 -0.15487114 0.62330496 -0.12002534 -0.63015527 0.079745404 -0.7332545
immeuble -0.011681552 0.113648534 0.007138594 0.35898465 -0.047756042 0.03489965 0.14889023 0.3179291 -0.25883096 -0.32666212 0.27006277 -0.1356831 0.10710384 -0.17550392 -0.3211622 -0.62824243 -0.3426558 0.11335709 0.46000007 0.8162971 -0.0991148 0.36537647 0.18159857 0.20815454 -0.3817834 0.5207428 -0.13101786 -0.57036936 0.006496398 -0.6357246
tva -0.04617174 0.13053364 -0.013935195 0.46815202 0.06957401 -0.2594118 -0.065617196 0.18461218 -0.5286624 -0.36589924 0.30898568 -0.018162718 0.15403914 0.01789782 -0.024885805 -0.2462607 -0.14349242 -0.088006616 0.41911396 0.8786988 0.011302674 0.33343992 0.51447016 0.12420252 -0.1801176 0.69921386 -0.028074514 -0.5823382 0.03158451 -0.7235461
marche 0.061991397 0.18598868 -0.110915296 0.39144066 0.06714191 -0.15590104 0.060652126 0.25884035 -0.5064774 -0.4071986 0.31023127 -0.0008747419 0.29541975 -0.12333884 -0.2600412 -0.3137287 -0.20075768 0.05080908 0.45192683 0.75018966 0.015765714 0.23751396 0.3326957 0.10971762 -0.17415377 0.5043935 -0.22835357 -0.623015 0.09976895 -0.78557235
poids 0.017248644 0.16249491 -0.026174664 0.49801427 -0.048520237 -0.14046419 0.08089395 0.23437992 -0.41989893 -0.35075977 0.30592006 -0.0053588226 0.12417102 -0.19748397 -0.20170407 -0.37190372 -0.11424058 0.057918202 0.4792467 0.81890935 0.026389794 0.32831198 0.24214062 0.12772138 -0.41737995 0.5461003 -0.14327998 -0.59292096 0.124572374 -0.6750095
camion 0.069027975 0.14094509 0.042382773 0.36551976 -0.04295202 -0.123855226 0.051051673 0.30622646 -0.46348834 -0.4589211 0.24648045 -0.13113898 0.18475202 -0.16615623 -0.20674591 -0.50830096 -0.22295535 0.060328353 0.47207996 0.7793451 0.03540387 0.3226596 0.23288618 0.16047497 -0.2710827 0.5868614 -0.11473324 -0.54688793 0.013649044 -0.710081
scolaire 0.09712625 0.1666823 0.03837629 0.4907322 0.050422158 -0.0129828 0.07845988 0.24617691 -0.32361194 -0.28288564 0.32303214 -0.1291101 -0.16367066 0.02843276 -0.0949248 -0.47292757 -0.16983768 0.0826107 0.42756048 1.0923686 -0.070135616 0.3810096 0.19445011 0.12516233 -0.41608074 0.64327013 0.078245975 -0.4271907 0.031220602 -0.56350017
trier -0.03724917 0.22104497 -0.19043286 0.5522562 0.046872303 -0.124309994 0.121119514 0.22073229 -0.3439501 -0.20684402 0.43409765 0.09039322 0.15933648 -0.16218229 -0.25871265 -0.23625302 -0.11643417 0.088392824 0.51570934 0.82848346 0.060450707 0.25671992 0.28262436 0.12349527 -0.48038638 0.46995702 -0.2006357 -0.6038984 0.22087878 -0.6811148
megot -0.055312853 0.2731207 -0.23999391 0.54693717 0.04907935 -0.07268926 0.18571933 0.20886639 -0.36819485 -0.16886051 0.45577362 0.18355557 0.24364172 -0.19726673 -0.3102679 -0.15806907 -0.18029422 0.12605321 0.5796357 0.7682601 0.07742971 0.1771395 0.24744074 0.11655199 -0.4798486 0.46088055 -0.2570833 -0.6302868 0.2288716 -0.77896917
financer 0.011726638 0.0711372 0.06224116 0.4316347 0.06359425 -0.01975961 0.0064338553 0.25459772 -0.3492337 -0.37278458 0.23672232 -0.11897039 0.045371104 -0.031983446 -0.12227599 -0.5458029 -0.25035253 0.055131447 0.43527573 0.89862436 -0.020842168 0.41325992 0.31004542 0.19426486 -0.3005688 0.6448406 -0.013518843 -0.47787416 0.0010743747 -0.62735635
francai -0.029893124 0.13798434 -0.04364816 0.41885126 0.101774 -0.18899222 -0.005356243 0.22358337 -0.42820147 -0.38741294 0.31921923 -0.016140277 0.13307859 -0.015804728 -0.067072324 -0.36079964 -0.21956797 -0.0581365 0.41151828 0.81481975 -0.012355552 0.32659632 0.43221337 0.12783098 -0.16622438 0.6477557 -0.07235745 -0.56966436 0.09614438 -0.6996502
sauvage 0.02312393 0.14014591 -0.029021347 0.44479766 0.0069286814 -0.019157678 0.07786108 0.2478588 -0.29550272 -0.31977075 0.30503756 -0.065796874 0.029401898 -0.058258902 -0.24837004 -0.5092374 -0.25645465 0.11825994 0.4363895 0.8583827 -0.08708076 0.32942092 0.23273525 0.14852248 -0.36202127 0.58948666 -0.08354972 -0.45131457 0.058832064 -0.5928528
kilomètre 0.13696273 0.048953902 0.100104906 0.34235469 -0.027191663 -0.03687574 -0.00906349 0.28310567 -0.37698588 -0.45619053 0.2555209 -0.15142049 0.021781588 -0.061129242 -0.22739856 -0.61703974 -0.3044664 0.10375071 0.55961293 0.8983935 -0.04069815 0.37673625 0.14290047 0.15302548 -0.28238443 0.57492375 -0.060564976 -0.44947273 -0.05595181 -0.60999244
long 0.15182886 0.103371724 0.0065759625 0.410329 -0.046717707 0.01762687 0.12661982 0.27597257 -0.36257783 -0.32056776 0.31891087 -0.09269553 0.036969982 0.0035954071 -0.3023339 -0.6317626 -0.27829126 0.18296164 0.4910837 0.9244722 -0.1183897 0.37936977 0.14771171 0.22257954 -0.31166285 0.5167101 -0.07391279 -0.45661741 -0.048831817 -0.6056458
teletravail 0.07805059 0.11944015 0.028624633 0.39269876 0.011215799 -0.066225365 0.06961863 0.3150462 -0.3981358 -0.4003269 0.25539967 -0.13493495 0.16688639 -0.09944424 -0.23180048 -0.5057442 -0.2236502 0.12147376 0.4506709 0.7985963 -0.0007201389 0.31418338 0.23388931 0.08109187 -0.26927078 0.554385 -0.11004817 -0.52286965 0.023055112 -0.6913573
toit -0.05373072 0.106153436 0.09410146 0.23868315 -0.026334275 0.08949752 0.208386 0.34314597 -0.072345294 -0.34860736 0.26130882 -0.19693345 -0.016088452 -0.17587116 -0.41712043 -0.91152513 -0.52002573 0.06926357 0.36135527 0.78922874 -0.22501495 0.4402837 0.2539793 0.3434854 -0.3972537 0.528457 -0.21363477 -0.69883275 0.057804376 -0.59477454
trajet 0.1611374 0.07032265 0.07532473 0.38268796 -0.03326353 -0.03845145 0.023657044 0.36640635 -0.4196494 -0.529431 0.23816487 -0.22606415 0.05064117 -0.09926114 -0.22055908 -0.67163295 -0.26956362 0.16501653 0.58212066 0.9026533 0.032455772 0.35424864 0.14621267 0.14100997 -0.23630701 0.61868876 -0.04429453 -0.45283705 -0.12759787 -0.6449001
carburant 0.053387813 0.081834875 0.057507697 0.40482277 0.05796995 -0.09933483 -0.046026107 0.25780138 -0.44477016 -0.45388058 0.21490008 -0.16300808 0.06902896 -0.07479142 -0.08160591 -0.46431032 -0.27300307 0.023065677 0.5028974 0.8048848 0.0023526058 0.42244995 0.283142 0.1806121 -0.2431132 0.6441798 -0.023008533 -0.5196175 -0.0059244214 -0.71007794
producteur -0.06683105 0.1969651 -0.06889915 0.4345098 0.14471778 -0.22937372 0.009720266 0.23431914 -0.5167504 -0.42686915 0.3799013 -0.0073601687 0.13091126 -0.00033299765 -0.057869997 -0.3173992 -0.17520738 -0.091877386 0.37512326 0.8295896 -0.02227281 0.25484538 0.58270216 0.098558165 -0.069045536 0.72788423 -0.118730575 -0.59682477 0.11362481 -0.73178667
reseau 0.10534368 0.13046946 -0.01178104 0.37160727 -0.00998533 -0.0006777607 0.10180067 0.33667582 -0.37454343 -0.3613292 0.22320813 -0.15002076 0.15842916 -0.122530706 -0.30205896 -0.5821311 -0.30139846 0.16590473 0.44777054 0.78296345 -0.0045470092 0.36881116 0.14320092 0.16258691 -0.306394 0.5503448 -0.136202 -0.4926413 -0.048241805 -0.7035741
gros 0.06708859 0.13477218 -0.024730016 0.43950993 0.01991644 -0.059483424 0.011189329 0.25358364 -0.3950227 -0.34328452 0.30600002 -0.09879382 0.08784335 -0.0727608 -0.12617837 -0.4070244 -0.23614918 0.061351612 0.4962091 0.840259 -0.016342804 0.34740046 0.28123552 0.14367981 -0.31413502 0.5934622 -0.039501037 -0.49532175 0.022916356 -0.6509678
trouver 0.01824972 0.16871239 -0.065573655 0.44933495 0.096309006 -0.08297879 0.07194959 0.24149218 -0.42832154 -0.34560445 0.39342242 -0.00027688983 0.26711297 -0.14401934 -0.2701041 -0.3123876 -0.21149054 0.041534867 0.46198878 0.7903701 0.0008292979 0.29406634 0.30219716 0.13118063 -0.30213207 0.47335783 -0.16859187 -0.6285414 0.09970721 -0.74619293
bus 0.24418874 0.11049896 0.08717591 0.33332253 -0.08039439 0.035368647 0.083864994 0.39815778 -0.38700327 -0.5083886 0.1717833 -0.23109944 0.07273835 -0.14483698 -0.34954754 -0.7658023 -0.32197115 0.26097414 0.5871028 0.8496426 -0.039047502 0.39994103 0.033906117 0.14064763 -0.24149646 0.55849653 -0.10240524 -0.4530755 -0.12546596 -0.65712565
empreinte 0.034375817 -0.041866772 0.100475214 0.39921463 -0.022713631 -0.27295616 -0.04668919 0.25255263 -0.5345285 -0.3730323 0.30817622 -0.1607664 -0.0946058 0.08257254 0.12995614 -0.36434227 -0.20762706 -0.003353552 0.4391476 1.0761089 0.0043032616 0.43352208 0.34502587 0.27172428 -0.2551575 0.85528696 0.0642804 -0.50894785 -0.012552513 -0.5196655
culture -0.03768999 0.18311854 -0.10778212 0.47044855 0.14429238 -0.11234353 0.050707243 0.18163949 -0.43767646 -0.3292025 0.3454276 -0.01708771 0.18874203 -0.0027485224 -0.153938 -0.36179888 -0.23824425 0.033350006 0.39886788 0.78834593 -0.050211087 0.21971409 0.39469638 0.13002646 -0.20354214 0.5633923 -0.15532202 -0.59615684 0.08791126 -0.6952511
logement 0.003962552 0.08432704 0.051764566 0.39400622 0.0030045228 0.016759362 0.07272151 0.28220955 -0.24927932 -0.33886003 0.24777563 -0.15906876 0.03576428 -0.099392116 -0.21498491 -0.5979082 -0.2858759 0.097853065 0.47203478 0.8643876 -0.054633018 0.36905804 0.20524451 0.20056188 -0.3651867 0.60295266 -0.054153193 -0.46343112 -0.009845511 -0.6038551
lumiere -0.066217564 0.038863175 0.0994506 0.32665196 -0.117132396 -0.01799565 0.18341456 0.29969984 -0.23471257 -0.4157294 0.42585704 -0.19284157 0.12088809 -0.20319173 -0.3498661 -0.64314175 -0.42644957 0.0046525765 0.44678867 0.7779377 -0.049604304 0.24281989 0.22502604 0.2062142 -0.33390316 0.5695375 -0.010527879 -0.42410648 -0.010099114 -0.6302088
amende 0.059918202 0.20827533 -0.10384328 0.49791762 -0.026337016 -0.036545895 0.16688232 0.21541277 -0.39143425 -0.21730356 0.35708937 0.11815171 0.19807243 -0.12233824 -0.2955226 -0.34036615 -0.2002474 0.13030547 0.48767796 0.85045165 0.032617923 0.26358303 0.25045642 0.15679759 -0.44541368 0.42819363 -0.18184325 -0.5742397 0.16069989 -0.7039385
venir -0.06356655 0.18597643 -0.11240217 0.42074424 0.14354178 -0.21571589 0.025897762 0.1978538 -0.5015123 -0.41968727 0.39646977 0.03729621 0.20095989 -0.052741572 -0.10013303 -0.28649563 -0.18437912 -0.07305323 0.43216115 0.8190258 -0.015335732 0.27931863 0.43046474 0.10705776 -0.15856487 0.5924863 -0.17618075 -0.6386995 0.13952039 -0.73863286
voie 0.10034644 0.09583169 0.02452766 0.40430713 -0.041411575 -0.01743231 0.070664 0.2764889 -0.30489337 -0.3478819 0.26436195 -0.15318142 0.05419497 -0.10707148 -0.26573217 -0.6241188 -0.3028936 0.12608147 0.5032601 0.86525327 -0.07165181 0.34377798 0.16879746 0.17587097 -0.3255157 0.579904 -0.0708599 -0.43877968 -0.03663761 -0.60811067
cours 0.066415764 0.16541214 -0.07391185 0.53450614 0.0401873 -0.025117613 0.10995837 0.2627524 -0.31754196 -0.21983989 0.34688923 -0.032649245 0.06462316 -0.116865054 -0.23151723 -0.4310033 -0.22698502 0.15399209 0.4455152 0.86380583 0.025314925 0.2848208 0.19878462 0.17660984 -0.4542293 0.55264705 -0.11258633 -0.52423465 0.08559583 -0.7077771
humain 0.052965518 0.115152024 -0.014608863 0.478706 0.061637033 -0.071073584 0.006347046 0.22105531 -0.38589013 -0.33178288 0.3364294 -0.13484752 -0.017779209 0.03268115 -0.12691268 -0.5040722 -0.22448279 0.06535202 0.4705798 0.9881293 -0.051658295 0.3624542 0.28136256 0.18936814 -0.32405564 0.61977124 -0.016531497 -0.4629578 0.023742463 -0.60291976
ex -0.008686855 0.16585858 -0.14306636 0.4532796 0.08057723 -0.07957826 0.11892341 0.21919064 -0.4837234 -0.29240808 0.39821237 -0.020988686 0.38784778 -0.16923983 -0.2934526 -0.25774848 -0.23380747 0.06878624 0.46410143 0.70975566 0.021487627 0.20694657 0.30064997 0.110566676 -0.33061138 0.43820056 -0.22053073 -0.66494495 0.14757043 -0.8025966
education 0.08547991 0.16541071 -0.0095687155 0.4899753 0.050788093 -0.017428951 0.061772805 0.26532742 -0.32841668 -0.27507728 0.28806272 -0.105945565 -0.095504045 -0.010322143 -0.1358441 -0.50186676 -0.19659951 0.08099381 0.44456744 1.0356439 -0.02047465 0.34027308 0.23932298 0.18158644 -0.4095682 0.602813 0.035718437 -0.44507894 0.050040144 -0.5857586
vrai 0.08530593 0.16648199 -0.03253423 0.4607158 0.005612932 -0.0022310317 0.08854951 0.24607736 -0.3942149 -0.26705095 0.31648085 -0.04443175 0.13371938 -0.09292234 -0.2503889 -0.4161147 -0.1910996 0.12435315 0.4171242 0.8637853 -0.0017414859 0.31069472 0.2405895 0.18175347 -0.35275894 0.5194147 -0.09335003 -0.5191737 0.083801016 -0.67577416
fossile 0.010331339 -0.0019268559 0.23079185 0.3561345 0.22812262 -0.038185827 -0.0721855 0.33635953 -0.33075568 -0.4166764 0.17485864 -0.24322543 0.02721226 -0.11611328 -0.1607804 -0.5697174 -0.33541587 -0.05749975 0.4208161 0.8037633 -0.00031620002 0.50715375 0.26063937 0.28642473 -0.2561606 0.6473561 -0.049646366 -0.5847087 0.0015485205 -0.72363627
supermarche -0.14643085 0.25395185 -0.22348386 0.40768385 0.20136142 -0.292641 0.12507969 0.18162489 -0.64737856 -0.38555095 0.50742674 0.12806898 0.48379263 -0.17300215 -0.2299947 -0.03991602 -0.18160841 -0.12178178 0.38811013 0.63785106 0.030465467 0.14425512 0.5837546 0.036895767 -0.10407714 0.459667 -0.3368892 -0.87675697 0.24184011 -0.926909
type 0.012034408 0.13701306 -0.09104305 0.45805714 0.07046986 -0.080158025 0.084860794 0.19902891 -0.44563705 -0.32203156 0.32912922 -0.022661457 0.22224633 -0.13538973 -0.22280027 -0.3452435 -0.20008785 0.06173633 0.47370723 0.7964169 0.021044437 0.27154332 0.2826275 0.13359675 -0.2737528 0.5136873 -0.14706463 -0.5842607 0.084450364 -0.710101
commercial -0.029046286 0.100113966 0.09972128 0.35870528 -0.037238445 0.077942595 0.20081422 0.36949956 -0.20067611 -0.40279803 0.3157771 -0.18589216 -0.013009243 -0.19384049 -0.38097745 -0.8014044 -0.4422468 0.07407591 0.44157767 0.8316973 -0.18302347 0.40037748 0.2446653 0.2548449 -0.39641058 0.5896528 -0.083430365 -0.5392451 0.008758124 -0.5880866
hydrogene 0.10261113 0.05212385 0.14762191 0.37508217 0.0385527 0.0042376583 -0.038613163 0.31090152 -0.32118466 -0.474771 0.18041308 -0.21930583 0.050799433 -0.13017641 -0.20991398 -0.7126571 -0.32024634 0.073308684 0.53036517 0.8328566 -0.033859007 0.4513914 0.17267859 0.23384441 -0.26393887 0.6227003 -0.03436366 -0.47926345 -0.081233926 -0.708275
beaucoup 0.03244635 0.138024 -0.050389513 0.42854112 0.06752415 -0.04915537 0.08877692 0.24030305 -0.38057235 -0.3551619 0.3569933 -0.047887463 0.14760147 -0.06728409 -0.22830266 -0.45625684 -0.27488586 0.06785902 0.49023786 0.8146653 -0.07173191 0.3015443 0.27554843 0.19653508 -0.27863282 0.510536 -0.14048009 -0.57053363 0.026265904 -0.6924539
mondial 0.048776507 0.117488354 0.011356432 0.44168347 0.0140964035 -0.06006251 0.034049813 0.24418035 -0.34175387 -0.3300617 0.29882684 -0.11161799 0.008570582 -0.031843472 -0.1637311 -0.4902129 -0.2445727 0.051220093 0.47750172 0.8795508 -0.017519657 0.34603947 0.21572213 0.1624617 -0.31524634 0.574631 -0.038474772 -0.4837321 0.031191539 -0.63913536
parc 0.046906315 0.10643814 0.04036104 0.3772513 -0.013249879 0.049730636 0.078788035 0.27151352 -0.2695433 -0.34887668 0.2639691 -0.11454465 -0.019080644 -0.0825491 -0.24570906 -0.6625556 -0.31810278 0.107100055 0.44402662 0.8651146 -0.12327836 0.38645303 0.17684326 0.25030166 -0.31530684 0.5992493 -0.020540709 -0.46497777 -0.042179007 -0.5845664
boite -0.039291862 0.14611453 -0.13256174 0.47711807 0.094552025 -0.10682351 0.10999524 0.20967156 -0.4245955 -0.24068826 0.40995744 0.018057851 0.28746715 -0.17128374 -0.2458739 -0.20874047 -0.24383655 0.046508677 0.45757017 0.71897596 0.05125429 0.18414679 0.2589442 0.087056905 -0.30426094 0.38179168 -0.20625338 -0.60163426 0.13814744 -0.76828164
collecte 0.002471591 0.23038764 -0.21638016 0.521185 0.03419926 -0.039819255 0.22173205 0.20269437 -0.4755166 -0.16610351 0.411186 0.1581043 0.42181706 -0.22798856 -0.40187734 -0.19539693 -0.12542324 0.1496809 0.42157653 0.71198976 0.07401311 0.18683052 0.26573342 0.103425756 -0.46035957 0.3680451 -0.3295302 -0.7059057 0.25769606 -0.862754
suremballage -0.11793649 0.19515209 -0.24526565 0.42424047 0.21881057 -0.3293801 0.069899306 0.15825723 -0.68221366 -0.34588042 0.4172397 0.03283006 0.5241114 -0.21068114 -0.15884177 0.007143744 -0.17590575 -0.12222357 0.4333769 0.57152796 0.09545686 0.121041626 0.5635647 0.016086224 -0.1325251 0.47114277 -0.2705578 -0.82230973 0.21241565 -0.9310866
alternative 0.021904908 0.16640958 -0.12174279 0.42337734 0.115542695 -0.141961 0.056949135 0.21851994 -0.49811018 -0.35735208 0.33124605 -0.045572896 0.28172272 -0.16436304 -0.21954492 -0.28750464 -0.19159804 0.03383155 0.4716812 0.7343981 0.043812845 0.2541875 0.35754395 0.05388265 -0.2501363 0.5101763 -0.12757681 -0.6106952 0.07808149 -0.78290904
baisser 0.020692877 0.1129653 0.036757085 0.38892 0.051451854 -0.118014395 0.023602674 0.26782295 -0.4171884 -0.36282912 0.26453492 -0.12039937 0.08106437 -0.07118679 -0.12987177 -0.436047 -0.24090594 -0.0052025854 0.48699325 0.8736402 -0.027781801 0.39030486 0.3295156 0.15969296 -0.22708324 0.6102284 -0.045406803 -0.5233472 -0.006923226 -0.6996029
cyclable 0.19466873 0.1356569 0.09322378 0.33407605 -0.13014127 0.06315571 0.19409464 0.40298793 -0.33135504 -0.41134384 0.17405027 -0.23178177 0.07867483 -0.07843255 -0.36448044 -0.7955995 -0.3120334 0.32978204 0.5851778 0.9335879 -0.06874773 0.39217567 0.030639155 0.14022164 -0.34520897 0.550029 -0.1708081 -0.40765315 -0.17559266 -0.60815805
societe 0.028353302 0.13152428 -0.013077184 0.445262 0.06695592 -0.07044382 0.050712228 0.24144289 -0.3945849 -0.33153424 0.3318425 -0.07718826 0.060351882 -0.05698981 -0.1456298 -0.411122 -0.22154209 0.056024257 0.4406752 0.8683305 -0.015164702 0.35824847 0.27435967 0.15294766 -0.32937622 0.56871086 -0.07531623 -0.5027117 0.070333555 -0.6490605
rien 0.0008422053 0.14939092 -0.06050452 0.48720658 0.0548898 -0.0449238 0.07728163 0.25666246 -0.3467097 -0.2751833 0.36147663 -0.016048832 0.078380585 -0.081408106 -0.20331782 -0.4205857 -0.22220922 0.059211187 0.5087204 0.88774556 0.00042692112 0.3062693 0.2281076 0.16027758 -0.38378617 0.53579766 -0.06968418 -0.5274781 0.082654655 -0.65417683
